<?xml version="1.0"?>
<opencv_storage>
<shapeML type_id="opencv-ml-ann-mlp">
  <layer_sizes type_id="opencv-matrix">
    <rows>1</rows>
    <cols>3</cols>
    <dt>i</dt>
    <data>
      1600 40 1</data></layer_sizes>
  <activation_function>SIGMOID_SYM</activation_function>
  <f_param1>5.9999999999999998e-01</f_param1>
  <f_param2>1.</f_param2>
  <min_val>-9.4999999999999996e-01</min_val>
  <max_val>9.4999999999999996e-01</max_val>
  <min_val1>-9.7999999999999998e-01</min_val1>
  <max_val1>9.7999999999999998e-01</max_val1>
  <training_params>
    <train_method>BACKPROP</train_method>
    <dw_scale>1.0000000000000001e-01</dw_scale>
    <moment_scale>1.0000000000000001e-01</moment_scale>
    <term_criteria><epsilon>9.9999999747524271e-07</epsilon>
      <iterations>4000</iterations></term_criteria></training_params>
  <input_scale>
    1. 0. 5.6285768083478828e-02 -7.0014004201400498e-02
    5.6285768083478828e-02 -7.0014004201400498e-02
    5.6285768083478828e-02 -7.0014004201400498e-02
    3.2657081384115577e-02 -1.2186666955535813e-01
    3.2657081384115577e-02 -1.2186666955535813e-01
    2.5422232169981088e-02 -1.5811388300841897e-01
    2.8352127696276989e-02 -1.4106912317171966e-01
    2.3265453222649547e-02 -1.7363972405196978e-01
    2.5422232169981088e-02 -1.5811388300841897e-01
    2.3265453222649547e-02 -1.7363972405196978e-01
    2.3265453222649547e-02 -1.7363972405196978e-01
    2.3265453222649547e-02 -1.7363972405196978e-01
    1.7402693568572138e-02 -2.3811978273095047e-01
    1.7402693568572138e-02 -2.3811978273095047e-01
    1.6091309573550421e-02 -2.6020824993326658e-01
    1.4619172385090994e-02 -2.9095718698132317e-01
    1.9140989729225021e-02 -2.1428571428571427e-01
    2.0250491761034328e-02 -2.0151708874395136e-01
    1.2932876242940814e-02 -3.3783196234608809e-01
    1.1252741641759816e-02 -4.0592207044299428e-01
    1.2425505577030706e-02 -3.5549068394773214e-01
    1.3856598228624697e-02 -3.1025261399701148e-01
    1.4619172385090994e-02 -2.9095718698132317e-01
    2.1593948709176854e-02 -1.8802535827258871e-01
    2.5422232169981088e-02 -1.5811388300841897e-01
    2.3265453222649547e-02 -1.7363972405196978e-01
    1.9140989729225021e-02 -2.1428571428571427e-01
    1.8205238588207225e-02 -2.2645540682891915e-01
    2.0250491761034328e-02 -2.0151708874395136e-01
    2.0250491761034328e-02 -2.0151708874395136e-01
    2.5422232169981088e-02 -1.5811388300841897e-01
    2.1593948709176854e-02 -1.8802535827258871e-01
    2.5422232169981088e-02 -1.5811388300841897e-01
    2.3265453222649547e-02 -1.7363972405196978e-01
    2.3265453222649547e-02 -1.7363972405196978e-01
    5.6285768083478828e-02 -7.0014004201400498e-02
    5.6285768083478828e-02 -7.0014004201400498e-02
    5.6285768083478828e-02 -7.0014004201400498e-02
    3.9897957541968766e-02 -9.9258333397093029e-02
    5.6285768083478828e-02 -7.0014004201400498e-02
    3.9897957541968766e-02 -9.9258333397093029e-02
    5.6285768083478828e-02 -7.0014004201400498e-02
    3.9897957541968766e-02 -9.9258333397093029e-02
    2.8352127696276989e-02 -1.4106912317171966e-01
    2.8352127696276989e-02 -1.4106912317171966e-01
    2.0250491761034328e-02 -2.0151708874395136e-01
    1.9140989729225021e-02 -2.1428571428571427e-01
    1.9140989729225021e-02 -2.1428571428571427e-01
    1.9140989729225021e-02 -2.1428571428571427e-01
    1.6091309573550421e-02 -2.6020824993326658e-01
    1.3856598228624697e-02 -3.1025261399701148e-01
    1.4220350316061874e-02 -3.0070838351282059e-01
    1.1984155173528285e-02 -3.7267799624996495e-01
    1.1095171738445696e-02 -4.1403933560541262e-01
    1.0196665620934058e-02 -4.6929531772445288e-01
    1.0422099084564212e-02 -4.5374260648651510e-01
    9.9914227078516053e-03 -4.8470584794919130e-01
    9.8039215686274508e-03 -5.0000000000000000e-01
    1.0543290356192805e-02 -4.4590403603995910e-01
    9.5515621163686556e-03 -5.2277330217393325e-01
    1.0196665620934058e-02 -4.6929531772445288e-01
    9.8955904512796899e-03 -4.9236596391733095e-01
    1.0422099084564212e-02 -4.5374260648651510e-01
    1.1596362888055252e-02 -3.8946809016712391e-01
    1.1784210486163824e-02 -3.8111861230861543e-01
    1.3523229176643160e-02 -3.1960997736993224e-01
    1.3523229176643160e-02 -3.1960997736993224e-01
    1.3523229176643160e-02 -3.1960997736993224e-01
    1.4220350316061874e-02 -3.0070838351282059e-01
    1.6704920113656221e-02 -2.4935149047701483e-01
    1.7402693568572138e-02 -2.3811978273095047e-01
    1.7402693568572138e-02 -2.3811978273095047e-01
    1.8205238588207225e-02 -2.2645540682891915e-01
    1.9140989729225021e-02 -2.1428571428571427e-01
    1.9140989729225021e-02 -2.1428571428571427e-01
    3.2657081384115577e-02 -1.2186666955535813e-01
    3.2657081384115577e-02 -1.2186666955535813e-01
    3.2657081384115577e-02 -1.2186666955535813e-01
    3.2657081384115577e-02 -1.2186666955535813e-01 1. 0.
    3.9897957541968766e-02 -9.9258333397093029e-02
    3.9897957541968766e-02 -9.9258333397093029e-02
    3.2657081384115577e-02 -1.2186666955535813e-01
    2.5422232169981088e-02 -1.5811388300841897e-01
    2.1593948709176854e-02 -1.8802535827258871e-01
    1.8205238588207225e-02 -2.2645540682891915e-01
    1.8205238588207225e-02 -2.2645540682891915e-01
    1.3523229176643160e-02 -3.1960997736993224e-01
    1.2932876242940814e-02 -3.3783196234608809e-01
    1.1984155173528285e-02 -3.7267799624996495e-01
    1.1784210486163824e-02 -3.8111861230861543e-01
    1.0946069708624983e-02 -4.2209112705697799e-01
    9.7161728713024541e-03 -5.0761078756902089e-01
    9.7161728713024541e-03 -5.0761078756902089e-01
    8.8508851706236829e-03 -6.0553007081949839e-01
    8.8508851706236829e-03 -6.0553007081949839e-01
    8.7527675532759960e-03 -6.2059256774081273e-01
    8.6189439075195270e-03 -6.4326752090267691e-01
    8.8508851706236829e-03 -6.0553007081949839e-01
    8.7064481195336246e-03 -6.2813837896537705e-01
    8.7527675532759960e-03 -6.2059256774081273e-01
    8.9028350528068331e-03 -5.9800994476658587e-01
    9.0712728938948124e-03 -5.7547270236635140e-01
    8.9028350528068331e-03 -5.9800994476658587e-01
    8.9568221719044331e-03 -5.9049488611360201e-01
    1.0196665620934058e-02 -4.6929531772445288e-01
    1.1095171738445696e-02 -4.1403933560541262e-01
    1.0946069708624983e-02 -4.2209112705697799e-01
    1.2425505577030706e-02 -3.5549068394773214e-01
    1.4619172385090994e-02 -2.9095718698132317e-01
    1.6091309573550421e-02 -2.6020824993326658e-01
    1.6091309573550421e-02 -2.6020824993326658e-01
    1.5546512456267727e-02 -2.7073682667744287e-01
    1.5546512456267727e-02 -2.7073682667744287e-01
    1.6091309573550421e-02 -2.6020824993326658e-01
    2.1593948709176854e-02 -1.8802535827258871e-01
    2.3265453222649547e-02 -1.7363972405196978e-01
    2.5422232169981088e-02 -1.5811388300841897e-01
    3.2657081384115577e-02 -1.2186666955535813e-01 1. 0.
    5.6285768083478828e-02 -7.0014004201400498e-02
    3.2657081384115577e-02 -1.2186666955535813e-01
    2.5422232169981088e-02 -1.5811388300841897e-01
    1.8205238588207225e-02 -2.2645540682891915e-01
    1.9140989729225021e-02 -2.1428571428571427e-01
    1.7402693568572138e-02 -2.3811978273095047e-01
    1.1984155173528285e-02 -3.7267799624996495e-01
    1.2197442299220875e-02 -3.6413827742064270e-01
    1.1095171738445696e-02 -4.1403933560541262e-01
    1.1784210486163824e-02 -3.8111861230861543e-01
    9.9914227078516053e-03 -4.8470584794919130e-01
    9.6321213536840408e-03 -5.1520102752753905e-01
    8.8008887844911680e-03 -6.1305703337821404e-01
    8.7064481195336246e-03 -6.2813837896537705e-01
    8.3933302734222615e-03 -6.8907194391071536e-01
    8.2419904520555209e-03 -7.2790847382665946e-01
    8.1416302059667319e-03 -7.5955452531275003e-01
    8.2152656597658819e-03 -7.3576720738195900e-01
    8.3933302734222615e-03 -6.8907194391071536e-01
    8.1896489286764351e-03 -7.4366007223078956e-01
    8.0977307659413217e-03 -7.7560460287442856e-01
    8.1191773757641784e-03 -7.6755930508443793e-01
    8.1191773757641784e-03 -7.6755930508443793e-01
    8.3291165777209745e-03 -7.0452137296430095e-01
    8.6618617327388851e-03 -6.3569614521490991e-01
    8.9028350528068331e-03 -5.9800994476658587e-01
    8.6618617327388851e-03 -6.3569614521490991e-01
    1.0306686777275012e-02 -4.6153846153846156e-01
    1.0670689608469537e-02 -4.3801879539156663e-01
    1.1095171738445696e-02 -4.1403933560541262e-01
    1.1984155173528285e-02 -3.7267799624996495e-01
    1.5546512456267727e-02 -2.7073682667744287e-01
    1.5546512456267727e-02 -2.7073682667744287e-01
    1.5546512456267727e-02 -2.7073682667744287e-01
    1.5058830696019394e-02 -2.8097574347450821e-01
    1.8205238588207225e-02 -2.2645540682891915e-01
    2.3265453222649547e-02 -1.7363972405196978e-01
    2.8352127696276989e-02 -1.4106912317171966e-01
    2.8352127696276989e-02 -1.4106912317171966e-01
    5.6285768083478828e-02 -7.0014004201400498e-02
    2.8352127696276989e-02 -1.4106912317171966e-01
    2.8352127696276989e-02 -1.4106912317171966e-01
    1.8205238588207225e-02 -2.2645540682891915e-01
    1.5058830696019394e-02 -2.8097574347450821e-01
    1.3856598228624697e-02 -3.1025261399701148e-01
    1.2425505577030706e-02 -3.5549068394773214e-01
    1.0804772820288865e-02 -4.3008266445637627e-01
    1.0543290356192805e-02 -4.4590403603995910e-01
    9.9914227078516053e-03 -4.8470584794919130e-01
    9.3290239533090555e-03 -5.4540659551419035e-01
    8.9568221719044331e-03 -5.9049488611360201e-01
    8.8008887844911680e-03 -6.1305703337821404e-01
    8.4273879030585599e-03 -6.8138514386924698e-01
    8.2698527430663648e-03 -7.2008229982309568e-01
    8.2988837499089942e-03 -7.1228711990072557e-01
    7.9228131488733294e-03 -8.6725818078398786e-01
    7.9600096592242452e-03 -8.4162541153017323e-01
    8.0577699190505919e-03 -7.9182329277694719e-01
    8.1191773757641784e-03 -7.6755930508443793e-01
    8.0392156862745100e-03 -8.0000000000000004e-01
    8.1416302059667319e-03 -7.5955452531275003e-01
    8.0577699190505919e-03 -7.9182329277694719e-01
    8.1191773757641784e-03 -7.6755930508443793e-01
    8.2152656597658819e-03 -7.3576720738195900e-01
    8.1191773757641784e-03 -7.6755930508443793e-01
    8.1896489286764351e-03 -7.4366007223078956e-01
    8.4273879030585599e-03 -6.8138514386924698e-01
    8.8508851706236829e-03 -6.0553007081949839e-01
    9.1319353741684938e-03 -5.6796183424706481e-01
    9.9914227078516053e-03 -4.8470584794919130e-01
    1.1252741641759816e-02 -4.0592207044299428e-01
    1.1984155173528285e-02 -3.7267799624996495e-01
    1.4220350316061874e-02 -3.0070838351282059e-01
    1.5058830696019394e-02 -2.8097574347450821e-01
    1.3523229176643160e-02 -3.1960997736993224e-01
    1.6091309573550421e-02 -2.6020824993326658e-01
    2.0250491761034328e-02 -2.0151708874395136e-01
    2.5422232169981088e-02 -1.5811388300841897e-01
    2.1593948709176854e-02 -1.8802535827258871e-01
    3.9897957541968766e-02 -9.9258333397093029e-02
    2.5422232169981088e-02 -1.5811388300841897e-01
    2.1593948709176854e-02 -1.8802535827258871e-01
    1.6704920113656221e-02 -2.4935149047701483e-01
    1.4220350316061874e-02 -3.0070838351282059e-01
    1.1784210486163824e-02 -3.8111861230861543e-01
    1.0946069708624983e-02 -4.2209112705697799e-01
    1.0091684086104346e-02 -4.7701667704561518e-01
    9.3290239533090555e-03 -5.4540659551419035e-01
    8.8508851706236829e-03 -6.0553007081949839e-01
    8.9028350528068331e-03 -5.9800994476658587e-01
    8.6189439075195270e-03 -6.4326752090267691e-01
    8.3605863373850346e-03 -6.9678350036206493e-01
    8.5378754910305863e-03 -6.5845761713752959e-01
    8.1651125008968851e-03 -7.5158864825328886e-01
    8.0392156862745100e-03 -8.0000000000000004e-01
    7.8439772260513602e-03 -1.0147428099262541e+00
    7.8477136990046832e-03 -9.6641723088474740e-01
    7.8432305717042253e-03 -9.9513379107330191e-01
    7.9228131488733294e-03 -8.6725818078398786e-01
    7.8770426148172638e-03 -9.1123934444093380e-01
    7.8770426148172638e-03 -9.1123934444093380e-01
    7.9600096592242452e-03 -8.4162541153017323e-01
    7.9467760513039516e-03 -8.5011121368339337e-01
    7.8770426148172638e-03 -9.1123934444093380e-01
    7.8929719386998509e-03 -8.9344592115868304e-01
    7.9021179115696498e-03 -8.8465173692938270e-01
    8.0977307659413217e-03 -7.7560460287442856e-01
    8.4628011675802143e-03 -6.7372153685321512e-01
    8.6189439075195270e-03 -6.4326752090267691e-01
    9.4743065453099518e-03 -5.3033008588991071e-01
    9.5515621163686556e-03 -5.2277330217393325e-01
    1.0543290356192805e-02 -4.4590403603995910e-01
    1.1252741641759816e-02 -4.0592207044299428e-01
    1.3216389175528722e-02 -3.2879797461071458e-01
    1.2670005264756095e-02 -3.4672550992820339e-01
    1.5058830696019394e-02 -2.8097574347450821e-01
    1.7402693568572138e-02 -2.3811978273095047e-01
    2.0250491761034328e-02 -2.0151708874395136e-01
    2.1593948709176854e-02 -1.8802535827258871e-01
    3.9897957541968766e-02 -9.9258333397093029e-02
    1.9140989729225021e-02 -2.1428571428571427e-01
    1.7402693568572138e-02 -2.3811978273095047e-01
    1.2932876242940814e-02 -3.3783196234608809e-01
    1.1596362888055252e-02 -3.8946809016712391e-01
    1.0946069708624983e-02 -4.2209112705697799e-01
    9.9914227078516053e-03 -4.8470584794919130e-01
    9.9914227078516053e-03 -4.8470584794919130e-01
    8.7064481195336246e-03 -6.2813837896537705e-01
    8.4996145972279728e-03 -6.6607955368032867e-01
    8.7064481195336246e-03 -6.2813837896537705e-01
    8.3291165777209745e-03 -7.0452137296430095e-01
    8.0772684833595506e-03 -7.8369204943425108e-01
    8.0215875632873319e-03 -8.0822385912048700e-01
    7.8702452231170939e-03 -9.2024281950300846e-01
    7.8439772260513602e-03 -9.8547138271684287e-01
    7.8432305717042270e-03 -1.0048900047112757e+00
    7.8477136990046832e-03 -1.0347497623614468e+00
    7.8642178469902971e-03 -1.0760551736979407e+00
    7.8770426148172638e-03 -1.0974065223374685e+00
    7.8507067249331056e-03 -1.0449099170234135e+00
    7.8544528275106256e-03 -9.4770678384622109e-01
    7.8642178469902971e-03 -9.2932037728458516e-01
    7.8507067249331073e-03 -9.5702029783452858e-01
    7.9021179115696498e-03 -8.8465173692938270e-01
    7.8439772260513602e-03 -9.8547138271684287e-01
    7.8439772260513602e-03 -9.8547138271684287e-01
    7.8846159677970606e-03 -9.0230775904643434e-01
    8.0392156862745100e-03 -8.0000000000000004e-01
    8.1191773757641784e-03 -7.6755930508443793e-01
    8.6189439075195270e-03 -6.4326752090267691e-01
    8.9028350528068331e-03 -5.9800994476658587e-01
    9.1319353741684938e-03 -5.6796183424706481e-01
    9.8955904512796899e-03 -4.9236596391733095e-01
    1.0804772820288865e-02 -4.3008266445637627e-01
    1.2197442299220875e-02 -3.6413827742064270e-01
    1.3856598228624697e-02 -3.1025261399701148e-01
    1.6091309573550421e-02 -2.6020824993326658e-01
    1.8205238588207225e-02 -2.2645540682891915e-01
    2.1593948709176854e-02 -1.8802535827258871e-01
    2.5422232169981088e-02 -1.5811388300841897e-01
    1.6704920113656221e-02 -2.4935149047701483e-01
    1.5058830696019394e-02 -2.8097574347450821e-01
    1.1419524793535578e-02 -3.9773369280899523e-01
    1.0422099084564212e-02 -4.5374260648651510e-01
    1.1252741641759816e-02 -4.0592207044299428e-01
    9.1319353741684938e-03 -5.6796183424706481e-01
    8.4996145972279728e-03 -6.6607955368032867e-01
    8.2698527430663648e-03 -7.2008229982309568e-01
    8.3605863373850346e-03 -6.9678350036206493e-01
    8.1896489286764351e-03 -7.4366007223078956e-01
    7.9120620162591183e-03 -8.7592315833658874e-01
    7.8770426148172638e-03 -9.1123934444093380e-01
    7.8439772260513602e-03 -9.8547138271684287e-01
    7.8432305717042270e-03 -1.0048900047112757e+00
    7.8439772260513602e-03 -1.0147428099262541e+00
    7.8507067249331056e-03 -1.0449099170234135e+00
    7.8477136990046832e-03 -1.0347497623614468e+00
    7.8846159677970606e-03 -1.1082693127418162e+00
    7.9120620162591165e-03 -1.1416526558094862e+00
    7.8929719386998509e-03 -1.1192619232097789e+00
    7.8642178469902971e-03 -1.0760551736979407e+00
    7.9228131488733276e-03 -1.1530591721787109e+00
    7.9228131488733276e-03 -1.1530591721787109e+00
    7.8929719386998509e-03 -1.1192619232097789e+00
    7.8439772260513602e-03 -9.8547138271684287e-01
    7.8432305717042253e-03 -9.9513379107330191e-01
    7.8507067249331073e-03 -9.5702029783452858e-01
    8.0048684404679018e-03 -8.1649658092772603e-01
    8.0577699190505919e-03 -7.9182329277694719e-01
    8.0577699190505919e-03 -7.9182329277694719e-01
    8.2419904520555209e-03 -7.2790847382665946e-01
    8.6189439075195270e-03 -6.4326752090267691e-01
    8.8008887844911680e-03 -6.1305703337821404e-01
    9.9914227078516053e-03 -4.8470584794919130e-01
    1.0543290356192805e-02 -4.4590403603995910e-01
    1.2670005264756095e-02 -3.4672550992820339e-01
    1.3856598228624697e-02 -3.1025261399701148e-01
    1.5546512456267727e-02 -2.7073682667744287e-01
    1.8205238588207225e-02 -2.2645540682891915e-01
    1.9140989729225021e-02 -2.1428571428571427e-01
    1.4619172385090994e-02 -2.9095718698132317e-01
    1.3216389175528722e-02 -3.2879797461071458e-01
    1.1984155173528285e-02 -3.7267799624996495e-01
    1.1095171738445696e-02 -4.1403933560541262e-01
    1.0091684086104346e-02 -4.7701667704561518e-01
    8.8008887844911680e-03 -6.1305703337821404e-01
    8.2698527430663648e-03 -7.2008229982309568e-01
    7.9890422714869597e-03 -8.2481990085864154e-01
    8.0392156862745100e-03 -8.0000000000000004e-01
    7.9343809943518712e-03 -8.5865484077900611e-01
    7.8432305717042253e-03 -9.9513379107330191e-01
    7.8439772260513602e-03 -9.8547138271684287e-01
    7.8454711746842858e-03 -9.7590007294853309e-01
    7.8477136990046832e-03 -9.6641723088474740e-01
    7.8454711746842858e-03 -1.0246950765959599e+00
    7.9021179115696498e-03 -1.1303883305208779e+00
    7.9343809943518712e-03 -1.1646123127807211e+00
    7.9120620162591165e-03 -1.1416526558094862e+00
    7.9120620162591165e-03 -1.1416526558094862e+00
    7.8544528275106256e-03 -1.0551786871689885e+00
    8.0215875632873319e-03 -1.2372809695177827e+00
    8.0772684833595506e-03 -1.2760114138224343e+00
    7.9740940282314494e-03 -1.2001983962979579e+00
    7.8642178469902971e-03 -1.0760551736979407e+00
    7.9890422714869579e-03 -1.2123858783705330e+00
    7.8702452231170939e-03 -1.0866697123918503e+00
    7.8477136990046832e-03 -9.6641723088474740e-01
    7.8642178469902971e-03 -9.2932037728458516e-01
    7.8846159677970606e-03 -9.0230775904643434e-01
    7.9467760513039516e-03 -8.5011121368339337e-01
    7.9228131488733294e-03 -8.6725818078398786e-01
    7.9740940282314512e-03 -8.3319558090106183e-01
    8.3933302734222615e-03 -6.8907194391071536e-01
    8.8508851706236829e-03 -6.0553007081949839e-01
    9.8039215686274508e-03 -5.0000000000000000e-01
    1.0670689608469537e-02 -4.3801879539156663e-01
    1.2425505577030706e-02 -3.5549068394773214e-01
    1.4220350316061874e-02 -3.0070838351282059e-01
    1.6704920113656221e-02 -2.4935149047701483e-01
    2.0250491761034328e-02 -2.0151708874395136e-01
    1.3856598228624697e-02 -3.1025261399701148e-01
    1.2932876242940814e-02 -3.3783196234608809e-01
    1.1252741641759816e-02 -4.0592207044299428e-01
    9.7161728713024541e-03 -5.0761078756902089e-01
    8.6189439075195270e-03 -6.4326752090267691e-01
    8.3933302734222615e-03 -6.8907194391071536e-01
    8.0392156862745100e-03 -8.0000000000000004e-01
    7.9021179115696498e-03 -8.8465173692938270e-01
    7.8702452231170939e-03 -9.2024281950300846e-01
    7.8439772260513602e-03 -9.8547138271684287e-01
    7.8454711746842858e-03 -9.7590007294853309e-01
    7.8439772260513602e-03 -9.8547138271684287e-01
    7.8477136990046832e-03 -1.0347497623614468e+00
    7.8642178469902971e-03 -1.0760551736979407e+00
    8.0048684404679018e-03 -1.2247448713915889e+00
    7.9890422714869579e-03 -1.2123858783705330e+00
    7.9467760513039516e-03 -1.1763166793991142e+00
    7.8589552370678366e-03 -1.0655593210453684e+00
    7.9021179115696498e-03 -1.1303883305208779e+00
    8.0048684404679018e-03 -1.2247448713915889e+00
    8.1191773757641802e-03 -1.3028309257354278e+00
    8.3291165777209745e-03 -1.4194033543545475e+00
    8.0772684833595506e-03 -1.2760114138224343e+00
    8.1191773757641802e-03 -1.3028309257354278e+00
    8.0977307659413217e-03 -1.2893167424406085e+00
    7.9120620162591165e-03 -1.1416526558094862e+00
    7.9740940282314494e-03 -1.2001983962979579e+00
    7.8589552370678366e-03 -1.0655593210453684e+00
    7.8432305717042270e-03 -1.0048900047112757e+00
    7.8454711746842858e-03 -9.7590007294853309e-01
    7.8770426148172638e-03 -9.1123934444093380e-01
    7.9228131488733294e-03 -8.6725818078398786e-01
    8.0772684833595506e-03 -7.8369204943425108e-01
    8.3605863373850346e-03 -6.9678350036206493e-01
    8.9028350528068331e-03 -5.9800994476658587e-01
    9.8955904512796899e-03 -4.9236596391733095e-01
    1.1419524793535578e-02 -3.9773369280899523e-01
    1.3856598228624697e-02 -3.1025261399701148e-01
    1.5546512456267727e-02 -2.7073682667744287e-01
    1.8205238588207225e-02 -2.2645540682891915e-01
    1.3216389175528722e-02 -3.2879797461071458e-01
    1.1596362888055252e-02 -3.8946809016712391e-01
    9.7161728713024541e-03 -5.0761078756902089e-01
    8.5378754910305863e-03 -6.5845761713752959e-01
    8.3605863373850346e-03 -6.9678350036206493e-01
    8.2988837499089942e-03 -7.1228711990072557e-01
    8.0577699190505919e-03 -7.9182329277694719e-01
    8.0048684404679018e-03 -8.1649658092772603e-01
    7.8439772260513602e-03 -9.8547138271684287e-01
    7.8929719386998509e-03 -1.1192619232097789e+00
    7.8544528275106256e-03 -1.0551786871689885e+00
    7.8544528275106256e-03 -1.0551786871689885e+00
    7.9021179115696498e-03 -1.1303883305208779e+00
    7.9467760513039516e-03 -1.1763166793991142e+00
    8.1416302059667319e-03 -1.3165611772087666e+00
    8.2419904520555226e-03 -1.3737990914474987e+00
    7.9740940282314494e-03 -1.2001983962979579e+00
    7.9120620162591165e-03 -1.1416526558094862e+00
    8.0977307659413217e-03 -1.2893167424406085e+00
    8.1651125008968851e-03 -1.3305150394754168e+00
    8.1191773757641802e-03 -1.3028309257354278e+00
    8.5378754910305863e-03 -1.5187006330752699e+00
    8.2698527430663648e-03 -1.3887301496588274e+00
    8.1896489286764351e-03 -1.3447004045817015e+00
    8.1416302059667319e-03 -1.3165611772087666e+00
    8.1651125008968851e-03 -1.3305150394754168e+00
    8.3605863373850346e-03 -1.4351660156711188e+00
    8.0392156862745100e-03 -1.2500000000000002e+00
    8.1191773757641802e-03 -1.3028309257354278e+00
    7.9021179115696498e-03 -1.1303883305208779e+00
    7.8432305717042253e-03 -9.9513379107330191e-01
    7.8589552370678366e-03 -9.3847426440693005e-01
    7.9343809943518712e-03 -8.5865484077900611e-01
    7.9890422714869597e-03 -8.2481990085864154e-01
    8.3605863373850346e-03 -6.9678350036206493e-01
    9.3290239533090555e-03 -5.4540659551419035e-01
    1.0946069708624983e-02 -4.2209112705697799e-01
    1.2425505577030706e-02 -3.5549068394773214e-01
    1.4619172385090994e-02 -2.9095718698132317e-01
    2.0250491761034328e-02 -2.0151708874395136e-01
    1.2670005264756095e-02 -3.4672550992820339e-01
    1.0670689608469537e-02 -4.3801879539156663e-01
    8.6189439075195270e-03 -6.4326752090267691e-01
    8.2419904520555209e-03 -7.2790847382665946e-01
    8.2988837499089942e-03 -7.1228711990072557e-01
    8.1651125008968851e-03 -7.5158864825328886e-01
    7.9343809943518712e-03 -8.5865484077900611e-01
    7.8642178469902971e-03 -9.2932037728458516e-01
    7.8507067249331056e-03 -1.0449099170234135e+00
    7.8846159677970606e-03 -1.1082693127418162e+00
    7.8770426148172638e-03 -1.0974065223374685e+00
    7.8454711746842858e-03 -1.0246950765959599e+00
    7.8589552370678366e-03 -1.0655593210453684e+00
    7.9740940282314494e-03 -1.2001983962979579e+00
    8.2698527430663648e-03 -1.3887301496588274e+00
    8.2419904520555226e-03 -1.3737990914474987e+00
    8.0577699190505902e-03 -1.2629080365809533e+00
    8.1416302059667319e-03 -1.3165611772087666e+00
    8.1896489286764351e-03 -1.3447004045817015e+00
    8.1191773757641802e-03 -1.3028309257354278e+00
    8.1651125008968851e-03 -1.3305150394754168e+00
    8.1416302059667319e-03 -1.3165611772087666e+00
    8.2152656597658819e-03 -1.3591255358583409e+00
    8.0772684833595506e-03 -1.2760114138224343e+00
    8.1191773757641802e-03 -1.3028309257354278e+00
    8.3291165777209745e-03 -1.4194033543545475e+00
    8.6189439075195270e-03 -1.5545631755148026e+00
    8.6189439075195270e-03 -1.5545631755148026e+00
    8.4996145972279745e-03 -1.5013221686128047e+00
    8.1416302059667319e-03 -1.3165611772087666e+00
    7.9120620162591165e-03 -1.1416526558094862e+00
    7.8929719386998509e-03 -1.1192619232097789e+00
    7.8439772260513602e-03 -1.0147428099262541e+00
    7.8702452231170939e-03 -9.2024281950300846e-01
    8.0048684404679018e-03 -8.1649658092772603e-01
    8.8508851706236829e-03 -6.0553007081949839e-01
    9.8955904512796899e-03 -4.9236596391733095e-01
    1.2932876242940814e-02 -3.3783196234608809e-01
    1.5546512456267727e-02 -2.7073682667744287e-01
    1.9140989729225021e-02 -2.1428571428571427e-01
    1.2670005264756095e-02 -3.4672550992820339e-01
    1.0196665620934058e-02 -4.6929531772445288e-01
    8.6618617327388851e-03 -6.3569614521490991e-01
    8.0772684833595506e-03 -7.8369204943425108e-01
    7.9120620162591183e-03 -8.7592315833658874e-01
    7.8589552370678366e-03 -9.3847426440693005e-01
    7.8702452231170939e-03 -9.2024281950300846e-01
    7.8432305717042253e-03 -9.9513379107330191e-01
    7.8846159677970606e-03 -1.1082693127418162e+00
    7.8507067249331056e-03 -1.0449099170234135e+00
    7.9021179115696498e-03 -1.1303883305208779e+00
    7.8929719386998509e-03 -1.1192619232097789e+00
    8.0048684404679018e-03 -1.2247448713915889e+00
    8.3933302734222632e-03 -1.4512272758119615e+00
    8.4628011675802143e-03 -1.4842927608797394e+00
    8.2988837499089942e-03 -1.4039282363260679e+00
    8.2698527430663648e-03 -1.3887301496588274e+00
    8.4273879030585617e-03 -1.4675987714106862e+00
    8.3291165777209745e-03 -1.4194033543545475e+00
    8.2419904520555226e-03 -1.3737990914474987e+00
    8.2152656597658819e-03 -1.3591255358583409e+00
    8.1651125008968851e-03 -1.3305150394754168e+00
    8.3605863373850346e-03 -1.4351660156711188e+00
    8.2419904520555226e-03 -1.3737990914474987e+00
    8.3605863373850346e-03 -1.4351660156711188e+00
    9.1950340420288140e-03 -1.7842851423995427e+00
    9.0712728938948124e-03 -1.7377018855768258e+00
    8.9028350528068349e-03 -1.6722129936991570e+00
    8.2152656597658819e-03 -1.3591255358583409e+00
    8.1416302059667319e-03 -1.3165611772087666e+00
    7.9890422714869579e-03 -1.2123858783705330e+00
    7.9343809943518712e-03 -1.1646123127807211e+00
    7.9228131488733276e-03 -1.1530591721787109e+00
    7.8507067249331056e-03 -1.0449099170234135e+00
    7.9343809943518712e-03 -8.5865484077900611e-01
    8.2698527430663648e-03 -7.2008229982309568e-01
    9.4743065453099518e-03 -5.3033008588991071e-01
    1.2670005264756095e-02 -3.4672550992820339e-01
    1.6091309573550421e-02 -2.6020824993326658e-01
    1.7402693568572138e-02 -2.3811978273095047e-01
    1.1252741641759816e-02 -4.0592207044299428e-01
    9.0129361287087616e-03 -5.8298308813013744e-01
    8.4628011675802143e-03 -6.7372153685321512e-01
    7.9467760513039516e-03 -8.5011121368339337e-01
    7.8454711746842858e-03 -9.7590007294853309e-01
    7.8477136990046832e-03 -1.0347497623614468e+00
    7.8642178469902971e-03 -1.0760551736979407e+00
    7.9228131488733276e-03 -1.1530591721787109e+00
    7.9021179115696498e-03 -1.1303883305208779e+00
    7.9343809943518712e-03 -1.1646123127807211e+00
    7.9467760513039516e-03 -1.1763166793991142e+00
    8.0977307659413217e-03 -1.2893167424406085e+00
    8.2152656597658819e-03 -1.3591255358583409e+00
    8.2152656597658819e-03 -1.3591255358583409e+00
    8.3291165777209745e-03 -1.4194033543545475e+00
    8.2152656597658819e-03 -1.3591255358583409e+00
    8.2419904520555226e-03 -1.3737990914474987e+00
    8.4996145972279745e-03 -1.5013221686128047e+00
    8.3933302734222632e-03 -1.4512272758119615e+00
    8.4273879030585617e-03 -1.4675987714106862e+00
    8.2419904520555226e-03 -1.3737990914474987e+00
    8.2698527430663648e-03 -1.3887301496588274e+00
    8.7064481195336229e-03 -1.5920058915156967e+00
    8.7064481195336229e-03 -1.5920058915156967e+00
    8.9028350528068349e-03 -1.6722129936991570e+00
    9.4743065453099518e-03 -1.8856180831641269e+00
    9.0712728938948124e-03 -1.7377018855768258e+00
    8.8008887844911662e-03 -1.6311696066670336e+00
    8.4628011675802143e-03 -1.4842927608797394e+00
    8.1896489286764351e-03 -1.3447004045817015e+00
    8.0977307659413217e-03 -1.2893167424406085e+00
    7.9228131488733276e-03 -1.1530591721787109e+00
    7.8439772260513602e-03 -1.0147428099262541e+00
    7.8477136990046832e-03 -1.0347497623614468e+00
    7.8770426148172638e-03 -9.1123934444093380e-01
    8.3933302734222615e-03 -6.8907194391071536e-01
    9.0712728938948124e-03 -5.7547270236635140e-01
    9.7161728713024541e-03 -5.0761078756902089e-01
    1.3856598228624697e-02 -3.1025261399701148e-01
    1.3216389175528722e-02 -3.2879797461071458e-01
    9.9914227078516053e-03 -4.8470584794919130e-01
    8.9028350528068331e-03 -5.9800994476658587e-01
    8.2152656597658819e-03 -7.3576720738195900e-01
    7.8544528275106256e-03 -9.4770678384622109e-01
    7.8432305717042270e-03 -1.0048900047112757e+00
    7.8929719386998509e-03 -1.1192619232097789e+00
    7.9740940282314494e-03 -1.2001983962979579e+00
    7.9740940282314494e-03 -1.2001983962979579e+00
    7.9890422714869579e-03 -1.2123858783705330e+00
    8.0772684833595506e-03 -1.2760114138224343e+00
    8.0772684833595506e-03 -1.2760114138224343e+00
    8.3933302734222632e-03 -1.4512272758119615e+00
    8.4628011675802143e-03 -1.4842927608797394e+00
    8.4273879030585617e-03 -1.4675987714106862e+00
    8.1416302059667319e-03 -1.3165611772087666e+00
    8.2419904520555226e-03 -1.3737990914474987e+00
    8.2988837499089942e-03 -1.4039282363260679e+00
    8.3291165777209745e-03 -1.4194033543545475e+00
    8.2698527430663648e-03 -1.3887301496588274e+00
    8.1191773757641802e-03 -1.3028309257354278e+00
    8.0977307659413217e-03 -1.2893167424406085e+00
    8.2698527430663648e-03 -1.3887301496588274e+00
    8.4628011675802143e-03 -1.4842927608797394e+00
    8.4996145972279745e-03 -1.5013221686128047e+00
    9.0712728938948124e-03 -1.7377018855768258e+00
    8.9028350528068349e-03 -1.6722129936991570e+00
    8.7527675532759926e-03 -1.6113631583445656e+00
    8.9028350528068349e-03 -1.6722129936991570e+00
    8.7527675532759926e-03 -1.6113631583445656e+00
    8.7527675532759926e-03 -1.6113631583445656e+00
    8.4273879030585617e-03 -1.4675987714106862e+00
    8.1191773757641802e-03 -1.3028309257354278e+00
    7.8846159677970606e-03 -1.1082693127418162e+00
    7.8432305717042253e-03 -9.9513379107330191e-01
    7.8454711746842858e-03 -9.7590007294853309e-01
    8.0392156862745100e-03 -8.0000000000000004e-01
    8.7064481195336246e-03 -6.2813837896537705e-01
    9.4001807104530915e-03 -5.3787375479812083e-01
    1.2197442299220875e-02 -3.6413827742064270e-01
    1.3523229176643160e-02 -3.1960997736993224e-01
    1.0091684086104346e-02 -4.7701667704561518e-01
    8.3605863373850346e-03 -6.9678350036206493e-01
    8.0772684833595506e-03 -7.8369204943425108e-01
    7.8477136990046832e-03 -1.0347497623614468e+00
    7.8642178469902971e-03 -1.0760551736979407e+00
    7.9467760513039516e-03 -1.1763166793991142e+00
    8.1416302059667319e-03 -1.3165611772087666e+00
    8.1651125008968851e-03 -1.3305150394754168e+00
    8.0215875632873319e-03 -1.2372809695177827e+00
    8.1191773757641802e-03 -1.3028309257354278e+00
    8.1416302059667319e-03 -1.3165611772087666e+00
    8.2698527430663648e-03 -1.3887301496588274e+00
    8.2419904520555226e-03 -1.3737990914474987e+00
    8.2988837499089942e-03 -1.4039282363260679e+00
    8.2698527430663648e-03 -1.3887301496588274e+00
    8.2988837499089942e-03 -1.4039282363260679e+00
    8.1416302059667319e-03 -1.3165611772087666e+00
    8.3605863373850346e-03 -1.4351660156711188e+00
    8.3933302734222632e-03 -1.4512272758119615e+00
    8.2419904520555226e-03 -1.3737990914474987e+00
    8.2152656597658819e-03 -1.3591255358583409e+00
    8.3605863373850346e-03 -1.4351660156711188e+00
    8.4996145972279745e-03 -1.5013221686128047e+00
    8.7064481195336229e-03 -1.5920058915156967e+00
    8.7527675532759926e-03 -1.6113631583445656e+00
    9.0712728938948124e-03 -1.7377018855768258e+00
    9.0712728938948124e-03 -1.7377018855768258e+00
    8.4628011675802143e-03 -1.4842927608797394e+00
    8.7064481195336229e-03 -1.5920058915156967e+00
    8.6189439075195270e-03 -1.5545631755148026e+00
    8.4273879030585617e-03 -1.4675987714106862e+00
    8.2988837499089942e-03 -1.4039282363260679e+00
    8.0215875632873319e-03 -1.2372809695177827e+00
    7.8770426148172638e-03 -1.0974065223374685e+00
    7.8454711746842858e-03 -1.0246950765959599e+00
    7.9120620162591183e-03 -8.7592315833658874e-01
    8.1896489286764351e-03 -7.4366007223078956e-01
    9.2606876377194849e-03 -5.5293081310090975e-01
    1.1252741641759816e-02 -4.0592207044299428e-01
    1.3523229176643160e-02 -3.1960997736993224e-01
    9.5515621163686556e-03 -5.2277330217393325e-01
    8.4273879030585599e-03 -6.8138514386924698e-01
    7.9740940282314512e-03 -8.3319558090106183e-01
    7.8454711746842858e-03 -1.0246950765959599e+00
    7.8929719386998509e-03 -1.1192619232097789e+00
    7.9890422714869579e-03 -1.2123858783705330e+00
    8.3291165777209745e-03 -1.4194033543545475e+00
    8.4273879030585617e-03 -1.4675987714106862e+00
    8.2988837499089942e-03 -1.4039282363260679e+00
    8.4996145972279745e-03 -1.5013221686128047e+00
    8.3291165777209745e-03 -1.4194033543545475e+00
    8.2988837499089942e-03 -1.4039282363260679e+00
    8.4996145972279745e-03 -1.5013221686128047e+00
    8.2419904520555226e-03 -1.3737990914474987e+00
    8.1651125008968851e-03 -1.3305150394754168e+00
    8.2419904520555226e-03 -1.3737990914474987e+00
    8.0772684833595506e-03 -1.2760114138224343e+00
    8.2152656597658819e-03 -1.3591255358583409e+00
    8.1896489286764351e-03 -1.3447004045817015e+00
    8.2152656597658819e-03 -1.3591255358583409e+00
    8.3605863373850346e-03 -1.4351660156711188e+00
    8.3291165777209745e-03 -1.4194033543545475e+00
    8.4996145972279745e-03 -1.5013221686128047e+00
    8.4628011675802143e-03 -1.4842927608797394e+00
    8.4996145972279745e-03 -1.5013221686128047e+00
    8.6189439075195270e-03 -1.5545631755148026e+00
    8.9568221719044314e-03 -1.6934947677220280e+00
    9.1319353741684921e-03 -1.7606816861659007e+00
    9.0712728938948124e-03 -1.7377018855768258e+00
    8.7064481195336229e-03 -1.5920058915156967e+00
    8.4996145972279745e-03 -1.5013221686128047e+00
    8.3605863373850346e-03 -1.4351660156711188e+00
    8.0977307659413217e-03 -1.2893167424406085e+00
    7.9343809943518712e-03 -1.1646123127807211e+00
    7.8770426148172638e-03 -1.0974065223374685e+00
    7.8454711746842858e-03 -9.7590007294853309e-01
    8.1651125008968851e-03 -7.5158864825328886e-01
    9.0712728938948124e-03 -5.7547270236635140e-01
    1.0306686777275012e-02 -4.6153846153846156e-01
    1.2670005264756095e-02 -3.4672550992820339e-01
    9.4001807104530915e-03 -5.3787375479812083e-01
    8.2988837499089942e-03 -7.1228711990072557e-01
    7.9120620162591183e-03 -8.7592315833658874e-01
    7.8642178469902971e-03 -1.0760551736979407e+00
    7.9228131488733276e-03 -1.1530591721787109e+00
    7.9740940282314494e-03 -1.2001983962979579e+00
    8.1651125008968851e-03 -1.3305150394754168e+00
    8.4273879030585617e-03 -1.4675987714106862e+00
    8.4273879030585617e-03 -1.4675987714106862e+00
    8.9028350528068349e-03 -1.6722129936991570e+00
    8.9568221719044314e-03 -1.6934947677220280e+00
    8.6189439075195270e-03 -1.5545631755148026e+00
    8.5776341131515270e-03 -1.5364425591947517e+00
    8.6189439075195270e-03 -1.5545631755148026e+00
    8.3605863373850346e-03 -1.4351660156711188e+00
    8.2698527430663648e-03 -1.3887301496588274e+00
    8.0977307659413217e-03 -1.2893167424406085e+00
    8.1416302059667319e-03 -1.3165611772087666e+00
    8.2988837499089942e-03 -1.4039282363260679e+00
    8.1651125008968851e-03 -1.3305150394754168e+00
    8.1416302059667319e-03 -1.3165611772087666e+00
    8.2698527430663648e-03 -1.3887301496588274e+00
    8.3933302734222632e-03 -1.4512272758119615e+00
    8.5378754910305863e-03 -1.5187006330752699e+00
    8.5378754910305863e-03 -1.5187006330752699e+00
    8.5776341131515270e-03 -1.5364425591947517e+00
    8.8508851706236829e-03 -1.6514456476895409e+00
    9.1319353741684921e-03 -1.7606816861659007e+00
    8.9028350528068349e-03 -1.6722129936991570e+00
    9.2606876377194815e-03 -1.8085445345175581e+00
    9.0129361287087598e-03 -1.7153156246905963e+00
    8.7527675532759926e-03 -1.6113631583445656e+00
    8.3933302734222632e-03 -1.4512272758119615e+00
    8.2152656597658819e-03 -1.3591255358583409e+00
    7.9228131488733276e-03 -1.1530591721787109e+00
    7.8507067249331056e-03 -1.0449099170234135e+00
    8.0392156862745100e-03 -8.0000000000000004e-01
    8.9568221719044331e-03 -5.9049488611360201e-01
    9.8955904512796899e-03 -4.9236596391733095e-01
    1.2932876242940814e-02 -3.3783196234608809e-01
    9.8955904512796899e-03 -4.9236596391733095e-01
    8.3605863373850346e-03 -6.9678350036206493e-01
    8.0215875632873319e-03 -8.0822385912048700e-01
    7.8439772260513602e-03 -9.8547138271684287e-01
    7.8846159677970606e-03 -1.1082693127418162e+00
    8.0577699190505902e-03 -1.2629080365809533e+00
    8.0577699190505902e-03 -1.2629080365809533e+00
    8.4273879030585617e-03 -1.4675987714106862e+00
    8.3605863373850346e-03 -1.4351660156711188e+00
    8.6189439075195270e-03 -1.5545631755148026e+00
    9.0712728938948124e-03 -1.7377018855768258e+00
    8.7064481195336229e-03 -1.5920058915156967e+00
    8.6189439075195270e-03 -1.5545631755148026e+00
    8.5776341131515270e-03 -1.5364425591947517e+00
    8.2698527430663648e-03 -1.3887301496588274e+00
    8.3605863373850346e-03 -1.4351660156711188e+00
    8.2988837499089942e-03 -1.4039282363260679e+00
    8.1416302059667319e-03 -1.3165611772087666e+00
    8.2152656597658819e-03 -1.3591255358583409e+00
    8.2152656597658819e-03 -1.3591255358583409e+00
    8.2419904520555226e-03 -1.3737990914474987e+00
    8.2419904520555226e-03 -1.3737990914474987e+00
    8.3605863373850346e-03 -1.4351660156711188e+00
    8.5378754910305863e-03 -1.5187006330752699e+00
    8.2419904520555226e-03 -1.3737990914474987e+00
    8.3605863373850346e-03 -1.4351660156711188e+00
    8.4628011675802143e-03 -1.4842927608797394e+00
    8.5776341131515270e-03 -1.5364425591947517e+00
    8.5378754910305863e-03 -1.5187006330752699e+00
    8.9568221719044314e-03 -1.6934947677220280e+00
    8.7064481195336229e-03 -1.5920058915156967e+00
    8.9028350528068349e-03 -1.6722129936991570e+00
    8.5776341131515270e-03 -1.5364425591947517e+00
    8.2152656597658819e-03 -1.3591255358583409e+00
    8.0392156862745100e-03 -1.2500000000000002e+00
    7.8544528275106256e-03 -1.0551786871689885e+00
    7.9740940282314512e-03 -8.3319558090106183e-01
    8.9568221719044331e-03 -5.9049488611360201e-01
    9.4743065453099518e-03 -5.3033008588991071e-01
    1.3216389175528722e-02 -3.2879797461071458e-01
    9.8955904512796899e-03 -4.9236596391733095e-01
    8.4628011675802143e-03 -6.7372153685321512e-01
    7.9343809943518712e-03 -8.5865484077900611e-01
    7.8432305717042270e-03 -1.0048900047112757e+00
    7.8846159677970606e-03 -1.1082693127418162e+00
    8.0392156862745100e-03 -1.2500000000000002e+00
    8.2698527430663648e-03 -1.3887301496588274e+00
    8.2988837499089942e-03 -1.4039282363260679e+00
    8.3605863373850346e-03 -1.4351660156711188e+00
    8.7527675532759926e-03 -1.6113631583445656e+00
    8.9568221719044314e-03 -1.6934947677220280e+00
    8.8508851706236829e-03 -1.6514456476895409e+00
    8.5378754910305863e-03 -1.5187006330752699e+00
    8.6618617327388868e-03 -1.5730785966335064e+00
    8.4628011675802143e-03 -1.4842927608797394e+00
    8.2988837499089942e-03 -1.4039282363260679e+00
    8.1896489286764351e-03 -1.3447004045817015e+00
    8.4273879030585617e-03 -1.4675987714106862e+00
    8.3933302734222632e-03 -1.4512272758119615e+00
    8.2988837499089942e-03 -1.4039282363260679e+00
    8.2988837499089942e-03 -1.4039282363260679e+00
    8.1896489286764351e-03 -1.3447004045817015e+00
    8.3933302734222632e-03 -1.4512272758119615e+00
    8.3933302734222632e-03 -1.4512272758119615e+00
    8.2698527430663648e-03 -1.3887301496588274e+00
    8.5776341131515270e-03 -1.5364425591947517e+00
    8.6189439075195270e-03 -1.5545631755148026e+00
    8.5378754910305863e-03 -1.5187006330752699e+00
    9.0129361287087598e-03 -1.7153156246905963e+00
    8.8008887844911662e-03 -1.6311696066670336e+00
    8.5378754910305863e-03 -1.5187006330752699e+00
    8.5378754910305863e-03 -1.5187006330752699e+00
    8.1896489286764351e-03 -1.3447004045817015e+00
    8.0392156862745100e-03 -1.2500000000000002e+00
    8.0577699190505902e-03 -1.2629080365809533e+00
    7.8702452231170939e-03 -1.0866697123918503e+00
    7.9600096592242452e-03 -8.4162541153017323e-01
    9.0129361287087616e-03 -5.8298308813013744e-01
    9.8955904512796899e-03 -4.9236596391733095e-01
    1.3216389175528722e-02 -3.2879797461071458e-01
    9.4001807104530915e-03 -5.3787375479812083e-01
    8.2988837499089942e-03 -7.1228711990072557e-01
    7.8702452231170939e-03 -9.2024281950300846e-01
    7.8439772260513602e-03 -9.8547138271684287e-01
    7.8589552370678366e-03 -1.0655593210453684e+00
    7.9890422714869579e-03 -1.2123858783705330e+00
    8.1651125008968851e-03 -1.3305150394754168e+00
    8.5378754910305863e-03 -1.5187006330752699e+00
    8.3933302734222632e-03 -1.4512272758119615e+00
    8.9568221719044314e-03 -1.6934947677220280e+00
    8.9568221719044314e-03 -1.6934947677220280e+00
    8.4273879030585617e-03 -1.4675987714106862e+00
    8.6189439075195270e-03 -1.5545631755148026e+00
    8.8008887844911662e-03 -1.6311696066670336e+00
    8.3933302734222632e-03 -1.4512272758119615e+00
    8.4273879030585617e-03 -1.4675987714106862e+00
    8.3933302734222632e-03 -1.4512272758119615e+00
    8.4273879030585617e-03 -1.4675987714106862e+00
    8.7064481195336229e-03 -1.5920058915156967e+00
    8.8008887844911662e-03 -1.6311696066670336e+00
    8.2988837499089942e-03 -1.4039282363260679e+00
    8.1416302059667319e-03 -1.3165611772087666e+00
    8.4273879030585617e-03 -1.4675987714106862e+00
    8.4273879030585617e-03 -1.4675987714106862e+00
    8.6189439075195270e-03 -1.5545631755148026e+00
    8.7064481195336229e-03 -1.5920058915156967e+00
    8.8508851706236829e-03 -1.6514456476895409e+00
    8.5776341131515270e-03 -1.5364425591947517e+00
    8.5378754910305863e-03 -1.5187006330752699e+00
    8.7527675532759926e-03 -1.6113631583445656e+00
    8.4273879030585617e-03 -1.4675987714106862e+00
    8.3291165777209745e-03 -1.4194033543545475e+00
    8.2698527430663648e-03 -1.3887301496588274e+00
    8.1191773757641802e-03 -1.3028309257354278e+00
    7.9467760513039516e-03 -1.1763166793991142e+00
    7.8702452231170939e-03 -1.0866697123918503e+00
    7.8929719386998509e-03 -8.9344592115868304e-01
    8.9028350528068331e-03 -5.9800994476658587e-01
    9.8039215686274508e-03 -5.0000000000000000e-01
    1.2425505577030706e-02 -3.5549068394773214e-01
    9.5515621163686556e-03 -5.2277330217393325e-01
    8.2419904520555209e-03 -7.2790847382665946e-01
    7.9600096592242452e-03 -8.4162541153017323e-01
    7.8432305717042253e-03 -9.9513379107330191e-01
    7.9343809943518712e-03 -1.1646123127807211e+00
    7.9740940282314494e-03 -1.2001983962979579e+00
    8.0577699190505902e-03 -1.2629080365809533e+00
    8.1896489286764351e-03 -1.3447004045817015e+00
    8.4996145972279745e-03 -1.5013221686128047e+00
    8.3605863373850346e-03 -1.4351660156711188e+00
    8.3605863373850346e-03 -1.4351660156711188e+00
    8.4273879030585617e-03 -1.4675987714106862e+00
    8.6618617327388868e-03 -1.5730785966335064e+00
    8.6618617327388868e-03 -1.5730785966335064e+00
    8.2698527430663648e-03 -1.3887301496588274e+00
    8.2988837499089942e-03 -1.4039282363260679e+00
    8.3291165777209745e-03 -1.4194033543545475e+00
    8.3605863373850346e-03 -1.4351660156711188e+00
    8.4628011675802143e-03 -1.4842927608797394e+00
    8.6618617327388868e-03 -1.5730785966335064e+00
    8.4273879030585617e-03 -1.4675987714106862e+00
    8.0977307659413217e-03 -1.2893167424406085e+00
    8.2988837499089942e-03 -1.4039282363260679e+00
    8.2152656597658819e-03 -1.3591255358583409e+00
    8.4628011675802143e-03 -1.4842927608797394e+00
    8.3605863373850346e-03 -1.4351660156711188e+00
    8.3605863373850346e-03 -1.4351660156711188e+00
    8.3933302734222632e-03 -1.4512272758119615e+00
    8.3291165777209745e-03 -1.4194033543545475e+00
    8.3933302734222632e-03 -1.4512272758119615e+00
    8.1896489286764351e-03 -1.3447004045817015e+00
    8.0577699190505902e-03 -1.2629080365809533e+00
    8.0215875632873319e-03 -1.2372809695177827e+00
    7.8642178469902971e-03 -1.0760551736979407e+00
    7.8642178469902971e-03 -1.0760551736979407e+00
    7.8439772260513602e-03 -1.0147428099262541e+00
    7.9890422714869597e-03 -8.2481990085864154e-01
    8.4628011675802143e-03 -6.7372153685321512e-01
    9.8039215686274508e-03 -5.0000000000000000e-01
    1.2932876242940814e-02 -3.3783196234608809e-01
    9.7161728713024541e-03 -5.0761078756902089e-01
    8.3933302734222615e-03 -6.8907194391071536e-01
    7.9740940282314512e-03 -8.3319558090106183e-01
    7.8544528275106256e-03 -9.4770678384622109e-01
    7.8544528275106256e-03 -1.0551786871689885e+00
    7.9740940282314494e-03 -1.2001983962979579e+00
    8.0577699190505902e-03 -1.2629080365809533e+00
    8.1896489286764351e-03 -1.3447004045817015e+00
    8.2419904520555226e-03 -1.3737990914474987e+00
    8.3933302734222632e-03 -1.4512272758119615e+00
    8.3605863373850346e-03 -1.4351660156711188e+00
    8.5776341131515270e-03 -1.5364425591947517e+00
    8.1896489286764351e-03 -1.3447004045817015e+00
    8.6618617327388868e-03 -1.5730785966335064e+00
    8.4273879030585617e-03 -1.4675987714106862e+00
    8.4628011675802143e-03 -1.4842927608797394e+00
    8.2152656597658819e-03 -1.3591255358583409e+00
    8.2419904520555226e-03 -1.3737990914474987e+00
    8.3291165777209745e-03 -1.4194033543545475e+00
    8.2698527430663648e-03 -1.3887301496588274e+00
    8.1651125008968851e-03 -1.3305150394754168e+00
    8.2698527430663648e-03 -1.3887301496588274e+00
    8.2698527430663648e-03 -1.3887301496588274e+00
    8.2152656597658819e-03 -1.3591255358583409e+00
    8.4628011675802143e-03 -1.4842927608797394e+00
    8.5776341131515270e-03 -1.5364425591947517e+00
    8.2698527430663648e-03 -1.3887301496588274e+00
    8.3933302734222632e-03 -1.4512272758119615e+00
    8.2419904520555226e-03 -1.3737990914474987e+00
    8.0048684404679018e-03 -1.2247448713915889e+00
    8.0048684404679018e-03 -1.2247448713915889e+00
    8.0048684404679018e-03 -1.2247448713915889e+00
    7.9890422714869579e-03 -1.2123858783705330e+00
    7.8702452231170939e-03 -1.0866697123918503e+00
    7.8589552370678366e-03 -1.0655593210453684e+00
    7.8454711746842858e-03 -1.0246950765959599e+00
    7.9600096592242452e-03 -8.4162541153017323e-01
    8.3605863373850346e-03 -6.9678350036206493e-01
    9.4743065453099518e-03 -5.3033008588991071e-01
    1.5546512456267727e-02 -2.7073682667744287e-01
    1.0422099084564212e-02 -4.5374260648651510e-01
    8.7527675532759960e-03 -6.2059256774081273e-01
    7.9890422714869597e-03 -8.2481990085864154e-01
    7.8929719386998509e-03 -8.9344592115868304e-01
    7.8454711746842858e-03 -1.0246950765959599e+00
    7.8642178469902971e-03 -1.0760551736979407e+00
    8.0392156862745100e-03 -1.2500000000000002e+00
    8.1651125008968851e-03 -1.3305150394754168e+00
    8.2988837499089942e-03 -1.4039282363260679e+00
    8.1896489286764351e-03 -1.3447004045817015e+00
    8.3605863373850346e-03 -1.4351660156711188e+00
    8.3291165777209745e-03 -1.4194033543545475e+00
    8.4628011675802143e-03 -1.4842927608797394e+00
    8.3605863373850346e-03 -1.4351660156711188e+00
    8.4273879030585617e-03 -1.4675987714106862e+00
    8.2988837499089942e-03 -1.4039282363260679e+00
    8.2988837499089942e-03 -1.4039282363260679e+00
    8.3933302734222632e-03 -1.4512272758119615e+00
    8.3291165777209745e-03 -1.4194033543545475e+00
    8.4273879030585617e-03 -1.4675987714106862e+00
    8.2698527430663648e-03 -1.3887301496588274e+00
    8.1896489286764351e-03 -1.3447004045817015e+00
    8.3291165777209745e-03 -1.4194033543545475e+00
    8.3933302734222632e-03 -1.4512272758119615e+00
    8.3291165777209745e-03 -1.4194033543545475e+00
    8.4628011675802143e-03 -1.4842927608797394e+00
    8.4628011675802143e-03 -1.4842927608797394e+00
    8.2419904520555226e-03 -1.3737990914474987e+00
    8.1896489286764351e-03 -1.3447004045817015e+00
    8.1896489286764351e-03 -1.3447004045817015e+00
    7.9600096592242452e-03 -1.1881770515720094e+00
    7.9890422714869579e-03 -1.2123858783705330e+00
    7.9600096592242452e-03 -1.1881770515720094e+00
    7.8642178469902971e-03 -1.0760551736979407e+00
    7.8432305717042270e-03 -1.0048900047112757e+00
    7.8507067249331073e-03 -9.5702029783452858e-01
    8.0392156862745100e-03 -8.0000000000000004e-01
    8.4273879030585599e-03 -6.8138514386924698e-01
    9.9914227078516053e-03 -4.8470584794919130e-01
    1.7402693568572138e-02 -2.3811978273095047e-01
    1.0196665620934058e-02 -4.6929531772445288e-01
    8.7064481195336246e-03 -6.2813837896537705e-01
    8.2988837499089942e-03 -7.1228711990072557e-01
    7.9467760513039516e-03 -8.5011121368339337e-01
    7.8432305717042253e-03 -9.9513379107330191e-01
    7.8770426148172638e-03 -1.0974065223374685e+00
    8.0215875632873319e-03 -1.2372809695177827e+00
    7.9890422714869579e-03 -1.2123858783705330e+00
    8.1896489286764351e-03 -1.3447004045817015e+00
    8.1191773757641802e-03 -1.3028309257354278e+00
    8.2988837499089942e-03 -1.4039282363260679e+00
    8.2698527430663648e-03 -1.3887301496588274e+00
    8.3605863373850346e-03 -1.4351660156711188e+00
    8.5378754910305863e-03 -1.5187006330752699e+00
    8.8508851706236829e-03 -1.6514456476895409e+00
    8.4273879030585617e-03 -1.4675987714106862e+00
    8.5378754910305863e-03 -1.5187006330752699e+00
    8.3933302734222632e-03 -1.4512272758119615e+00
    8.2988837499089942e-03 -1.4039282363260679e+00
    8.4628011675802143e-03 -1.4842927608797394e+00
    8.3291165777209745e-03 -1.4194033543545475e+00
    8.4273879030585617e-03 -1.4675987714106862e+00
    8.2152656597658819e-03 -1.3591255358583409e+00
    8.2988837499089942e-03 -1.4039282363260679e+00
    8.1416302059667319e-03 -1.3165611772087666e+00
    8.4628011675802143e-03 -1.4842927608797394e+00
    8.4996145972279745e-03 -1.5013221686128047e+00
    8.0577699190505902e-03 -1.2629080365809533e+00
    8.0577699190505902e-03 -1.2629080365809533e+00
    7.9600096592242452e-03 -1.1881770515720094e+00
    7.9740940282314494e-03 -1.2001983962979579e+00
    8.0392156862745100e-03 -1.2500000000000002e+00
    7.9343809943518712e-03 -1.1646123127807211e+00
    7.8477136990046832e-03 -1.0347497623614468e+00
    7.8702452231170939e-03 -1.0866697123918503e+00
    7.8477136990046832e-03 -9.6641723088474740e-01
    7.9740940282314512e-03 -8.3319558090106183e-01
    8.4273879030585599e-03 -6.8138514386924698e-01
    9.9914227078516053e-03 -4.8470584794919130e-01
    1.6704920113656221e-02 -2.4935149047701483e-01
    1.1596362888055252e-02 -3.8946809016712391e-01
    9.0712728938948124e-03 -5.7547270236635140e-01
    8.5378754910305863e-03 -6.5845761713752959e-01
    8.0577699190505919e-03 -7.9182329277694719e-01
    7.9343809943518712e-03 -8.5865484077900611e-01
    7.8702452231170939e-03 -1.0866697123918503e+00
    8.0048684404679018e-03 -1.2247448713915889e+00
    8.1651125008968851e-03 -1.3305150394754168e+00
    8.0772684833595506e-03 -1.2760114138224343e+00
    8.4273879030585617e-03 -1.4675987714106862e+00
    8.7064481195336229e-03 -1.5920058915156967e+00
    8.7064481195336229e-03 -1.5920058915156967e+00
    8.4996145972279745e-03 -1.5013221686128047e+00
    8.4996145972279745e-03 -1.5013221686128047e+00
    8.5378754910305863e-03 -1.5187006330752699e+00
    8.6618617327388868e-03 -1.5730785966335064e+00
    8.5776341131515270e-03 -1.5364425591947517e+00
    8.6618617327388868e-03 -1.5730785966335064e+00
    8.4273879030585617e-03 -1.4675987714106862e+00
    8.2152656597658819e-03 -1.3591255358583409e+00
    8.2419904520555226e-03 -1.3737990914474987e+00
    8.4273879030585617e-03 -1.4675987714106862e+00
    8.1416302059667319e-03 -1.3165611772087666e+00
    8.1191773757641802e-03 -1.3028309257354278e+00
    8.1416302059667319e-03 -1.3165611772087666e+00
    8.0772684833595506e-03 -1.2760114138224343e+00
    8.1191773757641802e-03 -1.3028309257354278e+00
    8.0772684833595506e-03 -1.2760114138224343e+00
    8.1416302059667319e-03 -1.3165611772087666e+00
    8.0215875632873319e-03 -1.2372809695177827e+00
    7.9890422714869579e-03 -1.2123858783705330e+00
    8.0577699190505902e-03 -1.2629080365809533e+00
    8.0048684404679018e-03 -1.2247448713915889e+00
    7.9228131488733276e-03 -1.1530591721787109e+00
    7.8454711746842858e-03 -1.0246950765959599e+00
    7.8702452231170939e-03 -9.2024281950300846e-01
    8.0215875632873319e-03 -8.0822385912048700e-01
    8.7527675532759960e-03 -6.2059256774081273e-01
    9.8955904512796899e-03 -4.9236596391733095e-01
    1.9140989729225021e-02 -2.1428571428571427e-01
    1.2197442299220875e-02 -3.6413827742064270e-01
    9.4743065453099518e-03 -5.3033008588991071e-01
    8.4628011675802143e-03 -6.7372153685321512e-01
    8.0215875632873319e-03 -8.0822385912048700e-01
    7.9021179115696498e-03 -8.8465173692938270e-01
    7.8589552370678366e-03 -9.3847426440693005e-01
    7.9021179115696498e-03 -1.1303883305208779e+00
    7.9740940282314494e-03 -1.2001983962979579e+00
    8.0977307659413217e-03 -1.2893167424406085e+00
    8.1416302059667319e-03 -1.3165611772087666e+00
    8.3291165777209745e-03 -1.4194033543545475e+00
    8.3605863373850346e-03 -1.4351660156711188e+00
    8.2988837499089942e-03 -1.4039282363260679e+00
    8.7064481195336229e-03 -1.5920058915156967e+00
    8.7064481195336229e-03 -1.5920058915156967e+00
    8.3605863373850346e-03 -1.4351660156711188e+00
    8.4273879030585617e-03 -1.4675987714106862e+00
    8.4273879030585617e-03 -1.4675987714106862e+00
    8.4996145972279745e-03 -1.5013221686128047e+00
    8.3933302734222632e-03 -1.4512272758119615e+00
    8.3291165777209745e-03 -1.4194033543545475e+00
    8.2988837499089942e-03 -1.4039282363260679e+00
    8.2698527430663648e-03 -1.3887301496588274e+00
    8.0977307659413217e-03 -1.2893167424406085e+00
    8.1651125008968851e-03 -1.3305150394754168e+00
    8.0977307659413217e-03 -1.2893167424406085e+00
    8.3605863373850346e-03 -1.4351660156711188e+00
    8.2698527430663648e-03 -1.3887301496588274e+00
    8.0977307659413217e-03 -1.2893167424406085e+00
    8.0215875632873319e-03 -1.2372809695177827e+00
    8.0577699190505902e-03 -1.2629080365809533e+00
    7.9890422714869579e-03 -1.2123858783705330e+00
    7.8642178469902971e-03 -1.0760551736979407e+00
    7.8846159677970606e-03 -1.1082693127418162e+00
    7.8477136990046832e-03 -9.6641723088474740e-01
    7.8770426148172638e-03 -9.1123934444093380e-01
    8.2419904520555209e-03 -7.2790847382665946e-01
    8.8008887844911680e-03 -6.1305703337821404e-01
    1.0196665620934058e-02 -4.6929531772445288e-01
    1.5058830696019394e-02 -2.8097574347450821e-01
    1.2425505577030706e-02 -3.5549068394773214e-01
    9.7161728713024541e-03 -5.0761078756902089e-01
    9.1319353741684938e-03 -5.6796183424706481e-01
    8.1416302059667319e-03 -7.5955452531275003e-01
    8.0215875632873319e-03 -8.0822385912048700e-01
    7.8846159677970606e-03 -9.0230775904643434e-01
    7.8432305717042270e-03 -1.0048900047112757e+00
    7.9467760513039516e-03 -1.1763166793991142e+00
    7.9740940282314494e-03 -1.2001983962979579e+00
    8.1416302059667319e-03 -1.3165611772087666e+00
    8.0772684833595506e-03 -1.2760114138224343e+00
    8.0215875632873319e-03 -1.2372809695177827e+00
    8.1191773757641802e-03 -1.3028309257354278e+00
    8.3933302734222632e-03 -1.4512272758119615e+00
    8.2698527430663648e-03 -1.3887301496588274e+00
    8.3933302734222632e-03 -1.4512272758119615e+00
    8.2698527430663648e-03 -1.3887301496588274e+00
    8.2988837499089942e-03 -1.4039282363260679e+00
    8.0772684833595506e-03 -1.2760114138224343e+00
    8.1896489286764351e-03 -1.3447004045817015e+00
    8.2419904520555226e-03 -1.3737990914474987e+00
    8.1651125008968851e-03 -1.3305150394754168e+00
    8.1896489286764351e-03 -1.3447004045817015e+00
    8.1896489286764351e-03 -1.3447004045817015e+00
    8.2419904520555226e-03 -1.3737990914474987e+00
    8.2698527430663648e-03 -1.3887301496588274e+00
    8.1191773757641802e-03 -1.3028309257354278e+00
    7.9740940282314494e-03 -1.2001983962979579e+00
    8.0392156862745100e-03 -1.2500000000000002e+00
    8.0977307659413217e-03 -1.2893167424406085e+00
    8.0772684833595506e-03 -1.2760114138224343e+00
    8.0215875632873319e-03 -1.2372809695177827e+00
    7.8929719386998509e-03 -1.1192619232097789e+00
    7.8477136990046832e-03 -1.0347497623614468e+00
    7.8589552370678366e-03 -9.3847426440693005e-01
    7.9890422714869597e-03 -8.2481990085864154e-01
    8.5776341131515270e-03 -6.5085413965888783e-01
    9.1950340420288122e-03 -5.6044853831780495e-01
    1.2425505577030706e-02 -3.5549068394773214e-01
    1.3856598228624697e-02 -3.1025261399701148e-01
    1.2670005264756095e-02 -3.4672550992820339e-01
    1.0091684086104346e-02 -4.7701667704561518e-01
    9.4001807104530915e-03 -5.3787375479812083e-01
    8.5776341131515270e-03 -6.5085413965888783e-01
    8.0977307659413217e-03 -7.7560460287442856e-01
    7.8929719386998509e-03 -8.9344592115868304e-01
    7.8454711746842858e-03 -9.7590007294853309e-01
    7.8702452231170939e-03 -1.0866697123918503e+00
    7.9228131488733276e-03 -1.1530591721787109e+00
    7.9120620162591165e-03 -1.1416526558094862e+00
    8.0048684404679018e-03 -1.2247448713915889e+00
    8.2419904520555226e-03 -1.3737990914474987e+00
    8.3933302734222632e-03 -1.4512272758119615e+00
    8.4273879030585617e-03 -1.4675987714106862e+00
    8.4996145972279745e-03 -1.5013221686128047e+00
    8.2988837499089942e-03 -1.4039282363260679e+00
    8.2152656597658819e-03 -1.3591255358583409e+00
    8.2988837499089942e-03 -1.4039282363260679e+00
    8.1191773757641802e-03 -1.3028309257354278e+00
    8.1651125008968851e-03 -1.3305150394754168e+00
    8.1191773757641802e-03 -1.3028309257354278e+00
    8.2419904520555226e-03 -1.3737990914474987e+00
    8.1191773757641802e-03 -1.3028309257354278e+00
    8.3605863373850346e-03 -1.4351660156711188e+00
    8.3291165777209745e-03 -1.4194033543545475e+00
    8.1651125008968851e-03 -1.3305150394754168e+00
    8.1191773757641802e-03 -1.3028309257354278e+00
    8.1416302059667319e-03 -1.3165611772087666e+00
    7.9890422714869579e-03 -1.2123858783705330e+00
    8.0977307659413217e-03 -1.2893167424406085e+00
    8.0577699190505902e-03 -1.2629080365809533e+00
    7.9120620162591165e-03 -1.1416526558094862e+00
    7.8702452231170939e-03 -1.0866697123918503e+00
    7.8507067249331073e-03 -9.5702029783452858e-01
    7.9600096592242452e-03 -8.4162541153017323e-01
    8.1651125008968851e-03 -7.5158864825328886e-01
    8.5378754910305863e-03 -6.5845761713752959e-01
    9.1319353741684938e-03 -5.6796183424706481e-01
    1.2670005264756095e-02 -3.4672550992820339e-01
    1.9140989729225021e-02 -2.1428571428571427e-01
    1.3523229176643160e-02 -3.1960997736993224e-01
    1.0543290356192805e-02 -4.4590403603995910e-01
    9.4001807104530915e-03 -5.3787375479812083e-01
    8.9568221719044331e-03 -5.9049488611360201e-01
    8.2988837499089942e-03 -7.1228711990072557e-01
    7.9021179115696498e-03 -8.8465173692938270e-01
    7.8439772260513602e-03 -9.8547138271684287e-01
    7.8477136990046832e-03 -1.0347497623614468e+00
    7.8589552370678366e-03 -1.0655593210453684e+00
    8.0215875632873319e-03 -1.2372809695177827e+00
    7.9890422714869579e-03 -1.2123858783705330e+00
    8.0392156862745100e-03 -1.2500000000000002e+00
    8.3605863373850346e-03 -1.4351660156711188e+00
    8.1191773757641802e-03 -1.3028309257354278e+00
    8.2988837499089942e-03 -1.4039282363260679e+00
    8.2419904520555226e-03 -1.3737990914474987e+00
    8.0977307659413217e-03 -1.2893167424406085e+00
    8.0392156862745100e-03 -1.2500000000000002e+00
    8.0392156862745100e-03 -1.2500000000000002e+00
    7.9228131488733276e-03 -1.1530591721787109e+00
    8.0772684833595506e-03 -1.2760114138224343e+00
    8.0772684833595506e-03 -1.2760114138224343e+00
    8.1416302059667319e-03 -1.3165611772087666e+00
    8.0772684833595506e-03 -1.2760114138224343e+00
    8.0977307659413217e-03 -1.2893167424406085e+00
    8.0577699190505902e-03 -1.2629080365809533e+00
    8.0977307659413217e-03 -1.2893167424406085e+00
    7.9740940282314494e-03 -1.2001983962979579e+00
    7.9343809943518712e-03 -1.1646123127807211e+00
    7.9467760513039516e-03 -1.1763166793991142e+00
    7.8702452231170939e-03 -1.0866697123918503e+00
    7.8702452231170939e-03 -1.0866697123918503e+00
    7.8507067249331073e-03 -9.5702029783452858e-01
    7.9467760513039516e-03 -8.5011121368339337e-01
    8.0392156862745100e-03 -8.0000000000000004e-01
    8.3291165777209745e-03 -7.0452137296430095e-01
    8.5776341131515270e-03 -6.5085413965888783e-01
    9.9914227078516053e-03 -4.8470584794919130e-01
    1.2425505577030706e-02 -3.5549068394773214e-01
    1.6704920113656221e-02 -2.4935149047701483e-01
    1.3523229176643160e-02 -3.1960997736993224e-01
    1.1984155173528285e-02 -3.7267799624996495e-01
    9.8955904512796899e-03 -4.9236596391733095e-01
    9.0712728938948124e-03 -5.7547270236635140e-01
    8.4996145972279728e-03 -6.6607955368032867e-01
    8.2698527430663648e-03 -7.2008229982309568e-01
    7.9600096592242452e-03 -8.4162541153017323e-01
    7.9467760513039516e-03 -8.5011121368339337e-01
    7.8544528275106256e-03 -1.0551786871689885e+00
    7.8770426148172638e-03 -1.0974065223374685e+00
    7.8432305717042270e-03 -1.0048900047112757e+00
    7.8770426148172638e-03 -1.0974065223374685e+00
    8.0392156862745100e-03 -1.2500000000000002e+00
    8.3605863373850346e-03 -1.4351660156711188e+00
    8.3605863373850346e-03 -1.4351660156711188e+00
    8.3605863373850346e-03 -1.4351660156711188e+00
    8.2419904520555226e-03 -1.3737990914474987e+00
    8.0392156862745100e-03 -1.2500000000000002e+00
    7.9467760513039516e-03 -1.1763166793991142e+00
    7.9600096592242452e-03 -1.1881770515720094e+00
    8.0772684833595506e-03 -1.2760114138224343e+00
    8.0048684404679018e-03 -1.2247448713915889e+00
    7.9467760513039516e-03 -1.1763166793991142e+00
    7.9228131488733276e-03 -1.1530591721787109e+00
    7.9890422714869579e-03 -1.2123858783705330e+00
    8.0392156862745100e-03 -1.2500000000000002e+00
    7.8642178469902971e-03 -1.0760551736979407e+00
    7.9228131488733276e-03 -1.1530591721787109e+00
    7.8846159677970606e-03 -1.1082693127418162e+00
    8.0977307659413217e-03 -1.2893167424406085e+00
    7.8770426148172638e-03 -1.0974065223374685e+00
    7.8507067249331056e-03 -1.0449099170234135e+00
    7.8507067249331073e-03 -9.5702029783452858e-01
    8.0048684404679018e-03 -8.1649658092772603e-01
    8.2152656597658819e-03 -7.3576720738195900e-01
    8.4996145972279728e-03 -6.6607955368032867e-01
    9.1950340420288122e-03 -5.6044853831780495e-01
    1.1095171738445696e-02 -4.1403933560541262e-01
    1.4220350316061874e-02 -3.0070838351282059e-01
    1.9140989729225021e-02 -2.1428571428571427e-01
    1.4220350316061874e-02 -3.0070838351282059e-01
    1.2670005264756095e-02 -3.4672550992820339e-01
    1.0670689608469537e-02 -4.3801879539156663e-01
    9.2606876377194849e-03 -5.5293081310090975e-01
    9.0712728938948124e-03 -5.7547270236635140e-01
    8.7527675532759960e-03 -6.2059256774081273e-01
    8.4628011675802143e-03 -6.7372153685321512e-01
    8.0392156862745100e-03 -8.0000000000000004e-01
    7.9021179115696498e-03 -8.8465173692938270e-01
    7.9120620162591183e-03 -8.7592315833658874e-01
    7.9467760513039516e-03 -8.5011121368339337e-01
    7.8477136990046832e-03 -1.0347497623614468e+00
    7.8507067249331056e-03 -1.0449099170234135e+00
    7.9467760513039516e-03 -1.1763166793991142e+00
    8.1896489286764351e-03 -1.3447004045817015e+00
    8.2988837499089942e-03 -1.4039282363260679e+00
    8.1896489286764351e-03 -1.3447004045817015e+00
    8.0215875632873319e-03 -1.2372809695177827e+00
    8.0392156862745100e-03 -1.2500000000000002e+00
    7.9740940282314494e-03 -1.2001983962979579e+00
    8.0392156862745100e-03 -1.2500000000000002e+00
    8.0772684833595506e-03 -1.2760114138224343e+00
    7.9600096592242452e-03 -1.1881770515720094e+00
    7.8642178469902971e-03 -1.0760551736979407e+00
    7.9343809943518712e-03 -1.1646123127807211e+00
    7.9021179115696498e-03 -1.1303883305208779e+00
    7.9467760513039516e-03 -1.1763166793991142e+00
    7.9021179115696498e-03 -1.1303883305208779e+00
    7.9120620162591165e-03 -1.1416526558094862e+00
    7.8929719386998509e-03 -1.1192619232097789e+00
    7.8454711746842858e-03 -1.0246950765959599e+00
    7.8477136990046832e-03 -9.6641723088474740e-01
    7.9467760513039516e-03 -8.5011121368339337e-01
    8.0577699190505919e-03 -7.9182329277694719e-01
    8.4628011675802143e-03 -6.7372153685321512e-01
    9.3290239533090555e-03 -5.4540659551419035e-01
    1.0091684086104346e-02 -4.7701667704561518e-01
    1.2932876242940814e-02 -3.3783196234608809e-01
    1.4619172385090994e-02 -2.9095718698132317e-01
    2.0250491761034328e-02 -2.0151708874395136e-01
    1.6091309573550421e-02 -2.6020824993326658e-01
    1.2932876242940814e-02 -3.3783196234608809e-01
    9.8955904512796899e-03 -4.9236596391733095e-01
    9.6321213536840408e-03 -5.1520102752753905e-01
    9.4001807104530915e-03 -5.3787375479812083e-01
    8.9028350528068331e-03 -5.9800994476658587e-01
    8.9568221719044331e-03 -5.9049488611360201e-01
    8.2419904520555209e-03 -7.2790847382665946e-01
    8.0577699190505919e-03 -7.9182329277694719e-01
    8.0977307659413217e-03 -7.7560460287442856e-01
    7.9600096592242452e-03 -8.4162541153017323e-01
    7.9228131488733294e-03 -8.6725818078398786e-01
    7.8432305717042253e-03 -9.9513379107330191e-01
    7.8544528275106256e-03 -1.0551786871689885e+00
    7.8702452231170939e-03 -1.0866697123918503e+00
    7.9021179115696498e-03 -1.1303883305208779e+00
    7.8642178469902971e-03 -1.0760551736979407e+00
    7.8702452231170939e-03 -1.0866697123918503e+00
    7.9343809943518712e-03 -1.1646123127807211e+00
    7.9740940282314494e-03 -1.2001983962979579e+00
    8.0215875632873319e-03 -1.2372809695177827e+00
    8.0048684404679018e-03 -1.2247448713915889e+00
    7.9890422714869579e-03 -1.2123858783705330e+00
    7.8702452231170939e-03 -1.0866697123918503e+00
    7.8439772260513602e-03 -1.0147428099262541e+00
    7.8432305717042253e-03 -9.9513379107330191e-01
    7.8929719386998509e-03 -1.1192619232097789e+00
    7.8454711746842858e-03 -1.0246950765959599e+00
    7.8432305717042270e-03 -1.0048900047112757e+00
    7.8589552370678366e-03 -9.3847426440693005e-01
    7.9120620162591183e-03 -8.7592315833658874e-01
    8.1416302059667319e-03 -7.5955452531275003e-01
    8.1651125008968851e-03 -7.5158864825328886e-01
    8.3291165777209745e-03 -7.0452137296430095e-01
    9.0129361287087616e-03 -5.8298308813013744e-01
    9.4743065453099518e-03 -5.3033008588991071e-01
    1.1095171738445696e-02 -4.1403933560541262e-01
    1.3523229176643160e-02 -3.1960997736993224e-01
    1.6091309573550421e-02 -2.6020824993326658e-01
    2.1593948709176854e-02 -1.8802535827258871e-01
    1.9140989729225021e-02 -2.1428571428571427e-01
    1.2670005264756095e-02 -3.4672550992820339e-01
    1.0422099084564212e-02 -4.5374260648651510e-01
    9.8955904512796899e-03 -4.9236596391733095e-01
    9.8955904512796899e-03 -4.9236596391733095e-01
    9.4001807104530915e-03 -5.3787375479812083e-01
    9.1950340420288122e-03 -5.6044853831780495e-01
    8.6189439075195270e-03 -6.4326752090267691e-01
    8.5776341131515270e-03 -6.5085413965888783e-01
    8.3291165777209745e-03 -7.0452137296430095e-01
    8.1651125008968851e-03 -7.5158864825328886e-01
    7.9343809943518712e-03 -8.5865484077900611e-01
    7.8642178469902971e-03 -9.2932037728458516e-01
    7.9343809943518712e-03 -8.5865484077900611e-01
    7.9343809943518712e-03 -8.5865484077900611e-01
    7.8589552370678366e-03 -1.0655593210453684e+00
    7.8507067249331056e-03 -1.0449099170234135e+00
    7.8544528275106256e-03 -1.0551786871689885e+00
    7.8642178469902971e-03 -1.0760551736979407e+00
    7.8544528275106256e-03 -1.0551786871689885e+00
    7.9120620162591165e-03 -1.1416526558094862e+00
    7.9467760513039516e-03 -1.1763166793991142e+00
    7.8702452231170939e-03 -1.0866697123918503e+00
    7.8589552370678366e-03 -1.0655593210453684e+00
    7.8702452231170939e-03 -1.0866697123918503e+00
    7.8477136990046832e-03 -1.0347497623614468e+00
    7.8507067249331056e-03 -1.0449099170234135e+00
    7.8589552370678366e-03 -9.3847426440693005e-01
    7.9343809943518712e-03 -8.5865484077900611e-01
    8.1896489286764351e-03 -7.4366007223078956e-01
    8.2419904520555209e-03 -7.2790847382665946e-01
    8.2698527430663648e-03 -7.2008229982309568e-01
    8.3933302734222615e-03 -6.8907194391071536e-01
    8.8008887844911680e-03 -6.1305703337821404e-01
    9.3290239533090555e-03 -5.4540659551419035e-01
    9.7161728713024541e-03 -5.0761078756902089e-01
    1.1596362888055252e-02 -3.8946809016712391e-01
    1.4220350316061874e-02 -3.0070838351282059e-01
    1.5546512456267727e-02 -2.7073682667744287e-01
    2.5422232169981088e-02 -1.5811388300841897e-01
    2.0250491761034328e-02 -2.0151708874395136e-01
    1.3216389175528722e-02 -3.2879797461071458e-01
    1.1984155173528285e-02 -3.7267799624996495e-01
    1.1095171738445696e-02 -4.1403933560541262e-01
    1.0422099084564212e-02 -4.5374260648651510e-01
    1.0091684086104346e-02 -4.7701667704561518e-01
    9.6321213536840408e-03 -5.1520102752753905e-01
    9.3290239533090555e-03 -5.4540659551419035e-01
    9.4743065453099518e-03 -5.3033008588991071e-01
    9.1950340420288122e-03 -5.6044853831780495e-01
    8.2698527430663648e-03 -7.2008229982309568e-01
    8.2988837499089942e-03 -7.1228711990072557e-01
    8.1416302059667319e-03 -7.5955452531275003e-01
    8.1896489286764351e-03 -7.4366007223078956e-01
    7.9467760513039516e-03 -8.5011121368339337e-01
    7.8589552370678366e-03 -9.3847426440693005e-01
    7.8544528275106256e-03 -1.0551786871689885e+00
    7.8432305717042270e-03 -1.0048900047112757e+00
    7.8589552370678366e-03 -1.0655593210453684e+00
    7.8507067249331056e-03 -1.0449099170234135e+00
    7.8477136990046832e-03 -1.0347497623614468e+00
    7.8454711746842858e-03 -1.0246950765959599e+00
    7.8454711746842858e-03 -1.0246950765959599e+00
    7.8702452231170939e-03 -9.2024281950300846e-01
    7.8642178469902971e-03 -9.2932037728458516e-01
    7.9021179115696498e-03 -8.8465173692938270e-01
    7.9343809943518712e-03 -8.5865484077900611e-01
    7.9467760513039516e-03 -8.5011121368339337e-01
    8.0215875632873319e-03 -8.0822385912048700e-01
    8.4273879030585599e-03 -6.8138514386924698e-01
    8.4273879030585599e-03 -6.8138514386924698e-01
    8.4996145972279728e-03 -6.6607955368032867e-01
    8.7527675532759960e-03 -6.2059256774081273e-01
    9.5515621163686556e-03 -5.2277330217393325e-01
    9.8039215686274508e-03 -5.0000000000000000e-01
    1.0543290356192805e-02 -4.4590403603995910e-01
    1.3856598228624697e-02 -3.1025261399701148e-01
    1.4619172385090994e-02 -2.9095718698132317e-01
    1.7402693568572138e-02 -2.3811978273095047e-01
    3.2657081384115577e-02 -1.2186666955535813e-01
    1.6704920113656221e-02 -2.4935149047701483e-01
    1.5546512456267727e-02 -2.7073682667744287e-01
    1.4220350316061874e-02 -3.0070838351282059e-01
    1.2425505577030706e-02 -3.5549068394773214e-01
    1.1095171738445696e-02 -4.1403933560541262e-01
    1.0804772820288865e-02 -4.3008266445637627e-01
    1.1419524793535578e-02 -3.9773369280899523e-01
    1.0196665620934058e-02 -4.6929531772445288e-01
    9.8039215686274508e-03 -5.0000000000000000e-01
    1.0306686777275012e-02 -4.6153846153846156e-01
    9.2606876377194849e-03 -5.5293081310090975e-01
    8.4628011675802143e-03 -6.7372153685321512e-01
    8.3291165777209745e-03 -7.0452137296430095e-01
    8.1896489286764351e-03 -7.4366007223078956e-01
    8.0215875632873319e-03 -8.0822385912048700e-01
    7.9343809943518712e-03 -8.5865484077900611e-01
    7.9467760513039516e-03 -8.5011121368339337e-01
    7.8477136990046832e-03 -9.6641723088474740e-01
    7.8544528275106256e-03 -9.4770678384622109e-01
    7.8454711746842858e-03 -9.7590007294853309e-01
    7.8477136990046832e-03 -9.6641723088474740e-01
    7.8846159677970606e-03 -9.0230775904643434e-01
    7.8846159677970606e-03 -9.0230775904643434e-01
    7.8642178469902971e-03 -9.2932037728458516e-01
    7.9467760513039516e-03 -8.5011121368339337e-01
    7.9467760513039516e-03 -8.5011121368339337e-01
    8.2152656597658819e-03 -7.3576720738195900e-01
    8.4273879030585599e-03 -6.8138514386924698e-01
    8.4273879030585599e-03 -6.8138514386924698e-01
    8.3605863373850346e-03 -6.9678350036206493e-01
    8.7527675532759960e-03 -6.2059256774081273e-01
    9.0712728938948124e-03 -5.7547270236635140e-01
    9.5515621163686556e-03 -5.2277330217393325e-01
    9.9914227078516053e-03 -4.8470584794919130e-01
    1.0091684086104346e-02 -4.7701667704561518e-01
    1.1252741641759816e-02 -4.0592207044299428e-01
    1.2670005264756095e-02 -3.4672550992820339e-01
    1.5546512456267727e-02 -2.7073682667744287e-01
    1.8205238588207225e-02 -2.2645540682891915e-01
    3.2657081384115577e-02 -1.2186666955535813e-01
    2.5422232169981088e-02 -1.5811388300841897e-01
    1.9140989729225021e-02 -2.1428571428571427e-01
    1.6091309573550421e-02 -2.6020824993326658e-01
    1.4619172385090994e-02 -2.9095718698132317e-01
    1.3216389175528722e-02 -3.2879797461071458e-01
    1.2197442299220875e-02 -3.6413827742064270e-01
    1.2425505577030706e-02 -3.5549068394773214e-01
    1.1984155173528285e-02 -3.7267799624996495e-01
    1.0670689608469537e-02 -4.3801879539156663e-01
    1.0543290356192805e-02 -4.4590403603995910e-01
    1.0946069708624983e-02 -4.2209112705697799e-01
    1.0543290356192805e-02 -4.4590403603995910e-01
    9.1950340420288122e-03 -5.6044853831780495e-01
    8.8008887844911680e-03 -6.1305703337821404e-01
    8.2988837499089942e-03 -7.1228711990072557e-01
    8.1896489286764351e-03 -7.4366007223078956e-01
    8.1191773757641784e-03 -7.6755930508443793e-01
    7.9890422714869597e-03 -8.2481990085864154e-01
    7.8770426148172638e-03 -9.1123934444093380e-01
    7.9021179115696498e-03 -8.8465173692938270e-01
    7.9021179115696498e-03 -8.8465173692938270e-01
    8.0048684404679018e-03 -8.1649658092772603e-01
    7.9021179115696498e-03 -8.8465173692938270e-01
    7.9890422714869597e-03 -8.2481990085864154e-01
    7.9740940282314512e-03 -8.3319558090106183e-01
    8.2988837499089942e-03 -7.1228711990072557e-01
    8.4628011675802143e-03 -6.7372153685321512e-01
    8.5776341131515270e-03 -6.5085413965888783e-01
    8.5378754910305863e-03 -6.5845761713752959e-01
    8.9028350528068331e-03 -5.9800994476658587e-01
    9.1319353741684938e-03 -5.6796183424706481e-01
    1.0306686777275012e-02 -4.6153846153846156e-01
    1.0422099084564212e-02 -4.5374260648651510e-01
    1.0422099084564212e-02 -4.5374260648651510e-01
    1.1095171738445696e-02 -4.1403933560541262e-01
    1.2425505577030706e-02 -3.5549068394773214e-01
    1.3523229176643160e-02 -3.1960997736993224e-01
    1.7402693568572138e-02 -2.3811978273095047e-01
    2.5422232169981088e-02 -1.5811388300841897e-01
    3.2657081384115577e-02 -1.2186666955535813e-01
    2.8352127696276989e-02 -1.4106912317171966e-01
    2.3265453222649547e-02 -1.7363972405196978e-01
    1.9140989729225021e-02 -2.1428571428571427e-01
    1.6704920113656221e-02 -2.4935149047701483e-01
    1.6091309573550421e-02 -2.6020824993326658e-01
    1.4220350316061874e-02 -3.0070838351282059e-01
    1.3216389175528722e-02 -3.2879797461071458e-01
    1.3216389175528722e-02 -3.2879797461071458e-01
    1.3216389175528722e-02 -3.2879797461071458e-01
    1.2197442299220875e-02 -3.6413827742064270e-01
    1.2425505577030706e-02 -3.5549068394773214e-01
    1.1596362888055252e-02 -3.8946809016712391e-01
    1.1095171738445696e-02 -4.1403933560541262e-01
    1.0670689608469537e-02 -4.3801879539156663e-01
    9.2606876377194849e-03 -5.5293081310090975e-01
    8.8508851706236829e-03 -6.0553007081949839e-01
    8.3291165777209745e-03 -7.0452137296430095e-01
    8.2698527430663648e-03 -7.2008229982309568e-01
    8.0772684833595506e-03 -7.8369204943425108e-01
    8.0048684404679018e-03 -8.1649658092772603e-01
    8.0048684404679018e-03 -8.1649658092772603e-01
    8.1191773757641784e-03 -7.6755930508443793e-01
    8.1896489286764351e-03 -7.4366007223078956e-01
    8.1896489286764351e-03 -7.4366007223078956e-01
    8.2698527430663648e-03 -7.2008229982309568e-01
    8.6618617327388851e-03 -6.3569614521490991e-01
    9.1319353741684938e-03 -5.6796183424706481e-01
    9.6321213536840408e-03 -5.1520102752753905e-01
    9.8039215686274508e-03 -5.0000000000000000e-01
    9.7161728713024541e-03 -5.0761078756902089e-01
    9.7161728713024541e-03 -5.0761078756902089e-01
    1.0946069708624983e-02 -4.2209112705697799e-01
    1.1252741641759816e-02 -4.0592207044299428e-01
    1.2197442299220875e-02 -3.6413827742064270e-01
    1.4619172385090994e-02 -2.9095718698132317e-01
    1.4220350316061874e-02 -3.0070838351282059e-01
    1.5546512456267727e-02 -2.7073682667744287e-01
    2.1593948709176854e-02 -1.8802535827258871e-01
    3.2657081384115577e-02 -1.2186666955535813e-01
    5.6285768083478828e-02 -7.0014004201400498e-02
    3.2657081384115577e-02 -1.2186666955535813e-01
    2.8352127696276989e-02 -1.4106912317171966e-01
    2.3265453222649547e-02 -1.7363972405196978e-01
    2.0250491761034328e-02 -2.0151708874395136e-01
    2.0250491761034328e-02 -2.0151708874395136e-01
    1.7402693568572138e-02 -2.3811978273095047e-01
    1.6091309573550421e-02 -2.6020824993326658e-01
    1.5058830696019394e-02 -2.8097574347450821e-01
    1.5546512456267727e-02 -2.7073682667744287e-01
    1.4619172385090994e-02 -2.9095718698132317e-01
    1.3856598228624697e-02 -3.1025261399701148e-01
    1.3216389175528722e-02 -3.2879797461071458e-01
    1.2425505577030706e-02 -3.5549068394773214e-01
    1.1984155173528285e-02 -3.7267799624996495e-01
    1.0804772820288865e-02 -4.3008266445637627e-01
    9.7161728713024541e-03 -5.0761078756902089e-01
    8.9028350528068331e-03 -5.9800994476658587e-01
    8.4996145972279728e-03 -6.6607955368032867e-01
    8.9028350528068331e-03 -5.9800994476658587e-01
    9.0712728938948124e-03 -5.7547270236635140e-01
    8.6189439075195270e-03 -6.4326752090267691e-01
    9.0712728938948124e-03 -5.7547270236635140e-01
    8.5378754910305863e-03 -6.5845761713752959e-01
    9.2606876377194849e-03 -5.5293081310090975e-01
    8.8508851706236829e-03 -6.0553007081949839e-01
    9.7161728713024541e-03 -5.0761078756902089e-01
    9.8955904512796899e-03 -4.9236596391733095e-01
    1.0543290356192805e-02 -4.4590403603995910e-01
    1.1419524793535578e-02 -3.9773369280899523e-01
    1.0804772820288865e-02 -4.3008266445637627e-01
    1.1596362888055252e-02 -3.8946809016712391e-01
    1.3523229176643160e-02 -3.1960997736993224e-01
    1.6091309573550421e-02 -2.6020824993326658e-01
    1.6704920113656221e-02 -2.4935149047701483e-01
    1.7402693568572138e-02 -2.3811978273095047e-01
    2.0250491761034328e-02 -2.0151708874395136e-01
    1.9140989729225021e-02 -2.1428571428571427e-01
    2.3265453222649547e-02 -1.7363972405196978e-01
    3.2657081384115577e-02 -1.2186666955535813e-01
    5.6285768083478828e-02 -7.0014004201400498e-02
    2.8352127696276989e-02 -1.4106912317171966e-01
    2.8352127696276989e-02 -1.4106912317171966e-01
    2.8352127696276989e-02 -1.4106912317171966e-01
    2.8352127696276989e-02 -1.4106912317171966e-01
    3.2657081384115577e-02 -1.2186666955535813e-01
    2.3265453222649547e-02 -1.7363972405196978e-01
    2.0250491761034328e-02 -2.0151708874395136e-01
    1.8205238588207225e-02 -2.2645540682891915e-01
    1.7402693568572138e-02 -2.3811978273095047e-01
    1.7402693568572138e-02 -2.3811978273095047e-01
    1.5546512456267727e-02 -2.7073682667744287e-01
    1.6091309573550421e-02 -2.6020824993326658e-01
    1.7402693568572138e-02 -2.3811978273095047e-01
    1.7402693568572138e-02 -2.3811978273095047e-01
    1.4220350316061874e-02 -3.0070838351282059e-01
    1.1784210486163824e-02 -3.8111861230861543e-01
    1.0543290356192805e-02 -4.4590403603995910e-01
    1.0804772820288865e-02 -4.3008266445637627e-01
    1.1252741641759816e-02 -4.0592207044299428e-01
    9.8039215686274508e-03 -5.0000000000000000e-01
    1.0091684086104346e-02 -4.7701667704561518e-01
    1.2197442299220875e-02 -3.6413827742064270e-01
    1.1252741641759816e-02 -4.0592207044299428e-01
    1.0422099084564212e-02 -4.5374260648651510e-01
    1.1252741641759816e-02 -4.0592207044299428e-01
    1.0804772820288865e-02 -4.3008266445637627e-01
    1.0804772820288865e-02 -4.3008266445637627e-01
    1.1252741641759816e-02 -4.0592207044299428e-01
    1.2197442299220875e-02 -3.6413827742064270e-01
    1.2932876242940814e-02 -3.3783196234608809e-01
    1.4619172385090994e-02 -2.9095718698132317e-01
    1.9140989729225021e-02 -2.1428571428571427e-01
    1.9140989729225021e-02 -2.1428571428571427e-01
    2.0250491761034328e-02 -2.0151708874395136e-01
    2.1593948709176854e-02 -1.8802535827258871e-01
    2.5422232169981088e-02 -1.5811388300841897e-01
    2.8352127696276989e-02 -1.4106912317171966e-01
    2.5422232169981088e-02 -1.5811388300841897e-01
    2.8352127696276989e-02 -1.4106912317171966e-01</input_scale>
  <output_scale>
    1.0526315789473684e+00 0.</output_scale>
  <inv_output_scale>
    9.4999999999999996e-01 0.</inv_output_scale>
  <weights>
    <_>
      -1.1719048386403424e-03 -2.2903224389177911e-04
      -9.9637750405231888e-04 -5.5088375721748159e-04
      2.2039270841974236e-04 1.2144499427915077e-03
      9.9728247011042037e-04 2.0453599492093418e-04
      -7.2831549546728146e-04 -4.2920232853557353e-04
      -1.1054717958401724e-03 -1.2409612586460942e-04
      -2.1397120762249158e-05 -7.8018402384446585e-04
      6.7194088742161514e-04 -1.1208781013474275e-03
      1.1037170489498088e-03 1.0083693640301039e-03
      -2.5698247005999147e-04 -3.4383640164285737e-05
      3.0002183913935715e-04 -7.7645728251324352e-04
      -6.5397802009701264e-04 9.5527311481024093e-04
      -1.0954164450422850e-03 -3.1663012947851025e-04
      6.1523554708813478e-04 -6.3403300196013517e-04
      1.0630743572223426e-03 -2.4215284090006096e-04
      1.2150750992007805e-03 -3.7732545206526025e-04
      2.2581237915161135e-04 8.1166924113520002e-04
      1.1322676431532379e-03 5.1786688077618958e-04
      8.1904968067006900e-04 5.2277548999592920e-04
      1.2256443938238879e-03 -1.5902424652943092e-04
      -2.6468123622219945e-02 -1.5996413114421317e-02
      -1.3677760763653415e-02 -9.8296085297165485e-03
      1.1645474360829069e-02 -1.0703403566397315e-02
      1.0102318742927188e-02 1.1322251456972490e-02
      7.9119679963430885e-03 -1.2769822114600302e-02
      -1.1452349592437691e-02 -9.7507916958509012e-03
      -1.0483306080365578e-02 7.9246376685163916e-03
      5.2102087024812078e-03 -9.9622656440380760e-03
      7.6140341270186495e-03 -8.7862134711933441e-03
      1.1114368633578914e-02 -1.1459410935084584e-02
      1.0499511252801396e-02 -7.8211060045096769e-03
      -7.7853320588663249e-03 -1.1901924118216748e-02
      -1.0461814463490798e-02 6.6527639224028831e-03
      -1.3046313099014131e-02 1.0944490520016861e-02
      -9.8779903298063867e-03 -1.1009283637089574e-02
      1.3813475498241549e-02 1.6565218530668176e-02
      -1.3706688005735134e-02 -8.2350794713254311e-03
      -8.0584583760256422e-03 -7.6040650700188719e-03
      -1.2276429802053811e-02 -7.7753936302587907e-03
      1.3239584995350603e-02 1.1977207954815827e-02
      3.6203349381678279e-01 1.0446886410538830e-01
      8.5774960036606632e-02 2.9281659043198689e-02
      -7.5700912425711572e-02 1.3942675636039358e-02
      -2.5184961795973994e-02 -6.6820695261540261e-02
      -2.6085646923544484e-03 1.3365758869096264e-01
      2.4661693475685986e-02 6.4722595416637788e-02
      2.4953169470179910e-02 -4.5504508619056083e-02
      8.3274500194367674e-04 2.0548638087300480e-02
      -1.9727899400857809e-03 5.6970165546824922e-02
      -1.3500344774318748e-01 1.3421215931898220e-01
      -6.1505717733415705e-02 7.7157699977670182e-03
      6.3738957205240656e-04 8.7343770448305408e-02
      1.9320760213798499e-02 -8.1995839098607370e-03
      1.1562836376600387e-01 -1.2229292895380635e-01
      2.8697996286783985e-02 2.0670861748889695e-02
      -9.2375283223654348e-02 -1.1028271622071868e-01
      1.3609938333394814e-01 3.1832818963882591e-02
      4.9879876076153781e-02 1.1410036455220332e-02
      8.3465230952672567e-02 4.0917518164354655e-02
      -1.0039142507933915e-01 -7.9590923570284106e-02
      -2.2643268075521045e-02 -1.4898079749699844e-02
      -1.2567791508597204e-02 -1.0799145287700212e-02
      1.2599053157462960e-02 -1.3823674880791326e-02
      1.3549178068930627e-02 1.0347338539281386e-02
      7.4497028082822899e-03 -1.2539138018177479e-02
      -1.0247886989835494e-02 -1.0243420612425801e-02
      -1.1835099849564769e-02 7.1228012199674902e-03
      4.2346673161674795e-03 -1.3570792766218195e-02
      7.0000836618193622e-03 -8.4845917859806379e-03
      1.1203681587442366e-02 -1.3366105070622365e-02
      1.0704616538707655e-02 -9.8166966571882879e-03
      -8.0852981593138983e-03 -1.3214204179187816e-02
      -1.0952751288660587e-02 1.2891023881554189e-02
      -1.3457156676637549e-02 1.0857889671926715e-02
      -1.0298669815780358e-02 -1.1561677419427339e-02
      1.4324681377986181e-02 1.7210483391130432e-02
      -1.1436584222544087e-02 -1.1049541416497591e-02
      -7.5548900735819225e-03 -1.2763413360037279e-02
      -1.2190388244946370e-02 -6.7156622058069581e-03
      1.4876703985386819e-02 1.1770748395460761e-02
      1.3110062294822943e-02 -1.0442136401121859e-02
      -1.1549456894893171e-02 -2.8466748508452940e-02
      1.0687135417662927e-02 -2.9217553729682658e-02
      3.2472430887382067e-02 1.2098239471756703e-02
      1.7613577194337530e-02 9.8634509580749295e-03
      -2.8877185517683909e-02 -1.2446516448844125e-02
      -2.9664160115243983e-02 1.3871821481007560e-02
      8.3042389818108273e-03 -3.9354352080694613e-02
      1.7947721303468209e-02 -1.2994119413639989e-02
      -1.1597757391909496e-02 1.0949587958923489e-02
      1.0893199275799839e-02 -2.6355890019435693e-02
      -2.2744772310842803e-02 -1.1019751579679195e-02
      -2.9803010481873268e-02 2.8696781086912891e-02
      -2.6139406836210816e-02 -9.5080913260744814e-03
      -3.1528145641868469e-02 -3.0570208684749110e-02
      1.4624534664247565e-02 1.1958126070636723e-02
      1.3192285783050057e-02 -2.6885747948423026e-02
      -1.6046111006563106e-02 -2.8597635881538672e-02
      -1.1622610730211206e-02 -1.4353937558052367e-02
      1.1139166337104696e-02 1.2173708783532335e-02
      1.3535826460789682e-02 -1.1813129053574931e-02
      -1.0698689824738894e-02 -2.7836819854642800e-02
      1.1831221636412979e-02 -3.0566954752475253e-02
      3.1961602823816909e-02 1.1640728893630443e-02
      1.7766442344659808e-02 1.0077625210066487e-02
      -3.0117809848372597e-02 -1.2854795432692604e-02
      -2.9470285104381891e-02 1.3465624082106421e-02
      9.9038162533727405e-03 -3.8896053860261820e-02
      1.7247977816329398e-02 -1.4391713295980392e-02
      -1.3521374906855980e-02 1.0797793870577568e-02
      1.0902783554287733e-02 -2.4965305532287593e-02
      -2.1317201149280238e-02 -1.0906907353602044e-02
      -3.1793410095708095e-02 2.8001466651011282e-02
      -2.4537834306980397e-02 -1.0264480450381110e-02
      -3.1034208944003400e-02 -3.0295373770718368e-02
      1.3977551017233549e-02 1.1859459052021329e-02
      1.4669323155729230e-02 -2.5986727188380836e-02
      -1.4836369470611730e-02 -2.8691462150472559e-02
      -1.0843717797033452e-02 -1.4367144286061917e-02
      1.2194816893292699e-02 1.0748056228548599e-02
      -1.0706964595998071e-01 -5.6177210323890989e-02
      -4.7232579165011251e-02 -3.9410643443856634e-02
      4.3499819258388604e-02 -3.7654953208523634e-02
      4.5022209642983611e-02 3.8533524103792169e-02
      2.0074741287602411e-02 -3.5665755727154705e-02
      -3.9789742855024998e-02 -3.9207106622851755e-02
      -4.3859221314779137e-02 3.2395225079605759e-02
      1.1744226007525812e-02 -5.0032033653305254e-02
      1.7307927984552201e-02 -3.6946353537859314e-02
      3.5487167647698561e-02 -3.5675742390702141e-02
      3.7627416413746166e-02 -2.7070218213035759e-02
      -2.0988676396512522e-02 -4.8450967860925342e-02
      -4.3581531269528434e-02 3.4347046671259512e-02
      -6.3152991266021169e-02 3.4031071004688072e-02
      -4.3187346453777767e-02 -4.2385854698838391e-02
      5.2369165633901052e-02 5.7405624891135272e-02
      -3.5473803892195996e-02 -4.0204505759936830e-02
      -3.3100180834015808e-02 -3.3999790677021212e-02
      -4.8365098979108109e-02 -3.0314169550633374e-02
      5.0954125282426259e-02 4.6032751470288853e-02
      -1.6583536875186913e-01 -3.7524730628207013e-02
      -3.3310448010037151e-02 -2.4231172728557324e-02
      2.9638139963145040e-02 -1.0711077992979299e-02
      2.7764882621128813e-02 2.7973649958854343e-02
      -7.6214919804608464e-03 -2.6192499035817149e-02
      -1.6178823129867133e-02 -2.7917241593048602e-02
      -2.5498263139831168e-02 2.8496250692222821e-02
      -1.4940627271653913e-02 -3.5322271732361146e-02
      -1.1405480558126291e-02 -2.8911775087175757e-02
      2.3986503230695372e-02 -2.4478031047965618e-02
      2.8610724203122578e-02 -8.5028688431863038e-04
      7.5351859763115123e-03 -3.1612983102670973e-02
      -2.1258672397568595e-02 4.9418216981348823e-03
      -5.2017539925065671e-02 2.0631233105150748e-02
      -2.3912718090194320e-02 -2.1730745288252196e-02
      3.4467795694353501e-02 3.6547000599339956e-02
      -2.2368392451952636e-02 -2.9032894306956290e-02
      -2.9364361003377346e-02 -7.4332682501342690e-03
      -3.1236006630360000e-02 -2.6798315977167607e-02
      3.6175297440191469e-02 3.1952337201010234e-02
      -7.7713439435157780e-02 1.0291916429385097e-02
      7.5087241767189724e-03 5.7071735149089430e-03
      -6.0403754867884322e-03 6.4951541902690804e-03
      -1.6895927655058134e-03 -5.0462249808856411e-03
      -2.3334816570040533e-02 4.9184700398259423e-02
      1.0012586990102705e-02 3.2462103866737041e-03
      2.1802923042419987e-03 1.9240002672242650e-03
      -2.8187034143467828e-02 -1.3133298262006547e-02
      -2.4221422772405885e-02 -1.4418906479565048e-03
      -4.9256702336649819e-02 5.0908610872608777e-02
      -1.7728148213840111e-03 1.5560286413986392e-02
      2.1039415067219382e-02 6.7713600639662305e-03
      2.7953695209834485e-03 -5.9128661177905249e-03
      4.1807577030778384e-03 -3.3043621871294476e-02
      2.2673422388086329e-03 4.8800443513929495e-03
      -8.3607105309614280e-03 -1.0897113239201065e-02
      4.1318191707811654e-02 -2.4410158791830028e-03
      -4.1774011249589805e-03 3.5083535185219030e-03
      8.1569884857914787e-03 -3.6756721035260545e-03
      -1.1390240762083196e-02 -5.0970447238981040e-03
      -2.6244304548193258e-02 -5.9425713665173273e-04
      -1.4235153693386261e-03 -1.4558207809763817e-02
      2.9881210848815864e-03 -1.0562776536996277e-02
      1.8508419971882389e-02 3.3017152197710969e-03
      -6.4284931908143682e-03 2.2244051438411912e-02
      -1.0723317657647747e-02 -4.1908790427447927e-03
      -1.7343970125510675e-02 1.0613725272573734e-02
      -9.6430760696809403e-03 -2.8832263996246079e-02
      -6.1665057896665085e-03 -6.7790783931494071e-03
      -2.3393471136359114e-02 2.4092154490622353e-02
      5.5139206880538746e-03 -1.1235346120597471e-03
      1.8906056860863584e-03 -1.4364014116469382e-03
      -1.4661655944256629e-02 8.6870274268750942e-03
      -7.7295572268330339e-03 -2.0590343473783926e-02
      -1.6287808806543388e-02 -1.5401092749401178e-02
      2.2783273583367588e-03 -2.2819525502997067e-03
      2.6400600094972009e-02 -1.6551024354068244e-02
      -1.0154610517242361e-02 -1.1297398261160770e-02
      -1.2462054217606167e-03 -9.6657197147719566e-03
      -1.0012770969474278e-03 2.4592400604814516e-03
      -1.6382549054453719e-02 -8.8820207202445212e-03
      -9.2712921835633160e-03 -1.5138876507029164e-02
      1.0956642433314097e-02 -2.6283009279054907e-02
      2.2343983973523947e-02 8.7040377463582525e-03
      1.1077197044178260e-02 3.5784779846044647e-02
      -1.5043348221032569e-02 -1.0191617916877966e-02
      -2.1038205754553310e-02 1.0460737892889775e-02
      2.5083205768884030e-03 -3.7388734703686741e-02
      9.4647377966530846e-03 -1.0755558267025593e-02
      -3.6068701063599835e-02 3.6985153197633618e-02
      7.9476858567354373e-03 -1.7111401370461667e-02
      -1.4482467400801139e-02 -8.6964294686861978e-03
      -2.4252031176241216e-02 2.9822076809440747e-02
      -1.1044531353075588e-02 -1.6909213511793270e-02
      -1.9186995530115075e-02 -2.2817038392533337e-02
      7.8801528865278352e-03 8.7211149117368929e-03
      2.9950089994927161e-02 -1.6996214470527977e-02
      -1.1213163158700351e-02 -3.1982210245774481e-02
      -9.3949435296163467e-03 -8.9260716297899917e-03
      7.2131482599922022e-03 1.0182015514694517e-02
      9.6491861930642367e-02 3.3519413452159232e-02
      2.6114790613154294e-02 8.8241900427450529e-04
      -2.2577165610423507e-02 -1.5127705049838933e-02
      7.0119615521390781e-03 -1.8276692955936376e-02
      1.4162244921254990e-03 8.8625203914505055e-02
      -7.3820760334263372e-05 1.7647510399390776e-02
      -5.1118865199745031e-03 -1.1354708821425060e-02
      -4.9946122561835967e-03 -2.1101793809851426e-02
      -3.7054716836499977e-04 1.5354059420883337e-02
      -8.7115497723046623e-02 9.1380367054777603e-02
      -1.6841569352274443e-02 -6.5242786849989218e-03
      -7.2261149522761369e-03 2.7007803275489527e-02
      -8.8730906799957959e-03 1.9813993522174545e-02
      3.3007141112410633e-02 -6.7672352672462327e-02
      -2.2892973343164717e-03 -8.8666029569065847e-03
      -2.7473269891714856e-02 -3.3963238438060268e-02
      8.1690537901688384e-02 -8.6922468219260995e-04
      1.2480994097103385e-02 -2.0869639368408521e-02
      2.5776614149115779e-02 7.2334293552351993e-03
      -3.1515371070206424e-02 -2.2777687390653112e-02
      9.8007469748346801e-02 3.1419877477825479e-02
      2.4782213764254730e-02 2.1481497893159670e-03
      -2.0559003099769515e-02 -1.5451310708725859e-02
      7.6173396614778750e-03 -1.8698638955616270e-02
      2.4369328228258198e-03 8.8753765106228372e-02
      -1.5781508314004179e-03 1.9479347385430112e-02
      -6.7973639418848009e-03 -9.9831822124785644e-03
      -4.0774912647870776e-03 -2.1394838822958156e-02
      -3.2937520896926580e-04 1.5160718028570358e-02
      -8.8310148921320983e-02 8.9970917792535340e-02
      -1.6851491185255110e-02 -7.8289948415710079e-03
      -5.7870230816992642e-03 2.6728415561045545e-02
      -1.0342847457767902e-02 1.8916072952389795e-02
      3.2762067921610828e-02 -6.6645354972379930e-02
      -3.2097039690533184e-03 -8.4387808039968811e-03
      -2.8659200151421566e-02 -3.4599009217258635e-02
      8.2152691533911484e-02 -3.1911649816412826e-04
      1.1393599515204437e-02 -2.1132892662978249e-02
      2.4235416086544032e-02 8.0602897845861686e-03
      -3.1325257858634138e-02 -2.4356566180721684e-02
      1.2007352211035105e-02 -2.8355512871826367e-02
      -2.3641741655656287e-02 -3.2738683943520773e-02
      2.3010081575125161e-02 -4.7219304991969593e-02
      4.0501392003816084e-02 2.2411870008100923e-02
      2.9044821768986484e-02 9.7916972657473220e-03
      -3.4369056654545392e-02 -2.1413537044759848e-02
      -3.8408969865160042e-02 1.5680285615859355e-02
      2.2983137135688496e-02 -5.3414036724329921e-02
      2.8586299821278856e-02 -1.9233967579222608e-02
      -9.8915768245425254e-03 1.1186115469476156e-02
      1.8554312025477495e-02 -3.6240830587709320e-02
      -3.4968386487839932e-02 -2.2090589028902589e-02
      -4.2200862190267842e-02 4.7142945782774642e-02
      -2.4103418540356674e-02 -6.4156870736291197e-04
      -3.7333238572026493e-02 -3.9997155001035858e-02
      2.3476048982757292e-02 2.7833116848712328e-02
      2.2973954635079645e-03 -2.8414928264173443e-02
      -1.7358208030089885e-02 -4.9458098201074323e-02
      -2.4948448642911666e-02 -1.7517044405608920e-02
      2.1609704652222114e-02 2.3563921631177733e-02
      5.9605543105172805e-02 -2.3735623714449601e-02
      -2.4913272037408288e-02 -3.6804849292422268e-02
      2.2717825214675282e-02 -4.8474290314612825e-02
      4.6416848973316611e-02 2.1633411110192680e-02
      3.5919097160764732e-02 -1.9834351795958088e-02
      -4.2484861537776204e-02 -2.0218402550658075e-02
      -4.3859331903988302e-02 1.8545621575008095e-02
      2.8240355165090755e-02 -5.5769981036426386e-02
      3.4966256885188347e-02 -1.8444906508380699e-02
      2.1064271695661274e-02 -2.1023045727523580e-02
      2.0180717710167009e-02 -4.2343948060887079e-02
      -3.8289771069111113e-02 -2.2388530329421168e-02
      -4.7778587744856847e-02 4.9960319941618550e-02
      -1.9711099685004251e-02 1.2134995499537176e-02
      -4.2713120209890904e-02 -4.6712423809029457e-02
      2.4605533185415727e-02 2.4715397444577344e-02
      -1.9089132326065961e-02 -3.1222778247428459e-02
      -1.7066451390928106e-02 -5.2403370381703743e-02
      -2.4126614295666014e-02 -1.7122445329759949e-02
      2.2445737782935682e-02 2.2037244641935655e-02
      -4.3944657131159706e-02 -3.9272586346460782e-02
      -3.4984171586213211e-02 -3.1633866195773408e-02
      3.1849209906318419e-02 -2.1092001601281881e-02
      2.7481487781694767e-02 2.7401659143610386e-02
      1.3357846167915782e-02 -6.8804712558687142e-02
      -2.4966267784504528e-02 -2.8332895730490783e-02
      -2.5652344638345433e-02 2.0686719153441526e-02
      1.1986629442924239e-02 -3.0309265123413028e-02
      1.3897729124198621e-02 -2.4664942462568250e-02
      6.7370148349295084e-02 -6.9298768041791095e-02
      2.5708425945567881e-02 -1.7192034849243316e-02
      -1.4768387074768562e-02 -3.3238002890986128e-02
      -2.6194364642636039e-02 2.0690649062198543e-02
      -3.3068889272945261e-02 6.1503344155869007e-02
      -2.9383705572489330e-02 -2.4804150219076806e-02
      3.6788051395113909e-02 3.8768709105743704e-02
      -6.8394822398750707e-02 -2.9381713421107444e-02
      -2.2495852258528317e-02 -2.2690421929512233e-02
      -3.3625842847662644e-02 -2.0327199767179612e-02
      3.6180899672295090e-02 3.2208172623001317e-02
      -4.2403621266807343e-02 -4.1078955511520243e-02
      -3.5029930761473635e-02 -3.7693892878409976e-02
      3.3704814517446995e-02 -3.0412493566867475e-02
      3.5615569373680468e-02 2.8726330458329917e-02
      2.1500297260872169e-02 -7.2246866087710374e-02
      -3.4912497864098405e-02 -2.8456315181521509e-02
      -3.4029221192067881e-02 2.4843552337809049e-02
      1.6962690945909562e-02 -3.5725250656098641e-02
      2.2017607475399405e-02 -2.5457482079376016e-02
