<?xml version="1.0"?>
<opencv_storage>
<shapeML type_id="opencv-ml-ann-mlp">
  <layer_sizes type_id="opencv-matrix">
    <rows>1</rows>
    <cols>3</cols>
    <dt>i</dt>
    <data>
      1600 40 1</data></layer_sizes>
  <activation_function>SIGMOID_SYM</activation_function>
  <f_param1>5.9999999999999998e-01</f_param1>
  <f_param2>1.</f_param2>
  <min_val>-9.4999999999999996e-01</min_val>
  <max_val>9.4999999999999996e-01</max_val>
  <min_val1>-9.7999999999999998e-01</min_val1>
  <max_val1>9.7999999999999998e-01</max_val1>
  <training_params>
    <train_method>BACKPROP</train_method>
    <dw_scale>1.0000000000000001e-01</dw_scale>
    <moment_scale>1.0000000000000001e-01</moment_scale>
    <term_criteria><epsilon>9.9999999747524271e-07</epsilon>
      <iterations>4000</iterations></term_criteria></training_params>
  <input_scale>
    1. 0. 5.8693255024598989e-02 -6.7115605521402430e-02
    5.8693255024598989e-02 -6.7115605521402430e-02
    5.8693255024598989e-02 -6.7115605521402430e-02
    3.4040247950592080e-02 -1.1677484162422844e-01
    3.4040247950592080e-02 -1.1677484162422844e-01
    2.6488138199574577e-02 -1.5144563320384569e-01
    2.9546948114330462e-02 -1.3514747567989718e-01
    2.4235902155026197e-02 -1.6628219864210797e-01
    2.2489965386631696e-02 -1.8002057495577387e-01
    1.9926753166862734e-02 -2.0507577810739899e-01
    1.9926753166862734e-02 -2.0507577810739899e-01
    2.1086303792941550e-02 -1.9289712886816485e-01
    1.6737221325908085e-02 -2.4880667576405965e-01
    1.5195658279322767e-02 -2.7801921874276631e-01
    1.4777692036996264e-02 -2.8727038107793185e-01
    1.2893943616683161e-02 -3.3911649915626341e-01
    1.6737221325908085e-02 -2.4880667576405965e-01
    1.7379322085718393e-02 -2.3847859005514924e-01
    1.2219259712347304e-02 -3.6329009817427188e-01
    1.0909235624184424e-02 -4.2413934018690114e-01
    1.1835002697769704e-02 -3.7893237337253666e-01
    1.4046651202286422e-02 -3.0518396894653688e-01
    1.4777692036996264e-02 -2.8727038107793185e-01
    2.1086303792941550e-02 -1.9289712886816485e-01
    2.6488138199574577e-02 -1.5144563320384569e-01
    2.4235902155026197e-02 -1.6628219864210797e-01
    1.9926753166862734e-02 -2.0507577810739899e-01
    1.8948501955664509e-02 -2.1667569500871972e-01
    2.1086303792941550e-02 -1.9289712886816485e-01
    2.1086303792941550e-02 -1.9289712886816485e-01
    2.6488138199574577e-02 -1.5144563320384569e-01
    2.2489965386631696e-02 -1.8002057495577387e-01
    2.6488138199574577e-02 -1.5144563320384569e-01
    2.4235902155026197e-02 -1.6628219864210797e-01
    2.4235902155026197e-02 -1.6628219864210797e-01
    5.8693255024598989e-02 -6.7115605521402430e-02
    5.8693255024598989e-02 -6.7115605521402430e-02
    5.8693255024598989e-02 -6.7115605521402430e-02
    4.1596189488804773e-02 -9.5130298830898810e-02
    5.8693255024598989e-02 -6.7115605521402430e-02
    4.1596189488804773e-02 -9.5130298830898810e-02
    5.8693255024598989e-02 -6.7115605521402430e-02
    4.1596189488804773e-02 -9.5130298830898810e-02
    2.9546948114330462e-02 -1.3514747567989718e-01
    2.9546948114330462e-02 -1.3514747567989718e-01
    2.1086303792941550e-02 -1.9289712886816485e-01
    1.9926753166862734e-02 -2.0507577810739899e-01
    1.9926753166862734e-02 -2.0507577810739899e-01
    1.8109247719946653e-02 -2.2778672580471013e-01
    1.5656236952038580e-02 -2.6854307776478731e-01
    1.3724662253733219e-02 -3.1388241028717229e-01
    1.2429741110405524e-02 -3.5533452725935077e-01
    1.1044114796377149e-02 -4.1675437673324534e-01
    1.0430065123754825e-02 -4.5321673116226124e-01
    9.7712117427019591e-03 -5.0280114236549311e-01
    9.9401789347657241e-03 -4.8876260995383924e-01
    9.6152243000764675e-03 -5.1676440913191235e-01
    9.4709167349073080e-03 -5.3066863050523239e-01
    1.0029995772710838e-02 -4.8170966244723357e-01
    9.4709167349073080e-03 -5.3066863050523239e-01
    1.0029995772710838e-02 -4.8170966244723357e-01
    9.7712117427019591e-03 -5.0280114236549311e-01
    1.0221370767972266e-02 -4.6752458221218440e-01
    1.1185953505054231e-02 -4.0931560807732076e-01
    1.2021392159597251e-02 -3.7115374447904520e-01
    1.3724662253733219e-02 -3.1388241028717229e-01
    1.3724662253733219e-02 -3.1388241028717229e-01
    1.4046651202286422e-02 -3.0518396894653688e-01
    1.4777692036996264e-02 -2.8727038107793185e-01
    1.7379322085718393e-02 -2.3847859005514924e-01
    1.8109247719946653e-02 -2.2778672580471013e-01
    1.7379322085718393e-02 -2.3847859005514924e-01
    1.8948501955664509e-02 -2.1667569500871972e-01
    1.9926753166862734e-02 -2.0507577810739899e-01
    1.9926753166862734e-02 -2.0507577810739899e-01
    3.4040247950592080e-02 -1.1677484162422844e-01
    3.4040247950592080e-02 -1.1677484162422844e-01
    3.4040247950592080e-02 -1.1677484162422844e-01
    3.4040247950592080e-02 -1.1677484162422844e-01 1. 0.
    4.1596189488804773e-02 -9.5130298830898810e-02
    4.1596189488804773e-02 -9.5130298830898810e-02
    3.4040247950592080e-02 -1.1677484162422844e-01
    2.6488138199574577e-02 -1.5144563320384569e-01
    2.2489965386631696e-02 -1.8002057495577387e-01
    1.8948501955664509e-02 -2.1667569500871972e-01
    1.8948501955664509e-02 -2.1667569500871972e-01
    1.4046651202286422e-02 -3.0518396894653688e-01
    1.1659094401064012e-02 -3.8663230087833345e-01
    1.1044114796377149e-02 -4.1675437673324534e-01
    1.0909235624184424e-02 -4.2413934018690114e-01
    1.0780818531068917e-02 -4.3147446363134567e-01
    9.6152243000764675e-03 -5.1676440913191235e-01
    9.5416842201228036e-03 -5.2372293656638169e-01
    8.8429110237362336e-03 -6.0671093570925727e-01
    8.8429110237362336e-03 -6.0671093570925727e-01
    8.7529792687081834e-03 -6.2055875443173258e-01
    8.4835920573123787e-03 -6.6936682622605959e-01
    8.6691423340757908e-03 -6.3444126857451522e-01
    8.5539160185991586e-03 -6.5535271380164406e-01
    8.6293773569781733e-03 -6.4139878785611315e-01
    8.7529792687081834e-03 -6.2055875443173258e-01
    8.8903068871461054e-03 -5.9979671352965547e-01
    8.7529792687081834e-03 -6.2055875443173258e-01
    8.7971552799484248e-03 -6.1363116762151459e-01
    1.0123648558632148e-02 -4.7463114654932337e-01
    1.0909235624184424e-02 -4.2413934018690114e-01
    1.1185953505054231e-02 -4.0931560807732076e-01
    1.2654136752806950e-02 -3.4727944810393963e-01
    1.5195658279322767e-02 -2.7801921874276631e-01
    1.6737221325908085e-02 -2.4880667576405965e-01
    1.6737221325908085e-02 -2.4880667576405965e-01
    1.5656236952038580e-02 -2.6854307776478731e-01
    1.5656236952038580e-02 -2.6854307776478731e-01
    1.6166928653154652e-02 -2.5881585332628748e-01
    2.1086303792941550e-02 -1.9289712886816485e-01
    2.4235902155026197e-02 -1.6628219864210797e-01
    2.6488138199574577e-02 -1.5144563320384569e-01
    3.4040247950592080e-02 -1.1677484162422844e-01 1. 0.
    5.8693255024598989e-02 -6.7115605521402430e-02
    2.9546948114330462e-02 -1.3514747567989718e-01
    2.4235902155026197e-02 -1.6628219864210797e-01
    1.8948501955664509e-02 -2.1667569500871972e-01
    1.9926753166862734e-02 -2.0507577810739899e-01
    1.6737221325908085e-02 -2.4880667576405965e-01
    1.1492788135550913e-02 -3.9425932393257612e-01
    1.1185953505054231e-02 -4.0931560807732076e-01
    1.0323416933031813e-02 -4.6038736053363849e-01
    1.1185953505054231e-02 -4.0931560807732076e-01
    9.7712117427019591e-03 -5.0280114236549311e-01
    9.4027876640952850e-03 -5.3760333057047027e-01
    8.7103261399205812e-03 -6.2749501990055667e-01
    8.7103261399205812e-03 -6.2749501990055667e-01
    8.2736895133194623e-03 -7.1903185097816680e-01
    8.2736895133194623e-03 -7.1903185097816680e-01
    8.1762030890935658e-03 -7.4795759200676570e-01
    8.1762030890935658e-03 -7.4795759200676570e-01
    8.3282871077216859e-03 -7.0472994494487995e-01
    8.1991699969445522e-03 -7.4068286810963224e-01
    8.1126290550875661e-03 -7.6997217018353514e-01
    8.1329518306444658e-03 -7.6260099900796319e-01
    8.0745007006493008e-03 -7.8481974298911927e-01
    8.4180929014903792e-03 -6.8345099543266052e-01
    8.6691423340757908e-03 -6.3444126857451522e-01
    8.7103261399205812e-03 -6.2749501990055667e-01
    8.5181322236840811e-03 -6.6235162672054693e-01
    1.0123648558632148e-02 -4.7463114654932337e-01
    1.0430065123754825e-02 -4.5321673116226124e-01
    1.1335305290435532e-02 -4.0181878170803981e-01
    1.2219259712347304e-02 -3.6329009817427188e-01
    1.6166928653154652e-02 -2.5881585332628748e-01
    1.5656236952038580e-02 -2.6854307776478731e-01
    1.5656236952038580e-02 -2.6854307776478731e-01
    1.5195658279322767e-02 -2.7801921874276631e-01
    1.8109247719946653e-02 -2.2778672580471013e-01
    2.2489965386631696e-02 -1.8002057495577387e-01
    2.6488138199574577e-02 -1.5144563320384569e-01
    2.6488138199574577e-02 -1.5144563320384569e-01
    4.1596189488804773e-02 -9.5130298830898810e-02
    2.4235902155026197e-02 -1.6628219864210797e-01
    2.4235902155026197e-02 -1.6628219864210797e-01
    1.7379322085718393e-02 -2.3847859005514924e-01
    1.4777692036996264e-02 -2.8727038107793185e-01
    1.3724662253733219e-02 -3.1388241028717229e-01
    1.1492788135550913e-02 -3.9425932393257612e-01
    1.0323416933031813e-02 -4.6038736053363849e-01
    9.8539834579321351e-03 -4.9579235156053159e-01
    9.6152243000764675e-03 -5.1676440913191235e-01
    9.1542854473043184e-03 -5.6526686371919488e-01
    8.7971552799484248e-03 -6.1363116762151459e-01
    8.6691423340757908e-03 -6.3444126857451522e-01
    8.3571389500040581e-03 -6.9761498454854498e-01
    8.1541369455408134e-03 -7.5526322246702016e-01
    8.2230585047150459e-03 -7.3343781909767836e-01
    7.9200369112007209e-03 -8.6942826720266209e-01
    8.0233633863783793e-03 -8.0737342775933107e-01
    8.1329518306444658e-03 -7.6260099900796319e-01
    8.1329518306444658e-03 -7.6260099900796319e-01
    8.0396214848873354e-03 -7.9981615534630290e-01
    8.1329518306444658e-03 -7.6260099900796319e-01
    8.0078749034396181e-03 -8.1497184275139967e-01
    8.0566625432313306e-03 -7.9229869763705407e-01
    8.2478906057542115e-03 -7.2622121992817912e-01
    8.1126290550875661e-03 -7.6997217018353514e-01
    8.2478906057542115e-03 -7.2622121992817912e-01
    8.3004797275610699e-03 -7.1186849681437425e-01
    8.6293773569781733e-03 -6.4139878785611315e-01
    9.0429979739118666e-03 -5.7907628281372847e-01
    9.7712117427019591e-03 -5.0280114236549311e-01
    1.1185953505054231e-02 -4.0931560807732076e-01
    1.2021392159597251e-02 -3.7115374447904520e-01
    1.4046651202286422e-02 -3.0518396894653688e-01
    1.4777692036996264e-02 -2.8727038107793185e-01
    1.3427011179740348e-02 -3.2242890075116398e-01
    1.5656236952038580e-02 -2.6854307776478731e-01
    1.8948501955664509e-02 -2.1667569500871972e-01
    2.2489965386631696e-02 -1.8002057495577387e-01
    1.9926753166862734e-02 -2.0507577810739899e-01
    3.4040247950592080e-02 -1.1677484162422844e-01
    2.2489965386631696e-02 -1.8002057495577387e-01
    1.9926753166862734e-02 -2.0507577810739899e-01
    1.6166928653154652e-02 -2.5881585332628748e-01
    1.3724662253733219e-02 -3.1388241028717229e-01
    1.1835002697769704e-02 -3.7893237337253666e-01
    1.0430065123754825e-02 -4.5321673116226124e-01
    9.7712117427019591e-03 -5.0280114236549311e-01
    8.9902798514114243e-03 -5.8598079659311686e-01
    8.7103261399205812e-03 -6.2749501990055667e-01
    8.7103261399205812e-03 -6.2749501990055667e-01
    8.4835920573123787e-03 -6.6936682622605959e-01
    8.2736895133194623e-03 -7.1903185097816680e-01
    8.4180929014903792e-03 -6.8345099543266052e-01
    8.0566625432313306e-03 -7.9229869763705407e-01
    7.9659049693675144e-03 -8.3802749139624166e-01
    7.8438470803366377e-03 -1.0135446350668171e+00
    7.8660272617812471e-03 -9.2646280731248631e-01
    7.8451094682228713e-03 -9.7782429448096275e-01
    7.9012651901125899e-03 -8.8543774484714632e-01
    7.8660272617812471e-03 -9.2646280731248631e-01
    7.8609409196640275e-03 -9.3485270488560546e-01
    7.9200369112007209e-03 -8.6942826720266209e-01
    7.9103107170473419e-03 -8.7740598917563228e-01
    7.8609409196640275e-03 -9.3485270488560546e-01
    7.9012651901125899e-03 -8.8543774484714632e-01
    7.8781470044407640e-03 -9.0987298699269903e-01
    8.0745007006493008e-03 -7.8481974298911927e-01
    8.3282871077216859e-03 -7.0472994494487995e-01
    8.4502575784637917e-03 -6.7639954159452320e-01
    9.1542854473043184e-03 -5.6526686371919488e-01
    9.4027876640952850e-03 -5.3760333057047027e-01
    1.0430065123754825e-02 -4.5321673116226124e-01
    1.1044114796377149e-02 -4.1675437673324534e-01
    1.3150895097722883e-02 -3.3083641927455321e-01
    1.2654136752806950e-02 -3.4727944810393963e-01
    1.5195658279322767e-02 -2.7801921874276631e-01
    1.7379322085718393e-02 -2.3847859005514924e-01
    1.9926753166862734e-02 -2.0507577810739899e-01
    1.9926753166862734e-02 -2.0507577810739899e-01
    3.4040247950592080e-02 -1.1677484162422844e-01
    1.8109247719946653e-02 -2.2778672580471013e-01
    1.6737221325908085e-02 -2.4880667576405965e-01
    1.2893943616683161e-02 -3.3911649915626341e-01
    1.1492788135550913e-02 -3.9425932393257612e-01
    1.0658415070611120e-02 -4.3876345447627840e-01
    9.6916815047723270e-03 -5.0979113924206010e-01
    9.4709167349073080e-03 -5.3066863050523239e-01
    8.5181322236840811e-03 -6.6235162672054693e-01
    8.4180929014903792e-03 -6.8345099543266052e-01
    8.6293773569781733e-03 -6.4139878785611315e-01
    8.2478906057542115e-03 -7.2622121992817912e-01
    8.0233633863783793e-03 -8.0737342775933107e-01
    7.9415614489831057e-03 -8.5362882480773561e-01
    7.8526966164837574e-03 -9.5183134324464558e-01
    7.8438470803366377e-03 -1.0135446350668171e+00
    7.8470041933967928e-03 -1.0318986456114843e+00
    7.8438470803366377e-03 -1.0135446350668171e+00
    7.8660272617812471e-03 -1.0793741444417315e+00
    7.8781470044407657e-03 -1.0990544991396962e+00
    7.8564984548166201e-03 -1.0600988273786194e+00
    7.8470041933967911e-03 -9.6908742370469791e-01
    7.8526966164837574e-03 -9.5183134324464558e-01
    7.8451094682228713e-03 -9.7782429448096275e-01
    7.8717612151086754e-03 -9.1813681257837065e-01
    7.8438470803366377e-03 -1.0135446350668171e+00
    7.8526966164837574e-03 -9.5183134324464558e-01
    7.9200369112007209e-03 -8.6942826720266209e-01
    8.0396214848873354e-03 -7.9981615534630290e-01
    8.0566625432313306e-03 -7.9229869763705407e-01
    8.4502575784637917e-03 -6.7639954159452320e-01
    8.6293773569781733e-03 -6.4139878785611315e-01
    9.0429979739118666e-03 -5.7907628281372847e-01
    9.7712117427019591e-03 -5.0280114236549311e-01
    1.0780818531068917e-02 -4.3147446363134567e-01
    1.2219259712347304e-02 -3.6329009817427188e-01
    1.3724662253733219e-02 -3.1388241028717229e-01
    1.6166928653154652e-02 -2.5881585332628748e-01
    1.8109247719946653e-02 -2.2778672580471013e-01
    2.1086303792941550e-02 -1.9289712886816485e-01
    2.4235902155026197e-02 -1.6628219864210797e-01
    1.6166928653154652e-02 -2.5881585332628748e-01
    1.4777692036996264e-02 -2.8727038107793185e-01
    1.1492788135550913e-02 -3.9425932393257612e-01
    1.0123648558632148e-02 -4.7463114654932337e-01
    1.0909235624184424e-02 -4.2413934018690114e-01
    8.8429110237362336e-03 -6.0671093570925727e-01
    8.3571389500040581e-03 -6.9761498454854498e-01
    8.3282871077216859e-03 -7.0472994494487995e-01
    8.3571389500040581e-03 -6.9761498454854498e-01
    8.1991699969445522e-03 -7.4068286810963224e-01
    7.9012651901125899e-03 -8.8543774484714632e-01
    7.8470041933967911e-03 -9.6908742370469791e-01
    7.8495326304507743e-03 -1.0412070637162956e+00
    7.8470041933967928e-03 -1.0318986456114843e+00
    7.8438470803366377e-03 -1.0135446350668171e+00
    7.8660272617812471e-03 -1.0793741444417315e+00
    7.8470041933967928e-03 -1.0318986456114843e+00
    7.9103107170473419e-03 -1.1397232436714400e+00
    7.9103107170473419e-03 -1.1397232436714400e+00
    7.9103107170473419e-03 -1.1397232436714400e+00
    7.8781470044407657e-03 -1.0990544991396962e+00
    7.9415614489831057e-03 -1.1714693446829563e+00
    7.9103107170473419e-03 -1.1397232436714400e+00
    7.9103107170473419e-03 -1.1397232436714400e+00
    7.8451094682228713e-03 -9.7782429448096275e-01
    7.8526966164837574e-03 -9.5183134324464558e-01
    7.8781470044407640e-03 -9.0987298699269903e-01
    8.0745007006493008e-03 -7.8481974298911927e-01
    8.0233633863783793e-03 -8.0737342775933107e-01
    8.0078749034396181e-03 -8.1497184275139967e-01
    8.1126290550875661e-03 -7.6997217018353514e-01
    8.4180929014903792e-03 -6.8345099543266052e-01
    8.7529792687081834e-03 -6.2055875443173258e-01
    9.9401789347657241e-03 -4.8876260995383924e-01
    1.0658415070611120e-02 -4.3876345447627840e-01
    1.2654136752806950e-02 -3.4727944810393963e-01
    1.4046651202286422e-02 -3.0518396894653688e-01
    1.5656236952038580e-02 -2.6854307776478731e-01
    1.8109247719946653e-02 -2.2778672580471013e-01
    1.8109247719946653e-02 -2.2778672580471013e-01
    1.4777692036996264e-02 -2.8727038107793185e-01
    1.3427011179740348e-02 -3.2242890075116398e-01
    1.1659094401064012e-02 -3.8663230087833345e-01
    1.0658415070611120e-02 -4.3876345447627840e-01
    1.0123648558632148e-02 -4.7463114654932337e-01
    8.7103261399205812e-03 -6.2749501990055667e-01
    8.2230585047150459e-03 -7.3343781909767836e-01
    8.0396214848873354e-03 -7.9981615534630290e-01
    8.0396214848873354e-03 -7.9981615534630290e-01
    7.9415614489831057e-03 -8.5362882480773561e-01
    7.8451094682228713e-03 -9.7782429448096275e-01
    7.8438470803366377e-03 -9.8663637041902552e-01
    7.8495326304507743e-03 -1.0412070637162956e+00
    7.8432161148784835e-03 -9.9552570462616807e-01
    7.8564984548166201e-03 -1.0600988273786194e+00
    7.9533763250159012e-03 -1.1823068393465344e+00
    7.9791571910884339e-03 -1.2043875831929896e+00
    7.9415614489831057e-03 -1.1714693446829563e+00
    7.9415614489831057e-03 -1.1714693446829563e+00
    7.8609409196640292e-03 -1.0696872296287219e+00
    8.0233633863783793e-03 -1.2385842357671555e+00
    8.1126290550875661e-03 -1.2987482388637943e+00
    7.9533763250159012e-03 -1.1823068393465344e+00
    7.8564984548166201e-03 -1.0600988273786194e+00
    7.9533763250159012e-03 -1.1823068393465344e+00
    7.8609409196640292e-03 -1.0696872296287219e+00
    7.8660272617812471e-03 -9.2646280731248631e-01
    7.8851893541504858e-03 -9.0166963466743222e-01
    7.9012651901125899e-03 -8.8543774484714632e-01
    7.9659049693675144e-03 -8.3802749139624166e-01
    7.9415614489831057e-03 -8.5362882480773561e-01
    7.9533763250159012e-03 -8.4580412353252066e-01
    8.2478906057542115e-03 -7.2622121992817912e-01
    8.8429110237362336e-03 -6.0671093570925727e-01
    9.8539834579321351e-03 -4.9579235156053159e-01
    1.0780818531068917e-02 -4.3147446363134567e-01
    1.2429741110405524e-02 -3.5533452725935077e-01
    1.4396320264892711e-02 -2.9631887899487686e-01
    1.6737221325908085e-02 -2.4880667576405965e-01
    1.8948501955664509e-02 -2.1667569500871972e-01
    1.4046651202286422e-02 -3.0518396894653688e-01
    1.2429741110405524e-02 -3.5533452725935077e-01
    1.1044114796377149e-02 -4.1675437673324534e-01
    9.5416842201228036e-03 -5.2372293656638169e-01
    8.4502575784637917e-03 -6.7639954159452320e-01
    8.3571389500040581e-03 -6.9761498454854498e-01
    8.0233633863783793e-03 -8.0737342775933107e-01
    7.8851893541504858e-03 -9.0166963466743222e-01
    7.8609409196640275e-03 -9.3485270488560546e-01
    7.8432161148784835e-03 -9.9552570462616807e-01
    7.8438470803366377e-03 -9.8663637041902552e-01
    7.8432161148784835e-03 -9.9552570462616807e-01
    7.8495326304507743e-03 -1.0412070637162956e+00
    7.8609409196640292e-03 -1.0696872296287219e+00
    8.0745007006492991e-03 -1.2741779356764520e+00
    8.0566625432313323e-03 -1.2621502508869356e+00
    7.9415614489831057e-03 -1.1714693446829563e+00
    7.8609409196640292e-03 -1.0696872296287219e+00
    7.9415614489831057e-03 -1.1714693446829563e+00
    8.0078749034396181e-03 -1.2270362576257030e+00
    8.1762030890935658e-03 -1.3369741957120935e+00
    8.3870640716079223e-03 -1.4481789330818970e+00
    8.1126290550875661e-03 -1.2987482388637943e+00
    8.0745007006492991e-03 -1.2741779356764520e+00
    8.0931509260102289e-03 -1.2863754913561998e+00
    7.8781470044407657e-03 -1.0990544991396962e+00
    7.9304511654182640e-03 -1.1607620001760186e+00
    7.8609409196640292e-03 -1.0696872296287219e+00
    7.8432161148784835e-03 -1.0044944046678452e+00
    7.8470041933967911e-03 -9.6908742370469791e-01
    7.8717612151086754e-03 -9.1813681257837065e-01
    7.9533763250159012e-03 -8.4580412353252066e-01
    7.9931434545672704e-03 -8.2261274566062259e-01
    8.1991699969445522e-03 -7.4068286810963224e-01
    8.9394070641054552e-03 -5.9288713218887745e-01
    1.0029995772710838e-02 -4.8170966244723357e-01
    1.1492788135550913e-02 -3.9425932393257612e-01
    1.3724662253733219e-02 -3.1388241028717229e-01
    1.5195658279322767e-02 -2.7801921874276631e-01
    1.7379322085718393e-02 -2.3847859005514924e-01
    1.3427011179740348e-02 -3.2242890075116398e-01
    1.1335305290435532e-02 -4.0181878170803981e-01
    9.6916815047723270e-03 -5.0979113924206010e-01
    8.4180929014903792e-03 -6.8345099543266052e-01
    8.2478906057542115e-03 -7.2622121992817912e-01
    8.2478906057542115e-03 -7.2622121992817912e-01
    8.0396214848873354e-03 -7.9981615534630290e-01
    7.9200369112007209e-03 -8.6942826720266209e-01
    7.8495326304507743e-03 -1.0412070637162956e+00
    7.9533763250159012e-03 -1.1823068393465344e+00
    7.8851893541504858e-03 -1.1090536506409416e+00
    7.8851893541504858e-03 -1.1090536506409416e+00
    7.9415614489831057e-03 -1.1714693446829563e+00
    7.9931434545672704e-03 -1.2156388352540313e+00
    8.2736895133194623e-03 -1.3907589749182960e+00
    8.2736895133194623e-03 -1.3907589749182960e+00
    8.0396214848873337e-03 -1.2502873232999674e+00
    7.9659049693675127e-03 -1.1932782757924743e+00
    8.1541369455408116e-03 -1.3240416986458869e+00
    8.1541369455408116e-03 -1.3240416986458869e+00
    8.1541369455408116e-03 -1.3240416986458869e+00
    8.5909835735129107e-03 -1.5423319612806698e+00
    8.2478906057542115e-03 -1.3769908845391448e+00
    8.1329518306444658e-03 -1.3113017178063757e+00
    8.0931509260102289e-03 -1.2863754913561998e+00
    8.1762030890935658e-03 -1.3369741957120935e+00
    8.3571389500040564e-03 -1.4334554477024894e+00
    8.0233633863783793e-03 -1.2385842357671555e+00
    8.0745007006492991e-03 -1.2741779356764520e+00
    7.9012651901125899e-03 -1.1293848786315641e+00
    7.8438470803366377e-03 -1.0135446350668171e+00
    7.8451094682228713e-03 -9.7782429448096275e-01
    7.9200369112007209e-03 -8.6942826720266209e-01
    7.9304511654182657e-03 -8.6150304700563896e-01
    8.2736895133194623e-03 -7.1903185097816680e-01
    9.3371722600248033e-03 -5.4452881274270204e-01
    1.0909235624184424e-02 -4.2413934018690114e-01
    1.2219259712347304e-02 -3.6329009817427188e-01
    1.4396320264892711e-02 -2.9631887899487686e-01
    1.8948501955664509e-02 -2.1667569500871972e-01
    1.2893943616683161e-02 -3.3911649915626341e-01
    1.0780818531068917e-02 -4.3147446363134567e-01
    8.6293773569781733e-03 -6.4139878785611315e-01
    8.1541369455408134e-03 -7.5526322246702016e-01
    8.1991699969445522e-03 -7.4068286810963224e-01
    8.0931509260102306e-03 -7.7737799477640879e-01
    7.9103107170473419e-03 -8.7740598917563228e-01
    7.8526966164837574e-03 -9.5183134324464558e-01
    7.8781470044407657e-03 -1.0990544991396962e+00
    7.9415614489831057e-03 -1.1714693446829563e+00
    7.9012651901125899e-03 -1.1293848786315641e+00
    7.8717612151086754e-03 -1.0891622972743416e+00
    7.9103107170473419e-03 -1.1397232436714400e+00
    8.0745007006492991e-03 -1.2741779356764520e+00
    8.4180929014903809e-03 -1.4631626944473863e+00
    8.3870640716079223e-03 -1.4481789330818970e+00
    8.1329518306444658e-03 -1.3113017178063757e+00
    8.1991699969445539e-03 -1.3501054811112287e+00
    8.1991699969445539e-03 -1.3501054811112287e+00
    8.1329518306444658e-03 -1.3113017178063757e+00
    8.1762030890935658e-03 -1.3369741957120935e+00
    8.1762030890935658e-03 -1.3369741957120935e+00
    8.2478906057542115e-03 -1.3769908845391448e+00
    8.0745007006492991e-03 -1.2741779356764520e+00
    8.0931509260102289e-03 -1.2863754913561998e+00
    8.3870640716079223e-03 -1.4481789330818970e+00
    8.6293773569781698e-03 -1.5590924381733204e+00
    8.6293773569781698e-03 -1.5590924381733204e+00
    8.4180929014903809e-03 -1.4631626944473863e+00
    8.1126290550875661e-03 -1.2987482388637943e+00
    7.9103107170473419e-03 -1.1397232436714400e+00
    7.8781470044407657e-03 -1.0990544991396962e+00
    7.8451094682228731e-03 -1.0226786199158697e+00
    7.8495326304507743e-03 -9.6042375704865190e-01
    7.9304511654182657e-03 -8.6150304700563896e-01
    8.7971552799484248e-03 -6.1363116762151459e-01
    9.9401789347657241e-03 -4.8876260995383924e-01
    1.2654136752806950e-02 -3.4727944810393963e-01
    1.4777692036996264e-02 -2.8727038107793185e-01
    1.8109247719946653e-02 -2.2778672580471013e-01
    1.2893943616683161e-02 -3.3911649915626341e-01
    1.0323416933031813e-02 -4.6038736053363849e-01
    8.7529792687081834e-03 -6.2055875443173258e-01
    8.0566625432313306e-03 -7.9229869763705407e-01
    7.8851893541504858e-03 -9.0166963466743222e-01
    7.8470041933967911e-03 -9.6908742370469791e-01
    7.8495326304507743e-03 -9.6042375704865190e-01
    7.8564984548166201e-03 -1.0600988273786194e+00
    7.9012651901125899e-03 -1.1293848786315641e+00
    7.8851893541504858e-03 -1.1090536506409416e+00
    7.9659049693675127e-03 -1.1932782757924743e+00
    7.9659049693675127e-03 -1.1932782757924743e+00
    8.0931509260102289e-03 -1.2863754913561998e+00
    8.4180929014903809e-03 -1.4631626944473863e+00
    8.5539160185991586e-03 -1.5258958709411414e+00
    8.3870640716079223e-03 -1.4481789330818970e+00
    8.3282871077216877e-03 -1.4189832675241505e+00
    8.4180929014903809e-03 -1.4631626944473863e+00
    8.3282871077216877e-03 -1.4189832675241505e+00
    8.1329518306444658e-03 -1.3113017178063757e+00
    8.1541369455408116e-03 -1.3240416986458869e+00
    8.0566625432313323e-03 -1.2621502508869356e+00
    8.4180929014903809e-03 -1.4631626944473863e+00
    8.2230585047150459e-03 -1.3634420996046586e+00
    8.4502575784637917e-03 -1.4784161409137437e+00
    8.8429110237362336e-03 -1.6482313753434823e+00
    8.8903068871461072e-03 -1.6672315426926019e+00
    8.7529792687081834e-03 -1.6114509590888539e+00
    8.1329518306444658e-03 -1.3113017178063757e+00
    8.1126290550875661e-03 -1.2987482388637943e+00
    7.9931434545672704e-03 -1.2156388352540313e+00
    7.9415614489831057e-03 -1.1714693446829563e+00
    7.9103107170473419e-03 -1.1397232436714400e+00
    7.8609409196640292e-03 -1.0696872296287219e+00
    7.8928934980049530e-03 -8.9352509577190609e-01
    8.1126290550875661e-03 -7.6997217018353514e-01
    9.4027876640952850e-03 -5.3760333057047027e-01
    1.2429741110405524e-02 -3.5533452725935077e-01
    1.5195658279322767e-02 -2.7801921874276631e-01
    1.6737221325908085e-02 -2.4880667576405965e-01
    1.1335305290435532e-02 -4.0181878170803981e-01
    9.0976389422820995e-03 -5.7217213527132937e-01
    8.4180929014903792e-03 -6.8345099543266052e-01
    7.9304511654182657e-03 -8.6150304700563896e-01
    7.8438470803366377e-03 -9.8663637041902552e-01
    7.8470041933967928e-03 -1.0318986456114843e+00
    7.8660272617812471e-03 -1.0793741444417315e+00
    7.9415614489831057e-03 -1.1714693446829563e+00
    7.9533763250159012e-03 -1.1823068393465344e+00
    7.9931434545672704e-03 -1.2156388352540313e+00
    7.9659049693675127e-03 -1.1932782757924743e+00
    8.1126290550875661e-03 -1.2987482388637943e+00
    8.3004797275610699e-03 -1.4047538337136987e+00
    8.3004797275610699e-03 -1.4047538337136987e+00
    8.3282871077216877e-03 -1.4189832675241505e+00
    8.3004797275610699e-03 -1.4047538337136987e+00
    8.2230585047150459e-03 -1.3634420996046586e+00
    8.5181322236840811e-03 -1.5097720903188938e+00
    8.4502575784637917e-03 -1.4784161409137437e+00
    8.3282871077216877e-03 -1.4189832675241505e+00
    8.1762030890935658e-03 -1.3369741957120935e+00
    8.2230585047150459e-03 -1.3634420996046586e+00
    8.5909835735129107e-03 -1.5423319612806698e+00
    8.5181322236840811e-03 -1.5097720903188938e+00
    8.9394070641054535e-03 -1.6866616691580132e+00
    9.2130257951079896e-03 -1.7909626377485710e+00
    8.7529792687081834e-03 -1.6114509590888539e+00
    8.7971552799484230e-03 -1.6296434287653334e+00
    8.3004797275610699e-03 -1.4047538337136987e+00
    8.1329518306444658e-03 -1.3113017178063757e+00
    8.1126290550875661e-03 -1.2987482388637943e+00
    7.9103107170473419e-03 -1.1397232436714400e+00
    7.8470041933967928e-03 -1.0318986456114843e+00
    7.8495326304507743e-03 -1.0412070637162956e+00
    7.8526966164837574e-03 -9.5183134324464558e-01
    8.2230585047150459e-03 -7.3343781909767836e-01
    9.0429979739118666e-03 -5.7907628281372847e-01
    9.6152243000764675e-03 -5.1676440913191235e-01
    1.3427011179740348e-02 -3.2242890075116398e-01
    1.2893943616683161e-02 -3.3911649915626341e-01
    1.0029995772710838e-02 -4.8170966244723357e-01
    9.0429979739118666e-03 -5.7907628281372847e-01
    8.1991699969445522e-03 -7.4068286810963224e-01
    7.8526966164837574e-03 -9.5183134324464558e-01
    7.8451094682228713e-03 -9.7782429448096275e-01
    7.8781470044407657e-03 -1.0990544991396962e+00
    7.9533763250159012e-03 -1.1823068393465344e+00
    7.9931434545672704e-03 -1.2156388352540313e+00
    8.0233633863783793e-03 -1.2385842357671555e+00
    8.1126290550875661e-03 -1.2987482388637943e+00
    8.0745007006492991e-03 -1.2741779356764520e+00
    8.5181322236840811e-03 -1.5097720903188938e+00
    8.5909835735129107e-03 -1.5423319612806698e+00
    8.4835920573123804e-03 -1.4939491483885972e+00
    8.1991699969445539e-03 -1.3501054811112287e+00
    8.2736895133194623e-03 -1.3907589749182960e+00
    8.2478906057542115e-03 -1.3769908845391448e+00
    8.3571389500040564e-03 -1.4334554477024894e+00
    8.3004797275610699e-03 -1.4047538337136987e+00
    8.1329518306444658e-03 -1.3113017178063757e+00
    8.1541369455408116e-03 -1.3240416986458869e+00
    8.2478906057542115e-03 -1.3769908845391448e+00
    8.4180929014903809e-03 -1.4631626944473863e+00
    8.3870640716079223e-03 -1.4481789330818970e+00
    8.9394070641054535e-03 -1.6866616691580132e+00
    8.7971552799484230e-03 -1.6296434287653334e+00
    8.6293773569781698e-03 -1.5590924381733204e+00
    8.7529792687081834e-03 -1.6114509590888539e+00
    8.5909835735129107e-03 -1.5423319612806698e+00
    8.4835920573123804e-03 -1.4939491483885972e+00
    8.3571389500040564e-03 -1.4334554477024894e+00
    8.0745007006492991e-03 -1.2741779356764520e+00
    7.8609409196640292e-03 -1.0696872296287219e+00
    7.8438470803366377e-03 -9.8663637041902552e-01
    7.8438470803366377e-03 -1.0135446350668171e+00
    7.9533763250159012e-03 -8.4580412353252066e-01
    8.5539160185991586e-03 -6.5535271380164406e-01
    9.2739543884704876e-03 -5.5144679457900747e-01
    1.1659094401064012e-02 -3.8663230087833345e-01
    1.3427011179740348e-02 -3.2242890075116398e-01
    1.0123648558632148e-02 -4.7463114654932337e-01
    8.4502575784637917e-03 -6.7639954159452320e-01
    8.0931509260102306e-03 -7.7737799477640879e-01
    7.8495326304507743e-03 -1.0412070637162956e+00
    7.8470041933967928e-03 -1.0318986456114843e+00
    7.9103107170473419e-03 -1.1397232436714400e+00
    8.0745007006492991e-03 -1.2741779356764520e+00
    8.1541369455408116e-03 -1.3240416986458869e+00
    8.0566625432313323e-03 -1.2621502508869356e+00
    8.1541369455408116e-03 -1.3240416986458869e+00
    8.1329518306444658e-03 -1.3113017178063757e+00
    8.2230585047150459e-03 -1.3634420996046586e+00
    8.3571389500040564e-03 -1.4334554477024894e+00
    8.3870640716079223e-03 -1.4481789330818970e+00
    8.3571389500040564e-03 -1.4334554477024894e+00
    8.2478906057542115e-03 -1.3769908845391448e+00
    8.1329518306444658e-03 -1.3113017178063757e+00
    8.4180929014903809e-03 -1.4631626944473863e+00
    8.4180929014903809e-03 -1.4631626944473863e+00
    8.1329518306444658e-03 -1.3113017178063757e+00
    8.2478906057542115e-03 -1.3769908845391448e+00
    8.3282871077216877e-03 -1.4189832675241505e+00
    8.3282871077216877e-03 -1.4189832675241505e+00
    8.5539160185991586e-03 -1.5258958709411414e+00
    8.7103261399205829e-03 -1.5936381457791919e+00
    8.9394070641054535e-03 -1.6866616691580132e+00
    8.9394070641054535e-03 -1.6866616691580132e+00
    8.4180929014903809e-03 -1.4631626944473863e+00
    8.7529792687081834e-03 -1.6114509590888539e+00
    8.6293773569781698e-03 -1.5590924381733204e+00
    8.4180929014903809e-03 -1.4631626944473863e+00
    8.1762030890935658e-03 -1.3369741957120935e+00
    8.0078749034396181e-03 -1.2270362576257030e+00
    7.8851893541504858e-03 -1.1090536506409416e+00
    7.8495326304507743e-03 -1.0412070637162956e+00
    7.8660272617812471e-03 -9.2646280731248631e-01
    8.1126290550875661e-03 -7.6997217018353514e-01
    9.1542854473043184e-03 -5.6526686371919488e-01
    1.0780818531068917e-02 -4.3147446363134567e-01
    1.3724662253733219e-02 -3.1388241028717229e-01
    9.6152243000764675e-03 -5.1676440913191235e-01
    8.4835920573123787e-03 -6.6936682622605959e-01
    7.9791571910884339e-03 -8.3029750053456108e-01
    7.8432161148784835e-03 -1.0044944046678452e+00
    7.8564984548166201e-03 -1.0600988273786194e+00
    7.9103107170473419e-03 -1.1397232436714400e+00
    8.2230585047150459e-03 -1.3634420996046586e+00
    8.3282871077216877e-03 -1.4189832675241505e+00
    8.3282871077216877e-03 -1.4189832675241505e+00
    8.5539160185991586e-03 -1.5258958709411414e+00
    8.3870640716079223e-03 -1.4481789330818970e+00
    8.3282871077216877e-03 -1.4189832675241505e+00
    8.4835920573123804e-03 -1.4939491483885972e+00
    8.2478906057542115e-03 -1.3769908845391448e+00
    8.1762030890935658e-03 -1.3369741957120935e+00
    8.1762030890935658e-03 -1.3369741957120935e+00
    8.0566625432313323e-03 -1.2621502508869356e+00
    8.2478906057542115e-03 -1.3769908845391448e+00
    8.1991699969445539e-03 -1.3501054811112287e+00
    8.1762030890935658e-03 -1.3369741957120935e+00
    8.3571389500040564e-03 -1.4334554477024894e+00
    8.3004797275610699e-03 -1.4047538337136987e+00
    8.4502575784637917e-03 -1.4784161409137437e+00
    8.4502575784637917e-03 -1.4784161409137437e+00
    8.5181322236840811e-03 -1.5097720903188938e+00
    8.6293773569781698e-03 -1.5590924381733204e+00
    8.9902798514114243e-03 -1.7065405655167964e+00
    9.1542854473043184e-03 -1.7690759253434063e+00
    8.9902798514114243e-03 -1.7065405655167964e+00
    8.6691423340757908e-03 -1.5761900266148114e+00
    8.3870640716079223e-03 -1.4481789330818970e+00
    8.3282871077216877e-03 -1.4189832675241505e+00
    8.0745007006492991e-03 -1.2741779356764520e+00
    7.9415614489831057e-03 -1.1714693446829563e+00
    7.8781470044407657e-03 -1.0990544991396962e+00
    7.8451094682228731e-03 -1.0226786199158697e+00
    8.0931509260102306e-03 -7.7737799477640879e-01
    8.9902798514114243e-03 -5.8598079659311686e-01
    1.0123648558632148e-02 -4.7463114654932337e-01
    1.2893943616683161e-02 -3.3911649915626341e-01
    9.4709167349073080e-03 -5.3066863050523239e-01
    8.3870640716079223e-03 -6.9052240517812313e-01
    7.9103107170473419e-03 -8.7740598917563228e-01
    7.8609409196640292e-03 -1.0696872296287219e+00
    7.8851893541504858e-03 -1.1090536506409416e+00
    7.9200369112007209e-03 -1.1501811451535215e+00
    8.0931509260102289e-03 -1.2863754913561998e+00
    8.2478906057542115e-03 -1.3769908845391448e+00
    8.4180929014903809e-03 -1.4631626944473863e+00
    8.8429110237362336e-03 -1.6482313753434823e+00
    9.0429979739118684e-03 -1.7268882005337978e+00
    8.6293773569781698e-03 -1.5590924381733204e+00
    8.5181322236840811e-03 -1.5097720903188938e+00
    8.5909835735129107e-03 -1.5423319612806698e+00
    8.3571389500040564e-03 -1.4334554477024894e+00
    8.2230585047150459e-03 -1.3634420996046586e+00
    8.1329518306444658e-03 -1.3113017178063757e+00
    8.1991699969445539e-03 -1.3501054811112287e+00
    8.2230585047150459e-03 -1.3634420996046586e+00
    8.2478906057542115e-03 -1.3769908845391448e+00
    8.2478906057542115e-03 -1.3769908845391448e+00
    8.2736895133194623e-03 -1.3907589749182960e+00
    8.4835920573123804e-03 -1.4939491483885972e+00
    8.5181322236840811e-03 -1.5097720903188938e+00
    8.5181322236840811e-03 -1.5097720903188938e+00
    8.5181322236840811e-03 -1.5097720903188938e+00
    8.7529792687081834e-03 -1.6114509590888539e+00
    9.1542854473043184e-03 -1.7690759253434063e+00
    8.7971552799484230e-03 -1.6296434287653334e+00
    9.1542854473043184e-03 -1.7690759253434063e+00
    8.9902798514114243e-03 -1.7065405655167964e+00
    8.7103261399205829e-03 -1.5936381457791919e+00
    8.3870640716079223e-03 -1.4481789330818970e+00
    8.2230585047150459e-03 -1.3634420996046586e+00
    7.9533763250159012e-03 -1.1823068393465344e+00
    7.8781470044407657e-03 -1.0990544991396962e+00
    7.9791571910884339e-03 -8.3029750053456108e-01
    8.8903068871461054e-03 -5.9979671352965547e-01
    9.7712117427019591e-03 -5.0280114236549311e-01
    1.3150895097722883e-02 -3.3083641927455321e-01
    9.9401789347657241e-03 -4.8876260995383924e-01
    8.4502575784637917e-03 -6.7639954159452320e-01
    8.0396214848873354e-03 -7.9981615534630290e-01
    7.8526966164837574e-03 -9.5183134324464558e-01
    7.8851893541504858e-03 -1.1090536506409416e+00
    7.9791571910884339e-03 -1.2043875831929896e+00
    7.9659049693675127e-03 -1.1932782757924743e+00
    8.2478906057542115e-03 -1.3769908845391448e+00
    8.2736895133194623e-03 -1.3907589749182960e+00
    8.5909835735129107e-03 -1.5423319612806698e+00
    9.1542854473043184e-03 -1.7690759253434063e+00
    8.7103261399205829e-03 -1.5936381457791919e+00
    8.7103261399205829e-03 -1.5936381457791919e+00
    8.6691423340757908e-03 -1.5761900266148114e+00
    8.3004797275610699e-03 -1.4047538337136987e+00
    8.4835920573123804e-03 -1.4939491483885972e+00
    8.4180929014903809e-03 -1.4631626944473863e+00
    8.2230585047150459e-03 -1.3634420996046586e+00
    8.1541369455408116e-03 -1.3240416986458869e+00
    8.2736895133194623e-03 -1.3907589749182960e+00
    8.2736895133194623e-03 -1.3907589749182960e+00
    8.3282871077216877e-03 -1.4189832675241505e+00
    8.4180929014903809e-03 -1.4631626944473863e+00
    8.4835920573123804e-03 -1.4939491483885972e+00
    8.2478906057542115e-03 -1.3769908845391448e+00
    8.3571389500040564e-03 -1.4334554477024894e+00
    8.4502575784637917e-03 -1.4784161409137437e+00
    8.5539160185991586e-03 -1.5258958709411414e+00
    8.5909835735129107e-03 -1.5423319612806698e+00
    8.7971552799484230e-03 -1.6296434287653334e+00
    8.5181322236840811e-03 -1.5097720903188938e+00
    8.6293773569781698e-03 -1.5590924381733204e+00
    8.4502575784637917e-03 -1.4784161409137437e+00
    8.2230585047150459e-03 -1.3634420996046586e+00
    8.0233633863783793e-03 -1.2385842357671555e+00
    7.8781470044407657e-03 -1.0990544991396962e+00
    7.9304511654182657e-03 -8.6150304700563896e-01
    8.8903068871461054e-03 -5.9979671352965547e-01
    9.4027876640952850e-03 -5.3760333057047027e-01
    1.3427011179740348e-02 -3.2242890075116398e-01
    9.9401789347657241e-03 -4.8876260995383924e-01
    8.5181322236840811e-03 -6.6235162672054693e-01
    7.9659049693675144e-03 -8.3802749139624166e-01
    7.8470041933967911e-03 -9.6908742370469791e-01
    7.8781470044407657e-03 -1.0990544991396962e+00
    7.9659049693675127e-03 -1.1932782757924743e+00
    8.1126290550875661e-03 -1.2987482388637943e+00
    8.1541369455408116e-03 -1.3240416986458869e+00
    8.2736895133194623e-03 -1.3907589749182960e+00
    8.7103261399205829e-03 -1.5936381457791919e+00
    8.9394070641054535e-03 -1.6866616691580132e+00
    9.0429979739118684e-03 -1.7268882005337978e+00
    8.6691423340757908e-03 -1.5761900266148114e+00
    8.7529792687081834e-03 -1.6114509590888539e+00
    8.6293773569781698e-03 -1.5590924381733204e+00
    8.4180929014903809e-03 -1.4631626944473863e+00
    8.3282871077216877e-03 -1.4189832675241505e+00
    8.6293773569781698e-03 -1.5590924381733204e+00
    8.5909835735129107e-03 -1.5423319612806698e+00
    8.3870640716079223e-03 -1.4481789330818970e+00
    8.3004797275610699e-03 -1.4047538337136987e+00
    8.2736895133194623e-03 -1.3907589749182960e+00
    8.4180929014903809e-03 -1.4631626944473863e+00
    8.3571389500040564e-03 -1.4334554477024894e+00
    8.1991699969445539e-03 -1.3501054811112287e+00
    8.5181322236840811e-03 -1.5097720903188938e+00
    8.5181322236840811e-03 -1.5097720903188938e+00
    8.5181322236840811e-03 -1.5097720903188938e+00
    8.7529792687081834e-03 -1.6114509590888539e+00
    8.6691423340757908e-03 -1.5761900266148114e+00
    8.4835920573123804e-03 -1.4939491483885972e+00
    8.4180929014903809e-03 -1.4631626944473863e+00
    8.1329518306444658e-03 -1.3113017178063757e+00
    7.9931434545672704e-03 -1.2156388352540313e+00
    8.0566625432313323e-03 -1.2621502508869356e+00
    7.8717612151086754e-03 -1.0891622972743416e+00
    7.9533763250159012e-03 -8.4580412353252066e-01
    8.9394070641054552e-03 -5.9288713218887745e-01
    9.8539834579321351e-03 -4.9579235156053159e-01
    1.2893943616683161e-02 -3.3911649915626341e-01
    9.4709167349073080e-03 -5.3066863050523239e-01
    8.3870640716079223e-03 -6.9052240517812313e-01
    7.8928934980049530e-03 -8.9352509577190609e-01
    7.8495326304507743e-03 -9.6042375704865190e-01
    7.8526966164837557e-03 -1.0506062939587124e+00
    7.9103107170473419e-03 -1.1397232436714400e+00
    8.0233633863783793e-03 -1.2385842357671555e+00
    8.2736895133194623e-03 -1.3907589749182960e+00
    8.1762030890935658e-03 -1.3369741957120935e+00
    8.7529792687081834e-03 -1.6114509590888539e+00
    8.9394070641054535e-03 -1.6866616691580132e+00
    8.5909835735129107e-03 -1.5423319612806698e+00
    8.5909835735129107e-03 -1.5423319612806698e+00
    8.7529792687081834e-03 -1.6114509590888539e+00
    8.4835920573123804e-03 -1.4939491483885972e+00
    8.5539160185991586e-03 -1.5258958709411414e+00
    8.5181322236840811e-03 -1.5097720903188938e+00
    8.4835920573123804e-03 -1.4939491483885972e+00
    8.8903068871461072e-03 -1.6672315426926019e+00
    8.8429110237362336e-03 -1.6482313753434823e+00
    8.3004797275610699e-03 -1.4047538337136987e+00
    8.1991699969445539e-03 -1.3501054811112287e+00
    8.5181322236840811e-03 -1.5097720903188938e+00
    8.4502575784637917e-03 -1.4784161409137437e+00
    8.6293773569781698e-03 -1.5590924381733204e+00
    8.5909835735129107e-03 -1.5423319612806698e+00
    8.7971552799484230e-03 -1.6296434287653334e+00
    8.6293773569781698e-03 -1.5590924381733204e+00
    8.5909835735129107e-03 -1.5423319612806698e+00
    8.6691423340757908e-03 -1.5761900266148114e+00
    8.3571389500040564e-03 -1.4334554477024894e+00
    8.2736895133194623e-03 -1.3907589749182960e+00
    8.2230585047150459e-03 -1.3634420996046586e+00
    8.0396214848873337e-03 -1.2502873232999674e+00
    7.9415614489831057e-03 -1.1714693446829563e+00
    7.8928934980049513e-03 -1.1191627462193567e+00
    7.9103107170473419e-03 -8.7740598917563228e-01
    8.9394070641054552e-03 -5.9288713218887745e-01
    9.8539834579321351e-03 -4.9579235156053159e-01
    1.2219259712347304e-02 -3.6329009817427188e-01
    9.6152243000764675e-03 -5.1676440913191235e-01
    8.3004797275610699e-03 -7.1186849681437425e-01
    8.0078749034396181e-03 -8.1497184275139967e-01
    7.8495326304507743e-03 -9.6042375704865190e-01
    7.9012651901125899e-03 -1.1293848786315641e+00
    7.9200369112007209e-03 -1.1501811451535215e+00
    7.9533763250159012e-03 -1.1823068393465344e+00
    8.0566625432313323e-03 -1.2621502508869356e+00
    8.3282871077216877e-03 -1.4189832675241505e+00
    8.3571389500040564e-03 -1.4334554477024894e+00
    8.3571389500040564e-03 -1.4334554477024894e+00
    8.5539160185991586e-03 -1.5258958709411414e+00
    8.7971552799484230e-03 -1.6296434287653334e+00
    8.7971552799484230e-03 -1.6296434287653334e+00
    8.3870640716079223e-03 -1.4481789330818970e+00
    8.3282871077216877e-03 -1.4189832675241505e+00
    8.3870640716079223e-03 -1.4481789330818970e+00
    8.4502575784637917e-03 -1.4784161409137437e+00
    8.4835920573123804e-03 -1.4939491483885972e+00
    8.7971552799484230e-03 -1.6296434287653334e+00
    8.5909835735129107e-03 -1.5423319612806698e+00
    8.1762030890935658e-03 -1.3369741957120935e+00
    8.3571389500040564e-03 -1.4334554477024894e+00
    8.2736895133194623e-03 -1.3907589749182960e+00
    8.3870640716079223e-03 -1.4481789330818970e+00
    8.3571389500040564e-03 -1.4334554477024894e+00
    8.4180929014903809e-03 -1.4631626944473863e+00
    8.4502575784637917e-03 -1.4784161409137437e+00
    8.2230585047150459e-03 -1.3634420996046586e+00
    8.2736895133194623e-03 -1.3907589749182960e+00
    8.1991699969445539e-03 -1.3501054811112287e+00
    8.0566625432313323e-03 -1.2621502508869356e+00
    7.9791571910884339e-03 -1.2043875831929896e+00
    7.8660272617812471e-03 -1.0793741444417315e+00
    7.8660272617812471e-03 -1.0793741444417315e+00
    7.8438470803366377e-03 -1.0135446350668171e+00
    8.0078749034396181e-03 -8.1497184275139967e-01
    8.5181322236840811e-03 -6.6235162672054693e-01
    9.8539834579321351e-03 -4.9579235156053159e-01
    1.2654136752806950e-02 -3.4727944810393963e-01
    9.6916815047723270e-03 -5.0979113924206010e-01
    8.4502575784637917e-03 -6.7639954159452320e-01
    8.0078749034396181e-03 -8.1497184275139967e-01
    7.8717612151086754e-03 -9.1813681257837065e-01
    7.8470041933967928e-03 -1.0318986456114843e+00
    7.8928934980049513e-03 -1.1191627462193567e+00
    7.9533763250159012e-03 -1.1823068393465344e+00
    8.0745007006492991e-03 -1.2741779356764520e+00
    8.1762030890935658e-03 -1.3369741957120935e+00
    8.2736895133194623e-03 -1.3907589749182960e+00
    8.3571389500040564e-03 -1.4334554477024894e+00
    8.6691423340757908e-03 -1.5761900266148114e+00
    8.2736895133194623e-03 -1.3907589749182960e+00
    8.7971552799484230e-03 -1.6296434287653334e+00
    8.4180929014903809e-03 -1.4631626944473863e+00
    8.4180929014903809e-03 -1.4631626944473863e+00
    8.3282871077216877e-03 -1.4189832675241505e+00
    8.3282871077216877e-03 -1.4189832675241505e+00
    8.3571389500040564e-03 -1.4334554477024894e+00
    8.3004797275610699e-03 -1.4047538337136987e+00
    8.2736895133194623e-03 -1.3907589749182960e+00
    8.3571389500040564e-03 -1.4334554477024894e+00
    8.3282871077216877e-03 -1.4189832675241505e+00
    8.2478906057542115e-03 -1.3769908845391448e+00
    8.3571389500040564e-03 -1.4334554477024894e+00
    8.5181322236840811e-03 -1.5097720903188938e+00
    8.2230585047150459e-03 -1.3634420996046586e+00
    8.4835920573123804e-03 -1.4939491483885972e+00
    8.1991699969445539e-03 -1.3501054811112287e+00
    7.9931434545672704e-03 -1.2156388352540313e+00
    8.0233633863783793e-03 -1.2385842357671555e+00
    8.0078749034396181e-03 -1.2270362576257030e+00
    7.9791571910884339e-03 -1.2043875831929896e+00
    7.8717612151086754e-03 -1.0891622972743416e+00
    7.8609409196640292e-03 -1.0696872296287219e+00
    7.8432161148784835e-03 -1.0044944046678452e+00
    7.9415614489831057e-03 -8.5362882480773561e-01
    8.4180929014903792e-03 -6.8345099543266052e-01
    9.5416842201228036e-03 -5.2372293656638169e-01
    1.4777692036996264e-02 -2.8727038107793185e-01
    1.0323416933031813e-02 -4.6038736053363849e-01
    8.7971552799484248e-03 -6.1363116762151459e-01
    8.0233633863783793e-03 -8.0737342775933107e-01
    7.9200369112007209e-03 -8.6942826720266209e-01
    7.8432161148784835e-03 -1.0044944046678452e+00
    7.8451094682228731e-03 -1.0226786199158697e+00
    7.9415614489831057e-03 -1.1714693446829563e+00
    8.1126290550875661e-03 -1.2987482388637943e+00
    8.2478906057542115e-03 -1.3769908845391448e+00
    8.1126290550875661e-03 -1.2987482388637943e+00
    8.2478906057542115e-03 -1.3769908845391448e+00
    8.3870640716079223e-03 -1.4481789330818970e+00
    8.4502575784637917e-03 -1.4784161409137437e+00
    8.3571389500040564e-03 -1.4334554477024894e+00
    8.5181322236840811e-03 -1.5097720903188938e+00
    8.3870640716079223e-03 -1.4481789330818970e+00
    8.4180929014903809e-03 -1.4631626944473863e+00
    8.5181322236840811e-03 -1.5097720903188938e+00
    8.4180929014903809e-03 -1.4631626944473863e+00
    8.5181322236840811e-03 -1.5097720903188938e+00
    8.3571389500040564e-03 -1.4334554477024894e+00
    8.2736895133194623e-03 -1.3907589749182960e+00
    8.3870640716079223e-03 -1.4481789330818970e+00
    8.3571389500040564e-03 -1.4334554477024894e+00
    8.2736895133194623e-03 -1.3907589749182960e+00
    8.4835920573123804e-03 -1.4939491483885972e+00
    8.3870640716079223e-03 -1.4481789330818970e+00
    8.3004797275610699e-03 -1.4047538337136987e+00
    8.2736895133194623e-03 -1.3907589749182960e+00
    8.2230585047150459e-03 -1.3634420996046586e+00
    7.9791571910884339e-03 -1.2043875831929896e+00
    7.9931434545672704e-03 -1.2156388352540313e+00
    7.9659049693675127e-03 -1.1932782757924743e+00
    7.8717612151086754e-03 -1.0891622972743416e+00
    7.8432161148784835e-03 -9.9552570462616807e-01
    7.8495326304507743e-03 -9.6042375704865190e-01
    8.0233633863783793e-03 -8.0737342775933107e-01
    8.5909835735129125e-03 -6.4836884996512245e-01
    1.0123648558632148e-02 -4.7463114654932337e-01
    1.6737221325908085e-02 -2.4880667576405965e-01
    1.0123648558632148e-02 -4.7463114654932337e-01
    8.7529792687081834e-03 -6.2055875443173258e-01
    8.3571389500040581e-03 -6.9761498454854498e-01
    7.9931434545672704e-03 -8.2261274566062259e-01
    7.8470041933967911e-03 -9.6908742370469791e-01
    7.8717612151086754e-03 -1.0891622972743416e+00
    7.9791571910884339e-03 -1.2043875831929896e+00
    7.9533763250159012e-03 -1.1823068393465344e+00
    8.1329518306444658e-03 -1.3113017178063757e+00
    8.0566625432313323e-03 -1.2621502508869356e+00
    8.1991699969445539e-03 -1.3501054811112287e+00
    8.3282871077216877e-03 -1.4189832675241505e+00
    8.4835920573123804e-03 -1.4939491483885972e+00
    8.6691423340757908e-03 -1.5761900266148114e+00
    8.9394070641054535e-03 -1.6866616691580132e+00
    8.5539160185991586e-03 -1.5258958709411414e+00
    8.6691423340757908e-03 -1.5761900266148114e+00
    8.5181322236840811e-03 -1.5097720903188938e+00
    8.4180929014903809e-03 -1.4631626944473863e+00
    8.5539160185991586e-03 -1.5258958709411414e+00
    8.4180929014903809e-03 -1.4631626944473863e+00
    8.5181322236840811e-03 -1.5097720903188938e+00
    8.3004797275610699e-03 -1.4047538337136987e+00
    8.1991699969445539e-03 -1.3501054811112287e+00
    8.1126290550875661e-03 -1.2987482388637943e+00
    8.5181322236840811e-03 -1.5097720903188938e+00
    8.5539160185991586e-03 -1.5258958709411414e+00
    8.1126290550875661e-03 -1.2987482388637943e+00
    8.1126290550875661e-03 -1.2987482388637943e+00
    7.9931434545672704e-03 -1.2156388352540313e+00
    7.9533763250159012e-03 -1.1823068393465344e+00
    7.9931434545672704e-03 -1.2156388352540313e+00
    7.9533763250159012e-03 -1.1823068393465344e+00
    7.8564984548166201e-03 -1.0600988273786194e+00
    7.8781470044407657e-03 -1.0990544991396962e+00
    7.8495326304507743e-03 -9.6042375704865190e-01
    7.9533763250159012e-03 -8.4580412353252066e-01
    8.5539160185991586e-03 -6.5535271380164406e-01
    1.0123648558632148e-02 -4.7463114654932337e-01
    1.6166928653154652e-02 -2.5881585332628748e-01
    1.1659094401064012e-02 -3.8663230087833345e-01
    9.2130257951079913e-03 -5.5835894000396635e-01
    8.6293773569781733e-03 -6.4139878785611315e-01
    8.1126290550875661e-03 -7.6997217018353514e-01
    7.9533763250159012e-03 -8.4580412353252066e-01
    7.8660272617812471e-03 -1.0793741444417315e+00
    7.9533763250159012e-03 -1.1823068393465344e+00
    8.0931509260102289e-03 -1.2863754913561998e+00
    8.0233633863783793e-03 -1.2385842357671555e+00
    8.3282871077216877e-03 -1.4189832675241505e+00
    8.5181322236840811e-03 -1.5097720903188938e+00
    8.6691423340757908e-03 -1.5761900266148114e+00
    8.6293773569781698e-03 -1.5590924381733204e+00
    8.5539160185991586e-03 -1.5258958709411414e+00
    8.6293773569781698e-03 -1.5590924381733204e+00
    8.7529792687081834e-03 -1.6114509590888539e+00
    8.6691423340757908e-03 -1.5761900266148114e+00
    8.7529792687081834e-03 -1.6114509590888539e+00
    8.5181322236840811e-03 -1.5097720903188938e+00
    8.3004797275610699e-03 -1.4047538337136987e+00
    8.2230585047150459e-03 -1.3634420996046586e+00
    8.3870640716079223e-03 -1.4481789330818970e+00
    8.1329518306444658e-03 -1.3113017178063757e+00
    8.1541369455408116e-03 -1.3240416986458869e+00
    8.2230585047150459e-03 -1.3634420996046586e+00
    8.1329518306444658e-03 -1.3113017178063757e+00
    8.1329518306444658e-03 -1.3113017178063757e+00
    8.1126290550875661e-03 -1.2987482388637943e+00
    8.1762030890935658e-03 -1.3369741957120935e+00
    8.0078749034396181e-03 -1.2270362576257030e+00
    7.9791571910884339e-03 -1.2043875831929896e+00
    8.0078749034396181e-03 -1.2270362576257030e+00
    7.9659049693675127e-03 -1.1932782757924743e+00
    7.9200369112007209e-03 -1.1501811451535215e+00
    7.8438470803366377e-03 -1.0135446350668171e+00
    7.8781470044407640e-03 -9.0987298699269903e-01
    7.9791571910884339e-03 -8.3029750053456108e-01
    8.8429110237362336e-03 -6.0671093570925727e-01
    1.0029995772710838e-02 -4.8170966244723357e-01
    1.8109247719946653e-02 -2.2778672580471013e-01
    1.2219259712347304e-02 -3.6329009817427188e-01
    9.6152243000764675e-03 -5.1676440913191235e-01
    8.4835920573123787e-03 -6.6936682622605959e-01
    8.0396214848873354e-03 -7.9981615534630290e-01
    7.9200369112007209e-03 -8.6942826720266209e-01
    7.8660272617812471e-03 -9.2646280731248631e-01
    7.8781470044407657e-03 -1.0990544991396962e+00
    7.9304511654182640e-03 -1.1607620001760186e+00
    8.0396214848873337e-03 -1.2502873232999674e+00
    8.1126290550875661e-03 -1.2987482388637943e+00
    8.1991699969445539e-03 -1.3501054811112287e+00
    8.4180929014903809e-03 -1.4631626944473863e+00
    8.3004797275610699e-03 -1.4047538337136987e+00
    8.7529792687081834e-03 -1.6114509590888539e+00
    8.7529792687081834e-03 -1.6114509590888539e+00
    8.2478906057542115e-03 -1.3769908845391448e+00
    8.5181322236840811e-03 -1.5097720903188938e+00
    8.5181322236840811e-03 -1.5097720903188938e+00
    8.6293773569781698e-03 -1.5590924381733204e+00
    8.5539160185991586e-03 -1.5258958709411414e+00
    8.4502575784637917e-03 -1.4784161409137437e+00
    8.3004797275610699e-03 -1.4047538337136987e+00
    8.2736895133194623e-03 -1.3907589749182960e+00
    8.1991699969445539e-03 -1.3501054811112287e+00
    8.1762030890935658e-03 -1.3369741957120935e+00
    8.1126290550875661e-03 -1.2987482388637943e+00
    8.2736895133194623e-03 -1.3907589749182960e+00
    8.2736895133194623e-03 -1.3907589749182960e+00
    8.1762030890935658e-03 -1.3369741957120935e+00
    8.0931509260102289e-03 -1.2863754913561998e+00
    8.1329518306444658e-03 -1.3113017178063757e+00
    7.9415614489831057e-03 -1.1714693446829563e+00
    7.8564984548166201e-03 -1.0600988273786194e+00
    7.8660272617812471e-03 -1.0793741444417315e+00
    7.8526966164837574e-03 -9.5183134324464558e-01
    7.9012651901125899e-03 -8.8543774484714632e-01
    8.2736895133194623e-03 -7.1903185097816680e-01
    8.9902798514114243e-03 -5.8598079659311686e-01
    1.0430065123754825e-02 -4.5321673116226124e-01
    1.4777692036996264e-02 -2.8727038107793185e-01
    1.2429741110405524e-02 -3.5533452725935077e-01
    9.8539834579321351e-03 -4.9579235156053159e-01
    9.0429979739118666e-03 -5.7907628281372847e-01
    8.1541369455408134e-03 -7.5526322246702016e-01
    8.0396214848873354e-03 -7.9981615534630290e-01
    7.8928934980049530e-03 -8.9352509577190609e-01
    7.8451094682228713e-03 -9.7782429448096275e-01
    7.8928934980049513e-03 -1.1191627462193567e+00
    7.9533763250159012e-03 -1.1823068393465344e+00
    8.0931509260102289e-03 -1.2863754913561998e+00
    8.0078749034396181e-03 -1.2270362576257030e+00
    8.0396214848873337e-03 -1.2502873232999674e+00
    8.1126290550875661e-03 -1.2987482388637943e+00
    8.3571389500040564e-03 -1.4334554477024894e+00
    8.2478906057542115e-03 -1.3769908845391448e+00
    8.2478906057542115e-03 -1.3769908845391448e+00
    8.3004797275610699e-03 -1.4047538337136987e+00
    8.4180929014903809e-03 -1.4631626944473863e+00
    8.1991699969445539e-03 -1.3501054811112287e+00
    8.3004797275610699e-03 -1.4047538337136987e+00
    8.2736895133194623e-03 -1.3907589749182960e+00
    8.2736895133194623e-03 -1.3907589749182960e+00
    8.2736895133194623e-03 -1.3907589749182960e+00
    8.3004797275610699e-03 -1.4047538337136987e+00
    8.2230585047150459e-03 -1.3634420996046586e+00
    8.3282871077216877e-03 -1.4189832675241505e+00
    8.1541369455408116e-03 -1.3240416986458869e+00
    8.0078749034396181e-03 -1.2270362576257030e+00
    8.1329518306444658e-03 -1.3113017178063757e+00
    8.1126290550875661e-03 -1.2987482388637943e+00
    8.0566625432313323e-03 -1.2621502508869356e+00
    7.9533763250159012e-03 -1.1823068393465344e+00
    7.8660272617812471e-03 -1.0793741444417315e+00
    7.8432161148784835e-03 -9.9552570462616807e-01
    7.8851893541504858e-03 -9.0166963466743222e-01
    8.0233633863783793e-03 -8.0737342775933107e-01
    8.6293773569781733e-03 -6.4139878785611315e-01
    9.3371722600248033e-03 -5.4452881274270204e-01
    1.2654136752806950e-02 -3.4727944810393963e-01
    1.3724662253733219e-02 -3.1388241028717229e-01
    1.2654136752806950e-02 -3.4727944810393963e-01
    1.0029995772710838e-02 -4.8170966244723357e-01
    9.3371722600248033e-03 -5.4452881274270204e-01
    8.5539160185991586e-03 -6.5535271380164406e-01
    8.1329518306444658e-03 -7.6260099900796319e-01
    7.9200369112007209e-03 -8.6942826720266209e-01
    7.8564984548166201e-03 -9.4330827859961874e-01
    7.8526966164837557e-03 -1.0506062939587124e+00
    7.8851893541504858e-03 -1.1090536506409416e+00
    7.9012651901125899e-03 -1.1293848786315641e+00
    8.0078749034396181e-03 -1.2270362576257030e+00
    8.2478906057542115e-03 -1.3769908845391448e+00
    8.3282871077216877e-03 -1.4189832675241505e+00
    8.3571389500040564e-03 -1.4334554477024894e+00
    8.4502575784637917e-03 -1.4784161409137437e+00
    8.3004797275610699e-03 -1.4047538337136987e+00
    8.2478906057542115e-03 -1.3769908845391448e+00
    8.2736895133194623e-03 -1.3907589749182960e+00
    8.1991699969445539e-03 -1.3501054811112287e+00
    8.1991699969445539e-03 -1.3501054811112287e+00
    8.0931509260102289e-03 -1.2863754913561998e+00
    8.3004797275610699e-03 -1.4047538337136987e+00
    8.2478906057542115e-03 -1.3769908845391448e+00
    8.4835920573123804e-03 -1.4939491483885972e+00
    8.3870640716079223e-03 -1.4481789330818970e+00
    8.1329518306444658e-03 -1.3113017178063757e+00
    8.1762030890935658e-03 -1.3369741957120935e+00
    8.1126290550875661e-03 -1.2987482388637943e+00
    8.0233633863783793e-03 -1.2385842357671555e+00
    8.0931509260102289e-03 -1.2863754913561998e+00
    8.0233633863783793e-03 -1.2385842357671555e+00
    7.8851893541504858e-03 -1.1090536506409416e+00
    7.8609409196640292e-03 -1.0696872296287219e+00
    7.8609409196640275e-03 -9.3485270488560546e-01
    8.0233633863783793e-03 -8.0737342775933107e-01
    8.3004797275610699e-03 -7.1186849681437425e-01
    8.5909835735129125e-03 -6.4836884996512245e-01
    9.2739543884704876e-03 -5.5144679457900747e-01
    1.2893943616683161e-02 -3.3911649915626341e-01
    1.8948501955664509e-02 -2.1667569500871972e-01
    1.3427011179740348e-02 -3.2242890075116398e-01
    1.0430065123754825e-02 -4.5321673116226124e-01
    9.3371722600248033e-03 -5.4452881274270204e-01
    8.9394070641054552e-03 -5.9288713218887745e-01
    8.2736895133194623e-03 -7.1903185097816680e-01
    7.9103107170473419e-03 -8.7740598917563228e-01
    7.8564984548166201e-03 -9.4330827859961874e-01
    7.8432161148784835e-03 -9.9552570462616807e-01
    7.8470041933967928e-03 -1.0318986456114843e+00
    7.9931434545672704e-03 -1.2156388352540313e+00
    7.9791571910884339e-03 -1.2043875831929896e+00
    8.0566625432313323e-03 -1.2621502508869356e+00
    8.3870640716079223e-03 -1.4481789330818970e+00
    8.1329518306444658e-03 -1.3113017178063757e+00
    8.3004797275610699e-03 -1.4047538337136987e+00
    8.3004797275610699e-03 -1.4047538337136987e+00
    8.1541369455408116e-03 -1.3240416986458869e+00
    8.0931509260102289e-03 -1.2863754913561998e+00
    8.1329518306444658e-03 -1.3113017178063757e+00
    7.9931434545672704e-03 -1.2156388352540313e+00
    8.1991699969445539e-03 -1.3501054811112287e+00
    8.1329518306444658e-03 -1.3113017178063757e+00
    8.1991699969445539e-03 -1.3501054811112287e+00
    8.1762030890935658e-03 -1.3369741957120935e+00
    8.1991699969445539e-03 -1.3501054811112287e+00
    8.1329518306444658e-03 -1.3113017178063757e+00
    8.0931509260102289e-03 -1.2863754913561998e+00
    8.0396214848873337e-03 -1.2502873232999674e+00
    7.9791571910884339e-03 -1.2043875831929896e+00
    7.9659049693675127e-03 -1.1932782757924743e+00
    7.8609409196640292e-03 -1.0696872296287219e+00
    7.8526966164837557e-03 -1.0506062939587124e+00
    7.8564984548166201e-03 -9.4330827859961874e-01
    7.9791571910884339e-03 -8.3029750053456108e-01
    8.1126290550875661e-03 -7.6997217018353514e-01
    8.4835920573123787e-03 -6.6936682622605959e-01
    8.6293773569781733e-03 -6.4139878785611315e-01
    1.0123648558632148e-02 -4.7463114654932337e-01
    1.2429741110405524e-02 -3.5533452725935077e-01
    1.6166928653154652e-02 -2.5881585332628748e-01
    1.3150895097722883e-02 -3.3083641927455321e-01
    1.1659094401064012e-02 -3.8663230087833345e-01
    9.7712117427019591e-03 -5.0280114236549311e-01
    8.9902798514114243e-03 -5.8598079659311686e-01
    8.4502575784637917e-03 -6.7639954159452320e-01
    8.2478906057542115e-03 -7.2622121992817912e-01
    7.9791571910884339e-03 -8.3029750053456108e-01
    7.9659049693675144e-03 -8.3802749139624166e-01
    7.8451094682228731e-03 -1.0226786199158697e+00
    7.8609409196640292e-03 -1.0696872296287219e+00
    7.8432161148784835e-03 -9.9552570462616807e-01
    7.8660272617812471e-03 -1.0793741444417315e+00
    7.9931434545672704e-03 -1.2156388352540313e+00
    8.3004797275610699e-03 -1.4047538337136987e+00
    8.3004797275610699e-03 -1.4047538337136987e+00
    8.2736895133194623e-03 -1.3907589749182960e+00
    8.2736895133194623e-03 -1.3907589749182960e+00
    8.0566625432313323e-03 -1.2621502508869356e+00
    7.9931434545672704e-03 -1.2156388352540313e+00
    8.0233633863783793e-03 -1.2385842357671555e+00
    8.1991699969445539e-03 -1.3501054811112287e+00
    8.0396214848873337e-03 -1.2502873232999674e+00
    7.9791571910884339e-03 -1.2043875831929896e+00
    7.9415614489831057e-03 -1.1714693446829563e+00
    8.0745007006492991e-03 -1.2741779356764520e+00
    8.0566625432313323e-03 -1.2621502508869356e+00
    7.8781470044407657e-03 -1.0990544991396962e+00
    7.9791571910884339e-03 -1.2043875831929896e+00
    7.9103107170473419e-03 -1.1397232436714400e+00
    8.1126290550875661e-03 -1.2987482388637943e+00
    7.8660272617812471e-03 -1.0793741444417315e+00
    7.8438470803366377e-03 -1.0135446350668171e+00
    7.8564984548166201e-03 -9.4330827859961874e-01
    8.0566625432313306e-03 -7.9229869763705407e-01
    8.3571389500040581e-03 -6.9761498454854498e-01
    8.6293773569781733e-03 -6.4139878785611315e-01
    9.1542854473043184e-03 -5.6526686371919488e-01
    1.1185953505054231e-02 -4.0931560807732076e-01
    1.4046651202286422e-02 -3.0518396894653688e-01
    1.8948501955664509e-02 -2.1667569500871972e-01
    1.3724662253733219e-02 -3.1388241028717229e-01
    1.2429741110405524e-02 -3.5533452725935077e-01
    1.0430065123754825e-02 -4.5321673116226124e-01
    9.2130257951079913e-03 -5.5835894000396635e-01
    8.9902798514114243e-03 -5.8598079659311686e-01
    8.6691423340757908e-03 -6.3444126857451522e-01
    8.4180929014903792e-03 -6.8345099543266052e-01
    8.0396214848873354e-03 -7.9981615534630290e-01
    7.9200369112007209e-03 -8.6942826720266209e-01
    7.9200369112007209e-03 -8.6942826720266209e-01
    7.9304511654182657e-03 -8.6150304700563896e-01
    7.8470041933967928e-03 -1.0318986456114843e+00
    7.8470041933967928e-03 -1.0318986456114843e+00
    7.9415614489831057e-03 -1.1714693446829563e+00
    8.1762030890935658e-03 -1.3369741957120935e+00
    8.1762030890935658e-03 -1.3369741957120935e+00
    8.2478906057542115e-03 -1.3769908845391448e+00
    8.0396214848873337e-03 -1.2502873232999674e+00
    8.0931509260102289e-03 -1.2863754913561998e+00
    8.0396214848873337e-03 -1.2502873232999674e+00
    8.1126290550875661e-03 -1.2987482388637943e+00
    8.1762030890935658e-03 -1.3369741957120935e+00
    7.9791571910884339e-03 -1.2043875831929896e+00
    7.9012651901125899e-03 -1.1293848786315641e+00
    7.9931434545672704e-03 -1.2156388352540313e+00
    7.9103107170473419e-03 -1.1397232436714400e+00
    7.9415614489831057e-03 -1.1714693446829563e+00
    7.9304511654182640e-03 -1.1607620001760186e+00
    7.9415614489831057e-03 -1.1714693446829563e+00
    7.8851893541504858e-03 -1.1090536506409416e+00
    7.8438470803366377e-03 -1.0135446350668171e+00
    7.8470041933967911e-03 -9.6908742370469791e-01
    7.9659049693675144e-03 -8.3802749139624166e-01
    8.0931509260102306e-03 -7.7737799477640879e-01
    8.5909835735129125e-03 -6.4836884996512245e-01
    9.4709167349073080e-03 -5.3066863050523239e-01
    9.9401789347657241e-03 -4.8876260995383924e-01
    1.2893943616683161e-02 -3.3911649915626341e-01
    1.4396320264892711e-02 -2.9631887899487686e-01
    1.9926753166862734e-02 -2.0507577810739899e-01
    1.5195658279322767e-02 -2.7801921874276631e-01
    1.2429741110405524e-02 -3.5533452725935077e-01
    9.9401789347657241e-03 -4.8876260995383924e-01
    9.6152243000764675e-03 -5.1676440913191235e-01
    9.3371722600248033e-03 -5.4452881274270204e-01
    8.7971552799484248e-03 -6.1363116762151459e-01
    8.8429110237362336e-03 -6.0671093570925727e-01
    8.2478906057542115e-03 -7.2622121992817912e-01
    8.0745007006493008e-03 -7.8481974298911927e-01
    8.0931509260102306e-03 -7.7737799477640879e-01
    7.9659049693675144e-03 -8.3802749139624166e-01
    7.9012651901125899e-03 -8.8543774484714632e-01
    7.8432161148784835e-03 -9.9552570462616807e-01
    7.8564984548166201e-03 -1.0600988273786194e+00
    7.8717612151086754e-03 -1.0891622972743416e+00
    7.8851893541504858e-03 -1.1090536506409416e+00
    7.8564984548166201e-03 -1.0600988273786194e+00
    7.8781470044407657e-03 -1.0990544991396962e+00
    7.9791571910884339e-03 -1.2043875831929896e+00
    8.0233633863783793e-03 -1.2385842357671555e+00
    8.0396214848873337e-03 -1.2502873232999674e+00
    8.0396214848873337e-03 -1.2502873232999674e+00
    8.0078749034396181e-03 -1.2270362576257030e+00
    7.9012651901125899e-03 -1.1293848786315641e+00
    7.8470041933967928e-03 -1.0318986456114843e+00
    7.8451094682228713e-03 -9.7782429448096275e-01
    7.8851893541504858e-03 -1.1090536506409416e+00
    7.8451094682228731e-03 -1.0226786199158697e+00
    7.8470041933967928e-03 -1.0318986456114843e+00
    7.8470041933967911e-03 -9.6908742370469791e-01
    7.9012651901125899e-03 -8.8543774484714632e-01
    8.1329518306444658e-03 -7.6260099900796319e-01
    8.1541369455408134e-03 -7.5526322246702016e-01
    8.4502575784637917e-03 -6.7639954159452320e-01
    9.1542854473043184e-03 -5.6526686371919488e-01
    9.4027876640952850e-03 -5.3760333057047027e-01
    1.1185953505054231e-02 -4.0931560807732076e-01
    1.3427011179740348e-02 -3.2242890075116398e-01
    1.5656236952038580e-02 -2.6854307776478731e-01
    1.9926753166862734e-02 -2.0507577810739899e-01
    1.8109247719946653e-02 -2.2778672580471013e-01
    1.2219259712347304e-02 -3.6329009817427188e-01
    1.0430065123754825e-02 -4.5321673116226124e-01
    9.8539834579321351e-03 -4.9579235156053159e-01
    9.8539834579321351e-03 -4.9579235156053159e-01
    9.3371722600248033e-03 -5.4452881274270204e-01
    9.1542854473043184e-03 -5.6526686371919488e-01
    8.6293773569781733e-03 -6.4139878785611315e-01
    8.5181322236840811e-03 -6.6235162672054693e-01
    8.2736895133194623e-03 -7.1903185097816680e-01
    8.1329518306444658e-03 -7.6260099900796319e-01
    7.9415614489831057e-03 -8.5362882480773561e-01
    7.8609409196640275e-03 -9.3485270488560546e-01
    7.9012651901125899e-03 -8.8543774484714632e-01
    7.9200369112007209e-03 -8.6942826720266209e-01
    7.8495326304507743e-03 -1.0412070637162956e+00
    7.8470041933967928e-03 -1.0318986456114843e+00
    7.8526966164837557e-03 -1.0506062939587124e+00
    7.8717612151086754e-03 -1.0891622972743416e+00
    7.8781470044407657e-03 -1.0990544991396962e+00
    7.9659049693675127e-03 -1.1932782757924743e+00
    7.9791571910884339e-03 -1.2043875831929896e+00
    7.8781470044407657e-03 -1.0990544991396962e+00
    7.8660272617812471e-03 -1.0793741444417315e+00
    7.8564984548166201e-03 -1.0600988273786194e+00
    7.8432161148784835e-03 -1.0044944046678452e+00
    7.8495326304507743e-03 -1.0412070637162956e+00
    7.8470041933967911e-03 -9.6908742370469791e-01
    7.9200369112007209e-03 -8.6942826720266209e-01
    8.0931509260102306e-03 -7.7737799477640879e-01
    8.2230585047150459e-03 -7.3343781909767836e-01
    8.3004797275610699e-03 -7.1186849681437425e-01
    8.5181322236840811e-03 -6.6235162672054693e-01
    8.9394070641054552e-03 -5.9288713218887745e-01
    9.4709167349073080e-03 -5.3066863050523239e-01
    9.6916815047723270e-03 -5.0979113924206010e-01
    1.1835002697769704e-02 -3.7893237337253666e-01
    1.4396320264892711e-02 -2.9631887899487686e-01
    1.5195658279322767e-02 -2.7801921874276631e-01
    2.4235902155026197e-02 -1.6628219864210797e-01
    1.9926753166862734e-02 -2.0507577810739899e-01
    1.3150895097722883e-02 -3.3083641927455321e-01
    1.1835002697769704e-02 -3.7893237337253666e-01
    1.1185953505054231e-02 -4.0931560807732076e-01
    1.0323416933031813e-02 -4.6038736053363849e-01
    1.0029995772710838e-02 -4.8170966244723357e-01
    9.6916815047723270e-03 -5.0979113924206010e-01
    9.3371722600248033e-03 -5.4452881274270204e-01
    9.3371722600248033e-03 -5.4452881274270204e-01
    9.0976389422820995e-03 -5.7217213527132937e-01
    8.3004797275610699e-03 -7.1186849681437425e-01
    8.3282871077216859e-03 -7.0472994494487995e-01
    8.1991699969445522e-03 -7.4068286810963224e-01
    8.1541369455408134e-03 -7.5526322246702016e-01
    7.9304511654182657e-03 -8.6150304700563896e-01
    7.8609409196640275e-03 -9.3485270488560546e-01
    7.8526966164837557e-03 -1.0506062939587124e+00
    7.8432161148784835e-03 -1.0044944046678452e+00
    7.8660272617812471e-03 -1.0793741444417315e+00
    7.8564984548166201e-03 -1.0600988273786194e+00
    7.8660272617812471e-03 -1.0793741444417315e+00
    7.8526966164837557e-03 -1.0506062939587124e+00
    7.8495326304507743e-03 -1.0412070637162956e+00
    7.8564984548166201e-03 -9.4330827859961874e-01
    7.8781470044407640e-03 -9.0987298699269903e-01
    7.9200369112007209e-03 -8.6942826720266209e-01
    7.9533763250159012e-03 -8.4580412353252066e-01
    7.9659049693675144e-03 -8.3802749139624166e-01
    7.9931434545672704e-03 -8.2261274566062259e-01
    8.3004797275610699e-03 -7.1186849681437425e-01
    8.3004797275610699e-03 -7.1186849681437425e-01
    8.5181322236840811e-03 -6.6235162672054693e-01
    8.7971552799484248e-03 -6.1363116762151459e-01
    9.5416842201228036e-03 -5.2372293656638169e-01
    1.0029995772710838e-02 -4.8170966244723357e-01
    1.0780818531068917e-02 -4.3147446363134567e-01
    1.4046651202286422e-02 -3.0518396894653688e-01
    1.4396320264892711e-02 -2.9631887899487686e-01
    1.6737221325908085e-02 -2.4880667576405965e-01
    2.9546948114330462e-02 -1.3514747567989718e-01
    1.6737221325908085e-02 -2.4880667576405965e-01
    1.5656236952038580e-02 -2.6854307776478731e-01
    1.4396320264892711e-02 -2.9631887899487686e-01
    1.2654136752806950e-02 -3.4727944810393963e-01
    1.1044114796377149e-02 -4.1675437673324534e-01
    1.0780818531068917e-02 -4.3147446363134567e-01
    1.1335305290435532e-02 -4.0181878170803981e-01
    1.0221370767972266e-02 -4.6752458221218440e-01
    9.7712117427019591e-03 -5.0280114236549311e-01
    1.0221370767972266e-02 -4.6752458221218440e-01
    9.2739543884704876e-03 -5.5144679457900747e-01
    8.5181322236840811e-03 -6.6235162672054693e-01
    8.4180929014903792e-03 -6.8345099543266052e-01
    8.2736895133194623e-03 -7.1903185097816680e-01
    8.0233633863783793e-03 -8.0737342775933107e-01
    7.9931434545672704e-03 -8.2261274566062259e-01
    7.9415614489831057e-03 -8.5362882480773561e-01
    7.8495326304507743e-03 -9.6042375704865190e-01
    7.8526966164837574e-03 -9.5183134324464558e-01
    7.8451094682228731e-03 -1.0226786199158697e+00
    7.8451094682228713e-03 -9.7782429448096275e-01
    7.8781470044407640e-03 -9.0987298699269903e-01
    7.8928934980049530e-03 -8.9352509577190609e-01
    7.8717612151086754e-03 -9.1813681257837065e-01
    7.9659049693675144e-03 -8.3802749139624166e-01
    7.9659049693675144e-03 -8.3802749139624166e-01
    8.2230585047150459e-03 -7.3343781909767836e-01
    8.4180929014903792e-03 -6.8345099543266052e-01
    8.4502575784637917e-03 -6.7639954159452320e-01
    8.3870640716079223e-03 -6.9052240517812313e-01
    8.8903068871461054e-03 -5.9979671352965547e-01
    9.2739543884704876e-03 -5.5144679457900747e-01
    9.7712117427019591e-03 -5.0280114236549311e-01
    1.0221370767972266e-02 -4.6752458221218440e-01
    1.0029995772710838e-02 -4.8170966244723357e-01
    1.1492788135550913e-02 -3.9425932393257612e-01
    1.2654136752806950e-02 -3.4727944810393963e-01
    1.5195658279322767e-02 -2.7801921874276631e-01
    1.7379322085718393e-02 -2.3847859005514924e-01
    3.4040247950592080e-02 -1.1677484162422844e-01
    2.6488138199574577e-02 -1.5144563320384569e-01
    1.9926753166862734e-02 -2.0507577810739899e-01
    1.6737221325908085e-02 -2.4880667576405965e-01
    1.5195658279322767e-02 -2.7801921874276631e-01
    1.3427011179740348e-02 -3.2242890075116398e-01
    1.2219259712347304e-02 -3.6329009817427188e-01
    1.2429741110405524e-02 -3.5533452725935077e-01
    1.2021392159597251e-02 -3.7115374447904520e-01
    1.0780818531068917e-02 -4.3147446363134567e-01
    1.0541619795627623e-02 -4.4600978821411041e-01
    1.1044114796377149e-02 -4.1675437673324534e-01
    1.0780818531068917e-02 -4.3147446363134567e-01
    9.4027876640952850e-03 -5.3760333057047027e-01
    8.9394070641054552e-03 -5.9288713218887745e-01
    8.4180929014903792e-03 -6.8345099543266052e-01
    8.1991699969445522e-03 -7.4068286810963224e-01
    8.0931509260102306e-03 -7.7737799477640879e-01
    8.0233633863783793e-03 -8.0737342775933107e-01
    7.9012651901125899e-03 -8.8543774484714632e-01
    7.9012651901125899e-03 -8.8543774484714632e-01
    7.8717612151086754e-03 -9.1813681257837065e-01
    7.9659049693675144e-03 -8.3802749139624166e-01
    7.8928934980049530e-03 -8.9352509577190609e-01
    8.0078749034396181e-03 -8.1497184275139967e-01
    8.0078749034396181e-03 -8.1497184275139967e-01
    8.3282871077216859e-03 -7.0472994494487995e-01
    8.4835920573123787e-03 -6.6936682622605959e-01
    8.5909835735129125e-03 -6.4836884996512245e-01
    8.5909835735129125e-03 -6.4836884996512245e-01
    9.0976389422820995e-03 -5.7217213527132937e-01
    9.3371722600248033e-03 -5.4452881274270204e-01
    1.0541619795627623e-02 -4.4600978821411041e-01
    1.0658415070611120e-02 -4.3876345447627840e-01
    1.0323416933031813e-02 -4.6038736053363849e-01
    1.0909235624184424e-02 -4.2413934018690114e-01
    1.2654136752806950e-02 -3.4727944810393963e-01
    1.3724662253733219e-02 -3.1388241028717229e-01
    1.7379322085718393e-02 -2.3847859005514924e-01
    2.6488138199574577e-02 -1.5144563320384569e-01
    3.4040247950592080e-02 -1.1677484162422844e-01
    2.9546948114330462e-02 -1.3514747567989718e-01
    2.4235902155026197e-02 -1.6628219864210797e-01
    1.9926753166862734e-02 -2.0507577810739899e-01
    1.7379322085718393e-02 -2.3847859005514924e-01
    1.6737221325908085e-02 -2.4880667576405965e-01
    1.4396320264892711e-02 -2.9631887899487686e-01
    1.3150895097722883e-02 -3.3083641927455321e-01
    1.3150895097722883e-02 -3.3083641927455321e-01
    1.3427011179740348e-02 -3.2242890075116398e-01
    1.2429741110405524e-02 -3.5533452725935077e-01
    1.2429741110405524e-02 -3.5533452725935077e-01
    1.1835002697769704e-02 -3.7893237337253666e-01
    1.1335305290435532e-02 -4.0181878170803981e-01
    1.0909235624184424e-02 -4.2413934018690114e-01
    9.4027876640952850e-03 -5.3760333057047027e-01
    8.8429110237362336e-03 -6.0671093570925727e-01
    8.2736895133194623e-03 -7.1903185097816680e-01
    8.2230585047150459e-03 -7.3343781909767836e-01
    8.0745007006493008e-03 -7.8481974298911927e-01
    8.0396214848873354e-03 -7.9981615534630290e-01
    8.0396214848873354e-03 -7.9981615534630290e-01
    8.1541369455408134e-03 -7.5526322246702016e-01
    8.2230585047150459e-03 -7.3343781909767836e-01
    8.1991699969445522e-03 -7.4068286810963224e-01
    8.3004797275610699e-03 -7.1186849681437425e-01
    8.5539160185991586e-03 -6.5535271380164406e-01
    9.1542854473043184e-03 -5.6526686371919488e-01
    9.6152243000764675e-03 -5.1676440913191235e-01
    1.0029995772710838e-02 -4.8170966244723357e-01
    9.9401789347657241e-03 -4.8876260995383924e-01
    9.9401789347657241e-03 -4.8876260995383924e-01
    1.0780818531068917e-02 -4.3147446363134567e-01
    1.1044114796377149e-02 -4.1675437673324534e-01
    1.2429741110405524e-02 -3.5533452725935077e-01
    1.4777692036996264e-02 -2.8727038107793185e-01
    1.4396320264892711e-02 -2.9631887899487686e-01
    1.5656236952038580e-02 -2.6854307776478731e-01
    2.2489965386631696e-02 -1.8002057495577387e-01
    3.4040247950592080e-02 -1.1677484162422844e-01
    5.8693255024598989e-02 -6.7115605521402430e-02
    3.4040247950592080e-02 -1.1677484162422844e-01
    2.9546948114330462e-02 -1.3514747567989718e-01
    2.4235902155026197e-02 -1.6628219864210797e-01
    2.1086303792941550e-02 -1.9289712886816485e-01
    2.1086303792941550e-02 -1.9289712886816485e-01
    1.8109247719946653e-02 -2.2778672580471013e-01
    1.6737221325908085e-02 -2.4880667576405965e-01
    1.5656236952038580e-02 -2.6854307776478731e-01
    1.6166928653154652e-02 -2.5881585332628748e-01
    1.5195658279322767e-02 -2.7801921874276631e-01
    1.4396320264892711e-02 -2.9631887899487686e-01
    1.3427011179740348e-02 -3.2242890075116398e-01
    1.2654136752806950e-02 -3.4727944810393963e-01
    1.2219259712347304e-02 -3.6329009817427188e-01
    1.0909235624184424e-02 -4.2413934018690114e-01
    9.8539834579321351e-03 -4.9579235156053159e-01
    9.0429979739118666e-03 -5.7907628281372847e-01
    8.6293773569781733e-03 -6.4139878785611315e-01
    8.9394070641054552e-03 -5.9288713218887745e-01
    8.9394070641054552e-03 -5.9288713218887745e-01
    8.5539160185991586e-03 -6.5535271380164406e-01
    9.0429979739118666e-03 -5.7907628281372847e-01
    8.4502575784637917e-03 -6.7639954159452320e-01
    9.2130257951079913e-03 -5.5835894000396635e-01
    8.8903068871461054e-03 -5.9979671352965547e-01
    9.7712117427019591e-03 -5.0280114236549311e-01
    9.9401789347657241e-03 -4.8876260995383924e-01
    1.0909235624184424e-02 -4.2413934018690114e-01
    1.1835002697769704e-02 -3.7893237337253666e-01
    1.1185953505054231e-02 -4.0931560807732076e-01
    1.1492788135550913e-02 -3.9425932393257612e-01
    1.3150895097722883e-02 -3.3083641927455321e-01
    1.6737221325908085e-02 -2.4880667576405965e-01
    1.7379322085718393e-02 -2.3847859005514924e-01
    1.8109247719946653e-02 -2.2778672580471013e-01
    2.1086303792941550e-02 -1.9289712886816485e-01
    1.9926753166862734e-02 -2.0507577810739899e-01
    2.4235902155026197e-02 -1.6628219864210797e-01
    3.4040247950592080e-02 -1.1677484162422844e-01
    5.8693255024598989e-02 -6.7115605521402430e-02
    2.9546948114330462e-02 -1.3514747567989718e-01
    2.9546948114330462e-02 -1.3514747567989718e-01
    2.9546948114330462e-02 -1.3514747567989718e-01
    2.9546948114330462e-02 -1.3514747567989718e-01
    3.4040247950592080e-02 -1.1677484162422844e-01
    2.4235902155026197e-02 -1.6628219864210797e-01
    2.1086303792941550e-02 -1.9289712886816485e-01
    1.8948501955664509e-02 -2.1667569500871972e-01
    1.8109247719946653e-02 -2.2778672580471013e-01
    1.8109247719946653e-02 -2.2778672580471013e-01
    1.6166928653154652e-02 -2.5881585332628748e-01
    1.6737221325908085e-02 -2.4880667576405965e-01
    1.8109247719946653e-02 -2.2778672580471013e-01
    1.8109247719946653e-02 -2.2778672580471013e-01
    1.4396320264892711e-02 -2.9631887899487686e-01
    1.2021392159597251e-02 -3.7115374447904520e-01
    1.0780818531068917e-02 -4.3147446363134567e-01
    1.1044114796377149e-02 -4.1675437673324534e-01
    1.1044114796377149e-02 -4.1675437673324534e-01
    9.7712117427019591e-03 -5.0280114236549311e-01
    1.0123648558632148e-02 -4.7463114654932337e-01
    1.2429741110405524e-02 -3.5533452725935077e-01
    1.1492788135550913e-02 -3.9425932393257612e-01
    1.0029995772710838e-02 -4.8170966244723357e-01
    1.0780818531068917e-02 -4.3147446363134567e-01
    1.0430065123754825e-02 -4.5321673116226124e-01
    1.0780818531068917e-02 -4.3147446363134567e-01
    1.1185953505054231e-02 -4.0931560807732076e-01
    1.2021392159597251e-02 -3.7115374447904520e-01
    1.2654136752806950e-02 -3.4727944810393963e-01
    1.5195658279322767e-02 -2.7801921874276631e-01
    1.9926753166862734e-02 -2.0507577810739899e-01
    1.9926753166862734e-02 -2.0507577810739899e-01
    2.1086303792941550e-02 -1.9289712886816485e-01
    2.2489965386631696e-02 -1.8002057495577387e-01
    2.6488138199574577e-02 -1.5144563320384569e-01
    2.9546948114330462e-02 -1.3514747567989718e-01
    2.6488138199574577e-02 -1.5144563320384569e-01
    2.9546948114330462e-02 -1.3514747567989718e-01</input_scale>
  <output_scale>
    1.0526315789473684e+00 0.</output_scale>
  <inv_output_scale>
    9.4999999999999996e-01 0.</inv_output_scale>
  <weights>
    <_>
      -1.1719048386403424e-03 -2.2903224389177911e-04
      -9.9637750405231888e-04 -5.5088375721748159e-04
      2.2039270841974236e-04 1.2144499427915077e-03
      9.9728247011042037e-04 2.0453599492093418e-04
      -7.2831549546728146e-04 -4.2920232853557353e-04
      -1.1054717958401724e-03 -1.2409612586460942e-04
      -2.1397120762249158e-05 -7.8018402384446585e-04
      6.7194088742161514e-04 -1.1208781013474275e-03
      1.1037170489498088e-03 1.0083693640301039e-03
      -2.5698247005999147e-04 -3.4383640164285737e-05
      3.0002183913935715e-04 -7.7645728251324352e-04
      -6.5397802009701264e-04 9.5527311481024093e-04
      -1.0954164450422850e-03 -3.1663012947851025e-04
      6.1523554708813478e-04 -6.3403300196013517e-04
      1.0630743572223426e-03 -2.4215284090006096e-04
      1.2150750992007805e-03 -3.7732545206526025e-04
      2.2581237915161135e-04 8.1166924113520002e-04
      1.1322676431532379e-03 5.1786688077618958e-04
      8.1904968067006900e-04 5.2277548999592920e-04
      1.2256443938238879e-03 -1.5902424652943092e-04
      -6.6851459639288888e-02 -8.3439206610384110e-03
      -7.9905222331445661e-03 -2.8336635105956601e-03
      6.9638041390565984e-03 -1.1337968039895772e-03
      9.5408138220316274e-04 6.1043880555355879e-03
      -1.1691608456022946e-03 -9.0518496385587136e-03
      -2.4589673143027460e-03 -4.4908659626240180e-03
      -9.7636781889551250e-04 4.9628434408172028e-03
      -2.3584911376967168e-03 -2.2734365329524781e-04
      -1.5504845270559225e-03 -5.0935797134266467e-03
      8.9326294982688577e-03 -7.7135075510439887e-03
      5.0957610236093591e-03 2.8313744107272805e-03
      2.0389221645210650e-03 -6.8087368606229333e-03
      -3.7556131183989674e-04 -3.0116959461005538e-03
      -8.1090476385941093e-03 8.5738793912671571e-03
      -1.5225697255188226e-03 -1.3354588699873472e-03
      8.2781183694252865e-03 9.4923911429648893e-03
      -1.1401566207032213e-02 -2.0724967506468867e-03
      -5.0095904499102796e-03 2.0199480046047516e-03
      -6.3529383194552745e-03 -4.8752080758362277e-03
      7.4255681159681461e-03 6.5285134176810457e-03
      9.7488813335630281e-02 4.9426759791596789e-02
      4.1984556752537615e-02 1.5681669412944233e-02
      -3.7084515246007345e-02 1.3370047435505447e-02
      -1.5394348093917508e-02 -3.3173251954578327e-02
      -9.4959980849563842e-03 5.7860889213973692e-02
      1.3702583008375076e-02 3.1802789771069088e-02
      1.5578347077116273e-02 -2.2314245574314301e-02
      -6.5300685005165613e-03 1.4120607205204524e-02
      -8.2270930771849663e-03 2.7707225225787165e-02
      -5.4224586048963172e-02 5.7748774166137745e-02
      -3.0096504768214048e-02 1.1155741521248043e-02
      7.9966623820830959e-03 4.2051377304157776e-02
      1.4615370091195427e-02 -9.0344727755343954e-03
      5.2055495698662149e-02 -5.1336295519065399e-02
      1.6994515905775019e-02 1.4912141665782305e-02
      -4.2775280142678458e-02 -4.9316067549948432e-02
      5.0800494682289019e-02 1.6018820633452484e-02
      2.4232697971996207e-02 1.1494013857479521e-02
      4.0260578092857005e-02 2.0370486460422749e-02
      -4.6951951168532062e-02 -3.9255367138399000e-02
      -1.4872274210145700e-01 -7.5399478336127352e-03
      -7.7233168100644444e-03 -1.0707330089812110e-02
      1.1123727118854714e-02 -6.2791450212777008e-03
      9.5425022041531696e-03 5.5367957034021479e-03
      9.9804886573749349e-03 -8.9072122124849232e-03
      -8.0975429185064438e-03 -4.9930744963823503e-03
      -7.3573367621819485e-03 3.6388161217693724e-03
      9.0365046091157759e-03 -7.2330653468886319e-03
      1.1531278009692411e-02 -1.2628531565635592e-03
      9.1135331858953478e-03 -9.7496654513184768e-03
      3.8831248596657804e-03 -1.6541799722566239e-02
      -9.0414968135186027e-03 -9.1348493235249434e-03
      -6.1983841678363337e-03 1.5314734247775312e-02
      -8.7145832558173045e-03 8.6404557501946790e-03
      -6.8233719208042011e-03 -7.2167661876140106e-03
      9.2940056771757644e-03 1.0362107737912194e-02
      -9.2409604196038771e-03 -9.9073551064949913e-03
      -1.4234590898179274e-03 -1.5140324301338350e-02
      -6.9857139302183964e-03 -5.7840566482598790e-03
      9.4570931056080082e-03 7.4449234600723136e-03
      -7.9075262570682692e-01 -1.4980277176786181e-02
      -1.5437400878536881e-02 -3.2039321689011704e-02
      1.8190337960513846e-02 9.1705427792029351e-03
      1.2250709895220604e-02 2.0393375600408273e-02
      3.9524810383050578e-02 -1.3776624594061414e-02
      -3.2517302521525141e-03 -1.9161918864128349e-02
      6.8234104729461228e-04 1.4876816986018634e-02
      3.4422865322093425e-02 1.2132743004905065e-03
      3.7508251154903777e-02 -4.2447195437013540e-03
      1.9508280876939878e-02 -1.4917774243474192e-02
      3.5412847919533449e-03 -2.1751411624877485e-02
      -3.9650329862649041e-02 -1.5909886595201088e-02
      4.8685496718985912e-03 2.8391897957533906e-02
      -1.5582071857293076e-02 1.8504311393116486e-02
      -1.2674445486481983e-02 1.7130272234853691e-03
      1.7086362817962723e-02 1.8604215212315606e-02
      -2.0521810418369792e-02 -2.8492090836867073e-02
      -5.1612961142813970e-03 -2.6844048524520384e-02
      -1.5326605148616669e-02 -2.7514808481540608e-02
      1.5943020889592697e-02 1.5835830701916891e-02
      -7.9032686154086029e-01 -1.6351269829239415e-02
      -1.4586633808382687e-02 -3.1409393035201502e-02
      1.9334424179263909e-02 7.8211417564102610e-03
      1.1739881831655440e-02 1.9935865022282017e-02
      3.9677675533372779e-02 -1.3562450342069848e-02
      -4.4923545828413017e-03 -1.9570197847976825e-02
      8.7621605815662792e-04 1.4470619587117482e-02
      3.6022442593655363e-02 1.6715725209232920e-03
      3.6808507667764945e-02 -5.6423134260417344e-03
      1.7584663361993456e-02 -1.5069568331820131e-02
      3.5508690704412452e-03 -2.0360827137729406e-02
      -3.8222758701086483e-02 -1.5797042369123937e-02
      2.8781500580644312e-03 2.7696583521632276e-02
      -1.3980499328062805e-02 1.7747922268809814e-02
      -1.2180508788617046e-02 1.9878621375161174e-03
      1.6439379170948721e-02 1.8505548193700223e-02
      -1.9044773045690550e-02 -2.7593070076824891e-02
      -3.9515545783299025e-03 -2.6937874793454285e-02
      -1.4547712215438935e-02 -2.7528015209550158e-02
      1.6998671445780673e-02 1.4410178146933274e-02
      -9.1406644669178616e-01 -2.7161025056786438e-02
      -2.3972234899111763e-02 -4.9233197657726255e-02
      2.8421787362569142e-02 -2.5084130802271745e-02
      3.5405317609120510e-02 2.3448825190563807e-02
      5.2449450001172619e-02 -2.7461983530827842e-02
      -3.0655899254464249e-02 -2.1573844059489797e-02
      -2.6206466243455347e-02 1.8976530926347646e-02
      4.6435834258184282e-02 -2.7977855972574017e-02
      4.7714414676646680e-02 2.1776909618514383e-03
      2.9561519062554411e-02 -2.7565110441307626e-02
      1.0576045311637167e-03 -4.8738229034080302e-02
      -4.9735037018999680e-02 -2.6929594871105775e-02
      -2.8232720212969322e-02 5.2673896294218425e-02
      -2.6726947552051496e-02 2.9951977310115466e-02
      -3.5497079530395353e-02 -2.8596700916705547e-02
      2.6631076398618257e-02 2.8569715121301714e-02
      -3.0482706702240854e-02 -4.8994189574107928e-02
      2.8135517929525540e-03 -5.0263605481926675e-02
      -2.4684898371625533e-02 -3.2672882248928128e-02
      2.5577079160759901e-02 2.4382528065517071e-02
      -7.7492499222422317e-01 -1.1918630847077120e-02
      -1.1344762216850728e-02 -2.8611437436496738e-02
      1.3226705959284176e-02 6.1724345519903563e-03
      1.1107778117940082e-02 1.7590093266539885e-02
      3.6130682223283826e-02 -1.3115121812455244e-02
      -1.9557572657076909e-03 -1.5497049696175592e-02
      1.7579588528163646e-03 1.5684288029592316e-02
      3.0411379183812044e-02 -1.0775902260945972e-04
      3.1113467158389183e-02 -1.2519552505317512e-02
      7.3647982336523428e-03 -1.1947167600661288e-02
      1.1604303124856486e-02 -2.7298362411660722e-02
      -3.3461201723121135e-02 -9.4481872361171261e-03
      2.5996125217690228e-03 2.9568205039783194e-02
      -1.2143184313062577e-02 8.4388312166728523e-03
      -8.3392050398726006e-03 -1.3894535012009160e-04
      8.9041009984573028e-03 7.8917250208691992e-03
      -6.9989018072917856e-03 -2.5115710737527355e-02
      -8.8385797611561113e-03 -2.9303701478043839e-02
      -1.0060307437661094e-02 -2.5900252324083807e-02
      1.0958170968510065e-02 1.1021329868805600e-02
      -3.0312541119784553e-01 1.6400897403256376e-03
      -8.5725836479967079e-04 7.8517213863540380e-03
      4.8971745696963142e-03 2.7561714208298400e-02
      -2.0165342693363696e-02 7.7920947974845457e-03
      2.0734984999170366e-03 2.5144309588694780e-03
      2.2674359721106836e-02 -7.5962453789310868e-03
      2.9804053218175263e-02 5.3990605909363856e-03
      8.3444028173693563e-04 2.4884679278501416e-02
      1.7871761279835249e-03 -1.8631777675208235e-02
      -6.4915253680099278e-03 3.1365897667654766e-03
      1.2922475046198277e-02 5.0832739849961967e-03
      -9.2791711916517100e-04 -2.2125316771097960e-03
      2.5811309574076742e-02 -3.1307766523890651e-03
      2.9957517679161877e-03 -3.7334386469154821e-03
      1.9631999286028129e-02 2.5227243953721168e-02
      -5.8442297544323131e-04 -3.1469323283142515e-03
      5.8575739850621512e-03 1.0132731434292830e-02
      -1.3383545930331637e-02 3.3629298952372196e-03
      -2.9549360277194827e-04 -1.1827719310907319e-02
      -1.9489862627223638e-03 2.6378118766913622e-03
      -7.0538576631056227e-01 -3.2967194869324666e-02
      -2.7454760947211422e-02 -3.1638127529968071e-02
      2.9498936784137817e-02 3.1806655334328097e-03
      1.5802011679882506e-02 2.9251996722971636e-02
      1.9184407778022564e-02 -3.5745525224808491e-02
      -9.3681338667747187e-03 -2.7968018966672288e-02
      -4.7435485523580241e-03 2.3694947073152985e-02
      1.6108003588113984e-02 -6.1305223777598158e-03
      1.9893856638708109e-02 -2.1282913341753373e-02
      3.6140146675223361e-02 -3.5488633043210614e-02
      2.2786272971691952e-02 -1.7900490608560429e-02
      -2.0790255889506965e-02 -2.8401696572258894e-02
      -2.2592339657550435e-03 1.9885203527667917e-02
      -3.2761296765245008e-02 3.4645650319055435e-02
      -1.5539267652787818e-02 -5.7564935362721852e-03
      2.9356877259581797e-02 3.1368335210630836e-02
      -3.6838574779490645e-02 -2.8221155671527644e-02
      -1.8217515181228272e-02 -2.0452609630804777e-02
      -2.7662174711033889e-02 -3.0106889455079128e-02
      2.9406851984534178e-02 2.7016187264609821e-02
      -4.5409563689796717e-01 -2.0205921749530193e-02
      -1.5837603973610500e-02 -1.3756016807729560e-02
      1.8793451595120584e-02 5.6623359305770279e-03
      3.9748305741523458e-03 1.2307187170443445e-02
      5.0840256808098614e-03 -3.2982759256668499e-02
      -3.3141423352595891e-04 -1.2215586436325308e-02
      5.1386293255664415e-03 1.1130076275094835e-02
      1.5250934697596012e-03 -6.0370388889015802e-04
      4.2871315619635161e-03 -9.7116846919559248e-03
      8.8825647643057757e-03 -3.1798422015069640e-02
      5.5731902152514881e-03 -6.8525179944417336e-03
      -2.9009856568863492e-03 -1.3841882028661275e-02
      1.1107828198221870e-03 7.1397659109348329e-03
      -2.2962100190612910e-02 1.1158505656919098e-02
      -3.4315060291419037e-03 2.4926992440797827e-04
      1.3599957162771098e-02 1.0853696930201046e-02
      -9.8607474193086759e-03 -1.2380095280535453e-02
      -7.3629986946267120e-03 -7.2534672361061394e-03
      -1.4148044300847174e-02 -1.6585506289340052e-02
      1.2526931658847865e-02 1.5775074943268623e-02
      -3.7297536868336223e-01 -4.7423089431785862e-03
      -3.2527374826989437e-03 -6.5542013910916963e-03
      6.0911801942216438e-03 6.8506372883432665e-03
      -2.7315129691967647e-03 4.2947349374477684e-03
      7.4355367398191386e-03 -1.6971436722711449e-02
      5.7476771098163137e-03 -2.9537020269649128e-03
      1.2699291467458261e-02 1.0032312748359084e-03
      4.8266772463340371e-03 6.7283317031582275e-03
      6.5340106902129994e-03 5.1660455073474221e-03
      -7.0742336199210677e-03 -1.2240566230562893e-02
      -5.3012950990600103e-03 -6.4208460773738868e-03
      -8.0766418189158525e-03 -1.5684891171942371e-03
      7.0421852883521350e-03 8.0134166209723350e-03
      -6.9980064948200584e-03 -5.3425055982581505e-03
      4.8000447306042159e-03 4.3857514230909852e-03
      1.3065950412897960e-03 -3.5261286980604657e-03
      8.8068696477039011e-03 -4.8674155013847722e-03
      6.1227772639740373e-03 -7.1876547676088375e-03
      -2.4444303135843330e-03 -1.2116186560146050e-02
      2.9557084464654443e-04 4.7943396275504516e-03
      -3.6835566131926212e-01 6.7283643243466456e-03
      5.9484627487790716e-03 -2.4100211998427865e-03
      -1.5197338474086197e-03 4.4730046435717723e-03
      -4.5858514961129400e-03 -4.8791937349702613e-03
      2.3485287972707096e-02 -4.2584990280586236e-04
      6.6717696170015507e-03 7.5930762564033463e-03
      1.1459710327385939e-02 -3.8571939573803960e-03
      2.1003948210173130e-02 8.3972836836868868e-03
      1.9474051074418360e-02 1.2176956261016605e-02
      -2.6303774974403869e-02 3.5121908805389695e-03
      -1.3510802103879517e-02 -1.7100911286755352e-02
      -2.1533794261925542e-02 9.2544136389687854e-03
      7.3417179358202739e-03 1.9278832637014177e-02
      7.2804182901496867e-03 -2.0515181056655549e-02
      5.9179310571017699e-03 6.7796515890496878e-03
      -1.1837882269127339e-02 -1.9000190184386170e-02
      2.8221313253574354e-02 -1.7424057188895326e-03
      1.1558705570986188e-02 -1.9323365244155389e-02
      6.6560370867972760e-03 -6.2207325959463024e-03
      -1.2357204065629302e-02 -6.6569796462786421e-03
      -7.5768355247907626e-01 -3.9942085701604131e-02
      -3.2578655120391341e-02 -4.3603365545404865e-02
      3.3069377048373309e-02 -3.1339086664090993e-02
      3.7531479117461838e-02 2.7745410054578812e-02
      4.1210046122036992e-02 -5.3528090919730445e-02
      -3.6079143405097741e-02 -2.5405915119419118e-02
      -3.2755714616722303e-02 1.9987887433086923e-02
      3.6018582031946557e-02 -3.5889012923499726e-02
      3.7496133449322414e-02 -1.5333025987053868e-02
      3.3460629423993492e-02 -4.9886721825121466e-02
      1.4672645614480961e-02 -4.3555882471679762e-02
      -4.0749598703295815e-02 -3.1517867956550892e-02
      -3.4111327890007592e-02 4.3571798776782786e-02
      -4.1152636342880848e-02 3.4282425837461730e-02
      -3.6403288400624456e-02 -3.4589521172549681e-02
      3.1714857259983020e-02 3.2498089030257839e-02
      -3.5163514403346967e-02 -4.1628685073665947e-02
      -1.2909442141588933e-02 -4.3816969579450679e-02
      -3.2486402775245816e-02 -3.0021096124953007e-02
      3.1955414024389520e-02 3.1962297443170543e-02
      -4.2404608674797845e-01 1.2495108455642945e-02
      9.1309213377610034e-03 -2.6032915741841859e-02
      -7.3135087706327189e-03 -2.9788303299879887e-02
      2.2351225549220931e-02 -9.1477319555526865e-03
      4.6718591068053351e-02 9.7768689692074116e-03
      -2.1096018427324847e-02 1.1142009621004225e-02
      -1.6836152538907398e-02 -5.8401974263183462e-03
      4.1505082428289160e-02 -2.5751369292443985e-02
      4.1633695041511293e-02 3.1429468997435810e-02
      -2.1429436536017418e-02 1.0026866840526090e-02
      -2.5922183534598329e-02 -4.2631270525827963e-02
      -4.4799750302599049e-02 1.1622412171335363e-02
      -2.5322253336232219e-02 4.4985428042779572e-02
      1.2568004206729063e-02 -1.9314238037547699e-02
      -2.0781272061297627e-02 -2.4397971181939964e-02
      -1.2998813481847733e-02 -1.7349767775426333e-02
      2.3434532417211350e-02 -2.4914388209607265e-02
      2.7315808022651458e-02 -4.5049329210104780e-02
      1.0881096863714071e-02 -3.5260950141126016e-03
      -1.5246177478288551e-02 -1.0678482264158953e-02
      -2.7928256441864324e-01 -7.9462526847950583e-03
      -6.3405757919226162e-03 -1.3787742890585217e-02
      7.5571650544424378e-03 -1.4084118913424050e-02
      7.9561905566465242e-03 4.4360503308110873e-03
      2.9282914313912153e-02 -1.3959240130052333e-02
      -7.6097506877070781e-03 -4.8190790246760602e-03
      -2.6779472946588992e-03 2.0666019309629421e-03
      2.9558192297964067e-02 -1.1942940839777981e-02
      2.7909605904412611e-02 1.3537612659139449e-02
      -1.6263444309639573e-03 -1.3171001783314524e-02
      -9.2470226158821427e-03 -2.2883570532595376e-02
      -3.0232293092994151e-02 -4.9764363178810495e-03
      -1.1625586040514464e-02 2.6008182937038462e-02
      -7.4492997120312581e-03 8.1692680814742880e-04
      -5.3893470170202403e-03 -1.0891601853013846e-02
      3.6174230495765528e-03 4.4662620505792874e-04
      2.2171513766947380e-03 -1.0493154465896107e-02
      1.1028023550028417e-02 -2.6289662928680686e-02
      -5.0363155310081788e-03 -8.0955951596321275e-03
      2.7569351107914340e-03 5.3322768839266805e-03
      -1.4824565567413936e-01 -7.4393166508398972e-03
      -4.6076067064841318e-03 -1.4166958492155525e-02
      7.4315640934148799e-03 -1.7269060165574706e-02
      1.1237023212414474e-02 3.1576097544263799e-03
      2.5557899996275432e-02 -1.6425095508236523e-02
      -1.2468889261376013e-02 -2.0765408165576683e-03
      -6.8447103381822387e-03 1.8151273739291777e-04
      2.3675803479822559e-02 -1.3926965394176698e-02
      2.3833095970385187e-02 1.7583698107677244e-02
      -3.6522414190677619e-04 -1.3011021956956250e-02
