<?xml version="1.0"?>
<opencv_storage>
<shapeML type_id="opencv-ml-ann-mlp">
  <layer_sizes type_id="opencv-matrix">
    <rows>1</rows>
    <cols>3</cols>
    <dt>i</dt>
    <data>
      1600 40 1</data></layer_sizes>
  <activation_function>SIGMOID_SYM</activation_function>
  <f_param1>5.9999999999999998e-01</f_param1>
  <f_param2>1.</f_param2>
  <min_val>-9.4999999999999996e-01</min_val>
  <max_val>9.4999999999999996e-01</max_val>
  <min_val1>-9.7999999999999998e-01</min_val1>
  <max_val1>9.7999999999999998e-01</max_val1>
  <training_params>
    <train_method>BACKPROP</train_method>
    <dw_scale>1.0000000000000001e-01</dw_scale>
    <moment_scale>1.0000000000000001e-01</moment_scale>
    <term_criteria><epsilon>9.9999999747524271e-07</epsilon>
      <iterations>4000</iterations></term_criteria></training_params>
  <input_scale>
    1. 0. 5.8954685715975966e-02 -6.6815310478106099e-02
    5.8954685715975966e-02 -6.6815310478106099e-02
    5.8954685715975966e-02 -6.6815310478106099e-02
    3.4190481983476254e-02 -1.1624763874381926e-01
    3.4190481983476254e-02 -1.1624763874381926e-01
    2.6603942168626202e-02 -1.5075567228888181e-01
    2.9676740911602023e-02 -1.3453455879926249e-01
    2.4341349664775531e-02 -1.6552117772047362e-01
    2.2587339046285494e-02 -1.7919288976719827e-01
    2.0012171101169755e-02 -2.0412414523193148e-01
    2.0012171101169755e-02 -2.0412414523193148e-01
    2.1177148267822909e-02 -1.9200614429492771e-01
    1.6807484950576306e-02 -2.4763027827182424e-01
    1.5258407291163413e-02 -2.7668578554642986e-01
    1.4838370455801012e-02 -2.8588593744843283e-01
    1.2945020273949993e-02 -3.3743352847429647e-01
    1.6234431767534977e-02 -2.5758631737822163e-01
    1.6807484950576306e-02 -2.4763027827182424e-01
    1.2067793233267914e-02 -3.6927447293799820e-01
    1.0820105990911162e-02 -4.2919753763947605e-01
    1.1703487700234360e-02 -3.8465462908103598e-01
    1.3780037813700534e-02 -3.1234752377721214e-01
    1.4455093740676191e-02 -2.9488391230979427e-01
    2.1177148267822909e-02 -1.9200614429492771e-01
    2.6603942168626202e-02 -1.5075567228888181e-01
    2.4341349664775531e-02 -1.6552117772047362e-01
    2.0012171101169755e-02 -2.0412414523193148e-01
    1.9029312918253837e-02 -2.1566554640687682e-01
    2.1177148267822909e-02 -1.9200614429492771e-01
    2.1177148267822909e-02 -1.9200614429492771e-01
    2.6603942168626202e-02 -1.5075567228888181e-01
    2.2587339046285494e-02 -1.7919288976719827e-01
    2.6603942168626202e-02 -1.5075567228888181e-01
    2.4341349664775531e-02 -1.6552117772047362e-01
    2.4341349664775531e-02 -1.6552117772047362e-01
    5.8954685715975966e-02 -6.6815310478106099e-02
    5.8954685715975966e-02 -6.6815310478106099e-02
    5.8954685715975966e-02 -6.6815310478106099e-02
    4.1780622689151031e-02 -9.4702744762075672e-02
    5.8954685715975966e-02 -6.6815310478106099e-02
    4.1780622689151031e-02 -9.4702744762075672e-02
    5.8954685715975966e-02 -6.6815310478106099e-02
    4.1780622689151031e-02 -9.4702744762075672e-02
    2.9676740911602023e-02 -1.3453455879926249e-01
    2.9676740911602023e-02 -1.3453455879926249e-01
    2.1177148267822909e-02 -1.9200614429492771e-01
    2.0012171101169755e-02 -2.0412414523193148e-01
    2.0012171101169755e-02 -2.0412414523193148e-01
    1.8186080469850874e-02 -2.2671980319080756e-01
    1.5721249524260256e-02 -2.6726124191242434e-01
    1.3780037813700534e-02 -3.1234752377721214e-01
    1.2478354962115544e-02 -3.5355339059327373e-01
    1.1084975903594252e-02 -4.1457809879442503e-01
    1.0467181047850663e-02 -4.5078659712743530e-01
    9.8039215686274508e-03 -5.0000000000000000e-01
    9.9740700927210078e-03 -4.8606968251860377e-01
    9.5727140427076373e-03 -5.2075564392329543e-01
    9.4327497145561545e-03 -5.3452248382484868e-01
    9.9740700927210078e-03 -4.8606968251860377e-01
    9.4327497145561545e-03 -5.3452248382484868e-01
    9.9740700927210078e-03 -4.8606968251860377e-01
    9.7238198977202123e-03 -5.0693514400114703e-01
    1.0158778655702295e-02 -4.7204458153496665e-01
    1.1227645556454873e-02 -4.0718927884743006e-01
    1.2067793233267914e-02 -3.6927447293799820e-01
    1.3780037813700534e-02 -3.1234752377721214e-01
    1.3780037813700534e-02 -3.1234752377721214e-01
    1.4103663157549417e-02 -3.0369887999256412e-01
    1.4838370455801012e-02 -2.8588593744843283e-01
    1.7452671444027255e-02 -2.3735633163877068e-01
    1.8186080469850874e-02 -2.2671980319080756e-01
    1.7452671444027255e-02 -2.3735633163877068e-01
    1.9029312918253837e-02 -2.1566554640687682e-01
    2.0012171101169755e-02 -2.0412414523193148e-01
    2.0012171101169755e-02 -2.0412414523193148e-01
    3.4190481983476254e-02 -1.1624763874381926e-01
    3.4190481983476254e-02 -1.1624763874381926e-01
    3.4190481983476254e-02 -1.1624763874381926e-01
    3.4190481983476254e-02 -1.1624763874381926e-01 1. 0.
    4.1780622689151031e-02 -9.4702744762075672e-02
    4.1780622689151031e-02 -9.4702744762075672e-02
    3.4190481983476254e-02 -1.1624763874381926e-01
    2.6603942168626202e-02 -1.5075567228888181e-01
    2.2587339046285494e-02 -1.7919288976719827e-01
    1.9029312918253837e-02 -2.1566554640687682e-01
    1.9029312918253837e-02 -2.1566554640687682e-01
    1.4103663157549417e-02 -3.0369887999256412e-01
    1.1703487700234360e-02 -3.8465462908103598e-01
    1.1084975903594252e-02 -4.1457809879442503e-01
    1.0949295975238199e-02 -4.2191287157917856e-01
    1.0820105990911162e-02 -4.2919753763947605e-01
    9.6468029508338712e-03 -5.1385303718108422e-01
    9.5727140427076373e-03 -5.2075564392329543e-01
    8.8679807228754012e-03 -6.0302268915552726e-01
    8.8679807228754012e-03 -6.0302268915552726e-01
    8.7340275134779218e-03 -6.2360956446232363e-01
    8.4708593071291648e-03 -6.7202150503224700e-01
    8.6521824325669419e-03 -6.3737743919909806e-01
    8.5396103540141630e-03 -6.5811930461602475e-01
    8.6133443037856288e-03 -6.4427815392316501e-01
    8.7340275134779218e-03 -6.2360956446232363e-01
    8.8679807228754012e-03 -6.0302268915552726e-01
    8.7771332314144357e-03 -6.1673989506072102e-01
    8.8217652351177088e-03 -6.0987803658780437e-01
    1.0158778655702295e-02 -4.7204458153496665e-01
    1.0949295975238199e-02 -4.2191287157917856e-01
    1.1227645556454873e-02 -4.0718927884743006e-01
    1.2703947435020001e-02 -3.4554737023254400e-01
    1.5258407291163413e-02 -2.7668578554642986e-01
    1.6807484950576306e-02 -2.4763027827182424e-01
    1.6807484950576306e-02 -2.4763027827182424e-01
    1.5721249524260256e-02 -2.6726124191242434e-01
    1.5721249524260256e-02 -2.6726124191242434e-01
    1.6234431767534977e-02 -2.5758631737822163e-01
    2.1177148267822909e-02 -1.9200614429492771e-01
    2.4341349664775531e-02 -1.6552117772047362e-01
    2.6603942168626202e-02 -1.5075567228888181e-01
    3.4190481983476254e-02 -1.1624763874381926e-01 1. 0.
    5.8954685715975966e-02 -6.6815310478106099e-02
    2.9676740911602023e-02 -1.3453455879926249e-01
    2.4341349664775531e-02 -1.6552117772047362e-01
    1.9029312918253837e-02 -2.1566554640687682e-01
    2.0012171101169755e-02 -2.0412414523193148e-01
    1.6807484950576306e-02 -2.4763027827182424e-01
    1.1536243243422589e-02 -3.9223227027636803e-01
    1.1227645556454873e-02 -4.0718927884743006e-01
    1.0359852259946277e-02 -4.5790546988962549e-01
    1.1227645556454873e-02 -4.0718927884743006e-01
    9.8039215686274508e-03 -5.0000000000000000e-01
    9.3666140485070895e-03 -5.4139029200370969e-01
    8.6923941864606689e-03 -6.3048832499128049e-01
    8.6923941864606689e-03 -6.3048832499128049e-01
    8.2654426600143605e-03 -7.2129762946391984e-01
    8.2654426600143605e-03 -7.2129762946391984e-01
    8.1699346405228763e-03 -7.5000000000000000e-01
    8.1699346405228763e-03 -7.5000000000000000e-01
    8.3189033080770299e-03 -7.0710678118654757e-01
    8.1924413901640521e-03 -7.4278135270820744e-01
    8.1076153885289888e-03 -7.7184498498795973e-01
    8.1275400697569944e-03 -7.6453060256180794e-01
    8.0702262783394832e-03 -7.8657805459548835e-01
    8.4382580599122944e-03 -6.7899849855427596e-01
    8.6923941864606689e-03 -6.3048832499128049e-01
    8.7340275134779218e-03 -6.2360956446232363e-01
    8.5396103540141630e-03 -6.5811930461602475e-01
    1.0158778655702295e-02 -4.7204458153496665e-01
    1.0467181047850663e-02 -4.5078659712743530e-01
    1.1377861051864059e-02 -3.9974218495549063e-01
    1.2266739017500019e-02 -3.6145990971566722e-01
    1.6234431767534977e-02 -2.5758631737822163e-01
    1.5721249524260256e-02 -2.6726124191242434e-01
    1.5721249524260256e-02 -2.6726124191242434e-01
    1.5258407291163413e-02 -2.7668578554642986e-01
    1.8186080469850874e-02 -2.2671980319080756e-01
    2.2587339046285494e-02 -1.7919288976719827e-01
    2.6603942168626202e-02 -1.5075567228888181e-01
    2.6603942168626202e-02 -1.5075567228888181e-01
    4.1780622689151031e-02 -9.4702744762075672e-02
    2.4341349664775531e-02 -1.6552117772047362e-01
    2.4341349664775531e-02 -1.6552117772047362e-01
    1.7452671444027255e-02 -2.3735633163877068e-01
    1.4838370455801012e-02 -2.8588593744843283e-01
    1.3780037813700534e-02 -3.1234752377721214e-01
    1.1536243243422589e-02 -3.9223227027636803e-01
    1.0359852259946277e-02 -4.5790546988962549e-01
    9.8872772405189987e-03 -4.9304555839388076e-01
    9.6468029508338712e-03 -5.1385303718108422e-01
    9.1822138390362153e-03 -5.6195148694901642e-01
    8.8217652351177088e-03 -6.0987803658780437e-01
    8.6521824325669419e-03 -6.3737743919909806e-01
    8.3471458913928712e-03 -7.0004730209148203e-01
    8.1483071764394243e-03 -7.5724934693043722e-01
    8.2158474000146014e-03 -7.3559220388130730e-01
    7.9186561612250520e-03 -8.7052426732400745e-01
    8.0200648533154222e-03 -8.0895720820441552e-01
    8.1275400697569944e-03 -7.6453060256180794e-01
    8.1275400697569944e-03 -7.6453060256180794e-01
    8.0360146168727154e-03 -8.0145852445610544e-01
    8.1275400697569944e-03 -7.6453060256180794e-01
    8.0048684404679018e-03 -8.1649658092772603e-01
    8.0527305616675520e-03 -7.9399923338042055e-01
    8.2654426600143605e-03 -7.2129762946391984e-01
    8.1275400697569944e-03 -7.6453060256180794e-01
    8.2654426600143605e-03 -7.2129762946391984e-01
    8.3189033080770299e-03 -7.0710678118654757e-01
    8.6521824325669419e-03 -6.3737743919909806e-01
    9.0699516486116884e-03 -5.7563959796522179e-01
    9.8039215686274508e-03 -5.0000000000000000e-01
    1.1227645556454873e-02 -4.0718927884743006e-01
    1.2067793233267914e-02 -3.6927447293799820e-01
    1.4103663157549417e-02 -3.0369887999256412e-01
    1.4838370455801012e-02 -2.8588593744843283e-01
    1.3480860250414872e-02 -3.2084447395987398e-01
    1.5721249524260256e-02 -2.6726124191242434e-01
    1.9029312918253837e-02 -2.1566554640687682e-01
    2.2587339046285494e-02 -1.7919288976719827e-01
    2.0012171101169755e-02 -2.0412414523193148e-01
    3.4190481983476254e-02 -1.1624763874381926e-01
    2.2587339046285494e-02 -1.7919288976719827e-01
    2.0012171101169755e-02 -2.0412414523193148e-01
    1.6234431767534977e-02 -2.5758631737822163e-01
    1.3780037813700534e-02 -3.1234752377721214e-01
    1.1880376633298091e-02 -3.7700395182999275e-01
    1.0467181047850663e-02 -4.5078659712743530e-01
    9.8039215686274508e-03 -5.0000000000000000e-01
    9.0167549924259679e-03 -5.8248237251071744e-01
    8.7340275134779218e-03 -6.2360956446232363e-01
    8.6923941864606689e-03 -6.3048832499128049e-01
    8.4708593071291648e-03 -6.7202150503224700e-01
    8.2654426600143605e-03 -7.2129762946391984e-01
    8.4067933893386682e-03 -6.8599434057003528e-01
    8.0527305616675520e-03 -7.9399923338042055e-01
    7.9766879655163159e-03 -8.3170266520450120e-01
    7.8432147191335785e-03 -1.0044543650303737e+00
    7.8712518790712248e-03 -9.1883746935024768e-01
    7.8469357036328388e-03 -9.6935812392210996e-01
    7.9091067874557802e-03 -8.7843812719342196e-01
    7.8712518790712248e-03 -9.1883746935024768e-01
    7.8656203932426748e-03 -9.2709445701686988e-01
    7.9288803826057658e-03 -8.6266218562750729e-01
    7.9186561612250520e-03 -8.7052426732400745e-01
    7.8656203932426748e-03 -9.2709445701686988e-01
    7.9091067874557802e-03 -8.7843812719342196e-01
    7.8844391945090530e-03 -9.0250547313146956e-01
    8.0885161502489231e-03 -7.7919372247397956e-01
    8.3471458913928712e-03 -7.0004730209148203e-01
    8.4708593071291648e-03 -6.7202150503224700e-01
    9.1822138390362153e-03 -5.6195148694901642e-01
    9.4327497145561545e-03 -5.3452248382484868e-01
    1.0467181047850663e-02 -4.5078659712743530e-01
    1.1084975903594252e-02 -4.1457809879442503e-01
    1.3203314807252406e-02 -3.2920264919415998e-01
    1.2703947435020001e-02 -3.4554737023254400e-01
    1.5258407291163413e-02 -2.7668578554642986e-01
    1.7452671444027255e-02 -2.3735633163877068e-01
    2.0012171101169755e-02 -2.0412414523193148e-01
    2.0012171101169755e-02 -2.0412414523193148e-01
    3.4190481983476254e-02 -1.1624763874381926e-01
    1.8186080469850874e-02 -2.2671980319080756e-01
    1.6807484950576306e-02 -2.4763027827182424e-01
    1.2945020273949993e-02 -3.3743352847429647e-01
    1.1536243243422589e-02 -3.9223227027636803e-01
    1.0696955403725117e-02 -4.3643578047198472e-01
    9.7238198977202123e-03 -5.0693514400114703e-01
    9.5014079173665004e-03 -5.2764485301108632e-01
    8.5396103540141630e-03 -6.5811930461602475e-01
    8.4382580599122944e-03 -6.7899849855427596e-01
    8.6133443037856288e-03 -6.4427815392316501e-01
    8.2401737453018497e-03 -7.2843135908468359e-01
    8.0200648533154222e-03 -8.0895720820441552e-01
    7.9397871293973091e-03 -8.5485041426511033e-01
    7.8525271236315752e-03 -9.5224978919238901e-01
    7.8432147191335785e-03 -1.0044543650303737e+00
    7.8450745495480066e-03 -1.0224747162910903e+00
    7.8432147191335785e-03 -1.0044543650303737e+00
    7.8606247621301282e-03 -1.0690449676496974e+00
    7.8712518790712248e-03 -1.0883317598129147e+00
    7.8525271236315735e-03 -1.0501446273336623e+00
    7.8494193041709383e-03 -9.6076892283052284e-01
    7.8562613841851835e-03 -9.4379886762011345e-01
    7.8469357036328388e-03 -9.6935812392210996e-01
    7.8775232941997089e-03 -9.1064169280948626e-01
    7.8432147191335785e-03 -1.0044543650303737e+00
    7.8562613841851835e-03 -9.4379886762011345e-01
    7.9288803826057658e-03 -8.6266218562750729e-01
    8.0527305616675520e-03 -7.9399923338042055e-01
    8.0702262783394832e-03 -7.8657805459548835e-01
    8.4708593071291648e-03 -6.7202150503224700e-01
    8.6521824325669419e-03 -6.3737743919909806e-01
    9.0699516486116884e-03 -5.7563959796522179e-01
    9.8039215686274508e-03 -5.0000000000000000e-01
    1.0820105990911162e-02 -4.2919753763947605e-01
    1.2266739017500019e-02 -3.6145990971566722e-01
    1.3780037813700534e-02 -3.1234752377721214e-01
    1.6234431767534977e-02 -2.5758631737822163e-01
    1.8186080469850874e-02 -2.2671980319080756e-01
    2.1177148267822909e-02 -1.9200614429492771e-01
    2.4341349664775531e-02 -1.6552117772047362e-01
    1.6234431767534977e-02 -2.5758631737822163e-01
    1.4838370455801012e-02 -2.8588593744843283e-01
    1.1536243243422589e-02 -3.9223227027636803e-01
    1.0158778655702295e-02 -4.7204458153496665e-01
    1.0949295975238199e-02 -4.2191287157917856e-01
    8.8679807228754012e-03 -6.0302268915552726e-01
    8.3764328951166454e-03 -6.9301021485598380e-01
    8.3471458913928712e-03 -7.0004730209148203e-01
    8.3764328951166454e-03 -6.9301021485598380e-01
    8.1924413901640521e-03 -7.4278135270820744e-01
    7.9002251375037275e-03 -8.8640526042791823e-01
    7.8469357036328388e-03 -9.6935812392210996e-01
    7.8494193041709383e-03 -1.0408329997330663e+00
    7.8469357036328406e-03 -1.0316104805042641e+00
    7.8432147191335785e-03 -1.0044543650303737e+00
    7.8606247621301282e-03 -1.0690449676496974e+00
    7.8450745495480066e-03 -1.0224747162910903e+00
    7.9002251375037292e-03 -1.1281521496355327e+00
    7.9002251375037292e-03 -1.1281521496355327e+00
    7.9002251375037292e-03 -1.1281521496355327e+00
    7.8712518790712248e-03 -1.0883317598129147e+00
    7.9288803826057640e-03 -1.1592023119369625e+00
    7.9002251375037292e-03 -1.1281521496355327e+00
    7.9002251375037292e-03 -1.1281521496355327e+00
    7.8469357036328388e-03 -9.6935812392210996e-01
    7.8562613841851835e-03 -9.4379886762011345e-01
    7.8844391945090530e-03 -9.0250547313146956e-01
    8.0885161502489231e-03 -7.7919372247397956e-01
    8.0360146168727154e-03 -8.0145852445610544e-01
    8.0200648533154222e-03 -8.0895720820441552e-01
    8.1275400697569944e-03 -7.6453060256180794e-01
    8.4382580599122944e-03 -6.7899849855427596e-01
    8.7771332314144357e-03 -6.1673989506072102e-01
    9.9740700927210078e-03 -4.8606968251860377e-01
    1.0696955403725117e-02 -4.3643578047198472e-01
    1.2703947435020001e-02 -3.4554737023254400e-01
    1.4103663157549417e-02 -3.0369887999256412e-01
    1.5721249524260256e-02 -2.6726124191242434e-01
    1.8186080469850874e-02 -2.2671980319080756e-01
    1.8186080469850874e-02 -2.2671980319080756e-01
    1.4838370455801012e-02 -2.8588593744843283e-01
    1.3480860250414872e-02 -3.2084447395987398e-01
    1.1703487700234360e-02 -3.8465462908103598e-01
    1.0696955403725117e-02 -4.3643578047198472e-01
    1.0158778655702295e-02 -4.7204458153496665e-01
    8.7340275134779218e-03 -6.2360956446232363e-01
    8.2401737453018497e-03 -7.2843135908468359e-01
    8.0527305616675520e-03 -7.9399923338042055e-01
    8.0527305616675520e-03 -7.9399923338042055e-01
    7.9397871293973091e-03 -8.5485041426511033e-01
    7.8450745495480066e-03 -9.7801929384365149e-01
    7.8438345156274254e-03 -9.8675438206593014e-01
    7.8494193041709383e-03 -1.0408329997330663e+00
    7.8432147191335802e-03 -9.9556538834868913e-01
    7.8525271236315735e-03 -1.0501446273336623e+00
    7.9397871293973108e-03 -1.1697953037312039e+00
    7.9636817804982704e-03 -1.1913667943625412e+00
    7.9288803826057640e-03 -1.1592023119369625e+00
    7.9288803826057640e-03 -1.1592023119369625e+00
    7.8562613841851835e-03 -1.0595477853471085e+00
    8.0048684404679018e-03 -1.2247448713915889e+00
    8.0885161502489231e-03 -1.2833778958394957e+00
    7.9397871293973108e-03 -1.1697953037312039e+00
    7.8525271236315735e-03 -1.0501446273336623e+00
    7.9397871293973108e-03 -1.1697953037312039e+00
    7.8562613841851835e-03 -1.0595477853471085e+00
    7.8712518790712248e-03 -9.1883746935024768e-01
    7.8920046264698458e-03 -8.9442719099991586e-01
    7.9091067874557802e-03 -8.7843812719342196e-01
    7.9766879655163159e-03 -8.3170266520450120e-01
    7.9513846498472755e-03 -8.4708751136372973e-01
    7.9636817804982704e-03 -8.3937205966451778e-01
    8.2654426600143605e-03 -7.2129762946391984e-01
    8.8679807228754012e-03 -6.0302268915552726e-01
    9.8872772405189987e-03 -4.9304555839388076e-01
    1.0820105990911162e-02 -4.2919753763947605e-01
    1.2478354962115544e-02 -3.5355339059327373e-01
    1.4455093740676191e-02 -2.9488391230979427e-01
    1.6807484950576306e-02 -2.4763027827182424e-01
    1.9029312918253837e-02 -2.1566554640687682e-01
    1.4103663157549417e-02 -3.0369887999256412e-01
    1.2478354962115544e-02 -3.5355339059327373e-01
    1.1084975903594252e-02 -4.1457809879442503e-01
    9.5727140427076373e-03 -5.2075564392329543e-01
    8.4708593071291648e-03 -6.7202150503224700e-01
    8.3764328951166454e-03 -6.9301021485598380e-01
    8.0360146168727154e-03 -8.0145852445610544e-01
    7.8920046264698458e-03 -8.9442719099991586e-01
    7.8656203932426748e-03 -9.2709445701686988e-01
    7.8432147191335802e-03 -9.9556538834868913e-01
    7.8438345156274254e-03 -9.8675438206593014e-01
    7.8432147191335802e-03 -9.9556538834868913e-01
    7.8494193041709383e-03 -1.0408329997330663e+00
    7.8606247621301282e-03 -1.0690449676496974e+00
    8.0527305616675537e-03 -1.2594470598448055e+00
    8.0360146168727154e-03 -1.2477252028464370e+00
    7.9288803826057640e-03 -1.1592023119369625e+00
    7.8562613841851835e-03 -1.0595477853471085e+00
    7.9288803826057640e-03 -1.1592023119369625e+00
    7.9904132775862648e-03 -1.2134774297561008e+00
    8.1483071764394226e-03 -1.3205689830616156e+00
    8.3471458913928712e-03 -1.4284749002137000e+00
    8.0885161502489231e-03 -1.2833778958394957e+00
    8.0527305616675537e-03 -1.2594470598448055e+00
    8.0702262783394832e-03 -1.2713296463810799e+00
    7.8712518790712248e-03 -1.0883317598129147e+00
    7.9186561612250520e-03 -1.1487330537883809e+00
    7.8562613841851835e-03 -1.0595477853471085e+00
    7.8432147191335802e-03 -9.9556538834868913e-01
    7.8494193041709383e-03 -9.6076892283052284e-01
    7.8775232941997089e-03 -9.1064169280948626e-01
    7.9636817804982704e-03 -8.3937205966451778e-01
    8.0048684404679018e-03 -8.1649658092772603e-01
    8.2158474000146014e-03 -7.3559220388130730e-01
    8.9654089701209222e-03 -5.8932621630261528e-01
    1.0064498688664042e-02 -4.7907013758040845e-01
    1.1536243243422589e-02 -3.9223227027636803e-01
    1.3780037813700534e-02 -3.1234752377721214e-01
    1.5258407291163413e-02 -2.7668578554642986e-01
    1.7452671444027255e-02 -2.3735633163877068e-01
    1.3480860250414872e-02 -3.2084447395987398e-01
    1.1377861051864059e-02 -3.9974218495549063e-01
    9.7238198977202123e-03 -5.0693514400114703e-01
    8.4382580599122944e-03 -6.7899849855427596e-01
    8.2654426600143605e-03 -7.2129762946391984e-01
    8.2654426600143605e-03 -7.2129762946391984e-01
    8.0527305616675520e-03 -7.9399923338042055e-01
    7.9288803826057658e-03 -8.6266218562750729e-01
    7.8469357036328406e-03 -1.0316104805042641e+00
    7.9513846498472755e-03 -1.1805155743473255e+00
    7.8844391945090530e-03 -1.1080265214683389e+00
    7.8844391945090530e-03 -1.1080265214683389e+00
    7.9397871293973108e-03 -1.1697953037312039e+00
    7.9904132775862648e-03 -1.2134774297561008e+00
    8.2401737453018497e-03 -1.3728129459672882e+00
    8.2401737453018497e-03 -1.3728129459672882e+00
    8.0200648533154222e-03 -1.2361593293910169e+00
    7.9513846498472755e-03 -1.1805155743473255e+00
    8.1275400697569944e-03 -1.3079921152262257e+00
    8.1275400697569944e-03 -1.3079921152262257e+00
    8.1275400697569944e-03 -1.3079921152262257e+00
    8.5396103540141648e-03 -1.5194813356575871e+00
    8.2158474000146031e-03 -1.3594488831224163e+00
    8.1076153885289905e-03 -1.2955969390869329e+00
    8.0702262783394832e-03 -1.2713296463810799e+00
    8.1483071764394226e-03 -1.3205689830616156e+00
    8.3189033080770299e-03 -1.4142135623730951e+00
    8.0048684404679018e-03 -1.2247448713915889e+00
    8.0527305616675537e-03 -1.2594470598448055e+00
    7.8920046264698458e-03 -1.1180339887498947e+00
    7.8432147191335785e-03 -1.0044543650303737e+00
    7.8469357036328388e-03 -9.6935812392210996e-01
    7.9288803826057658e-03 -8.6266218562750729e-01
    7.9397871293973091e-03 -8.5485041426511033e-01
    8.2916775995322978e-03 -7.1418983057304863e-01
    9.3666140485070895e-03 -5.4139029200370969e-01
    1.0949295975238199e-02 -4.2191287157917856e-01
    1.2266739017500019e-02 -3.6145990971566722e-01
    1.4455093740676191e-02 -2.9488391230979427e-01
    1.9029312918253837e-02 -2.1566554640687682e-01
    1.2945020273949993e-02 -3.3743352847429647e-01
    1.0820105990911162e-02 -4.2919753763947605e-01
    8.6521824325669419e-03 -6.3737743919909806e-01
    8.1699346405228763e-03 -7.5000000000000000e-01
    8.2158474000146014e-03 -7.3559220388130730e-01
    8.1076153885289888e-03 -7.7184498498795973e-01
    7.9186561612250520e-03 -8.7052426732400745e-01
    7.8562613841851835e-03 -9.4379886762011345e-01
    7.8712518790712248e-03 -1.0883317598129147e+00
    7.9397871293973108e-03 -1.1697953037312039e+00
    7.9002251375037292e-03 -1.1281521496355327e+00
    7.8712518790712248e-03 -1.0883317598129147e+00
    7.9091067874557802e-03 -1.1383841036078020e+00
    8.0702262783394832e-03 -1.2713296463810799e+00
    8.3764328951166471e-03 -1.4429801733987613e+00
    8.3471458913928712e-03 -1.4284749002137000e+00
    8.1076153885289905e-03 -1.2955969390869329e+00
    8.1699346405228763e-03 -1.3333333333333333e+00
    8.1699346405228763e-03 -1.3333333333333333e+00
    8.1076153885289905e-03 -1.2955969390869329e+00
    8.1483071764394226e-03 -1.3205689830616156e+00
    8.1483071764394226e-03 -1.3205689830616156e+00
    8.2158474000146031e-03 -1.3594488831224163e+00
    8.0527305616675537e-03 -1.2594470598448055e+00
    8.0702262783394832e-03 -1.2713296463810799e+00
    8.3471458913928712e-03 -1.4284749002137000e+00
    8.5758345318847195e-03 -1.5356461035094904e+00
    8.5758345318847195e-03 -1.5356461035094904e+00
    8.3764328951166471e-03 -1.4429801733987613e+00
    8.0885161502489231e-03 -1.2833778958394957e+00
    7.9002251375037292e-03 -1.1281521496355327e+00
    7.8712518790712248e-03 -1.0883317598129147e+00
    7.8438345156274254e-03 -1.0134234194190632e+00
    7.8525271236315752e-03 -9.5224978919238901e-01
    7.9397871293973091e-03 -8.5485041426511033e-01
    8.8217652351177088e-03 -6.0987803658780437e-01
    9.9740700927210078e-03 -4.8606968251860377e-01
    1.2703947435020001e-02 -3.4554737023254400e-01
    1.4838370455801012e-02 -2.8588593744843283e-01
    1.8186080469850874e-02 -2.2671980319080756e-01
    1.2945020273949993e-02 -3.3743352847429647e-01
    1.0359852259946277e-02 -4.5790546988962549e-01
    8.7771332314144357e-03 -6.1673989506072102e-01
    8.0702262783394832e-03 -7.8657805459548835e-01
    7.8920046264698458e-03 -8.9442719099991586e-01
    7.8494193041709383e-03 -9.6076892283052284e-01
    7.8525271236315752e-03 -9.5224978919238901e-01
    7.8525271236315735e-03 -1.0501446273336623e+00
    7.8920046264698458e-03 -1.1180339887498947e+00
    7.8844391945090530e-03 -1.1080265214683389e+00
    7.9636817804982704e-03 -1.1913667943625412e+00
    7.9636817804982704e-03 -1.1913667943625412e+00
    8.0885161502489231e-03 -1.2833778958394957e+00
    8.4067933893386699e-03 -1.4577379737113254e+00
    8.5046313524447109e-03 -1.5036188231122249e+00
    8.3471458913928712e-03 -1.4284749002137000e+00
    8.2916775995322978e-03 -1.4001879573076874e+00
    8.3764328951166471e-03 -1.4429801733987613e+00
    8.2916775995322978e-03 -1.4001879573076874e+00
    8.1076153885289905e-03 -1.2955969390869329e+00
    8.1275400697569944e-03 -1.3079921152262257e+00
    8.0360146168727154e-03 -1.2477252028464370e+00
    8.3764328951166471e-03 -1.4429801733987613e+00
    8.1924413901640538e-03 -1.3462912017836262e+00
    8.4067933893386699e-03 -1.4577379737113254e+00
    8.7771332314144340e-03 -1.6214290789499597e+00
    8.8217652351177105e-03 -1.6396720983672119e+00
    8.6923941864606689e-03 -1.5860721925561900e+00
    8.1076153885289905e-03 -1.2955969390869329e+00
    8.0885161502489231e-03 -1.2833778958394957e+00
    7.9766879655163159e-03 -1.2023527660021593e+00
    7.9288803826057640e-03 -1.1592023119369625e+00
    7.9002251375037292e-03 -1.1281521496355327e+00
    7.8562613841851835e-03 -1.0595477853471085e+00
    7.9002251375037275e-03 -8.8640526042791823e-01
    8.1275400697569944e-03 -7.6453060256180794e-01
    9.4327497145561545e-03 -5.3452248382484868e-01
    1.2478354962115544e-02 -3.5355339059327373e-01
    1.5258407291163413e-02 -2.7668578554642986e-01
    1.6807484950576306e-02 -2.4763027827182424e-01
    1.1377861051864059e-02 -3.9974218495549063e-01
    9.1250768822650451e-03 -5.6879645899452114e-01
    8.4382580599122944e-03 -6.7899849855427596e-01
    7.9397871293973091e-03 -8.5485041426511033e-01
    7.8450745495480066e-03 -9.7801929384365149e-01
    7.8469357036328406e-03 -1.0316104805042641e+00
    7.8656203932426748e-03 -1.0786387432600120e+00
    7.9397871293973108e-03 -1.1697953037312039e+00
    7.9513846498472755e-03 -1.1805155743473255e+00
    8.0048684404679018e-03 -1.2247448713915889e+00
    7.9766879655163159e-03 -1.2023527660021593e+00
    8.1275400697569944e-03 -1.3079921152262257e+00
    8.3189033080770299e-03 -1.4142135623730951e+00
    8.3189033080770299e-03 -1.4142135623730951e+00
    8.3189033080770299e-03 -1.4142135623730951e+00
    8.2916775995322978e-03 -1.4001879573076874e+00
    8.2158474000146031e-03 -1.3594488831224163e+00
    8.5046313524447109e-03 -1.5036188231122249e+00
    8.4382580599122944e-03 -1.4727573067233590e+00
    8.3189033080770299e-03 -1.4142135623730951e+00
    8.1699346405228763e-03 -1.3333333333333333e+00
    8.2158474000146031e-03 -1.3594488831224163e+00
    8.5758345318847195e-03 -1.5356461035094904e+00
    8.5046313524447109e-03 -1.5036188231122249e+00
    8.9158404440207138e-03 -1.6773667822017635e+00
    9.1822138390362171e-03 -1.7795130420052190e+00
    8.7340275134779218e-03 -1.6035674514745464e+00
    8.7771332314144340e-03 -1.6214290789499597e+00
    8.2916775995322978e-03 -1.4001879573076874e+00
    8.1275400697569944e-03 -1.3079921152262257e+00
    8.0885161502489231e-03 -1.2833778958394957e+00
    7.9002251375037292e-03 -1.1281521496355327e+00
    7.8450745495480066e-03 -1.0224747162910903e+00
    7.8469357036328406e-03 -1.0316104805042641e+00
    7.8562613841851835e-03 -9.4379886762011345e-01
    8.2401737453018497e-03 -7.2843135908468359e-01
    9.0699516486116884e-03 -5.7563959796522179e-01
    9.6468029508338712e-03 -5.1385303718108422e-01
    1.3480860250414872e-02 -3.2084447395987398e-01
    1.2945020273949993e-02 -3.3743352847429647e-01
    1.0064498688664042e-02 -4.7907013758040845e-01
    9.0699516486116884e-03 -5.7563959796522179e-01
    8.2158474000146014e-03 -7.3559220388130730e-01
    7.8562613841851835e-03 -9.4379886762011345e-01
    7.8469357036328388e-03 -9.6935812392210996e-01
    7.8775232941997089e-03 -1.0981267472114395e+00
    7.9513846498472755e-03 -1.1805155743473255e+00
    7.9904132775862648e-03 -1.2134774297561008e+00
    8.0200648533154222e-03 -1.2361593293910169e+00
    8.1275400697569944e-03 -1.3079921152262257e+00
    8.0885161502489231e-03 -1.2833778958394957e+00
    8.5396103540141648e-03 -1.5194813356575871e+00
    8.6133443037856288e-03 -1.5521246435421703e+00
    8.5046313524447109e-03 -1.5036188231122249e+00
    8.1924413901640538e-03 -1.3462912017836262e+00
    8.2654426600143587e-03 -1.3863902488397417e+00
    8.2401737453018497e-03 -1.3728129459672882e+00
    8.3471458913928712e-03 -1.4284749002137000e+00
    8.2916775995322978e-03 -1.4001879573076874e+00
    8.1275400697569944e-03 -1.3079921152262257e+00
    8.1483071764394226e-03 -1.3205689830616156e+00
    8.2401737453018497e-03 -1.3728129459672882e+00
    8.4067933893386699e-03 -1.4577379737113254e+00
    8.3764328951166471e-03 -1.4429801733987613e+00
    8.9158404440207138e-03 -1.6773667822017635e+00
    8.7771332314144340e-03 -1.6214290789499597e+00
    8.6133443037856288e-03 -1.5521246435421703e+00
    8.7340275134779218e-03 -1.6035674514745464e+00
    8.5758345318847195e-03 -1.5356461035094904e+00
    8.4708593071291631e-03 -1.4880476182856897e+00
    8.3189033080770299e-03 -1.4142135623730951e+00
    8.0527305616675537e-03 -1.2594470598448055e+00
    7.8562613841851835e-03 -1.0595477853471085e+00
    7.8450745495480066e-03 -9.7801929384365149e-01
    7.8432147191335785e-03 -1.0044543650303737e+00
    7.9636817804982704e-03 -8.3937205966451778e-01
    8.5758345318847195e-03 -6.5119170212111310e-01
    9.3028841849026045e-03 -5.4824997463026015e-01
    1.1703487700234360e-02 -3.8465462908103598e-01
    1.3480860250414872e-02 -3.2084447395987398e-01
    1.0158778655702295e-02 -4.7204458153496665e-01
    8.4708593071291648e-03 -6.7202150503224700e-01
    8.1076153885289888e-03 -7.7184498498795973e-01
    7.8469357036328406e-03 -1.0316104805042641e+00
    7.8450745495480066e-03 -1.0224747162910903e+00
    7.9091067874557802e-03 -1.1383841036078020e+00
    8.0702262783394832e-03 -1.2713296463810799e+00
    8.1483071764394226e-03 -1.3205689830616156e+00
    8.0527305616675537e-03 -1.2594470598448055e+00
    8.1699346405228763e-03 -1.3333333333333333e+00
    8.1483071764394226e-03 -1.3205689830616156e+00
    8.2401737453018497e-03 -1.3728129459672882e+00
    8.3764328951166471e-03 -1.4429801733987613e+00
    8.4067933893386699e-03 -1.4577379737113254e+00
    8.3471458913928712e-03 -1.4284749002137000e+00
    8.2401737453018497e-03 -1.3728129459672882e+00
    8.1275400697569944e-03 -1.3079921152262257e+00
    8.4067933893386699e-03 -1.4577379737113254e+00
    8.4067933893386699e-03 -1.4577379737113254e+00
    8.1275400697569944e-03 -1.3079921152262257e+00
    8.2401737453018497e-03 -1.3728129459672882e+00
    8.3189033080770299e-03 -1.4142135623730951e+00
    8.3189033080770299e-03 -1.4142135623730951e+00
    8.5396103540141648e-03 -1.5194813356575871e+00
    8.6923941864606689e-03 -1.5860721925561900e+00
    8.9158404440207138e-03 -1.6773667822017635e+00
    8.9158404440207138e-03 -1.6773667822017635e+00
    8.4067933893386699e-03 -1.4577379737113254e+00
    8.7340275134779218e-03 -1.6035674514745464e+00
    8.6133443037856288e-03 -1.5521246435421703e+00
    8.3764328951166471e-03 -1.4429801733987613e+00
    8.1483071764394226e-03 -1.3205689830616156e+00
    7.9904132775862648e-03 -1.2134774297561008e+00
    7.8844391945090530e-03 -1.1080265214683389e+00
    7.8494193041709383e-03 -1.0408329997330663e+00
    7.8656203932426748e-03 -9.2709445701686988e-01
    8.1076153885289888e-03 -7.7184498498795973e-01
    9.1250768822650451e-03 -5.6879645899452114e-01
    1.0696955403725117e-02 -4.3643578047198472e-01
    1.3780037813700534e-02 -3.1234752377721214e-01
    9.5727140427076373e-03 -5.2075564392329543e-01
    8.4708593071291648e-03 -6.7202150503224700e-01
    7.9766879655163159e-03 -8.3170266520450120e-01
    7.8432147191335785e-03 -1.0044543650303737e+00
    7.8562613841851835e-03 -1.0595477853471085e+00
    7.9091067874557802e-03 -1.1383841036078020e+00
    8.2158474000146031e-03 -1.3594488831224163e+00
    8.3189033080770299e-03 -1.4142135623730951e+00
    8.3189033080770299e-03 -1.4142135623730951e+00
    8.5758345318847195e-03 -1.5356461035094904e+00
    8.4067933893386699e-03 -1.4577379737113254e+00
    8.3471458913928712e-03 -1.4284749002137000e+00
    8.5046313524447109e-03 -1.5036188231122249e+00
    8.2654426600143587e-03 -1.3863902488397417e+00
    8.1699346405228763e-03 -1.3333333333333333e+00
    8.1699346405228763e-03 -1.3333333333333333e+00
    8.0527305616675537e-03 -1.2594470598448055e+00
    8.2401737453018497e-03 -1.3728129459672882e+00
    8.1924413901640538e-03 -1.3462912017836262e+00
    8.1699346405228763e-03 -1.3333333333333333e+00
    8.3471458913928712e-03 -1.4284749002137000e+00
    8.2916775995322978e-03 -1.4001879573076874e+00
    8.4382580599122944e-03 -1.4727573067233590e+00
    8.4382580599122944e-03 -1.4727573067233590e+00
    8.5046313524447109e-03 -1.5036188231122249e+00
    8.6133443037856288e-03 -1.5521246435421703e+00
    8.9654089701209239e-03 -1.6968530710782204e+00
    9.1250768822650416e-03 -1.7580981459830647e+00
    8.9654089701209239e-03 -1.6968530710782204e+00
    8.6521824325669437e-03 -1.5689290811054726e+00
    8.3764328951166471e-03 -1.4429801733987613e+00
    8.3189033080770299e-03 -1.4142135623730951e+00
    8.0702262783394832e-03 -1.2713296463810799e+00
    7.9397871293973108e-03 -1.1697953037312039e+00
    7.8775232941997089e-03 -1.0981267472114395e+00
    7.8450745495480066e-03 -1.0224747162910903e+00
    8.0885161502489231e-03 -7.7919372247397956e-01
    8.9654089701209222e-03 -5.8932621630261528e-01
    1.0064498688664042e-02 -4.7907013758040845e-01
    1.2703947435020001e-02 -3.4554737023254400e-01
    9.4327497145561545e-03 -5.3452248382484868e-01
    8.3764328951166454e-03 -6.9301021485598380e-01
    7.9091067874557802e-03 -8.7843812719342196e-01
    7.8606247621301282e-03 -1.0690449676496974e+00
    7.8844391945090530e-03 -1.1080265214683389e+00
    7.9186561612250520e-03 -1.1487330537883809e+00
    8.0885161502489231e-03 -1.2833778958394957e+00
    8.2401737453018497e-03 -1.3728129459672882e+00
    8.4067933893386699e-03 -1.4577379737113254e+00
    8.8679807228754012e-03 -1.6583123951777001e+00
    9.0699516486116884e-03 -1.7371980724307587e+00
    8.6521824325669437e-03 -1.5689290811054726e+00
    8.5396103540141648e-03 -1.5194813356575871e+00
    8.6133443037856288e-03 -1.5521246435421703e+00
    8.3471458913928712e-03 -1.4284749002137000e+00
    8.2158474000146031e-03 -1.3594488831224163e+00
    8.1275400697569944e-03 -1.3079921152262257e+00
    8.1924413901640538e-03 -1.3462912017836262e+00
    8.2158474000146031e-03 -1.3594488831224163e+00
    8.2401737453018497e-03 -1.3728129459672882e+00
    8.2401737453018497e-03 -1.3728129459672882e+00
    8.2654426600143587e-03 -1.3863902488397417e+00
    8.4708593071291631e-03 -1.4880476182856897e+00
    8.5046313524447109e-03 -1.5036188231122249e+00
    8.5046313524447109e-03 -1.5036188231122249e+00
    8.5046313524447109e-03 -1.5036188231122249e+00
    8.7340275134779218e-03 -1.6035674514745464e+00
    9.1250768822650416e-03 -1.7580981459830647e+00
    8.7771332314144340e-03 -1.6214290789499597e+00
    9.1250768822650416e-03 -1.7580981459830647e+00
    8.9654089701209239e-03 -1.6968530710782204e+00
    8.6923941864606689e-03 -1.5860721925561900e+00
    8.3764328951166471e-03 -1.4429801733987613e+00
    8.2158474000146031e-03 -1.3594488831224163e+00
    7.9513846498472755e-03 -1.1805155743473255e+00
    7.8775232941997089e-03 -1.0981267472114395e+00
    7.9766879655163159e-03 -8.3170266520450120e-01
    8.8679807228754012e-03 -6.0302268915552726e-01
    9.7238198977202123e-03 -5.0693514400114703e-01
    1.2945020273949993e-02 -3.3743352847429647e-01
    9.8872772405189987e-03 -4.9304555839388076e-01
    8.4382580599122944e-03 -6.7899849855427596e-01
    8.0360146168727154e-03 -8.0145852445610544e-01
    7.8525271236315752e-03 -9.5224978919238901e-01
    7.8844391945090530e-03 -1.1080265214683389e+00
    7.9766879655163159e-03 -1.2023527660021593e+00
    7.9636817804982704e-03 -1.1913667943625412e+00
    8.2401737453018497e-03 -1.3728129459672882e+00
    8.2654426600143587e-03 -1.3863902488397417e+00
    8.6133443037856288e-03 -1.5521246435421703e+00
    9.1822138390362171e-03 -1.7795130420052190e+00
    8.7340275134779218e-03 -1.6035674514745464e+00
    8.7340275134779218e-03 -1.6035674514745464e+00
    8.6923941864606689e-03 -1.5860721925561900e+00
    8.2916775995322978e-03 -1.4001879573076874e+00
    8.4708593071291631e-03 -1.4880476182856897e+00
    8.4067933893386699e-03 -1.4577379737113254e+00
    8.2158474000146031e-03 -1.3594488831224163e+00
    8.1483071764394226e-03 -1.3205689830616156e+00
    8.2654426600143587e-03 -1.3863902488397417e+00
    8.2654426600143587e-03 -1.3863902488397417e+00
    8.3189033080770299e-03 -1.4142135623730951e+00
    8.4067933893386699e-03 -1.4577379737113254e+00
    8.4708593071291631e-03 -1.4880476182856897e+00
    8.2401737453018497e-03 -1.3728129459672882e+00
    8.3471458913928712e-03 -1.4284749002137000e+00
    8.4382580599122944e-03 -1.4727573067233590e+00
    8.5396103540141648e-03 -1.5194813356575871e+00
    8.5758345318847195e-03 -1.5356461035094904e+00
    8.7771332314144340e-03 -1.6214290789499597e+00
    8.5046313524447109e-03 -1.5036188231122249e+00
    8.6133443037856288e-03 -1.5521246435421703e+00
    8.4382580599122944e-03 -1.4727573067233590e+00
    8.2158474000146031e-03 -1.3594488831224163e+00
    8.0200648533154222e-03 -1.2361593293910169e+00
    7.8775232941997089e-03 -1.0981267472114395e+00
    7.9288803826057658e-03 -8.6266218562750729e-01
    8.8679807228754012e-03 -6.0302268915552726e-01
    9.3666140485070895e-03 -5.4139029200370969e-01
    1.3203314807252406e-02 -3.2920264919415998e-01
    9.8872772405189987e-03 -4.9304555839388076e-01
    8.5046313524447092e-03 -6.6506217176117632e-01
    7.9636817804982704e-03 -8.3937205966451778e-01
    7.8469357036328388e-03 -9.6935812392210996e-01
    7.8775232941997089e-03 -1.0981267472114395e+00
    7.9636817804982704e-03 -1.1913667943625412e+00
    8.1076153885289905e-03 -1.2955969390869329e+00
    8.1483071764394226e-03 -1.3205689830616156e+00
    8.2654426600143587e-03 -1.3863902488397417e+00
    8.7340275134779218e-03 -1.6035674514745464e+00
    8.9654089701209239e-03 -1.6968530710782204e+00
    9.0699516486116884e-03 -1.7371980724307587e+00
    8.6923941864606689e-03 -1.5860721925561900e+00
    8.7771332314144340e-03 -1.6214290789499597e+00
    8.6521824325669437e-03 -1.5689290811054726e+00
    8.4382580599122944e-03 -1.4727573067233590e+00
    8.3189033080770299e-03 -1.4142135623730951e+00
    8.6133443037856288e-03 -1.5521246435421703e+00
    8.5758345318847195e-03 -1.5356461035094904e+00
    8.3764328951166471e-03 -1.4429801733987613e+00
    8.2916775995322978e-03 -1.4001879573076874e+00
    8.2654426600143587e-03 -1.3863902488397417e+00
    8.4067933893386699e-03 -1.4577379737113254e+00
    8.3471458913928712e-03 -1.4284749002137000e+00
    8.1924413901640538e-03 -1.3462912017836262e+00
    8.5046313524447109e-03 -1.5036188231122249e+00
    8.5046313524447109e-03 -1.5036188231122249e+00
    8.5046313524447109e-03 -1.5036188231122249e+00
    8.7340275134779218e-03 -1.6035674514745464e+00
    8.6521824325669437e-03 -1.5689290811054726e+00
    8.4708593071291631e-03 -1.4880476182856897e+00
    8.4067933893386699e-03 -1.4577379737113254e+00
    8.1275400697569944e-03 -1.3079921152262257e+00
    7.9904132775862648e-03 -1.2134774297561008e+00
    8.0527305616675537e-03 -1.2594470598448055e+00
    7.8712518790712248e-03 -1.0883317598129147e+00
    7.9513846498472755e-03 -8.4708751136372973e-01
    8.9158404440207138e-03 -5.9617253102351830e-01
    9.8039215686274508e-03 -5.0000000000000000e-01
    1.2703947435020001e-02 -3.4554737023254400e-01
    9.4327497145561545e-03 -5.3452248382484868e-01
    8.3764328951166454e-03 -6.9301021485598380e-01
    7.8920046264698458e-03 -8.9442719099991586e-01
    7.8494193041709383e-03 -9.6076892283052284e-01
    7.8525271236315735e-03 -1.0501446273336623e+00
    7.9091067874557802e-03 -1.1383841036078020e+00
    8.0200648533154222e-03 -1.2361593293910169e+00
    8.2654426600143587e-03 -1.3863902488397417e+00
    8.1699346405228763e-03 -1.3333333333333333e+00
    8.7771332314144340e-03 -1.6214290789499597e+00
    8.9654089701209239e-03 -1.6968530710782204e+00
    8.6133443037856288e-03 -1.5521246435421703e+00
    8.6133443037856288e-03 -1.5521246435421703e+00
    8.7771332314144340e-03 -1.6214290789499597e+00
    8.5046313524447109e-03 -1.5036188231122249e+00
    8.5758345318847195e-03 -1.5356461035094904e+00
    8.5046313524447109e-03 -1.5036188231122249e+00
    8.4708593071291631e-03 -1.4880476182856897e+00
    8.8679807228754012e-03 -1.6583123951777001e+00
    8.8217652351177105e-03 -1.6396720983672119e+00
    8.2916775995322978e-03 -1.4001879573076874e+00
    8.1924413901640538e-03 -1.3462912017836262e+00
    8.5046313524447109e-03 -1.5036188231122249e+00
    8.4382580599122944e-03 -1.4727573067233590e+00
    8.6133443037856288e-03 -1.5521246435421703e+00
    8.5758345318847195e-03 -1.5356461035094904e+00
    8.7771332314144340e-03 -1.6214290789499597e+00
    8.6133443037856288e-03 -1.5521246435421703e+00
    8.5758345318847195e-03 -1.5356461035094904e+00
    8.6521824325669437e-03 -1.5689290811054726e+00
    8.3471458913928712e-03 -1.4284749002137000e+00
    8.2654426600143587e-03 -1.3863902488397417e+00
    8.2158474000146031e-03 -1.3594488831224163e+00
    8.0360146168727154e-03 -1.2477252028464370e+00
    7.9397871293973108e-03 -1.1697953037312039e+00
    7.8920046264698458e-03 -1.1180339887498947e+00
    7.9091067874557802e-03 -8.7843812719342196e-01
    8.9158404440207138e-03 -5.9617253102351830e-01
    9.8039215686274508e-03 -5.0000000000000000e-01
    1.2067793233267914e-02 -3.6927447293799820e-01
    9.5727140427076373e-03 -5.2075564392329543e-01
    8.2916775995322978e-03 -7.1418983057304863e-01
    8.0048684404679018e-03 -8.1649658092772603e-01
    7.8494193041709383e-03 -9.6076892283052284e-01
    7.9002251375037292e-03 -1.1281521496355327e+00
    7.9186561612250520e-03 -1.1487330537883809e+00
    7.9513846498472755e-03 -1.1805155743473255e+00
    8.0527305616675537e-03 -1.2594470598448055e+00
    8.3189033080770299e-03 -1.4142135623730951e+00
    8.3764328951166471e-03 -1.4429801733987613e+00
    8.3764328951166471e-03 -1.4429801733987613e+00
    8.5758345318847195e-03 -1.5356461035094904e+00
    8.8217652351177105e-03 -1.6396720983672119e+00
    8.8217652351177105e-03 -1.6396720983672119e+00
    8.4067933893386699e-03 -1.4577379737113254e+00
    8.3471458913928712e-03 -1.4284749002137000e+00
    8.3764328951166471e-03 -1.4429801733987613e+00
    8.4382580599122944e-03 -1.4727573067233590e+00
    8.4708593071291631e-03 -1.4880476182856897e+00
    8.7771332314144340e-03 -1.6214290789499597e+00
    8.5758345318847195e-03 -1.5356461035094904e+00
    8.1699346405228763e-03 -1.3333333333333333e+00
    8.3471458913928712e-03 -1.4284749002137000e+00
    8.2654426600143587e-03 -1.3863902488397417e+00
    8.3764328951166471e-03 -1.4429801733987613e+00
    8.3471458913928712e-03 -1.4284749002137000e+00
    8.4067933893386699e-03 -1.4577379737113254e+00
    8.4382580599122944e-03 -1.4727573067233590e+00
    8.2158474000146031e-03 -1.3594488831224163e+00
    8.2654426600143587e-03 -1.3863902488397417e+00
    8.1924413901640538e-03 -1.3462912017836262e+00
    8.0527305616675537e-03 -1.2594470598448055e+00
    7.9766879655163159e-03 -1.2023527660021593e+00
    7.8656203932426748e-03 -1.0786387432600120e+00
    7.8656203932426748e-03 -1.0786387432600120e+00
    7.8438345156274254e-03 -1.0134234194190632e+00
    8.0048684404679018e-03 -8.1649658092772603e-01
    8.5046313524447092e-03 -6.6506217176117632e-01
    9.8039215686274508e-03 -5.0000000000000000e-01
    1.2478354962115544e-02 -3.5355339059327373e-01
    9.6468029508338712e-03 -5.1385303718108422e-01
    8.4382580599122944e-03 -6.7899849855427596e-01
    8.0048684404679018e-03 -8.1649658092772603e-01
    7.8712518790712248e-03 -9.1883746935024768e-01
    7.8469357036328406e-03 -1.0316104805042641e+00
    7.8920046264698458e-03 -1.1180339887498947e+00
    7.9513846498472755e-03 -1.1805155743473255e+00
    8.0702262783394832e-03 -1.2713296463810799e+00
    8.1699346405228763e-03 -1.3333333333333333e+00
    8.2654426600143587e-03 -1.3863902488397417e+00
    8.3471458913928712e-03 -1.4284749002137000e+00
    8.6923941864606689e-03 -1.5860721925561900e+00
    8.2916775995322978e-03 -1.4001879573076874e+00
    8.8217652351177105e-03 -1.6396720983672119e+00
    8.4382580599122944e-03 -1.4727573067233590e+00
    8.4382580599122944e-03 -1.4727573067233590e+00
    8.3471458913928712e-03 -1.4284749002137000e+00
    8.3471458913928712e-03 -1.4284749002137000e+00
    8.3764328951166471e-03 -1.4429801733987613e+00
    8.3189033080770299e-03 -1.4142135623730951e+00
    8.2916775995322978e-03 -1.4001879573076874e+00
    8.3764328951166471e-03 -1.4429801733987613e+00
    8.3471458913928712e-03 -1.4284749002137000e+00
    8.2654426600143587e-03 -1.3863902488397417e+00
    8.3764328951166471e-03 -1.4429801733987613e+00
    8.5046313524447109e-03 -1.5036188231122249e+00
    8.2158474000146031e-03 -1.3594488831224163e+00
    8.4708593071291631e-03 -1.4880476182856897e+00
    8.1924413901640538e-03 -1.3462912017836262e+00
    7.9904132775862648e-03 -1.2134774297561008e+00
    8.0200648533154222e-03 -1.2361593293910169e+00
    8.0048684404679018e-03 -1.2247448713915889e+00
    7.9766879655163159e-03 -1.2023527660021593e+00
    7.8712518790712248e-03 -1.0883317598129147e+00
    7.8606247621301282e-03 -1.0690449676496974e+00
    7.8432147191335785e-03 -1.0044543650303737e+00
    7.9397871293973091e-03 -8.5485041426511033e-01
    8.4067933893386682e-03 -6.8599434057003528e-01
    9.5014079173665004e-03 -5.2764485301108632e-01
    1.4455093740676191e-02 -2.9488391230979427e-01
    1.0257144595042877e-02 -4.6499055497527714e-01
    8.7771332314144357e-03 -6.1673989506072102e-01
    8.0200648533154222e-03 -8.0895720820441552e-01
    7.9186561612250520e-03 -8.7052426732400745e-01
    7.8432147191335785e-03 -1.0044543650303737e+00
    7.8450745495480066e-03 -1.0224747162910903e+00
    7.9397871293973108e-03 -1.1697953037312039e+00
    8.1076153885289905e-03 -1.2955969390869329e+00
    8.2401737453018497e-03 -1.3728129459672882e+00
    8.0885161502489231e-03 -1.2833778958394957e+00
    8.2158474000146031e-03 -1.3594488831224163e+00
    8.3764328951166471e-03 -1.4429801733987613e+00
    8.4708593071291631e-03 -1.4880476182856897e+00
    8.3764328951166471e-03 -1.4429801733987613e+00
    8.5046313524447109e-03 -1.5036188231122249e+00
    8.3764328951166471e-03 -1.4429801733987613e+00
    8.4067933893386699e-03 -1.4577379737113254e+00
    8.5046313524447109e-03 -1.5036188231122249e+00
    8.4067933893386699e-03 -1.4577379737113254e+00
    8.5396103540141648e-03 -1.5194813356575871e+00
    8.3764328951166471e-03 -1.4429801733987613e+00
    8.2916775995322978e-03 -1.4001879573076874e+00
    8.4067933893386699e-03 -1.4577379737113254e+00
    8.3764328951166471e-03 -1.4429801733987613e+00
    8.2916775995322978e-03 -1.4001879573076874e+00
    8.4708593071291631e-03 -1.4880476182856897e+00
    8.3764328951166471e-03 -1.4429801733987613e+00
    8.2916775995322978e-03 -1.4001879573076874e+00
    8.2654426600143587e-03 -1.3863902488397417e+00
    8.2158474000146031e-03 -1.3594488831224163e+00
    7.9766879655163159e-03 -1.2023527660021593e+00
    7.9904132775862648e-03 -1.2134774297561008e+00
    7.9636817804982704e-03 -1.1913667943625412e+00
    7.8712518790712248e-03 -1.0883317598129147e+00
    7.8432147191335802e-03 -9.9556538834868913e-01
    7.8494193041709383e-03 -9.6076892283052284e-01
    8.0200648533154222e-03 -8.0895720820441552e-01
    8.5758345318847195e-03 -6.5119170212111310e-01
    1.0064498688664042e-02 -4.7907013758040845e-01
    1.6234431767534977e-02 -2.5758631737822163e-01
    1.0064498688664042e-02 -4.7907013758040845e-01
    8.7340275134779218e-03 -6.2360956446232363e-01
    8.3471458913928712e-03 -7.0004730209148203e-01
    7.9904132775862648e-03 -8.2407795602839684e-01
    7.8469357036328388e-03 -9.6935812392210996e-01
    7.8712518790712248e-03 -1.0883317598129147e+00
    7.9766879655163159e-03 -1.2023527660021593e+00
    7.9513846498472755e-03 -1.1805155743473255e+00
    8.1275400697569944e-03 -1.3079921152262257e+00
    8.0527305616675537e-03 -1.2594470598448055e+00
    8.1924413901640538e-03 -1.3462912017836262e+00
    8.3471458913928712e-03 -1.4284749002137000e+00
    8.5046313524447109e-03 -1.5036188231122249e+00
    8.6923941864606689e-03 -1.5860721925561900e+00
    8.9654089701209239e-03 -1.6968530710782204e+00
    8.5758345318847195e-03 -1.5356461035094904e+00
    8.6923941864606689e-03 -1.5860721925561900e+00
    8.5396103540141648e-03 -1.5194813356575871e+00
    8.4382580599122944e-03 -1.4727573067233590e+00
    8.5758345318847195e-03 -1.5356461035094904e+00
    8.4382580599122944e-03 -1.4727573067233590e+00
    8.5396103540141648e-03 -1.5194813356575871e+00
    8.3189033080770299e-03 -1.4142135623730951e+00
    8.2158474000146031e-03 -1.3594488831224163e+00
    8.1275400697569944e-03 -1.3079921152262257e+00
    8.5396103540141648e-03 -1.5194813356575871e+00
    8.5758345318847195e-03 -1.5356461035094904e+00
    8.1275400697569944e-03 -1.3079921152262257e+00
    8.1275400697569944e-03 -1.3079921152262257e+00
    8.0048684404679018e-03 -1.2247448713915889e+00
    7.9513846498472755e-03 -1.1805155743473255e+00
    7.9904132775862648e-03 -1.2134774297561008e+00
    7.9513846498472755e-03 -1.1805155743473255e+00
    7.8562613841851835e-03 -1.0595477853471085e+00
    7.8775232941997089e-03 -1.0981267472114395e+00
    7.8494193041709383e-03 -9.6076892283052284e-01
    7.9513846498472755e-03 -8.4708751136372973e-01
    8.5396103540141630e-03 -6.5811930461602475e-01
    1.0064498688664042e-02 -4.7907013758040845e-01
    1.5721249524260256e-02 -2.6726124191242434e-01
    1.1536243243422589e-02 -3.9223227027636803e-01
    9.1822138390362153e-03 -5.6195148694901642e-01
    8.6133443037856288e-03 -6.4427815392316501e-01
    8.1076153885289888e-03 -7.7184498498795973e-01
    7.9513846498472755e-03 -8.4708751136372973e-01
    7.8656203932426748e-03 -1.0786387432600120e+00
    7.9513846498472755e-03 -1.1805155743473255e+00
    8.0885161502489231e-03 -1.2833778958394957e+00
    8.0200648533154222e-03 -1.2361593293910169e+00
    8.3189033080770299e-03 -1.4142135623730951e+00
    8.5046313524447109e-03 -1.5036188231122249e+00
    8.6923941864606689e-03 -1.5860721925561900e+00
    8.6521824325669437e-03 -1.5689290811054726e+00
    8.5758345318847195e-03 -1.5356461035094904e+00
    8.6521824325669437e-03 -1.5689290811054726e+00
    8.7771332314144340e-03 -1.6214290789499597e+00
    8.6923941864606689e-03 -1.5860721925561900e+00
    8.7771332314144340e-03 -1.6214290789499597e+00
    8.5396103540141648e-03 -1.5194813356575871e+00
    8.3189033080770299e-03 -1.4142135623730951e+00
    8.2401737453018497e-03 -1.3728129459672882e+00
    8.4067933893386699e-03 -1.4577379737113254e+00
    8.1483071764394226e-03 -1.3205689830616156e+00
    8.1699346405228763e-03 -1.3333333333333333e+00
    8.2401737453018497e-03 -1.3728129459672882e+00
    8.1483071764394226e-03 -1.3205689830616156e+00
    8.1483071764394226e-03 -1.3205689830616156e+00
    8.1275400697569944e-03 -1.3079921152262257e+00
    8.1924413901640538e-03 -1.3462912017836262e+00
    8.0200648533154222e-03 -1.2361593293910169e+00
    7.9766879655163159e-03 -1.2023527660021593e+00
    8.0048684404679018e-03 -1.2247448713915889e+00
    7.9636817804982704e-03 -1.1913667943625412e+00
    7.9186561612250520e-03 -1.1487330537883809e+00
    7.8438345156274254e-03 -1.0134234194190632e+00
    7.8775232941997089e-03 -9.1064169280948626e-01
    7.9766879655163159e-03 -8.3170266520450120e-01
    8.8217652351177088e-03 -6.0987803658780437e-01
    9.9740700927210078e-03 -4.8606968251860377e-01
    1.7452671444027255e-02 -2.3735633163877068e-01
    1.2067793233267914e-02 -3.6927447293799820e-01
    9.5727140427076373e-03 -5.2075564392329543e-01
    8.4708593071291648e-03 -6.7202150503224700e-01
    8.0360146168727154e-03 -8.0145852445610544e-01
    7.9186561612250520e-03 -8.7052426732400745e-01
    7.8656203932426748e-03 -9.2709445701686988e-01
    7.8844391945090530e-03 -1.1080265214683389e+00
    7.9397871293973108e-03 -1.1697953037312039e+00
    8.0527305616675537e-03 -1.2594470598448055e+00
    8.1275400697569944e-03 -1.3079921152262257e+00
    8.2158474000146031e-03 -1.3594488831224163e+00
    8.4382580599122944e-03 -1.4727573067233590e+00
    8.3189033080770299e-03 -1.4142135623730951e+00
    8.7771332314144340e-03 -1.6214290789499597e+00
    8.7771332314144340e-03 -1.6214290789499597e+00
    8.2654426600143587e-03 -1.3863902488397417e+00
    8.5396103540141648e-03 -1.5194813356575871e+00
    8.5396103540141648e-03 -1.5194813356575871e+00
    8.6521824325669437e-03 -1.5689290811054726e+00
    8.5758345318847195e-03 -1.5356461035094904e+00
    8.4708593071291631e-03 -1.4880476182856897e+00
    8.3189033080770299e-03 -1.4142135623730951e+00
    8.2916775995322978e-03 -1.4001879573076874e+00
    8.2158474000146031e-03 -1.3594488831224163e+00
    8.1924413901640538e-03 -1.3462912017836262e+00
    8.1275400697569944e-03 -1.3079921152262257e+00
    8.2916775995322978e-03 -1.4001879573076874e+00
    8.2916775995322978e-03 -1.4001879573076874e+00
    8.1924413901640538e-03 -1.3462912017836262e+00
    8.1076153885289905e-03 -1.2955969390869329e+00
    8.1483071764394226e-03 -1.3205689830616156e+00
    7.9513846498472755e-03 -1.1805155743473255e+00
    7.8562613841851835e-03 -1.0595477853471085e+00
    7.8656203932426748e-03 -1.0786387432600120e+00
    7.8525271236315752e-03 -9.5224978919238901e-01
    7.9002251375037275e-03 -8.8640526042791823e-01
    8.2654426600143605e-03 -7.2129762946391984e-01
    8.9654089701209222e-03 -5.8932621630261528e-01
    1.0359852259946277e-02 -4.5790546988962549e-01
    1.4838370455801012e-02 -2.8588593744843283e-01
    1.2478354962115544e-02 -3.5355339059327373e-01
    9.8872772405189987e-03 -4.9304555839388076e-01
    9.0699516486116884e-03 -5.7563959796522179e-01
    8.1699346405228763e-03 -7.5000000000000000e-01
    8.0527305616675520e-03 -7.9399923338042055e-01
    7.9002251375037275e-03 -8.8640526042791823e-01
    7.8450745495480066e-03 -9.7801929384365149e-01
    7.8920046264698458e-03 -1.1180339887498947e+00
    7.9513846498472755e-03 -1.1805155743473255e+00
    8.0885161502489231e-03 -1.2833778958394957e+00
    8.0048684404679018e-03 -1.2247448713915889e+00
    8.0360146168727154e-03 -1.2477252028464370e+00
    8.1076153885289905e-03 -1.2955969390869329e+00
    8.3471458913928712e-03 -1.4284749002137000e+00
    8.2401737453018497e-03 -1.3728129459672882e+00
    8.2401737453018497e-03 -1.3728129459672882e+00
    8.2916775995322978e-03 -1.4001879573076874e+00
    8.4067933893386699e-03 -1.4577379737113254e+00
    8.1924413901640538e-03 -1.3462912017836262e+00
    8.2916775995322978e-03 -1.4001879573076874e+00
    8.2654426600143587e-03 -1.3863902488397417e+00
    8.2654426600143587e-03 -1.3863902488397417e+00
    8.2654426600143587e-03 -1.3863902488397417e+00
    8.2916775995322978e-03 -1.4001879573076874e+00
    8.2158474000146031e-03 -1.3594488831224163e+00
    8.3189033080770299e-03 -1.4142135623730951e+00
    8.1483071764394226e-03 -1.3205689830616156e+00
    8.0048684404679018e-03 -1.2247448713915889e+00
    8.1275400697569944e-03 -1.3079921152262257e+00
    8.1076153885289905e-03 -1.2955969390869329e+00
    8.0527305616675537e-03 -1.2594470598448055e+00
    7.9513846498472755e-03 -1.1805155743473255e+00
    7.8606247621301282e-03 -1.0690449676496974e+00
    7.8438345156274254e-03 -9.8675438206593014e-01
    7.8920046264698458e-03 -8.9442719099991586e-01
    8.0360146168727154e-03 -8.0145852445610544e-01
    8.6521824325669419e-03 -6.3737743919909806e-01
    9.3666140485070895e-03 -5.4139029200370969e-01
    1.2703947435020001e-02 -3.4554737023254400e-01
    1.3780037813700534e-02 -3.1234752377721214e-01
    1.2703947435020001e-02 -3.4554737023254400e-01
    1.0064498688664042e-02 -4.7907013758040845e-01
    9.3666140485070895e-03 -5.4139029200370969e-01
    8.5758345318847195e-03 -6.5119170212111310e-01
    8.1483071764394243e-03 -7.5724934693043722e-01
    7.9288803826057658e-03 -8.6266218562750729e-01
    7.8562613841851835e-03 -9.4379886762011345e-01
    7.8525271236315735e-03 -1.0501446273336623e+00
    7.8844391945090530e-03 -1.1080265214683389e+00
    7.9002251375037292e-03 -1.1281521496355327e+00
    8.0048684404679018e-03 -1.2247448713915889e+00
    8.2401737453018497e-03 -1.3728129459672882e+00
    8.3189033080770299e-03 -1.4142135623730951e+00
    8.3471458913928712e-03 -1.4284749002137000e+00
    8.4382580599122944e-03 -1.4727573067233590e+00
    8.2916775995322978e-03 -1.4001879573076874e+00
    8.2401737453018497e-03 -1.3728129459672882e+00
    8.2654426600143587e-03 -1.3863902488397417e+00
    8.1924413901640538e-03 -1.3462912017836262e+00
    8.1924413901640538e-03 -1.3462912017836262e+00
    8.0885161502489231e-03 -1.2833778958394957e+00
    8.2916775995322978e-03 -1.4001879573076874e+00
    8.2401737453018497e-03 -1.3728129459672882e+00
    8.4708593071291631e-03 -1.4880476182856897e+00
    8.3764328951166471e-03 -1.4429801733987613e+00
    8.1275400697569944e-03 -1.3079921152262257e+00
    8.1699346405228763e-03 -1.3333333333333333e+00
    8.1076153885289905e-03 -1.2955969390869329e+00
    8.0200648533154222e-03 -1.2361593293910169e+00
    8.0885161502489231e-03 -1.2833778958394957e+00
    8.0200648533154222e-03 -1.2361593293910169e+00
    7.8844391945090530e-03 -1.1080265214683389e+00
    7.8562613841851835e-03 -1.0595477853471085e+00
    7.8656203932426748e-03 -9.2709445701686988e-01
    8.0360146168727154e-03 -8.0145852445610544e-01
    8.3189033080770299e-03 -7.0710678118654757e-01
    8.6133443037856288e-03 -6.4427815392316501e-01
    9.3028841849026045e-03 -5.4824997463026015e-01
    1.2945020273949993e-02 -3.3743352847429647e-01
    1.9029312918253837e-02 -2.1566554640687682e-01
    1.3480860250414872e-02 -3.2084447395987398e-01
    1.0467181047850663e-02 -4.5078659712743530e-01
    9.3666140485070895e-03 -5.4139029200370969e-01
    8.9654089701209222e-03 -5.8932621630261528e-01
    8.2916775995322978e-03 -7.1418983057304863e-01
    7.9186561612250520e-03 -8.7052426732400745e-01
    7.8606247621301282e-03 -9.3541434669348522e-01
    7.8438345156274254e-03 -9.8675438206593014e-01
    7.8450745495480066e-03 -1.0224747162910903e+00
    7.9766879655163159e-03 -1.2023527660021593e+00
    7.9636817804982704e-03 -1.1913667943625412e+00
    8.0527305616675537e-03 -1.2594470598448055e+00
    8.3764328951166471e-03 -1.4429801733987613e+00
    8.1275400697569944e-03 -1.3079921152262257e+00
    8.2916775995322978e-03 -1.4001879573076874e+00
    8.2916775995322978e-03 -1.4001879573076874e+00
    8.1483071764394226e-03 -1.3205689830616156e+00
    8.0885161502489231e-03 -1.2833778958394957e+00
    8.1275400697569944e-03 -1.3079921152262257e+00
    7.9904132775862648e-03 -1.2134774297561008e+00
    8.1924413901640538e-03 -1.3462912017836262e+00
    8.1275400697569944e-03 -1.3079921152262257e+00
    8.1924413901640538e-03 -1.3462912017836262e+00
    8.1699346405228763e-03 -1.3333333333333333e+00
    8.1924413901640538e-03 -1.3462912017836262e+00
    8.1275400697569944e-03 -1.3079921152262257e+00
    8.0885161502489231e-03 -1.2833778958394957e+00
    8.0360146168727154e-03 -1.2477252028464370e+00
    7.9766879655163159e-03 -1.2023527660021593e+00
    7.9636817804982704e-03 -1.1913667943625412e+00
    7.8606247621301282e-03 -1.0690449676496974e+00
    7.8525271236315735e-03 -1.0501446273336623e+00
    7.8606247621301282e-03 -9.3541434669348522e-01
    7.9904132775862648e-03 -8.2407795602839684e-01
    8.1275400697569944e-03 -7.6453060256180794e-01
    8.5046313524447092e-03 -6.6506217176117632e-01
    8.6521824325669419e-03 -6.3737743919909806e-01
    1.0158778655702295e-02 -4.7204458153496665e-01
    1.2478354962115544e-02 -3.5355339059327373e-01
    1.6234431767534977e-02 -2.5758631737822163e-01
    1.3203314807252406e-02 -3.2920264919415998e-01
    1.1703487700234360e-02 -3.8465462908103598e-01
    9.8039215686274508e-03 -5.0000000000000000e-01
    9.0167549924259679e-03 -5.8248237251071744e-01
    8.4708593071291648e-03 -6.7202150503224700e-01
    8.2654426600143605e-03 -7.2129762946391984e-01
    7.9904132775862648e-03 -8.2407795602839684e-01
    7.9766879655163159e-03 -8.3170266520450120e-01
    7.8438345156274254e-03 -1.0134234194190632e+00
    7.8562613841851835e-03 -1.0595477853471085e+00
    7.8438345156274254e-03 -9.8675438206593014e-01
    7.8656203932426748e-03 -1.0786387432600120e+00
    7.9904132775862648e-03 -1.2134774297561008e+00
    8.2916775995322978e-03 -1.4001879573076874e+00
    8.2916775995322978e-03 -1.4001879573076874e+00
    8.2654426600143587e-03 -1.3863902488397417e+00
    8.2654426600143587e-03 -1.3863902488397417e+00
    8.0527305616675537e-03 -1.2594470598448055e+00
    7.9904132775862648e-03 -1.2134774297561008e+00
    8.0200648533154222e-03 -1.2361593293910169e+00
    8.1924413901640538e-03 -1.3462912017836262e+00
    8.0360146168727154e-03 -1.2477252028464370e+00
    7.9766879655163159e-03 -1.2023527660021593e+00
    7.9397871293973108e-03 -1.1697953037312039e+00
    8.0702262783394832e-03 -1.2713296463810799e+00
    8.0527305616675537e-03 -1.2594470598448055e+00
    7.8775232941997089e-03 -1.0981267472114395e+00
    7.9766879655163159e-03 -1.2023527660021593e+00
    7.9091067874557802e-03 -1.1383841036078020e+00
    8.1076153885289905e-03 -1.2955969390869329e+00
    7.8656203932426748e-03 -1.0786387432600120e+00
    7.8438345156274254e-03 -1.0134234194190632e+00
    7.8606247621301282e-03 -9.3541434669348522e-01
    8.0702262783394832e-03 -7.8657805459548835e-01
    8.3764328951166454e-03 -6.9301021485598380e-01
    8.6521824325669419e-03 -6.3737743919909806e-01
    9.1822138390362153e-03 -5.6195148694901642e-01
    1.1227645556454873e-02 -4.0718927884743006e-01
    1.4103663157549417e-02 -3.0369887999256412e-01
    1.9029312918253837e-02 -2.1566554640687682e-01
    1.3780037813700534e-02 -3.1234752377721214e-01
    1.2478354962115544e-02 -3.5355339059327373e-01
    1.0467181047850663e-02 -4.5078659712743530e-01
    9.2414513039362038e-03 -5.5510317498976802e-01
    9.0167549924259679e-03 -5.8248237251071744e-01
    8.6923941864606689e-03 -6.3048832499128049e-01
    8.4382580599122944e-03 -6.7899849855427596e-01
    8.0527305616675520e-03 -7.9399923338042055e-01
    7.9288803826057658e-03 -8.6266218562750729e-01
    7.9288803826057658e-03 -8.6266218562750729e-01
    7.9397871293973091e-03 -8.5485041426511033e-01
    7.8450745495480066e-03 -1.0224747162910903e+00
    7.8450745495480066e-03 -1.0224747162910903e+00
    7.9288803826057640e-03 -1.1592023119369625e+00
    8.1699346405228763e-03 -1.3333333333333333e+00
    8.1699346405228763e-03 -1.3333333333333333e+00
    8.2401737453018497e-03 -1.3728129459672882e+00
    8.0360146168727154e-03 -1.2477252028464370e+00
    8.0885161502489231e-03 -1.2833778958394957e+00
    8.0360146168727154e-03 -1.2477252028464370e+00
    8.1076153885289905e-03 -1.2955969390869329e+00
    8.1699346405228763e-03 -1.3333333333333333e+00
    7.9766879655163159e-03 -1.2023527660021593e+00
    7.9002251375037292e-03 -1.1281521496355327e+00
    7.9904132775862648e-03 -1.2134774297561008e+00
    7.9091067874557802e-03 -1.1383841036078020e+00
    7.9397871293973108e-03 -1.1697953037312039e+00
    7.9288803826057640e-03 -1.1592023119369625e+00
    7.9397871293973108e-03 -1.1697953037312039e+00
    7.8844391945090530e-03 -1.1080265214683389e+00
    7.8438345156274254e-03 -1.0134234194190632e+00
    7.8469357036328388e-03 -9.6935812392210996e-01
    7.9766879655163159e-03 -8.3170266520450120e-01
    8.1076153885289888e-03 -7.7184498498795973e-01
    8.6133443037856288e-03 -6.4427815392316501e-01
    9.5014079173665004e-03 -5.2764485301108632e-01
    9.9740700927210078e-03 -4.8606968251860377e-01
    1.2945020273949993e-02 -3.3743352847429647e-01
    1.4455093740676191e-02 -2.9488391230979427e-01
    2.0012171101169755e-02 -2.0412414523193148e-01
    1.5258407291163413e-02 -2.7668578554642986e-01
    1.2478354962115544e-02 -3.5355339059327373e-01
    9.9740700927210078e-03 -4.8606968251860377e-01
    9.6468029508338712e-03 -5.1385303718108422e-01
    9.3666140485070895e-03 -5.4139029200370969e-01
    8.8217652351177088e-03 -6.0987803658780437e-01
    8.8679807228754012e-03 -6.0302268915552726e-01
    8.2654426600143605e-03 -7.2129762946391984e-01
    8.0885161502489231e-03 -7.7919372247397956e-01
    8.1076153885289888e-03 -7.7184498498795973e-01
    7.9766879655163159e-03 -8.3170266520450120e-01
    7.9091067874557802e-03 -8.7843812719342196e-01
    7.8438345156274254e-03 -9.8675438206593014e-01
    7.8525271236315735e-03 -1.0501446273336623e+00
    7.8712518790712248e-03 -1.0883317598129147e+00
    7.8844391945090530e-03 -1.1080265214683389e+00
    7.8562613841851835e-03 -1.0595477853471085e+00
    7.8775232941997089e-03 -1.0981267472114395e+00
    7.9766879655163159e-03 -1.2023527660021593e+00
    8.0200648533154222e-03 -1.2361593293910169e+00
    8.0360146168727154e-03 -1.2477252028464370e+00
    8.0360146168727154e-03 -1.2477252028464370e+00
    8.0048684404679018e-03 -1.2247448713915889e+00
    7.9002251375037292e-03 -1.1281521496355327e+00
    7.8469357036328406e-03 -1.0316104805042641e+00
    7.8450745495480066e-03 -9.7801929384365149e-01
    7.8844391945090530e-03 -1.1080265214683389e+00
    7.8450745495480066e-03 -1.0224747162910903e+00
    7.8469357036328406e-03 -1.0316104805042641e+00
    7.8469357036328388e-03 -9.6935812392210996e-01
    7.9002251375037275e-03 -8.8640526042791823e-01
    8.1275400697569944e-03 -7.6453060256180794e-01
    8.1699346405228763e-03 -7.5000000000000000e-01
    8.4708593071291648e-03 -6.7202150503224700e-01
    9.1822138390362153e-03 -5.6195148694901642e-01
    9.4327497145561545e-03 -5.3452248382484868e-01
    1.1227645556454873e-02 -4.0718927884743006e-01
    1.3480860250414872e-02 -3.2084447395987398e-01
    1.5721249524260256e-02 -2.6726124191242434e-01
    2.0012171101169755e-02 -2.0412414523193148e-01
    1.8186080469850874e-02 -2.2671980319080756e-01
    1.2266739017500019e-02 -3.6145990971566722e-01
    1.0467181047850663e-02 -4.5078659712743530e-01
    9.8872772405189987e-03 -4.9304555839388076e-01
    9.8872772405189987e-03 -4.9304555839388076e-01
    9.3666140485070895e-03 -5.4139029200370969e-01
    9.1822138390362153e-03 -5.6195148694901642e-01
    8.6521824325669419e-03 -6.3737743919909806e-01
    8.5396103540141630e-03 -6.5811930461602475e-01
    8.2916775995322978e-03 -7.1418983057304863e-01
    8.1483071764394243e-03 -7.5724934693043722e-01
    7.9513846498472755e-03 -8.4708751136372973e-01
    7.8656203932426748e-03 -9.2709445701686988e-01
    7.9091067874557802e-03 -8.7843812719342196e-01
    7.9288803826057658e-03 -8.6266218562750729e-01
    7.8469357036328406e-03 -1.0316104805042641e+00
    7.8450745495480066e-03 -1.0224747162910903e+00
    7.8494193041709383e-03 -1.0408329997330663e+00
    7.8656203932426748e-03 -1.0786387432600120e+00
    7.8712518790712248e-03 -1.0883317598129147e+00
    7.9513846498472755e-03 -1.1805155743473255e+00
    7.9766879655163159e-03 -1.2023527660021593e+00
    7.8775232941997089e-03 -1.0981267472114395e+00
    7.8656203932426748e-03 -1.0786387432600120e+00
    7.8562613841851835e-03 -1.0595477853471085e+00
    7.8432147191335785e-03 -1.0044543650303737e+00
    7.8494193041709383e-03 -1.0408329997330663e+00
    7.8469357036328388e-03 -9.6935812392210996e-01
    7.9186561612250520e-03 -8.7052426732400745e-01
    8.0885161502489231e-03 -7.7919372247397956e-01
    8.2401737453018497e-03 -7.2843135908468359e-01
    8.3189033080770299e-03 -7.0710678118654757e-01
    8.5396103540141630e-03 -6.5811930461602475e-01
    8.9654089701209222e-03 -5.8932621630261528e-01
    9.5014079173665004e-03 -5.2764485301108632e-01
    9.7238198977202123e-03 -5.0693514400114703e-01
    1.1880376633298091e-02 -3.7700395182999275e-01
    1.4455093740676191e-02 -2.9488391230979427e-01
    1.5258407291163413e-02 -2.7668578554642986e-01
    2.4341349664775531e-02 -1.6552117772047362e-01
    2.0012171101169755e-02 -2.0412414523193148e-01
    1.3203314807252406e-02 -3.2920264919415998e-01
    1.1880376633298091e-02 -3.7700395182999275e-01
    1.1227645556454873e-02 -4.0718927884743006e-01
    1.0359852259946277e-02 -4.5790546988962549e-01
    1.0064498688664042e-02 -4.7907013758040845e-01
    9.7238198977202123e-03 -5.0693514400114703e-01
    9.3666140485070895e-03 -5.4139029200370969e-01
    9.3666140485070895e-03 -5.4139029200370969e-01
    9.1250768822650451e-03 -5.6879645899452114e-01
    8.3189033080770299e-03 -7.0710678118654757e-01
    8.3471458913928712e-03 -7.0004730209148203e-01
    8.2158474000146014e-03 -7.3559220388130730e-01
    8.1699346405228763e-03 -7.5000000000000000e-01
    7.9397871293973091e-03 -8.5485041426511033e-01
    7.8656203932426748e-03 -9.2709445701686988e-01
    7.8494193041709383e-03 -1.0408329997330663e+00
    7.8432147191335802e-03 -9.9556538834868913e-01
    7.8606247621301282e-03 -1.0690449676496974e+00
    7.8525271236315735e-03 -1.0501446273336623e+00
    7.8606247621301282e-03 -1.0690449676496974e+00
    7.8525271236315735e-03 -1.0501446273336623e+00
    7.8494193041709383e-03 -1.0408329997330663e+00
    7.8562613841851835e-03 -9.4379886762011345e-01
    7.8775232941997089e-03 -9.1064169280948626e-01
    7.9186561612250520e-03 -8.7052426732400745e-01
    7.9513846498472755e-03 -8.4708751136372973e-01
    7.9636817804982704e-03 -8.3937205966451778e-01
    7.9904132775862648e-03 -8.2407795602839684e-01
    8.2916775995322978e-03 -7.1418983057304863e-01
    8.3189033080770299e-03 -7.0710678118654757e-01
    8.5396103540141630e-03 -6.5811930461602475e-01
    8.8217652351177088e-03 -6.0987803658780437e-01
    9.5727140427076373e-03 -5.2075564392329543e-01
    1.0064498688664042e-02 -4.7907013758040845e-01
    1.0820105990911162e-02 -4.2919753763947605e-01
    1.4103663157549417e-02 -3.0369887999256412e-01
    1.4455093740676191e-02 -2.9488391230979427e-01
    1.6807484950576306e-02 -2.4763027827182424e-01
    2.9676740911602023e-02 -1.3453455879926249e-01
    1.6807484950576306e-02 -2.4763027827182424e-01
    1.5721249524260256e-02 -2.6726124191242434e-01
    1.4455093740676191e-02 -2.9488391230979427e-01
    1.2703947435020001e-02 -3.4554737023254400e-01
    1.1084975903594252e-02 -4.1457809879442503e-01
    1.0820105990911162e-02 -4.2919753763947605e-01
    1.1377861051864059e-02 -3.9974218495549063e-01
    1.0257144595042877e-02 -4.6499055497527714e-01
    9.8039215686274508e-03 -5.0000000000000000e-01
    1.0257144595042877e-02 -4.6499055497527714e-01
    9.3028841849026045e-03 -5.4824997463026015e-01
    8.5396103540141630e-03 -6.5811930461602475e-01
    8.4382580599122944e-03 -6.7899849855427596e-01
    8.2916775995322978e-03 -7.1418983057304863e-01
    8.0360146168727154e-03 -8.0145852445610544e-01
    8.0048684404679018e-03 -8.1649658092772603e-01
    7.9513846498472755e-03 -8.4708751136372973e-01
    7.8525271236315752e-03 -9.5224978919238901e-01
    7.8562613841851835e-03 -9.4379886762011345e-01
    7.8438345156274254e-03 -1.0134234194190632e+00
    7.8469357036328388e-03 -9.6935812392210996e-01
    7.8775232941997089e-03 -9.1064169280948626e-01
    7.8920046264698458e-03 -8.9442719099991586e-01
    7.8712518790712248e-03 -9.1883746935024768e-01
    7.9636817804982704e-03 -8.3937205966451778e-01
    7.9636817804982704e-03 -8.3937205966451778e-01
    8.2158474000146014e-03 -7.3559220388130730e-01
    8.4067933893386682e-03 -6.8599434057003528e-01
    8.4382580599122944e-03 -6.7899849855427596e-01
    8.3764328951166454e-03 -6.9301021485598380e-01
    8.9158404440207138e-03 -5.9617253102351830e-01
    9.3028841849026045e-03 -5.4824997463026015e-01
    9.8039215686274508e-03 -5.0000000000000000e-01
    1.0257144595042877e-02 -4.6499055497527714e-01
    1.0064498688664042e-02 -4.7907013758040845e-01
    1.1536243243422589e-02 -3.9223227027636803e-01
    1.2703947435020001e-02 -3.4554737023254400e-01
    1.5258407291163413e-02 -2.7668578554642986e-01
    1.7452671444027255e-02 -2.3735633163877068e-01
    3.4190481983476254e-02 -1.1624763874381926e-01
    2.6603942168626202e-02 -1.5075567228888181e-01
    2.0012171101169755e-02 -2.0412414523193148e-01
    1.6807484950576306e-02 -2.4763027827182424e-01
    1.5258407291163413e-02 -2.7668578554642986e-01
    1.3480860250414872e-02 -3.2084447395987398e-01
    1.2266739017500019e-02 -3.6145990971566722e-01
    1.2478354962115544e-02 -3.5355339059327373e-01
    1.2067793233267914e-02 -3.6927447293799820e-01
    1.0820105990911162e-02 -4.2919753763947605e-01
    1.0579436861275771e-02 -4.4363105238283063e-01
    1.1084975903594252e-02 -4.1457809879442503e-01
    1.0820105990911162e-02 -4.2919753763947605e-01
    9.4327497145561545e-03 -5.3452248382484868e-01
    8.9654089701209222e-03 -5.8932621630261528e-01
    8.4382580599122944e-03 -6.7899849855427596e-01
    8.2158474000146014e-03 -7.3559220388130730e-01
    8.1076153885289888e-03 -7.7184498498795973e-01
    8.0360146168727154e-03 -8.0145852445610544e-01
    7.9091067874557802e-03 -8.7843812719342196e-01
    7.9091067874557802e-03 -8.7843812719342196e-01
    7.8775232941997089e-03 -9.1064169280948626e-01
    7.9636817804982704e-03 -8.3937205966451778e-01
    7.8920046264698458e-03 -8.9442719099991586e-01
    8.0200648533154222e-03 -8.0895720820441552e-01
    8.0200648533154222e-03 -8.0895720820441552e-01
    8.3471458913928712e-03 -7.0004730209148203e-01
    8.5046313524447092e-03 -6.6506217176117632e-01
    8.6133443037856288e-03 -6.4427815392316501e-01
    8.6133443037856288e-03 -6.4427815392316501e-01
    9.1250768822650451e-03 -5.6879645899452114e-01
    9.3666140485070895e-03 -5.4139029200370969e-01
    1.0579436861275771e-02 -4.4363105238283063e-01
    1.0696955403725117e-02 -4.3643578047198472e-01
    1.0359852259946277e-02 -4.5790546988962549e-01
    1.0949295975238199e-02 -4.2191287157917856e-01
    1.2703947435020001e-02 -3.4554737023254400e-01
    1.3780037813700534e-02 -3.1234752377721214e-01
    1.7452671444027255e-02 -2.3735633163877068e-01
    2.6603942168626202e-02 -1.5075567228888181e-01
    3.4190481983476254e-02 -1.1624763874381926e-01
    2.9676740911602023e-02 -1.3453455879926249e-01
    2.4341349664775531e-02 -1.6552117772047362e-01
    2.0012171101169755e-02 -2.0412414523193148e-01
    1.7452671444027255e-02 -2.3735633163877068e-01
    1.6807484950576306e-02 -2.4763027827182424e-01
    1.4455093740676191e-02 -2.9488391230979427e-01
    1.3203314807252406e-02 -3.2920264919415998e-01
    1.3203314807252406e-02 -3.2920264919415998e-01
    1.3480860250414872e-02 -3.2084447395987398e-01
    1.2478354962115544e-02 -3.5355339059327373e-01
    1.2478354962115544e-02 -3.5355339059327373e-01
    1.1880376633298091e-02 -3.7700395182999275e-01
    1.1377861051864059e-02 -3.9974218495549063e-01
    1.0949295975238199e-02 -4.2191287157917856e-01
    9.4327497145561545e-03 -5.3452248382484868e-01
    8.8679807228754012e-03 -6.0302268915552726e-01
    8.2916775995322978e-03 -7.1418983057304863e-01
    8.2401737453018497e-03 -7.2843135908468359e-01
    8.0885161502489231e-03 -7.7919372247397956e-01
    8.0527305616675520e-03 -7.9399923338042055e-01
    8.0527305616675520e-03 -7.9399923338042055e-01
    8.1483071764394243e-03 -7.5724934693043722e-01
    8.2158474000146014e-03 -7.3559220388130730e-01
    8.2158474000146014e-03 -7.3559220388130730e-01
    8.3189033080770299e-03 -7.0710678118654757e-01
    8.5758345318847195e-03 -6.5119170212111310e-01
    9.1822138390362153e-03 -5.6195148694901642e-01
    9.6468029508338712e-03 -5.1385303718108422e-01
    1.0064498688664042e-02 -4.7907013758040845e-01
    9.9740700927210078e-03 -4.8606968251860377e-01
    9.9740700927210078e-03 -4.8606968251860377e-01
    1.0820105990911162e-02 -4.2919753763947605e-01
    1.1084975903594252e-02 -4.1457809879442503e-01
    1.2478354962115544e-02 -3.5355339059327373e-01
    1.4838370455801012e-02 -2.8588593744843283e-01
    1.4455093740676191e-02 -2.9488391230979427e-01
    1.5721249524260256e-02 -2.6726124191242434e-01
    2.2587339046285494e-02 -1.7919288976719827e-01
    3.4190481983476254e-02 -1.1624763874381926e-01
    5.8954685715975966e-02 -6.6815310478106099e-02
    3.4190481983476254e-02 -1.1624763874381926e-01
    2.9676740911602023e-02 -1.3453455879926249e-01
    2.4341349664775531e-02 -1.6552117772047362e-01
    2.1177148267822909e-02 -1.9200614429492771e-01
    2.1177148267822909e-02 -1.9200614429492771e-01
    1.8186080469850874e-02 -2.2671980319080756e-01
    1.6807484950576306e-02 -2.4763027827182424e-01
    1.5721249524260256e-02 -2.6726124191242434e-01
    1.6234431767534977e-02 -2.5758631737822163e-01
    1.5258407291163413e-02 -2.7668578554642986e-01
    1.4455093740676191e-02 -2.9488391230979427e-01
    1.3480860250414872e-02 -3.2084447395987398e-01
    1.2703947435020001e-02 -3.4554737023254400e-01
    1.2266739017500019e-02 -3.6145990971566722e-01
    1.0949295975238199e-02 -4.2191287157917856e-01
    9.8872772405189987e-03 -4.9304555839388076e-01
    9.0699516486116884e-03 -5.7563959796522179e-01
    8.6521824325669419e-03 -6.3737743919909806e-01
    8.9158404440207138e-03 -5.9617253102351830e-01
    8.9158404440207138e-03 -5.9617253102351830e-01
    8.5396103540141630e-03 -6.5811930461602475e-01
    9.0167549924259679e-03 -5.8248237251071744e-01
    8.4382580599122944e-03 -6.7899849855427596e-01
    9.2414513039362038e-03 -5.5510317498976802e-01
    8.9158404440207138e-03 -5.9617253102351830e-01
    9.8039215686274508e-03 -5.0000000000000000e-01
    9.9740700927210078e-03 -4.8606968251860377e-01
    1.0949295975238199e-02 -4.2191287157917856e-01
    1.1880376633298091e-02 -3.7700395182999275e-01
    1.1227645556454873e-02 -4.0718927884743006e-01
    1.1536243243422589e-02 -3.9223227027636803e-01
    1.3203314807252406e-02 -3.2920264919415998e-01
    1.6807484950576306e-02 -2.4763027827182424e-01
    1.7452671444027255e-02 -2.3735633163877068e-01
    1.8186080469850874e-02 -2.2671980319080756e-01
    2.1177148267822909e-02 -1.9200614429492771e-01
    2.0012171101169755e-02 -2.0412414523193148e-01
    2.4341349664775531e-02 -1.6552117772047362e-01
    3.4190481983476254e-02 -1.1624763874381926e-01
    5.8954685715975966e-02 -6.6815310478106099e-02
    2.9676740911602023e-02 -1.3453455879926249e-01
    2.9676740911602023e-02 -1.3453455879926249e-01
    2.9676740911602023e-02 -1.3453455879926249e-01
    2.9676740911602023e-02 -1.3453455879926249e-01
    3.4190481983476254e-02 -1.1624763874381926e-01
    2.4341349664775531e-02 -1.6552117772047362e-01
    2.1177148267822909e-02 -1.9200614429492771e-01
    1.9029312918253837e-02 -2.1566554640687682e-01
    1.8186080469850874e-02 -2.2671980319080756e-01
    1.8186080469850874e-02 -2.2671980319080756e-01
    1.6234431767534977e-02 -2.5758631737822163e-01
    1.6807484950576306e-02 -2.4763027827182424e-01
    1.8186080469850874e-02 -2.2671980319080756e-01
    1.8186080469850874e-02 -2.2671980319080756e-01
    1.4455093740676191e-02 -2.9488391230979427e-01
    1.2067793233267914e-02 -3.6927447293799820e-01
    1.0820105990911162e-02 -4.2919753763947605e-01
    1.1084975903594252e-02 -4.1457809879442503e-01
    1.0949295975238199e-02 -4.2191287157917856e-01
    9.7238198977202123e-03 -5.0693514400114703e-01
    1.0064498688664042e-02 -4.7907013758040845e-01
    1.2266739017500019e-02 -3.6145990971566722e-01
    1.1377861051864059e-02 -3.9974218495549063e-01
    1.0064498688664042e-02 -4.7907013758040845e-01
    1.0820105990911162e-02 -4.2919753763947605e-01
    1.0467181047850663e-02 -4.5078659712743530e-01
    1.0820105990911162e-02 -4.2919753763947605e-01
    1.1227645556454873e-02 -4.0718927884743006e-01
    1.2067793233267914e-02 -3.6927447293799820e-01
    1.2703947435020001e-02 -3.4554737023254400e-01
    1.5258407291163413e-02 -2.7668578554642986e-01
    2.0012171101169755e-02 -2.0412414523193148e-01
    2.0012171101169755e-02 -2.0412414523193148e-01
    2.1177148267822909e-02 -1.9200614429492771e-01
    2.2587339046285494e-02 -1.7919288976719827e-01
    2.6603942168626202e-02 -1.5075567228888181e-01
    2.9676740911602023e-02 -1.3453455879926249e-01
    2.6603942168626202e-02 -1.5075567228888181e-01
    2.9676740911602023e-02 -1.3453455879926249e-01</input_scale>
  <output_scale>
    1.0526315789473684e+00 0.</output_scale>
  <inv_output_scale>
    9.4999999999999996e-01 0.</inv_output_scale>
  <weights>
    <_>
      -1.1719048386403424e-03 -2.2903224389177911e-04
      -9.9637750405231888e-04 -5.5088375721748159e-04
      2.2039270841974236e-04 1.2144499427915077e-03
      9.9728247011042037e-04 2.0453599492093418e-04
      -7.2831549546728146e-04 -4.2920232853557353e-04
      -1.1054717958401724e-03 -1.2409612586460942e-04
      -2.1397120762249158e-05 -7.8018402384446585e-04
      6.7194088742161514e-04 -1.1208781013474275e-03
      1.1037170489498088e-03 1.0083693640301039e-03
      -2.5698247005999147e-04 -3.4383640164285737e-05
      3.0002183913935715e-04 -7.7645728251324352e-04
      -6.5397802009701264e-04 9.5527311481024093e-04
      -1.0954164450422850e-03 -3.1663012947851025e-04
      6.1523554708813478e-04 -6.3403300196013517e-04
      1.0630743572223426e-03 -2.4215284090006096e-04
      1.2150750992007805e-03 -3.7732545206526025e-04
      2.2581237915161135e-04 8.1166924113520002e-04
      1.1322676431532379e-03 5.1786688077618958e-04
      8.1904968067006900e-04 5.2277548999592920e-04
      1.2256443938238879e-03 -1.5902424652943092e-04
      -1.2479605014736188e-01 -1.5237942912090185e-02
      -1.3310506718649747e-02 -1.1124887261458147e-02
      1.1239410844643005e-02 -1.8424131209835933e-02
      8.6531838126532798e-03 1.0483141631955071e-02
      1.5790662752747046e-02 -1.8699032511906667e-02
      -1.0892369017089744e-02 -9.1746157778780941e-03
      -9.7836831868242258e-03 8.0668127393441445e-03
      1.0909104719006309e-02 -1.2012731472198101e-02
      1.5690614672800984e-02 -8.0792113397012942e-03
      1.7208492690718852e-02 -1.7653928537368163e-02
      1.0013194229265146e-02 -9.3903469303851725e-03
      -1.7846866931593743e-02 -1.1641770462463593e-02
      -1.2685302780953976e-02 1.6313765929480854e-02
      -1.5994941660430893e-02 1.5763212888737770e-02
      -1.0162184194591103e-02 -1.5187607869949897e-02
      1.3834711229150733e-02 1.5819749099342712e-02
      -1.9824984425875481e-02 -9.4499344106070172e-03
      -7.8999713660482928e-03 -1.1824244200741249e-02
      -1.1734658247156986e-02 -7.5265539911892609e-03
      1.3351388878038871e-02 1.1490317888894042e-02
      1.6976899685406329e-02 -5.6279025605117296e-03
      -6.0717532955002372e-03 1.5498617069045215e-03
      6.1749524168189050e-03 1.2536899093117818e-02
      -6.4766693519712508e-03 5.1231198053652777e-03
      -5.9453296311088831e-03 -9.8858308810485622e-03
      4.8718218555592946e-03 -6.2735767773457879e-03
      7.2355482053618790e-03 2.0313293896419677e-03
      -6.6009161925795722e-03 2.2154217098136475e-03
      -6.9688768113661302e-03 -3.6474070141166567e-03
      5.9813915586945966e-03 -9.1135458065546692e-03
      5.4716300623383791e-03 3.3614862510110118e-03
      -1.6830463877836855e-03 -5.2680270343061749e-03
      4.3348987157852317e-03 -1.2540354375332426e-03
      -6.2780066295474637e-03 5.7969719696392523e-03
      4.5409881089843226e-03 6.2589855896301866e-03
      7.1202197509096883e-03 4.4212726997582327e-03
      -8.8620409405816367e-03 -1.2499015210608031e-03
      -2.8403293404403447e-03 1.5978576758913884e-02
      -7.3126892454068995e-03 -2.2436826894560967e-03
      4.0270245972405718e-03 6.6154100575870284e-03
      2.2797874598564406e-02 3.8815712227898730e-02
      3.0632759764853666e-02 7.8830287760312031e-03
      -2.5451381005208128e-02 1.7165566912101479e-03
      -5.3631257907906064e-03 -2.3821318502318133e-02
      2.3429470422809970e-03 4.7399127832362602e-02
      5.7588192865956414e-03 2.3236074486825131e-02
      6.3576173096094356e-03 -1.5273831304793683e-02
      2.0902596236670626e-03 3.9162355627083544e-03
      2.2084029776895811e-03 2.0137664802539736e-02
      -4.7302587654908010e-02 4.5653878018735550e-02
      -2.0477761874706804e-02 -1.1526500660962674e-03
      -3.2942954629004064e-03 2.9840471830742912e-02
      4.9690990711379482e-03 1.5656670865784995e-03
      4.0701944535222440e-02 -4.3910456887988336e-02
      8.2498071720970706e-03 5.0381425753318627e-03
      -3.1643781899931445e-02 -3.8555888789137592e-02
      4.8177684735570332e-02 7.7661924674616040e-03
      1.7160235383834269e-02 1.1555428021676939e-03
      3.0792235259083697e-02 1.3865894730044820e-02
      -3.4092731593599608e-02 -2.8786973515229911e-02
      -4.4344433483470985e-01 1.3321477292139538e-02
      7.5357922762348956e-03 -9.2246216990707359e-03
      -8.4115646087745931e-03 -2.8746975190405824e-02
      1.6183369333402323e-02 -5.5261839182634666e-03
      2.5745381910601908e-02 3.6385221888755218e-02
      -1.1043777786924992e-02 4.7967662329047997e-03
      -6.3312173834114156e-03 -1.3642057137020667e-03
      1.9160877755073785e-02 -3.9765676918594811e-02
      2.5608799009096010e-02 6.0955052300152796e-03
      -3.1420231045796693e-02 4.1216840796127578e-02
      -6.5833436108616254e-03 -4.2218078525477681e-02
      -3.9511071158928997e-02 6.9774099461785977e-03
      -2.9975175357416173e-02 3.3361087833786038e-02
      2.4665005873882380e-02 -2.3137218555436295e-02
      -1.8838027989712517e-02 -2.7711804355140032e-02
      -5.0124232483810720e-03 -1.2804001720438997e-02
      3.2173463739951155e-02 -1.8335243317617669e-02
      2.4282465482161875e-03 -2.4145184495276282e-02
      6.9973258584649601e-03 8.3498760277339135e-04
      -7.3481574570061596e-03 -7.1849870698502682e-03
      -4.4301857066874323e-01 1.1950484639686480e-02
      8.3865593463893114e-03 -8.5946930452606100e-03
      -7.2674783900245777e-03 -3.0096376213198391e-02
      1.5672541269837199e-02 -5.9836944963897231e-03
      2.5898247060924164e-02 3.6599396140746747e-02
      -1.2284402117613726e-02 4.3884872490563198e-03
      -6.1373423725494414e-03 -1.7704031126032109e-03
      2.0760455026635767e-02 -3.9307378698162032e-02
      2.4909055521957223e-02 4.6979113476749218e-03
      -3.3343848560743496e-02 4.1065046707781667e-02
      -6.5737593323737260e-03 -4.0827494038329616e-02
      -3.8083499997366425e-02 7.0902541722557520e-03
      -3.1965574971250785e-02 3.2665773397884401e-02
      2.6266578403112820e-02 -2.3893607679742912e-02
      -1.8344091291847591e-02 -2.7436969441109293e-02
      -5.6594068953950876e-03 -1.2902668739054388e-02
      3.3650501112630377e-02 -1.7436222557575522e-02
      3.6379880841676065e-03 -2.4239010764210176e-02
      7.7762187916427397e-03 8.2178087476384094e-04
      -6.2925069008181803e-03 -8.6106396248341131e-03
      -6.4599233830444514e-01 -2.8553871374981277e-02
      -2.5886108801084204e-02 -3.7482359906307175e-02
      2.5091372528775913e-02 -6.2957403512817367e-02
      4.7243978261024354e-02 2.2969283563070955e-02
      5.1959879312477857e-02 -1.5274575729929732e-02
      -4.3031806981471549e-02 -2.4471142547502284e-02
      -4.2489188013512508e-02 2.3807389111320926e-02
      4.0439175180039137e-02 -5.8891740975346982e-02
      4.6863943338409444e-02 -2.2815405460851059e-02
      1.3891139663325088e-02 -1.4588571328763095e-02
      2.4449654879308728e-02 -5.7465396067078289e-02
      -4.8569252269977888e-02 -2.7028667633116857e-02
      -5.5253360830953932e-02 6.0117252545649084e-02
      -2.0346688912369331e-02 2.2598706004523090e-02
      -4.6679986150791768e-02 -5.6957212550306918e-02
      2.8993060306605509e-02 2.7944032631260791e-02
      -1.3413466093217101e-02 -4.2577014208550597e-02
      -2.0854650972118770e-02 -5.9289544112860214e-02
      -2.6906239930887903e-02 -2.1275052494690087e-02
      2.8145519663233479e-02 2.5929254199445237e-02
      -3.8144906709969506e-01 2.4964831383277392e-02
      1.5490174421218819e-02 -6.9425832030888994e-03
      -1.3774017413001690e-02 -3.3632139175732260e-02
      1.3681468613536628e-02 -1.0005192510431899e-02
      2.7439393760836643e-02 5.1480173085941799e-02
      -6.7130370767569487e-03 1.0559545938556410e-02
      -4.7658471533767836e-03 -5.3567731669619512e-04
      1.5798975955603124e-02 -2.5717441125446744e-02
      1.8656359535380758e-02 7.1179744121398023e-03
      -5.3219848459063697e-02 5.2728205867277569e-02
      -7.2238731548345233e-03 -4.2774954960955097e-02
      -1.9541027287788615e-02 1.7590524777152616e-02
      -2.1341672861264899e-02 3.9483527283089230e-02
      3.6341776594598973e-02 -3.9435805562772451e-02
      -1.3393254477417980e-02 -2.5524262221886952e-02
      -1.9917025107944679e-02 -2.8548671978271448e-02
      5.6121965683204891e-02 -1.4559811527105700e-02
      4.4061471165301727e-03 -3.4589028453855357e-02
      1.7777878261130985e-02 -1.6956439743779015e-04
      -1.9474738744622327e-02 -1.4714165982656286e-02
      1.8570755964412938e-01 4.4558635270508906e-02
      3.2859651177588316e-02 4.0287441223034813e-02
      -2.8828344238414114e-02 3.0553515803567612e-02
      -4.2779632219382135e-02 -2.5155149617430411e-02
      -2.7255246879682841e-02 7.0398252047610660e-02
      4.1395736625537798e-02 2.4872337629019213e-02
      4.7693847928355293e-02 -2.0118855831764867e-02
      -2.3363368611953751e-02 3.7924237805507896e-02
      -2.7402211780395223e-02 1.9152257867219344e-02
      -6.9804516810200765e-02 6.9224145091134490e-02
      -2.2265840436265873e-02 2.3230907653513218e-02
      4.3686145594839403e-02 3.2301039836928343e-02
      3.3618184748352348e-02 -2.7907146811727835e-02
      5.6370816618588608e-02 -5.7794108490083103e-02
      3.5504310329971825e-02 3.3521521234446454e-02
      -3.6981646328243779e-02 -4.6912321285586520e-02
      7.2029872322860164e-02 2.6237613206415322e-02
      1.7162560609810099e-02 2.3730185870329160e-02
      3.4034059083850488e-02 1.5901288981977027e-02
      -3.9650740338454400e-02 -2.9762525709012159e-02
      -3.0581975917862714e-01 4.4206156700220357e-02
      3.4656493424748525e-02 1.2747737648829055e-04
      -2.9644651634014231e-02 -2.4731241111970149e-02
      4.9679327322536574e-03 -2.6018491739345610e-02
      1.8916260560239168e-02 6.5541968793362965e-02
      -1.6005857200164452e-03 2.5334557525690332e-02
      1.1371072152768370e-03 -1.1875233334506553e-02
      1.1435289490440644e-02 -1.7941945752882667e-02
      1.3657529278634499e-02 2.1530863300272669e-02
      -7.5675473324979217e-02 7.2440175135283086e-02
      -2.1930540307287603e-02 -3.4517547431871271e-02
      -1.9380414533389390e-02 3.4437633521027959e-02
      -1.2219467340325510e-02 3.3614481835094599e-02
      5.2848602103213987e-02 -5.3294628678506616e-02
      -6.2845414206221945e-03 -1.5115371655409698e-02
      -3.7062277507003159e-02 -4.7727241798192759e-02
      7.7096590098066908e-02 -4.6160504697714041e-03
      1.6375620641237931e-02 -2.8448367134320345e-02
      3.5138903048773658e-02 1.1249049045015164e-02
      -4.0046415238275186e-02 -3.2512627410774854e-02
      1.6899963546415719e-02 -1.1511545683891818e-03
      -2.2781369861746121e-03 1.2570553398255449e-02
      4.0019405055852697e-03 -6.1525719914612604e-04
      -7.4530292016217296e-03 1.3874821569240525e-03
      -1.3634598223458596e-03 8.5312512876589870e-03
      9.1214065334419663e-03 -3.2075408146388477e-03
      1.0071150471395023e-02 -2.6397934505657052e-04
      -4.8378604047368051e-03 2.2423948074331971e-03
      -3.6229417941130559e-03 -2.7901593598610662e-03
      -1.7404522368463116e-02 1.1389682205807224e-02
      1.5537331203960324e-03 -1.5257510782839016e-03
      1.2053443103759659e-02 -1.4379033217191935e-03
      3.1016368009899589e-03 -5.8752301390387833e-04
      3.1805990286916819e-03 -2.8904321217964888e-03
      7.8403448112453339e-03 1.8885244544447476e-03
      2.6531772410460035e-03 4.3361375157911352e-04
      1.5307474802526973e-02 6.6116416941514556e-03
      -1.9413174998255866e-03 -7.3973390803055393e-03
      -1.1047754667204031e-03 2.0743578528375989e-03
      2.2209803189497945e-03 2.4344943682117889e-03
      1.6547078014221864e-01 2.7181847492196837e-02
      2.0873192068653627e-02 2.7275815370562041e-02
      -1.8347158597285224e-02 1.7150060844853002e-02
      -2.6813589869470033e-02 -1.5014906812191560e-02
      -1.6666547843800658e-02 4.0266599508113052e-02
      2.6436821975684574e-02 1.4647167532753460e-02
      3.0102792132167114e-02 -1.5783166997039293e-02
      -1.3667786298093426e-02 2.2161301889810782e-02
      -1.6960999598669122e-02 1.4320982914661841e-02
      -4.8350161316154307e-02 4.6366606917098832e-02
      -1.4095383240705079e-02 1.6561778208383390e-02
      2.5003815138411368e-02 2.1236348941017891e-02
      2.0132154009098114e-02 -1.8799346454721488e-02
      3.2810209128174637e-02 -3.3704471666935097e-02
      2.4647403349585793e-02 1.9101722139528678e-02
      -2.1130103421920437e-02 -2.7173985550497534e-02
      4.9766538996820500e-02 1.9042057435760453e-02
      1.4095115346872392e-02 1.2607427055442617e-02
      2.1066309044749060e-02 1.2509130146151593e-02
      -2.1853141961027184e-02 -1.8417675755673990e-02
      5.8343320462626629e-02 3.3905613748700853e-03
      3.4178257838777476e-03 1.8732291452532829e-02
      -2.5244584206075634e-03 4.1521842476199833e-04
      -1.4597756563681223e-02 -4.2296749968646664e-03
      6.1233888037433917e-03 1.8347397477577090e-02
      1.2707152736969386e-02 5.3110739263663590e-03
      1.4385150437193210e-02 -5.9756511800174491e-03
      4.5848919119622755e-03 9.7894541026683334e-03
      5.1240312193483219e-03 5.2142502383419964e-03
      -2.3472492509693958e-02 2.0056897634947887e-02
      -3.1364465905135953e-03 3.7096739185036739e-03
      5.9290710596258938e-03 5.7230138567058554e-03
      7.4032248186750946e-03 -1.9359024013331487e-04
      1.1787136235779648e-02 -1.1034441757655191e-02
      1.3397870192238067e-02 6.6228639939193909e-03
      -4.1953927352634274e-03 -5.9751543648047366e-03
      2.3851187986071998e-02 1.0626687554938955e-02
      4.4170774025247012e-03 2.0549599168108125e-03
      4.0406271988096057e-03 6.2303641287271378e-03
      -2.4879325699499280e-03 -5.6088694590750009e-03
      -4.2892459237992392e-01 -4.4638284812129322e-02
      -3.5263810056510053e-02 -2.8679506776780946e-02
      3.1719369331060981e-02 -5.5937827809162483e-02
      4.2566143625563518e-02 2.8284747601469977e-02
      4.7324902610843843e-02 -4.1884529386639016e-02
      -3.9738127328569170e-02 -2.7982603645215945e-02
      -4.2698347013026661e-02 1.9218779956750805e-02
      3.0716581898530774e-02 -4.5879967428363429e-02
      3.9570397512723732e-02 -2.3310258674563541e-02
      3.6037480090031181e-02 -3.8712898594428759e-02
      2.5364878769835134e-02 -5.1819141759212234e-02
      -4.8302971522223910e-02 -3.3856246768992730e-02
      -3.8065989374559968e-02 5.2551836289797392e-02
      -3.9977395353928004e-02 4.3441004318837677e-02
      -3.3692334239361792e-02 -4.3257375557357543e-02
      3.8767424992568168e-02 4.4156425699629256e-02
      -3.8743812110058298e-02 -2.7305840139017389e-02
      -2.1401229109055071e-02 -5.8338172639465356e-02
      -3.5214315702565821e-02 -1.8878854554234201e-02
      4.0666426652422968e-02 3.2899797704565192e-02
      -5.3257916572570729e-01 -3.8571757327186674e-03
      -6.5786947512458177e-03 -3.4189426837479227e-02
      5.9108390046902605e-03 -6.3665330589977226e-02
      4.9833421096431928e-02 6.1951550673189776e-03
      5.8798903132547584e-02 7.6279292411554232e-03
      -4.5428216327932078e-02 -6.2101892721002075e-03
      -4.7555125341487280e-02 1.1358619383262979e-02
      4.0711775414815236e-02 -5.9579196940290242e-02
      5.0394931163777384e-02 -5.2396352386115700e-03
      -1.4531330142468008e-02 1.2393332119430727e-02
      7.8645040920139724e-03 -6.7332418108004957e-02
      -6.1981379841404755e-02 -3.8164691289674702e-03
      -4.8857531520254488e-02 6.4851453433263886e-02
      1.3340073428503394e-03 -4.3377303576964027e-04
      -4.2513105469889796e-02 -5.1676867019655362e-02
      5.9011804485645638e-03 3.3153497367411407e-03
      1.6875445881422649e-02 -3.2934685686512283e-02
      -6.6715163811669953e-03 -6.9102603747071487e-02
      -5.3297509373408589e-03 -8.4318731328424743e-03
      4.6324256397049955e-03 4.2577487541537147e-03
      -2.5473916281900921e-01 -4.7762016288667435e-02
      -4.2860621501644679e-02 -1.8996454289411123e-02
      3.9333198817862888e-02 -2.5851254660327543e-02
      1.6902861226273623e-02 3.5159226252278263e-02
      1.8527601773180996e-02 -4.4698919133776098e-02
      -1.5937394101363737e-02 -3.6522801459931774e-02
      -1.3571378032630737e-02 2.5124356898340541e-02
      2.0642505595418862e-02 -2.6080011111500177e-02
      1.9022485585835240e-02 -3.0796060445984055e-02
      3.9860482323929504e-02 -4.2929108855035973e-02
      3.3741830170036929e-02 -1.5042094891923576e-02
      -1.6366662361823218e-02 -4.1480213949265689e-02
      -2.6109398962471438e-02 1.6913430665693788e-02
      -4.3587823908279193e-02 4.5679742971753728e-02
      -1.9631003955417305e-02 -2.6395135221061950e-02
      4.3973822409709047e-02 4.6371557207566035e-02
      -3.9726814321383121e-02 -2.4511052587869616e-02
      -2.7527686123704490e-02 -2.9964239062975691e-02
      -4.1923481948547850e-02 -2.2276276203847437e-02
      4.5057203438821268e-02 4.0417694061789147e-02
      -3.2614218541392337e-01 -2.5200501476432418e-02
      -2.1628820089704310e-02 -2.0382126376713980e-02
      2.1431216211330092e-02 -4.4327137236953647e-02
      2.6491638175076222e-02 1.7711073479344489e-02
      3.8823719773296982e-02 -2.0841719397313614e-02
      -2.5692666285310813e-02 -1.8056509038228839e-02
      -2.4031040233611425e-02 1.6797318929615911e-02
      2.9890900085198745e-02 -3.5864845614425107e-02
      3.6277205436335613e-02 -1.4560781676961945e-02
      3.0005269623104520e-02 -2.7058032541346592e-02
