<?xml version="1.0"?>
<opencv_storage>
<shapeML type_id="opencv-ml-ann-mlp">
  <layer_sizes type_id="opencv-matrix">
    <rows>1</rows>
    <cols>3</cols>
    <dt>i</dt>
    <data>
      1600 40 1</data></layer_sizes>
  <activation_function>SIGMOID_SYM</activation_function>
  <f_param1>5.9999999999999998e-01</f_param1>
  <f_param2>1.</f_param2>
  <min_val>-9.4999999999999996e-01</min_val>
  <max_val>9.4999999999999996e-01</max_val>
  <min_val1>-9.7999999999999998e-01</min_val1>
  <max_val1>9.7999999999999998e-01</max_val1>
  <training_params>
    <train_method>BACKPROP</train_method>
    <dw_scale>1.0000000000000001e-01</dw_scale>
    <moment_scale>1.0000000000000001e-01</moment_scale>
    <term_criteria><epsilon>9.9999999747524271e-07</epsilon>
      <iterations>4000</iterations></term_criteria></training_params>
  <input_scale>
    1. 0. 5.6694115194603330e-02 -6.9504804685691590e-02
    5.6694115194603330e-02 -6.9504804685691590e-02
    5.6694115194603330e-02 -6.9504804685691590e-02
    3.2891645179895380e-02 -1.2097167578182676e-01
    3.2891645179895380e-02 -1.2097167578182676e-01
    2.5602957388130124e-02 -1.5694120514358612e-01
    2.8554731125277063e-02 -1.4002800840280100e-01
    2.3429976047305220e-02 -1.7234549688642783e-01
    2.5602957388130124e-02 -1.5694120514358612e-01
    2.3429976047305220e-02 -1.7234549688642783e-01
    2.3429976047305220e-02 -1.7234549688642783e-01
    2.3429976047305220e-02 -1.7234549688642783e-01
    1.7522404386365431e-02 -2.3629973222959152e-01
    1.5651583111989602e-02 -2.6863534475866768e-01
    1.4716771567578694e-02 -2.8867513459481287e-01
    1.3611796635153705e-02 -3.1706324373711392e-01
    1.9274155639442334e-02 -2.1266436150250076e-01
    2.0392156862745096e-02 -1.9999999999999998e-01
    1.3016454478746161e-02 -3.3511112371964275e-01
    1.1321334965217689e-02 -4.0250611571050388e-01
    1.2504702743322927e-02 -3.5259654610379310e-01
    1.3947940995667455e-02 -3.0779350562554625e-01
    1.4716771567578694e-02 -2.8867513459481287e-01
    2.1745835870341842e-02 -1.8661690879115478e-01
    2.5602957388130124e-02 -1.5694120514358612e-01
    2.3429976047305220e-02 -1.7234549688642783e-01
    1.9274155639442334e-02 -2.1266436150250076e-01
    1.8331185802922138e-02 -2.2473328748774737e-01
    2.0392156862745096e-02 -1.9999999999999998e-01
    2.0392156862745096e-02 -1.9999999999999998e-01
    2.5602957388130124e-02 -1.5694120514358612e-01
    2.1745835870341842e-02 -1.8661690879115478e-01
    2.5602957388130124e-02 -1.5694120514358612e-01
    2.3429976047305220e-02 -1.7234549688642783e-01
    2.3429976047305220e-02 -1.7234549688642783e-01
    5.6694115194603330e-02 -6.9504804685691590e-02
    5.6694115194603330e-02 -6.9504804685691590e-02
    5.6694115194603330e-02 -6.9504804685691590e-02
    4.0185978403563326e-02 -9.8532927816429319e-02
    5.6694115194603330e-02 -6.9504804685691590e-02
    4.0185978403563326e-02 -9.8532927816429319e-02
    5.6694115194603330e-02 -6.9504804685691590e-02
    4.0185978403563326e-02 -9.8532927816429319e-02
    2.8554731125277063e-02 -1.4002800840280100e-01
    2.8554731125277063e-02 -1.4002800840280100e-01
    2.0392156862745096e-02 -1.9999999999999998e-01
    1.9274155639442334e-02 -2.1266436150250076e-01
    1.9274155639442334e-02 -2.1266436150250076e-01
    1.9274155639442334e-02 -2.1266436150250076e-01
    1.6200714650802268e-02 -2.5819888974716115e-01
    1.3947940995667455e-02 -3.0779350562554625e-01
    1.3302376391678038e-02 -3.2616403652672116e-01
    1.1489678757093559e-02 -3.9440531887330782e-01
    1.0733643337382897e-02 -4.3424811867344748e-01
    9.9503536849654371e-03 -4.8795003647426666e-01
    1.0148617762062296e-02 -4.7278897170376749e-01
    9.7688730383512883e-03 -5.0300303000356872e-01
    9.6022916416065012e-03 -5.1796977028281221e-01
    1.0254730168116377e-02 -4.6516047661624044e-01
    9.6022916416065012e-03 -5.1796977028281221e-01
    1.0254730168116377e-02 -4.6516047661624044e-01
    9.9503536849654371e-03 -4.8795003647426666e-01
    1.0482529198715810e-02 -4.4979121681989714e-01
    1.1668149501693845e-02 -3.8622696788058714e-01
    1.1857708957152227e-02 -3.7796447300922725e-01
    1.3611796635153705e-02 -3.1706324373711392e-01
    1.3611796635153705e-02 -3.1706324373711392e-01
    1.3611796635153705e-02 -3.1706324373711392e-01
    1.4314692072252238e-02 -2.9833745256352617e-01
    1.6819167505804224e-02 -2.4743582965269675e-01
    1.7522404386365431e-02 -2.3629973222959152e-01
    1.7522404386365431e-02 -2.3629973222959152e-01
    1.8331185802922138e-02 -2.2473328748774737e-01
    1.9274155639442334e-02 -2.1266436150250076e-01
    1.9274155639442334e-02 -2.1266436150250076e-01
    3.2891645179895380e-02 -1.2097167578182676e-01
    3.2891645179895380e-02 -1.2097167578182676e-01
    3.2891645179895380e-02 -1.2097167578182676e-01
    3.2891645179895380e-02 -1.2097167578182676e-01 1. 0.
    4.0185978403563326e-02 -9.8532927816429319e-02
    4.0185978403563326e-02 -9.8532927816429319e-02
    3.2891645179895380e-02 -1.2097167578182676e-01
    2.5602957388130124e-02 -1.5694120514358612e-01
    2.1745835870341842e-02 -1.8661690879115478e-01
    1.8331185802922138e-02 -2.2473328748774737e-01
    1.8331185802922138e-02 -2.2473328748774737e-01
    1.3611796635153705e-02 -3.1706324373711392e-01
    1.2274636000901959e-02 -3.6115755925730764e-01
    1.1489678757093559e-02 -3.9440531887330782e-01
    1.1321334965217689e-02 -4.0250611571050388e-01
    1.1011733047195351e-02 -4.1849879681768870e-01
    9.7688730383512883e-03 -5.0300303000356872e-01
    9.7688730383512883e-03 -5.0300303000356872e-01
    8.8919312127377480e-03 -5.9956411182041780e-01
    8.8919312127377480e-03 -5.9956411182041780e-01
    8.7921938138543747e-03 -6.1439681290564108e-01
    8.5343191293767093e-03 -6.5915306160306164e-01
    8.7450747939710333e-03 -6.2182527020592104e-01
    8.6138949220476834e-03 -6.4417853611755627e-01
    8.6559885171986119e-03 -6.3671453996701333e-01
    8.7921938138543747e-03 -6.1439681290564108e-01
    8.9447027811524159e-03 -5.9215652546379216e-01
    8.7921938138543747e-03 -6.1439681290564108e-01
    8.8411212578929886e-03 -6.0697697866688405e-01
    1.0254730168116377e-02 -4.6516047661624044e-01
    1.1162270069884947e-02 -4.1053541362798002e-01
    1.1011733047195351e-02 -4.1849879681768870e-01
    1.2504702743322927e-02 -3.5259654610379310e-01
    1.4716771567578694e-02 -2.8867513459481287e-01
    1.6200714650802268e-02 -2.5819888974716115e-01
    1.6200714650802268e-02 -2.5819888974716115e-01
    1.5651583111989602e-02 -2.6863534475866768e-01
    1.5651583111989602e-02 -2.6863534475866768e-01
    1.6200714650802268e-02 -2.5819888974716115e-01
    2.1745835870341842e-02 -1.8661690879115478e-01
    2.3429976047305220e-02 -1.7234549688642783e-01
    2.5602957388130124e-02 -1.5694120514358612e-01
    3.2891645179895380e-02 -1.2097167578182676e-01 1. 0.
    5.6694115194603330e-02 -6.9504804685691590e-02
    3.2891645179895380e-02 -1.2097167578182676e-01
    2.5602957388130124e-02 -1.5694120514358612e-01
    1.8331185802922138e-02 -2.2473328748774737e-01
    1.9274155639442334e-02 -2.1266436150250076e-01
    1.7522404386365431e-02 -2.3629973222959152e-01
    1.2059452890866757e-02 -3.6961063547728640e-01
    1.1668149501693845e-02 -3.8622696788058714e-01
    1.0733643337382897e-02 -4.3424811867344748e-01
    1.1857708957152227e-02 -3.7796447300922725e-01
    1.0047256709338800e-02 -4.8038446141526142e-01
    9.6838254925237233e-03 -5.1049589675732032e-01
    8.8411212578929886e-03 -6.0697697866688405e-01
    8.7450747939710333e-03 -6.2182527020592104e-01
    8.3289682974530162e-03 -7.0455864035425875e-01
    8.2705367656811194e-03 -7.1989455837815697e-01
    8.1670779810922231e-03 -7.5093926148263834e-01
    8.1670779810922231e-03 -7.5093926148263834e-01
    8.3289682974530162e-03 -7.0455864035425875e-01
    8.2166509885505806e-03 -7.3535076034552427e-01
    8.1216102486513491e-03 -7.6667219823206367e-01
    8.1438430037657512e-03 -7.5878691063932813e-01
    8.0800631258742261e-03 -7.8256188303238594e-01
    8.3599692564550899e-03 -6.9693205243716949e-01
    8.5733564766235677e-03 -6.5165752834335866e-01
    8.7921938138543747e-03 -6.1439681290564108e-01
    8.5733564766235677e-03 -6.5165752834335866e-01
    1.0365915891889467e-02 -4.5749571099781400e-01
    1.0733643337382897e-02 -4.3424811867344748e-01
    1.1162270069884947e-02 -4.1053541362798002e-01
    1.2059452890866757e-02 -3.6961063547728640e-01
    1.5651583111989602e-02 -2.6863534475866768e-01
    1.5651583111989602e-02 -2.6863534475866768e-01
    1.5651583111989602e-02 -2.6863534475866768e-01
    1.5159988452742390e-02 -2.7878344149874829e-01
    1.8331185802922138e-02 -2.2473328748774737e-01
    2.3429976047305220e-02 -1.7234549688642783e-01
    2.8554731125277063e-02 -1.4002800840280100e-01
    2.8554731125277063e-02 -1.4002800840280100e-01
    5.6694115194603330e-02 -6.9504804685691590e-02
    2.8554731125277063e-02 -1.4002800840280100e-01
    2.8554731125277063e-02 -1.4002800840280100e-01
    1.8331185802922138e-02 -2.2473328748774737e-01
    1.5159988452742390e-02 -2.7878344149874829e-01
    1.3947940995667455e-02 -3.0779350562554625e-01
    1.2504702743322927e-02 -3.5259654610379310e-01
    1.0869056127933079e-02 -4.2640143271122083e-01
    1.0254730168116377e-02 -4.6516047661624044e-01
    1.0047256709338800e-02 -4.8038446141526142e-01
    9.3769432481323450e-03 -5.4030127321570265e-01
    8.9995205013518563e-03 -5.8475249796043427e-01
    8.8411212578929886e-03 -6.0697697866688405e-01
    8.4605472936563706e-03 -6.7419986246324204e-01
    8.2166509885505806e-03 -7.3535076034552427e-01
    8.2430408509080490e-03 -7.2760687510899902e-01
    7.9051393047681520e-03 -8.8191710368819698e-01
    7.9773957221792157e-03 -8.3129832826074279e-01
    8.0800631258742261e-03 -7.8256188303238594e-01
    8.1438430037657512e-03 -7.5878691063932813e-01
    8.0607077612135179e-03 -7.9056941504209499e-01
    8.1670779810922231e-03 -7.5093926148263834e-01
    8.0247397326142951e-03 -8.0671782600463904e-01
    8.0800631258742261e-03 -7.8256188303238594e-01
    8.2430408509080490e-03 -7.2760687510899902e-01
    8.0800631258742261e-03 -7.8256188303238594e-01
    8.2166509885505806e-03 -7.3535076034552427e-01
    8.3599692564550899e-03 -6.9693205243716949e-01
    8.7450747939710333e-03 -6.2182527020592104e-01
    9.1771875840240390e-03 -5.6254395046301198e-01
    1.0047256709338800e-02 -4.8038446141526142e-01
    1.1321334965217689e-02 -4.0250611571050388e-01
    1.2059452890866757e-02 -3.6961063547728640e-01
    1.4314692072252238e-02 -2.9833745256352617e-01
    1.5159988452742390e-02 -2.7878344149874829e-01
    1.3611796635153705e-02 -3.1706324373711392e-01
    1.6200714650802268e-02 -2.5819888974716115e-01
    2.0392156862745096e-02 -1.9999999999999998e-01
    2.5602957388130124e-02 -1.5694120514358612e-01
    2.1745835870341842e-02 -1.8661690879115478e-01
    4.0185978403563326e-02 -9.8532927816429319e-02
    2.5602957388130124e-02 -1.5694120514358612e-01
    2.1745835870341842e-02 -1.8661690879115478e-01
    1.6819167505804224e-02 -2.4743582965269675e-01
    1.4314692072252238e-02 -2.9833745256352617e-01
    1.1857708957152227e-02 -3.7796447300922725e-01
    1.1011733047195351e-02 -4.1849879681768870e-01
    1.0148617762062296e-02 -4.7278897170376749e-01
    9.1771875840240390e-03 -5.6254395046301198e-01
    8.8919312127377480e-03 -5.9956411182041780e-01
    8.9447027811524159e-03 -5.9215652546379216e-01
    8.6559885171986119e-03 -6.3671453996701333e-01
    8.3922071804473190e-03 -6.8933105614395407e-01
    8.5733564766235677e-03 -6.5165752834335866e-01
    8.1216102486513491e-03 -7.6667219823206367e-01
    8.0080928850316639e-03 -8.1486195149853446e-01
    7.8464024323357303e-03 -1.0292744729148096e+00
    7.8522172751401831e-03 -9.5302512072554768e-01
    7.8434998511091262e-03 -1.0096620601608022e+00
    7.9051393047681520e-03 -8.8191710368819698e-01
    7.8664452921850779e-03 -9.2582009977255153e-01
    7.8664452921850779e-03 -9.2582009977255153e-01
    7.9376362934116072e-03 -8.5634883857767530e-01
    7.9260109960244476e-03 -8.6481163247487902e-01
    7.8664452921850779e-03 -9.2582009977255153e-01
    7.9051393047681520e-03 -8.8191710368819698e-01
    7.8873799129335394e-03 -8.9927507036162935e-01
    8.1216102486513491e-03 -7.6667219823206367e-01
    8.3922071804473190e-03 -6.8933105614395407e-01
    8.5343191293767093e-03 -6.5915306160306164e-01
    9.3077035915910579e-03 -5.4772255750516607e-01
    9.6022916416065012e-03 -5.1796977028281221e-01
    1.0604960905726227e-02 -4.4204332236849225e-01
    1.1321334965217689e-02 -4.0250611571050388e-01
    1.3302376391678038e-02 -3.2616403652672116e-01
    1.2751325793332380e-02 -3.4391796971439736e-01
    1.5159988452742390e-02 -2.7878344149874829e-01
    1.7522404386365431e-02 -2.3629973222959152e-01
    2.0392156862745096e-02 -1.9999999999999998e-01
    2.1745835870341842e-02 -1.8661690879115478e-01
    4.0185978403563326e-02 -9.8532927816429319e-02
    1.9274155639442334e-02 -2.1266436150250076e-01
    1.7522404386365431e-02 -2.3629973222959152e-01
    1.3016454478746161e-02 -3.3511112371964275e-01
    1.1668149501693845e-02 -3.8622696788058714e-01
    1.1011733047195351e-02 -4.1849879681768870e-01
    1.0047256709338800e-02 -4.8038446141526142e-01
    9.7688730383512883e-03 -5.0300303000356872e-01
    8.6138949220476834e-03 -6.4417853611755627e-01
    8.5343191293767093e-03 -6.5915306160306164e-01
    8.7450747939710333e-03 -6.2182527020592104e-01
    8.3599692564550899e-03 -6.9693205243716949e-01
    8.1003573254011339e-03 -7.7459666924148340e-01
    7.9923164091804440e-03 -8.2305489175310143e-01
    7.8609638300936487e-03 -9.3481221316041530e-01
    7.8431372549019607e-03 -1. 7.8445879415424812e-03
    -1.0194192887494868e+00 7.8522172751401831e-03
    -1.0492902844351988e+00 7.8726714993644781e-03
    -1.0906299483374395e+00 7.8873799129335394e-03
    -1.1120068074364233e+00 7.8562224869666297e-03
    -1.0594569267279517e+00 7.8489448360419701e-03
    -9.6225044864937614e-01 7.8562224869666297e-03
    -9.4387980744853883e-01 7.8464024323357320e-03
    -9.7155814733080181e-01 7.8873799129335394e-03
    -8.9927507036162935e-01 7.8431372549019607e-03 -1.
    7.8464024323357320e-03 -9.7155814733080181e-01
    7.8958746702829496e-03 -8.9056355656172115e-01
    8.0080928850316639e-03 -8.1486195149853446e-01
    8.0800631258742261e-03 -7.8256188303238594e-01
    8.5343191293767093e-03 -6.5915306160306164e-01
    8.7921938138543747e-03 -6.1439681290564108e-01
    9.1771875840240390e-03 -5.6254395046301198e-01
    9.9503536849654371e-03 -4.8795003647426666e-01
    1.0869056127933079e-02 -4.2640143271122083e-01
    1.2274636000901959e-02 -3.6115755925730764e-01
    1.3947940995667455e-02 -3.0779350562554625e-01
    1.6200714650802268e-02 -2.5819888974716115e-01
    1.8331185802922138e-02 -2.2473328748774737e-01
    2.1745835870341842e-02 -1.8661690879115478e-01
    2.5602957388130124e-02 -1.5694120514358612e-01
    1.6819167505804224e-02 -2.4743582965269675e-01
    1.5159988452742390e-02 -2.7878344149874829e-01
    1.1489678757093559e-02 -3.9440531887330782e-01
    1.0482529198715810e-02 -4.4979121681989714e-01
    1.1321334965217689e-02 -4.0250611571050388e-01
    8.9995205013518563e-03 -5.8475249796043427e-01
    8.4257198414582849e-03 -6.8175415832568709e-01
    8.2991686731248918e-03 -7.1221231161191978e-01
    8.3922071804473190e-03 -6.8933105614395407e-01
    8.2166509885505806e-03 -7.3535076034552427e-01
    7.8958746702829496e-03 -8.9056355656172115e-01
    7.8664452921850779e-03 -9.2582009977255153e-01
    7.8431372549019607e-03 -1. 7.8445879415424812e-03
    -1.0194192887494868e+00 7.8431372549019607e-03 -1.
    7.8562224869666297e-03 -1.0594569267279517e+00
    7.8445879415424812e-03 -1.0194192887494868e+00
    7.8958746702829496e-03 -1.1228844843604309e+00
    7.8958746702829496e-03 -1.1228844843604309e+00
    7.9051393047681520e-03 -1.1338934190276817e+00
    7.8726714993644781e-03 -1.0906299483374395e+00
    7.9376362934116072e-03 -1.1677484162422844e+00
    7.9051393047681520e-03 -1.1338934190276817e+00
    7.9051393047681520e-03 -1.1338934190276817e+00
    7.8431372549019607e-03 -1. 7.8445879415424812e-03
    -9.8095063634384583e-01 7.8562224869666297e-03
    -9.4387980744853883e-01 8.0247397326142951e-03
    -8.0671782600463904e-01 8.0800631258742261e-03
    -7.8256188303238594e-01 8.0800631258742261e-03
    -7.8256188303238594e-01 8.1913389212188888e-03
    -7.4312771847788661e-01 8.5343191293767093e-03
    -6.5915306160306164e-01 8.8411212578929886e-03
    -6.0697697866688405e-01 1.0047256709338800e-02
    -4.8038446141526142e-01 1.0604960905726227e-02
    -4.4204332236849225e-01 1.2751325793332380e-02
    -3.4391796971439736e-01 1.3947940995667455e-02
    -3.0779350562554625e-01 1.5651583111989602e-02
    -2.6863534475866768e-01 1.8331185802922138e-02
    -2.2473328748774737e-01 1.9274155639442334e-02
    -2.1266436150250076e-01 1.4716771567578694e-02
    -2.8867513459481287e-01 1.3302376391678038e-02
    -3.2616403652672116e-01 1.2059452890866757e-02
    -3.6961063547728640e-01 1.1162270069884947e-02
    -4.1053541362798002e-01 1.0148617762062296e-02
    -4.7278897170376749e-01 8.6996947479236735e-03
    -6.2926397828130609e-01 8.2991686731248918e-03
    -7.1221231161191978e-01 8.0080928850316639e-03
    -8.1486195149853446e-01 8.0607077612135179e-03
    -7.9056941504209499e-01 7.9500679945191197e-03
    -8.4794355028080126e-01 7.8445879415424812e-03
    -9.8095063634384583e-01 7.8464024323357320e-03
    -9.7155814733080181e-01 7.8434998511091262e-03
    -9.9043040187202502e-01 7.8522172751401831e-03
    -9.5302512072554768e-01 7.8489448360419718e-03
    -1.0392304845413265e+00 7.9151818317537929e-03
    -1.1450376024878444e+00 7.9500679945191215e-03
    -1.1793237883215746e+00 7.9260109960244476e-03
    -1.1563211715113551e+00 7.9260109960244476e-03
    -1.1563211715113551e+00 7.8609638300936487e-03
    -1.0697335635134650e+00 8.0422725036405959e-03
    -1.2521586299538494e+00 8.1003573254011339e-03
    -1.2909944487358056e+00 7.9500679945191215e-03
    -1.1793237883215746e+00 7.8562224869666297e-03
    -1.0594569267279517e+00 7.9633171706661003e-03
    -1.1910519095164536e+00 7.8609638300936487e-03
    -1.0697335635134650e+00 7.8522172751401831e-03
    -9.5302512072554768e-01 7.8726714993644781e-03
    -9.1690128400050241e-01 7.8958746702829496e-03
    -8.9056355656172115e-01 7.9633171706661003e-03
    -8.3959396900340177e-01 7.9376362934116072e-03
    -8.5634883857767530e-01 7.9923164091804440e-03
    -8.2305489175310143e-01 8.3289682974530162e-03
    -7.0455864035425875e-01 8.8919312127377480e-03
    -5.9956411182041780e-01 9.8576408370293373e-03
    -4.9548862957279677e-01 1.0733643337382897e-02
    -4.3424811867344748e-01 1.2504702743322927e-02
    -3.5259654610379310e-01 1.4314692072252238e-02
    -2.9833745256352617e-01 1.6819167505804224e-02
    -2.4743582965269675e-01 2.0392156862745096e-02
    -1.9999999999999998e-01 1.3947940995667455e-02
    -3.0779350562554625e-01 1.3016454478746161e-02
    -3.3511112371964275e-01 1.1321334965217689e-02
    -4.0250611571050388e-01 9.7688730383512883e-03
    -5.0300303000356872e-01 8.5343191293767093e-03
    -6.5915306160306164e-01 8.4257198414582849e-03
    -6.8175415832568709e-01 8.0607077612135179e-03
    -7.9056941504209499e-01 7.9151818317537946e-03
    -8.7333376460937306e-01 7.8796477271395292e-03
    -9.0805363470930056e-01 7.8464024323357320e-03
    -9.7155814733080181e-01 7.8489448360419701e-03
    -9.6225044864937614e-01 7.8464024323357320e-03
    -9.7155814733080181e-01 7.8445879415424812e-03
    -1.0194192887494868e+00 7.8562224869666297e-03
    -1.0594569267279517e+00 8.0247397326142934e-03
    -1.2395908058120060e+00 8.0080928850316657e-03
    -1.2272017341845403e+00 7.9260109960244476e-03
    -1.1563211715113551e+00 7.8522172751401831e-03
    -1.0492902844351988e+00 7.9151818317537929e-03
    -1.1450376024878444e+00 7.9773957221792140e-03
    -1.2029375808949569e+00 8.1438430037657512e-03
    -1.3178930553209383e+00 8.3599692564550916e-03
    -1.4348601079588787e+00 8.1003573254011339e-03
    -1.2909944487358056e+00 8.0800631258742261e-03
    -1.2778542140655416e+00 8.1216102486513491e-03
    -1.3043384151740305e+00 7.8958746702829496e-03
    -1.1228844843604309e+00 7.9500679945191215e-03
    -1.1793237883215746e+00 7.8522172751401831e-03
    -1.0492902844351988e+00 7.8434998511091262e-03
    -9.9043040187202502e-01 7.8489448360419701e-03
    -9.6225044864937614e-01 7.8664452921850779e-03
    -9.2582009977255153e-01 7.9376362934116072e-03
    -8.5634883857767530e-01 8.0422725036405941e-03
    -7.9862085847450226e-01 8.2991686731248918e-03
    -7.1221231161191978e-01 8.9447027811524159e-03
    -5.9215652546379216e-01 9.9503536849654371e-03
    -4.8795003647426666e-01 1.1489678757093559e-02
    -3.9440531887330782e-01 1.3947940995667455e-02
    -3.0779350562554625e-01 1.5651583111989602e-02
    -2.6863534475866768e-01 1.8331185802922138e-02
    -2.2473328748774737e-01 1.3302376391678038e-02
    -3.2616403652672116e-01 1.1668149501693845e-02
    -3.8622696788058714e-01 9.7688730383512883e-03
    -5.0300303000356872e-01 8.4605472936563706e-03
    -6.7419986246324204e-01 8.2991686731248918e-03
    -7.1221231161191978e-01 8.3289682974530162e-03
    -7.0455864035425875e-01 8.0800631258742261e-03
    -7.8256188303238594e-01 7.9773957221792157e-03
    -8.3129832826074279e-01 7.8431372549019607e-03 -1.
    7.9051393047681520e-03 -1.1338934190276817e+00
    7.8609638300936487e-03 -1.0697335635134650e+00
    7.8609638300936487e-03 -1.0697335635134650e+00
    7.9151818317537929e-03 -1.1450376024878444e+00
    7.9633171706661003e-03 -1.1910519095164536e+00
    8.1670779810922231e-03 -1.3316656236958786e+00
    8.1913389212188905e-03 -1.3456637064329302e+00
    7.9923164091804458e-03 -1.2149857925879120e+00
    7.9260109960244476e-03 -1.1563211715113551e+00
    8.1216102486513491e-03 -1.3043384151740305e+00
    8.1913389212188905e-03 -1.3456637064329302e+00
    8.1438430037657512e-03 -1.3178930553209383e+00
    8.5733564766235677e-03 -1.5345483731956511e+00
    8.2166509885505789e-03 -1.3598952417348733e+00
    8.1438430037657512e-03 -1.3178930553209383e+00
    8.1003573254011339e-03 -1.2909944487358056e+00
    8.1913389212188905e-03 -1.3456637064329302e+00
    8.3922071804473190e-03 -1.4506817748701124e+00
    8.0080928850316657e-03 -1.2272017341845403e+00
    8.0800631258742261e-03 -1.2778542140655416e+00
    7.9151818317537929e-03 -1.1450376024878444e+00
    7.8434998511091262e-03 -1.0096620601608022e+00
    7.8522172751401831e-03 -9.5302512072554768e-01
    7.9500679945191197e-03 -8.4794355028080126e-01
    7.9633171706661003e-03 -8.3959396900340177e-01
    8.2991686731248918e-03 -7.1221231161191978e-01
    9.3769432481323450e-03 -5.4030127321570265e-01
    1.1011733047195351e-02 -4.1849879681768870e-01
    1.2504702743322927e-02 -3.5259654610379310e-01
    1.4716771567578694e-02 -2.8867513459481287e-01
    2.0392156862745096e-02 -1.9999999999999998e-01
    1.2751325793332380e-02 -3.4391796971439736e-01
    1.0733643337382897e-02 -4.3424811867344748e-01
    8.6559885171986119e-03 -6.3671453996701333e-01
    8.1913389212188888e-03 -7.4312771847788661e-01
    8.2430408509080490e-03 -7.2760687510899902e-01
    8.1913389212188888e-03 -7.4312771847788661e-01
    7.9500679945191197e-03 -8.4794355028080126e-01
    7.8726714993644781e-03 -9.1690128400050241e-01
    7.8562224869666297e-03 -1.0594569267279517e+00
    7.8958746702829496e-03 -1.1228844843604309e+00
    7.8664452921850779e-03 -1.0801234497346435e+00
    7.8489448360419718e-03 -1.0392304845413265e+00
    7.8664452921850779e-03 -1.0801234497346435e+00
    7.9923164091804458e-03 -1.2149857925879120e+00
    8.2991686731248918e-03 -1.4040757000349278e+00
    8.2705367656811211e-03 -1.3890923168705287e+00
    8.0800631258742261e-03 -1.2778542140655416e+00
    8.1670779810922231e-03 -1.3316656236958786e+00
    8.1438430037657512e-03 -1.3178930553209383e+00
    8.1438430037657512e-03 -1.3178930553209383e+00
    8.1913389212188905e-03 -1.3456637064329302e+00
    8.1670779810922231e-03 -1.3316656236958786e+00
    8.2430408509080472e-03 -1.3743685418725533e+00
    8.0422725036405959e-03 -1.2521586299538494e+00
    8.0800631258742261e-03 -1.2778542140655416e+00
    8.3599692564550916e-03 -1.4348601079588787e+00
    8.6559885171986119e-03 -1.5705625319186327e+00
    8.6559885171986119e-03 -1.5705625319186327e+00
    8.5343191293767093e-03 -1.5170983163879990e+00
    8.1670779810922231e-03 -1.3316656236958786e+00
    7.9260109960244476e-03 -1.1563211715113551e+00
    7.8796477271395292e-03 -1.1012565357112793e+00
    7.8431372549019607e-03 -1. 7.8609638300936487e-03
    -9.3481221316041530e-01 7.9773957221792157e-03
    -8.3129832826074279e-01 8.8919312127377480e-03
    -5.9956411182041780e-01 9.9503536849654371e-03
    -4.8795003647426666e-01 1.3016454478746161e-02
    -3.3511112371964275e-01 1.5651583111989602e-02
    -2.6863534475866768e-01 1.9274155639442334e-02
    -2.1266436150250076e-01 1.2751325793332380e-02
    -3.4391796971439736e-01 1.0254730168116377e-02
    -4.6516047661624044e-01 8.6996947479236735e-03
    -6.2926397828130609e-01 8.0422725036405941e-03
    -7.9862085847450226e-01 7.8958746702829496e-03
    -8.9056355656172115e-01 7.8664452921850779e-03
    -9.2582009977255153e-01 7.8796477271395292e-03
    -9.0805363470930056e-01 7.8434998511091262e-03
    -1.0096620601608022e+00 7.8726714993644781e-03
    -1.0906299483374395e+00 7.8562224869666297e-03
    -1.0594569267279517e+00 7.9151818317537929e-03
    -1.1450376024878444e+00 7.9051393047681520e-03
    -1.1338934190276817e+00 8.0247397326142934e-03
    -1.2395908058120060e+00 8.3289682974530144e-03
    -1.4193282754962600e+00 8.4967320261437902e-03
    -1.5000000000000000e+00 8.3289682974530144e-03
    -1.4193282754962600e+00 8.2991686731248918e-03
    -1.4040757000349278e+00 8.4605472936563706e-03
    -1.4832396974191324e+00 8.3599692564550916e-03
    -1.4348601079588787e+00 8.1913389212188905e-03
    -1.3456637064329302e+00 8.2430408509080472e-03
    -1.3743685418725533e+00 8.1216102486513491e-03
    -1.3043384151740305e+00 8.3922071804473190e-03
    -1.4506817748701124e+00 8.2705367656811211e-03
    -1.3890923168705287e+00 8.3922071804473190e-03
    -1.4506817748701124e+00 9.0564748108176597e-03
    -1.7320508075688774e+00 9.1156625602332036e-03
    -1.7545459163410400e+00 8.9447027811524159e-03
    -1.6887426837300741e+00 8.1670779810922231e-03
    -1.3316656236958786e+00 8.1670779810922231e-03
    -1.3316656236958786e+00 8.0080928850316657e-03
    -1.2272017341845403e+00 7.9500679945191215e-03
    -1.1793237883215746e+00 7.9051393047681520e-03
    -1.1338934190276817e+00 7.8562224869666297e-03
    -1.0594569267279517e+00 7.9151818317537946e-03
    -8.7333376460937306e-01 8.2166509885505806e-03
    -7.3535076034552427e-01 9.5240813316107339e-03
    -5.2542708307804409e-01 1.2751325793332380e-02
    -3.4391796971439736e-01 1.6200714650802268e-02
    -2.5819888974716115e-01 1.7522404386365431e-02
    -2.3629973222959152e-01 1.1321334965217689e-02
    -4.0250611571050388e-01 9.0564748108176597e-03
    -5.7735026918962584e-01 8.3922071804473190e-03
    -6.8933105614395407e-01 7.9260109960244476e-03
    -8.6481163247487902e-01 7.8489448360419701e-03
    -9.6225044864937614e-01 7.8445879415424812e-03
    -1.0194192887494868e+00 7.8562224869666297e-03
    -1.0594569267279517e+00 7.9376362934116072e-03
    -1.1677484162422844e+00 7.9151818317537929e-03
    -1.1450376024878444e+00 7.9500679945191215e-03
    -1.1793237883215746e+00 7.9260109960244476e-03
    -1.1563211715113551e+00 8.0607077612135161e-03
    -1.2649110640673518e+00 8.2430408509080472e-03
    -1.3743685418725533e+00 8.2430408509080472e-03
    -1.3743685418725533e+00 8.2705367656811211e-03
    -1.3890923168705287e+00 8.2430408509080472e-03
    -1.3743685418725533e+00 8.1913389212188905e-03
    -1.3456637064329302e+00 8.5343191293767093e-03
    -1.5170983163879990e+00 8.4257198414582849e-03
    -1.4668044012461754e+00 8.4605472936563706e-03
    -1.4832396974191324e+00 8.2705367656811211e-03
    -1.3890923168705287e+00 8.2991686731248918e-03
    -1.4040757000349278e+00 8.6138949220476851e-03
    -1.5523646690046033e+00 8.7450747939710333e-03
    -1.6081688022566925e+00 8.9447027811524159e-03
    -1.6887426837300741e+00 9.3077035915910614e-03
    -1.8257418583505545e+00 8.9447027811524159e-03
    -1.6887426837300741e+00 8.8411212578929851e-03
    -1.6475089420958273e+00 8.3922071804473190e-03
    -1.4506817748701124e+00 8.2166509885505789e-03
    -1.3598952417348733e+00 8.1216102486513491e-03
    -1.3043384151740305e+00 7.9376362934116072e-03
    -1.1677484162422844e+00 7.8464024323357303e-03
    -1.0292744729148096e+00 7.8445879415424812e-03
    -1.0194192887494868e+00 7.8664452921850779e-03
    -9.2582009977255153e-01 8.3289682974530162e-03
    -7.0455864035425875e-01 9.1156625602332036e-03
    -5.6994803651842696e-01 9.7688730383512883e-03
    -5.0300303000356872e-01 1.3947940995667455e-02
    -3.0779350562554625e-01 1.3302376391678038e-02
    -3.2616403652672116e-01 1.0047256709338800e-02
    -4.8038446141526142e-01 8.9447027811524159e-03
    -5.9215652546379216e-01 8.1670779810922231e-03
    -7.5093926148263834e-01 7.8489448360419701e-03
    -9.6225044864937614e-01 7.8434998511091262e-03
    -9.9043040187202502e-01 7.8796477271395292e-03
    -1.1012565357112793e+00 7.9500679945191215e-03
    -1.1793237883215746e+00 7.9923164091804458e-03
    -1.2149857925879120e+00 8.0080928850316657e-03
    -1.2272017341845403e+00 8.1003573254011339e-03
    -1.2909944487358056e+00 8.1003573254011339e-03
    -1.2909944487358056e+00 8.4257198414582849e-03
    -1.4668044012461754e+00 8.4967320261437902e-03
    -1.5000000000000000e+00 8.4605472936563706e-03
    -1.4832396974191324e+00 8.1670779810922231e-03
    -1.3316656236958786e+00 8.1913389212188905e-03
    -1.3456637064329302e+00 8.2430408509080472e-03
    -1.3743685418725533e+00 8.3599692564550916e-03
    -1.4348601079588787e+00 8.2991686731248918e-03
    -1.4040757000349278e+00 8.1438430037657512e-03
    -1.3178930553209383e+00 8.1216102486513491e-03
    -1.3043384151740305e+00 8.2991686731248918e-03
    -1.4040757000349278e+00 8.4967320261437902e-03
    -1.5000000000000000e+00 8.5343191293767093e-03
    -1.5170983163879990e+00 8.9447027811524159e-03
    -1.6887426837300741e+00 8.7921938138543747e-03
    -1.6276126096272245e+00 8.6559885171986119e-03
    -1.5705625319186327e+00 8.7921938138543747e-03
    -1.6276126096272245e+00 8.7921938138543747e-03
    -1.6276126096272245e+00 8.6559885171986119e-03
    -1.5705625319186327e+00 8.4605472936563706e-03
    -1.4832396974191324e+00 8.1438430037657512e-03
    -1.3178930553209383e+00 7.8726714993644781e-03
    -1.0906299483374395e+00 7.8445879415424812e-03
    -9.8095063634384583e-01 7.8434998511091262e-03
    -9.9043040187202502e-01 8.0080928850316639e-03
    -8.1486195149853446e-01 8.7450747939710333e-03
    -6.2182527020592104e-01 9.4490191991005567e-03
    -5.3287016925696884e-01 1.2274636000901959e-02
    -3.6115755925730764e-01 1.3611796635153705e-02
    -3.1706324373711392e-01 1.0148617762062296e-02
    -4.7278897170376749e-01 8.3922071804473190e-03
    -6.8933105614395407e-01 8.0422725036405941e-03
    -7.9862085847450226e-01 7.8522172751401831e-03
    -1.0492902844351988e+00 7.8562224869666297e-03
    -1.0594569267279517e+00 7.9260109960244476e-03
    -1.1563211715113551e+00 8.1003573254011339e-03
    -1.2909944487358056e+00 8.1913389212188905e-03
    -1.3456637064329302e+00 8.0422725036405959e-03
    -1.2521586299538494e+00 8.1438430037657512e-03
    -1.3178930553209383e+00 8.1670779810922231e-03
    -1.3316656236958786e+00 8.2166509885505789e-03
    -1.3598952417348733e+00 8.2705367656811211e-03
    -1.3890923168705287e+00 8.3289682974530144e-03
    -1.4193282754962600e+00 8.2991686731248918e-03
    -1.4040757000349278e+00 8.2430408509080472e-03
    -1.3743685418725533e+00 8.1003573254011339e-03
    -1.2909944487358056e+00 8.3922071804473190e-03
    -1.4506817748701124e+00 8.4257198414582849e-03
    -1.4668044012461754e+00 8.1913389212188905e-03
    -1.3456637064329302e+00 8.2430408509080472e-03
    -1.3743685418725533e+00 8.2991686731248918e-03
    -1.4040757000349278e+00 8.4257198414582849e-03
    -1.4668044012461754e+00 8.7450747939710333e-03
    -1.6081688022566925e+00 8.7921938138543747e-03
    -1.6276126096272245e+00 8.9447027811524159e-03
    -1.6887426837300741e+00 8.9447027811524159e-03
    -1.6887426837300741e+00 8.3922071804473190e-03
    -1.4506817748701124e+00 8.7450747939710333e-03
    -1.6081688022566925e+00 8.6559885171986119e-03
    -1.5705625319186327e+00 8.4605472936563706e-03
    -1.4832396974191324e+00 8.2430408509080472e-03
    -1.3743685418725533e+00 8.0422725036405959e-03
    -1.2521586299538494e+00 7.8873799129335394e-03
    -1.1120068074364233e+00 7.8489448360419718e-03
    -1.0392304845413265e+00 7.8958746702829496e-03
    -8.9056355656172115e-01 8.2166509885505806e-03
    -7.3535076034552427e-01 9.3077035915910579e-03
    -5.4772255750516607e-01 1.1321334965217689e-02
    -4.0250611571050388e-01 1.3611796635153705e-02
    -3.1706324373711392e-01 9.6022916416065012e-03
    -5.1796977028281221e-01 8.4605472936563706e-03
    -6.7419986246324204e-01 7.9500679945191197e-03
    -8.4794355028080126e-01 7.8489448360419718e-03
    -1.0392304845413265e+00 7.8796477271395292e-03
    -1.1012565357112793e+00 7.9633171706661003e-03
    -1.1910519095164536e+00 8.2705367656811211e-03
    -1.3890923168705287e+00 8.3599692564550916e-03
    -1.4348601079588787e+00 8.3289682974530144e-03
    -1.4193282754962600e+00 8.5343191293767093e-03
    -1.5170983163879990e+00 8.3599692564550916e-03
    -1.4348601079588787e+00 8.3289682974530144e-03
    -1.4193282754962600e+00 8.5343191293767093e-03
    -1.5170983163879990e+00 8.2705367656811211e-03
    -1.3890923168705287e+00 8.1913389212188905e-03
    -1.3456637064329302e+00 8.2705367656811211e-03
    -1.3890923168705287e+00 8.1003573254011339e-03
    -1.2909944487358056e+00 8.2430408509080472e-03
    -1.3743685418725533e+00 8.2166509885505789e-03
    -1.3598952417348733e+00 8.2430408509080472e-03
    -1.3743685418725533e+00 8.3922071804473190e-03
    -1.4506817748701124e+00 8.2705367656811211e-03
    -1.3890923168705287e+00 8.4257198414582849e-03
    -1.4668044012461754e+00 8.4967320261437902e-03
    -1.5000000000000000e+00 8.5343191293767093e-03
    -1.5170983163879990e+00 8.6559885171986119e-03
    -1.5705625319186327e+00 8.9995205013518546e-03
    -1.7101252298842886e+00 9.1771875840240373e-03
    -1.7776388834631176e+00 8.9447027811524159e-03
    -1.6887426837300741e+00 8.7450747939710333e-03
    -1.6081688022566925e+00 8.4257198414582849e-03
    -1.4668044012461754e+00 8.3922071804473190e-03
    -1.4506817748701124e+00 8.1216102486513491e-03
    -1.3043384151740305e+00 7.9500679945191215e-03
    -1.1793237883215746e+00 7.8664452921850779e-03
    -1.0801234497346435e+00 7.8434998511091262e-03
    -9.9043040187202502e-01 8.1913389212188888e-03
    -7.4312771847788661e-01 9.1156625602332036e-03
    -5.6994803651842696e-01 1.0365915891889467e-02
    -4.5749571099781400e-01 1.2751325793332380e-02
    -3.4391796971439736e-01 9.4490191991005567e-03
    -5.3287016925696884e-01 8.3289682974530162e-03
    -7.0455864035425875e-01 7.8958746702829496e-03
    -8.9056355656172115e-01 7.8726714993644781e-03
    -1.0906299483374395e+00 7.9051393047681520e-03
    -1.1338934190276817e+00 7.9500679945191215e-03
    -1.1793237883215746e+00 8.1216102486513491e-03
    -1.3043384151740305e+00 8.3599692564550916e-03
    -1.4348601079588787e+00 8.4605472936563706e-03
    -1.4832396974191324e+00 8.7921938138543747e-03
    -1.6276126096272245e+00 8.9995205013518546e-03
    -1.7101252298842886e+00 8.6559885171986119e-03
    -1.5705625319186327e+00 8.6138949220476851e-03
    -1.5523646690046033e+00 8.6559885171986119e-03
    -1.5705625319186327e+00 8.3922071804473190e-03
    -1.4506817748701124e+00 8.2166509885505789e-03
    -1.3598952417348733e+00 8.1216102486513491e-03
    -1.3043384151740305e+00 8.1670779810922231e-03
    -1.3316656236958786e+00 8.2430408509080472e-03
    -1.3743685418725533e+00 8.1913389212188905e-03
    -1.3456637064329302e+00 8.1670779810922231e-03
    -1.3316656236958786e+00 8.2166509885505789e-03
    -1.3598952417348733e+00 8.4257198414582849e-03
    -1.4668044012461754e+00 8.5733564766235677e-03
    -1.5345483731956511e+00 8.5733564766235677e-03
    -1.5345483731956511e+00 8.6138949220476851e-03
    -1.5523646690046033e+00 8.8919312127377480e-03
    -1.6678783474277079e+00 9.1771875840240373e-03
    -1.7776388834631176e+00 8.7921938138543747e-03
    -1.6276126096272245e+00 9.3077035915910614e-03
    -1.8257418583505545e+00 9.0564748108176597e-03
    -1.7320508075688774e+00 8.7921938138543747e-03
    -1.6276126096272245e+00 8.4257198414582849e-03
    -1.4668044012461754e+00 8.2430408509080472e-03
    -1.3743685418725533e+00 7.9376362934116072e-03
    -1.1677484162422844e+00 7.8562224869666297e-03
    -1.0594569267279517e+00 8.0607077612135179e-03
    -7.9056941504209499e-01 8.9995205013518563e-03
    -5.8475249796043427e-01 9.9503536849654371e-03
    -4.8795003647426666e-01 1.3016454478746161e-02
    -3.3511112371964275e-01 9.9503536849654371e-03
    -4.8795003647426666e-01 8.3922071804473190e-03
    -6.8933105614395407e-01 8.0422725036405941e-03
    -7.9862085847450226e-01 7.8464024323357320e-03
    -9.7155814733080181e-01 7.8958746702829496e-03
    -1.1228844843604309e+00 8.0247397326142934e-03
    -1.2395908058120060e+00 8.0247397326142934e-03
    -1.2395908058120060e+00 8.4605472936563706e-03
    -1.4832396974191324e+00 8.3922071804473190e-03
    -1.4506817748701124e+00 8.6559885171986119e-03
    -1.5705625319186327e+00 9.1156625602332036e-03
    -1.7545459163410400e+00 8.6138949220476851e-03
    -1.5523646690046033e+00 8.6559885171986119e-03
    -1.5705625319186327e+00 8.6138949220476851e-03
    -1.5523646690046033e+00 8.2166509885505789e-03
    -1.3598952417348733e+00 8.3922071804473190e-03
    -1.4506817748701124e+00 8.3289682974530144e-03
    -1.4193282754962600e+00 8.1670779810922231e-03
    -1.3316656236958786e+00 8.1670779810922231e-03
    -1.3316656236958786e+00 8.2430408509080472e-03
    -1.3743685418725533e+00 8.2705367656811211e-03
    -1.3890923168705287e+00 8.2705367656811211e-03
    -1.3890923168705287e+00 8.3922071804473190e-03
    -1.4506817748701124e+00 8.5733564766235677e-03
    -1.5345483731956511e+00 8.2705367656811211e-03
    -1.3890923168705287e+00 8.3922071804473190e-03
    -1.4506817748701124e+00 8.4967320261437902e-03
    -1.5000000000000000e+00 8.6138949220476851e-03
    -1.5523646690046033e+00 8.5733564766235677e-03
    -1.5345483731956511e+00 8.9995205013518546e-03
    -1.7101252298842886e+00 8.6138949220476851e-03
    -1.5523646690046033e+00 8.7921938138543747e-03
    -1.6276126096272245e+00 8.6138949220476851e-03
    -1.5523646690046033e+00 8.2430408509080472e-03
    -1.3743685418725533e+00 8.0607077612135161e-03
    -1.2649110640673518e+00 7.8609638300936487e-03
    -1.0697335635134650e+00 7.9923164091804440e-03
    -8.2305489175310143e-01 8.9995205013518563e-03
    -5.8475249796043427e-01 9.5240813316107339e-03
    -5.2542708307804409e-01 1.3302376391678038e-02
    -3.2616403652672116e-01 9.9503536849654371e-03
    -4.8795003647426666e-01 8.4967320261437902e-03
    -6.6666666666666663e-01 7.9500679945191197e-03
    -8.4794355028080126e-01 7.8434998511091262e-03
    -9.9043040187202502e-01 7.8958746702829496e-03
    -1.1228844843604309e+00 8.0080928850316657e-03
    -1.2272017341845403e+00 8.2166509885505789e-03
    -1.3598952417348733e+00 8.3289682974530144e-03
    -1.4193282754962600e+00 8.3922071804473190e-03
    -1.4506817748701124e+00 8.7921938138543747e-03
    -1.6276126096272245e+00 8.9995205013518546e-03
    -1.7101252298842886e+00 8.8919312127377480e-03
    -1.6678783474277079e+00 8.5733564766235677e-03
    -1.5345483731956511e+00 8.6996947479236735e-03
    -1.5891581824392307e+00 8.4967320261437902e-03
    -1.5000000000000000e+00 8.3289682974530144e-03
    -1.4193282754962600e+00 8.2166509885505789e-03
    -1.3598952417348733e+00 8.4605472936563706e-03
    -1.4832396974191324e+00 8.4257198414582849e-03
    -1.4668044012461754e+00 8.2430408509080472e-03
    -1.3743685418725533e+00 8.3289682974530144e-03
    -1.4193282754962600e+00 8.2166509885505789e-03
    -1.3598952417348733e+00 8.4257198414582849e-03
    -1.4668044012461754e+00 8.4257198414582849e-03
    -1.4668044012461754e+00 8.2991686731248918e-03
    -1.4040757000349278e+00 8.6138949220476851e-03
    -1.5523646690046033e+00 8.6559885171986119e-03
    -1.5705625319186327e+00 8.5733564766235677e-03
    -1.5345483731956511e+00 8.8919312127377480e-03
    -1.6678783474277079e+00 8.8411212578929851e-03
    -1.6475089420958273e+00 8.5733564766235677e-03
    -1.5345483731956511e+00 8.5733564766235677e-03
    -1.5345483731956511e+00 8.2166509885505789e-03
    -1.3598952417348733e+00 8.0607077612135161e-03
    -1.2649110640673518e+00 8.0800631258742261e-03
    -1.2778542140655416e+00 7.8796477271395292e-03
    -1.1012565357112793e+00 7.9773957221792157e-03
    -8.3129832826074279e-01 9.0564748108176597e-03
    -5.7735026918962584e-01 9.9503536849654371e-03
    -4.8795003647426666e-01 1.3302376391678038e-02
    -3.2616403652672116e-01 9.4490191991005567e-03
    -5.3287016925696884e-01 8.3289682974530162e-03
    -7.0455864035425875e-01 7.8796477271395292e-03
    -9.0805363470930056e-01 7.8464024323357320e-03
    -9.7155814733080181e-01 7.8664452921850779e-03
    -1.0801234497346435e+00 7.9633171706661003e-03
    -1.1910519095164536e+00 8.1216102486513491e-03
    -1.3043384151740305e+00 8.4605472936563706e-03
    -1.4832396974191324e+00 8.3289682974530144e-03
    -1.4193282754962600e+00 8.8411212578929851e-03
    -1.6475089420958273e+00 8.9995205013518546e-03
    -1.7101252298842886e+00 8.4605472936563706e-03
    -1.4832396974191324e+00 8.5343191293767093e-03
    -1.5170983163879990e+00 8.6996947479236735e-03
    -1.5891581824392307e+00 8.4257198414582849e-03
    -1.4668044012461754e+00 8.4605472936563706e-03
    -1.4832396974191324e+00 8.4257198414582849e-03
    -1.4668044012461754e+00 8.3599692564550916e-03
    -1.4348601079588787e+00 8.7450747939710333e-03
    -1.6081688022566925e+00 8.6996947479236735e-03
    -1.5891581824392307e+00 8.2430408509080472e-03
    -1.3743685418725533e+00 8.1670779810922231e-03
    -1.3316656236958786e+00 8.4605472936563706e-03
    -1.4832396974191324e+00 8.4605472936563706e-03
    -1.4832396974191324e+00 8.6559885171986119e-03
    -1.5705625319186327e+00 8.6138949220476851e-03
    -1.5523646690046033e+00 8.8919312127377480e-03
    -1.6678783474277079e+00 8.6138949220476851e-03
    -1.5523646690046033e+00 8.5733564766235677e-03
    -1.5345483731956511e+00 8.7921938138543747e-03
    -1.6276126096272245e+00 8.4605472936563706e-03
    -1.4832396974191324e+00 8.3599692564550916e-03
    -1.4348601079588787e+00 8.2991686731248918e-03
    -1.4040757000349278e+00 8.0800631258742261e-03
    -1.2778542140655416e+00 7.9260109960244476e-03
    -1.1563211715113551e+00 7.8796477271395292e-03
    -1.1012565357112793e+00 7.9051393047681520e-03
    -8.8191710368819698e-01 8.9447027811524159e-03
    -5.9215652546379216e-01 9.8576408370293373e-03
    -4.9548862957279677e-01 1.2504702743322927e-02
    -3.5259654610379310e-01 9.6022916416065012e-03
    -5.1796977028281221e-01 8.2705367656811194e-03
    -7.1989455837815697e-01 7.9773957221792157e-03
    -8.3129832826074279e-01 7.8445879415424812e-03
    -9.8095063634384583e-01 7.9500679945191215e-03
    -1.1793237883215746e+00 7.9923164091804458e-03
    -1.2149857925879120e+00 8.0247397326142934e-03
    -1.2395908058120060e+00 8.1438430037657512e-03
    -1.3178930553209383e+00 8.5343191293767093e-03
    -1.5170983163879990e+00 8.3922071804473190e-03
    -1.4506817748701124e+00 8.3922071804473190e-03
    -1.4506817748701124e+00 8.4605472936563706e-03
    -1.4832396974191324e+00 8.6996947479236735e-03
    -1.5891581824392307e+00 8.6996947479236735e-03
    -1.5891581824392307e+00 8.2991686731248918e-03
    -1.4040757000349278e+00 8.3289682974530144e-03
    -1.4193282754962600e+00 8.3599692564550916e-03
    -1.4348601079588787e+00 8.3922071804473190e-03
    -1.4506817748701124e+00 8.4967320261437902e-03
    -1.5000000000000000e+00 8.6996947479236735e-03
    -1.5891581824392307e+00 8.4605472936563706e-03
    -1.4832396974191324e+00 8.1216102486513491e-03
    -1.3043384151740305e+00 8.3289682974530144e-03
    -1.4193282754962600e+00 8.2430408509080472e-03
    -1.3743685418725533e+00 8.4967320261437902e-03
    -1.5000000000000000e+00 8.3922071804473190e-03
    -1.4506817748701124e+00 8.3922071804473190e-03
    -1.4506817748701124e+00 8.4257198414582849e-03
    -1.4668044012461754e+00 8.2705367656811211e-03
    -1.3890923168705287e+00 8.3289682974530144e-03
    -1.4193282754962600e+00 8.2166509885505789e-03
    -1.3598952417348733e+00 8.0800631258742261e-03
    -1.2778542140655416e+00 8.0422725036405959e-03
    -1.2521586299538494e+00 7.8726714993644781e-03
    -1.0906299483374395e+00 7.8726714993644781e-03
    -1.0906299483374395e+00 7.8464024323357303e-03
    -1.0292744729148096e+00 8.0080928850316639e-03
    -8.1486195149853446e-01 8.4967320261437902e-03
    -6.6666666666666663e-01 9.8576408370293373e-03
    -4.9548862957279677e-01 1.3016454478746161e-02
    -3.3511112371964275e-01 9.7688730383512883e-03
    -5.0300303000356872e-01 8.4257198414582849e-03
    -6.8175415832568709e-01 7.9923164091804440e-03
    -8.2305489175310143e-01 7.8609638300936487e-03
    -9.3481221316041530e-01 7.8609638300936487e-03
    -1.0697335635134650e+00 7.9500679945191215e-03
    -1.1793237883215746e+00 8.0247397326142934e-03
    -1.2395908058120060e+00 8.1438430037657512e-03
    -1.3178930553209383e+00 8.2705367656811211e-03
    -1.3890923168705287e+00 8.4257198414582849e-03
    -1.4668044012461754e+00 8.3922071804473190e-03
    -1.4506817748701124e+00 8.6138949220476851e-03
    -1.5523646690046033e+00 8.2166509885505789e-03
    -1.3598952417348733e+00 8.6996947479236735e-03
    -1.5891581824392307e+00 8.3599692564550916e-03
    -1.4348601079588787e+00 8.3922071804473190e-03
    -1.4506817748701124e+00 8.2430408509080472e-03
    -1.3743685418725533e+00 8.2705367656811211e-03
    -1.3890923168705287e+00 8.3599692564550916e-03
    -1.4348601079588787e+00 8.2991686731248918e-03
    -1.4040757000349278e+00 8.1913389212188905e-03
    -1.3456637064329302e+00 8.2991686731248918e-03
    -1.4040757000349278e+00 8.2991686731248918e-03
    -1.4040757000349278e+00 8.2430408509080472e-03
    -1.3743685418725533e+00 8.4967320261437902e-03
    -1.5000000000000000e+00 8.6138949220476851e-03
    -1.5523646690046033e+00 8.2166509885505789e-03
    -1.3598952417348733e+00 8.4257198414582849e-03
    -1.4668044012461754e+00 8.1913389212188905e-03
    -1.3456637064329302e+00 7.9773957221792140e-03
    -1.2029375808949569e+00 8.0247397326142934e-03
    -1.2395908058120060e+00 8.0247397326142934e-03
    -1.2395908058120060e+00 8.0080928850316657e-03
    -1.2272017341845403e+00 7.8796477271395292e-03
    -1.1012565357112793e+00 7.8664452921850779e-03
    -1.0801234497346435e+00 7.8434998511091262e-03
    -1.0096620601608022e+00 7.9376362934116072e-03
    -8.5634883857767530e-01 8.3922071804473190e-03
    -6.8933105614395407e-01 9.5240813316107339e-03
    -5.2542708307804409e-01 1.5651583111989602e-02
    -2.6863534475866768e-01 1.0482529198715810e-02
    -4.4979121681989714e-01 8.7921938138543747e-03
    -6.1439681290564108e-01 8.0080928850316639e-03
    -8.1486195149853446e-01 7.9051393047681520e-03
    -8.8191710368819698e-01 7.8489448360419718e-03
    -1.0392304845413265e+00 7.8562224869666297e-03
    -1.0594569267279517e+00 8.0080928850316657e-03
    -1.2272017341845403e+00 8.1913389212188905e-03
    -1.3456637064329302e+00 8.3289682974530144e-03
    -1.4193282754962600e+00 8.2166509885505789e-03
    -1.3598952417348733e+00 8.3922071804473190e-03
    -1.4506817748701124e+00 8.3599692564550916e-03
    -1.4348601079588787e+00 8.3922071804473190e-03
    -1.4506817748701124e+00 8.2991686731248918e-03
    -1.4040757000349278e+00 8.4605472936563706e-03
    -1.4832396974191324e+00 8.3289682974530144e-03
    -1.4193282754962600e+00 8.3289682974530144e-03
    -1.4193282754962600e+00 8.4257198414582849e-03
    -1.4668044012461754e+00 8.3599692564550916e-03
    -1.4348601079588787e+00 8.4605472936563706e-03
    -1.4832396974191324e+00 8.2991686731248918e-03
    -1.4040757000349278e+00 8.2166509885505789e-03
    -1.3598952417348733e+00 8.3599692564550916e-03
    -1.4348601079588787e+00 8.4257198414582849e-03
    -1.4668044012461754e+00 8.2705367656811211e-03
    -1.3890923168705287e+00 8.4967320261437902e-03
    -1.5000000000000000e+00 8.3922071804473190e-03
    -1.4506817748701124e+00 8.2705367656811211e-03
    -1.3890923168705287e+00 8.2166509885505789e-03
    -1.3598952417348733e+00 8.1438430037657512e-03
    -1.3178930553209383e+00 7.9376362934116072e-03
    -1.1677484162422844e+00 8.0080928850316657e-03
    -1.2272017341845403e+00 7.9773957221792140e-03
    -1.2029375808949569e+00 7.8726714993644781e-03
    -1.0906299483374395e+00 7.8434998511091262e-03
    -9.9043040187202502e-01 7.8562224869666297e-03
    -9.4387980744853883e-01 8.0080928850316639e-03
    -8.1486195149853446e-01 8.4605472936563706e-03
    -6.7419986246324204e-01 1.0047256709338800e-02
    -4.8038446141526142e-01 1.7522404386365431e-02
    -2.3629973222959152e-01 1.0254730168116377e-02
    -4.6516047661624044e-01 8.7450747939710333e-03
    -6.2182527020592104e-01 8.3289682974530162e-03
    -7.0455864035425875e-01 7.9633171706661003e-03
    -8.3959396900340177e-01 7.8445879415424812e-03
    -9.8095063634384583e-01 7.8873799129335394e-03
    -1.1120068074364233e+00 8.0422725036405959e-03
    -1.2521586299538494e+00 8.0080928850316657e-03
    -1.2272017341845403e+00 8.2166509885505789e-03
    -1.3598952417348733e+00 8.1438430037657512e-03
    -1.3178930553209383e+00 8.3289682974530144e-03
    -1.4193282754962600e+00 8.2991686731248918e-03
    -1.4040757000349278e+00 8.3922071804473190e-03
    -1.4506817748701124e+00 8.5733564766235677e-03
    -1.5345483731956511e+00 8.8919312127377480e-03
    -1.6678783474277079e+00 8.4605472936563706e-03
    -1.4832396974191324e+00 8.5733564766235677e-03
    -1.5345483731956511e+00 8.4257198414582849e-03
    -1.4668044012461754e+00 8.3289682974530144e-03
    -1.4193282754962600e+00 8.4967320261437902e-03
    -1.5000000000000000e+00 8.3599692564550916e-03
    -1.4348601079588787e+00 8.4605472936563706e-03
    -1.4832396974191324e+00 8.2430408509080472e-03
    -1.3743685418725533e+00 8.2430408509080472e-03
    -1.3743685418725533e+00 8.1003573254011339e-03
    -1.2909944487358056e+00 8.4967320261437902e-03
    -1.5000000000000000e+00 8.5343191293767093e-03
    -1.5170983163879990e+00 8.0800631258742261e-03
    -1.2778542140655416e+00 8.0800631258742261e-03
    -1.2778542140655416e+00 7.9376362934116072e-03
    -1.1677484162422844e+00 7.9500679945191215e-03
    -1.1793237883215746e+00 8.0080928850316657e-03
    -1.2272017341845403e+00 7.9500679945191215e-03
    -1.1793237883215746e+00 7.8522172751401831e-03
    -1.0492902844351988e+00 7.8796477271395292e-03
    -1.1012565357112793e+00 7.8522172751401831e-03
    -9.5302512072554768e-01 7.9500679945191197e-03
    -8.4794355028080126e-01 8.4605472936563706e-03
    -6.7419986246324204e-01 1.0047256709338800e-02
    -4.8038446141526142e-01 1.6819167505804224e-02
    -2.4743582965269675e-01 1.1668149501693845e-02
    -3.8622696788058714e-01 9.1156625602332036e-03
    -5.6994803651842696e-01 8.5733564766235677e-03
    -6.5165752834335866e-01 8.0800631258742261e-03
    -7.8256188303238594e-01 7.9500679945191197e-03
    -8.4794355028080126e-01 7.8796477271395292e-03
    -1.1012565357112793e+00 8.0247397326142934e-03
    -1.2395908058120060e+00 8.1913389212188905e-03
    -1.3456637064329302e+00 8.1003573254011339e-03
    -1.2909944487358056e+00 8.4605472936563706e-03
    -1.4832396974191324e+00 8.7450747939710333e-03
    -1.6081688022566925e+00 8.7450747939710333e-03
    -1.6081688022566925e+00 8.5343191293767093e-03
    -1.5170983163879990e+00 8.5343191293767093e-03
    -1.5170983163879990e+00 8.5733564766235677e-03
    -1.5345483731956511e+00 8.6996947479236735e-03
    -1.5891581824392307e+00 8.6138949220476851e-03
    -1.5523646690046033e+00 8.6996947479236735e-03
    -1.5891581824392307e+00 8.4605472936563706e-03
    -1.4832396974191324e+00 8.2430408509080472e-03
    -1.3743685418725533e+00 8.1913389212188905e-03
    -1.3456637064329302e+00 8.3599692564550916e-03
    -1.4348601079588787e+00 8.1003573254011339e-03
    -1.2909944487358056e+00 8.1438430037657512e-03
    -1.3178930553209383e+00 8.1670779810922231e-03
    -1.3316656236958786e+00 8.1003573254011339e-03
    -1.2909944487358056e+00 8.0800631258742261e-03
    -1.2778542140655416e+00 8.0422725036405959e-03
    -1.2521586299538494e+00 8.1003573254011339e-03
    -1.2909944487358056e+00 7.9923164091804458e-03
    -1.2149857925879120e+00 7.9633171706661003e-03
    -1.1910519095164536e+00 8.0247397326142934e-03
    -1.2395908058120060e+00 7.9773957221792140e-03
    -1.2029375808949569e+00 7.9376362934116072e-03
    -1.1677484162422844e+00 7.8434998511091262e-03
    -1.0096620601608022e+00 7.8796477271395292e-03
    -9.0805363470930056e-01 7.9923164091804440e-03
    -8.2305489175310143e-01 8.7921938138543747e-03
    -6.1439681290564108e-01 9.9503536849654371e-03
    -4.8795003647426666e-01 1.9274155639442334e-02
    -2.1266436150250076e-01 1.2274636000901959e-02
    -3.6115755925730764e-01 9.5240813316107339e-03
    -5.2542708307804409e-01 8.4967320261437902e-03
    -6.6666666666666663e-01 8.0422725036405941e-03
    -7.9862085847450226e-01 7.9151818317537946e-03
    -8.7333376460937306e-01 7.8664452921850779e-03
    -9.2582009977255153e-01 7.9151818317537929e-03
    -1.1450376024878444e+00 7.9923164091804458e-03
    -1.2149857925879120e+00 8.1216102486513491e-03
    -1.3043384151740305e+00 8.1670779810922231e-03
    -1.3316656236958786e+00 8.2705367656811211e-03
    -1.3890923168705287e+00 8.3922071804473190e-03
    -1.4506817748701124e+00 8.3289682974530144e-03
    -1.4193282754962600e+00 8.7450747939710333e-03
    -1.6081688022566925e+00 8.7450747939710333e-03
    -1.6081688022566925e+00 8.2991686731248918e-03
    -1.4040757000349278e+00 8.4605472936563706e-03
    -1.4832396974191324e+00 8.4605472936563706e-03
    -1.4832396974191324e+00 8.5343191293767093e-03
    -1.5170983163879990e+00 8.4257198414582849e-03
    -1.4668044012461754e+00 8.3599692564550916e-03
    -1.4348601079588787e+00 8.2430408509080472e-03
    -1.3743685418725533e+00 8.2166509885505789e-03
    -1.3598952417348733e+00 8.1216102486513491e-03
    -1.3043384151740305e+00 8.1913389212188905e-03
    -1.3456637064329302e+00 8.1216102486513491e-03
    -1.3043384151740305e+00 8.2991686731248918e-03
    -1.4040757000349278e+00 8.2166509885505789e-03
    -1.3598952417348733e+00 8.1216102486513491e-03
    -1.3043384151740305e+00 8.0422725036405959e-03
    -1.2521586299538494e+00 8.0800631258742261e-03
    -1.2778542140655416e+00 7.9633171706661003e-03
    -1.1910519095164536e+00 7.8562224869666297e-03
    -1.0594569267279517e+00 7.8726714993644781e-03
    -1.0906299483374395e+00 7.8522172751401831e-03
    -9.5302512072554768e-01 7.8873799129335394e-03
    -8.9927507036162935e-01 8.1913389212188888e-03
    -7.4312771847788661e-01 8.8411212578929886e-03
    -6.0697697866688405e-01 1.0254730168116377e-02
    -4.6516047661624044e-01 1.5159988452742390e-02
    -2.7878344149874829e-01 1.2504702743322927e-02
    -3.5259654610379310e-01 9.7688730383512883e-03
    -5.0300303000356872e-01 9.1771875840240390e-03
    -5.6254395046301198e-01 8.1670779810922231e-03
    -7.5093926148263834e-01 8.0422725036405941e-03
    -7.9862085847450226e-01 7.8958746702829496e-03
    -8.9056355656172115e-01 7.8434998511091262e-03
    -9.9043040187202502e-01 7.9260109960244476e-03
    -1.1563211715113551e+00 7.9923164091804458e-03
    -1.2149857925879120e+00 8.1670779810922231e-03
    -1.3316656236958786e+00 8.0422725036405959e-03
    -1.2521586299538494e+00 8.0422725036405959e-03
    -1.2521586299538494e+00 8.1438430037657512e-03
    -1.3178930553209383e+00 8.4257198414582849e-03
    -1.4668044012461754e+00 8.2991686731248918e-03
    -1.4040757000349278e+00 8.3289682974530144e-03
    -1.4193282754962600e+00 8.2991686731248918e-03
    -1.4040757000349278e+00 8.3289682974530144e-03
    -1.4193282754962600e+00 8.1003573254011339e-03
    -1.2909944487358056e+00 8.2166509885505789e-03
    -1.3598952417348733e+00 8.2705367656811211e-03
    -1.3890923168705287e+00 8.1913389212188905e-03
    -1.3456637064329302e+00 8.2166509885505789e-03
    -1.3598952417348733e+00 8.2166509885505789e-03
    -1.3598952417348733e+00 8.1913389212188905e-03
    -1.3456637064329302e+00 8.2991686731248918e-03
    -1.4040757000349278e+00 8.1438430037657512e-03
    -1.3178930553209383e+00 7.9923164091804458e-03
    -1.2149857925879120e+00 8.0607077612135161e-03
    -1.2649110640673518e+00 8.0607077612135161e-03
    -1.2649110640673518e+00 8.0422725036405959e-03
    -1.2521586299538494e+00 7.9923164091804458e-03
    -1.2149857925879120e+00 7.8796477271395292e-03
    -1.1012565357112793e+00 7.8445879415424812e-03
    -1.0194192887494868e+00 7.8664452921850779e-03
    -9.2582009977255153e-01 8.0080928850316639e-03
    -8.1486195149853446e-01 8.4967320261437902e-03
    -6.6666666666666663e-01 9.2411613349789347e-03
    -5.5513611000270091e-01 1.2504702743322927e-02
    -3.5259654610379310e-01 1.3947940995667455e-02
    -3.0779350562554625e-01 1.2751325793332380e-02
    -3.4391796971439736e-01 1.0148617762062296e-02
    -4.7278897170376749e-01 9.4490191991005567e-03
    -5.3287016925696884e-01 8.6138949220476834e-03
    -6.4417853611755627e-01 8.1216102486513491e-03
    -7.6667219823206367e-01 7.9051393047681520e-03
    -8.8191710368819698e-01 7.8489448360419701e-03
    -9.6225044864937614e-01 7.8609638300936487e-03
    -1.0697335635134650e+00 7.9051393047681520e-03
    -1.1338934190276817e+00 7.9260109960244476e-03
    -1.1563211715113551e+00 8.0247397326142934e-03
    -1.2395908058120060e+00 8.2705367656811211e-03
    -1.3890923168705287e+00 8.4257198414582849e-03
    -1.4668044012461754e+00 8.4605472936563706e-03
    -1.4832396974191324e+00 8.5343191293767093e-03
    -1.5170983163879990e+00 8.3289682974530144e-03
    -1.4193282754962600e+00 8.2430408509080472e-03
    -1.3743685418725533e+00 8.2430408509080472e-03
    -1.3743685418725533e+00 8.1438430037657512e-03
    -1.3178930553209383e+00 8.1216102486513491e-03
    -1.3043384151740305e+00 8.0800631258742261e-03
    -1.2778542140655416e+00 8.1913389212188905e-03
    -1.3456637064329302e+00 8.1438430037657512e-03
    -1.3178930553209383e+00 8.3922071804473190e-03
    -1.4506817748701124e+00 8.2705367656811211e-03
    -1.3890923168705287e+00 8.1216102486513491e-03
    -1.3043384151740305e+00 8.1438430037657512e-03
    -1.3178930553209383e+00 8.1003573254011339e-03
    -1.2909944487358056e+00 7.9633171706661003e-03
    -1.1910519095164536e+00 8.0607077612135161e-03
    -1.2649110640673518e+00 8.0247397326142934e-03
    -1.2395908058120060e+00 7.8958746702829496e-03
    -1.1228844843604309e+00 7.8609638300936487e-03
    -1.0697335635134650e+00 7.8562224869666297e-03
    -9.4387980744853883e-01 7.9773957221792157e-03
    -8.3129832826074279e-01 8.1913389212188888e-03
    -7.4312771847788661e-01 8.4605472936563706e-03
    -6.7419986246324204e-01 9.1771875840240390e-03
    -5.6254395046301198e-01 1.2751325793332380e-02
    -3.4391796971439736e-01 1.9274155639442334e-02
    -2.1266436150250076e-01 1.3611796635153705e-02
    -3.1706324373711392e-01 1.0604960905726227e-02
    -4.4204332236849225e-01 9.4490191991005567e-03
    -5.3287016925696884e-01 8.9995205013518563e-03
    -5.8475249796043427e-01 8.3289682974530162e-03
    -7.0455864035425875e-01 7.9151818317537946e-03
    -8.7333376460937306e-01 7.8464024323357320e-03
    -9.7155814733080181e-01 7.8445879415424812e-03
    -1.0194192887494868e+00 7.8522172751401831e-03
    -1.0492902844351988e+00 8.0422725036405959e-03
    -1.2521586299538494e+00 8.0080928850316657e-03
    -1.2272017341845403e+00 8.0607077612135161e-03
    -1.2649110640673518e+00 8.3922071804473190e-03
    -1.4506817748701124e+00 8.1438430037657512e-03
    -1.3178930553209383e+00 8.3289682974530144e-03
    -1.4193282754962600e+00 8.2705367656811211e-03
    -1.3890923168705287e+00 8.1216102486513491e-03
    -1.3043384151740305e+00 8.0607077612135161e-03
    -1.2649110640673518e+00 8.0607077612135161e-03
    -1.2649110640673518e+00 7.9376362934116072e-03
    -1.1677484162422844e+00 8.1003573254011339e-03
    -1.2909944487358056e+00 8.0422725036405959e-03
    -1.2521586299538494e+00 8.1003573254011339e-03
    -1.2909944487358056e+00 8.1003573254011339e-03
    -1.2909944487358056e+00 8.1216102486513491e-03
    -1.3043384151740305e+00 8.0800631258742261e-03
    -1.2778542140655416e+00 8.0607077612135161e-03
    -1.2649110640673518e+00 7.9923164091804458e-03
    -1.2149857925879120e+00 7.9500679945191215e-03
    -1.1793237883215746e+00 7.9633171706661003e-03
    -1.1910519095164536e+00 7.8609638300936487e-03
    -1.0697335635134650e+00 7.8609638300936487e-03
    -1.0697335635134650e+00 7.8562224869666297e-03
    -9.4387980744853883e-01 7.9633171706661003e-03
    -8.3959396900340177e-01 8.0607077612135179e-03
    -7.9056941504209499e-01 8.3599692564550899e-03
    -6.9693205243716949e-01 8.4967320261437902e-03
    -6.6666666666666663e-01 1.0047256709338800e-02
    -4.8038446141526142e-01 1.2504702743322927e-02
    -3.5259654610379310e-01 1.6819167505804224e-02
    -2.4743582965269675e-01 1.3611796635153705e-02
    -3.1706324373711392e-01 1.2059452890866757e-02
    -3.6961063547728640e-01 9.9503536849654371e-03
    -4.8795003647426666e-01 9.1156625602332036e-03
    -5.6994803651842696e-01 8.5343191293767093e-03
    -6.5915306160306164e-01 8.2991686731248918e-03
    -7.1221231161191978e-01 7.9773957221792157e-03
    -8.3129832826074279e-01 7.9633171706661003e-03
    -8.3959396900340177e-01 7.8489448360419718e-03
    -1.0392304845413265e+00 7.8664452921850779e-03
    -1.0801234497346435e+00 7.8445879415424812e-03
    -1.0194192887494868e+00 7.8873799129335394e-03
    -1.1120068074364233e+00 8.0607077612135161e-03
    -1.2649110640673518e+00 8.3922071804473190e-03
    -1.4506817748701124e+00 8.3922071804473190e-03
    -1.4506817748701124e+00 8.2991686731248918e-03
    -1.4040757000349278e+00 8.2705367656811211e-03
    -1.3890923168705287e+00 8.0080928850316657e-03
    -1.2272017341845403e+00 7.9633171706661003e-03
    -1.1910519095164536e+00 7.9773957221792140e-03
    -1.2029375808949569e+00 8.1003573254011339e-03
    -1.2909944487358056e+00 7.9773957221792140e-03
    -1.2029375808949569e+00 7.9260109960244476e-03
    -1.1563211715113551e+00 7.9051393047681520e-03
    -1.1338934190276817e+00 8.0080928850316657e-03
    -1.2272017341845403e+00 8.0080928850316657e-03
    -1.2272017341845403e+00 7.8562224869666297e-03
    -1.0594569267279517e+00 7.9376362934116072e-03
    -1.1677484162422844e+00 7.8958746702829496e-03
    -1.1228844843604309e+00 8.1216102486513491e-03
    -1.3043384151740305e+00 7.8664452921850779e-03
    -1.0801234497346435e+00 7.8464024323357303e-03
    -1.0292744729148096e+00 7.8562224869666297e-03
    -9.4387980744853883e-01 8.0247397326142951e-03
    -8.0671782600463904e-01 8.2430408509080490e-03
    -7.2760687510899902e-01 8.5343191293767093e-03
    -6.5915306160306164e-01 9.0564748108176597e-03
    -5.7735026918962584e-01 1.1162270069884947e-02
    -4.1053541362798002e-01 1.4314692072252238e-02
    -2.9833745256352617e-01 1.9274155639442334e-02
    -2.1266436150250076e-01 1.4314692072252238e-02
    -2.9833745256352617e-01 1.2751325793332380e-02
    -3.4391796971439736e-01 1.0733643337382897e-02
    -4.3424811867344748e-01 9.3077035915910579e-03
    -5.4772255750516607e-01 9.1156625602332036e-03
    -5.6994803651842696e-01 8.7921938138543747e-03
    -6.1439681290564108e-01 8.4967320261437902e-03
    -6.6666666666666663e-01 8.0607077612135179e-03
    -7.9056941504209499e-01 7.9151818317537946e-03
    -8.7333376460937306e-01 7.9260109960244476e-03
    -8.6481163247487902e-01 7.9260109960244476e-03
    -8.6481163247487902e-01 7.8522172751401831e-03
    -1.0492902844351988e+00 7.8562224869666297e-03
    -1.0594569267279517e+00 7.9633171706661003e-03
    -1.1910519095164536e+00 8.2166509885505789e-03
    -1.3598952417348733e+00 8.2430408509080472e-03
    -1.3743685418725533e+00 8.2166509885505789e-03
    -1.3598952417348733e+00 8.0422725036405959e-03
    -1.2521586299538494e+00 8.0607077612135161e-03
    -1.2649110640673518e+00 7.9923164091804458e-03
    -1.2149857925879120e+00 8.0607077612135161e-03
    -1.2649110640673518e+00 8.1003573254011339e-03
    -1.2909944487358056e+00 7.9376362934116072e-03
    -1.1677484162422844e+00 7.8726714993644781e-03
    -1.0906299483374395e+00 7.9500679945191215e-03
    -1.1793237883215746e+00 7.8873799129335394e-03
    -1.1120068074364233e+00 7.9260109960244476e-03
    -1.1563211715113551e+00 7.9151818317537929e-03
    -1.1450376024878444e+00 7.9260109960244476e-03
    -1.1563211715113551e+00 7.8796477271395292e-03
    -1.1012565357112793e+00 7.8434998511091262e-03
    -1.0096620601608022e+00 7.8445879415424812e-03
    -9.8095063634384583e-01 7.9633171706661003e-03
    -8.3959396900340177e-01 8.0800631258742261e-03
    -7.8256188303238594e-01 8.4967320261437902e-03
    -6.6666666666666663e-01 9.3769432481323450e-03
    -5.4030127321570265e-01 9.8576408370293373e-03
    -4.9548862957279677e-01 1.3016454478746161e-02
    -3.3511112371964275e-01 1.4716771567578694e-02
    -2.8867513459481287e-01 2.0392156862745096e-02
    -1.9999999999999998e-01 1.6200714650802268e-02
    -2.5819888974716115e-01 1.3016454478746161e-02
    -3.3511112371964275e-01 9.9503536849654371e-03
    -4.8795003647426666e-01 9.6838254925237233e-03
    -5.1049589675732032e-01 9.4490191991005567e-03
    -5.3287016925696884e-01 8.9447027811524159e-03
    -5.9215652546379216e-01 8.9995205013518563e-03
    -5.8475249796043427e-01 8.2705367656811194e-03
    -7.1989455837815697e-01 8.0800631258742261e-03
    -7.8256188303238594e-01 8.1216102486513491e-03
    -7.6667219823206367e-01 7.9773957221792157e-03
    -8.3129832826074279e-01 7.9051393047681520e-03
    -8.8191710368819698e-01 7.8434998511091262e-03
    -1.0096620601608022e+00 7.8609638300936487e-03
    -1.0697335635134650e+00 7.8796477271395292e-03
    -1.1012565357112793e+00 7.9151818317537929e-03
    -1.1450376024878444e+00 7.8726714993644781e-03
    -1.0906299483374395e+00 7.8796477271395292e-03
    -1.1012565357112793e+00 7.9500679945191215e-03
    -1.1793237883215746e+00 7.9923164091804458e-03
    -1.2149857925879120e+00 7.9923164091804458e-03
    -1.2149857925879120e+00 7.9773957221792140e-03
    -1.2029375808949569e+00 7.9633171706661003e-03
    -1.1910519095164536e+00 7.8796477271395292e-03
    -1.1012565357112793e+00 7.8464024323357303e-03
    -1.0292744729148096e+00 7.8445879415424812e-03
    -9.8095063634384583e-01 7.9051393047681520e-03
    -1.1338934190276817e+00 7.8489448360419718e-03
    -1.0392304845413265e+00 7.8445879415424812e-03
    -1.0194192887494868e+00 7.8522172751401831e-03
    -9.5302512072554768e-01 7.9260109960244476e-03
    -8.6481163247487902e-01 8.1670779810922231e-03
    -7.5093926148263834e-01 8.1913389212188888e-03
    -7.4312771847788661e-01 8.3599692564550899e-03
    -6.9693205243716949e-01 9.0564748108176597e-03
    -5.7735026918962584e-01 9.3077035915910579e-03
    -5.4772255750516607e-01 1.1162270069884947e-02
    -4.1053541362798002e-01 1.3611796635153705e-02
    -3.1706324373711392e-01 1.6200714650802268e-02
    -2.5819888974716115e-01 2.1745835870341842e-02
    -1.8661690879115478e-01 1.9274155639442334e-02
    -2.1266436150250076e-01 1.2751325793332380e-02
    -3.4391796971439736e-01 1.0482529198715810e-02
    -4.4979121681989714e-01 9.9503536849654371e-03
    -4.8795003647426666e-01 9.9503536849654371e-03
    -4.8795003647426666e-01 9.4490191991005567e-03
    -5.3287016925696884e-01 9.2411613349789347e-03
    -5.5513611000270091e-01 8.6559885171986119e-03
    -6.3671453996701333e-01 8.6138949220476834e-03
    -6.4417853611755627e-01 8.3599692564550899e-03
    -6.9693205243716949e-01 8.1913389212188888e-03
    -7.4312771847788661e-01 7.9500679945191197e-03
    -8.4794355028080126e-01 7.8562224869666297e-03
    -9.4387980744853883e-01 7.9151818317537946e-03
    -8.7333376460937306e-01 7.9151818317537946e-03
    -8.7333376460937306e-01 7.8664452921850779e-03
    -1.0801234497346435e+00 7.8562224869666297e-03
    -1.0594569267279517e+00 7.8609638300936487e-03
    -1.0697335635134650e+00 7.8562224869666297e-03
    -1.0594569267279517e+00 7.8609638300936487e-03
    -1.0697335635134650e+00 7.9260109960244476e-03
    -1.1563211715113551e+00 7.9260109960244476e-03
    -1.1563211715113551e+00 7.8609638300936487e-03
    -1.0697335635134650e+00 7.8522172751401831e-03
    -1.0492902844351988e+00 7.8609638300936487e-03
    -1.0697335635134650e+00 7.8445879415424812e-03
    -1.0194192887494868e+00 7.8562224869666297e-03
    -1.0594569267279517e+00 7.8522172751401831e-03
    -9.5302512072554768e-01 7.9500679945191197e-03
    -8.4794355028080126e-01 8.1438430037657512e-03
    -7.5878691063932813e-01 8.2705367656811194e-03
    -7.1989455837815697e-01 8.2991686731248918e-03
    -7.1221231161191978e-01 8.4257198414582849e-03
    -6.8175415832568709e-01 8.8411212578929886e-03
    -6.0697697866688405e-01 9.3769432481323450e-03
    -5.4030127321570265e-01 9.5240813316107339e-03
    -5.2542708307804409e-01 1.1668149501693845e-02
    -3.8622696788058714e-01 1.4314692072252238e-02
    -2.9833745256352617e-01 1.5651583111989602e-02
    -2.6863534475866768e-01 2.5602957388130124e-02
    -1.5694120514358612e-01 2.0392156862745096e-02
    -1.9999999999999998e-01 1.3302376391678038e-02
    -3.2616403652672116e-01 1.2059452890866757e-02
    -3.6961063547728640e-01 1.1162270069884947e-02
    -4.1053541362798002e-01 1.0482529198715810e-02
    -4.4979121681989714e-01 1.0148617762062296e-02
    -4.7278897170376749e-01 9.6838254925237233e-03
    -5.1049589675732032e-01 9.3769432481323450e-03
    -5.4030127321570265e-01 9.5240813316107339e-03
    -5.2542708307804409e-01 9.2411613349789347e-03
    -5.5513611000270091e-01 8.2991686731248918e-03
    -7.1221231161191978e-01 8.3289682974530162e-03
    -7.0455864035425875e-01 8.1670779810922231e-03
    -7.5093926148263834e-01 8.1438430037657512e-03
    -7.5878691063932813e-01 7.9260109960244476e-03
    -8.6481163247487902e-01 7.8522172751401831e-03
    -9.5302512072554768e-01 7.8609638300936487e-03
    -1.0697335635134650e+00 7.8445879415424812e-03
    -1.0194192887494868e+00 7.8522172751401831e-03
    -1.0492902844351988e+00 7.8464024323357303e-03
    -1.0292744729148096e+00 7.8522172751401831e-03
    -1.0492902844351988e+00 7.8434998511091262e-03
    -1.0096620601608022e+00 7.8434998511091262e-03
    -1.0096620601608022e+00 7.8796477271395292e-03
    -9.0805363470930056e-01 7.8726714993644781e-03
    -9.1690128400050241e-01 7.9151818317537946e-03
    -8.7333376460937306e-01 7.9500679945191197e-03
    -8.4794355028080126e-01 7.9633171706661003e-03
    -8.3959396900340177e-01 8.0422725036405941e-03
    -7.9862085847450226e-01 8.3599692564550899e-03
    -6.9693205243716949e-01 8.3599692564550899e-03
    -6.9693205243716949e-01 8.4257198414582849e-03
    -6.8175415832568709e-01 8.6559885171986119e-03
    -6.3671453996701333e-01 9.3769432481323450e-03
    -5.4030127321570265e-01 9.8576408370293373e-03
    -4.9548862957279677e-01 1.0604960905726227e-02
    -4.4204332236849225e-01 1.3947940995667455e-02
    -3.0779350562554625e-01 1.4716771567578694e-02
    -2.8867513459481287e-01 1.7522404386365431e-02
    -2.3629973222959152e-01 3.2891645179895380e-02
    -1.2097167578182676e-01 1.6819167505804224e-02
    -2.4743582965269675e-01 1.5651583111989602e-02
    -2.6863534475866768e-01 1.4314692072252238e-02
    -2.9833745256352617e-01 1.2504702743322927e-02
    -3.5259654610379310e-01 1.1162270069884947e-02
    -4.1053541362798002e-01 1.0869056127933079e-02
    -4.2640143271122083e-01 1.1489678757093559e-02
    -3.9440531887330782e-01 1.0254730168116377e-02
    -4.6516047661624044e-01 9.8576408370293373e-03
    -4.9548862957279677e-01 1.0365915891889467e-02
    -4.5749571099781400e-01 9.3077035915910579e-03
    -5.4772255750516607e-01 8.4967320261437902e-03
    -6.6666666666666663e-01 8.3599692564550899e-03
    -6.9693205243716949e-01 8.2166509885505806e-03
    -7.3535076034552427e-01 7.9923164091804440e-03
    -8.2305489175310143e-01 7.9500679945191197e-03
    -8.4794355028080126e-01 7.9260109960244476e-03
    -8.6481163247487902e-01 7.8445879415424812e-03
    -9.8095063634384583e-01 7.8489448360419701e-03
    -9.6225044864937614e-01 7.8434998511091262e-03
    -9.9043040187202502e-01 7.8522172751401831e-03
    -9.5302512072554768e-01 7.8958746702829496e-03
    -8.9056355656172115e-01 7.8958746702829496e-03
    -8.9056355656172115e-01 7.8726714993644781e-03
    -9.1690128400050241e-01 7.9633171706661003e-03
    -8.3959396900340177e-01 7.9633171706661003e-03
    -8.3959396900340177e-01 8.2430408509080490e-03
    -7.2760687510899902e-01 8.4605472936563706e-03
    -6.7419986246324204e-01 8.4605472936563706e-03
    -6.7419986246324204e-01 8.3922071804473190e-03
    -6.8933105614395407e-01 8.7921938138543747e-03
    -6.1439681290564108e-01 9.1156625602332036e-03
    -5.6994803651842696e-01 9.6022916416065012e-03
    -5.1796977028281221e-01 1.0047256709338800e-02
    -4.8038446141526142e-01 9.8576408370293373e-03
    -4.9548862957279677e-01 1.1321334965217689e-02
    -4.0250611571050388e-01 1.2751325793332380e-02
    -3.4391796971439736e-01 1.5651583111989602e-02
    -2.6863534475866768e-01 1.8331185802922138e-02
    -2.2473328748774737e-01 3.2891645179895380e-02
    -1.2097167578182676e-01 2.5602957388130124e-02
    -1.5694120514358612e-01 1.9274155639442334e-02
    -2.1266436150250076e-01 1.6200714650802268e-02
    -2.5819888974716115e-01 1.4716771567578694e-02
    -2.8867513459481287e-01 1.3302376391678038e-02
    -3.2616403652672116e-01 1.2274636000901959e-02
    -3.6115755925730764e-01 1.2504702743322927e-02
    -3.5259654610379310e-01 1.2059452890866757e-02
    -3.6961063547728640e-01 1.0733643337382897e-02
    -4.3424811867344748e-01 1.0604960905726227e-02
    -4.4204332236849225e-01 1.1011733047195351e-02
    -4.1849879681768870e-01 1.0604960905726227e-02
    -4.4204332236849225e-01 9.2411613349789347e-03
    -5.5513611000270091e-01 8.8411212578929886e-03
    -6.0697697866688405e-01 8.3289682974530162e-03
    -7.0455864035425875e-01 8.1438430037657512e-03
    -7.5878691063932813e-01 8.0800631258742261e-03
    -7.8256188303238594e-01 8.0080928850316639e-03
    -8.1486195149853446e-01 7.8873799129335394e-03
    -8.9927507036162935e-01 7.8873799129335394e-03
    -8.9927507036162935e-01 7.8873799129335394e-03
    -8.9927507036162935e-01 7.9773957221792157e-03
    -8.3129832826074279e-01 7.8873799129335394e-03
    -8.9927507036162935e-01 8.0080928850316639e-03
    -8.1486195149853446e-01 7.9923164091804440e-03
    -8.2305489175310143e-01 8.3289682974530162e-03
    -7.0455864035425875e-01 8.4967320261437902e-03
    -6.6666666666666663e-01 8.6138949220476834e-03
    -6.4417853611755627e-01 8.5733564766235677e-03
    -6.5165752834335866e-01 8.9447027811524159e-03
    -5.9215652546379216e-01 9.1771875840240390e-03
    -5.6254395046301198e-01 1.0365915891889467e-02
    -4.5749571099781400e-01 1.0482529198715810e-02
    -4.4979121681989714e-01 1.0148617762062296e-02
    -4.7278897170376749e-01 1.0733643337382897e-02
    -4.3424811867344748e-01 1.2504702743322927e-02
    -3.5259654610379310e-01 1.3611796635153705e-02
    -3.1706324373711392e-01 1.7522404386365431e-02
    -2.3629973222959152e-01 2.5602957388130124e-02
    -1.5694120514358612e-01 3.2891645179895380e-02
    -1.2097167578182676e-01 2.8554731125277063e-02
    -1.4002800840280100e-01 2.3429976047305220e-02
    -1.7234549688642783e-01 1.9274155639442334e-02
    -2.1266436150250076e-01 1.6819167505804224e-02
    -2.4743582965269675e-01 1.6200714650802268e-02
    -2.5819888974716115e-01 1.4314692072252238e-02
    -2.9833745256352617e-01 1.3302376391678038e-02
    -3.2616403652672116e-01 1.3302376391678038e-02
    -3.2616403652672116e-01 1.3302376391678038e-02
    -3.2616403652672116e-01 1.2274636000901959e-02
    -3.6115755925730764e-01 1.2504702743322927e-02
    -3.5259654610379310e-01 1.1668149501693845e-02
    -3.8622696788058714e-01 1.1162270069884947e-02
    -4.1053541362798002e-01 1.0733643337382897e-02
    -4.3424811867344748e-01 9.3077035915910579e-03
    -5.4772255750516607e-01 8.7450747939710333e-03
    -6.2182527020592104e-01 8.2705367656811194e-03
    -7.1989455837815697e-01 8.2166509885505806e-03
    -7.3535076034552427e-01 8.0422725036405941e-03
    -7.9862085847450226e-01 8.0247397326142951e-03
    -8.0671782600463904e-01 8.0247397326142951e-03
    -8.0671782600463904e-01 8.1438430037657512e-03
    -7.5878691063932813e-01 8.2166509885505806e-03
    -7.3535076034552427e-01 8.2166509885505806e-03
    -7.3535076034552427e-01 8.2991686731248918e-03
    -7.1221231161191978e-01 8.5733564766235677e-03
    -6.5165752834335866e-01 9.1771875840240390e-03
    -5.6254395046301198e-01 9.6838254925237233e-03
    -5.1049589675732032e-01 9.8576408370293373e-03
    -4.9548862957279677e-01 9.7688730383512883e-03
    -5.0300303000356872e-01 9.7688730383512883e-03
    -5.0300303000356872e-01 1.0604960905726227e-02
    -4.4204332236849225e-01 1.0869056127933079e-02
    -4.2640143271122083e-01 1.2274636000901959e-02
    -3.6115755925730764e-01 1.4716771567578694e-02
    -2.8867513459481287e-01 1.4314692072252238e-02
    -2.9833745256352617e-01 1.5651583111989602e-02
    -2.6863534475866768e-01 2.1745835870341842e-02
    -1.8661690879115478e-01 3.2891645179895380e-02
    -1.2097167578182676e-01 5.6694115194603330e-02
    -6.9504804685691590e-02 3.2891645179895380e-02
    -1.2097167578182676e-01 2.8554731125277063e-02
    -1.4002800840280100e-01 2.3429976047305220e-02
    -1.7234549688642783e-01 2.0392156862745096e-02
    -1.9999999999999998e-01 2.0392156862745096e-02
    -1.9999999999999998e-01 1.7522404386365431e-02
    -2.3629973222959152e-01 1.6200714650802268e-02
    -2.5819888974716115e-01 1.5159988452742390e-02
    -2.7878344149874829e-01 1.5651583111989602e-02
    -2.6863534475866768e-01 1.4716771567578694e-02
    -2.8867513459481287e-01 1.3947940995667455e-02
    -3.0779350562554625e-01 1.3302376391678038e-02
    -3.2616403652672116e-01 1.2504702743322927e-02
    -3.5259654610379310e-01 1.2059452890866757e-02
    -3.6961063547728640e-01 1.0869056127933079e-02
    -4.2640143271122083e-01 9.7688730383512883e-03
    -5.0300303000356872e-01 8.9447027811524159e-03
    -5.9215652546379216e-01 8.5343191293767093e-03
    -6.5915306160306164e-01 8.9447027811524159e-03
    -5.9215652546379216e-01 8.9447027811524159e-03
    -5.9215652546379216e-01 8.5343191293767093e-03
    -6.5915306160306164e-01 8.9447027811524159e-03
    -5.9215652546379216e-01 8.4605472936563706e-03
    -6.7419986246324204e-01 9.3077035915910579e-03
    -5.4772255750516607e-01 8.8919312127377480e-03
    -5.9956411182041780e-01 9.7688730383512883e-03
    -5.0300303000356872e-01 9.9503536849654371e-03
    -4.8795003647426666e-01 1.0604960905726227e-02
    -4.4204332236849225e-01 1.1489678757093559e-02
    -3.9440531887330782e-01 1.0869056127933079e-02
    -4.2640143271122083e-01 1.1162270069884947e-02
    -4.1053541362798002e-01 1.2751325793332380e-02
    -3.4391796971439736e-01 1.6200714650802268e-02
    -2.5819888974716115e-01 1.6819167505804224e-02
    -2.4743582965269675e-01 1.7522404386365431e-02
    -2.3629973222959152e-01 2.0392156862745096e-02
    -1.9999999999999998e-01 1.9274155639442334e-02
    -2.1266436150250076e-01 2.3429976047305220e-02
    -1.7234549688642783e-01 3.2891645179895380e-02
    -1.2097167578182676e-01 5.6694115194603330e-02
    -6.9504804685691590e-02 2.8554731125277063e-02
    -1.4002800840280100e-01 2.8554731125277063e-02
    -1.4002800840280100e-01 2.8554731125277063e-02
    -1.4002800840280100e-01 2.8554731125277063e-02
    -1.4002800840280100e-01 3.2891645179895380e-02
    -1.2097167578182676e-01 2.3429976047305220e-02
    -1.7234549688642783e-01 2.0392156862745096e-02
    -1.9999999999999998e-01 1.8331185802922138e-02
    -2.2473328748774737e-01 1.7522404386365431e-02
    -2.3629973222959152e-01 1.7522404386365431e-02
    -2.3629973222959152e-01 1.5651583111989602e-02
    -2.6863534475866768e-01 1.6200714650802268e-02
    -2.5819888974716115e-01 1.7522404386365431e-02
    -2.3629973222959152e-01 1.7522404386365431e-02
    -2.3629973222959152e-01 1.4314692072252238e-02
    -2.9833745256352617e-01 1.1857708957152227e-02
    -3.7796447300922725e-01 1.0604960905726227e-02
    -4.4204332236849225e-01 1.0869056127933079e-02
    -4.2640143271122083e-01 1.1321334965217689e-02
    -4.0250611571050388e-01 9.8576408370293373e-03
    -4.9548862957279677e-01 1.0148617762062296e-02
    -4.7278897170376749e-01 1.2274636000901959e-02
    -3.6115755925730764e-01 1.1321334965217689e-02
    -4.0250611571050388e-01 1.0148617762062296e-02
    -4.7278897170376749e-01 1.0869056127933079e-02
    -4.2640143271122083e-01 1.0482529198715810e-02
    -4.4979121681989714e-01 1.0482529198715810e-02
    -4.4979121681989714e-01 1.0869056127933079e-02
    -4.2640143271122083e-01 1.1668149501693845e-02
    -3.8622696788058714e-01 1.2274636000901959e-02
    -3.6115755925730764e-01 1.4716771567578694e-02
    -2.8867513459481287e-01 1.9274155639442334e-02
    -2.1266436150250076e-01 1.9274155639442334e-02
    -2.1266436150250076e-01 2.0392156862745096e-02
    -1.9999999999999998e-01 2.1745835870341842e-02
    -1.8661690879115478e-01 2.5602957388130124e-02
    -1.5694120514358612e-01 2.8554731125277063e-02
    -1.4002800840280100e-01 2.5602957388130124e-02
    -1.5694120514358612e-01 2.8554731125277063e-02
    -1.4002800840280100e-01</input_scale>
  <output_scale>
    1.0526315789473684e+00 0.</output_scale>
  <inv_output_scale>
    9.4999999999999996e-01 0.</inv_output_scale>
  <weights>
    <_>
      -1.1719048386403424e-03 -2.2903224389177911e-04
      -9.9637750405231888e-04 -5.5088375721748159e-04
      2.2039270841974236e-04 1.2144499427915077e-03
      9.9728247011042037e-04 2.0453599492093418e-04
      -7.2831549546728146e-04 -4.2920232853557353e-04
      -1.1054717958401724e-03 -1.2409612586460942e-04
      -2.1397120762249158e-05 -7.8018402384446585e-04
      6.7194088742161514e-04 -1.1208781013474275e-03
      1.1037170489498088e-03 1.0083693640301039e-03
      -2.5698247005999147e-04 -3.4383640164285737e-05
      3.0002183913935715e-04 -7.7645728251324352e-04
      -6.5397802009701264e-04 9.5527311481024093e-04
      -1.0954164450422850e-03 -3.1663012947851025e-04
      6.1523554708813478e-04 -6.3403300196013517e-04
      1.0630743572223426e-03 -2.4215284090006096e-04
      1.2150750992007805e-03 -3.7732545206526025e-04
      2.2581237915161135e-04 8.1166924113520002e-04
      1.1322676431532379e-03 5.1786688077618958e-04
      8.1904968067006900e-04 5.2277548999592920e-04
      1.2256443938238879e-03 -1.5902424652943092e-04
      -7.9077464441572279e-02 -9.5182872447907279e-03
      -8.4207666656806214e-03 -4.7432421794966605e-03
      6.9239893931468243e-03 -5.2548873493079868e-03
      2.0727902316639789e-03 8.6882762835954076e-03
      8.8507544314131523e-03 -1.3858672263031179e-02
      -6.3621775409079592e-03 -5.5222507324097806e-03
      -3.0056518477439096e-03 7.3607119105903538e-03
      9.2349875556816882e-03 -1.0242647312758523e-02
      4.8600052426585570e-03 -4.5467677527477714e-03
      1.0983789783443113e-02 -1.1807680806733205e-02
      6.9299957852832017e-03 -2.7117232650483917e-03
      -1.2590904704872237e-02 -8.5969061860657319e-03
      -9.2322997850802276e-03 7.5694708370913641e-03
      -9.9434159666987494e-03 1.0452865718253442e-02
      -3.0863405699025227e-03 -9.4019693466772594e-03
      1.0457038994757592e-02 1.0265872881300543e-02
      -1.8335652422007555e-02 -3.9880211718551564e-03
      -6.0617935043519805e-03 -1.4472526912846832e-02
      -6.8682493686639300e-03 -7.4206570745373570e-03
      8.4354295173951401e-03 6.7977239135187644e-03
      6.0566779196355225e-02 2.7979463143569094e-02
      2.1985411361621441e-02 9.2967338474763562e-03
      -1.8762120704893630e-02 1.1982499980415067e-02
      -9.2224459909232195e-03 -1.7778285618802063e-02
      -7.1556399140927070e-03 3.6758109275120833e-02
      8.3668863262031413e-03 1.6025768361060278e-02
      9.9014290191165415e-03 -1.3938261496755869e-02
      -4.5808266445313186e-03 9.9030428605893749e-03
      -5.4500314167128614e-03 1.5648378011066302e-02
      -3.3592800074685777e-02 3.5551658973783117e-02
      -1.5217326640339451e-02 8.8989519573012439e-03
      7.9212630313991918e-03 2.0760017337278003e-02
      9.6056041600904446e-03 -7.8715060032134316e-03
      2.6420203207869825e-02 -2.7381015660460969e-02
      1.0854196453854513e-02 9.7262272367714363e-03
      -1.9394601417591764e-02 -2.5118552011411114e-02
      4.0242125829712407e-02 9.1817155113471365e-03
      1.4325375602267888e-02 1.2299170834078759e-02
      2.0985401525025336e-02 1.2601141263483349e-02
      -2.3064811681081907e-02 -2.0121692391513263e-02
      1.0409204007440537e-01 5.6077518698240056e-02
      5.1182802828226952e-02 1.6661942110914339e-02
      -4.3011847340219088e-02 6.5659320517313102e-03
      -1.2920577957407003e-02 -3.7089884067580285e-02
      -2.5098096841399452e-03 2.8893232771121033e-02
      1.3028110672528953e-02 3.9136329552247794e-02
      1.4367613765971787e-02 -2.4922279039595246e-02
      -2.1404761257273709e-03 1.3383058914083356e-02
      -2.6363358129972529e-03 3.4834470517423451e-02
      -5.8637704348694891e-02 4.9658634896293179e-02
      -3.5417407639465069e-02 4.8194318048808684e-03
      3.8590884003418926e-03 4.4457510832135234e-02
      1.3515275880375514e-02 -4.3294662533709810e-03
      5.4102521415136724e-02 -5.2561471781209616e-02
      1.6244956549393629e-02 1.3113377739744062e-02
      -4.7075898384078024e-02 -5.7445340363023713e-02
      3.8360459524617758e-02 1.6361885106817409e-02
      2.8602146285185332e-02 5.5639913842798856e-03
      5.0501877942974081e-02 2.2028492568769091e-02
      -5.4942920600371210e-02 -4.8114882906725311e-02
      -3.3966542126745608e-01 -6.8275667237956625e-03
      -1.8433440772730649e-03 -2.3052556922675087e-02
      -1.3133726708355711e-03 -3.5509487143925607e-02
      2.9450068244104968e-02 4.5289848314901198e-04
      2.1803337235852236e-02 4.5541938202233734e-03
      -3.4896138720591816e-02 2.6382947230426448e-04
      -2.3858180439118915e-02 2.8724274363117097e-03
      1.6902862660567425e-02 -4.0768963694782993e-02
      2.4468915213623217e-02 3.9093029547602846e-04
      -1.0900044961973956e-02 6.3451543876048063e-03
      -1.8891916402878749e-03 -2.9854008611646003e-02
      7.3137900477104000e-04 1.0150633239722230e-03
      -3.3107278615903915e-02 2.7569564868924583e-02
      -1.4691228957036855e-02 3.0953399839272401e-02
      -2.6836699640737906e-02 -3.4361609095154594e-02
      2.0354409827121485e-03 9.6061870304153790e-03
      -6.8053947528323847e-02 -2.3625875058911682e-02
      -6.2542947231063368e-04 -2.2380337726662182e-02
      -3.3172473162439691e-03 -6.7907021339614114e-03
      3.6024484918395455e-03 2.1218275589885227e-03
      -3.3923965710148946e-01 -8.1985593762486948e-03
      -9.9257700711880502e-04 -2.2422628268864948e-02
      -1.6928645208552374e-04 -3.6858888166718208e-02
      2.8939240180539817e-02 -4.6120949772418763e-06
      2.1956202386174444e-02 4.7683680722149270e-03
      -3.6136763051280649e-02 -1.4444951154422156e-04
      -2.3664305428256906e-02 2.4662300374105658e-03
      1.8502439932129303e-02 -4.0310665474350200e-02
      2.3769171726484392e-02 -1.0066635868643339e-03
      -1.2823662476920447e-02 6.1933602992588887e-03
      -1.8796073617999758e-03 -2.8463424124497875e-02
      2.1589501663335795e-03 1.1279075500493685e-03
      -3.5097678229738118e-02 2.6874250433022946e-02
      -1.3089656427806486e-02 3.0197010714965767e-02
      -2.6342762942872994e-02 -3.4086774181123838e-02
      1.3884573356981033e-03 9.5075200117999813e-03
      -6.6576910155644597e-02 -2.2726854298869493e-02
      5.8431206364077551e-04 -2.2474163995596021e-02
      -2.5383543830661930e-03 -6.8039088619709634e-03
      4.6580990480276389e-03 6.9617500400474266e-04
      -5.2961055627887466e-01 -8.2170350958742644e-03
      -2.6421944913239811e-03 -4.0350027516333022e-02
      1.0235704176070758e-03 -6.6209033417029217e-02
      4.7076508051933537e-02 8.4831050747052050e-03
      4.4994552430923603e-02 -5.9629736235492197e-04
      -5.1561764351363518e-02 -2.6636013901517115e-03
      -4.5836478146508916e-02 1.8005022295717737e-02
      3.6647105747102525e-02 -5.5513942333923524e-02
      4.1908801172645192e-02 -3.3382056978166399e-03
      -2.1327486964371834e-03 1.5872969786637839e-03
      4.8688299500927604e-03 -5.2171768761824382e-02
      -2.9865851632707909e-02 -6.0643569569384798e-03
      -4.9759241682950962e-02 5.5676893176177619e-02
      -1.0041205686825929e-02 1.4527770964873005e-02
      -4.5873309862443194e-02 -5.2150606239651572e-02
      5.8410349137673475e-03 6.6596345784973466e-03
      -3.5657968803120207e-02 -4.2611160631380721e-02
      -7.8108495707846486e-03 -5.3017358914394616e-02
      -4.5843043637217775e-03 -2.4645884312975656e-02
      1.7659810564821896e-03 3.1839537344632604e-03
      -2.9704956697189394e-01 4.2278316532222415e-02
      3.7404533020242998e-02 -1.0410514005328079e-02
      -3.6499381971553994e-02 -3.3061698199210100e-02
      1.6046818092905476e-02 -2.5679042452168038e-02
      2.4836309891349512e-02 6.2460764385265717e-02
      -2.1158769134427505e-02 3.1319168425322383e-02
      -1.5301477050333620e-02 -9.8007920488490247e-03
      1.9433641631182351e-02 -2.7047553686962506e-02
      2.2262121141920523e-02 2.5650147512799756e-02
      -6.5235326424306683e-02 6.4219450837260536e-02
      -2.6405153703494420e-02 -2.9693740167045284e-02
      -1.4626650445093406e-03 3.7497703326099169e-02
      -2.2316184321378194e-02 2.6239433824630204e-02
      3.6906607135992794e-02 -3.4642070326801513e-02
      -1.1784100465333529e-02 -2.5130942508008014e-02
      -4.1129015104320849e-02 -4.3473837991688968e-02
      2.4340998379769701e-02 -1.0090384766214461e-02
      1.8390739974587057e-02 -2.0447872130610008e-02
      3.8568044018621295e-02 2.1748776435808010e-03
      -4.2804722738430119e-02 -3.5863862297369924e-02
      4.1596191283445549e-01 2.6891191825264091e-02
      2.3796657239547821e-02 1.1670804249120592e-02
      -2.3099263532049632e-02 2.5918073988689866e-02
      -3.3441096720549207e-02 -1.6192985812134283e-02
      -1.9448808041272296e-02 4.0693991269647040e-02
      2.1342474642000397e-02 1.9204742891862175e-02
      2.8208547571702720e-02 -8.2828995979290602e-03
      -1.6862941053174985e-02 2.6792288941662513e-02
      -1.8766300100551903e-02 1.5176309376050226e-02
      -4.2989745772909781e-02 4.1686028393953786e-02
      -1.6333773699421010e-02 1.9075010020780683e-02
      3.8298136222079740e-02 2.1947826217235605e-02
      2.0162848464345896e-02 -2.3898636500966994e-02
      2.2730456868883340e-02 -1.8793930813246058e-02
      2.6232601120576821e-02 2.1166817402617194e-02
      -2.5719257559521917e-02 -2.6252298478960483e-02
      7.3354453626311772e-03 1.2768764782376461e-02
      1.0822776718900124e-02 2.9078500631661470e-02
      2.4251523358026699e-02 4.7183219021970533e-03
      -2.8689317557096822e-02 -2.1461248351392931e-02
      -1.8468431874353403e-01 7.3458358964694145e-02
      6.4404929229610011e-02 4.0682631399136839e-03
      -5.8119706042189724e-02 -2.3647617112073409e-02
      1.2693816160842962e-03 -4.6231803843704365e-02
      1.6637665659384595e-02 1.0188312698784935e-01
      -9.0272163803187064e-03 5.0997805143203637e-02
      -1.1651772952793258e-03 -2.5343195953539590e-02
      1.5798909029802931e-02 -1.5080830467486811e-02
      1.8086224304042539e-02 4.4100013439147476e-02
      -1.0111361677338017e-01 1.0112034322295047e-01
      -4.5435302171568819e-02 -2.0825273843164530e-02
      2.7106245992090747e-03 6.1121193782284956e-02
      -9.9639868863019010e-03 1.9914589173512912e-02
      6.6525243941888718e-02 -5.8133107472162507e-02
      1.1197735989300055e-03 -1.2440367819956543e-02
      -6.5817314950231728e-02 -7.3036748982767463e-02
      4.6266307806249518e-02 5.0610785068340436e-03
      3.3913869279064396e-02 -1.3701745650691518e-02
      6.3655460156703411e-02 1.8547690625142901e-02
      -7.2155196190709744e-02 -6.0304504572318091e-02
      1.6050565779448431e-01 -8.8872813733901733e-03
      -4.3583363848043039e-03 -1.5897862672105915e-02
      4.0299147909815067e-03 -7.3443079646608924e-03
      -3.4069876608087825e-03 9.3178002110550339e-03
      3.5494141925531911e-03 8.9853628330860205e-03
      -3.8697537370290646e-03 -4.7722903298709650e-03
      7.5903434743176664e-04 1.5049047832295817e-02
      1.2041633988360599e-03 -4.5039753549655885e-03
      2.0080480944148402e-03 -4.2980227993150797e-03
      -3.7404184199299772e-03 1.6066347767607267e-03
      4.6518956222653292e-03 -5.1529732831541216e-03
      1.1932390894777857e-02 -4.6678943020215498e-03
      -5.1396990101262568e-03 5.9580636419181727e-03
      -1.3883512937935345e-02 1.9154178183409813e-02
      -2.2908928488630203e-03 -6.1258384390317040e-03
      3.9394390179978761e-03 7.2239437026200767e-03
      -5.0926970108505096e-02 -1.5416892280501500e-02
      -9.0014500738867902e-03 -4.6925351436628814e-03
      -4.1871018418433116e-03 -1.5533378395680747e-02
      1.4498789385421409e-03 4.4857033307275406e-03
      3.3943855838644849e-01 2.7665704101228858e-02
      2.5079836264333435e-02 1.0665989006003749e-03
      -2.3854095491864753e-02 4.7711858737659475e-03
      -2.0965401796457790e-02 -1.3744904705128414e-02
      -5.1594591310173870e-03 4.2650973838682105e-02
      1.1636760879214458e-02 1.8576818700968181e-02
      1.8429247722039098e-02 -5.6568205694223330e-03
      -4.7223766042819052e-03 1.3378636598086677e-02
      -6.6056023027119591e-03 1.7815581765170386e-02
      -4.2014855659575696e-02 4.3474877146241167e-02
      -1.6460650699451893e-02 4.9228311411045732e-03
      1.8982638304496018e-02 2.3955668328076152e-02
      9.6468051598658667e-03 -4.5729850362134210e-03
      2.1624055449769267e-02 -1.6356870380677912e-02
      1.6477228031678753e-02 7.8314227417303033e-03
      -2.4827136479494236e-02 -2.5977146016979008e-02
      -5.4113637782823862e-03 1.9968287906931420e-03
      1.2309979879246270e-02 7.4657225935459226e-03
      2.4369362331377726e-02 3.3650053236098737e-04
      -2.7356912309624122e-02 -2.2169945419573709e-02
      3.4095416620415292e-01 2.5566168126894946e-02
      2.3747259415433854e-02 2.3323296856418065e-03
      -2.1835932981210705e-02 4.4475802148788920e-03
      -2.0360023687118978e-02 -1.4166850704808283e-02
      -4.1387508003170740e-03 4.2779535030405380e-02
      1.0132430808148206e-02 2.0408655687007508e-02
      1.6743770300128785e-02 -4.2852939604758238e-03
      -3.8052556128854030e-03 1.3085591584979975e-02
      -6.5644303433162214e-03 1.7622240372857412e-02
      -4.3209506857850251e-02 4.2065427883998863e-02
      -1.6470572532432559e-02 3.6181149845324577e-03
      2.0421730175072910e-02 2.3676280613632136e-02
      8.1770483820936737e-03 -5.4709056059980641e-03
      2.1378982258969476e-02 -1.5329872680595092e-02
      1.5556821396941933e-02 8.2592448946400415e-03
      -2.6013066739200976e-02 -2.6612916796177381e-02
      -4.9492101460593295e-03 2.5469369747216468e-03
      1.1222585297347312e-02 7.2024692989762036e-03
      2.2828164268806021e-02 1.1633609617120039e-03
      -2.7166799098051399e-02 -2.3748824209642309e-02
      -2.9045224767442518e-01 -1.5154015344554671e-02
      -9.7676734137755513e-03 -4.2290069945752323e-02
      8.4115003826042960e-03 -4.6079381613050995e-02
      3.4285062352298078e-02 1.9900434387878130e-02
      3.4539743102548523e-02 -1.5138396741908190e-02
      -3.6977700179930947e-02 -9.4352579042115223e-03
      -3.3440067448665588e-02 2.4014297639466487e-02
      3.0873689933142590e-02 -3.9941487328229039e-02
      3.1360303300461453e-02 -6.6204895463436242e-03
      1.0316630553674199e-02 -1.2217000173292334e-02
      9.9872357510503110e-03 -3.7413359982342090e-02
      -3.4328942263936055e-02 -1.5245896479359398e-02
      -3.3561243617362332e-02 4.1660683600926722e-02
      -1.9485209601093758e-02 2.8099312597118804e-02
      -3.6450820029566164e-02 -3.7077009555572776e-02
      1.5378472537190154e-02 1.5647656491556160e-02
      -6.0683547596690160e-02 -4.1857607880165501e-02
      -1.4778053367455281e-02 -4.6485530345588270e-02
      -1.1169166334566915e-02 -3.1722828783348915e-02
      1.1297840741260947e-02 9.6916325621513623e-03
      -3.3177672493886273e-01 -1.4864539305776428e-02
      -1.7545916484145215e-02 -3.9399749711382701e-02
      1.3077701264741727e-02 -6.0285444866242557e-02
      4.7053898322724115e-02 1.2344786889276673e-02
      4.7839275919298895e-02 -2.5206308853680168e-02
      -4.8278423529071163e-02 -8.4792104307050194e-03
      -4.3221679591158246e-02 1.7186919093918854e-02
      4.1172629895975005e-02 -5.2867673565610930e-02
      4.5527370171630631e-02 -7.0868128823701445e-03
      3.2445703251755366e-02 -3.4665638017000275e-02
      8.3562442539261532e-03 -5.3307395978423953e-02
      -4.4687905145384753e-02 -1.8981302774880617e-02
      -4.7759031131794222e-02 5.4820896167819960e-02
      -3.5888858388650975e-02 4.6929660615583783e-02
      -4.5256803138207465e-02 -4.9556937104563423e-02
      2.3962926862242669e-02 3.2275614000370226e-02
      -8.2935610493004130e-02 -4.0679794815840144e-02
      -7.6223916743595665e-03 -5.7538208753333077e-02
      -1.6241713113982419e-02 -2.2440876094865513e-02
      2.5355618515863831e-02 1.4516287492728819e-02
      -1.9264430131417434e-01 -2.8605195316755424e-02
      -2.8820902366574579e-02 -2.3109103981918771e-02
      2.4592103023806322e-02 -3.5058133348117207e-02
      2.6298498858570649e-02 2.0496745494097697e-02
      3.2161149206657226e-02 -4.1155306466029912e-02
      -3.0670778966784315e-02 -2.0336499532581116e-02
      -2.4186635711441553e-02 1.6411640879520628e-02
      3.1997635051296561e-02 -3.4223147033002096e-02
      3.3508684924884374e-02 -1.6997611535492719e-02
      4.5267441579249709e-02 -4.8784495241609160e-02
      1.7140212798360321e-02 -3.4608926323128467e-02
      -2.5809940583842908e-02 -3.0427161943873907e-02
      -3.3082142262430343e-02 3.2543352338211880e-02
      -4.2781711404770294e-02 5.0116487458220678e-02
      -2.3616734682993530e-02 -3.2775656170504333e-02
      3.4376460995608586e-02 4.0499355889658445e-02
      -7.9329760468663135e-02 -2.1842804768338508e-02
      -1.4510834982626765e-02 -3.0830081188729978e-02
      -2.7650344674150850e-02 -1.6802195121134126e-02
      3.6061676571495914e-02 2.6617027450107814e-02
      -2.6647344834877151e-01 -3.2018643333468065e-02
      -3.0553724539527396e-02 -2.3849574604430709e-02
      2.7976093964824259e-02 -3.6324066402719776e-02
      2.9322159720572592e-02 2.2775163351344486e-02
      3.0714491252295504e-02 -4.6624592384878434e-02
      -3.4712131803732768e-02 -2.1227098472426854e-02
      -2.7393661978805002e-02 2.0278444220871834e-02
      2.7670149572450078e-02 -3.6195702000442635e-02
      3.1755527435166069e-02 -1.7975265174964027e-02
      5.0750227538579717e-02 -5.1064081103817424e-02
      2.0257361883441936e-02 -3.4833135018608151e-02
      -2.6284100241280070e-02 -3.3990856029302574e-02
      -3.3476387636537229e-02 3.0554371574746147e-02
