<?xml version="1.0"?>
<opencv_storage>
<shapeML type_id="opencv-ml-ann-mlp">
  <layer_sizes type_id="opencv-matrix">
    <rows>1</rows>
    <cols>3</cols>
    <dt>i</dt>
    <data>
      1600 40 1</data></layer_sizes>
  <activation_function>SIGMOID_SYM</activation_function>
  <f_param1>5.9999999999999998e-01</f_param1>
  <f_param2>1.</f_param2>
  <min_val>-9.4999999999999996e-01</min_val>
  <max_val>9.4999999999999996e-01</max_val>
  <min_val1>-9.7999999999999998e-01</min_val1>
  <max_val1>9.7999999999999998e-01</max_val1>
  <training_params>
    <train_method>BACKPROP</train_method>
    <dw_scale>1.0000000000000001e-01</dw_scale>
    <moment_scale>1.0000000000000001e-01</moment_scale>
    <term_criteria><epsilon>9.9999999747524271e-07</epsilon>
      <iterations>4000</iterations></term_criteria></training_params>
  <input_scale>
    1. 0. 5.5736652164116100e-02 -7.0710678118654766e-02
    5.5736652164116100e-02 -7.0710678118654766e-02
    5.5736652164116100e-02 -7.0710678118654766e-02
    3.2341685865158010e-02 -1.2309149097933272e-01
    3.2341685865158010e-02 -1.2309149097933272e-01
    2.5179252855879988e-02 -1.5971914124998499e-01
    2.8079719701117327e-02 -1.4249409997581927e-01
    2.3044269526890572e-02 -1.7541160386140586e-01
    2.5179252855879988e-02 -1.5971914124998499e-01
    2.3044269526890572e-02 -1.7541160386140586e-01
    2.3044269526890572e-02 -1.7541160386140586e-01
    2.3044269526890572e-02 -1.7541160386140586e-01
    1.7241805194357102e-02 -2.4061325159289387e-01
    1.7241805194357102e-02 -2.4061325159289387e-01
    1.5944293353589187e-02 -2.6296185307038888e-01
    1.4488052847142682e-02 -2.9408584883752314e-01
    1.8961994135149474e-02 -2.1650635094610968e-01
    2.0060060060866039e-02 -2.0359463942371503e-01
    1.3100913878256987e-02 -3.3241124765726682e-01
    1.1325406780662127e-02 -4.0230549459665466e-01
    1.2560820838435689e-02 -3.5057813384887671e-01
    1.4093618285321810e-02 -3.0395937943716439e-01
    1.4922918782177779e-02 -2.8398091712353235e-01
    2.3044269526890572e-02 -1.7541160386140586e-01
    2.5179252855879988e-02 -1.5971914124998499e-01
    2.3044269526890572e-02 -1.7541160386140586e-01
    1.8961994135149474e-02 -2.1650635094610968e-01
    1.8035957088864976e-02 -2.2881438097813775e-01
    2.0060060060866039e-02 -2.0359463942371503e-01
    2.0060060060866039e-02 -2.0359463942371503e-01
    2.5179252855879988e-02 -1.5971914124998499e-01
    2.1389763956858956e-02 -1.8995387394523996e-01
    2.5179252855879988e-02 -1.5971914124998499e-01
    2.3044269526890572e-02 -1.7541160386140586e-01
    2.3044269526890572e-02 -1.7541160386140586e-01
    5.5736652164116100e-02 -7.0710678118654766e-02
    5.5736652164116100e-02 -7.0710678118654766e-02
    5.5736652164116100e-02 -7.0710678118654766e-02
    3.9510665149229095e-02 -1.0025094142341712e-01
    5.5736652164116100e-02 -7.0710678118654766e-02
    3.9510665149229095e-02 -1.0025094142341712e-01
    5.5736652164116100e-02 -7.0710678118654766e-02
    3.9510665149229095e-02 -1.0025094142341712e-01
    2.8079719701117327e-02 -1.4249409997581927e-01
    2.8079719701117327e-02 -1.4249409997581927e-01
    2.0060060060866039e-02 -2.0359463942371503e-01
    1.8961994135149474e-02 -2.1650635094610968e-01
    1.8961994135149474e-02 -2.1650635094610968e-01
    1.8961994135149474e-02 -2.1650635094610968e-01
    1.5944293353589187e-02 -2.6296185307038888e-01
    1.3733906283836948e-02 -3.1362502409359000e-01
    1.4093618285321810e-02 -3.0395937943716439e-01
    1.1883094168653036e-02 -3.7688918072220451e-01
    1.1005181119821019e-02 -4.1885390829169550e-01
    1.0227339070357264e-02 -4.6709936649691386e-01
    1.0460638233541734e-02 -4.5121260440202404e-01
    1.0118895035155142e-02 -4.7498395351586448e-01
    9.9166746781291382e-03 -4.9065338146265813e-01
    1.0718586954637711e-02 -4.3514263457633695e-01
    9.6456759961493360e-03 -5.1395616875004668e-01
    1.0341125548329952e-02 -4.5917684337733738e-01
    1.0015445602284692e-02 -4.8283416858775452e-01
    1.0586301684254996e-02 -4.4320263021395917e-01
    1.1685577462657359e-02 -3.8544964466377263e-01
    1.1883094168653036e-02 -3.7688918072220451e-01
    1.3733906283836948e-02 -3.1362502409359000e-01
    1.3733906283836948e-02 -3.1362502409359000e-01
    1.3404276646484175e-02 -3.2310308632943197e-01
    1.4093618285321810e-02 -3.0395937943716439e-01
    1.6551385419358317e-02 -2.5197631533948484e-01
    1.7241805194357102e-02 -2.4061325159289387e-01
    1.7241805194357102e-02 -2.4061325159289387e-01
    1.8035957088864976e-02 -2.2881438097813775e-01
    1.8961994135149474e-02 -2.1650635094610968e-01
    1.8961994135149474e-02 -2.1650635094610968e-01
    3.2341685865158010e-02 -1.2309149097933272e-01
    3.2341685865158010e-02 -1.2309149097933272e-01
    3.2341685865158010e-02 -1.2309149097933272e-01
    3.2341685865158010e-02 -1.2309149097933272e-01 1. 0.
    3.9510665149229095e-02 -1.0025094142341712e-01
    3.9510665149229095e-02 -1.0025094142341712e-01
    3.2341685865158010e-02 -1.2309149097933272e-01
    2.5179252855879988e-02 -1.5971914124998499e-01
    2.1389763956858956e-02 -1.8995387394523996e-01
    1.8035957088864976e-02 -2.2881438097813775e-01
    1.8035957088864976e-02 -2.2881438097813775e-01
    1.3404276646484175e-02 -3.2310308632943197e-01
    1.2820648017167004e-02 -3.4156502553198664e-01
    1.1883094168653036e-02 -3.7688918072220451e-01
    1.1685577462657359e-02 -3.8544964466377263e-01
    1.0858018302605764e-02 -4.2702803324427147e-01
    9.6456759961493360e-03 -5.1395616875004668e-01
    9.7320416140474278e-03 -5.0621141828291472e-01
    9.0120825133710517e-03 -5.8309518948452999e-01
    9.0120825133710517e-03 -5.8309518948452999e-01
    8.8999401164319737e-03 -5.9842134663471702e-01
    8.7473773613052485e-03 -6.2145546626586534e-01
    9.0120825133710517e-03 -5.8309518948452999e-01
    8.8470876450977946e-03 -6.0609152673132649e-01
    8.8999401164319737e-03 -5.9842134663471702e-01
    9.0715688523400496e-03 -5.7543533764843591e-01
    9.2650248310080108e-03 -5.5244439104294030e-01
    9.0715688523400496e-03 -5.7543533764843591e-01
    9.1334749712278056e-03 -5.6777497395766885e-01
    1.0227339070357264e-02 -4.6709936649691386e-01
    1.1160731355834159e-02 -4.1061496704673439e-01
    1.1005181119821019e-02 -4.1885390829169550e-01
    1.2560820838435689e-02 -3.5057813384887671e-01
    1.4488052847142682e-02 -2.9408584883752314e-01
    1.5944293353589187e-02 -2.6296185307038888e-01
    1.5944293353589187e-02 -2.6296185307038888e-01
    1.5405331774883820e-02 -2.7361708674793650e-01
    1.5405331774883820e-02 -2.7361708674793650e-01
    1.5944293353589187e-02 -2.6296185307038888e-01
    2.1389763956858956e-02 -1.8995387394523996e-01
    2.3044269526890572e-02 -1.7541160386140586e-01
    2.5179252855879988e-02 -1.5971914124998499e-01
    3.2341685865158010e-02 -1.2309149097933272e-01 1. 0.
    5.5736652164116100e-02 -7.0710678118654766e-02
    3.2341685865158010e-02 -1.2309149097933272e-01
    2.5179252855879988e-02 -1.5971914124998499e-01
    1.8035957088864976e-02 -2.2881438097813775e-01
    1.8961994135149474e-02 -2.1650635094610968e-01
    1.7241805194357102e-02 -2.4061325159289387e-01
    1.1883094168653036e-02 -3.7688918072220451e-01
    1.2093823411605425e-02 -3.6822984715932938e-01
    1.1005181119821019e-02 -4.1885390829169550e-01
    1.1685577462657359e-02 -3.8544964466377263e-01
    9.9166746781291382e-03 -4.9065338146265813e-01
    9.7320416140474278e-03 -5.0621141828291472e-01
    8.9549068157100484e-03 -5.9075653918564808e-01
    8.8470876450977946e-03 -6.0609152673132649e-01
    8.4908786116438834e-03 -6.6786463109497407e-01
    8.3189033080770299e-03 -7.0710678118654757e-01
    8.2045549202967825e-03 -7.3902222304464305e-01
    8.2884934794485061e-03 -7.1503719867481141e-01
    8.4536849588003372e-03 -6.7566392469217618e-01
    8.2313526669478797e-03 -7.3099325922895342e-01
    8.1308913284940214e-03 -7.6333293218249842e-01
    8.1788976522420113e-03 -7.4708736763762851e-01
    8.1788976522420113e-03 -7.4708736763762851e-01
    8.4179357451504393e-03 -6.8348612617340887e-01
    8.7962609435424804e-03 -6.1376895389643427e-01
    9.0715688523400496e-03 -5.7543533764843591e-01
    8.7962609435424804e-03 -6.1376895389643427e-01
    1.0341125548329952e-02 -4.5917684337733738e-01
    1.0718586954637711e-02 -4.3514263457633695e-01
    1.1160731355834159e-02 -4.1061496704673439e-01
    1.2093823411605425e-02 -3.6822984715932938e-01
    1.5405331774883820e-02 -2.7361708674793650e-01
    1.5405331774883820e-02 -2.7361708674793650e-01
    1.5405331774883820e-02 -2.7361708674793650e-01
    1.4922918782177779e-02 -2.8398091712353235e-01
    1.8035957088864976e-02 -2.2881438097813775e-01
    2.3044269526890572e-02 -1.7541160386140586e-01
    2.8079719701117327e-02 -1.4249409997581927e-01
    2.8079719701117327e-02 -1.4249409997581927e-01
    5.5736652164116100e-02 -7.0710678118654766e-02
    2.8079719701117327e-02 -1.4249409997581927e-01
    2.8079719701117327e-02 -1.4249409997581927e-01
    1.8035957088864976e-02 -2.2881438097813775e-01
    1.4922918782177779e-02 -2.8398091712353235e-01
    1.3733906283836948e-02 -3.1362502409359000e-01
    1.2319184451209612e-02 -3.5946277018081779e-01
    1.0718586954637711e-02 -4.3514263457633695e-01
    1.0460638233541734e-02 -4.5121260440202404e-01
    9.9166746781291382e-03 -4.9065338146265813e-01
    9.2650248310080108e-03 -5.5244439104294030e-01
    9.0715688523400496e-03 -5.7543533764843591e-01
    8.8999401164319737e-03 -5.9842134663471702e-01
    8.5295661495402766e-03 -6.6008657440845275e-01
    8.3505873829352525e-03 -6.9920589878010098e-01
    8.3835844698151880e-03 -6.9133289844371515e-01
    7.9510283703548550e-03 -8.4731854573632337e-01
    7.9950787261102683e-03 -8.2158383625774922e-01
    8.0871234811418016e-03 -7.7974354758471698e-01
    8.1543521376998013e-03 -7.5519037334966066e-01
    8.0474079907300305e-03 -7.9633305938119558e-01
    8.2045549202967825e-03 -7.3902222304464305e-01
    8.1084897627138487e-03 -7.7151674981045948e-01
    8.1788976522420113e-03 -7.4708736763762851e-01
    8.2884934794485061e-03 -7.1503719867481141e-01
    8.1543521376998013e-03 -7.5519037334966066e-01
    8.2593213925390985e-03 -7.2299880548122109e-01
    8.4908786116438834e-03 -6.6786463109497407e-01
    8.9549068157100484e-03 -5.9075653918564808e-01
    9.3349309976613459e-03 -5.4476985374411735e-01
    1.0118895035155142e-02 -4.7498395351586448e-01
    1.1325406780662127e-02 -4.0230549459665466e-01
    1.2093823411605425e-02 -3.6822984715932938e-01
    1.4093618285321810e-02 -3.0395937943716439e-01
    1.4922918782177779e-02 -2.8398091712353235e-01
    1.3404276646484175e-02 -3.2310308632943197e-01
    1.5944293353589187e-02 -2.6296185307038888e-01
    2.0060060060866039e-02 -2.0359463942371503e-01
    2.5179252855879988e-02 -1.5971914124998499e-01
    2.1389763956858956e-02 -1.8995387394523996e-01
    3.9510665149229095e-02 -1.0025094142341712e-01
    2.5179252855879988e-02 -1.5971914124998499e-01
    2.1389763956858956e-02 -1.8995387394523996e-01
    1.6551385419358317e-02 -2.5197631533948484e-01
    1.4093618285321810e-02 -3.0395937943716439e-01
    1.1685577462657359e-02 -3.8544964466377263e-01
    1.0858018302605764e-02 -4.2702803324427147e-01
    1.0015445602284692e-02 -4.8283416858775452e-01
    9.2650248310080108e-03 -5.5244439104294030e-01
    8.9549068157100484e-03 -5.9075653918564808e-01
    9.0715688523400496e-03 -5.7543533764843591e-01
    8.7003596003292095e-03 -6.2915286960589578e-01
    8.4179357451504393e-03 -6.8348612617340887e-01
    8.6551353033868933e-03 -6.3686294098055807e-01
    8.2313526669478797e-03 -7.3099325922895342e-01
    8.0667699501762915e-03 -7.8801506453587811e-01
    7.8432343228316791e-03 -9.9503719020998904e-01
    7.8549087043704967e-03 -9.4669235504166815e-01
    7.8455650348803994e-03 -9.7542622000826462e-01
    7.9381156076795550e-03 -8.5601321291768340e-01
    7.8949950550595976e-03 -8.9142742673919195e-01
    7.8949950550595976e-03 -8.9142742673919195e-01
    7.9950787261102683e-03 -8.2158383625774922e-01
    7.9794961605670813e-03 -8.3010579461421719e-01
    7.8949950550595976e-03 -8.9142742673919195e-01
    7.9045166605962794e-03 -8.8247439733224131e-01
    7.9260668545556127e-03 -8.6476938368360490e-01
    8.1543521376998013e-03 -7.5519037334966066e-01
    8.5698001754079649e-03 -6.5232807305344209e-01
    8.7473773613052485e-03 -6.2145546626586534e-01
    9.7320416140474278e-03 -5.0621141828291472e-01
    9.8222943178553519e-03 -4.9844478627922678e-01
    1.0718586954637711e-02 -4.3514263457633695e-01
    1.1325406780662127e-02 -4.0230549459665466e-01
    1.3100913878256987e-02 -3.3241124765726682e-01
    1.2560820838435689e-02 -3.5057813384887671e-01
    1.4922918782177779e-02 -2.8398091712353235e-01
    1.7241805194357102e-02 -2.4061325159289387e-01
    2.0060060060866039e-02 -2.0359463942371503e-01
    2.1389763956858956e-02 -1.8995387394523996e-01
    3.9510665149229095e-02 -1.0025094142341712e-01
    1.8961994135149474e-02 -2.1650635094610968e-01
    1.7241805194357102e-02 -2.4061325159289387e-01
    1.2820648017167004e-02 -3.4156502553198664e-01
    1.1500040524969167e-02 -3.9391929857916774e-01
    1.0858018302605764e-02 -4.2702803324427147e-01
    9.9166746781291382e-03 -4.9065338146265813e-01
    9.9166746781291382e-03 -4.9065338146265813e-01
    8.7962609435424804e-03 -6.1376895389643427e-01
    8.6116366813972379e-03 -6.4458743219712167e-01
    8.8470876450977946e-03 -6.0609152673132649e-01
    8.4179357451504393e-03 -6.8348612617340887e-01
    8.1308913284940214e-03 -7.6333293218249842e-01
    8.0667699501762915e-03 -7.8801506453587811e-01
    7.8784147181271535e-03 -9.0954534096587358e-01
    7.8455650348803994e-03 -9.7542622000826462e-01
    7.8432343228316791e-03 -1.0049875621120892e+00
    7.8440109960348330e-03 -1.0150384378451045e+00
    7.8549087043704967e-03 -1.0563093645728086e+00
    7.8650687815646526e-03 -1.0776318121606494e+00
    7.8455650348803994e-03 -1.0251928638862373e+00
    7.8650687815646526e-03 -9.2796072713833699e-01
    7.8784147181271535e-03 -9.0954534096587358e-01
    7.8595930753490618e-03 -9.3728580107520898e-01
    7.9260668545556127e-03 -8.6476938368360490e-01
    7.8478978259626919e-03 -9.6575996380690143e-01
    7.8478978259626919e-03 -9.6575996380690143e-01
    7.9045166605962794e-03 -8.8247439733224131e-01
    8.0871234811418016e-03 -7.7974354758471698e-01
    8.1543521376998013e-03 -7.5519037334966066e-01
    8.7473773613052485e-03 -6.2145546626586534e-01
    9.0715688523400496e-03 -5.7543533764843591e-01
    9.3349309976613459e-03 -5.4476985374411735e-01
    1.0015445602284692e-02 -4.8283416858775452e-01
    1.0858018302605764e-02 -4.2702803324427147e-01
    1.2093823411605425e-02 -3.6822984715932938e-01
    1.3733906283836948e-02 -3.1362502409359000e-01
    1.5944293353589187e-02 -2.6296185307038888e-01
    1.8035957088864976e-02 -2.2881438097813775e-01
    2.1389763956858956e-02 -1.8995387394523996e-01
    2.5179252855879988e-02 -1.5971914124998499e-01
    1.6551385419358317e-02 -2.5197631533948484e-01
    1.4922918782177779e-02 -2.8398091712353235e-01
    1.1325406780662127e-02 -4.0230549459665466e-01
    1.0341125548329952e-02 -4.5917684337733738e-01
    1.1160731355834159e-02 -4.1061496704673439e-01
    9.1334749712278056e-03 -5.6777497395766885e-01
    8.5698001754079649e-03 -6.5232807305344209e-01
    8.3505873829352525e-03 -6.9920589878010098e-01
    8.4536849588003372e-03 -6.7566392469217618e-01
    8.2593213925390985e-03 -7.2299880548122109e-01
    7.9381156076795550e-03 -8.5601321291768340e-01
    7.8949950550595976e-03 -8.9142742673919195e-01
    7.8455650348803994e-03 -9.7542622000826462e-01
    7.8432343228316791e-03 -9.9503719020998904e-01
    7.8432343228316791e-03 -1.0049875621120892e+00
    7.8478978259626919e-03 -1.0354539818135851e+00
    7.8440109960348330e-03 -1.0150384378451045e+00
    7.8713407672356753e-03 -1.0884771971408735e+00
    7.8949950550595959e-03 -1.1217963123010053e+00
    7.8784147181271535e-03 -1.0994504121565505e+00
    7.8549087043704967e-03 -1.0563093645728086e+00
    7.9045166605962794e-03 -1.1331773511198100e+00
    7.9148707097310041e-03 -1.1447029429446780e+00
    7.8862970759948046e-03 -1.1105554165971789e+00
    7.8478978259626919e-03 -9.6575996380690143e-01
    7.8440109960348347e-03 -9.8518436614377813e-01
    7.8549087043704967e-03 -9.4669235504166815e-01
    8.0474079907300305e-03 -7.9633305938119558e-01
    8.1084897627138487e-03 -7.7151674981045948e-01
    8.1084897627138487e-03 -7.7151674981045948e-01
    8.3189033080770299e-03 -7.0710678118654757e-01
    8.7473773613052485e-03 -6.2145546626586534e-01
    8.8999401164319737e-03 -5.9842134663471702e-01
    1.0118895035155142e-02 -4.7498395351586448e-01
    1.0460638233541734e-02 -4.5121260440202404e-01
    1.2560820838435689e-02 -3.5057813384887671e-01
    1.3733906283836948e-02 -3.1362502409359000e-01
    1.5405331774883820e-02 -2.7361708674793650e-01
    1.8035957088864976e-02 -2.2881438097813775e-01
    1.8961994135149474e-02 -2.1650635094610968e-01
    1.4488052847142682e-02 -2.9408584883752314e-01
    1.3100913878256987e-02 -3.3241124765726682e-01
    1.1883094168653036e-02 -3.7688918072220451e-01
    1.1005181119821019e-02 -4.1885390829169550e-01
    1.0015445602284692e-02 -4.8283416858775452e-01
    8.8999401164319737e-03 -5.9842134663471702e-01
    8.3505873829352525e-03 -6.9920589878010098e-01
    8.0290177126366661e-03 -8.0469931254261517e-01
    8.0871234811418016e-03 -7.7974354758471698e-01
    7.9648174633251707e-03 -8.3868339110088186e-01
    7.8455650348803994e-03 -9.7542622000826462e-01
    7.8478978259626919e-03 -9.6575996380690143e-01
    7.8455650348803994e-03 -9.7542622000826462e-01
    7.8510114534710174e-03 -9.5618288746751501e-01
    7.8432343228316791e-03 -1.0049875621120892e+00
    7.8862970759948046e-03 -1.1105554165971789e+00
    7.9148707097310041e-03 -1.1447029429446780e+00
    7.8949950550595959e-03 -1.1217963123010053e+00
    7.8949950550595959e-03 -1.1217963123010053e+00
    7.8510114534710174e-03 -1.0458250331675945e+00
    8.0115804541436297e-03 -1.2298373876248840e+00
    8.0667699501762915e-03 -1.2690112727590763e+00
    7.9648174633251707e-03 -1.1923450620470368e+00
    7.8595930753490618e-03 -1.0669104331388017e+00
    7.9648174633251707e-03 -1.1923450620470368e+00
    7.8650687815646526e-03 -1.0776318121606494e+00
    7.8510114534710174e-03 -9.5618288746751501e-01
    7.8784147181271535e-03 -9.0954534096587358e-01
    7.8949950550595976e-03 -8.9142742673919195e-01
    7.9648174633251707e-03 -8.3868339110088186e-01
    7.9510283703548550e-03 -8.4731854573632337e-01
    8.0115804541436315e-03 -8.1311562818174166e-01
    8.4908786116438834e-03 -6.6786463109497407e-01
    8.9549068157100484e-03 -5.9075653918564808e-01
    9.9166746781291382e-03 -4.9065338146265813e-01
    1.0586301684254996e-02 -4.4320263021395917e-01
    1.2319184451209612e-02 -3.5946277018081779e-01
    1.4093618285321810e-02 -3.0395937943716439e-01
    1.6551385419358317e-02 -2.5197631533948484e-01
    2.0060060060866039e-02 -2.0359463942371503e-01
    1.3733906283836948e-02 -3.1362502409359000e-01
    1.2820648017167004e-02 -3.4156502553198664e-01
    1.1160731355834159e-02 -4.1061496704673439e-01
    9.6456759961493360e-03 -5.1395616875004668e-01
    8.7003596003292095e-03 -6.2915286960589578e-01
    8.4536849588003372e-03 -6.7566392469217618e-01
    8.0871234811418016e-03 -7.7974354758471698e-01
    7.9260668545556127e-03 -8.6476938368360490e-01
    7.8862970759948046e-03 -9.0045033778149641e-01
    7.8478978259626919e-03 -9.6575996380690143e-01
    7.8510114534710174e-03 -9.5618288746751501e-01
    7.8478978259626919e-03 -9.6575996380690143e-01
    7.8440109960348330e-03 -1.0150384378451045e+00
    7.8549087043704967e-03 -1.0563093645728086e+00
    7.9950787261102683e-03 -1.2171612389003692e+00
    7.9648174633251707e-03 -1.1923450620470368e+00
    7.9260668545556127e-03 -1.1563776642280763e+00
    7.8510114534710174e-03 -1.0458250331675945e+00
    7.8949950550595959e-03 -1.1217963123010053e+00
    7.9794961605670796e-03 -1.2046657263303882e+00
    8.0871234811418034e-03 -1.2824729401064427e+00
    8.2884934794485061e-03 -1.3985286385845574e+00
    8.0474079907300322e-03 -1.2557559782549625e+00
    8.0871234811418034e-03 -1.2824729401064427e+00
    8.0871234811418034e-03 -1.2824729401064427e+00
    7.8949950550595959e-03 -1.1217963123010053e+00
    7.9648174633251707e-03 -1.1923450620470368e+00
    7.8510114534710174e-03 -1.0458250331675945e+00
    7.8432343228316791e-03 -9.9503719020998904e-01
    7.8510114534710174e-03 -9.5618288746751501e-01
    7.8949950550595976e-03 -8.9142742673919195e-01
    7.9510283703548550e-03 -8.4731854573632337e-01
    8.0871234811418016e-03 -7.7974354758471698e-01
    8.4179357451504393e-03 -6.8348612617340887e-01
    9.0120825133710517e-03 -5.8309518948452999e-01
    9.9166746781291382e-03 -4.9065338146265813e-01
    1.1325406780662127e-02 -4.0230549459665466e-01
    1.3733906283836948e-02 -3.1362502409359000e-01
    1.5405331774883820e-02 -2.7361708674793650e-01
    1.8035957088864976e-02 -2.2881438097813775e-01
    1.3100913878256987e-02 -3.3241124765726682e-01
    1.1500040524969167e-02 -3.9391929857916774e-01
    9.6456759961493360e-03 -5.1395616875004668e-01
    8.6116366813972379e-03 -6.4458743219712167e-01
    8.4179357451504393e-03 -6.8348612617340887e-01
    8.3835844698151880e-03 -6.9133289844371515e-01
    8.1084897627138487e-03 -7.7151674981045948e-01
    8.0474079907300305e-03 -7.9633305938119558e-01
    7.8478978259626919e-03 -9.6575996380690143e-01
    7.8784147181271535e-03 -1.0994504121565505e+00
    7.8478978259626919e-03 -1.0354539818135851e+00
    7.8510114534710174e-03 -1.0458250331675945e+00
    7.8862970759948046e-03 -1.1105554165971789e+00
    7.9381156076795568e-03 -1.1682062670406035e+00
    8.1084897627138487e-03 -1.2961481396815719e+00
    8.2313526669478797e-03 -1.3680016708427558e+00
    7.9510283703548550e-03 -1.1801936887041646e+00
    7.8949950550595959e-03 -1.1217963123010053e+00
    8.0667699501762915e-03 -1.2690112727590763e+00
    8.1308913284940214e-03 -1.3100443565834770e+00
    8.1308913284940214e-03 -1.3100443565834770e+00
    8.5295661495402731e-03 -1.5149527937243170e+00
    8.2593213925391002e-03 -1.3831281496162493e+00
    8.1543521376998031e-03 -1.3241694217637889e+00
    8.1308913284940214e-03 -1.3100443565834770e+00
    8.1543521376998031e-03 -1.3241694217637889e+00
    8.3189033080770299e-03 -1.4142135623730951e+00
    8.0115804541436297e-03 -1.2298373876248840e+00
    8.0871234811418034e-03 -1.2824729401064427e+00
    7.8862970759948046e-03 -1.1105554165971789e+00
    7.8455650348803994e-03 -9.7542622000826462e-01
    7.8713407672356753e-03 -9.1871469850422360e-01
    7.9510283703548550e-03 -8.4731854573632337e-01
    8.0290177126366661e-03 -8.0469931254261517e-01
    8.4536849588003372e-03 -6.7566392469217618e-01
    9.5629768781773303e-03 -5.2168179835430062e-01
    1.1005181119821019e-02 -4.1885390829169550e-01
    1.2319184451209612e-02 -3.5946277018081779e-01
    1.4488052847142682e-02 -2.9408584883752314e-01
    2.0060060060866039e-02 -2.0359463942371503e-01
    1.2560820838435689e-02 -3.5057813384887671e-01
    1.0586301684254996e-02 -4.4320263021395917e-01
    8.7003596003292095e-03 -6.2915286960589578e-01
    8.2884934794485061e-03 -7.1503719867481141e-01
    8.3505873829352525e-03 -6.9920589878010098e-01
    8.2313526669478797e-03 -7.3099325922895342e-01
    7.9648174633251707e-03 -8.3868339110088186e-01
    7.8784147181271535e-03 -9.0954534096587358e-01
    7.8455650348803994e-03 -1.0251928638862373e+00
    7.8784147181271535e-03 -1.0994504121565505e+00
    7.8713407672356753e-03 -1.0884771971408735e+00
    7.8440109960348330e-03 -1.0150384378451045e+00
    7.8510114534710174e-03 -1.0458250331675945e+00
    7.9510283703548550e-03 -1.1801936887041646e+00
    8.2313526669478797e-03 -1.3680016708427558e+00
    8.2313526669478797e-03 -1.3680016708427558e+00
    8.0474079907300322e-03 -1.2557559782549625e+00
    8.1084897627138487e-03 -1.2961481396815719e+00
    8.1788976522420096e-03 -1.3385315336840842e+00
    8.1308913284940214e-03 -1.3100443565834770e+00
    8.1543521376998031e-03 -1.3241694217637889e+00
    8.1543521376998031e-03 -1.3241694217637889e+00
    8.2313526669478797e-03 -1.3680016708427558e+00
    8.0667699501762915e-03 -1.2690112727590763e+00
    8.1084897627138487e-03 -1.2961481396815719e+00
    8.2884934794485061e-03 -1.3985286385845574e+00
    8.5698001754079649e-03 -1.5329709716755888e+00
    8.5698001754079649e-03 -1.5329709716755888e+00
    8.4536849588003355e-03 -1.4800257398019094e+00
    8.1308913284940214e-03 -1.3100443565834770e+00
    7.8949950550595959e-03 -1.1217963123010053e+00
    7.8862970759948046e-03 -1.1105554165971789e+00
    7.8432343228316791e-03 -1.0049875621120892e+00
    7.8862970759948046e-03 -9.0045033778149641e-01
    8.0474079907300305e-03 -7.9633305938119558e-01
    9.0120825133710517e-03 -5.8309518948452999e-01
    1.0118895035155142e-02 -4.7498395351586448e-01
    1.2820648017167004e-02 -3.4156502553198664e-01
    1.5405331774883820e-02 -2.7361708674793650e-01
    1.8961994135149474e-02 -2.1650635094610968e-01
    1.2560820838435689e-02 -3.5057813384887671e-01
    1.0118895035155142e-02 -4.7498395351586448e-01
    8.7473773613052485e-03 -6.2145546626586534e-01
    8.1084897627138487e-03 -7.7151674981045948e-01
    7.9260668545556127e-03 -8.6476938368360490e-01
    7.8713407672356753e-03 -9.1871469850422360e-01
    7.8862970759948046e-03 -9.0045033778149641e-01
    7.8455650348803994e-03 -9.7542622000826462e-01
    7.8713407672356753e-03 -1.0884771971408735e+00
    7.8455650348803994e-03 -1.0251928638862373e+00
    7.8949950550595959e-03 -1.1217963123010053e+00
    7.8862970759948046e-03 -1.1105554165971789e+00
    7.9794961605670796e-03 -1.2046657263303882e+00
    8.3505873829352543e-03 -1.4301938838683887e+00
    8.4536849588003355e-03 -1.4800257398019094e+00
    8.2884934794485061e-03 -1.3985286385845574e+00
    8.2593213925391002e-03 -1.3831281496162493e+00
    8.3835844698151880e-03 -1.4464811413591578e+00
    8.2884934794485061e-03 -1.3985286385845574e+00
    8.2593213925391002e-03 -1.3831281496162493e+00
    8.2313526669478797e-03 -1.3680016708427558e+00
    8.1788976522420096e-03 -1.3385315336840842e+00
    8.3835844698151880e-03 -1.4464811413591578e+00
    8.2313526669478797e-03 -1.3680016708427558e+00
    8.3505873829352543e-03 -1.4301938838683887e+00
    9.1334749712278038e-03 -1.7612611437054211e+00
    9.0120825133710517e-03 -1.7149858514250882e+00
    8.8470876450977964e-03 -1.6499158227686115e+00
    8.2045549202967843e-03 -1.3531392816310368e+00
    8.1308913284940214e-03 -1.3100443565834770e+00
    7.9648174633251707e-03 -1.1923450620470368e+00
    7.9148707097310041e-03 -1.1447029429446780e+00
    7.9148707097310041e-03 -1.1447029429446780e+00
    7.8455650348803994e-03 -1.0251928638862373e+00
    7.9648174633251707e-03 -8.3868339110088186e-01
    8.3505873829352525e-03 -6.9920589878010098e-01
    9.6456759961493360e-03 -5.1395616875004668e-01
    1.2820648017167004e-02 -3.4156502553198664e-01
    1.5944293353589187e-02 -2.6296185307038888e-01
    1.7241805194357102e-02 -2.4061325159289387e-01
    1.1160731355834159e-02 -4.1061496704673439e-01
    9.1334749712278056e-03 -5.6777497395766885e-01
    8.5295661495402766e-03 -6.6008657440845275e-01
    7.9648174633251707e-03 -8.3868339110088186e-01
    7.8510114534710174e-03 -9.5618288746751501e-01
    7.8440109960348330e-03 -1.0150384378451045e+00
    7.8549087043704967e-03 -1.0563093645728086e+00
    7.9045166605962794e-03 -1.1331773511198100e+00
    7.8862970759948046e-03 -1.1105554165971789e+00
    7.9148707097310041e-03 -1.1447029429446780e+00
    7.9260668545556127e-03 -1.1563776642280763e+00
    8.0667699501762915e-03 -1.2690112727590763e+00
    8.1788976522420096e-03 -1.3385315336840842e+00
    8.1788976522420096e-03 -1.3385315336840842e+00
    8.3189033080770299e-03 -1.4142135623730951e+00
    8.2045549202967843e-03 -1.3531392816310368e+00
    8.2045549202967843e-03 -1.3531392816310368e+00
    8.4536849588003355e-03 -1.4800257398019094e+00
    8.3505873829352543e-03 -1.4301938838683887e+00
    8.3835844698151880e-03 -1.4464811413591578e+00
    8.2045549202967843e-03 -1.3531392816310368e+00
    8.2313526669478797e-03 -1.3680016708427558e+00
    8.6551353033868898e-03 -1.5701965613830990e+00
    8.7003596003292112e-03 -1.5894388284780530e+00
    8.8999401164319737e-03 -1.6710633830554362e+00
    9.4077836393415722e-03 -1.8618986725025262e+00
    9.0120825133710517e-03 -1.7149858514250882e+00
    8.7962609435424787e-03 -1.6292775867068978e+00
    8.4179357451504393e-03 -1.4630874888399532e+00
    8.1788976522420096e-03 -1.3385315336840842e+00
    8.0871234811418034e-03 -1.2824729401064427e+00
    7.9045166605962794e-03 -1.1331773511198100e+00
    7.8432343228316791e-03 -9.9503719020998904e-01
    7.8440109960348330e-03 -1.0150384378451045e+00
    7.8949950550595976e-03 -8.9142742673919195e-01
    8.4908786116438834e-03 -6.6786463109497407e-01
    9.1979181990075164e-03 -5.6011203361120399e-01
    9.9166746781291382e-03 -4.9065338146265813e-01
    1.3733906283836948e-02 -3.1362502409359000e-01
    1.3100913878256987e-02 -3.3241124765726682e-01
    1.0118895035155142e-02 -4.7498395351586448e-01
    9.0120825133710517e-03 -5.8309518948452999e-01
    8.2593213925390985e-03 -7.2299880548122109e-01
    7.8595930753490618e-03 -9.3728580107520898e-01
    7.8440109960348347e-03 -9.8518436614377813e-01
    7.8784147181271535e-03 -1.0994504121565505e+00
    7.9510283703548550e-03 -1.1801936887041646e+00
    7.9510283703548550e-03 -1.1801936887041646e+00
    7.9950787261102683e-03 -1.2171612389003692e+00
    8.0667699501762915e-03 -1.2690112727590763e+00
    8.0474079907300322e-03 -1.2557559782549625e+00
    8.3505873829352543e-03 -1.4301938838683887e+00
    8.4536849588003355e-03 -1.4800257398019094e+00
    8.3835844698151880e-03 -1.4464811413591578e+00
    8.1308913284940214e-03 -1.3100443565834770e+00
    8.2313526669478797e-03 -1.3680016708427558e+00
    8.2593213925391002e-03 -1.3831281496162493e+00
    8.2884934794485061e-03 -1.3985286385845574e+00
    8.2313526669478797e-03 -1.3680016708427558e+00
    8.0871234811418034e-03 -1.2824729401064427e+00
    8.0667699501762915e-03 -1.2690112727590763e+00
    8.2593213925391002e-03 -1.3831281496162493e+00
    8.4179357451504393e-03 -1.4630874888399532e+00
    8.4536849588003355e-03 -1.4800257398019094e+00
    9.0120825133710517e-03 -1.7149858514250882e+00
    8.8999401164319737e-03 -1.6710633830554362e+00
    8.7473773613052450e-03 -1.6091257608669722e+00
    8.8470876450977964e-03 -1.6499158227686115e+00
    8.7003596003292112e-03 -1.5894388284780530e+00
    8.7473773613052450e-03 -1.6091257608669722e+00
    8.3835844698151880e-03 -1.4464811413591578e+00
    8.0871234811418034e-03 -1.2824729401064427e+00
    7.8713407672356753e-03 -1.0884771971408735e+00
    7.8455650348803994e-03 -9.7542622000826462e-01
    7.8478978259626919e-03 -9.6575996380690143e-01
    8.0871234811418016e-03 -7.7974354758471698e-01
    8.7962609435424804e-03 -6.1376895389643427e-01
    9.5629768781773303e-03 -5.2168179835430062e-01
    1.2319184451209612e-02 -3.5946277018081779e-01
    1.3404276646484175e-02 -3.2310308632943197e-01
    1.0227339070357264e-02 -4.6709936649691386e-01
    8.4179357451504393e-03 -6.8348612617340887e-01
    8.1084897627138487e-03 -7.7151674981045948e-01
    7.8440109960348330e-03 -1.0150384378451045e+00
    7.8549087043704967e-03 -1.0563093645728086e+00
    7.9260668545556127e-03 -1.1563776642280763e+00
    8.1084897627138487e-03 -1.2961481396815719e+00
    8.1543521376998031e-03 -1.3241694217637889e+00
    8.0115804541436297e-03 -1.2298373876248840e+00
    8.1084897627138487e-03 -1.2961481396815719e+00
    8.1308913284940214e-03 -1.3100443565834770e+00
    8.2593213925391002e-03 -1.3831281496162493e+00
    8.2045549202967843e-03 -1.3531392816310368e+00
    8.2593213925391002e-03 -1.3831281496162493e+00
    8.2313526669478797e-03 -1.3680016708427558e+00
    8.2593213925391002e-03 -1.3831281496162493e+00
    8.1084897627138487e-03 -1.2961481396815719e+00
    8.3189033080770299e-03 -1.4142135623730951e+00
    8.3505873829352543e-03 -1.4301938838683887e+00
    8.2045549202967843e-03 -1.3531392816310368e+00
    8.1788976522420096e-03 -1.3385315336840842e+00
    8.3189033080770299e-03 -1.4142135623730951e+00
    8.4536849588003355e-03 -1.4800257398019094e+00
    8.6551353033868898e-03 -1.5701965613830990e+00
    8.7003596003292112e-03 -1.5894388284780530e+00
    9.0120825133710517e-03 -1.7149858514250882e+00
    9.0715688523400496e-03 -1.7378147196982767e+00
    8.4179357451504393e-03 -1.4630874888399532e+00
    8.7003596003292112e-03 -1.5894388284780530e+00
    8.6116366813972396e-03 -1.5513799215591744e+00
    8.4179357451504393e-03 -1.4630874888399532e+00
    8.2884934794485061e-03 -1.3985286385845574e+00
    8.0115804541436297e-03 -1.2298373876248840e+00
    7.8650687815646526e-03 -1.0776318121606494e+00
    7.8440109960348330e-03 -1.0150384378451045e+00
    7.9381156076795550e-03 -8.5601321291768340e-01
    8.2313526669478797e-03 -7.3099325922895342e-01
    9.4077836393415687e-03 -5.3708615552957462e-01
    1.1685577462657359e-02 -3.8544964466377263e-01
    1.4093618285321810e-02 -3.0395937943716439e-01
    9.7320416140474278e-03 -5.0621141828291472e-01
    8.4908786116438834e-03 -6.6786463109497407e-01
    7.9950787261102683e-03 -8.2158383625774922e-01
    7.8432343228316791e-03 -1.0049875621120892e+00
    7.8784147181271535e-03 -1.0994504121565505e+00
    7.9648174633251707e-03 -1.1923450620470368e+00
    8.2884934794485061e-03 -1.3985286385845574e+00
    8.4179357451504393e-03 -1.4630874888399532e+00
    8.2884934794485061e-03 -1.3985286385845574e+00
    8.4536849588003355e-03 -1.4800257398019094e+00
    8.3505873829352543e-03 -1.4301938838683887e+00
    8.2884934794485061e-03 -1.3985286385845574e+00
    8.4536849588003355e-03 -1.4800257398019094e+00
    8.2313526669478797e-03 -1.3680016708427558e+00
    8.1543521376998031e-03 -1.3241694217637889e+00
    8.2313526669478797e-03 -1.3680016708427558e+00
    8.0667699501762915e-03 -1.2690112727590763e+00
    8.1788976522420096e-03 -1.3385315336840842e+00
    8.1543521376998031e-03 -1.3241694217637889e+00
    8.1788976522420096e-03 -1.3385315336840842e+00
    8.3189033080770299e-03 -1.4142135623730951e+00
    8.2884934794485061e-03 -1.3985286385845574e+00
    8.4536849588003355e-03 -1.4800257398019094e+00
    8.4179357451504393e-03 -1.4630874888399532e+00
    8.4536849588003355e-03 -1.4800257398019094e+00
    8.5698001754079649e-03 -1.5329709716755888e+00
    8.8999401164319737e-03 -1.6710633830554362e+00
    9.0715688523400496e-03 -1.7378147196982767e+00
    9.0120825133710517e-03 -1.7149858514250882e+00
    8.6551353033868898e-03 -1.5701965613830990e+00
    8.4536849588003355e-03 -1.4800257398019094e+00
    8.3505873829352543e-03 -1.4301938838683887e+00
    8.0871234811418034e-03 -1.2824729401064427e+00
    7.9381156076795568e-03 -1.1682062670406035e+00
    7.8650687815646526e-03 -1.0776318121606494e+00
    7.8510114534710174e-03 -9.5618288746751501e-01
    8.2045549202967825e-03 -7.3902222304464305e-01
    9.1979181990075164e-03 -5.6011203361120399e-01
    1.0586301684254996e-02 -4.4320263021395917e-01
    1.3100913878256987e-02 -3.3241124765726682e-01
    9.5629768781773303e-03 -5.2168179835430062e-01
    8.3505873829352525e-03 -6.9920589878010098e-01
    7.9381156076795550e-03 -8.5601321291768340e-01
    7.8549087043704967e-03 -1.0563093645728086e+00
    7.9045166605962794e-03 -1.1331773511198100e+00
    7.9510283703548550e-03 -1.1801936887041646e+00
    8.1308913284940214e-03 -1.3100443565834770e+00
    8.4179357451504393e-03 -1.4630874888399532e+00
    8.4536849588003355e-03 -1.4800257398019094e+00
    8.8470876450977964e-03 -1.6499158227686115e+00
    8.8999401164319737e-03 -1.6710633830554362e+00
    8.5698001754079649e-03 -1.5329709716755888e+00
    8.5295661495402731e-03 -1.5149527937243170e+00
    8.5698001754079649e-03 -1.5329709716755888e+00
    8.3835844698151880e-03 -1.4464811413591578e+00
    8.2884934794485061e-03 -1.3985286385845574e+00
    8.1084897627138487e-03 -1.2961481396815719e+00
    8.1308913284940214e-03 -1.3100443565834770e+00
    8.2884934794485061e-03 -1.3985286385845574e+00
    8.1308913284940214e-03 -1.3100443565834770e+00
    8.1308913284940214e-03 -1.3100443565834770e+00
    8.2593213925391002e-03 -1.3831281496162493e+00
    8.3505873829352543e-03 -1.4301938838683887e+00
    8.4908786116438852e-03 -1.4973094148742165e+00
    8.4908786116438852e-03 -1.4973094148742165e+00
    8.5295661495402731e-03 -1.5149527937243170e+00
    8.7962609435424787e-03 -1.6292775867068978e+00
    9.0715688523400496e-03 -1.7378147196982767e+00
    8.8470876450977964e-03 -1.6499158227686115e+00
    9.1979181990075164e-03 -1.7853571071357126e+00
    8.9549068157100502e-03 -1.6927446988204147e+00
    8.7003596003292112e-03 -1.5894388284780530e+00
    8.4179357451504393e-03 -1.4630874888399532e+00
    8.2045549202967843e-03 -1.3531392816310368e+00
    7.9045166605962794e-03 -1.1331773511198100e+00
    7.8478978259626919e-03 -1.0354539818135851e+00
    8.0667699501762915e-03 -7.8801506453587811e-01
    9.0715688523400496e-03 -5.7543533764843591e-01
    1.0118895035155142e-02 -4.7498395351586448e-01
    1.3733906283836948e-02 -3.1362502409359000e-01
    1.0118895035155142e-02 -4.7498395351586448e-01
    8.4179357451504393e-03 -6.8348612617340887e-01
    8.0667699501762915e-03 -7.8801506453587811e-01
    7.8478978259626919e-03 -9.6575996380690143e-01
    7.8713407672356753e-03 -1.0884771971408735e+00
    8.0290177126366678e-03 -1.2427002041797350e+00
    8.0290177126366678e-03 -1.2427002041797350e+00
    8.4179357451504393e-03 -1.4630874888399532e+00
    8.3835844698151880e-03 -1.4464811413591578e+00
    8.6116366813972396e-03 -1.5513799215591744e+00
    9.0120825133710517e-03 -1.7149858514250882e+00
    8.6551353033868898e-03 -1.5701965613830990e+00
    8.5698001754079649e-03 -1.5329709716755888e+00
    8.5295661495402731e-03 -1.5149527937243170e+00
    8.2593213925391002e-03 -1.3831281496162493e+00
    8.3189033080770299e-03 -1.4142135623730951e+00
    8.2593213925391002e-03 -1.3831281496162493e+00
    8.1084897627138487e-03 -1.2961481396815719e+00
    8.1788976522420096e-03 -1.3385315336840842e+00
    8.2045549202967843e-03 -1.3531392816310368e+00
    8.2045549202967843e-03 -1.3531392816310368e+00
    8.2313526669478797e-03 -1.3680016708427558e+00
    8.3505873829352543e-03 -1.4301938838683887e+00
    8.5295661495402731e-03 -1.5149527937243170e+00
    8.2313526669478797e-03 -1.3680016708427558e+00
    8.3505873829352543e-03 -1.4301938838683887e+00
    8.4536849588003355e-03 -1.4800257398019094e+00
    8.5698001754079649e-03 -1.5329709716755888e+00
    8.5295661495402731e-03 -1.5149527937243170e+00
    8.8999401164319737e-03 -1.6710633830554362e+00
    8.6551353033868898e-03 -1.5701965613830990e+00
    8.8999401164319737e-03 -1.6710633830554362e+00
    8.5295661495402731e-03 -1.5149527937243170e+00
    8.1788976522420096e-03 -1.3385315336840842e+00
    8.0115804541436297e-03 -1.2298373876248840e+00
    7.8478978259626919e-03 -1.0354539818135851e+00
    7.9794961605670813e-03 -8.3010579461421719e-01
    9.0120825133710517e-03 -5.8309518948452999e-01
    9.6456759961493360e-03 -5.1395616875004668e-01
    1.4093618285321810e-02 -3.0395937943716439e-01
    1.0118895035155142e-02 -4.7498395351586448e-01
    8.5295661495402766e-03 -6.6008657440845275e-01
    7.9648174633251707e-03 -8.3868339110088186e-01
    7.8440109960348347e-03 -9.8518436614377813e-01
    7.8713407672356753e-03 -1.0884771971408735e+00
    8.0115804541436297e-03 -1.2298373876248840e+00
    8.2313526669478797e-03 -1.3680016708427558e+00
    8.2593213925391002e-03 -1.3831281496162493e+00
    8.3835844698151880e-03 -1.4464811413591578e+00
    8.7473773613052450e-03 -1.6091257608669722e+00
    8.8999401164319737e-03 -1.6710633830554362e+00
    8.7962609435424787e-03 -1.6292775867068978e+00
    8.4908786116438852e-03 -1.4973094148742165e+00
    8.6116366813972396e-03 -1.5513799215591744e+00
    8.4179357451504393e-03 -1.4630874888399532e+00
    8.2884934794485061e-03 -1.3985286385845574e+00
    8.1543521376998031e-03 -1.3241694217637889e+00
    8.3835844698151880e-03 -1.4464811413591578e+00
    8.3505873829352543e-03 -1.4301938838683887e+00
    8.2884934794485061e-03 -1.3985286385845574e+00
    8.2884934794485061e-03 -1.3985286385845574e+00
    8.1788976522420096e-03 -1.3385315336840842e+00
    8.3835844698151880e-03 -1.4464811413591578e+00
    8.3835844698151880e-03 -1.4464811413591578e+00
    8.2593213925391002e-03 -1.3831281496162493e+00
    8.5295661495402731e-03 -1.5149527937243170e+00
    8.6116366813972396e-03 -1.5513799215591744e+00
    8.4908786116438852e-03 -1.4973094148742165e+00
    9.0120825133710517e-03 -1.7149858514250882e+00
    8.7473773613052450e-03 -1.6091257608669722e+00
    8.4908786116438852e-03 -1.4973094148742165e+00
    8.4908786116438852e-03 -1.4973094148742165e+00
    8.1788976522420096e-03 -1.3385315336840842e+00
    8.0115804541436297e-03 -1.2298373876248840e+00
    8.0290177126366678e-03 -1.2427002041797350e+00
    7.8650687815646526e-03 -1.0776318121606494e+00
    7.9648174633251707e-03 -8.3868339110088186e-01
    9.1334749712278056e-03 -5.6777497395766885e-01
    1.0015445602284692e-02 -4.8283416858775452e-01
    1.3733906283836948e-02 -3.1362502409359000e-01
    9.5629768781773303e-03 -5.2168179835430062e-01
    8.3505873829352525e-03 -6.9920589878010098e-01
    7.8784147181271535e-03 -9.0954534096587358e-01
    7.8478978259626919e-03 -9.6575996380690143e-01
    7.8510114534710174e-03 -1.0458250331675945e+00
    7.9648174633251707e-03 -1.1923450620470368e+00
    8.1308913284940214e-03 -1.3100443565834770e+00
    8.5295661495402731e-03 -1.5149527937243170e+00
    8.4179357451504393e-03 -1.4630874888399532e+00
    8.8999401164319737e-03 -1.6710633830554362e+00
    8.8999401164319737e-03 -1.6710633830554362e+00
    8.3835844698151880e-03 -1.4464811413591578e+00
    8.5698001754079649e-03 -1.5329709716755888e+00
    8.7473773613052450e-03 -1.6091257608669722e+00
    8.3505873829352543e-03 -1.4301938838683887e+00
    8.3835844698151880e-03 -1.4464811413591578e+00
    8.3835844698151880e-03 -1.4464811413591578e+00
    8.4179357451504393e-03 -1.4630874888399532e+00
    8.6551353033868898e-03 -1.5701965613830990e+00
    8.7473773613052450e-03 -1.6091257608669722e+00
    8.3189033080770299e-03 -1.4142135623730951e+00
    8.1308913284940214e-03 -1.3100443565834770e+00
    8.3835844698151880e-03 -1.4464811413591578e+00
    8.3835844698151880e-03 -1.4464811413591578e+00
    8.5698001754079649e-03 -1.5329709716755888e+00
    8.6551353033868898e-03 -1.5701965613830990e+00
    8.7962609435424787e-03 -1.6292775867068978e+00
    8.5295661495402731e-03 -1.5149527937243170e+00
    8.4908786116438852e-03 -1.4973094148742165e+00
    8.7003596003292112e-03 -1.5894388284780530e+00
    8.3835844698151880e-03 -1.4464811413591578e+00
    8.3189033080770299e-03 -1.4142135623730951e+00
    8.2884934794485061e-03 -1.3985286385845574e+00
    8.1084897627138487e-03 -1.2961481396815719e+00
    7.9260668545556127e-03 -1.1563776642280763e+00
    7.8650687815646526e-03 -1.0776318121606494e+00
    7.8949950550595976e-03 -8.9142742673919195e-01
    9.0120825133710517e-03 -5.8309518948452999e-01
    9.9166746781291382e-03 -4.9065338146265813e-01
    1.2820648017167004e-02 -3.4156502553198664e-01
    9.6456759961493360e-03 -5.1395616875004668e-01
    8.2884934794485061e-03 -7.1503719867481141e-01
    7.9950787261102683e-03 -8.2158383625774922e-01
    7.8440109960348347e-03 -9.8518436614377813e-01
    7.9148707097310041e-03 -1.1447029429446780e+00
    7.9510283703548550e-03 -1.1801936887041646e+00
    8.0290177126366678e-03 -1.2427002041797350e+00
    8.1788976522420096e-03 -1.3385315336840842e+00
    8.4908786116438852e-03 -1.4973094148742165e+00
    8.3189033080770299e-03 -1.4142135623730951e+00
    8.3505873829352543e-03 -1.4301938838683887e+00
    8.3835844698151880e-03 -1.4464811413591578e+00
    8.6116366813972396e-03 -1.5513799215591744e+00
    8.6116366813972396e-03 -1.5513799215591744e+00
    8.2593213925391002e-03 -1.3831281496162493e+00
    8.2884934794485061e-03 -1.3985286385845574e+00
    8.3189033080770299e-03 -1.4142135623730951e+00
    8.3505873829352543e-03 -1.4301938838683887e+00
    8.4179357451504393e-03 -1.4630874888399532e+00
    8.6116366813972396e-03 -1.5513799215591744e+00
    8.3835844698151880e-03 -1.4464811413591578e+00
    8.0667699501762915e-03 -1.2690112727590763e+00
    8.2884934794485061e-03 -1.3985286385845574e+00
    8.1788976522420096e-03 -1.3385315336840842e+00
    8.4179357451504393e-03 -1.4630874888399532e+00
    8.3505873829352543e-03 -1.4301938838683887e+00
    8.3505873829352543e-03 -1.4301938838683887e+00
    8.3835844698151880e-03 -1.4464811413591578e+00
    8.3189033080770299e-03 -1.4142135623730951e+00
    8.3505873829352543e-03 -1.4301938838683887e+00
    8.1543521376998031e-03 -1.3241694217637889e+00
    8.0290177126366678e-03 -1.2427002041797350e+00
    8.0290177126366678e-03 -1.2427002041797350e+00
    7.8595930753490618e-03 -1.0669104331388017e+00
    7.8549087043704967e-03 -1.0563093645728086e+00
    7.8432343228316791e-03 -9.9503719020998904e-01
    7.9950787261102683e-03 -8.2158383625774922e-01
    8.5295661495402766e-03 -6.6008657440845275e-01
    9.9166746781291382e-03 -4.9065338146265813e-01
    1.3404276646484175e-02 -3.2310308632943197e-01
    9.8222943178553519e-03 -4.9844478627922678e-01
    8.4536849588003372e-03 -6.7566392469217618e-01
    8.0115804541436315e-03 -8.1311562818174166e-01
    7.8650687815646526e-03 -9.2796072713833699e-01
    7.8510114534710174e-03 -1.0458250331675945e+00
    7.9648174633251707e-03 -1.1923450620470368e+00
    8.0290177126366678e-03 -1.2427002041797350e+00
    8.2045549202967843e-03 -1.3531392816310368e+00
    8.2313526669478797e-03 -1.3680016708427558e+00
    8.3505873829352543e-03 -1.4301938838683887e+00
    8.3189033080770299e-03 -1.4142135623730951e+00
    8.5295661495402731e-03 -1.5149527937243170e+00
    8.1543521376998031e-03 -1.3241694217637889e+00
    8.6551353033868898e-03 -1.5701965613830990e+00
    8.3835844698151880e-03 -1.4464811413591578e+00
    8.4179357451504393e-03 -1.4630874888399532e+00
    8.2045549202967843e-03 -1.3531392816310368e+00
    8.2045549202967843e-03 -1.3531392816310368e+00
    8.2884934794485061e-03 -1.3985286385845574e+00
    8.2593213925391002e-03 -1.3831281496162493e+00
    8.1308913284940214e-03 -1.3100443565834770e+00
    8.2884934794485061e-03 -1.3985286385845574e+00
    8.2593213925391002e-03 -1.3831281496162493e+00
    8.1788976522420096e-03 -1.3385315336840842e+00
    8.4179357451504393e-03 -1.4630874888399532e+00
    8.5295661495402731e-03 -1.5149527937243170e+00
    8.2313526669478797e-03 -1.3680016708427558e+00
    8.3835844698151880e-03 -1.4464811413591578e+00
    8.2313526669478797e-03 -1.3680016708427558e+00
    7.9794961605670796e-03 -1.2046657263303882e+00
    7.9794961605670796e-03 -1.2046657263303882e+00
    7.9794961605670796e-03 -1.2046657263303882e+00
    7.9794961605670796e-03 -1.2046657263303882e+00
    7.8650687815646526e-03 -1.0776318121606494e+00
    7.8510114534710174e-03 -1.0458250331675945e+00
    7.8432343228316791e-03 -1.0049875621120892e+00
    7.9794961605670813e-03 -8.3010579461421719e-01
    8.4179357451504393e-03 -6.8348612617340887e-01
    9.5629768781773303e-03 -5.2168179835430062e-01
    1.6551385419358317e-02 -2.5197631533948484e-01
    1.0586301684254996e-02 -4.4320263021395917e-01
    8.8470876450977946e-03 -6.0609152673132649e-01
    8.0290177126366661e-03 -8.0469931254261517e-01
    7.9148707097310041e-03 -8.7358908803672797e-01
    7.8440109960348330e-03 -1.0150384378451045e+00
    7.8595930753490618e-03 -1.0669104331388017e+00
    8.0115804541436297e-03 -1.2298373876248840e+00
    8.1543521376998031e-03 -1.3241694217637889e+00
    8.2884934794485061e-03 -1.3985286385845574e+00
    8.1788976522420096e-03 -1.3385315336840842e+00
    8.3189033080770299e-03 -1.4142135623730951e+00
    8.2884934794485061e-03 -1.3985286385845574e+00
    8.4179357451504393e-03 -1.4630874888399532e+00
    8.3189033080770299e-03 -1.4142135623730951e+00
    8.3835844698151880e-03 -1.4464811413591578e+00
    8.2884934794485061e-03 -1.3985286385845574e+00
    8.2593213925391002e-03 -1.3831281496162493e+00
    8.3505873829352543e-03 -1.4301938838683887e+00
    8.2884934794485061e-03 -1.3985286385845574e+00
    8.4179357451504393e-03 -1.4630874888399532e+00
    8.2593213925391002e-03 -1.3831281496162493e+00
    8.1788976522420096e-03 -1.3385315336840842e+00
    8.2884934794485061e-03 -1.3985286385845574e+00
    8.3505873829352543e-03 -1.4301938838683887e+00
    8.2884934794485061e-03 -1.3985286385845574e+00
    8.4179357451504393e-03 -1.4630874888399532e+00
    8.4179357451504393e-03 -1.4630874888399532e+00
    8.2313526669478797e-03 -1.3680016708427558e+00
    8.1788976522420096e-03 -1.3385315336840842e+00
    8.1543521376998031e-03 -1.3241694217637889e+00
    7.9381156076795568e-03 -1.1682062670406035e+00
    7.9648174633251707e-03 -1.1923450620470368e+00
    7.9381156076795568e-03 -1.1682062670406035e+00
    7.8549087043704967e-03 -1.0563093645728086e+00
    7.8440109960348347e-03 -9.8518436614377813e-01
    7.8595930753490618e-03 -9.3728580107520898e-01
    8.0667699501762915e-03 -7.8801506453587811e-01
    8.4908786116438834e-03 -6.6786463109497407e-01
    1.0227339070357264e-02 -4.6709936649691386e-01
    1.8961994135149474e-02 -2.1650635094610968e-01
    1.0341125548329952e-02 -4.5917684337733738e-01
    8.7962609435424804e-03 -6.1376895389643427e-01
    8.3835844698151880e-03 -6.9133289844371515e-01
    7.9794961605670813e-03 -8.3010579461421719e-01
    7.8455650348803994e-03 -9.7542622000826462e-01
    7.8650687815646526e-03 -1.0776318121606494e+00
    7.9950787261102683e-03 -1.2171612389003692e+00
    7.9648174633251707e-03 -1.1923450620470368e+00
    8.2045549202967843e-03 -1.3531392816310368e+00
    8.1084897627138487e-03 -1.2961481396815719e+00
    8.2593213925391002e-03 -1.3831281496162493e+00
    8.2313526669478797e-03 -1.3680016708427558e+00
    8.3189033080770299e-03 -1.4142135623730951e+00
    8.4908786116438852e-03 -1.4973094148742165e+00
    8.8470876450977964e-03 -1.6499158227686115e+00
    8.4179357451504393e-03 -1.4630874888399532e+00
    8.5295661495402731e-03 -1.5149527937243170e+00
    8.3505873829352543e-03 -1.4301938838683887e+00
    8.2593213925391002e-03 -1.3831281496162493e+00
    8.4179357451504393e-03 -1.4630874888399532e+00
    8.3189033080770299e-03 -1.4142135623730951e+00
    8.3835844698151880e-03 -1.4464811413591578e+00
    8.1788976522420096e-03 -1.3385315336840842e+00
    8.2593213925391002e-03 -1.3831281496162493e+00
    8.1084897627138487e-03 -1.2961481396815719e+00
    8.4179357451504393e-03 -1.4630874888399532e+00
    8.4536849588003355e-03 -1.4800257398019094e+00
    8.0474079907300322e-03 -1.2557559782549625e+00
    8.0667699501762915e-03 -1.2690112727590763e+00
    7.9381156076795568e-03 -1.1682062670406035e+00
    7.9510283703548550e-03 -1.1801936887041646e+00
    8.0115804541436297e-03 -1.2298373876248840e+00
    7.9148707097310041e-03 -1.1447029429446780e+00
    7.8440109960348330e-03 -1.0150384378451045e+00
    7.8595930753490618e-03 -1.0669104331388017e+00
    7.8549087043704967e-03 -9.4669235504166815e-01
    7.9950787261102683e-03 -8.2158383625774922e-01
    8.4908786116438834e-03 -6.6786463109497407e-01
    1.0227339070357264e-02 -4.6709936649691386e-01
    1.8035957088864976e-02 -2.2881438097813775e-01
    1.1883094168653036e-02 -3.7688918072220451e-01
    9.1979181990075164e-03 -5.6011203361120399e-01
    8.6551353033868933e-03 -6.3686294098055807e-01
    8.1084897627138487e-03 -7.7151674981045948e-01
    7.9648174633251707e-03 -8.3868339110088186e-01
    7.8595930753490618e-03 -1.0669104331388017e+00
    7.9950787261102683e-03 -1.2171612389003692e+00
    8.1308913284940214e-03 -1.3100443565834770e+00
    8.0667699501762915e-03 -1.2690112727590763e+00
    8.3835844698151880e-03 -1.4464811413591578e+00
    8.6551353033868898e-03 -1.5701965613830990e+00
    8.7003596003292112e-03 -1.5894388284780530e+00
    8.4536849588003355e-03 -1.4800257398019094e+00
    8.4908786116438852e-03 -1.4973094148742165e+00
    8.5295661495402731e-03 -1.5149527937243170e+00
    8.6551353033868898e-03 -1.5701965613830990e+00
    8.5295661495402731e-03 -1.5149527937243170e+00
    8.6551353033868898e-03 -1.5701965613830990e+00
    8.3835844698151880e-03 -1.4464811413591578e+00
    8.1788976522420096e-03 -1.3385315336840842e+00
    8.2045549202967843e-03 -1.3531392816310368e+00
    8.3835844698151880e-03 -1.4464811413591578e+00
    8.1084897627138487e-03 -1.2961481396815719e+00
    8.0871234811418034e-03 -1.2824729401064427e+00
    8.1084897627138487e-03 -1.2961481396815719e+00
    8.0667699501762915e-03 -1.2690112727590763e+00
    8.0871234811418034e-03 -1.2824729401064427e+00
    8.0871234811418034e-03 -1.2824729401064427e+00
    8.1308913284940214e-03 -1.3100443565834770e+00
    7.9950787261102683e-03 -1.2171612389003692e+00
    7.9648174633251707e-03 -1.1923450620470368e+00
    8.0290177126366678e-03 -1.2427002041797350e+00
    7.9794961605670796e-03 -1.2046657263303882e+00
    7.9045166605962794e-03 -1.1331773511198100e+00
    7.8432343228316791e-03 -1.0049875621120892e+00
    7.8862970759948046e-03 -9.0045033778149641e-01
    8.0474079907300305e-03 -7.9633305938119558e-01
    8.8470876450977946e-03 -6.0609152673132649e-01
    1.0118895035155142e-02 -4.7498395351586448e-01
    1.8961994135149474e-02 -2.1650635094610968e-01
    1.2560820838435689e-02 -3.5057813384887671e-01
    9.6456759961493360e-03 -5.1395616875004668e-01
    8.5698001754079649e-03 -6.5232807305344209e-01
    8.0667699501762915e-03 -7.8801506453587811e-01
    7.9260668545556127e-03 -8.6476938368360490e-01
    7.8713407672356753e-03 -9.1871469850422360e-01
    7.8862970759948046e-03 -1.1105554165971789e+00
    7.9510283703548550e-03 -1.1801936887041646e+00
    8.0667699501762915e-03 -1.2690112727590763e+00
    8.1084897627138487e-03 -1.2961481396815719e+00
    8.3189033080770299e-03 -1.4142135623730951e+00
    8.3189033080770299e-03 -1.4142135623730951e+00
    8.2884934794485061e-03 -1.3985286385845574e+00
    8.6551353033868898e-03 -1.5701965613830990e+00
    8.6551353033868898e-03 -1.5701965613830990e+00
    8.3505873829352543e-03 -1.4301938838683887e+00
    8.3835844698151880e-03 -1.4464811413591578e+00
    8.4179357451504393e-03 -1.4630874888399532e+00
    8.4908786116438852e-03 -1.4973094148742165e+00
    8.3505873829352543e-03 -1.4301938838683887e+00
    8.2884934794485061e-03 -1.3985286385845574e+00
    8.2593213925391002e-03 -1.3831281496162493e+00
    8.2313526669478797e-03 -1.3680016708427558e+00
    8.0667699501762915e-03 -1.2690112727590763e+00
    8.1543521376998031e-03 -1.3241694217637889e+00
    8.0667699501762915e-03 -1.2690112727590763e+00
    8.3189033080770299e-03 -1.4142135623730951e+00
    8.2593213925391002e-03 -1.3831281496162493e+00
    8.0667699501762915e-03 -1.2690112727590763e+00
    7.9950787261102683e-03 -1.2171612389003692e+00
    8.0290177126366678e-03 -1.2427002041797350e+00
    7.9648174633251707e-03 -1.1923450620470368e+00
    7.8549087043704967e-03 -1.0563093645728086e+00
    7.8713407672356753e-03 -1.0884771971408735e+00
    7.8549087043704967e-03 -9.4669235504166815e-01
    7.8862970759948046e-03 -9.0045033778149641e-01
    8.2884934794485061e-03 -7.1503719867481141e-01
    8.8999401164319737e-03 -5.9842134663471702e-01
    1.0460638233541734e-02 -4.5121260440202404e-01
    1.4922918782177779e-02 -2.8398091712353235e-01
    1.2319184451209612e-02 -3.5946277018081779e-01
    9.9166746781291382e-03 -4.9065338146265813e-01
    9.3349309976613459e-03 -5.4476985374411735e-01
    8.2045549202967825e-03 -7.3902222304464305e-01
    8.0667699501762915e-03 -7.8801506453587811e-01
    7.9045166605962794e-03 -8.8247439733224131e-01
    7.8432343228316791e-03 -9.9503719020998904e-01
    7.9260668545556127e-03 -1.1563776642280763e+00
    7.9510283703548550e-03 -1.1801936887041646e+00
    8.1084897627138487e-03 -1.2961481396815719e+00
    8.0667699501762915e-03 -1.2690112727590763e+00
    7.9950787261102683e-03 -1.2171612389003692e+00
    8.1084897627138487e-03 -1.2961481396815719e+00
    8.3505873829352543e-03 -1.4301938838683887e+00
    8.2313526669478797e-03 -1.3680016708427558e+00
    8.3505873829352543e-03 -1.4301938838683887e+00
    8.2313526669478797e-03 -1.3680016708427558e+00
    8.2593213925391002e-03 -1.3831281496162493e+00
    8.0667699501762915e-03 -1.2690112727590763e+00
    8.1788976522420096e-03 -1.3385315336840842e+00
    8.2313526669478797e-03 -1.3680016708427558e+00
    8.1308913284940214e-03 -1.3100443565834770e+00
    8.1543521376998031e-03 -1.3241694217637889e+00
    8.1788976522420096e-03 -1.3385315336840842e+00
    8.2313526669478797e-03 -1.3680016708427558e+00
    8.2313526669478797e-03 -1.3680016708427558e+00
    8.0871234811418034e-03 -1.2824729401064427e+00
    7.9510283703548550e-03 -1.1801936887041646e+00
    8.0290177126366678e-03 -1.2427002041797350e+00
    8.0667699501762915e-03 -1.2690112727590763e+00
    8.0474079907300322e-03 -1.2557559782549625e+00
    7.9950787261102683e-03 -1.2171612389003692e+00
    7.8784147181271535e-03 -1.0994504121565505e+00
    7.8440109960348330e-03 -1.0150384378451045e+00
    7.8650687815646526e-03 -9.2796072713833699e-01
    8.0115804541436315e-03 -8.1311562818174166e-01
    8.6551353033868933e-03 -6.3686294098055807e-01
    9.3349309976613459e-03 -5.4476985374411735e-01
    1.2560820838435689e-02 -3.5057813384887671e-01
    1.3733906283836948e-02 -3.1362502409359000e-01
    1.2560820838435689e-02 -3.5057813384887671e-01
    1.0341125548329952e-02 -4.5917684337733738e-01
    9.5629768781773303e-03 -5.2168179835430062e-01
    8.7003596003292095e-03 -6.2915286960589578e-01
    8.1308913284940214e-03 -7.6333293218249842e-01
    7.9045166605962794e-03 -8.8247439733224131e-01
    7.8478978259626919e-03 -9.6575996380690143e-01
    7.8650687815646526e-03 -1.0776318121606494e+00
    7.9045166605962794e-03 -1.1331773511198100e+00
    7.8949950550595959e-03 -1.1217963123010053e+00
    7.9794961605670796e-03 -1.2046657263303882e+00
    8.2313526669478797e-03 -1.3680016708427558e+00
    8.3835844698151880e-03 -1.4464811413591578e+00
    8.4179357451504393e-03 -1.4630874888399532e+00
    8.4908786116438852e-03 -1.4973094148742165e+00
    8.2884934794485061e-03 -1.3985286385845574e+00
    8.2313526669478797e-03 -1.3680016708427558e+00
    8.2884934794485061e-03 -1.3985286385845574e+00
    8.1084897627138487e-03 -1.2961481396815719e+00
    8.1543521376998031e-03 -1.3241694217637889e+00
    8.1084897627138487e-03 -1.2961481396815719e+00
    8.2045549202967843e-03 -1.3531392816310368e+00
    8.0871234811418034e-03 -1.2824729401064427e+00
    8.3189033080770299e-03 -1.4142135623730951e+00
    8.2884934794485061e-03 -1.3985286385845574e+00
    8.1543521376998031e-03 -1.3241694217637889e+00
    8.1084897627138487e-03 -1.2961481396815719e+00
    8.1084897627138487e-03 -1.2961481396815719e+00
    7.9794961605670796e-03 -1.2046657263303882e+00
    8.0871234811418034e-03 -1.2824729401064427e+00
    8.0290177126366678e-03 -1.2427002041797350e+00
    7.8949950550595959e-03 -1.1217963123010053e+00
    7.8595930753490618e-03 -1.0669104331388017e+00
    7.8595930753490618e-03 -9.3728580107520898e-01
    7.9794961605670813e-03 -8.3010579461421719e-01
    8.1788976522420113e-03 -7.4708736763762851e-01
    8.5698001754079649e-03 -6.5232807305344209e-01
    9.2650248310080108e-03 -5.5244439104294030e-01
    1.2560820838435689e-02 -3.5057813384887671e-01
    1.8961994135149474e-02 -2.1650635094610968e-01
    1.3404276646484175e-02 -3.2310308632943197e-01
    1.0460638233541734e-02 -4.5121260440202404e-01
    9.5629768781773303e-03 -5.2168179835430062e-01
    9.0715688523400496e-03 -5.7543533764843591e-01
    8.3835844698151880e-03 -6.9133289844371515e-01
    7.9260668545556127e-03 -8.6476938368360490e-01
    7.8455650348803994e-03 -9.7542622000826462e-01
    7.8440109960348330e-03 -1.0150384378451045e+00
    7.8510114534710174e-03 -1.0458250331675945e+00
    7.9950787261102683e-03 -1.2171612389003692e+00
    7.9648174633251707e-03 -1.1923450620470368e+00
    8.0290177126366678e-03 -1.2427002041797350e+00
    8.3835844698151880e-03 -1.4464811413591578e+00
    8.1084897627138487e-03 -1.2961481396815719e+00
    8.2884934794485061e-03 -1.3985286385845574e+00
    8.2313526669478797e-03 -1.3680016708427558e+00
    8.1084897627138487e-03 -1.2961481396815719e+00
    8.0474079907300322e-03 -1.2557559782549625e+00
    8.0290177126366678e-03 -1.2427002041797350e+00
    7.9045166605962794e-03 -1.1331773511198100e+00
    8.0667699501762915e-03 -1.2690112727590763e+00
    8.0474079907300322e-03 -1.2557559782549625e+00
    8.1084897627138487e-03 -1.2961481396815719e+00
    8.0474079907300322e-03 -1.2557559782549625e+00
    8.0667699501762915e-03 -1.2690112727590763e+00
    8.0290177126366678e-03 -1.2427002041797350e+00
    8.0871234811418034e-03 -1.2824729401064427e+00
    7.9510283703548550e-03 -1.1801936887041646e+00
    7.9260668545556127e-03 -1.1563776642280763e+00
    7.9260668545556127e-03 -1.1563776642280763e+00
    7.8595930753490618e-03 -1.0669104331388017e+00
    7.8595930753490618e-03 -1.0669104331388017e+00
    7.8595930753490618e-03 -9.3728580107520898e-01
    7.9794961605670813e-03 -8.3010579461421719e-01
    8.0667699501762915e-03 -7.8801506453587811e-01
    8.3505873829352525e-03 -6.9920589878010098e-01
    8.6116366813972379e-03 -6.4458743219712167e-01
    9.9166746781291382e-03 -4.9065338146265813e-01
    1.2319184451209612e-02 -3.5946277018081779e-01
    1.6551385419358317e-02 -2.5197631533948484e-01
    1.3404276646484175e-02 -3.2310308632943197e-01
    1.1883094168653036e-02 -3.7688918072220451e-01
    1.0015445602284692e-02 -4.8283416858775452e-01
    9.1334749712278056e-03 -5.6777497395766885e-01
    8.6116366813972379e-03 -6.4458743219712167e-01
    8.3505873829352525e-03 -6.9920589878010098e-01
    7.9950787261102683e-03 -8.2158383625774922e-01
    7.9794961605670813e-03 -8.3010579461421719e-01
    7.8478978259626919e-03 -1.0354539818135851e+00
    7.8713407672356753e-03 -1.0884771971408735e+00
    7.8432343228316791e-03 -9.9503719020998904e-01
    7.8713407672356753e-03 -1.0884771971408735e+00
    8.0290177126366678e-03 -1.2427002041797350e+00
    8.3505873829352543e-03 -1.4301938838683887e+00
    8.3505873829352543e-03 -1.4301938838683887e+00
    8.3835844698151880e-03 -1.4464811413591578e+00
    8.2313526669478797e-03 -1.3680016708427558e+00
    8.0290177126366678e-03 -1.2427002041797350e+00
    7.9260668545556127e-03 -1.1563776642280763e+00
    7.9381156076795568e-03 -1.1682062670406035e+00
    8.0474079907300322e-03 -1.2557559782549625e+00
    7.9794961605670796e-03 -1.2046657263303882e+00
    7.9260668545556127e-03 -1.1563776642280763e+00
    7.9045166605962794e-03 -1.1331773511198100e+00
    7.9648174633251707e-03 -1.1923450620470368e+00
    8.0290177126366678e-03 -1.2427002041797350e+00
    7.8595930753490618e-03 -1.0669104331388017e+00
    7.9045166605962794e-03 -1.1331773511198100e+00
    7.8784147181271535e-03 -1.0994504121565505e+00
    8.0667699501762915e-03 -1.2690112727590763e+00
    7.8650687815646526e-03 -1.0776318121606494e+00
    7.8478978259626919e-03 -1.0354539818135851e+00
    7.8549087043704967e-03 -9.4669235504166815e-01
    8.0290177126366661e-03 -8.0469931254261517e-01
    8.2593213925390985e-03 -7.2299880548122109e-01
    8.5698001754079649e-03 -6.5232807305344209e-01
    9.3349309976613459e-03 -5.4476985374411735e-01
    1.1005181119821019e-02 -4.1885390829169550e-01
    1.4093618285321810e-02 -3.0395937943716439e-01
    1.8961994135149474e-02 -2.1650635094610968e-01
    1.4093618285321810e-02 -3.0395937943716439e-01
    1.2560820838435689e-02 -3.5057813384887671e-01
    1.0586301684254996e-02 -4.4320263021395917e-01
    9.3349309976613459e-03 -5.4476985374411735e-01
    9.1334749712278056e-03 -5.6777497395766885e-01
    8.8470876450977946e-03 -6.0609152673132649e-01
    8.5698001754079649e-03 -6.5232807305344209e-01
    8.0871234811418016e-03 -7.7974354758471698e-01
    7.9260668545556127e-03 -8.6476938368360490e-01
    7.9260668545556127e-03 -8.6476938368360490e-01
    7.9648174633251707e-03 -8.3868339110088186e-01
    7.8440109960348330e-03 -1.0150384378451045e+00
    7.8455650348803994e-03 -1.0251928638862373e+00
    7.9381156076795568e-03 -1.1682062670406035e+00
    8.1788976522420096e-03 -1.3385315336840842e+00
    8.2884934794485061e-03 -1.3985286385845574e+00
    8.1788976522420096e-03 -1.3385315336840842e+00
    8.0290177126366678e-03 -1.2427002041797350e+00
    8.0115804541436297e-03 -1.2298373876248840e+00
    7.9648174633251707e-03 -1.1923450620470368e+00
    8.0115804541436297e-03 -1.2298373876248840e+00
    8.0667699501762915e-03 -1.2690112727590763e+00
    7.9381156076795568e-03 -1.1682062670406035e+00
    7.8549087043704967e-03 -1.0563093645728086e+00
    7.9148707097310041e-03 -1.1447029429446780e+00
    7.9045166605962794e-03 -1.1331773511198100e+00
    7.9381156076795568e-03 -1.1682062670406035e+00
    7.8949950550595959e-03 -1.1217963123010053e+00
    7.9045166605962794e-03 -1.1331773511198100e+00
    7.8784147181271535e-03 -1.0994504121565505e+00
    7.8432343228316791e-03 -1.0049875621120892e+00
    7.8510114534710174e-03 -9.5618288746751501e-01
    7.9510283703548550e-03 -8.4731854573632337e-01
    8.0871234811418016e-03 -7.7974354758471698e-01
    8.5295661495402766e-03 -6.6008657440845275e-01
    9.4837416028956713e-03 -5.2939094917656426e-01
    1.0015445602284692e-02 -4.8283416858775452e-01
    1.2820648017167004e-02 -3.4156502553198664e-01
    1.4488052847142682e-02 -2.9408584883752314e-01
    2.0060060060866039e-02 -2.0359463942371503e-01
    1.5944293353589187e-02 -2.6296185307038888e-01
    1.2820648017167004e-02 -3.4156502553198664e-01
    9.8222943178553519e-03 -4.9844478627922678e-01
    9.5629768781773303e-03 -5.2168179835430062e-01
    9.4837416028956713e-03 -5.2939094917656426e-01
    9.0120825133710517e-03 -5.8309518948452999e-01
    9.0715688523400496e-03 -5.7543533764843591e-01
    8.3189033080770299e-03 -7.0710678118654757e-01
    8.1084897627138487e-03 -7.7151674981045948e-01
    8.1543521376998013e-03 -7.5519037334966066e-01
    7.9950787261102683e-03 -8.2158383625774922e-01
    7.9510283703548550e-03 -8.4731854573632337e-01
    7.8455650348803994e-03 -9.7542622000826462e-01
    7.8478978259626919e-03 -1.0354539818135851e+00
    7.8595930753490618e-03 -1.0669104331388017e+00
    7.8862970759948046e-03 -1.1105554165971789e+00
    7.8595930753490618e-03 -1.0669104331388017e+00
    7.8650687815646526e-03 -1.0776318121606494e+00
    7.9148707097310041e-03 -1.1447029429446780e+00
    7.9510283703548550e-03 -1.1801936887041646e+00
    7.9950787261102683e-03 -1.2171612389003692e+00
    7.9950787261102683e-03 -1.2171612389003692e+00
    7.9794961605670796e-03 -1.2046657263303882e+00
    7.8650687815646526e-03 -1.0776318121606494e+00
    7.8432343228316791e-03 -9.9503719020998904e-01
    7.8440109960348347e-03 -9.8518436614377813e-01
    7.8784147181271535e-03 -1.0994504121565505e+00
    7.8432343228316791e-03 -1.0049875621120892e+00
    7.8432343228316791e-03 -9.9503719020998904e-01
    7.8713407672356753e-03 -9.1871469850422360e-01
    7.9260668545556127e-03 -8.6476938368360490e-01
    8.1543521376998013e-03 -7.5519037334966066e-01
    8.1788976522420113e-03 -7.4708736763762851e-01
    8.3835844698151880e-03 -6.9133289844371515e-01
    9.1334749712278056e-03 -5.6777497395766885e-01
    9.4837416028956713e-03 -5.2939094917656426e-01
    1.1005181119821019e-02 -4.1885390829169550e-01
    1.3404276646484175e-02 -3.2310308632943197e-01
    1.5944293353589187e-02 -2.6296185307038888e-01
    2.1389763956858956e-02 -1.8995387394523996e-01
    1.8961994135149474e-02 -2.1650635094610968e-01
    1.2560820838435689e-02 -3.5057813384887671e-01
    1.0341125548329952e-02 -4.5917684337733738e-01
    9.8222943178553519e-03 -4.9844478627922678e-01
    9.8222943178553519e-03 -4.9844478627922678e-01
    9.4837416028956713e-03 -5.2939094917656426e-01
    9.3349309976613459e-03 -5.4476985374411735e-01
    8.7473773613052485e-03 -6.2145546626586534e-01
    8.7003596003292095e-03 -6.2915286960589578e-01
    8.4179357451504393e-03 -6.8348612617340887e-01
    8.2313526669478797e-03 -7.3099325922895342e-01
    7.9648174633251707e-03 -8.3868339110088186e-01
    7.8713407672356753e-03 -9.1871469850422360e-01
    7.9510283703548550e-03 -8.4731854573632337e-01
    7.9510283703548550e-03 -8.4731854573632337e-01
    7.8549087043704967e-03 -1.0563093645728086e+00
    7.8455650348803994e-03 -1.0251928638862373e+00
    7.8478978259626919e-03 -1.0354539818135851e+00
    7.8549087043704967e-03 -1.0563093645728086e+00
    7.8478978259626919e-03 -1.0354539818135851e+00
    7.8949950550595959e-03 -1.1217963123010053e+00
    7.9381156076795568e-03 -1.1682062670406035e+00
    7.8595930753490618e-03 -1.0669104331388017e+00
    7.8549087043704967e-03 -1.0563093645728086e+00
    7.8595930753490618e-03 -1.0669104331388017e+00
    7.8440109960348330e-03 -1.0150384378451045e+00
    7.8455650348803994e-03 -1.0251928638862373e+00
    7.8713407672356753e-03 -9.1871469850422360e-01
    7.9648174633251707e-03 -8.3868339110088186e-01
    8.2313526669478797e-03 -7.3099325922895342e-01
    8.2593213925390985e-03 -7.2299880548122109e-01
    8.2884934794485061e-03 -7.1503719867481141e-01
    8.4536849588003372e-03 -6.7566392469217618e-01
    8.8999401164319737e-03 -5.9842134663471702e-01
    9.3349309976613459e-03 -5.4476985374411735e-01
    9.6456759961493360e-03 -5.1395616875004668e-01
    1.1500040524969167e-02 -3.9391929857916774e-01
    1.4093618285321810e-02 -3.0395937943716439e-01
    1.5405331774883820e-02 -2.7361708674793650e-01
    2.5179252855879988e-02 -1.5971914124998499e-01
    2.0060060060866039e-02 -2.0359463942371503e-01
    1.3100913878256987e-02 -3.3241124765726682e-01
    1.1883094168653036e-02 -3.7688918072220451e-01
    1.1005181119821019e-02 -4.1885390829169550e-01
    1.0341125548329952e-02 -4.5917684337733738e-01
    1.0015445602284692e-02 -4.8283416858775452e-01
    9.7320416140474278e-03 -5.0621141828291472e-01
    9.4077836393415687e-03 -5.3708615552957462e-01
    9.6456759961493360e-03 -5.1395616875004668e-01
    9.3349309976613459e-03 -5.4476985374411735e-01
    8.3505873829352525e-03 -6.9920589878010098e-01
    8.3505873829352525e-03 -6.9920589878010098e-01
    8.1788976522420113e-03 -7.4708736763762851e-01
    8.2313526669478797e-03 -7.3099325922895342e-01
    7.9794961605670813e-03 -8.3010579461421719e-01
    7.8713407672356753e-03 -9.1871469850422360e-01
    7.8510114534710174e-03 -1.0458250331675945e+00
    7.8440109960348347e-03 -9.8518436614377813e-01
    7.8510114534710174e-03 -1.0458250331675945e+00
    7.8455650348803994e-03 -1.0251928638862373e+00
    7.8440109960348330e-03 -1.0150384378451045e+00
    7.8432343228316791e-03 -1.0049875621120892e+00
    7.8432343228316791e-03 -1.0049875621120892e+00
    7.8862970759948046e-03 -9.0045033778149641e-01
    7.8784147181271535e-03 -9.0954534096587358e-01
    7.9260668545556127e-03 -8.6476938368360490e-01
    7.9648174633251707e-03 -8.3868339110088186e-01
    7.9794961605670813e-03 -8.3010579461421719e-01
    8.0667699501762915e-03 -7.8801506453587811e-01
    8.4536849588003372e-03 -6.7566392469217618e-01
    8.4536849588003372e-03 -6.7566392469217618e-01
    8.5698001754079649e-03 -6.5232807305344209e-01
    8.8470876450977946e-03 -6.0609152673132649e-01
    9.5629768781773303e-03 -5.2168179835430062e-01
    9.7320416140474278e-03 -5.0621141828291472e-01
    1.0460638233541734e-02 -4.5121260440202404e-01
    1.3733906283836948e-02 -3.1362502409359000e-01
    1.4488052847142682e-02 -2.9408584883752314e-01
    1.7241805194357102e-02 -2.4061325159289387e-01
    3.2341685865158010e-02 -1.2309149097933272e-01
    1.6551385419358317e-02 -2.5197631533948484e-01
    1.5405331774883820e-02 -2.7361708674793650e-01
    1.4093618285321810e-02 -3.0395937943716439e-01
    1.2319184451209612e-02 -3.5946277018081779e-01
    1.1005181119821019e-02 -4.1885390829169550e-01
    1.0718586954637711e-02 -4.3514263457633695e-01
    1.1325406780662127e-02 -4.0230549459665466e-01
    1.0341125548329952e-02 -4.5917684337733738e-01
    1.0118895035155142e-02 -4.7498395351586448e-01
    1.0718586954637711e-02 -4.3514263457633695e-01
    9.4837416028956713e-03 -5.2939094917656426e-01
    8.5698001754079649e-03 -6.5232807305344209e-01
    8.3835844698151880e-03 -6.9133289844371515e-01
    8.2593213925390985e-03 -7.2299880548122109e-01
    8.0667699501762915e-03 -7.8801506453587811e-01
    7.9510283703548550e-03 -8.4731854573632337e-01
    7.9648174633251707e-03 -8.3868339110088186e-01
    7.8510114534710174e-03 -9.5618288746751501e-01
    7.8549087043704967e-03 -9.4669235504166815e-01
    7.8478978259626919e-03 -9.6575996380690143e-01
    7.8510114534710174e-03 -9.5618288746751501e-01
    7.9045166605962794e-03 -8.8247439733224131e-01
    7.9045166605962794e-03 -8.8247439733224131e-01
    7.8784147181271535e-03 -9.0954534096587358e-01
    7.9794961605670813e-03 -8.3010579461421719e-01
    7.9794961605670813e-03 -8.3010579461421719e-01
    8.2884934794485061e-03 -7.1503719867481141e-01
    8.5295661495402766e-03 -6.6008657440845275e-01
    8.4536849588003372e-03 -6.7566392469217618e-01
    8.3835844698151880e-03 -6.9133289844371515e-01
    8.7962609435424804e-03 -6.1376895389643427e-01
    9.1979181990075164e-03 -5.6011203361120399e-01
    9.5629768781773303e-03 -5.2168179835430062e-01
    9.9166746781291382e-03 -4.9065338146265813e-01
    1.0015445602284692e-02 -4.8283416858775452e-01
    1.1160731355834159e-02 -4.1061496704673439e-01
    1.2560820838435689e-02 -3.5057813384887671e-01
    1.5405331774883820e-02 -2.7361708674793650e-01
    1.8035957088864976e-02 -2.2881438097813775e-01
    3.2341685865158010e-02 -1.2309149097933272e-01
    2.5179252855879988e-02 -1.5971914124998499e-01
    1.8961994135149474e-02 -2.1650635094610968e-01
    1.5944293353589187e-02 -2.6296185307038888e-01
    1.4488052847142682e-02 -2.9408584883752314e-01
    1.3100913878256987e-02 -3.3241124765726682e-01
    1.2093823411605425e-02 -3.6822984715932938e-01
    1.2319184451209612e-02 -3.5946277018081779e-01
    1.1883094168653036e-02 -3.7688918072220451e-01
    1.1005181119821019e-02 -4.1885390829169550e-01
    1.1005181119821019e-02 -4.1885390829169550e-01
    1.1500040524969167e-02 -3.9391929857916774e-01
    1.1005181119821019e-02 -4.1885390829169550e-01
    9.4077836393415687e-03 -5.3708615552957462e-01
    8.9549068157100484e-03 -5.9075653918564808e-01
    8.3505873829352525e-03 -6.9920589878010098e-01
    8.2313526669478797e-03 -7.3099325922895342e-01
    8.1543521376998013e-03 -7.5519037334966066e-01
    8.0115804541436315e-03 -8.1311562818174166e-01
    7.8862970759948046e-03 -9.0045033778149641e-01
    7.9148707097310041e-03 -8.7358908803672797e-01
    7.9260668545556127e-03 -8.6476938368360490e-01
    8.0474079907300305e-03 -7.9633305938119558e-01
    7.9260668545556127e-03 -8.6476938368360490e-01
    8.0290177126366661e-03 -8.0469931254261517e-01
    8.0115804541436315e-03 -8.1311562818174166e-01
    8.3835844698151880e-03 -6.9133289844371515e-01
    8.5698001754079649e-03 -6.5232807305344209e-01
    8.7003596003292095e-03 -6.2915286960589578e-01
    8.5698001754079649e-03 -6.5232807305344209e-01
    8.9549068157100484e-03 -5.9075653918564808e-01
    9.2650248310080108e-03 -5.5244439104294030e-01
    1.0341125548329952e-02 -4.5917684337733738e-01
    1.0341125548329952e-02 -4.5917684337733738e-01
    1.0341125548329952e-02 -4.5917684337733738e-01
    1.1005181119821019e-02 -4.1885390829169550e-01
    1.2319184451209612e-02 -3.5946277018081779e-01
    1.3404276646484175e-02 -3.2310308632943197e-01
    1.7241805194357102e-02 -2.4061325159289387e-01
    2.5179252855879988e-02 -1.5971914124998499e-01
    3.2341685865158010e-02 -1.2309149097933272e-01
    2.8079719701117327e-02 -1.4249409997581927e-01
    2.3044269526890572e-02 -1.7541160386140586e-01
    1.8961994135149474e-02 -2.1650635094610968e-01
    1.6551385419358317e-02 -2.5197631533948484e-01
    1.5944293353589187e-02 -2.6296185307038888e-01
    1.4093618285321810e-02 -3.0395937943716439e-01
    1.3100913878256987e-02 -3.3241124765726682e-01
    1.3100913878256987e-02 -3.3241124765726682e-01
    1.3100913878256987e-02 -3.3241124765726682e-01
    1.2319184451209612e-02 -3.5946277018081779e-01
    1.2820648017167004e-02 -3.4156502553198664e-01
    1.2319184451209612e-02 -3.5946277018081779e-01
    1.1685577462657359e-02 -3.8544964466377263e-01
    1.1005181119821019e-02 -4.1885390829169550e-01
    9.4077836393415687e-03 -5.3708615552957462e-01
    9.0120825133710517e-03 -5.8309518948452999e-01
    8.4179357451504393e-03 -6.8348612617340887e-01
    8.3505873829352525e-03 -6.9920589878010098e-01
    8.1084897627138487e-03 -7.7151674981045948e-01
    8.0474079907300305e-03 -7.9633305938119558e-01
    8.0474079907300305e-03 -7.9633305938119558e-01
    8.1788976522420113e-03 -7.4708736763762851e-01
    8.2593213925390985e-03 -7.2299880548122109e-01
    8.2313526669478797e-03 -7.3099325922895342e-01
    8.3505873829352525e-03 -6.9920589878010098e-01
    8.7962609435424804e-03 -6.1376895389643427e-01
    9.2650248310080108e-03 -5.5244439104294030e-01
    9.7320416140474278e-03 -5.0621141828291472e-01
    9.7320416140474278e-03 -5.0621141828291472e-01
    9.6456759961493360e-03 -5.1395616875004668e-01
    9.6456759961493360e-03 -5.1395616875004668e-01
    1.0858018302605764e-02 -4.2702803324427147e-01
    1.1160731355834159e-02 -4.1061496704673439e-01
    1.2093823411605425e-02 -3.6822984715932938e-01
    1.4488052847142682e-02 -2.9408584883752314e-01
    1.4093618285321810e-02 -3.0395937943716439e-01
    1.5405331774883820e-02 -2.7361708674793650e-01
    2.1389763956858956e-02 -1.8995387394523996e-01
    3.2341685865158010e-02 -1.2309149097933272e-01
    5.5736652164116100e-02 -7.0710678118654766e-02
    3.2341685865158010e-02 -1.2309149097933272e-01
    2.8079719701117327e-02 -1.4249409997581927e-01
    2.3044269526890572e-02 -1.7541160386140586e-01
    2.0060060060866039e-02 -2.0359463942371503e-01
    2.0060060060866039e-02 -2.0359463942371503e-01
    1.7241805194357102e-02 -2.4061325159289387e-01
    1.5944293353589187e-02 -2.6296185307038888e-01
    1.4922918782177779e-02 -2.8398091712353235e-01
    1.5405331774883820e-02 -2.7361708674793650e-01
    1.4488052847142682e-02 -2.9408584883752314e-01
    1.3733906283836948e-02 -3.1362502409359000e-01
    1.3733906283836948e-02 -3.1362502409359000e-01
    1.3404276646484175e-02 -3.2310308632943197e-01
    1.2820648017167004e-02 -3.4156502553198664e-01
    1.1325406780662127e-02 -4.0230549459665466e-01
    1.0015445602284692e-02 -4.8283416858775452e-01
    9.0715688523400496e-03 -5.7543533764843591e-01
    8.6116366813972379e-03 -6.4458743219712167e-01
    9.0715688523400496e-03 -5.7543533764843591e-01
    9.2650248310080108e-03 -5.5244439104294030e-01
    8.7473773613052485e-03 -6.2145546626586534e-01
    9.2650248310080108e-03 -5.5244439104294030e-01
    8.6116366813972379e-03 -6.4458743219712167e-01
    9.4077836393415687e-03 -5.3708615552957462e-01
    9.0120825133710517e-03 -5.8309518948452999e-01
    9.9166746781291382e-03 -4.9065338146265813e-01
    1.0015445602284692e-02 -4.8283416858775452e-01
    1.0460638233541734e-02 -4.5121260440202404e-01
    1.1325406780662127e-02 -4.0230549459665466e-01
    1.0718586954637711e-02 -4.3514263457633695e-01
    1.1500040524969167e-02 -3.9391929857916774e-01
    1.3404276646484175e-02 -3.2310308632943197e-01
    1.5944293353589187e-02 -2.6296185307038888e-01
    1.6551385419358317e-02 -2.5197631533948484e-01
    1.7241805194357102e-02 -2.4061325159289387e-01
    2.0060060060866039e-02 -2.0359463942371503e-01
    1.8961994135149474e-02 -2.1650635094610968e-01
    2.3044269526890572e-02 -1.7541160386140586e-01
    3.2341685865158010e-02 -1.2309149097933272e-01
    5.5736652164116100e-02 -7.0710678118654766e-02
    2.8079719701117327e-02 -1.4249409997581927e-01
    2.8079719701117327e-02 -1.4249409997581927e-01
    2.8079719701117327e-02 -1.4249409997581927e-01
    2.8079719701117327e-02 -1.4249409997581927e-01
    3.2341685865158010e-02 -1.2309149097933272e-01
    2.3044269526890572e-02 -1.7541160386140586e-01
    2.0060060060866039e-02 -2.0359463942371503e-01
    1.8035957088864976e-02 -2.2881438097813775e-01
    1.7241805194357102e-02 -2.4061325159289387e-01
    1.7241805194357102e-02 -2.4061325159289387e-01
    1.5405331774883820e-02 -2.7361708674793650e-01
    1.5944293353589187e-02 -2.6296185307038888e-01
    1.7241805194357102e-02 -2.4061325159289387e-01
    1.7241805194357102e-02 -2.4061325159289387e-01
    1.4922918782177779e-02 -2.8398091712353235e-01
    1.2093823411605425e-02 -3.6822984715932938e-01
    1.0718586954637711e-02 -4.3514263457633695e-01
    1.1005181119821019e-02 -4.1885390829169550e-01
    1.1500040524969167e-02 -3.9391929857916774e-01
    9.9166746781291382e-03 -4.9065338146265813e-01
    1.0227339070357264e-02 -4.6709936649691386e-01
    1.2319184451209612e-02 -3.5946277018081779e-01
    1.1325406780662127e-02 -4.0230549459665466e-01
    1.0460638233541734e-02 -4.5121260440202404e-01
    1.1325406780662127e-02 -4.0230549459665466e-01
    1.0718586954637711e-02 -4.3514263457633695e-01
    1.0718586954637711e-02 -4.3514263457633695e-01
    1.1160731355834159e-02 -4.1061496704673439e-01
    1.2093823411605425e-02 -3.6822984715932938e-01
    1.2820648017167004e-02 -3.4156502553198664e-01
    1.4488052847142682e-02 -2.9408584883752314e-01
    1.8961994135149474e-02 -2.1650635094610968e-01
    1.8961994135149474e-02 -2.1650635094610968e-01
    2.0060060060866039e-02 -2.0359463942371503e-01
    2.1389763956858956e-02 -1.8995387394523996e-01
    2.5179252855879988e-02 -1.5971914124998499e-01
    2.8079719701117327e-02 -1.4249409997581927e-01
    2.5179252855879988e-02 -1.5971914124998499e-01
    2.8079719701117327e-02 -1.4249409997581927e-01</input_scale>
  <output_scale>
    1.0526315789473684e+00 0.</output_scale>
  <inv_output_scale>
    9.4999999999999996e-01 0.</inv_output_scale>
  <weights>
    <_>
      -1.1719048386403424e-03 -2.2903224389177911e-04
      -9.9637750405231888e-04 -5.5088375721748159e-04
      2.2039270841974236e-04 1.2144499427915077e-03
      9.9728247011042037e-04 2.0453599492093418e-04
      -7.2831549546728146e-04 -4.2920232853557353e-04
      -1.1054717958401724e-03 -1.2409612586460942e-04
      -2.1397120762249158e-05 -7.8018402384446585e-04
      6.7194088742161514e-04 -1.1208781013474275e-03
      1.1037170489498088e-03 1.0083693640301039e-03
      -2.5698247005999147e-04 -3.4383640164285737e-05
      3.0002183913935715e-04 -7.7645728251324352e-04
      -6.5397802009701264e-04 9.5527311481024093e-04
      -1.0954164450422850e-03 -3.1663012947851025e-04
      6.1523554708813478e-04 -6.3403300196013517e-04
      1.0630743572223426e-03 -2.4215284090006096e-04
      1.2150750992007805e-03 -3.7732545206526025e-04
      2.2581237915161135e-04 8.1166924113520002e-04
      1.1322676431532379e-03 5.1786688077618958e-04
      8.1904968067006900e-04 5.2277548999592920e-04
      1.2256443938238879e-03 -1.5902424652943092e-04
      1.0672360090902873e-01 -8.7646619779038776e-03
      -7.8921201073257514e-03 -3.2763000854232989e-03
      6.1315810456685537e-03 5.5739702855053868e-03
      2.3905068516003290e-03 5.7010170410578655e-03
      3.9341585879747228e-03 -1.0225977630286728e-02
      1.9375925692963045e-03 -4.2566201113936157e-03
      -1.5022787413520777e-03 1.5810472941657691e-03
      5.3510104128056202e-03 8.0296630544248989e-04
      4.1644354667487492e-03 -2.6803733715044260e-03
      8.5287086704864748e-03 -8.6512797982286962e-03
      4.7113456510405379e-03 -2.4147976791316153e-03
      -7.6519881736470154e-03 -6.3601054733667143e-03
      2.1151033832355988e-03 1.0572629940409327e-03
      -8.8868089803152504e-03 8.2834134403582289e-03
      -1.6286018739123656e-03 9.8333000425960952e-04
      8.1497950198353344e-03 9.2988802636860806e-03
      -1.0969983992966939e-02 -1.2726662612067734e-03
      -1.6628531439568225e-03 -2.2734376331156178e-03
      -6.4353170266916041e-03 -1.1421603248426338e-03
      7.4442889244490792e-03 6.3559246673697591e-03
      3.5942283843431816e-02 1.0272675745049168e-02
      7.7559260930867941e-03 3.2475465726116468e-05
      -5.4631914981033928e-03 1.2702411502911088e-02
      -5.1803527689060448e-03 -3.2989686468907981e-03
      -1.4113528580199612e-02 6.0356010374681066e-03
      4.1215935048472671e-03 1.6227363498167060e-03
      5.8071342981081331e-03 6.5885324071721161e-04
      -1.1853069748619252e-02 9.4768567633619419e-03
      -1.2163961402697611e-02 7.5381465308446379e-04
      -9.6041892055829959e-03 8.2245946796211319e-03
      -6.4363836707024657e-04 1.4145139838132021e-02
      1.3106573110245040e-02 8.7395577104821109e-03
      9.8381608218671493e-03 -1.2726826152690499e-02
      9.4710888547038623e-03 -8.3564632781991423e-03
      1.1336066035837037e-03 4.6228363635865445e-03
      -7.0653567001096552e-03 -9.7800937181973923e-03
      8.5761626937001321e-03 -1.6778676133985140e-03
      -4.0723206890384616e-04 1.4987680817563629e-02
      6.8488896791600836e-03 -1.4031972107831207e-03
      -1.0626220234371481e-02 -6.1912708037739819e-03
      -3.7855984358386364e-02 1.5163578525897952e-02
      1.4168710104015684e-02 6.7809179815592627e-03
      -1.2714535690095639e-02 -7.2707943664578481e-03
      1.2857621608875324e-03 -1.3125923332286115e-02
      4.0614743137791518e-03 1.2206278262923007e-02
      -2.4806738500173452e-03 1.2933739736875989e-02
      -1.6887913679954476e-04 -1.1986147303772567e-02
      2.1701767858926134e-03 -5.3503022486938161e-04
      6.0218294108399734e-03 1.2773120225701543e-02
      -1.4906413800411531e-02 1.1725316557981279e-02
      -1.1875822716434708e-02 -5.8353307593844951e-03
      -1.6906449459860920e-03 1.4083860519563668e-02
      -1.6118733049693502e-04 6.2827455108415975e-03
      1.3567079812124051e-02 -1.4656620772364438e-02
      8.7949869459791486e-03 -2.1332587259319359e-03
      -1.4188504427290687e-02 -1.4310876442254244e-02
      1.3434678808435978e-02 8.1899992697295580e-03
      1.2276900987251278e-02 -5.9817948789404477e-03
      1.4218329270933843e-02 1.2068597889986885e-02
      -1.4235894095646533e-02 -1.3871813226421476e-02
      -7.0187185103822358e-01 -1.2046267705404840e-02
      -8.3359518144509315e-03 -3.2416689168862848e-03
      5.2649111525993010e-03 -6.5815666516840815e-02
      2.1906718640458071e-02 5.2077374735205956e-03
      3.5038647769427736e-02 -2.0657656144112888e-02
      -3.6631988834681453e-02 -4.8305133761640754e-03
      -2.1527338169641860e-02 5.5126662719176284e-04
      6.3469074261196653e-03 -3.9415344071189330e-02
      4.1668840206793456e-02 -2.1431654943765742e-03
      1.8454611690222774e-02 -1.9317618812650483e-02
      2.7275778423696715e-03 -4.5888296340364849e-02
      -3.1251459258720547e-02 -6.7410939596982515e-03
      -3.9700155055360217e-02 5.2533894093005906e-02
      -1.5422054141649762e-02 1.7049905042873847e-02
      -3.0767890521918987e-03 -3.8651849906359649e-02
      9.7527084686679366e-03 1.3576418777927467e-02
      -2.0926899322160779e-02 -1.8189323491463734e-03
      -2.8206693980838446e-03 -5.0443215893491329e-02
      -8.6004268139369504e-03 -1.2298048590431629e-04
      9.7225137328030824e-03 7.9041161708948270e-03
      -7.0144608687225696e-01 -1.3417260357857905e-02
      -7.4851847442966501e-03 -2.6117402630761459e-03
      6.4089973713493632e-03 -6.7165067539633416e-02
      2.1395890576892913e-02 4.7502268953943331e-03
      3.5191512919749882e-02 -2.0443481892121338e-02
      -3.7872613165370272e-02 -5.2387923600125674e-03
      -2.1333463158779851e-02 1.4506922829060658e-04
      7.9464846976815204e-03 -3.8957045850756523e-02
      4.0969096719654638e-02 -3.5407593767168908e-03
      1.6530994175276332e-02 -1.9469412900996401e-02
      2.7371621208575709e-03 -4.4497711853216736e-02
      -2.9823888097158014e-02 -6.6282497336210937e-03
      -4.1690554669194441e-02 5.1838579657104256e-02
      -1.3820481612419350e-02 1.6293515918567262e-02
      -2.5828523543269797e-03 -3.8377014992328921e-02
      9.1057248216539211e-03 1.3477751759312069e-02
      -1.9449861949481534e-02 -9.1991158910419569e-04
      -1.6109278621324120e-03 -5.0537042162425209e-02
      -7.8215338807592141e-03 -1.3618721391385846e-04
      1.0778164288991161e-02 6.4784636159111644e-03
      -8.4999019998926073e-01 -6.1420467855200243e-02
      -4.8067660099026202e-02 -1.9707550045153236e-02
      4.1824526069141978e-02 -7.3665848719094693e-02
      4.5981758465806766e-02 3.5823291754237138e-02
      5.2594010688821219e-02 -7.5294510403233927e-02
      -5.7571097737858130e-02 -3.5910545383284483e-02
      -4.7656056777447976e-02 1.9464514914698833e-02
      2.9714809353142337e-02 -6.2723705147025507e-02
      5.3180697876973236e-02 -2.8798718737848613e-02
      7.4437865272220349e-02 -7.5192052636027601e-02
      3.3000262114887713e-02 -5.7145212112561676e-02
      -4.7942495430177534e-02 -4.8943886372284945e-02
      -6.5707010676490235e-02 6.1170646206269941e-02
      -6.5749296435567844e-02 6.9066340793120809e-02
      -1.7467189240070312e-02 -5.8053016063745327e-02
      5.3137887920478702e-02 6.3439463048710912e-02
      -7.8457228567856765e-02 -1.7021964468434399e-02
      -2.0888133862825866e-02 -5.9442960918233319e-02
      -4.9176359454060736e-02 -1.5042804430609786e-02
      5.4937750876379282e-02 4.5690927602312158e-02
      -6.0940730465996484e-01 -7.3783027819566260e-03
      -5.9179684985278249e-03 -3.4885196246717941e-03
      2.3233316975138532e-03 -5.1019696123378096e-02
      1.6079108389040388e-02 2.5401738092733408e-03
      1.7887742167543290e-02 -1.0432363214464864e-02
      -1.9912062705391045e-02 -8.8927561659154532e-04
      -1.6538040380604670e-02 -6.3983100076017393e-04
      -3.9726372910118312e-03 -2.2454969290990643e-02
      2.1838391250586328e-02 3.4873922307788715e-04
      8.9052681908186205e-03 -9.8753225874349034e-03
      1.8620174725538969e-03 -3.3284182604844247e-02
      -1.2400487322945321e-02 -3.4389940591290896e-03
      -2.4075935089085648e-02 3.3453759977725893e-02
      -9.5801406516341798e-03 7.6707990886240125e-03
      -9.5154391246509253e-04 -2.2786999926138887e-02
      3.3928898713322313e-03 6.1873831054852354e-03
      -1.1040280905557205e-02 -8.8524851095102026e-04
      1.4354875608365199e-03 -3.3167589361913066e-02
      -3.9103637474453288e-03 1.3186323858993259e-03
      6.3304503785597838e-03 4.5034967237046093e-03
      1.8315603304069233e-01 3.6793941960871462e-02
      3.0265548530357633e-02 1.6560080808562187e-02
      -2.8740428534036713e-02 1.0875469518063967e-02
      -2.8410615870862247e-02 -2.6250218547183037e-02
      -3.7110745923599774e-02 4.2175265203687473e-02
      3.2933657512056659e-02 2.5706107419878672e-02
      2.7857426898054007e-02 -1.3646726516938721e-02
      -4.6518535632151969e-02 3.0989558591976694e-02
      -2.7570978082480817e-02 1.9900918592825417e-02
      -4.4582946883769112e-02 4.3032158559933149e-02
      -2.3546525900400642e-02 1.8824654457705786e-02
      4.0026763134879101e-02 2.9705669767173159e-02
      2.8117990250593996e-02 -2.5067249986589688e-02
      3.8614633327560377e-02 -3.9680068500852192e-02
      1.0554464806890316e-02 3.3679900399856189e-02
      -3.3759012468887385e-02 -3.7809198540021398e-02
      4.3033489853745506e-02 1.0722743121549127e-02
      1.4081999049000989e-02 2.4786210167853984e-02
      3.0917056026296266e-02 7.9497185846629514e-03
      -3.5440879187391000e-02 -2.7881504858724048e-02
      -4.9017365015709147e-01 1.6376160263321218e-03
      2.9802224747001063e-03 -1.4393550513716838e-03
      -2.4703584106673471e-03 -4.2322993152885340e-02
      1.1174024743917921e-02 -1.8327113687537895e-03
      7.7566353830909613e-03 1.2418134198267461e-03
      -1.6365793003451441e-02 2.4625852586101682e-03
      -1.2363985993782557e-02 -1.1424624432272100e-03
      -8.4605375144574269e-03 -1.7751458414365182e-02
      1.6579220991670102e-02 3.0033643612472380e-03
      -7.8111700469520040e-04 1.4177759065237450e-03
      -1.3090294440900355e-03 -2.4601407674528293e-02
      -6.7865754848977040e-03 2.9726257354405830e-03
      -1.8370924681029844e-02 2.6244566956161421e-02
      1.4371444113555907e-03 -1.1614029699259774e-03
      -6.1287325982022870e-04 -1.7734472312441425e-02
      -3.3789182132244375e-03 -3.3785083005148085e-03
      -3.3516438434207438e-04 7.4539941993822915e-04
      1.8073473587029534e-03 -2.6660700855116182e-02
      3.0543936718371240e-03 2.1093839340290185e-03
      -4.3783119711306266e-03 -2.4062390093588645e-03
      -2.5522636096245055e-01 -5.0351304122611185e-02
      -4.0276888199237040e-02 -1.0848916977524619e-02
      3.6507857646290810e-02 -2.2267420782878414e-02
      1.1367183810554503e-02 2.9197163210253643e-02
      2.7903488868992001e-03 -6.1368459001955353e-02
      -1.1495006119161565e-02 -2.9919073327346789e-02
      -1.1341993673369031e-02 2.0433877144129770e-02
      -1.2228526216925627e-02 -2.1503763037026818e-02
      8.4656222199169032e-03 -2.4529564411808414e-02
      6.0562624672995440e-02 -6.3146725228171274e-02
      2.5696691489270163e-02 -1.3079696535771795e-02
      5.3759781592031125e-04 -3.9726345545052388e-02
      -2.2387314784806607e-02 9.1768243482482793e-03
      -5.4668437373757234e-02 5.5463265935968564e-02
      -1.2556868634989332e-02 -1.2521182389926911e-02
      4.3276722990528066e-02 5.1905041210367965e-02
      -6.5001628945796697e-02 -1.4722530221454035e-02
      -2.2263420216936433e-02 -1.0484962094244030e-02
      -3.9371145761710941e-02 -1.8013691893635896e-02
      4.5482278368453970e-02 3.8076335144467149e-02
      4.6688649769461535e-02 1.7996227458541921e-03
      2.4178496896087821e-03 3.4032467990344865e-03
      -2.4649501530726601e-03 -4.1215576263253541e-03
      -6.0621749302284559e-03 -3.4317931048911097e-04
      -1.3419635350286849e-02 -1.8536323487478195e-03
      8.1905347195129850e-03 3.6096952954300541e-04
      6.6892360953204940e-03 3.5155349129875079e-03
      -2.5774114921294618e-02 1.2475088322770485e-03
      -6.8017017534678101e-03 7.6324261645861522e-05
      8.0125409483782710e-04 2.8858736173178085e-04
      -4.6075611388374623e-04 3.5448895628536993e-03
      1.3981092426897350e-02 2.7268462731021379e-03
      -1.3171674367132625e-03 -7.9831461993727527e-03
      3.5309193294200087e-04 -9.7997339536133620e-04
      1.1386777596900551e-03 5.9980930120668045e-03
      -1.6819733312358478e-03 -5.1287510198622034e-04
      -1.2656723051340691e-03 -2.1338279751673831e-03
      -2.9407936295923315e-03 7.7455610458570731e-03
      2.0716715486938106e-03 -7.9903754553397408e-03
      -1.2546217195748654e-03 -6.5816899780063432e-04
      4.8204257587165941e-02 -2.9991322847967898e-04
      1.0852728407092281e-03 4.6689775840758818e-03
      -4.4678764241866690e-04 -4.4451632852123921e-03
      -5.4567968208896625e-03 -7.6512531016900264e-04
      -1.2398927019586564e-02 -1.7250711570245428e-03
      6.6862046484468113e-03 2.1928065155823484e-03
      5.0037586734101736e-03 4.8870615219339768e-03
      -2.4856993929898083e-02 9.5446381917030625e-04
      -6.7605297940720654e-03 -1.1701713066710127e-04
      -3.9339710343676098e-04 -1.1208619005105367e-03
      -4.7067794686441068e-04 2.2401734062816644e-03
      1.5420184297474219e-02 2.4474585586581558e-03
      -2.7869242144854208e-03 -8.8810667691574686e-03
      1.0801874214219744e-04 4.7024304721397247e-05
      2.1827112495321986e-04 6.4259151649765150e-03
      -2.8679035909425716e-03 -1.1486458811846199e-03
      -8.0351867291097133e-04 -1.5837197911389154e-03
      -4.0281882114911989e-03 7.4823077512873150e-03
      5.3047348612206551e-04 -7.1635150259885816e-03
      -1.0645085080021473e-03 -2.2370477878691985e-03
      -5.2663654325248244e-01 -4.9659539321358810e-02
      -3.9179490285984081e-02 -1.4848833708844563e-02
      3.4853690658411422e-02 -5.7960033098394148e-02
      2.3974355042899406e-02 3.1928616607037136e-02
      3.8683445289373591e-02 -6.0457950670019536e-02
      -3.1089502982478714e-02 -3.0823908949014944e-02
      -2.3858334966518211e-02 1.8635346682240327e-02
      2.2108987977541086e-02 -4.5625810383237722e-02
      4.1899799363784997e-02 -2.5242753212331711e-02
      5.9001329246113191e-02 -5.9359528750474420e-02
      2.6482153412393919e-02 -4.8495684682446999e-02
      -3.6920994056717421e-02 -3.9073900956241810e-02
      -4.5235563487465824e-02 4.5321512247955775e-02
      -5.1944556502625881e-02 5.4330947962003218e-02
      -1.3939530127100457e-02 -3.3633956354102955e-02
      4.1960307096418105e-02 5.0561654445049911e-02
      -6.3259543475547950e-02 -1.4232835951252434e-02
      -2.1590110266719025e-02 -4.6486957304020936e-02
      -4.0206670284775238e-02 -1.8460297677771121e-02
      4.4218725651468616e-02 3.7669709606261620e-02
      -8.4244383018181790e-01 -2.9023394576473998e-02
      -2.4802786719596792e-02 -9.3992860654480252e-03
      2.0602293042441294e-02 -7.7242014051244992e-02
      4.0963041147314243e-02 1.8226036317808413e-02
      6.5056036035676321e-02 -3.3726564289175906e-02
      -5.2391480368972093e-02 -1.6652362248132088e-02
      -4.0937485993003696e-02 6.5056918573311905e-03
      4.7182152854947729e-02 -6.3938220589494776e-02
      6.3869237033968629e-02 -1.1937202835630562e-02
      4.1446422657167824e-02 -3.8564036717232741e-02
      1.5553060665666247e-02 -6.6618583555572805e-02
      -6.2689596690223393e-02 -2.3105296326328569e-02
      -6.3098978865671590e-02 6.9514886748818311e-02
      -3.1784711381994860e-02 3.1137194249661732e-02
      -6.7415652206431753e-03 -5.4055276935783818e-02
      2.5452922953332825e-02 3.0404061873435174e-02
      -4.3358318666200421e-02 -3.6076758092102972e-03
      -6.9673202511172884e-03 -7.0381830720460017e-02
      -2.3959511285898297e-02 -1.3055483871184388e-03
      2.6109709290790230e-02 2.1434464515970236e-02
      -5.5478291565427151e-01 -5.1907879357278933e-02
      -4.3256287028992514e-02 -1.7872503274008092e-02
      3.7689393082596251e-02 -4.3558694347654886e-02
      3.3618468806465317e-02 3.2670146495430361e-02
      3.7300583241036141e-02 -5.9742917537495645e-02
      -4.0132153980678958e-02 -3.3380589568452024e-02
      -3.3734513081328327e-02 2.3315429770717575e-02
      2.7463285115310581e-02 -3.6498945206685326e-02
      3.5514523592786888e-02 -2.8862840039710291e-02
      5.9880534001873778e-02 -6.0994619434155045e-02
      3.0186538705756001e-02 -3.2692256235231858e-02
      -3.8516346353042775e-02 -4.2288067880620332e-02
      -4.0850469217630470e-02 3.5167522128737368e-02
      -5.3991321535418975e-02 5.5359814446280305e-02
      -1.4928068650268390e-02 -4.0602051155593115e-02
      4.4945636514970716e-02 5.2105708797534109e-02
      -6.2218034600157533e-02 -1.6370239718980609e-02
      -2.6113577600154463e-02 -3.5796956573093806e-02
      -4.2532641573184489e-02 -2.1239990458671674e-02
      4.7257250195501248e-02 4.0111748013546132e-02
      -6.9262448345945582e-01 -5.2739883791460024e-02
      -4.2919772720714178e-02 -1.7658350805061014e-02
      3.8847404408659733e-02 -5.4861203870823709e-02
      3.5724134730314536e-02 3.2981404001257056e-02
      4.5347590059431397e-02 -6.2010346170585220e-02
      -4.5527456775413325e-02 -3.2388594338148821e-02
      -3.6471044476750758e-02 2.6545084098205166e-02
      2.9693026793795874e-02 -4.5188973945208190e-02
      4.1983126786835218e-02 -2.8943577115311880e-02
