<?xml version="1.0"?>
<opencv_storage>
<shapeML type_id="opencv-ml-ann-mlp">
  <layer_sizes type_id="opencv-matrix">
    <rows>1</rows>
    <cols>3</cols>
    <dt>i</dt>
    <data>
      1600 40 1</data></layer_sizes>
  <activation_function>SIGMOID_SYM</activation_function>
  <f_param1>5.9999999999999998e-01</f_param1>
  <f_param2>1.</f_param2>
  <min_val>-9.4999999999999996e-01</min_val>
  <max_val>9.4999999999999996e-01</max_val>
  <min_val1>-9.7999999999999998e-01</min_val1>
  <max_val1>9.7999999999999998e-01</max_val1>
  <training_params>
    <train_method>BACKPROP</train_method>
    <dw_scale>1.0000000000000001e-01</dw_scale>
    <moment_scale>1.0000000000000001e-01</moment_scale>
    <term_criteria><epsilon>9.9999999747524271e-07</epsilon>
      <iterations>4000</iterations></term_criteria></training_params>
  <input_scale>
    1. 0. 6.0499552749912276e-02 -6.5094455490411943e-02
    6.0499552749912276e-02 -6.5094455490411943e-02
    6.0499552749912276e-02 -6.5094455490411943e-02
    3.0443894579031204e-02 -1.3102435641608365e-01
    3.5078386548009044e-02 -1.1322770341445956e-01
    2.7288469024506806e-02 -1.4680505487867587e-01
    3.0443894579031204e-02 -1.3102435641608365e-01
    2.4964711434511778e-02 -1.6116459280507603e-01
    1.8640501975734511e-02 -2.2061859933306033e-01
    1.6633809225326458e-02 -2.5055991111567705e-01
    1.6633809225326458e-02 -2.5055991111567705e-01
    1.7223145887125587e-02 -2.4090602791485791e-01
    1.4803003969738130e-02 -2.8669108954049799e-01
    1.3513803360377094e-02 -3.1988369979626791e-01
    1.3513803360377094e-02 -3.1988369979626791e-01
    1.1966785296277583e-02 -3.7339399690283853e-01
    1.4107930151998347e-02 -3.0358837035945813e-01
    1.4441194533662315e-02 -2.9522188825145113e-01
    1.1475093843429054e-02 -3.9509183865983577e-01
    1.0367837974117545e-02 -4.5736601695948914e-01
    1.1053465464725215e-02 -4.1625392098174074e-01
    1.3799763471295115e-02 -3.1180478223116181e-01
    1.4441194533662315e-02 -2.9522188825145113e-01
    2.0517265923164406e-02 -1.9867985355975659e-01
    2.4964711434511778e-02 -1.6116459280507603e-01
    2.4964711434511778e-02 -1.6116459280507603e-01
    2.0517265923164406e-02 -1.9867985355975659e-01
    1.9507213489839980e-02 -2.0988774008055675e-01
    2.1714279863390484e-02 -1.8690772540639911e-01
    2.1714279863390484e-02 -1.8690772540639911e-01
    2.7288469024506806e-02 -1.4680505487867587e-01
    2.3163022421211130e-02 -1.7445567519772939e-01
    2.7288469024506806e-02 -1.4680505487867587e-01
    2.3163022421211130e-02 -1.7445567519772939e-01
    2.3163022421211130e-02 -1.7445567519772939e-01
    4.2870567902518773e-02 -9.2253120802888500e-02
    4.2870567902518773e-02 -9.2253120802888500e-02
    4.2870567902518773e-02 -9.2253120802888500e-02
    4.2870567902518773e-02 -9.2253120802888500e-02
    6.0499552749912276e-02 -6.5094455490411943e-02
    4.2870567902518773e-02 -9.2253120802888500e-02
    6.0499552749912276e-02 -6.5094455490411943e-02
    3.5078386548009044e-02 -1.1322770341445956e-01
    2.7288469024506806e-02 -1.4680505487867587e-01
    3.0443894579031204e-02 -1.3102435641608365e-01
    2.1714279863390484e-02 -1.8690772540639911e-01
    2.0517265923164406e-02 -1.9867985355975659e-01
    1.6633809225326458e-02 -2.5055991111567705e-01
    1.5629750213443729e-02 -2.6906911759852498e-01
    1.4107930151998347e-02 -3.0358837035945813e-01
    1.2766452414054627e-02 -3.4340140987172257e-01
    1.1794033729906587e-02 -3.8069349381344048e-01
    1.0576531493708742e-02 -4.4381268229929721e-01
    1.0085633278625180e-02 -4.7747175268428066e-01
    9.6117476493191804e-03 -5.1708768999501920e-01
    9.6834742254904779e-03 -5.1052747024263090e-01
    9.3494430553711962e-03 -5.4321447625511132e-01
    9.2315550670282222e-03 -5.5623040657030809e-01
    9.6834742254904779e-03 -5.1052747024263090e-01
    9.2315550670282222e-03 -5.5623040657030809e-01
    9.6834742254904779e-03 -5.1052747024263090e-01
    9.4759035047953920e-03 -5.3017080368602065e-01
    1.0269899997335663e-02 -4.6409548089225722e-01
    1.1327553236479082e-02 -4.0219983326992187e-01
    1.2342883678093738e-02 -3.5856858280031811e-01
    1.4107930151998347e-02 -3.0358837035945813e-01
    1.4107930151998347e-02 -3.0358837035945813e-01
    1.4441194533662315e-02 -2.9522188825145113e-01
    1.5197507433308988e-02 -2.7797972457128467e-01
    1.7886537751364874e-02 -2.3094010767585027e-01
    1.8640501975734511e-02 -2.2061859933306033e-01
    1.7886537751364874e-02 -2.3094010767585027e-01
    1.9507213489839980e-02 -2.0988774008055675e-01
    1.9507213489839980e-02 -2.0988774008055675e-01
    1.9507213489839980e-02 -2.0988774008055675e-01
    3.0443894579031204e-02 -1.3102435641608365e-01
    3.0443894579031204e-02 -1.3102435641608365e-01
    3.5078386548009044e-02 -1.1322770341445956e-01
    3.5078386548009044e-02 -1.1322770341445956e-01 1. 0.
    4.2870567902518773e-02 -9.2253120802888500e-02
    4.2870567902518773e-02 -9.2253120802888500e-02
    3.5078386548009044e-02 -1.1322770341445956e-01
    2.4964711434511778e-02 -1.6116459280507603e-01
    2.1714279863390484e-02 -1.8690772540639911e-01
    1.9507213489839980e-02 -2.0988774008055675e-01
    1.6105938959957988e-02 -2.5993762245501817e-01
    1.2999083785380087e-02 -3.3567254331867563e-01
    1.1187181603010387e-02 -4.0925259281898757e-01
    1.0576531493708742e-02 -4.4381268229929721e-01
    1.0576531493708742e-02 -4.4381268229929721e-01
    1.0469960828143323e-02 -4.5060590905933290e-01
    9.3494430553711962e-03 -5.4321447625511132e-01
    9.2894740706275392e-03 -5.4972520607827524e-01
    8.7085591008583801e-03 -6.2778789973909455e-01
    8.7085591008583801e-03 -6.2778789973909455e-01
    8.5960891319178008e-03 -6.4742696626469520e-01
    8.3734187709351947e-03 -6.9372184627558042e-01
    8.5270722985276957e-03 -6.6057825907581647e-01
    8.4021113236771878e-03 -6.8705872342980545e-01
    8.4942455530402656e-03 -6.6717460324828926e-01
    8.6323487830299757e-03 -6.4086994446165579e-01
    9.0187408371425436e-03 -5.8222250973958189e-01
    8.9226384701760544e-03 -5.9521904731427611e-01
    8.8769396372233283e-03 -6.0172166781431546e-01
    1.0175905678916380e-02 -4.7079664881568822e-01
    1.1053465464725215e-02 -4.1625392098174074e-01
    1.1327553236479082e-02 -4.0219983326992187e-01
    1.2999083785380087e-02 -3.3567254331867563e-01
    1.5629750213443729e-02 -2.6906911759852498e-01
    1.6633809225326458e-02 -2.5055991111567705e-01
    1.6633809225326458e-02 -2.5055991111567705e-01
    1.5629750213443729e-02 -2.6906911759852498e-01
    1.5629750213443729e-02 -2.6906911759852498e-01
    1.6105938959957988e-02 -2.5993762245501817e-01
    2.1714279863390484e-02 -1.8690772540639911e-01
    2.4964711434511778e-02 -1.6116459280507603e-01
    2.7288469024506806e-02 -1.4680505487867587e-01
    3.5078386548009044e-02 -1.1322770341445956e-01 1. 0.
    6.0499552749912276e-02 -6.5094455490411943e-02
    3.0443894579031204e-02 -1.3102435641608365e-01
    2.4964711434511778e-02 -1.6116459280507603e-01
    1.9507213489839980e-02 -2.0988774008055675e-01
    1.8640501975734511e-02 -2.2061859933306033e-01
    1.5197507433308988e-02 -2.7797972457128467e-01
    1.1053465464725215e-02 -4.1625392098174074e-01
    1.0804192306778497e-02 -4.3011626335213127e-01
    9.9988785735420239e-03 -4.8412291827592713e-01
    1.0576531493708742e-02 -4.4381268229929721e-01
    9.6834742254904779e-03 -5.1052747024263090e-01
    9.2894740706275392e-03 -5.4972520607827524e-01
    8.7485915849544130e-03 -6.2126074419739574e-01
    8.7485915849544130e-03 -6.2126074419739574e-01
    8.3189033080770299e-03 -7.0710678118654757e-01
    8.2206992293960401e-03 -7.3413965903024136e-01
    8.1165916193925366e-03 -7.6850766219058442e-01
    8.1165916193925366e-03 -7.6850766219058442e-01
    8.2206992293960401e-03 -7.3413965903024136e-01
    8.1165916193925366e-03 -7.6850766219058442e-01
    8.0469305068912034e-03 -7.9654426030239500e-01
    8.0632670118219868e-03 -7.8948570046130473e-01
    8.1165916193925366e-03 -7.6850766219058442e-01
    8.4624965279637525e-03 -6.7378611596065818e-01
    8.7085591008583801e-03 -6.2778789973909455e-01
    8.7899673883448850e-03 -6.1474139013424667e-01
    8.6323487830299757e-03 -6.4086994446165579e-01
    1.0269899997335663e-02 -4.6409548089225722e-01
    1.0576531493708742e-02 -4.4381268229929721e-01
    1.1475093843429054e-02 -3.9509183865983577e-01
    1.2342883678093738e-02 -3.5856858280031811e-01
    1.6105938959957988e-02 -2.5993762245501817e-01
    1.5629750213443729e-02 -2.6906911759852498e-01
    1.5629750213443729e-02 -2.6906911759852498e-01
    1.5197507433308988e-02 -2.7797972457128467e-01
    1.8640501975734511e-02 -2.2061859933306033e-01
    2.3163022421211130e-02 -1.7445567519772939e-01
    2.7288469024506806e-02 -1.4680505487867587e-01
    2.7288469024506806e-02 -1.4680505487867587e-01
    4.2870567902518773e-02 -9.2253120802888500e-02
    2.4964711434511778e-02 -1.6116459280507603e-01
    2.4964711434511778e-02 -1.6116459280507603e-01
    1.7886537751364874e-02 -2.3094010767585027e-01
    1.4803003969738130e-02 -2.8669108954049799e-01
    1.2548166248068069e-02 -3.5103097985101811e-01
    1.1053465464725215e-02 -4.1625392098174074e-01
    9.9154531329852420e-03 -4.9075217405028221e-01
    9.6117476493191804e-03 -5.1708768999501920e-01
    9.3494430553711962e-03 -5.4321447625511132e-01
    9.0692663912271907e-03 -5.7572621458233364e-01
    8.8327334971039315e-03 -6.0822873701576441e-01
    8.6323487830299757e-03 -6.4086994446165579e-01
    8.3734187709351947e-03 -6.9372184627558042e-01
    8.1766782504625237e-03 -7.4780380202014851e-01
    8.2439507821386437e-03 -7.2734603736083980e-01
    7.9405005834851904e-03 -8.5435765771676098e-01
    7.9884586720043796e-03 -8.2513699700703458e-01
    8.0980845079357787e-03 -7.7546847218397674e-01
    8.0803141069856442e-03 -7.8246079643595168e-01
    8.0803141069856442e-03 -7.8246079643595168e-01
    8.0803141069856442e-03 -7.8246079643595168e-01
    8.0312925376179994e-03 -8.0363756341607950e-01
    8.0163416840826219e-03 -8.1076670956734365e-01
    8.2680550003933883e-03 -7.2057669212289210e-01
    8.1558732217758174e-03 -7.5467637026811674e-01
    8.2930320896487820e-03 -7.1383061024824968e-01
    8.3734187709351947e-03 -6.9372184627558042e-01
    8.7085591008583801e-03 -6.2778789973909455e-01
    9.1756002633271161e-03 -5.6273143387113767e-01
    9.9154531329852420e-03 -4.9075217405028221e-01
    1.1475093843429054e-02 -3.9509183865983577e-01
    1.2342883678093738e-02 -3.5856858280031811e-01
    1.4441194533662315e-02 -2.9522188825145113e-01
    1.4803003969738130e-02 -2.8669108954049799e-01
    1.3513803360377094e-02 -3.1988369979626791e-01
    1.6105938959957988e-02 -2.5993762245501817e-01
    1.9507213489839980e-02 -2.0988774008055675e-01
    2.1714279863390484e-02 -1.8690772540639911e-01
    2.0517265923164406e-02 -1.9867985355975659e-01
    3.0443894579031204e-02 -1.3102435641608365e-01
    2.1714279863390484e-02 -1.8690772540639911e-01
    1.9507213489839980e-02 -2.0988774008055675e-01
    1.6105938959957988e-02 -2.5993762245501817e-01
    1.2548166248068069e-02 -3.5103097985101811e-01
    1.1053465464725215e-02 -4.1625392098174074e-01
    1.0085633278625180e-02 -4.7747175268428066e-01
    9.4759035047953920e-03 -5.3017080368602065e-01
    8.6698255103485541e-03 -6.3432394240271694e-01
    8.6323487830299757e-03 -6.4086994446165579e-01
    8.5960891319178008e-03 -6.4742696626469520e-01
    8.4624965279637525e-03 -6.7378611596065818e-01
    8.2680550003933883e-03 -7.2057669212289210e-01
    8.4021113236771878e-03 -6.8705872342980545e-01
    8.0632670118219868e-03 -7.8948570046130473e-01
    7.9884586720043796e-03 -8.2513699700703458e-01
    7.8432070731467435e-03 -1.0042283486693582e+00
    7.8741091871083451e-03 -9.1499142199562800e-01
    7.8432070731467435e-03 -9.9578945498306126e-01
    7.9202920416918000e-03 -8.6922698736035331e-01
    7.8741091871083451e-03 -9.1499142199562800e-01
    7.8633926551874914e-03 -9.3066735855700056e-01
    7.9202920416918000e-03 -8.6922698736035331e-01
    7.8803335566662910e-03 -9.0723586959341662e-01
    7.8684634495307521e-03 -9.2280144126458763e-01
    7.8803335566662910e-03 -9.0723586959341662e-01
    7.8684634495307521e-03 -9.2280144126458763e-01
    8.0980845079357787e-03 -7.7546847218397674e-01
    8.3734187709351947e-03 -6.9372184627558042e-01
    8.5270722985276957e-03 -6.6057825907581647e-01
    9.1756002633271161e-03 -5.6273143387113767e-01
    9.4115535854331148e-03 -5.3669682154906562e-01
    1.0469960828143323e-02 -4.5060590905933290e-01
    1.1187181603010387e-02 -4.0925259281898757e-01
    1.2999083785380087e-02 -3.3567254331867563e-01
    1.2548166248068069e-02 -3.5103097985101811e-01
    1.5197507433308988e-02 -2.7797972457128467e-01
    1.6633809225326458e-02 -2.5055991111567705e-01
    1.9507213489839980e-02 -2.0988774008055675e-01
    1.9507213489839980e-02 -2.0988774008055675e-01
    3.0443894579031204e-02 -1.3102435641608365e-01
    1.7886537751364874e-02 -2.3094010767585027e-01
    1.6633809225326458e-02 -2.5055991111567705e-01
    1.2149432901077695e-02 -3.6602088993120147e-01
    1.0925941892711621e-02 -4.2320736951515903e-01
    1.0175905678916380e-02 -4.7079664881568822e-01
    9.4115535854331148e-03 -5.3669682154906562e-01
    9.2315550670282222e-03 -5.5623040657030809e-01
    8.3456910228997764e-03 -7.0040419597247483e-01
    8.3734187709351947e-03 -6.9372184627558042e-01
    8.5610088734773670e-03 -6.5399605761311275e-01
    8.1358495654259479e-03 -7.6157731058639100e-01
    7.9632019106590426e-03 -8.3966420146569398e-01
    7.8945349261906710e-03 -8.9188258501584483e-01
    7.8437656862362405e-03 -9.8742088290657481e-01
    7.8465605431523831e-03 -1.0299852257277242e+00
    7.8448832705813355e-03 -1.0213243599737851e+00
    7.8432070731467435e-03 -9.9578945498306126e-01
    7.8803335566662927e-03 -1.1022491873564877e+00
    7.8633926551874914e-03 -1.0744977685158097e+00
    7.8515988231912665e-03 -1.0475424252713412e+00
    7.8465605431523831e-03 -9.7088771277613350e-01
    7.8549630733591551e-03 -9.4657276529593870e-01
    7.8487985810025591e-03 -9.6271972468246581e-01
    7.8871406413418173e-03 -8.9953338200619959e-01
    7.8448832705813355e-03 -1.0213243599737851e+00
    7.8487985810025591e-03 -9.6271972468246581e-01
    7.9405005834851904e-03 -8.5435765771676098e-01
    8.0469305068912034e-03 -7.9654426030239500e-01
    8.0980845079357787e-03 -7.7546847218397674e-01
    8.4624965279637525e-03 -6.7378611596065818e-01
    8.6698255103485541e-03 -6.3432394240271694e-01
    9.1215292118249098e-03 -5.6922960777590892e-01
    9.9154531329852420e-03 -4.9075217405028221e-01
    1.0804192306778497e-02 -4.3011626335213127e-01
    1.2149432901077695e-02 -3.6602088993120147e-01
    1.3513803360377094e-02 -3.1988369979626791e-01
    1.5629750213443729e-02 -2.6906911759852498e-01
    1.7223145887125587e-02 -2.4090602791485791e-01
    2.0517265923164406e-02 -1.9867985355975659e-01
    2.3163022421211130e-02 -1.7445567519772939e-01
    1.6105938959957988e-02 -2.5993762245501817e-01
    1.4803003969738130e-02 -2.8669108954049799e-01
    1.1053465464725215e-02 -4.1625392098174074e-01
    9.8351827968040945e-03 -4.9736145915483998e-01
    1.0367837974117545e-02 -4.5736601695948914e-01
    8.7085591008583801e-03 -6.2778789973909455e-01
    8.2439507821386437e-03 -7.2734603736083980e-01
    8.1982811368572737e-03 -7.4095857363494855e-01
    8.3189033080770299e-03 -7.0710678118654757e-01
    8.0803141069856442e-03 -7.8246079643595168e-01
    7.8803335566662910e-03 -9.0723586959341662e-01
    7.8432070731467435e-03 -9.9578945498306126e-01
    7.8633926551874914e-03 -1.0744977685158097e+00
    7.8588935029638100e-03 -1.0654272078068658e+00
    7.8515988231912665e-03 -1.0475424252713412e+00
    7.8803335566662927e-03 -1.1022491873564877e+00
    7.8465605431523831e-03 -1.0299852257277242e+00
    7.8945349261906710e-03 -1.1212238211627763e+00
    7.9111050969827602e-03 -1.1406011019573878e+00
    7.9025213065093275e-03 -1.1308608021530120e+00
    7.8684634495307503e-03 -1.0836567383657538e+00
    7.9405005834851886e-03 -1.1704699910719623e+00
    7.9111050969827602e-03 -1.1406011019573878e+00
    7.9202920416918000e-03 -1.1504474832710556e+00
    7.8487985810025591e-03 -9.6271972468246581e-01
    7.8465605431523831e-03 -9.7088771277613350e-01
    7.8945349261906710e-03 -8.9188258501584483e-01
    8.0980845079357787e-03 -7.7546847218397674e-01
    8.0803141069856442e-03 -7.8246079643595168e-01
    8.0632670118219868e-03 -7.8948570046130473e-01
    8.1558732217758174e-03 -7.5467637026811674e-01
    8.4624965279637525e-03 -6.7378611596065818e-01
    8.8769396372233283e-03 -6.0172166781431546e-01
    9.9988785735420239e-03 -4.8412291827592713e-01
    1.0804192306778497e-02 -4.3011626335213127e-01
    1.2548166248068069e-02 -3.5103097985101811e-01
    1.3799763471295115e-02 -3.1180478223116181e-01
    1.5629750213443729e-02 -2.6906911759852498e-01
    1.7886537751364874e-02 -2.3094010767585027e-01
    1.7886537751364874e-02 -2.3094010767585027e-01
    1.4803003969738130e-02 -2.8669108954049799e-01
    1.3513803360377094e-02 -3.1988369979626791e-01
    1.1630374745465683e-02 -3.8792452473800099e-01
    1.0085633278625180e-02 -4.7747175268428066e-01
    9.7579063293231870e-03 -5.0395263067896967e-01
    8.5270722985276957e-03 -6.6057825907581647e-01
    8.0980845079357787e-03 -7.7546847218397674e-01
    7.9755066338014040e-03 -8.3238040754041231e-01
    7.9755066338014040e-03 -8.3238040754041231e-01
    7.9025213065093275e-03 -8.8428213100686648e-01
    7.8432070731467435e-03 -9.9578945498306126e-01
    7.8432070731467435e-03 -1.0042283486693582e+00
    7.8684634495307503e-03 -1.0836567383657538e+00
    7.8487985810025609e-03 -1.0387239134731869e+00
    7.8741091871083451e-03 -1.0929064207170001e+00
    7.9884586720043796e-03 -1.2119199643540821e+00
    7.9632019106590426e-03 -1.1909522857523620e+00
    7.9300883250176812e-03 -1.1604027979392961e+00
    7.9884586720043796e-03 -1.2119199643540821e+00
    7.8741091871083451e-03 -1.0929064207170001e+00
    8.0312925376179994e-03 -1.2443420336765103e+00
    8.1165916193925366e-03 -1.3012232007545124e+00
    7.9632019106590426e-03 -1.1909522857523620e+00
    7.8588935029638100e-03 -1.0654272078068658e+00
    7.9632019106590426e-03 -1.1909522857523620e+00
    7.8515988231912665e-03 -1.0475424252713412e+00
    7.8549630733591551e-03 -9.4657276529593870e-01
    7.8684634495307521e-03 -9.2280144126458763e-01
    7.9300883250176795e-03 -8.6176972494021242e-01
    8.0020671364446645e-03 -8.1793281173152743e-01
    7.9884586720043796e-03 -8.2513699700703458e-01
    8.0020671364446645e-03 -8.1793281173152743e-01
    8.3456910228997764e-03 -7.0040419597247483e-01
    8.9226384701760544e-03 -5.9521904731427611e-01
    9.9154531329852420e-03 -4.9075217405028221e-01
    1.0804192306778497e-02 -4.3011626335213127e-01
    1.2342883678093738e-02 -3.5856858280031811e-01
    1.4441194533662315e-02 -2.9522188825145113e-01
    1.6633809225326458e-02 -2.5055991111567705e-01
    1.8640501975734511e-02 -2.2061859933306033e-01
    1.3799763471295115e-02 -3.1180478223116181e-01
    1.2342883678093738e-02 -3.5856858280031811e-01
    1.1053465464725215e-02 -4.1625392098174074e-01
    9.2315550670282222e-03 -5.5623040657030809e-01
    8.2930320896487820e-03 -7.1383061024824968e-01
    8.2206992293960401e-03 -7.3413965903024136e-01
    7.9515359185898596e-03 -8.4698955385991981e-01
    7.8549630733591551e-03 -9.4657276529593870e-01
    7.8487985810025591e-03 -9.6271972468246581e-01
    7.8448832705813355e-03 -1.0213243599737851e+00
    7.8437656862362405e-03 -1.0127393670836664e+00
    7.8487985810025609e-03 -1.0387239134731869e+00
    7.8741091871083451e-03 -1.0929064207170001e+00
    7.8871406413418155e-03 -1.1116874815359636e+00
    8.1358495654259479e-03 -1.3130643285972257e+00
    8.1165916193925366e-03 -1.3012232007545124e+00
    7.9884586720043796e-03 -1.2119199643540821e+00
    7.8871406413418155e-03 -1.1116874815359636e+00
    7.9884586720043796e-03 -1.2119199643540821e+00
    8.0469305068912034e-03 -1.2554230189548619e+00
    8.2206992293960401e-03 -1.3621386444657491e+00
    8.4021113236771878e-03 -1.4554796641078775e+00
    8.1165916193925366e-03 -1.3012232007545124e+00
    8.0803141069856459e-03 -1.2780193008453880e+00
    8.0980845079357787e-03 -1.2895430773396468e+00
    7.8633926551874914e-03 -1.0744977685158097e+00
    7.9405005834851886e-03 -1.1704699910719623e+00
    7.8684634495307503e-03 -1.0836567383657538e+00
    7.8448832705813355e-03 -1.0213243599737851e+00
    7.8437656862362405e-03 -9.8742088290657481e-01
    7.8684634495307521e-03 -9.2280144126458763e-01
    8.0020671364446645e-03 -8.1793281173152743e-01
    8.0469305068912034e-03 -7.9654426030239500e-01
    8.2930320896487820e-03 -7.1383061024824968e-01
    9.0187408371425436e-03 -5.8222250973958189e-01
    1.0085633278625180e-02 -4.7747175268428066e-01
    1.1475093843429054e-02 -3.9509183865983577e-01
    1.3799763471295115e-02 -3.1180478223116181e-01
    1.5197507433308988e-02 -2.7797972457128467e-01
    1.7223145887125587e-02 -2.4090602791485791e-01
    1.3247604709959509e-02 -3.2783629377178275e-01
    1.1327553236479082e-02 -4.0219983326992187e-01
    9.6834742254904779e-03 -5.1052747024263090e-01
    8.4021113236771878e-03 -6.8705872342980545e-01
    8.1558732217758174e-03 -7.5467637026811674e-01
    8.1165916193925366e-03 -7.6850766219058442e-01
    7.9755066338014040e-03 -8.3238040754041231e-01
    7.8945349261906710e-03 -8.9188258501584483e-01
    7.8588935029638100e-03 -1.0654272078068658e+00
    7.9515359185898613e-03 -1.1806521053804946e+00
    7.9111050969827602e-03 -1.1406011019573878e+00
    7.9111050969827602e-03 -1.1406011019573878e+00
    7.9515359185898613e-03 -1.1806521053804946e+00
    7.9884586720043796e-03 -1.2119199643540821e+00
    8.2680550003933866e-03 -1.3877773329774215e+00
    8.2680550003933866e-03 -1.3877773329774215e+00
    8.0469305068912034e-03 -1.2554230189548619e+00
    8.0163416840826219e-03 -1.2334004198737250e+00
    8.2206992293960401e-03 -1.3621386444657491e+00
    8.2206992293960401e-03 -1.3621386444657491e+00
    8.2206992293960401e-03 -1.3621386444657491e+00
    8.5960891319178008e-03 -1.5445757623743441e+00
    8.2680550003933866e-03 -1.3877773329774215e+00
    8.1358495654259479e-03 -1.3130643285972257e+00
    8.0469305068912034e-03 -1.2554230189548619e+00
    8.0980845079357787e-03 -1.2895430773396468e+00
    8.3456910228997781e-03 -1.4277470148669684e+00
    7.9884586720043796e-03 -1.2119199643540821e+00
    8.0312925376179994e-03 -1.2443420336765103e+00
    7.9111050969827602e-03 -1.1406011019573878e+00
    7.8437656862362405e-03 -1.0127393670836664e+00
    7.8465605431523831e-03 -9.7088771277613350e-01
    7.9515359185898596e-03 -8.4698955385991981e-01
    7.9755066338014040e-03 -8.3238040754041231e-01
    8.3734187709351947e-03 -6.9372184627558042e-01
    9.4115535854331148e-03 -5.3669682154906562e-01
    1.1053465464725215e-02 -4.1625392098174074e-01
    1.2342883678093738e-02 -3.5856858280031811e-01
    1.4441194533662315e-02 -2.9522188825145113e-01
    1.8640501975734511e-02 -2.2061859933306033e-01
    1.2766452414054627e-02 -3.4340140987172257e-01
    1.0687837179597452e-02 -4.3698372265949076e-01
    8.6323487830299757e-03 -6.4086994446165579e-01
    8.1558732217758174e-03 -7.5467637026811674e-01
    8.0980845079357787e-03 -7.7546847218397674e-01
    8.0020671364446645e-03 -8.1793281173152743e-01
    7.8741091871083451e-03 -9.1499142199562800e-01
    7.8448832705813355e-03 -9.7912087402445536e-01
    7.8945349261906710e-03 -1.1212238211627763e+00
    7.9755066338014040e-03 -1.2013737840789458e+00
    7.9300883250176812e-03 -1.1604027979392961e+00
    7.9025213065093275e-03 -1.1308608021530120e+00
    7.9300883250176812e-03 -1.1604027979392961e+00
    8.0632670118219868e-03 -1.2666473875533020e+00
    8.4021113236771878e-03 -1.4554796641078775e+00
    8.3456910228997781e-03 -1.4277470148669684e+00
    8.1358495654259479e-03 -1.3130643285972257e+00
    8.1982811368572737e-03 -1.3496031162636564e+00
    8.1982811368572737e-03 -1.3496031162636564e+00
    8.1982811368572737e-03 -1.3496031162636564e+00
    8.2439507821386419e-03 -1.3748614120845140e+00
    8.1766782504625237e-03 -1.3372491518477951e+00
    8.2680550003933866e-03 -1.3877773329774215e+00
    8.0803141069856459e-03 -1.2780193008453880e+00
    8.1165916193925366e-03 -1.3012232007545124e+00
    8.3189033080770299e-03 -1.4142135623730951e+00
    8.4942455530402656e-03 -1.4988580127769784e+00
    8.4624965279637508e-03 -1.4841504986700982e+00
    8.2680550003933866e-03 -1.3877773329774215e+00
    8.1165916193925366e-03 -1.3012232007545124e+00
    7.9025213065093275e-03 -1.1308608021530120e+00
    7.8871406413418155e-03 -1.1116874815359636e+00
    7.8465605431523831e-03 -1.0299852257277242e+00
    7.8633926551874914e-03 -9.3066735855700056e-01
    7.9884586720043796e-03 -8.2513699700703458e-01
    8.9226384701760544e-03 -5.9521904731427611e-01
    1.0085633278625180e-02 -4.7747175268428066e-01
    1.2766452414054627e-02 -3.4340140987172257e-01
    1.4803003969738130e-02 -2.8669108954049799e-01
    1.7886537751364874e-02 -2.3094010767585027e-01
    1.2548166248068069e-02 -3.5103097985101811e-01
    1.0175905678916380e-02 -4.7079664881568822e-01
    8.7085591008583801e-03 -6.2778789973909455e-01
    8.0803141069856442e-03 -7.8246079643595168e-01
    7.8633926551874914e-03 -9.3066735855700056e-01
    7.8432070731467435e-03 -9.9578945498306126e-01
    7.8432070731467435e-03 -9.9578945498306126e-01
    7.8684634495307503e-03 -1.0836567383657538e+00
    7.9300883250176812e-03 -1.1604027979392961e+00
    7.9111050969827602e-03 -1.1406011019573878e+00
    8.0163416840826219e-03 -1.2334004198737250e+00
    8.0312925376179994e-03 -1.2443420336765103e+00
    8.1766782504625237e-03 -1.3372491518477951e+00
    8.5270722985276957e-03 -1.5138251770487461e+00
    8.5960891319178008e-03 -1.5445757623743441e+00
    8.3734187709351964e-03 -1.4414999403128947e+00
    8.2930320896487820e-03 -1.4008925726121897e+00
    8.4021113236771878e-03 -1.4554796641078775e+00
    8.2930320896487820e-03 -1.4008925726121897e+00
    8.1165916193925366e-03 -1.3012232007545124e+00
    8.1358495654259479e-03 -1.3130643285972257e+00
    8.0163416840826219e-03 -1.2334004198737250e+00
    8.3189033080770299e-03 -1.4142135623730951e+00
    8.1982811368572737e-03 -1.3496031162636564e+00
    8.4317947572928563e-03 -1.4696938456699067e+00
    8.7899673883448833e-03 -1.6267002938936987e+00
    8.8327334971039333e-03 -1.6441183047457384e+00
    8.6698255103485541e-03 -1.5764815627361641e+00
    8.0632670118219868e-03 -1.2666473875533020e+00
    8.0312925376179994e-03 -1.2443420336765103e+00
    7.9515359185898613e-03 -1.1806521053804946e+00
    7.9515359185898613e-03 -1.1806521053804946e+00
    7.9025213065093275e-03 -1.1308608021530120e+00
    7.8633926551874914e-03 -1.0744977685158097e+00
    7.9202920416918000e-03 -8.6922698736035331e-01
    8.1982811368572737e-03 -7.4095857363494855e-01
    9.5425974876592341e-03 -5.2363493808864281e-01
    1.2548166248068069e-02 -3.5103097985101811e-01
    1.5197507433308988e-02 -2.7797972457128467e-01
    1.5629750213443729e-02 -2.6906911759852498e-01
    1.1053465464725215e-02 -4.1625392098174074e-01
    9.0187408371425436e-03 -5.8222250973958189e-01
    8.4021113236771878e-03 -6.8705872342980545e-01
    7.9405005834851904e-03 -8.5435765771676098e-01
    7.8437656862362405e-03 -1.0127393670836664e+00
    7.8549630733591551e-03 -1.0564428184106460e+00
    7.8741091871083451e-03 -1.0929064207170001e+00
    7.9755066338014040e-03 -1.2013737840789458e+00
    8.0020671364446627e-03 -1.2225943080618618e+00
    8.0632670118219868e-03 -1.2666473875533020e+00
    8.0469305068912034e-03 -1.2554230189548619e+00
    8.2206992293960401e-03 -1.3621386444657491e+00
    8.4317947572928563e-03 -1.4696938456699067e+00
    8.3734187709351964e-03 -1.4414999403128947e+00
    8.4021113236771878e-03 -1.4554796641078775e+00
    8.3734187709351964e-03 -1.4414999403128947e+00
    8.3189033080770299e-03 -1.4142135623730951e+00
    8.5270722985276957e-03 -1.5138251770487461e+00
    8.4021113236771878e-03 -1.4554796641078775e+00
    8.3734187709351964e-03 -1.4414999403128947e+00
    8.1766782504625237e-03 -1.3372491518477951e+00
    8.1558732217758174e-03 -1.3250713012847166e+00
    8.4942455530402656e-03 -1.4988580127769784e+00
    8.5270722985276957e-03 -1.5138251770487461e+00
    8.9226384701760544e-03 -1.6800537625806180e+00
    9.2315550670282222e-03 -1.7978161355218887e+00
    8.7485915849544130e-03 -1.6096301099659795e+00
    8.7899673883448833e-03 -1.6267002938936987e+00
    8.2206992293960401e-03 -1.3621386444657491e+00
    8.0803141069856459e-03 -1.2780193008453880e+00
    8.0469305068912034e-03 -1.2554230189548619e+00
    7.8871406413418155e-03 -1.1116874815359636e+00
    7.8515988231912665e-03 -1.0475424252713412e+00
    7.8515988231912665e-03 -1.0475424252713412e+00
    7.8515988231912665e-03 -9.5461527464243190e-01
    8.3189033080770299e-03 -7.0710678118654757e-01
    9.1756002633271161e-03 -5.6273143387113767e-01
    9.7579063293231870e-03 -5.0395263067896967e-01
    1.3513803360377094e-02 -3.1988369979626791e-01
    1.2548166248068069e-02 -3.5103097985101811e-01
    9.9988785735420239e-03 -4.8412291827592713e-01
    9.0187408371425436e-03 -5.8222250973958189e-01
    8.1982811368572737e-03 -7.4095857363494855e-01
    7.8588935029638117e-03 -9.3859063544890586e-01
    7.8432070731467435e-03 -9.9578945498306126e-01
    7.8945349261906710e-03 -1.1212238211627763e+00
    7.9755066338014040e-03 -1.2013737840789458e+00
    8.0469305068912034e-03 -1.2554230189548619e+00
    8.0803141069856459e-03 -1.2780193008453880e+00
    8.1766782504625237e-03 -1.3372491518477951e+00
    8.1358495654259479e-03 -1.3130643285972257e+00
    8.6323487830299774e-03 -1.5603789952109883e+00
    8.7485915849544130e-03 -1.6096301099659795e+00
    8.6323487830299774e-03 -1.5603789952109883e+00
    8.2439507821386419e-03 -1.3748614120845140e+00
    8.3734187709351964e-03 -1.4414999403128947e+00
    8.3456910228997781e-03 -1.4277470148669684e+00
    8.4317947572928563e-03 -1.4696938456699067e+00
    8.3734187709351964e-03 -1.4414999403128947e+00
    8.1982811368572737e-03 -1.3496031162636564e+00
    8.1558732217758174e-03 -1.3250713012847166e+00
    8.2206992293960401e-03 -1.3621386444657491e+00
    8.4317947572928563e-03 -1.4696938456699067e+00
    8.4317947572928563e-03 -1.4696938456699067e+00
    8.9698858061900647e-03 -1.6986011602608020e+00
    8.8327334971039333e-03 -1.6441183047457384e+00
    8.5960891319178008e-03 -1.5445757623743441e+00
    8.7485915849544130e-03 -1.6096301099659795e+00
    8.5610088734773670e-03 -1.5290612051236159e+00
    8.5270722985276957e-03 -1.5138251770487461e+00
    8.2439507821386419e-03 -1.3748614120845140e+00
    8.0163416840826219e-03 -1.2334004198737250e+00
    7.8684634495307503e-03 -1.0836567383657538e+00
    7.8432070731467435e-03 -9.9578945498306126e-01
    7.8437656862362405e-03 -1.0127393670836664e+00
    8.0020671364446645e-03 -8.1793281173152743e-01
    8.6698255103485541e-03 -6.3432394240271694e-01
    9.4115535854331148e-03 -5.3669682154906562e-01
    1.1794033729906587e-02 -3.8069349381344048e-01
    1.2999083785380087e-02 -3.3567254331867563e-01
    1.0085633278625180e-02 -4.7747175268428066e-01
    8.5270722985276957e-03 -6.6057825907581647e-01
    8.1165916193925366e-03 -7.6850766219058442e-01
    7.8448832705813355e-03 -1.0213243599737851e+00
    7.8437656862362405e-03 -1.0127393670836664e+00
    7.8871406413418155e-03 -1.1116874815359636e+00
    8.0803141069856459e-03 -1.2780193008453880e+00
    8.1982811368572737e-03 -1.3496031162636564e+00
    8.1165916193925366e-03 -1.3012232007545124e+00
    8.2206992293960401e-03 -1.3621386444657491e+00
    8.2206992293960401e-03 -1.3621386444657491e+00
    8.2680550003933866e-03 -1.3877773329774215e+00
    8.3734187709351964e-03 -1.4414999403128947e+00
    8.3734187709351964e-03 -1.4414999403128947e+00
    8.3456910228997781e-03 -1.4277470148669684e+00
    8.2439507821386419e-03 -1.3748614120845140e+00
    8.1766782504625237e-03 -1.3372491518477951e+00
    8.4624965279637508e-03 -1.4841504986700982e+00
    8.4942455530402656e-03 -1.4988580127769784e+00
    8.1982811368572737e-03 -1.3496031162636564e+00
    8.3189033080770299e-03 -1.4142135623730951e+00
    8.3189033080770299e-03 -1.4142135623730951e+00
    8.3189033080770299e-03 -1.4142135623730951e+00
    8.5610088734773670e-03 -1.5290612051236159e+00
    8.7485915849544130e-03 -1.6096301099659795e+00
    8.8769396372233300e-03 -1.6618979396776337e+00
    8.9226384701760544e-03 -1.6800537625806180e+00
    8.4317947572928563e-03 -1.4696938456699067e+00
    8.7485915849544130e-03 -1.6096301099659795e+00
    8.6323487830299774e-03 -1.5603789952109883e+00
    8.4021113236771878e-03 -1.4554796641078775e+00
    8.0980845079357787e-03 -1.2895430773396468e+00
    8.0163416840826219e-03 -1.2334004198737250e+00
    7.8871406413418155e-03 -1.1116874815359636e+00
    7.8487985810025609e-03 -1.0387239134731869e+00
    7.8871406413418173e-03 -8.9953338200619959e-01
    8.1766782504625237e-03 -7.4780380202014851e-01
    9.2315550670282222e-03 -5.5623040657030809e-01
    1.0804192306778497e-02 -4.3011626335213127e-01
    1.3247604709959509e-02 -3.2783629377178275e-01
    9.5425974876592341e-03 -5.2363493808864281e-01
    8.4942455530402656e-03 -6.6717460324828926e-01
    7.9884586720043796e-03 -8.2513699700703458e-01
    7.8432070731467435e-03 -9.9578945498306126e-01
    7.8515988231912665e-03 -1.0475424252713412e+00
    7.8945349261906710e-03 -1.1212238211627763e+00
    8.1358495654259479e-03 -1.3130643285972257e+00
    8.1982811368572737e-03 -1.3496031162636564e+00
    8.3456910228997781e-03 -1.4277470148669684e+00
    8.5960891319178008e-03 -1.5445757623743441e+00
    8.4317947572928563e-03 -1.4696938456699067e+00
    8.2930320896487820e-03 -1.4008925726121897e+00
    8.4317947572928563e-03 -1.4696938456699067e+00
    8.2206992293960401e-03 -1.3621386444657491e+00
    8.1358495654259479e-03 -1.3130643285972257e+00
    8.1558732217758174e-03 -1.3250713012847166e+00
    8.0312925376179994e-03 -1.2443420336765103e+00
    8.2206992293960401e-03 -1.3621386444657491e+00
    8.2680550003933866e-03 -1.3877773329774215e+00
    8.2206992293960401e-03 -1.3621386444657491e+00
    8.4021113236771878e-03 -1.4554796641078775e+00
    8.3456910228997781e-03 -1.4277470148669684e+00
    8.4624965279637508e-03 -1.4841504986700982e+00
    8.4942455530402656e-03 -1.4988580127769784e+00
    8.5960891319178008e-03 -1.5445757623743441e+00
    8.7085591008583801e-03 -1.5928946709797922e+00
    9.0692663912271890e-03 -1.7369367151805994e+00
    9.1756002633271161e-03 -1.7770466332772770e+00
    9.0187408371425453e-03 -1.7175564037317670e+00
    8.7085591008583801e-03 -1.5928946709797922e+00
    8.4021113236771878e-03 -1.4554796641078775e+00
    8.2680550003933866e-03 -1.3877773329774215e+00
    8.0803141069856459e-03 -1.2780193008453880e+00
    7.9515359185898613e-03 -1.1806521053804946e+00
    7.8871406413418155e-03 -1.1116874815359636e+00
    7.8448832705813355e-03 -1.0213243599737851e+00
    8.1558732217758174e-03 -7.5467637026811674e-01
    9.0692663912271907e-03 -5.7572621458233364e-01
    1.0175905678916380e-02 -4.7079664881568822e-01
    1.2342883678093738e-02 -3.5856858280031811e-01
    9.4115535854331148e-03 -5.3669682154906562e-01
    8.4021113236771878e-03 -6.8705872342980545e-01
    7.9202920416918000e-03 -8.6922698736035331e-01
    7.8549630733591551e-03 -1.0564428184106460e+00
    7.8741091871083451e-03 -1.0929064207170001e+00
    7.8945349261906710e-03 -1.1212238211627763e+00
    8.0312925376179994e-03 -1.2443420336765103e+00
    8.2439507821386419e-03 -1.3748614120845140e+00
    8.4317947572928563e-03 -1.4696938456699067e+00
    8.8769396372233300e-03 -1.6618979396776337e+00
    9.1215292118249098e-03 -1.7567603412394430e+00
    8.5960891319178008e-03 -1.5445757623743441e+00
    8.4624965279637508e-03 -1.4841504986700982e+00
    8.6698255103485541e-03 -1.5764815627361641e+00
    8.4021113236771878e-03 -1.4554796641078775e+00
    8.1558732217758174e-03 -1.3250713012847166e+00
    8.0980845079357787e-03 -1.2895430773396468e+00
    8.1766782504625237e-03 -1.3372491518477951e+00
    8.2930320896487820e-03 -1.4008925726121897e+00
    8.3189033080770299e-03 -1.4142135623730951e+00
    8.3189033080770299e-03 -1.4142135623730951e+00
    8.3189033080770299e-03 -1.4142135623730951e+00
    8.5610088734773670e-03 -1.5290612051236159e+00
    8.6323487830299774e-03 -1.5603789952109883e+00
    8.6323487830299774e-03 -1.5603789952109883e+00
    8.5270722985276957e-03 -1.5138251770487461e+00
    8.8327334971039333e-03 -1.6441183047457384e+00
    9.2894740706275427e-03 -1.8190906819317481e+00
    8.8769396372233300e-03 -1.6618979396776337e+00
    9.1215292118249098e-03 -1.7567603412394430e+00
    9.0187408371425453e-03 -1.7175564037317670e+00
    8.7485915849544130e-03 -1.6096301099659795e+00
    8.3734187709351964e-03 -1.4414999403128947e+00
    8.2206992293960401e-03 -1.3621386444657491e+00
    7.9632019106590426e-03 -1.1909522857523620e+00
    7.8803335566662927e-03 -1.1022491873564877e+00
    8.0312925376179994e-03 -8.0363756341607950e-01
    8.9698858061900665e-03 -5.8871972031766451e-01
    9.8351827968040945e-03 -4.9736145915483998e-01
    1.2548166248068069e-02 -3.5103097985101811e-01
    9.7579063293231870e-03 -5.0395263067896967e-01
    8.4624965279637525e-03 -6.7378611596065818e-01
    8.0469305068912034e-03 -7.9654426030239500e-01
    7.8549630733591551e-03 -9.4657276529593870e-01
    7.8741091871083451e-03 -1.0929064207170001e+00
    7.9300883250176812e-03 -1.1604027979392961e+00
    7.9202920416918000e-03 -1.1504474832710556e+00
    8.2206992293960401e-03 -1.3621386444657491e+00
    8.2680550003933866e-03 -1.3877773329774215e+00
    8.6698255103485541e-03 -1.5764815627361641e+00
    9.2315550670282222e-03 -1.7978161355218887e+00
    8.6323487830299774e-03 -1.5603789952109883e+00
    8.6698255103485541e-03 -1.5764815627361641e+00
    8.7085591008583801e-03 -1.5928946709797922e+00
    8.2206992293960401e-03 -1.3621386444657491e+00
    8.5270722985276957e-03 -1.5138251770487461e+00
    8.3734187709351964e-03 -1.4414999403128947e+00
    8.2206992293960401e-03 -1.3621386444657491e+00
    8.2206992293960401e-03 -1.3621386444657491e+00
    8.3189033080770299e-03 -1.4142135623730951e+00
    8.3456910228997781e-03 -1.4277470148669684e+00
    8.4317947572928563e-03 -1.4696938456699067e+00
    8.4942455530402656e-03 -1.4988580127769784e+00
    8.5960891319178008e-03 -1.5445757623743441e+00
    8.2439507821386419e-03 -1.3748614120845140e+00
    8.3189033080770299e-03 -1.4142135623730951e+00
    8.4021113236771878e-03 -1.4554796641078775e+00
    8.5610088734773670e-03 -1.5290612051236159e+00
    8.6698255103485541e-03 -1.5764815627361641e+00
    8.8769396372233300e-03 -1.6618979396776337e+00
    8.5270722985276957e-03 -1.5138251770487461e+00
    8.6323487830299774e-03 -1.5603789952109883e+00
    8.4942455530402656e-03 -1.4988580127769784e+00
    8.2439507821386419e-03 -1.3748614120845140e+00
    8.0469305068912034e-03 -1.2554230189548619e+00
    7.8945349261906710e-03 -1.1212238211627763e+00
    7.9755066338014040e-03 -8.3238040754041231e-01
    9.0187408371425436e-03 -5.8222250973958189e-01
    9.4759035047953920e-03 -5.3017080368602065e-01
    1.2766452414054627e-02 -3.4340140987172257e-01
    9.7579063293231870e-03 -5.0395263067896967e-01
    8.5270722985276957e-03 -6.6057825907581647e-01
    7.9884586720043796e-03 -8.2513699700703458e-01
    7.8487985810025591e-03 -9.6271972468246581e-01
    7.8684634495307503e-03 -1.0836567383657538e+00
    7.9300883250176812e-03 -1.1604027979392961e+00
    8.1165916193925366e-03 -1.3012232007545124e+00
    8.1165916193925366e-03 -1.3012232007545124e+00
    8.2680550003933866e-03 -1.3877773329774215e+00
    8.7485915849544130e-03 -1.6096301099659795e+00
    9.0187408371425453e-03 -1.7175564037317670e+00
    9.0692663912271890e-03 -1.7369367151805994e+00
    8.6323487830299774e-03 -1.5603789952109883e+00
    8.7899673883448833e-03 -1.6267002938936987e+00
    8.5270722985276957e-03 -1.5138251770487461e+00
    8.4942455530402656e-03 -1.4988580127769784e+00
    8.4021113236771878e-03 -1.4554796641078775e+00
    8.7085591008583801e-03 -1.5928946709797922e+00
    8.7085591008583801e-03 -1.5928946709797922e+00
    8.4942455530402656e-03 -1.4988580127769784e+00
    8.4021113236771878e-03 -1.4554796641078775e+00
    8.3734187709351964e-03 -1.4414999403128947e+00
    8.3734187709351964e-03 -1.4414999403128947e+00
    8.4624965279637508e-03 -1.4841504986700982e+00
    8.2930320896487820e-03 -1.4008925726121897e+00
    8.5270722985276957e-03 -1.5138251770487461e+00
    8.4624965279637508e-03 -1.4841504986700982e+00
    8.5270722985276957e-03 -1.5138251770487461e+00
    8.8327334971039333e-03 -1.6441183047457384e+00
    8.5610088734773670e-03 -1.5290612051236159e+00
    8.5610088734773670e-03 -1.5290612051236159e+00
    8.4942455530402656e-03 -1.4988580127769784e+00
    8.1766782504625237e-03 -1.3372491518477951e+00
    8.0163416840826219e-03 -1.2334004198737250e+00
    8.0803141069856459e-03 -1.2780193008453880e+00
    7.8871406413418155e-03 -1.1116874815359636e+00
    7.9884586720043796e-03 -8.2513699700703458e-01
    9.0187408371425436e-03 -5.8222250973958189e-01
    9.9154531329852420e-03 -4.9075217405028221e-01
    1.2149432901077695e-02 -3.6602088993120147e-01
    9.3494430553711962e-03 -5.4321447625511132e-01
    8.3734187709351947e-03 -6.9372184627558042e-01
    7.9111050969827620e-03 -8.7673069777321622e-01
    7.8515988231912665e-03 -9.5461527464243190e-01
    7.8487985810025609e-03 -1.0387239134731869e+00
    7.8871406413418155e-03 -1.1116874815359636e+00
    8.0469305068912034e-03 -1.2554230189548619e+00
    8.2680550003933866e-03 -1.3877773329774215e+00
    8.1766782504625237e-03 -1.3372491518477951e+00
    8.7485915849544130e-03 -1.6096301099659795e+00
    8.8327334971039333e-03 -1.6441183047457384e+00
    8.5270722985276957e-03 -1.5138251770487461e+00
    8.5960891319178008e-03 -1.5445757623743441e+00
    8.7485915849544130e-03 -1.6096301099659795e+00
    8.5610088734773670e-03 -1.5290612051236159e+00
    8.6323487830299774e-03 -1.5603789952109883e+00
    8.5960891319178008e-03 -1.5445757623743441e+00
    8.5610088734773670e-03 -1.5290612051236159e+00
    9.0187408371425453e-03 -1.7175564037317670e+00
    8.9698858061900647e-03 -1.6986011602608020e+00
    8.4021113236771878e-03 -1.4554796641078775e+00
    8.2680550003933866e-03 -1.3877773329774215e+00
    8.6323487830299774e-03 -1.5603789952109883e+00
    8.5270722985276957e-03 -1.5138251770487461e+00
    8.7085591008583801e-03 -1.5928946709797922e+00
    8.6698255103485541e-03 -1.5764815627361641e+00
    8.7899673883448833e-03 -1.6267002938936987e+00
    8.5960891319178008e-03 -1.5445757623743441e+00
    8.5610088734773670e-03 -1.5290612051236159e+00
    8.7485915849544130e-03 -1.6096301099659795e+00
    8.4021113236771878e-03 -1.4554796641078775e+00
    8.3456910228997781e-03 -1.4277470148669684e+00
    8.2680550003933866e-03 -1.3877773329774215e+00
    8.0803141069856459e-03 -1.2780193008453880e+00
    7.9515359185898613e-03 -1.1806521053804946e+00
    7.8741091871083451e-03 -1.0929064207170001e+00
    7.9202920416918000e-03 -8.6922698736035331e-01
    8.9698858061900665e-03 -5.8871972031766451e-01
    9.9154531329852420e-03 -4.9075217405028221e-01
    1.1794033729906587e-02 -3.8069349381344048e-01
    9.5425974876592341e-03 -5.2363493808864281e-01
    8.2930320896487820e-03 -7.1383061024824968e-01
    8.0163416840826219e-03 -8.1076670956734365e-01
    7.8588935029638117e-03 -9.3859063544890586e-01
    7.8803335566662927e-03 -1.1022491873564877e+00
    7.9025213065093275e-03 -1.1308608021530120e+00
    7.9884586720043796e-03 -1.2119199643540821e+00
    8.0632670118219868e-03 -1.2666473875533020e+00
    8.3456910228997781e-03 -1.4277470148669684e+00
    8.2930320896487820e-03 -1.4008925726121897e+00
    8.3189033080770299e-03 -1.4142135623730951e+00
    8.5270722985276957e-03 -1.5138251770487461e+00
    8.7899673883448833e-03 -1.6267002938936987e+00
    8.8769396372233300e-03 -1.6618979396776337e+00
    8.3189033080770299e-03 -1.4142135623730951e+00
    8.2930320896487820e-03 -1.4008925726121897e+00
    8.4942455530402656e-03 -1.4988580127769784e+00
    8.5610088734773670e-03 -1.5290612051236159e+00
    8.5960891319178008e-03 -1.5445757623743441e+00
    8.9226384701760544e-03 -1.6800537625806180e+00
    8.7085591008583801e-03 -1.5928946709797922e+00
    8.2439507821386419e-03 -1.3748614120845140e+00
    8.4624965279637508e-03 -1.4841504986700982e+00
    8.2439507821386419e-03 -1.3748614120845140e+00
    8.3189033080770299e-03 -1.4142135623730951e+00
    8.2930320896487820e-03 -1.4008925726121897e+00
    8.4021113236771878e-03 -1.4554796641078775e+00
    8.4317947572928563e-03 -1.4696938456699067e+00
    8.2206992293960401e-03 -1.3621386444657491e+00
    8.2930320896487820e-03 -1.4008925726121897e+00
    8.2206992293960401e-03 -1.3621386444657491e+00
    8.1165916193925366e-03 -1.3012232007545124e+00
    8.0163416840826219e-03 -1.2334004198737250e+00
    7.8803335566662927e-03 -1.1022491873564877e+00
    7.8803335566662927e-03 -1.1022491873564877e+00
    7.8437656862362405e-03 -9.8742088290657481e-01
    8.0163416840826219e-03 -8.1076670956734365e-01
    8.5270722985276957e-03 -6.6057825907581647e-01
    9.9154531329852420e-03 -4.9075217405028221e-01
    1.2548166248068069e-02 -3.5103097985101811e-01
    9.6834742254904779e-03 -5.1052747024263090e-01
    8.4317947572928580e-03 -6.8041381743977181e-01
    8.0163416840826219e-03 -8.1076670956734365e-01
    7.8871406413418173e-03 -8.9953338200619959e-01
    7.8448832705813355e-03 -1.0213243599737851e+00
    7.8803335566662927e-03 -1.1022491873564877e+00
    8.0020671364446627e-03 -1.2225943080618618e+00
    8.1165916193925366e-03 -1.3012232007545124e+00
    8.1358495654259479e-03 -1.3130643285972257e+00
    8.1766782504625237e-03 -1.3372491518477951e+00
    8.3456910228997781e-03 -1.4277470148669684e+00
    8.5960891319178008e-03 -1.5445757623743441e+00
    8.3456910228997781e-03 -1.4277470148669684e+00
    8.9226384701760544e-03 -1.6800537625806180e+00
    8.5270722985276957e-03 -1.5138251770487461e+00
    8.5270722985276957e-03 -1.5138251770487461e+00
    8.4624965279637508e-03 -1.4841504986700982e+00
    8.4624965279637508e-03 -1.4841504986700982e+00
    8.4942455530402656e-03 -1.4988580127769784e+00
    8.4317947572928563e-03 -1.4696938456699067e+00
    8.4021113236771878e-03 -1.4554796641078775e+00
    8.4942455530402656e-03 -1.4988580127769784e+00
    8.4624965279637508e-03 -1.4841504986700982e+00
    8.3456910228997781e-03 -1.4277470148669684e+00
    8.3189033080770299e-03 -1.4142135623730951e+00
    8.4317947572928563e-03 -1.4696938456699067e+00
    8.2206992293960401e-03 -1.3621386444657491e+00
    8.4317947572928563e-03 -1.4696938456699067e+00
    8.2206992293960401e-03 -1.3621386444657491e+00
    7.9884586720043796e-03 -1.2119199643540821e+00
    8.0312925376179994e-03 -1.2443420336765103e+00
    8.0469305068912034e-03 -1.2554230189548619e+00
    8.0163416840826219e-03 -1.2334004198737250e+00
    7.8871406413418155e-03 -1.1116874815359636e+00
    7.8741091871083451e-03 -1.0929064207170001e+00
    7.8448832705813355e-03 -9.7912087402445536e-01
    7.9632019106590426e-03 -8.3966420146569398e-01
    8.4317947572928580e-03 -6.8041381743977181e-01
    9.5425974876592341e-03 -5.2363493808864281e-01
    1.4441194533662315e-02 -2.9522188825145113e-01
    1.0367837974117545e-02 -4.5736601695948914e-01
    8.8327334971039315e-03 -6.0822873701576441e-01
    8.0632670118219868e-03 -7.8948570046130473e-01
    7.9515359185898596e-03 -8.4698955385991981e-01
    7.8448832705813355e-03 -9.7912087402445536e-01
    7.8549630733591551e-03 -1.0564428184106460e+00
    7.9755066338014040e-03 -1.2013737840789458e+00
    8.1558732217758174e-03 -1.3250713012847166e+00
    8.1766782504625237e-03 -1.3372491518477951e+00
    8.0469305068912034e-03 -1.2554230189548619e+00
    8.2439507821386419e-03 -1.3748614120845140e+00
    8.4021113236771878e-03 -1.4554796641078775e+00
    8.5270722985276957e-03 -1.5138251770487461e+00
    8.4942455530402656e-03 -1.4988580127769784e+00
    8.5610088734773670e-03 -1.5290612051236159e+00
    8.4317947572928563e-03 -1.4696938456699067e+00
    8.4624965279637508e-03 -1.4841504986700982e+00
    8.5610088734773670e-03 -1.5290612051236159e+00
    8.5270722985276957e-03 -1.5138251770487461e+00
    8.6323487830299774e-03 -1.5603789952109883e+00
    8.4624965279637508e-03 -1.4841504986700982e+00
    8.3734187709351964e-03 -1.4414999403128947e+00
    8.4942455530402656e-03 -1.4988580127769784e+00
    8.4317947572928563e-03 -1.4696938456699067e+00
    8.3456910228997781e-03 -1.4277470148669684e+00
    8.5270722985276957e-03 -1.5138251770487461e+00
    8.3456910228997781e-03 -1.4277470148669684e+00
    8.2930320896487820e-03 -1.4008925726121897e+00
    8.2439507821386419e-03 -1.3748614120845140e+00
    8.2206992293960401e-03 -1.3621386444657491e+00
    7.9884586720043796e-03 -1.2119199643540821e+00
    8.0163416840826219e-03 -1.2334004198737250e+00
    8.0020671364446627e-03 -1.2225943080618618e+00
    7.8803335566662927e-03 -1.1022491873564877e+00
    7.8448832705813355e-03 -9.7912087402445536e-01
    7.8588935029638117e-03 -9.3859063544890586e-01
    8.0469305068912034e-03 -7.9654426030239500e-01
    8.5960891319178008e-03 -6.4742696626469520e-01
    1.0085633278625180e-02 -4.7747175268428066e-01
    1.6105938959957988e-02 -2.5993762245501817e-01
    1.0175905678916380e-02 -4.7079664881568822e-01
    8.8327334971039315e-03 -6.0822873701576441e-01
    8.4624965279637525e-03 -6.7378611596065818e-01
    7.9755066338014040e-03 -8.3238040754041231e-01
    7.8448832705813355e-03 -9.7912087402445536e-01
    7.8871406413418155e-03 -1.1116874815359636e+00
    8.0163416840826219e-03 -1.2334004198737250e+00
    7.9884586720043796e-03 -1.2119199643540821e+00
    8.0980845079357787e-03 -1.2895430773396468e+00
    8.0312925376179994e-03 -1.2443420336765103e+00
    8.1766782504625237e-03 -1.3372491518477951e+00
    8.4317947572928563e-03 -1.4696938456699067e+00
    8.5960891319178008e-03 -1.5445757623743441e+00
    8.7899673883448833e-03 -1.6267002938936987e+00
    9.0187408371425453e-03 -1.7175564037317670e+00
    8.6323487830299774e-03 -1.5603789952109883e+00
    8.7485915849544130e-03 -1.6096301099659795e+00
    8.6323487830299774e-03 -1.5603789952109883e+00
    8.5270722985276957e-03 -1.5138251770487461e+00
    8.6698255103485541e-03 -1.5764815627361641e+00
    8.5270722985276957e-03 -1.5138251770487461e+00
    8.5960891319178008e-03 -1.5445757623743441e+00
    8.3456910228997781e-03 -1.4277470148669684e+00
    8.2439507821386419e-03 -1.3748614120845140e+00
    8.0632670118219868e-03 -1.2666473875533020e+00
    8.4624965279637508e-03 -1.4841504986700982e+00
    8.4942455530402656e-03 -1.4988580127769784e+00
    8.1165916193925366e-03 -1.3012232007545124e+00
    8.0803141069856459e-03 -1.2780193008453880e+00
    8.0312925376179994e-03 -1.2443420336765103e+00
    7.9755066338014040e-03 -1.2013737840789458e+00
    8.0163416840826219e-03 -1.2334004198737250e+00
    7.9300883250176812e-03 -1.1604027979392961e+00
    7.8515988231912665e-03 -1.0475424252713412e+00
    7.8633926551874914e-03 -1.0744977685158097e+00
    7.8588935029638117e-03 -9.3859063544890586e-01
    7.9632019106590426e-03 -8.3966420146569398e-01
    8.5270722985276957e-03 -6.6057825907581647e-01
    1.0085633278625180e-02 -4.7747175268428066e-01
    1.5629750213443729e-02 -2.6906911759852498e-01
    1.1630374745465683e-02 -3.8792452473800099e-01
    9.2894740706275392e-03 -5.4972520607827524e-01
    8.5960891319178008e-03 -6.4742696626469520e-01
    8.0803141069856442e-03 -7.8246079643595168e-01
    7.9300883250176795e-03 -8.6176972494021242e-01
    7.8741091871083451e-03 -1.0929064207170001e+00
    7.9884586720043796e-03 -1.2119199643540821e+00
    8.1358495654259479e-03 -1.3130643285972257e+00
    8.0632670118219868e-03 -1.2666473875533020e+00
    8.2680550003933866e-03 -1.3877773329774215e+00
    8.4624965279637508e-03 -1.4841504986700982e+00
    8.6698255103485541e-03 -1.5764815627361641e+00
    8.7085591008583801e-03 -1.5928946709797922e+00
    8.6698255103485541e-03 -1.5764815627361641e+00
    8.7485915849544130e-03 -1.6096301099659795e+00
    8.8327334971039333e-03 -1.6441183047457384e+00
    8.7485915849544130e-03 -1.6096301099659795e+00
    8.8769396372233300e-03 -1.6618979396776337e+00
    8.6323487830299774e-03 -1.5603789952109883e+00
    8.4021113236771878e-03 -1.4554796641078775e+00
    8.3189033080770299e-03 -1.4142135623730951e+00
    8.4624965279637508e-03 -1.4841504986700982e+00
    8.1982811368572737e-03 -1.3496031162636564e+00
    8.1982811368572737e-03 -1.3496031162636564e+00
    8.2680550003933866e-03 -1.3877773329774215e+00
    8.1982811368572737e-03 -1.3496031162636564e+00
    8.1358495654259479e-03 -1.3130643285972257e+00
    8.1165916193925366e-03 -1.3012232007545124e+00
    8.2439507821386419e-03 -1.3748614120845140e+00
    8.0469305068912034e-03 -1.2554230189548619e+00
    7.9884586720043796e-03 -1.2119199643540821e+00
    8.0163416840826219e-03 -1.2334004198737250e+00
    8.0020671364446627e-03 -1.2225943080618618e+00
    7.9025213065093275e-03 -1.1308608021530120e+00
    7.8432070731467435e-03 -1.0042283486693582e+00
    7.9025213065093275e-03 -8.8428213100686648e-01
    8.0163416840826219e-03 -8.1076670956734365e-01
    8.7899673883448850e-03 -6.1474139013424667e-01
    9.9154531329852420e-03 -4.9075217405028221e-01
    1.7223145887125587e-02 -2.4090602791485791e-01
    1.2149432901077695e-02 -3.6602088993120147e-01
    9.6834742254904779e-03 -5.1052747024263090e-01
    8.4624965279637525e-03 -6.7378611596065818e-01
    8.0312925376179994e-03 -8.0363756341607950e-01
    7.9111050969827620e-03 -8.7673069777321622e-01
    7.8588935029638117e-03 -9.3859063544890586e-01
    7.8871406413418155e-03 -1.1116874815359636e+00
    7.9515359185898613e-03 -1.1806521053804946e+00
    8.0632670118219868e-03 -1.2666473875533020e+00
    8.1358495654259479e-03 -1.3130643285972257e+00
    8.1766782504625237e-03 -1.3372491518477951e+00
    8.4021113236771878e-03 -1.4554796641078775e+00
    8.3456910228997781e-03 -1.4277470148669684e+00
    8.7899673883448833e-03 -1.6267002938936987e+00
    8.8327334971039333e-03 -1.6441183047457384e+00
    8.3456910228997781e-03 -1.4277470148669684e+00
    8.6323487830299774e-03 -1.5603789952109883e+00
    8.6698255103485541e-03 -1.5764815627361641e+00
    8.7485915849544130e-03 -1.6096301099659795e+00
    8.6698255103485541e-03 -1.5764815627361641e+00
    8.4624965279637508e-03 -1.4841504986700982e+00
    8.3456910228997781e-03 -1.4277470148669684e+00
    8.2930320896487820e-03 -1.4008925726121897e+00
    8.2439507821386419e-03 -1.3748614120845140e+00
    8.2439507821386419e-03 -1.3748614120845140e+00
    8.1558732217758174e-03 -1.3250713012847166e+00
    8.3456910228997781e-03 -1.4277470148669684e+00
    8.3456910228997781e-03 -1.4277470148669684e+00
    8.2206992293960401e-03 -1.3621386444657491e+00
    8.1558732217758174e-03 -1.3250713012847166e+00
    8.1358495654259479e-03 -1.3130643285972257e+00
    7.9515359185898613e-03 -1.1806521053804946e+00
    7.8633926551874914e-03 -1.0744977685158097e+00
    7.8549630733591551e-03 -1.0564428184106460e+00
    7.8588935029638117e-03 -9.3859063544890586e-01
    7.9202920416918000e-03 -8.6922698736035331e-01
    8.3189033080770299e-03 -7.0710678118654757e-01
    8.9226384701760544e-03 -5.9521904731427611e-01
    1.0269899997335663e-02 -4.6409548089225722e-01
    1.4803003969738130e-02 -2.8669108954049799e-01
    1.2548166248068069e-02 -3.5103097985101811e-01
    9.9988785735420239e-03 -4.8412291827592713e-01
    9.0187408371425436e-03 -5.8222250973958189e-01
    8.1558732217758174e-03 -7.5467637026811674e-01
    8.0312925376179994e-03 -8.0363756341607950e-01
    7.8945349261906710e-03 -8.9188258501584483e-01
    7.8465605431523831e-03 -9.7088771277613350e-01
    7.8945349261906710e-03 -1.1212238211627763e+00
    7.9515359185898613e-03 -1.1806521053804946e+00
    8.0980845079357787e-03 -1.2895430773396468e+00
    7.9632019106590426e-03 -1.1909522857523620e+00
    8.0163416840826219e-03 -1.2334004198737250e+00
    8.1165916193925366e-03 -1.3012232007545124e+00
    8.3734187709351964e-03 -1.4414999403128947e+00
    8.2930320896487820e-03 -1.4008925726121897e+00
    8.2680550003933866e-03 -1.3877773329774215e+00
    8.3456910228997781e-03 -1.4277470148669684e+00
    8.4624965279637508e-03 -1.4841504986700982e+00
    8.2930320896487820e-03 -1.4008925726121897e+00
    8.2680550003933866e-03 -1.3877773329774215e+00
    8.2680550003933866e-03 -1.3877773329774215e+00
    8.2206992293960401e-03 -1.3621386444657491e+00
    8.2680550003933866e-03 -1.3877773329774215e+00
    8.2930320896487820e-03 -1.4008925726121897e+00
    8.2680550003933866e-03 -1.3877773329774215e+00
    8.3734187709351964e-03 -1.4414999403128947e+00
    8.1982811368572737e-03 -1.3496031162636564e+00
    8.0469305068912034e-03 -1.2554230189548619e+00
    8.1358495654259479e-03 -1.3130643285972257e+00
    8.1358495654259479e-03 -1.3130643285972257e+00
    8.0469305068912034e-03 -1.2554230189548619e+00
    7.9632019106590426e-03 -1.1909522857523620e+00
    7.8633926551874914e-03 -1.0744977685158097e+00
    7.8487985810025591e-03 -9.6271972468246581e-01
    7.9025213065093275e-03 -8.8428213100686648e-01
    8.0632670118219868e-03 -7.8948570046130473e-01
    8.6698255103485541e-03 -6.3432394240271694e-01
    9.2315550670282222e-03 -5.5623040657030809e-01
    1.2342883678093738e-02 -3.5856858280031811e-01
    1.3799763471295115e-02 -3.1180478223116181e-01
    1.2766452414054627e-02 -3.4340140987172257e-01
    1.0175905678916380e-02 -4.7079664881568822e-01
    9.2894740706275392e-03 -5.4972520607827524e-01
    8.5270722985276957e-03 -6.6057825907581647e-01
    8.1358495654259479e-03 -7.6157731058639100e-01
    7.9202920416918000e-03 -8.6922698736035331e-01
    7.8588935029638117e-03 -9.3859063544890586e-01
    7.8437656862362405e-03 -1.0127393670836664e+00
    7.8871406413418155e-03 -1.1116874815359636e+00
    7.9111050969827602e-03 -1.1406011019573878e+00
    7.9755066338014040e-03 -1.2013737840789458e+00
    8.1766782504625237e-03 -1.3372491518477951e+00
    8.2930320896487820e-03 -1.4008925726121897e+00
    8.4021113236771878e-03 -1.4554796641078775e+00
    8.4942455530402656e-03 -1.4988580127769784e+00
    8.3456910228997781e-03 -1.4277470148669684e+00
    8.2930320896487820e-03 -1.4008925726121897e+00
    8.3189033080770299e-03 -1.4142135623730951e+00
    8.2930320896487820e-03 -1.4008925726121897e+00
    8.1766782504625237e-03 -1.3372491518477951e+00
    8.0803141069856459e-03 -1.2780193008453880e+00
    8.2680550003933866e-03 -1.3877773329774215e+00
    8.2439507821386419e-03 -1.3748614120845140e+00
    8.4624965279637508e-03 -1.4841504986700982e+00
    8.3189033080770299e-03 -1.4142135623730951e+00
    8.1766782504625237e-03 -1.3372491518477951e+00
    8.2206992293960401e-03 -1.3621386444657491e+00
    8.1358495654259479e-03 -1.3130643285972257e+00
    8.0312925376179994e-03 -1.2443420336765103e+00
    8.1165916193925366e-03 -1.3012232007545124e+00
    8.0163416840826219e-03 -1.2334004198737250e+00
    7.8871406413418155e-03 -1.1116874815359636e+00
    7.8588935029638100e-03 -1.0654272078068658e+00
    7.8803335566662910e-03 -9.0723586959341662e-01
    8.0469305068912034e-03 -7.9654426030239500e-01
    8.3456910228997764e-03 -7.0040419597247483e-01
    8.6323487830299757e-03 -6.4086994446165579e-01
    9.2315550670282222e-03 -5.5623040657030809e-01
    1.2342883678093738e-02 -3.5856858280031811e-01
    1.8640501975734511e-02 -2.2061859933306033e-01
    1.3513803360377094e-02 -3.1988369979626791e-01
    1.0576531493708742e-02 -4.4381268229929721e-01
    9.2315550670282222e-03 -5.5623040657030809e-01
    8.8769396372233283e-03 -6.0172166781431546e-01
    8.2680550003933883e-03 -7.2057669212289210e-01
    7.9202920416918000e-03 -8.6922698736035331e-01
    7.8633926551874914e-03 -9.3066735855700056e-01
    7.8437656862362405e-03 -9.8742088290657481e-01
    7.8448832705813355e-03 -1.0213243599737851e+00
    7.9632019106590426e-03 -1.1909522857523620e+00
    7.9405005834851886e-03 -1.1704699910719623e+00
    8.0312925376179994e-03 -1.2443420336765103e+00
    8.3189033080770299e-03 -1.4142135623730951e+00
    8.0980845079357787e-03 -1.2895430773396468e+00
    8.3456910228997781e-03 -1.4277470148669684e+00
    8.3189033080770299e-03 -1.4142135623730951e+00
    8.1766782504625237e-03 -1.3372491518477951e+00
    8.1358495654259479e-03 -1.3130643285972257e+00
    8.1982811368572737e-03 -1.3496031162636564e+00
    8.0632670118219868e-03 -1.2666473875533020e+00
    8.1982811368572737e-03 -1.3496031162636564e+00
    8.1558732217758174e-03 -1.3250713012847166e+00
    8.2206992293960401e-03 -1.3621386444657491e+00
    8.1358495654259479e-03 -1.3130643285972257e+00
    8.2206992293960401e-03 -1.3621386444657491e+00
    8.1766782504625237e-03 -1.3372491518477951e+00
    8.1358495654259479e-03 -1.3130643285972257e+00
    8.0632670118219868e-03 -1.2666473875533020e+00
    7.9884586720043796e-03 -1.2119199643540821e+00
    7.9755066338014040e-03 -1.2013737840789458e+00
    7.8487985810025609e-03 -1.0387239134731869e+00
    7.8437656862362405e-03 -1.0127393670836664e+00
    7.8684634495307521e-03 -9.2280144126458763e-01
    8.0312925376179994e-03 -8.0363756341607950e-01
    8.1558732217758174e-03 -7.5467637026811674e-01
    8.5610088734773670e-03 -6.5399605761311275e-01
    8.6323487830299757e-03 -6.4086994446165579e-01
    9.9154531329852420e-03 -4.9075217405028221e-01
    1.1966785296277583e-02 -3.7339399690283853e-01
    1.6105938959957988e-02 -2.5993762245501817e-01
    1.3247604709959509e-02 -3.2783629377178275e-01
    1.1794033729906587e-02 -3.8069349381344048e-01
    9.6117476493191804e-03 -5.1708768999501920e-01
    8.8769396372233283e-03 -6.0172166781431546e-01
    8.4021113236771878e-03 -6.8705872342980545e-01
    8.2439507821386437e-03 -7.2734603736083980e-01
    7.9884586720043796e-03 -8.2513699700703458e-01
    7.9632019106590426e-03 -8.3966420146569398e-01
    7.8437656862362405e-03 -1.0127393670836664e+00
    7.8633926551874914e-03 -1.0744977685158097e+00
    7.8448832705813355e-03 -9.7912087402445536e-01
    7.8588935029638100e-03 -1.0654272078068658e+00
    7.9755066338014040e-03 -1.2013737840789458e+00
    8.2439507821386419e-03 -1.3748614120845140e+00
    8.3456910228997781e-03 -1.4277470148669684e+00
    8.2930320896487820e-03 -1.4008925726121897e+00
    8.2680550003933866e-03 -1.3877773329774215e+00
    8.0980845079357787e-03 -1.2895430773396468e+00
    8.0469305068912034e-03 -1.2554230189548619e+00
    8.0980845079357787e-03 -1.2895430773396468e+00
    8.2206992293960401e-03 -1.3621386444657491e+00
    8.0469305068912034e-03 -1.2554230189548619e+00
    7.9884586720043796e-03 -1.2119199643540821e+00
    7.9405005834851886e-03 -1.1704699910719623e+00
    8.1165916193925366e-03 -1.3012232007545124e+00
    8.0980845079357787e-03 -1.2895430773396468e+00
    7.9025213065093275e-03 -1.1308608021530120e+00
    8.0163416840826219e-03 -1.2334004198737250e+00
    7.8871406413418155e-03 -1.1116874815359636e+00
    8.0469305068912034e-03 -1.2554230189548619e+00
    7.8549630733591551e-03 -1.0564428184106460e+00
    7.8437656862362405e-03 -9.8742088290657481e-01
    7.8803335566662910e-03 -9.0723586959341662e-01
    8.0980845079357787e-03 -7.7546847218397674e-01
    8.3456910228997764e-03 -7.0040419597247483e-01
    8.6323487830299757e-03 -6.4086994446165579e-01
    9.1215292118249098e-03 -5.6922960777590892e-01
    1.0804192306778497e-02 -4.3011626335213127e-01
    1.2999083785380087e-02 -3.3567254331867563e-01
    1.8640501975734511e-02 -2.2061859933306033e-01
    1.3799763471295115e-02 -3.1180478223116181e-01
    1.2548166248068069e-02 -3.5103097985101811e-01
    1.0085633278625180e-02 -4.7747175268428066e-01
    9.0692663912271907e-03 -5.7572621458233364e-01
    8.8769396372233283e-03 -6.0172166781431546e-01
    8.5960891319178008e-03 -6.4742696626469520e-01
    8.4021113236771878e-03 -6.8705872342980545e-01
    8.0469305068912034e-03 -7.9654426030239500e-01
    7.9632019106590426e-03 -8.3966420146569398e-01
    7.9515359185898596e-03 -8.4698955385991981e-01
    7.9515359185898596e-03 -8.4698955385991981e-01
    7.8432070731467435e-03 -1.0042283486693582e+00
    7.8437656862362405e-03 -1.0127393670836664e+00
    7.9515359185898613e-03 -1.1806521053804946e+00
    8.1982811368572737e-03 -1.3496031162636564e+00
    8.2206992293960401e-03 -1.3621386444657491e+00
    8.2680550003933866e-03 -1.3877773329774215e+00
    8.0803141069856459e-03 -1.2780193008453880e+00
    8.1358495654259479e-03 -1.3130643285972257e+00
    8.0980845079357787e-03 -1.2895430773396468e+00
    8.1766782504625237e-03 -1.3372491518477951e+00
    8.2439507821386419e-03 -1.3748614120845140e+00
    8.0312925376179994e-03 -1.2443420336765103e+00
    7.9405005834851886e-03 -1.1704699910719623e+00
    8.0312925376179994e-03 -1.2443420336765103e+00
    7.9405005834851886e-03 -1.1704699910719623e+00
    7.9632019106590426e-03 -1.1909522857523620e+00
    7.9515359185898613e-03 -1.1806521053804946e+00
    7.9202920416918000e-03 -1.1504474832710556e+00
    7.8684634495307503e-03 -1.0836567383657538e+00
    7.8432070731467435e-03 -9.9578945498306126e-01
    7.8487985810025591e-03 -9.6271972468246581e-01
    7.9884586720043796e-03 -8.2513699700703458e-01
    8.1165916193925366e-03 -7.6850766219058442e-01
    8.5610088734773670e-03 -6.5399605761311275e-01
    9.4115535854331148e-03 -5.3669682154906562e-01
    9.7579063293231870e-03 -5.0395263067896967e-01
    1.2149432901077695e-02 -3.6602088993120147e-01
    1.3513803360377094e-02 -3.1988369979626791e-01
    1.9507213489839980e-02 -2.0988774008055675e-01
    1.5197507433308988e-02 -2.7797972457128467e-01
    1.2548166248068069e-02 -3.5103097985101811e-01
    9.6834742254904779e-03 -5.1052747024263090e-01
    9.4115535854331148e-03 -5.3669682154906562e-01
    9.1756002633271161e-03 -5.6273143387113767e-01
    8.7085591008583801e-03 -6.2778789973909455e-01
    8.7485915849544130e-03 -6.2126074419739574e-01
    8.2206992293960401e-03 -7.3413965903024136e-01
    8.0469305068912034e-03 -7.9654426030239500e-01
    8.0632670118219868e-03 -7.8948570046130473e-01
    7.9515359185898596e-03 -8.4698955385991981e-01
    7.9202920416918000e-03 -8.6922698736035331e-01
    7.8465605431523831e-03 -9.7088771277613350e-01
    7.8633926551874914e-03 -1.0744977685158097e+00
    7.8871406413418155e-03 -1.1116874815359636e+00
    7.9025213065093275e-03 -1.1308608021530120e+00
    7.8684634495307503e-03 -1.0836567383657538e+00
    7.9025213065093275e-03 -1.1308608021530120e+00
    8.0163416840826219e-03 -1.2334004198737250e+00
    8.0803141069856459e-03 -1.2780193008453880e+00
    8.0980845079357787e-03 -1.2895430773396468e+00
    8.0803141069856459e-03 -1.2780193008453880e+00
    8.0632670118219868e-03 -1.2666473875533020e+00
    7.9300883250176812e-03 -1.1604027979392961e+00
    7.8588935029638100e-03 -1.0654272078068658e+00
    7.8437656862362405e-03 -1.0127393670836664e+00
    7.9025213065093275e-03 -1.1308608021530120e+00
    7.8549630733591551e-03 -1.0564428184106460e+00
    7.8437656862362405e-03 -1.0127393670836664e+00
    7.8515988231912665e-03 -9.5461527464243190e-01
    7.9111050969827620e-03 -8.7673069777321622e-01
    8.1358495654259479e-03 -7.6157731058639100e-01
    8.1558732217758174e-03 -7.5467637026811674e-01
    8.4624965279637525e-03 -6.7378611596065818e-01
    9.1215292118249098e-03 -5.6922960777590892e-01
    9.3494430553711962e-03 -5.4321447625511132e-01
    1.0804192306778497e-02 -4.3011626335213127e-01
    1.2548166248068069e-02 -3.5103097985101811e-01
    1.4441194533662315e-02 -2.9522188825145113e-01
    1.9507213489839980e-02 -2.0988774008055675e-01
    1.7886537751364874e-02 -2.3094010767585027e-01
    1.2342883678093738e-02 -3.5856858280031811e-01
    1.0085633278625180e-02 -4.7747175268428066e-01
    9.6117476493191804e-03 -5.1708768999501920e-01
    9.6117476493191804e-03 -5.1708768999501920e-01
    9.1756002633271161e-03 -5.6273143387113767e-01
    9.0187408371425436e-03 -5.8222250973958189e-01
    8.5270722985276957e-03 -6.6057825907581647e-01
    8.4317947572928580e-03 -6.8041381743977181e-01
    8.2206992293960401e-03 -7.3413965903024136e-01
    8.1165916193925366e-03 -7.6850766219058442e-01
    7.9884586720043796e-03 -8.2513699700703458e-01
    7.8549630733591551e-03 -9.4657276529593870e-01
    7.8871406413418173e-03 -8.9953338200619959e-01
    7.8945349261906710e-03 -8.9188258501584483e-01
    7.8549630733591551e-03 -1.0564428184106460e+00
    7.8487985810025609e-03 -1.0387239134731869e+00
    7.8588935029638100e-03 -1.0654272078068658e+00
    7.8803335566662927e-03 -1.1022491873564877e+00
    7.9025213065093275e-03 -1.1308608021530120e+00
    8.0020671364446627e-03 -1.2225943080618618e+00
    8.0312925376179994e-03 -1.2443420336765103e+00
    7.9111050969827602e-03 -1.1406011019573878e+00
    7.8871406413418155e-03 -1.1116874815359636e+00
    7.8741091871083451e-03 -1.0929064207170001e+00
    7.8487985810025609e-03 -1.0387239134731869e+00
    7.8684634495307503e-03 -1.0836567383657538e+00
    7.8432070731467435e-03 -1.0042283486693582e+00
    7.8803335566662910e-03 -9.0723586959341662e-01
    8.0980845079357787e-03 -7.7546847218397674e-01
    8.2680550003933883e-03 -7.2057669212289210e-01
    8.2930320896487820e-03 -7.1383061024824968e-01
    8.4624965279637525e-03 -6.7378611596065818e-01
    8.8327334971039315e-03 -6.0822873701576441e-01
    9.3494430553711962e-03 -5.4321447625511132e-01
    9.6117476493191804e-03 -5.1708768999501920e-01
    1.1327553236479082e-02 -4.0219983326992187e-01
    1.3247604709959509e-02 -3.2783629377178275e-01
    1.4107930151998347e-02 -3.0358837035945813e-01
    2.3163022421211130e-02 -1.7445567519772939e-01
    1.9507213489839980e-02 -2.0988774008055675e-01
    1.3247604709959509e-02 -3.2783629377178275e-01
    1.2149432901077695e-02 -3.6602088993120147e-01
    1.0687837179597452e-02 -4.3698372265949076e-01
    9.9988785735420239e-03 -4.8412291827592713e-01
    9.7579063293231870e-03 -5.0395263067896967e-01
    9.7579063293231870e-03 -5.0395263067896967e-01
    9.1756002633271161e-03 -5.6273143387113767e-01
    9.1215292118249098e-03 -5.6922960777590892e-01
    9.1215292118249098e-03 -5.6922960777590892e-01
    8.3456910228997764e-03 -7.0040419597247483e-01
    8.2930320896487820e-03 -7.1383061024824968e-01
    8.1766782504625237e-03 -7.4780380202014851e-01
    8.1165916193925366e-03 -7.6850766219058442e-01
    7.9111050969827620e-03 -8.7673069777321622e-01
    7.8549630733591551e-03 -9.4657276529593870e-01
    7.8633926551874914e-03 -1.0744977685158097e+00
    7.8448832705813355e-03 -1.0213243599737851e+00
    7.8684634495307503e-03 -1.0836567383657538e+00
    7.8684634495307503e-03 -1.0836567383657538e+00
    7.8803335566662927e-03 -1.1022491873564877e+00
    7.8741091871083451e-03 -1.0929064207170001e+00
    7.8684634495307503e-03 -1.0836567383657538e+00
    7.8437656862362405e-03 -9.8742088290657481e-01
    7.8549630733591551e-03 -9.4657276529593870e-01
    7.8803335566662910e-03 -9.0723586959341662e-01
    7.9025213065093275e-03 -8.8428213100686648e-01
    7.9300883250176795e-03 -8.6176972494021242e-01
    7.9515359185898596e-03 -8.4698955385991981e-01
    8.2930320896487820e-03 -7.1383061024824968e-01
    8.3189033080770299e-03 -7.0710678118654757e-01
    8.4942455530402656e-03 -6.6717460324828926e-01
    8.7485915849544130e-03 -6.2126074419739574e-01
    9.4115535854331148e-03 -5.3669682154906562e-01
    9.9154531329852420e-03 -4.9075217405028221e-01
    1.0469960828143323e-02 -4.5060590905933290e-01
    1.2999083785380087e-02 -3.3567254331867563e-01
    1.3513803360377094e-02 -3.1988369979626791e-01
    1.5629750213443729e-02 -2.6906911759852498e-01
    2.7288469024506806e-02 -1.4680505487867587e-01
    1.6633809225326458e-02 -2.5055991111567705e-01
    1.5629750213443729e-02 -2.6906911759852498e-01
    1.4441194533662315e-02 -2.9522188825145113e-01
    1.1794033729906587e-02 -3.8069349381344048e-01
    1.0576531493708742e-02 -4.4381268229929721e-01
    1.0367837974117545e-02 -4.5736601695948914e-01
    1.0804192306778497e-02 -4.3011626335213127e-01
    1.0269899997335663e-02 -4.6409548089225722e-01
    9.7579063293231870e-03 -5.0395263067896967e-01
    1.0175905678916380e-02 -4.7079664881568822e-01
    9.2315550670282222e-03 -5.5623040657030809e-01
    8.5610088734773670e-03 -6.5399605761311275e-01
    8.3734187709351947e-03 -6.9372184627558042e-01
    8.2439507821386437e-03 -7.2734603736083980e-01
    8.0020671364446645e-03 -8.1793281173152743e-01
    7.9755066338014040e-03 -8.3238040754041231e-01
    7.9202920416918000e-03 -8.6922698736035331e-01
    7.8465605431523831e-03 -9.7088771277613350e-01
    7.8515988231912665e-03 -9.5461527464243190e-01
    7.8465605431523831e-03 -1.0299852257277242e+00
    7.8432070731467435e-03 -9.9578945498306126e-01
    7.8549630733591551e-03 -9.4657276529593870e-01
    7.8633926551874914e-03 -9.3066735855700056e-01
    7.8515988231912665e-03 -9.5461527464243190e-01
    7.9202920416918000e-03 -8.6922698736035331e-01
    7.9300883250176795e-03 -8.6176972494021242e-01
    8.1165916193925366e-03 -7.6850766219058442e-01
    8.2930320896487820e-03 -7.1383061024824968e-01
    8.3189033080770299e-03 -7.0710678118654757e-01
    8.3734187709351947e-03 -6.9372184627558042e-01
    8.9226384701760544e-03 -5.9521904731427611e-01
    9.3494430553711962e-03 -5.4321447625511132e-01
    9.7579063293231870e-03 -5.0395263067896967e-01
    1.0085633278625180e-02 -4.7747175268428066e-01
    9.9154531329852420e-03 -4.9075217405028221e-01
    1.1187181603010387e-02 -4.0925259281898757e-01
    1.2342883678093738e-02 -3.5856858280031811e-01
    1.4441194533662315e-02 -2.9522188825145113e-01
    1.6633809225326458e-02 -2.5055991111567705e-01
    3.5078386548009044e-02 -1.1322770341445956e-01
    2.7288469024506806e-02 -1.4680505487867587e-01
    2.0517265923164406e-02 -1.9867985355975659e-01
    1.7223145887125587e-02 -2.4090602791485791e-01
    1.3799763471295115e-02 -3.1180478223116181e-01
    1.2548166248068069e-02 -3.5103097985101811e-01
    1.1630374745465683e-02 -3.8792452473800099e-01
    1.1794033729906587e-02 -3.8069349381344048e-01
    1.2149432901077695e-02 -3.6602088993120147e-01
    1.0925941892711621e-02 -4.2320736951515903e-01
    1.0576531493708742e-02 -4.4381268229929721e-01
    1.1053465464725215e-02 -4.1625392098174074e-01
    1.0804192306778497e-02 -4.3011626335213127e-01
    9.2315550670282222e-03 -5.5623040657030809e-01
    8.8327334971039315e-03 -6.0822873701576441e-01
    8.3734187709351947e-03 -6.9372184627558042e-01
    8.1766782504625237e-03 -7.4780380202014851e-01
    8.0980845079357787e-03 -7.7546847218397674e-01
    8.0469305068912034e-03 -7.9654426030239500e-01
    7.9025213065093275e-03 -8.8428213100686648e-01
    7.8945349261906710e-03 -8.9188258501584483e-01
    7.8684634495307521e-03 -9.2280144126458763e-01
    7.9300883250176795e-03 -8.6176972494021242e-01
    7.8741091871083451e-03 -9.1499142199562800e-01
    7.9755066338014040e-03 -8.3238040754041231e-01
    7.9884586720043796e-03 -8.2513699700703458e-01
    8.2930320896487820e-03 -7.1383061024824968e-01
    8.4317947572928580e-03 -6.8041381743977181e-01
    8.5270722985276957e-03 -6.6057825907581647e-01
    8.6323487830299757e-03 -6.4086994446165579e-01
    9.2315550670282222e-03 -5.5623040657030809e-01
    9.4759035047953920e-03 -5.3017080368602065e-01
    1.0576531493708742e-02 -4.4381268229929721e-01
    1.0687837179597452e-02 -4.3698372265949076e-01
    1.0367837974117545e-02 -4.5736601695948914e-01
    1.0925941892711621e-02 -4.2320736951515903e-01
    1.2548166248068069e-02 -3.5103097985101811e-01
    1.3513803360377094e-02 -3.1988369979626791e-01
    1.6633809225326458e-02 -2.5055991111567705e-01
    2.4964711434511778e-02 -1.6116459280507603e-01
    3.5078386548009044e-02 -1.1322770341445956e-01
    3.0443894579031204e-02 -1.3102435641608365e-01
    2.4964711434511778e-02 -1.6116459280507603e-01
    1.7223145887125587e-02 -2.4090602791485791e-01
    1.5629750213443729e-02 -2.6906911759852498e-01
    1.4803003969738130e-02 -2.8669108954049799e-01
    1.3247604709959509e-02 -3.2783629377178275e-01
    1.2342883678093738e-02 -3.5856858280031811e-01
    1.3247604709959509e-02 -3.2783629377178275e-01
    1.3513803360377094e-02 -3.1988369979626791e-01
    1.2548166248068069e-02 -3.5103097985101811e-01
    1.2548166248068069e-02 -3.5103097985101811e-01
    1.1794033729906587e-02 -3.8069349381344048e-01
    1.0804192306778497e-02 -4.3011626335213127e-01
    1.0469960828143323e-02 -4.5060590905933290e-01
    9.2315550670282222e-03 -5.5623040657030809e-01
    8.7485915849544130e-03 -6.2126074419739574e-01
    8.4021113236771878e-03 -6.8705872342980545e-01
    8.3456910228997764e-03 -7.0040419597247483e-01
    8.1766782504625237e-03 -7.4780380202014851e-01
    8.1165916193925366e-03 -7.6850766219058442e-01
    8.0980845079357787e-03 -7.7546847218397674e-01
    8.1766782504625237e-03 -7.4780380202014851e-01
    8.2439507821386437e-03 -7.2734603736083980e-01
    8.2439507821386437e-03 -7.2734603736083980e-01
    8.3456910228997764e-03 -7.0040419597247483e-01
    8.5960891319178008e-03 -6.4742696626469520e-01
    9.2315550670282222e-03 -5.5623040657030809e-01
    9.7579063293231870e-03 -5.0395263067896967e-01
    1.0085633278625180e-02 -4.7747175268428066e-01
    9.9988785735420239e-03 -4.8412291827592713e-01
    9.9988785735420239e-03 -4.8412291827592713e-01
    1.0804192306778497e-02 -4.3011626335213127e-01
    1.1053465464725215e-02 -4.1625392098174074e-01
    1.2548166248068069e-02 -3.5103097985101811e-01
    1.4803003969738130e-02 -2.8669108954049799e-01
    1.4107930151998347e-02 -3.0358837035945813e-01
    1.5197507433308988e-02 -2.7797972457128467e-01
    2.1714279863390484e-02 -1.8690772540639911e-01
    3.5078386548009044e-02 -1.1322770341445956e-01
    6.0499552749912276e-02 -6.5094455490411943e-02
    3.5078386548009044e-02 -1.1322770341445956e-01
    3.0443894579031204e-02 -1.3102435641608365e-01
    2.4964711434511778e-02 -1.6116459280507603e-01
    1.7886537751364874e-02 -2.3094010767585027e-01
    1.7886537751364874e-02 -2.3094010767585027e-01
    1.5629750213443729e-02 -2.6906911759852498e-01
    1.4803003969738130e-02 -2.8669108954049799e-01
    1.4107930151998347e-02 -3.0358837035945813e-01
    1.4441194533662315e-02 -2.9522188825145113e-01
    1.3799763471295115e-02 -3.1180478223116181e-01
    1.3247604709959509e-02 -3.2783629377178275e-01
    1.2548166248068069e-02 -3.5103097985101811e-01
    1.1966785296277583e-02 -3.7339399690283853e-01
    1.1630374745465683e-02 -3.8792452473800099e-01
    1.0576531493708742e-02 -4.4381268229929721e-01
    1.0085633278625180e-02 -4.7747175268428066e-01
    9.2315550670282222e-03 -5.5623040657030809e-01
    8.7899673883448850e-03 -6.1474139013424667e-01
    9.0692663912271907e-03 -5.7572621458233364e-01
    9.0692663912271907e-03 -5.7572621458233364e-01
    8.6323487830299757e-03 -6.4086994446165579e-01
    9.1215292118249098e-03 -5.6922960777590892e-01
    8.4942455530402656e-03 -6.6717460324828926e-01
    9.3494430553711962e-03 -5.4321447625511132e-01
    8.9698858061900665e-03 -5.8871972031766451e-01
    9.8351827968040945e-03 -4.9736145915483998e-01
    1.0085633278625180e-02 -4.7747175268428066e-01
    1.1053465464725215e-02 -4.1625392098174074e-01
    1.1966785296277583e-02 -3.7339399690283853e-01
    1.1327553236479082e-02 -4.0219983326992187e-01
    1.1630374745465683e-02 -3.8792452473800099e-01
    1.3247604709959509e-02 -3.2783629377178275e-01
    1.7223145887125587e-02 -2.4090602791485791e-01
    1.7886537751364874e-02 -2.3094010767585027e-01
    1.8640501975734511e-02 -2.2061859933306033e-01
    2.1714279863390484e-02 -1.8690772540639911e-01
    2.0517265923164406e-02 -1.9867985355975659e-01
    2.4964711434511778e-02 -1.6116459280507603e-01
    3.5078386548009044e-02 -1.1322770341445956e-01
    6.0499552749912276e-02 -6.5094455490411943e-02
    3.0443894579031204e-02 -1.3102435641608365e-01
    3.0443894579031204e-02 -1.3102435641608365e-01
    3.0443894579031204e-02 -1.3102435641608365e-01
    3.0443894579031204e-02 -1.3102435641608365e-01
    2.1714279863390484e-02 -1.8690772540639911e-01
    1.8640501975734511e-02 -2.2061859933306033e-01
    1.7223145887125587e-02 -2.4090602791485791e-01
    1.6105938959957988e-02 -2.5993762245501817e-01
    1.5629750213443729e-02 -2.6906911759852498e-01
    1.5629750213443729e-02 -2.6906911759852498e-01
    1.4441194533662315e-02 -2.9522188825145113e-01
    1.4803003969738130e-02 -2.8669108954049799e-01
    1.5629750213443729e-02 -2.6906911759852498e-01
    1.5629750213443729e-02 -2.6906911759852498e-01
    1.4803003969738130e-02 -2.8669108954049799e-01
    1.2342883678093738e-02 -3.5856858280031811e-01
    1.1053465464725215e-02 -4.1625392098174074e-01
    1.1327553236479082e-02 -4.0219983326992187e-01
    1.1187181603010387e-02 -4.0925259281898757e-01
    9.9154531329852420e-03 -4.9075217405028221e-01
    1.0269899997335663e-02 -4.6409548089225722e-01
    1.2342883678093738e-02 -3.5856858280031811e-01
    1.1327553236479082e-02 -4.0219983326992187e-01
    1.0175905678916380e-02 -4.7079664881568822e-01
    1.0925941892711621e-02 -4.2320736951515903e-01
    1.0576531493708742e-02 -4.4381268229929721e-01
    1.0925941892711621e-02 -4.2320736951515903e-01
    1.1475093843429054e-02 -3.9509183865983577e-01
    1.2342883678093738e-02 -3.5856858280031811e-01
    1.2766452414054627e-02 -3.4340140987172257e-01
    1.5629750213443729e-02 -2.6906911759852498e-01
    2.0517265923164406e-02 -1.9867985355975659e-01
    2.0517265923164406e-02 -1.9867985355975659e-01
    2.1714279863390484e-02 -1.8690772540639911e-01
    2.3163022421211130e-02 -1.7445567519772939e-01
    2.7288469024506806e-02 -1.4680505487867587e-01
    3.0443894579031204e-02 -1.3102435641608365e-01
    2.7288469024506806e-02 -1.4680505487867587e-01
    3.0443894579031204e-02 -1.3102435641608365e-01</input_scale>
  <output_scale>
    1.0526315789473684e+00 0.</output_scale>
  <inv_output_scale>
    9.4999999999999996e-01 0.</inv_output_scale>
  <weights>
    <_>
      -1.1719048386403424e-03 -2.2903224389177911e-04
      -9.9637750405231888e-04 -5.5088375721748159e-04
      2.2039270841974236e-04 1.2144499427915077e-03
      9.9728247011042037e-04 2.0453599492093418e-04
      -7.2831549546728146e-04 -4.2920232853557353e-04
      -1.1054717958401724e-03 -1.2409612586460942e-04
      -2.1397120762249158e-05 -7.8018402384446585e-04
      6.7194088742161514e-04 -1.1208781013474275e-03
      1.1037170489498088e-03 1.0083693640301039e-03
      -2.5698247005999147e-04 -3.4383640164285737e-05
      3.0002183913935715e-04 -7.7645728251324352e-04
      -6.5397802009701264e-04 9.5527311481024093e-04
      -1.0954164450422850e-03 -3.1663012947851025e-04
      6.1523554708813478e-04 -6.3403300196013517e-04
      1.0630743572223426e-03 -2.4215284090006096e-04
      1.2150750992007805e-03 -3.7732545206526025e-04
      2.2581237915161135e-04 8.1166924113520002e-04
      1.1322676431532379e-03 5.1786688077618958e-04
      8.1904968067006900e-04 5.2277548999592920e-04
      1.2256443938238879e-03 -1.5902424652943092e-04
      -3.0653595570818828e-02 -1.0806955042464435e-02
      -1.0223204811702608e-02 -3.0045503932571893e-03
      6.9286948239968421e-03 -1.3998040419717445e-02
      2.0973610969206584e-03 7.3962544718834955e-03
      1.3862290749132842e-03 -1.2595583200502684e-02
      -3.3567293766604929e-03 -5.0762994939656334e-03
      -1.6031683630892768e-03 1.8122194764005506e-03
      -5.7420133592537342e-03 -6.9886028006295566e-03
      -6.8166762829883955e-04 -2.6804225038006869e-03
      1.8483394919191314e-02 -1.4320717106570284e-02
      5.0902500062872200e-03 -1.1866566195940126e-02
      -6.1689850280373026e-03 -1.4086501562302785e-02
      -1.8202876071985233e-03 1.5995849191933614e-02
      -1.1942162228604133e-02 1.1992497775398722e-02
      -2.1650123271418262e-03 -4.1342491084444047e-04
      1.5426453986584864e-02 1.4945805381184511e-02
      -1.4380852301390036e-02 -7.1593482207133134e-03
      -2.0322319829192952e-03 -2.0454951945600805e-02
      -8.4453232114563379e-03 -2.2958183529779995e-03
      1.7393924920937127e-02 8.3874956752762464e-03
      2.1658499372495457e-01 6.4109221297169255e-02
      5.2641373390497320e-02 2.2634973307404414e-02
      -4.7976980156815147e-02 1.2634859654402553e-02
      -2.0969015866491809e-02 -4.2377970901897537e-02
      -7.5967022352732300e-03 7.7511888805021745e-02
      1.8817103479544840e-02 4.1489693627842689e-02
      2.2022414680122865e-02 -3.2489004202465005e-02
      -4.6934687026046152e-03 1.6353106986938353e-02
      -7.3505740648391014e-03 3.9516088234377883e-02
      -7.4077358120684000e-02 7.5313418803216542e-02
      -4.0903415415990775e-02 9.3287233577058551e-03
      6.0070563465823915e-03 4.9135107605750593e-02
      1.8077201572573875e-02 -5.7192088371059166e-03
      6.7268444458688445e-02 -6.9876774642448181e-02
      2.3674438986290521e-02 1.9692506128527222e-02
      -5.0231575961111753e-02 -6.2810497464357878e-02
      7.8207294945288053e-02 2.1342932045374675e-02
      3.5115953075214465e-02 8.1243854520892510e-03
      5.1023978730317977e-02 2.8822004854096455e-02
      -5.6299430223091494e-02 -4.8979597789431770e-02
      -3.2346596823937569e-02 -2.1310937430958785e-02
      -1.6046229881143598e-02 -2.0125788234507826e-04
      7.8124334454245364e-03 -2.3193616150724374e-02
      2.8298989741263694e-03 6.4943997361190048e-03
      -1.1460122623284919e-03 -1.9104997330864248e-02
      -7.1100981385836392e-04 -4.9503433877464299e-03
      8.3586090252979180e-04 3.6372917308285087e-04
      -1.0073324682923985e-02 -1.0728493754073466e-02
      -4.4860451929352157e-03 -2.3220530067849087e-03
      1.6198230950091153e-02 -1.6209080881722595e-02
      5.0670895917192408e-03 -2.4087884882320651e-02
      -7.4630097696642243e-03 -1.4538388711615264e-02
      1.6717910352394569e-03 1.7462300526859438e-02
      -2.3205184220100473e-02 1.5400616020812065e-02
      1.0106403090737878e-03 3.2741584685988664e-03
      1.5981583334979566e-02 1.6970900234460802e-02
      -1.2114930186095746e-02 -1.2786559441317180e-02
      -1.2258354258710580e-03 -2.1308894434960212e-02
      -1.2877227628393193e-02 -8.3332060070622654e-04
      1.6328867373978203e-02 1.3847849589694131e-02
      -1.8130087273581474e-01 2.2323838765715188e-02
      1.9509295941897244e-02 2.0245835910432984e-03
      -1.4231168126630594e-02 -2.6472139528334084e-02
      2.8719429089435725e-03 -4.6778623988699593e-03
      2.7936199586939604e-03 2.7312494562034200e-02
      -2.1252398820417067e-03 1.0120872014776070e-02
      8.2229466814533799e-03 -4.2051165599069906e-02
      -2.1541539408158828e-02 2.4083237197901488e-04
      -1.1637896979468494e-02 4.3738975641790426e-02
      -4.4581768717739612e-02 4.2432232696078036e-02
      -2.5338417853792559e-02 -4.9336576790654812e-02
      -2.7927950041410090e-03 2.4163376226460042e-02
      -2.4879693887567699e-04 5.5616717736387974e-02
      2.0471741871011973e-02 -1.3640012241665193e-02
      -4.7102059303638058e-04 2.8330208761669560e-02
      1.4501746746710811e-02 -3.9311348859254566e-02
      5.0432191918491673e-02 1.3838946747592150e-03
      4.1085134575219048e-02 -5.5978037637633933e-02
      1.7398294699319194e-02 3.1654458559308381e-02
      -2.9251737521716340e-02 -1.6862584708341889e-02
      -2.7418540239458078e-01 -5.8635314992060098e-03
      2.4767185971490650e-04 -6.1088829875639234e-03
      5.6132715621242191e-03 -4.6666748792262173e-02
      1.1210999066495015e-02 1.2196729733795722e-02
      5.7504519042759815e-03 -3.9856979479157874e-03
      -1.1491799690922120e-02 -6.8278153027252885e-03
      1.2224785414221789e-03 -3.5657578178348054e-02
      -2.4552856194452830e-02 -1.0399292933663639e-02
      -1.3250806007588427e-02 3.3016650166145835e-02
      -2.0320946465245526e-02 1.1611358597900681e-02
      -1.1809760745737393e-02 -6.6897805838143212e-02
      -8.4979565365787702e-03 8.1811349261789890e-03
      -9.4007368668243066e-03 7.2243764502875146e-02
      -3.0508709820381234e-03 1.2234144222802747e-02
      -8.5990928312362543e-03 2.5766006000089599e-02
      3.9688737340601257e-02 -1.6510730317811570e-02
      2.4781405938270079e-02 -1.0800815533574907e-02
      3.4699814964578149e-02 -7.2985697010847839e-02
      -1.4945854688825880e-03 2.5152715599387410e-02
      -1.0093550414431003e-02 9.7333204453118043e-04
      -3.2204143297795540e-01 -5.8806663966296323e-02
      -4.7162571109111477e-02 -1.5543351755328111e-02
      3.9116008688454815e-02 -5.3283315439260952e-02
      2.2106300430581816e-02 4.1267193918658317e-02
      8.3227558276486955e-03 -6.5794659392762578e-02
      -2.0454380971367613e-02 -3.3987666469937665e-02
      -9.1090302252703793e-03 -1.2861867970161450e-02
      -2.9655540317563067e-02 -3.1228454023871758e-02
      -1.5348913554060057e-02 3.0356826608463430e-03
      4.9665536070892503e-02 -6.0641661941158213e-02
      1.8128926916301882e-02 -6.4868528841556986e-02
      -1.9337877564669023e-02 -4.9836005573207151e-02
      -1.6637605843253314e-02 7.2021868950790324e-02
      -5.9194740786993515e-02 6.5662132413056642e-02
      -1.8311319372697542e-02 1.6907424623630457e-02
      9.2287135847704219e-02 4.5054158363062390e-02
      -5.0584129061930126e-02 -3.8735937991289174e-02
      1.1565761329508036e-02 -7.4172816269872877e-02
      -4.5982261605353049e-02 6.8959949903657485e-03
      5.1733811794526963e-02 4.4848080105711695e-02
      -2.7567084190704189e-01 -1.3954078840222355e-02
      -1.3124968993799358e-02 -5.3073001952968083e-03
      1.0266379608688415e-02 -3.8321660642789003e-02
      1.2867398334393128e-02 1.7480197548299221e-02
      6.3357534600111051e-03 -9.8031952419345252e-03
      -9.2159153510571763e-03 -8.1107724589759914e-03
      6.5061679871580521e-04 -3.1102726710611862e-02
      -2.9878867584078386e-02 -1.7723634738871431e-02
      -1.8145073289498350e-02 2.8085023780009911e-02
      -7.9846231882243317e-03 3.5758322873930578e-03
      -5.5037439918003590e-03 -5.8332515679011571e-02
      -1.1527793374792577e-02 -6.4982470412333366e-03
      -7.1241060004581802e-03 6.4104656239712163e-02
      -1.3436005162241093e-02 1.5200764474334987e-02
      -6.1261796040629158e-03 2.7245928064741780e-02
      5.2360672354080082e-02 -5.6118028979933341e-03
      1.3619294381324304e-02 -2.0132640031840558e-02
      3.1385951113440905e-02 -6.1078906212295593e-02
      -1.0218223221426338e-02 2.2004290665559183e-02
      7.3733546175408868e-03 1.1776972061136532e-02
      -1.0657248196800437e-01 -9.0751408888388660e-03
      -9.0412357903126434e-03 -2.9713841452890799e-03
      6.7256497669250064e-03 -8.1190366608955948e-03
      7.3091699959662451e-03 1.1911950201683279e-02
      4.3986451014468003e-03 -7.5948216339792977e-03
      -8.1088877035963361e-03 -5.3317950590176322e-03
      -1.8341998218475143e-04 -4.9681384412799635e-03
      -3.1082542398177581e-03 -1.1557509780004593e-02
      -5.6284384848694262e-03 5.7446252342969054e-03
      -3.1723533650335464e-02 4.6325714462790943e-04
      -5.1284494674771544e-03 -1.1494607989048328e-02
      -3.7560397719928790e-03 2.9099217528207252e-02
      -6.1528268027600365e-03 9.3315337973460186e-03
      -9.3058221698173321e-03 1.3825435045508342e-02
      -6.3357526010753033e-03 6.2603557481332468e-03
      3.6205427355075287e-02 -2.2004112582943932e-02
      9.9529920283455663e-03 -1.3234573129898831e-02
      4.3023612659596642e-03 -5.7636557058483072e-03
      -7.3112669247620450e-03 5.2844966041491557e-03
      -2.8760039626075342e-02 9.3826503403537376e-03
      -1.2528391792152277e-01 -6.6194096214842509e-03
      -6.7238604354796722e-03 4.5185013670466971e-03
      -4.2784497198892907e-03 -1.7626095881325580e-02
      -3.7656926373413820e-04 -6.9937782292397825e-04
      -1.6044294827734955e-03 -3.0613344501221268e-03
      1.2622051781111532e-03 5.8082035827881021e-03
      7.8393839986460462e-03 -2.7453528810883164e-02
      -1.4825621643904845e-02 -5.8515335217872080e-03
      -1.1987216460303048e-02 2.8329894743455233e-02
      -3.4952058025467025e-02 5.1539491526300600e-02
      -1.4140002189706947e-02 -2.6064949911631958e-02
      -4.7851835829546222e-03 1.1825569020006865e-02
      3.6218366423317700e-03 2.8912646351546084e-02
      -8.7695998909993640e-03 2.4926649052777277e-03
      3.2737550066788599e-03 2.2312035673815508e-02
      9.9177922883261736e-03 -1.7942896476670040e-02
      4.3920128729713140e-02 -6.4607506030654191e-03
      2.8267345545629347e-02 -2.6988909660407283e-02
      -2.5669192730755431e-03 2.2831962220762596e-02
      -1.5897190639144944e-02 3.5267833158004903e-03
      -5.2483541002618754e-02 -2.4699441916643271e-02
      -2.3789631936319489e-02 -2.9607677374311457e-03
      1.2058525057711099e-02 2.6073835579254784e-03
      4.6699793789219549e-03 1.1694977115155384e-02
      3.2521095474100890e-03 -2.6814219799623541e-02
      -3.7520038119263359e-03 -8.5960968573187049e-03
      -2.4840932357504675e-04 2.8138499047922387e-03
      7.8691123011147279e-03 -8.6012106356428211e-03
      -6.1900503756430133e-04 -1.0249878771013199e-03
      -2.7063784534468595e-02 4.1315935405770068e-02
      -1.3958306613772846e-03 1.2218753676349666e-02
      6.2692378113778254e-04 2.5910813832803168e-02
      -4.1546862519281167e-03 -1.8870903925133693e-02
      -3.3660076980483719e-02 2.7400457399600984e-02
      -4.1379941702258333e-03 -1.1280944765868725e-03
      1.2976012710505426e-02 -5.0117074138124546e-03
      7.8764850037352611e-03 -1.1245856381671989e-02
      -1.8353529958833679e-03 1.9625402776698067e-02
      -2.0363010009690926e-02 1.5858323300974803e-03
      -2.3651046038054895e-02 2.0439779782416824e-02
      -2.5977727354372988e-02 -1.3929300262247883e-02
      -1.4081525289945288e-02 -3.0654790088906794e-04
      2.6264708285871083e-03 1.1285461976428359e-03
      2.2851860364869535e-03 6.7534912468275804e-03
      1.5566527715270961e-03 -1.8390024859007283e-02
      -1.6515408507310966e-03 -2.5821831133740723e-03
      2.5911963951465999e-03 -2.6198754666404366e-03
      5.7626269447873957e-03 -5.3068122461086458e-03
      -2.4997428716600038e-03 5.1368138576950934e-03
      -4.3391993807354493e-02 5.3048101264914785e-02
      -5.2143203038513180e-03 1.0904391857522776e-02
      -1.6727244975515002e-03 3.7825796310765832e-02
      -9.3381861516557180e-04 -1.8905935635187353e-02
      -2.1992671962988607e-02 1.5823506243386260e-02
      -3.5587683119987415e-04 2.8518925808729848e-04
      2.8459477301491939e-03 -2.6390921446394926e-02
      1.8033130939311574e-02 -9.1851230113317757e-03
      3.9904350812423441e-03 2.0511043183957405e-02
      -1.1495329393757367e-02 2.7992880830052286e-03
      -3.5940594332847471e-02 1.2341686456601639e-02
      -1.1021881679147791e-01 -5.8235341374099539e-02
      -4.6522348921760347e-02 -8.4003264435992837e-03
      2.8572420980831705e-02 -1.0929556188641665e-02
      1.2700960469376356e-02 2.7709496391383485e-02
      5.3040800360998029e-03 -7.0977040671540426e-02
      -1.1841430277833286e-02 -2.0868716476950194e-02
      -6.8371011422347829e-03 9.1552601741132517e-03
      3.6834820175787961e-03 -1.7394052941087059e-02
      -1.9692405530033017e-03 -9.3913188144741575e-03
      -1.0694166522084381e-02 -4.2688311074850294e-03
      1.1909640136759757e-02 -2.7524142612328820e-04
      -7.9169163619818989e-03 7.8247227078553951e-03
      -9.7920553469969841e-03 -9.6695998633062035e-03
      -6.3845681298777532e-02 5.5239261854213448e-02
      -1.0428690998508490e-02 -4.2927108725163473e-03
      3.1283890531263132e-02 2.1319692910304494e-03
      -3.5830787916628519e-02 -2.2076921075588674e-02
      -8.9389875474613495e-03 9.1906731980282378e-03
      -4.2440127644294473e-02 -6.0201073047885193e-03
      -4.0038682399240952e-03 3.9218208871781575e-02
      -2.3852473816750558e-01 -7.9903831109325182e-02
      -6.5067970567806110e-02 -1.5702422493859225e-02
      4.4862138982746685e-02 -3.9780840303107447e-02
      2.0929806058490139e-02 4.5213812845441660e-02
      4.8503636864770244e-03 -9.5599176228116520e-02
      -1.8206464391021263e-02 -3.8025230250104854e-02
      -8.4925791651079378e-03 1.3896961819542314e-02
      -1.6617344541629098e-02 -3.1986835420548587e-02
      -9.7147856515762705e-03 -2.1890881871987341e-02
      4.6176450254969810e-02 -4.1453848997226254e-02
      2.4430652772438659e-02 -3.9119466993904749e-02
      -2.0933672376456190e-02 -5.4587130512812353e-02
      -1.3197947648978789e-02 4.3736438723448241e-02
      -8.6524603473528916e-02 8.1100420686364208e-02
      -1.6362267894378793e-02 -1.9208035951991155e-03
      7.2768720994224517e-02 7.9319682783170184e-02
      -6.8902471503468066e-02 -3.5536945647022110e-02
      -1.7046536931426701e-02 -5.1236483346460554e-02
      -6.1940751156112257e-02 -1.1976945376422670e-02
      6.8736538721911808e-02 5.9226548856905488e-02
      -1.7573140820056557e-01 -1.0250043486683173e-02
      -1.2923918831922317e-02 4.6122669277629110e-03
      5.8278789396196146e-03 -3.2806154287984009e-02
      5.0813935493257498e-03 9.9734086935711549e-03
      -4.1981076920530211e-04 -2.7725541560513500e-02
      -1.8958622970814752e-03 -2.7128503832671313e-03
      9.9045251353737981e-03 -2.1422208407768824e-02
      -2.6983068978167556e-02 -1.5656568752123373e-02
      -1.7262339615974981e-02 1.6972372909386642e-02
      7.2712406192578499e-03 4.2738028640956618e-02
      -5.3146897650174574e-03 -3.8896909738842710e-02
      -1.1463525747773023e-02 -2.9746386112588900e-02
      8.5041616935265733e-04 4.3253095570948884e-02
      -2.6371250436713352e-02 2.5166074594181478e-02
      1.2020613386784125e-03 2.1769758264003489e-02
      3.0821463513685095e-02 8.3938404574500219e-03
      -7.0668944958036635e-03 -1.6201320097164719e-02
      2.1520811069680651e-02 -4.8824426507004123e-02
      -1.3344836468229216e-02 1.8509205135159044e-02
      3.5697696109182941e-02 8.8427383014584165e-03
      -3.9793639492527448e-02 8.6686351178061408e-03
      5.0334456104200479e-03 9.3904935268466650e-03
      -1.0393357721327037e-02 -2.9502411575674889e-02
      -3.3981883991239747e-03 -7.2625803730893669e-03
      -4.2449236291217211e-03 9.2269896191999635e-03
      4.8358427266909062e-03 9.4019235394870362e-03
      1.4342523733219191e-02 -2.4683517747821630e-02
      -2.5686575707994885e-02 -8.9115830094383276e-03
      -1.8179440596908923e-02 2.2208965093148899e-02
      -2.7353087663093682e-02 5.9902710207735979e-02
      -1.6822931380086677e-02 -3.4422486516493475e-02
      -1.1976015296307128e-02 -9.2600494812267627e-03
      6.2359862934972046e-03 3.6315388036098226e-02
      3.7766927212924584e-03 -4.2624022591579280e-03
      9.3262083317673244e-03 2.1808352586392014e-02
      -5.1070296586849754e-03 -6.6060760059894509e-03
      3.3457906666649904e-02 -4.8243606817690654e-03
      2.3795007956730539e-02 -3.9261841788808011e-02
      5.0986389251382594e-03 2.1703894304000070e-02
      1.2227761248020682e-02 -5.9552134168184495e-03
      -2.3024486928580681e-02 1.4121493649908997e-02
      9.5652963169263628e-03 1.2868045722130191e-02
      -1.4939502482983095e-02 -2.2844576946192137e-02
      -5.3724198638732861e-03 -1.2141923880925921e-02
      -4.1366233992830275e-03 1.6616219949759023e-02
      5.1047644838446487e-03 1.5750618503055924e-02
      1.5214869610733827e-02 -2.3619324198825665e-02
      -2.3678642384378043e-02 -4.4820444700205634e-03
      -1.6427393249954139e-02 2.5171680786510258e-02
