<?xml version="1.0"?>
<opencv_storage>
<shapeML type_id="opencv-ml-ann-mlp">
  <layer_sizes type_id="opencv-matrix">
    <rows>1</rows>
    <cols>3</cols>
    <dt>i</dt>
    <data>
      1600 40 1</data></layer_sizes>
  <activation_function>SIGMOID_SYM</activation_function>
  <f_param1>5.9999999999999998e-01</f_param1>
  <f_param2>1.</f_param2>
  <min_val>-9.4999999999999996e-01</min_val>
  <max_val>9.4999999999999996e-01</max_val>
  <min_val1>-9.7999999999999998e-01</min_val1>
  <max_val1>9.7999999999999998e-01</max_val1>
  <training_params>
    <train_method>BACKPROP</train_method>
    <dw_scale>1.0000000000000001e-01</dw_scale>
    <moment_scale>1.0000000000000001e-01</moment_scale>
    <term_criteria><epsilon>9.9999999747524271e-07</epsilon>
      <iterations>4000</iterations></term_criteria></training_params>
  <input_scale>
    1. 0. 6.0117057649732519e-02 -6.5512178208041838e-02
    6.0117057649732519e-02 -6.5512178208041838e-02
    6.0117057649732519e-02 -6.5512178208041838e-02
    3.0253927602865525e-02 -1.3187609467915740e-01
    3.4858529270006905e-02 -1.1396057645963796e-01
    2.7118953950654265e-02 -1.4776353114138543e-01
    3.0253927602865525e-02 -1.3187609467915740e-01
    2.4810334996469566e-02 -1.6222142113076254e-01
    1.8527930069189780e-02 -2.2209762326528776e-01
    1.7120161767270561e-02 -2.4253562503633294e-01
    1.7120161767270561e-02 -2.4253562503633294e-01
    1.7779050631407653e-02 -2.3249527748763854e-01
    1.5108500015584605e-02 -2.7989464772461226e-01
    1.3720698711085496e-02 -3.1399291281137959e-01
    1.3720698711085496e-02 -3.1399291281137959e-01
    1.2082673807552475e-02 -3.6867645720480630e-01
    1.4357527161228990e-02 -2.9727444058185665e-01
    1.4716771567578694e-02 -2.8867513459481287e-01
    1.1567694516307401e-02 -3.9078044936500006e-01
    1.0417051622513818e-02 -4.5407660918649978e-01
    1.1128105148725866e-02 -4.1231056256176607e-01
    1.3720698711085496e-02 -3.1399291281137959e-01
    1.4357527161228990e-02 -2.9727444058185665e-01
    2.0392156862745096e-02 -1.9999999999999998e-01
    2.4810334996469566e-02 -1.6222142113076254e-01
    2.4810334996469566e-02 -1.6222142113076254e-01
    2.0392156862745096e-02 -1.9999999999999998e-01
    1.9388832902595382e-02 -2.1128856368212917e-01
    2.1581243451153115e-02 -1.8814417367671946e-01
    2.1581243451153115e-02 -1.8814417367671946e-01
    2.7118953950654265e-02 -1.4776353114138543e-01
    2.3020445731811948e-02 -1.7560468218497577e-01
    2.7118953950654265e-02 -1.4776353114138543e-01
    2.3020445731811948e-02 -1.7560468218497577e-01
    2.3020445731811948e-02 -1.7560468218497577e-01
    4.2600695228853076e-02 -9.2847669088525930e-02
    4.2600695228853076e-02 -9.2847669088525930e-02
    4.2600695228853076e-02 -9.2847669088525930e-02
    4.2600695228853076e-02 -9.2847669088525930e-02
    6.0117057649732519e-02 -6.5512178208041838e-02
    4.2600695228853076e-02 -9.2847669088525930e-02
    6.0117057649732519e-02 -6.5512178208041838e-02
    3.4858529270006905e-02 -1.1396057645963796e-01
    2.7118953950654265e-02 -1.4776353114138543e-01
    3.0253927602865525e-02 -1.3187609467915740e-01
    2.1581243451153115e-02 -1.8814417367671946e-01
    2.0392156862745096e-02 -1.9999999999999998e-01
    1.7120161767270561e-02 -2.4253562503633294e-01
    1.6010614102759477e-02 -2.6171196129510688e-01
    1.4357527161228990e-02 -2.9727444058185665e-01
    1.2925888601730254e-02 -3.3806170189140666e-01
    1.1901446467471004e-02 -3.7611622490148749e-01
    1.0633000712772671e-02 -4.4031528592635544e-01
    1.0125693224957290e-02 -4.7447959919511407e-01
    9.6381076509776467e-03 -5.1465023546566535e-01
    9.7117744176616252e-03 -5.0800050800076191e-01
    9.3691125205236092e-03 -5.4112630647383153e-01
    9.2484258035805539e-03 -5.5431270040691139e-01
    9.7117744176616252e-03 -5.0800050800076191e-01
    9.2484258035805539e-03 -5.5431270040691139e-01
    9.7117744176616252e-03 -5.0800050800076191e-01
    9.4987190853870352e-03 -5.2790957993785637e-01
    1.0218812190769167e-02 -4.6770717334674261e-01
    1.1267321285751581e-02 -4.0519020777606646e-01
    1.2274636000901959e-02 -3.6115755925730764e-01
    1.4026644576537633e-02 -3.0570892025787150e-01
    1.4026644576537633e-02 -3.0570892025787150e-01
    1.4357527161228990e-02 -2.9727444058185665e-01
    1.5108500015584605e-02 -2.7989464772461226e-01
    1.7779050631407653e-02 -2.3249527748763854e-01
    1.8527930069189780e-02 -2.2209762326528776e-01
    1.7779050631407653e-02 -2.3249527748763854e-01
    1.9388832902595382e-02 -2.1128856368212917e-01
    1.9388832902595382e-02 -2.1128856368212917e-01
    1.9388832902595382e-02 -2.1128856368212917e-01
    3.0253927602865525e-02 -1.3187609467915740e-01
    3.0253927602865525e-02 -1.3187609467915740e-01
    3.4858529270006905e-02 -1.1396057645963796e-01
    3.4858529270006905e-02 -1.1396057645963796e-01 1. 0.
    4.2600695228853076e-02 -9.2847669088525930e-02
    4.2600695228853076e-02 -9.2847669088525930e-02
    3.4858529270006905e-02 -1.1396057645963796e-01
    2.4810334996469566e-02 -1.6222142113076254e-01
    2.1581243451153115e-02 -1.8814417367671946e-01
    1.9388832902595382e-02 -2.1128856368212917e-01
    1.6534852256530258e-02 -2.5226248955475650e-01
    1.3172570491208737e-02 -3.3015865782452669e-01
    1.1267321285751581e-02 -4.0519020777606646e-01
    1.0633000712772671e-02 -4.4031528592635544e-01
    1.0633000712772671e-02 -4.4031528592635544e-01
    1.0522672835293128e-02 -4.4721359549995793e-01
    9.3691125205236092e-03 -5.4112630647383153e-01
    9.3077035915910579e-03 -5.4772255750516607e-01
    8.7146323175017245e-03 -6.2678317052800858e-01
    8.7146323175017245e-03 -6.2678317052800858e-01
    8.6002120500022726e-03 -6.4666979068286323e-01
    8.3741423167348235e-03 -6.9355076110393532e-01
    8.5300720681742350e-03 -6.5998698630040398e-01
    8.4032345003903879e-03 -6.8680281974344515e-01
    8.4967320261437902e-03 -6.6666666666666663e-01
    8.6370846612989303e-03 -6.4003011977317714e-01
    8.9810151219895835e-03 -5.8722021951470360e-01
    8.8861902845169746e-03 -6.0038747178723662e-01
    8.8411212578929886e-03 -6.0697697866688405e-01
    1.0125693224957290e-02 -4.7447959919511407e-01
    1.0995503385357668e-02 -4.1937977655691105e-01
    1.1267321285751581e-02 -4.0519020777606646e-01
    1.2925888601730254e-02 -3.3806170189140666e-01
    1.5537725292744270e-02 -2.7091418459143851e-01
    1.6534852256530258e-02 -2.5226248955475650e-01
    1.6534852256530258e-02 -2.5226248955475650e-01
    1.5537725292744270e-02 -2.7091418459143851e-01
    1.5537725292744270e-02 -2.7091418459143851e-01
    1.6010614102759477e-02 -2.6171196129510688e-01
    2.1581243451153115e-02 -1.8814417367671946e-01
    2.4810334996469566e-02 -1.6222142113076254e-01
    2.7118953950654265e-02 -1.4776353114138543e-01
    3.4858529270006905e-02 -1.1396057645963796e-01 1. 0.
    6.0117057649732519e-02 -6.5512178208041838e-02
    3.0253927602865525e-02 -1.3187609467915740e-01
    2.4810334996469566e-02 -1.6222142113076254e-01
    1.9388832902595382e-02 -2.1128856368212917e-01
    1.8527930069189780e-02 -2.2209762326528776e-01
    1.5108500015584605e-02 -2.7989464772461226e-01
    1.1128105148725866e-02 -4.1231056256176607e-01
    1.0869056127933079e-02 -4.2640143271122083e-01
    1.0036274665372045e-02 -4.8122650318578780e-01
    1.0748347571617741e-02 -4.3337888606074093e-01
    9.7882700969176405e-03 -5.0133511586135859e-01
    9.3691125205236092e-03 -5.4112630647383153e-01
    8.7553930298264783e-03 -6.2017367294604220e-01
    8.7553930298264783e-03 -6.2017367294604220e-01
    8.3189033080770299e-03 -7.0710678118654757e-01
    8.2195294682649214e-03 -7.3448872299751933e-01
    8.1144181388291565e-03 -7.6930925816207196e-01
    8.1144181388291565e-03 -7.6930925816207196e-01
    8.2195294682649214e-03 -7.3448872299751933e-01
    8.1144181388291565e-03 -7.6930925816207196e-01
    8.0442759853862084e-03 -7.9772403521746571e-01
    8.0607077612135179e-03 -7.9056941504209499e-01
    8.0957653695243638e-03 -7.7636314056464417e-01
    8.4333441946054417e-03 -6.8007352543677213e-01
    8.6752108696449958e-03 -6.3340161413625962e-01
    8.7553930298264783e-03 -6.2017367294604220e-01
    8.6002120500022726e-03 -6.4666979068286323e-01
    1.0218812190769167e-02 -4.6770717334674261e-01
    1.0522672835293128e-02 -4.4721359549995793e-01
    1.1413661887702816e-02 -3.9801487608399561e-01
    1.2274636000901959e-02 -3.6115755925730764e-01
    1.6010614102759477e-02 -2.6171196129510688e-01
    1.5537725292744270e-02 -2.7091418459143851e-01
    1.5537725292744270e-02 -2.7091418459143851e-01
    1.5108500015584605e-02 -2.7989464772461226e-01
    1.8527930069189780e-02 -2.2209762326528776e-01
    2.3020445731811948e-02 -1.7560468218497577e-01
    2.7118953950654265e-02 -1.4776353114138543e-01
    2.7118953950654265e-02 -1.4776353114138543e-01
    4.2600695228853076e-02 -9.2847669088525930e-02
    2.4810334996469566e-02 -1.6222142113076254e-01
    2.4810334996469566e-02 -1.6222142113076254e-01
    1.7779050631407653e-02 -2.3249527748763854e-01
    1.4716771567578694e-02 -2.8867513459481287e-01
    1.2694994866247956e-02 -3.4585723193303730e-01
    1.1128105148725866e-02 -4.1231056256176607e-01
    9.9503536849654371e-03 -4.8795003647426666e-01
    9.6381076509776467e-03 -5.1465023546566535e-01
    9.3691125205236092e-03 -5.4112630647383153e-01
    9.1359058637217484e-03 -5.6748030653502401e-01
    8.8861902845169746e-03 -6.0038747178723662e-01
    8.6752108696449958e-03 -6.3340161413625962e-01
    8.3741423167348235e-03 -6.9355076110393532e-01
    8.1750497526153348e-03 -7.4833147735478833e-01
    8.2430408509080490e-03 -7.2760687510899902e-01
    7.9376362934116072e-03 -8.5634883857767530e-01
    7.9855801724393327e-03 -8.2671230631343084e-01
    8.0957653695243638e-03 -7.7636314056464417e-01
    8.0778665199386680e-03 -7.8344949004276954e-01
    8.0778665199386680e-03 -7.8344949004276954e-01
    8.0778665199386680e-03 -7.8344949004276954e-01
    8.0285587756486060e-03 -8.0491448237912955e-01
    8.0135443785990575e-03 -8.1214190144648135e-01
    8.2674261282651290e-03 -7.2074997015644715e-01
    8.1338394094819782e-03 -7.6228674465786228e-01
    8.2674261282651290e-03 -7.2074997015644715e-01
    8.3460405066669678e-03 -7.0031839892481162e-01
    8.6752108696449958e-03 -6.3340161413625962e-01
    9.1359058637217484e-03 -5.6748030653502401e-01
    9.8677431477378064e-03 -4.9465225266224133e-01
    1.1413661887702816e-02 -3.9801487608399561e-01
    1.2274636000901959e-02 -3.6115755925730764e-01
    1.4357527161228990e-02 -2.9727444058185665e-01
    1.4716771567578694e-02 -2.8867513459481287e-01
    1.3436817113905581e-02 -3.2213907696158250e-01
    1.6010614102759477e-02 -2.6171196129510688e-01
    1.9388832902595382e-02 -2.1128856368212917e-01
    2.1581243451153115e-02 -1.8814417367671946e-01
    2.0392156862745096e-02 -1.9999999999999998e-01
    3.4858529270006905e-02 -1.1396057645963796e-01
    2.3020445731811948e-02 -1.7560468218497577e-01
    2.0392156862745096e-02 -1.9999999999999998e-01
    1.6534852256530258e-02 -2.5226248955475650e-01
    1.2694994866247956e-02 -3.4585723193303730e-01
    1.1267321285751581e-02 -4.0519020777606646e-01
    1.0125693224957290e-02 -4.7447959919511407e-01
    9.5671319390893128e-03 -5.2128603514268690e-01
    8.7553930298264783e-03 -6.2017367294604220e-01
    8.7146323175017245e-03 -6.2678317052800858e-01
    8.6752108696449958e-03 -6.3340161413625962e-01
    8.4967320261437902e-03 -6.6666666666666663e-01
    8.2927062590086482e-03 -7.1391695550311629e-01
    8.4333441946054417e-03 -6.8007352543677213e-01
    8.0778665199386680e-03 -7.8344949004276954e-01
    7.9992216783593695e-03 -8.1940745141142768e-01
    7.8434237465008702e-03 -9.9148920692946896e-01
    7.8847181281694947e-03 -9.0219370889631711e-01
    7.8442834097020159e-03 -9.8304961961329751e-01
    7.9272631994524809e-03 -8.6386842558136012e-01
    7.8780323441159875e-03 -9.1001373616006465e-01
    7.8664452921850779e-03 -9.2582009977255153e-01
    7.9272631994524809e-03 -8.6386842558136012e-01
    7.8847181281694947e-03 -9.0219370889631711e-01
    7.8719427626694621e-03 -9.1788871059588151e-01
    7.8847181281694947e-03 -9.0219370889631711e-01
    7.8719427626694621e-03 -9.1788871059588151e-01
    8.0957653695243638e-03 -7.7636314056464417e-01
    8.3741423167348235e-03 -6.9355076110393532e-01
    8.5300720681742350e-03 -6.5998698630040398e-01
    9.1911882730544570e-03 -5.6089815615050276e-01
    9.4327497145561545e-03 -5.3452248382484868e-01
    1.0522672835293128e-02 -4.4721359549995793e-01
    1.1267321285751581e-02 -4.0519020777606646e-01
    1.3172570491208737e-02 -3.3015865782452669e-01
    1.2694994866247956e-02 -3.4585723193303730e-01
    1.5537725292744270e-02 -2.7091418459143851e-01
    1.7120161767270561e-02 -2.4253562503633294e-01
    2.0392156862745096e-02 -1.9999999999999998e-01
    2.0392156862745096e-02 -1.9999999999999998e-01
    3.4858529270006905e-02 -1.1396057645963796e-01
    1.8527930069189780e-02 -2.2209762326528776e-01
    1.7120161767270561e-02 -2.4253562503633294e-01
    1.2274636000901959e-02 -3.6115755925730764e-01
    1.0995503385357668e-02 -4.1937977655691105e-01
    1.0315851794782820e-02 -4.6090696801048886e-01
    9.4987190853870352e-03 -5.2790957993785637e-01
    9.3077035915910579e-03 -5.4772255750516607e-01
    8.4032345003903879e-03 -6.8680281974344515e-01
    8.4333441946054417e-03 -6.8007352543677213e-01
    8.6370846612989303e-03 -6.4003011977317714e-01
    8.1750497526153348e-03 -7.4833147735478833e-01
    7.9855801724393327e-03 -8.2671230631343084e-01
    7.9083999646297042e-03 -8.7904907299153257e-01
    7.8457168100629429e-03 -9.7467943448089633e-01
    7.8442834097020141e-03 -1.0172426498607163e+00
    7.8434237465008685e-03 -1.0085838484282528e+00
    7.8442834097020159e-03 -9.8304961961329751e-01
    7.8719427626694604e-03 -1.0894566938848309e+00
    7.8615362532925438e-03 -1.0708823421952984e+00
    7.8503089771579538e-03 -1.0436885140144614e+00
    7.8477248913284055e-03 -9.6637689206678634e-01
    7.8572123719938027e-03 -9.4185814971977000e-01
    7.8503089771579538e-03 -9.5814027516081701e-01
    7.8920046264698458e-03 -8.9442719099991586e-01
    7.8442834097020141e-03 -1.0172426498607163e+00
    7.8503089771579538e-03 -9.5814027516081701e-01
    7.9486465348041890e-03 -8.4887468762716534e-01
    8.0442759853862084e-03 -7.9772403521746571e-01
    8.0957653695243638e-03 -7.7636314056464417e-01
    8.4644999917032494e-03 -6.7336182626305985e-01
    8.6752108696449958e-03 -6.3340161413625962e-01
    9.1359058637217484e-03 -5.6748030653502401e-01
    9.9503536849654371e-03 -4.8795003647426666e-01
    1.0869056127933079e-02 -4.2640143271122083e-01
    1.2274636000901959e-02 -3.6115755925730764e-01
    1.3720698711085496e-02 -3.1399291281137959e-01
    1.6010614102759477e-02 -2.6171196129510688e-01
    1.7779050631407653e-02 -2.3249527748763854e-01
    2.1581243451153115e-02 -1.8814417367671946e-01
    2.4810334996469566e-02 -1.6222142113076254e-01
    1.6534852256530258e-02 -2.5226248955475650e-01
    1.5108500015584605e-02 -2.7989464772461226e-01
    1.1128105148725866e-02 -4.1231056256176607e-01
    9.8677431477378064e-03 -4.9465225266224133e-01
    1.0522672835293128e-02 -4.4721359549995793e-01
    8.7975395779551317e-03 -6.1357199107789628e-01
    8.2927062590086482e-03 -7.1391695550311629e-01
    8.2430408509080490e-03 -7.2760687510899902e-01
    8.3741423167348235e-03 -6.9355076110393532e-01
    8.1144181388291565e-03 -7.6930925816207196e-01
    7.8847181281694947e-03 -9.0219370889631711e-01
    7.8442834097020159e-03 -9.8304961961329751e-01
    7.8615362532925438e-03 -1.0708823421952984e+00
    7.8572123719938027e-03 -1.0617310051386499e+00
    7.8503089771579538e-03 -1.0436885140144614e+00
    7.8719427626694604e-03 -1.0894566938848309e+00
    7.8442834097020141e-03 -1.0172426498607163e+00
    7.8847181281694947e-03 -1.1084094137869038e+00
    7.8998967792193817e-03 -1.1277609055975359e+00
    7.9083999646297025e-03 -1.1375929179890418e+00
    7.8719427626694604e-03 -1.0894566938848309e+00
    7.9376362934116072e-03 -1.1677484162422844e+00
    7.9083999646297025e-03 -1.1375929179890418e+00
    7.9175200092836788e-03 -1.1475328680122050e+00
    7.8503089771579538e-03 -9.5814027516081701e-01
    7.8477248913284055e-03 -9.6637689206678634e-01
    7.8998967792193817e-03 -8.8671277310340624e-01
    8.0957653695243638e-03 -7.7636314056464417e-01
    8.0778665199386680e-03 -7.8344949004276954e-01
    8.0607077612135179e-03 -7.9056941504209499e-01
    8.1540445500426391e-03 -7.5529451120587265e-01
    8.4644999917032494e-03 -6.7336182626305985e-01
    8.8861902845169746e-03 -6.0038747178723662e-01
    1.0036274665372045e-02 -4.8122650318578780e-01
    1.0869056127933079e-02 -4.2640143271122083e-01
    1.2694994866247956e-02 -3.4585723193303730e-01
    1.4026644576537633e-02 -3.0570892025787150e-01
    1.6010614102759477e-02 -2.6171196129510688e-01
    1.8527930069189780e-02 -2.2209762326528776e-01
    1.8527930069189780e-02 -2.2209762326528776e-01
    1.5108500015584605e-02 -2.7989464772461226e-01
    1.3720698711085496e-02 -3.1399291281137959e-01
    1.1730052770606842e-02 -3.8348249442368521e-01
    1.0125693224957290e-02 -4.7447959919511407e-01
    9.7882700969176405e-03 -5.0133511586135859e-01
    8.5645536249752182e-03 -6.5332171882823786e-01
    8.1338394094819782e-03 -7.6228674465786228e-01
    7.9992216783593695e-03 -8.1940745141142768e-01
    7.9992216783593695e-03 -8.1940745141142768e-01
    7.9175200092836788e-03 -8.7143473435513319e-01
    7.8434237465008702e-03 -9.9148920692946896e-01
    7.8431372549019607e-03 -1. 7.8615362532925438e-03
    -1.0708823421952984e+00 7.8477248913284055e-03
    -1.0347929552219570e+00 7.8719427626694604e-03
    -1.0894566938848309e+00 7.9726099492410957e-03
    -1.1989578808281802e+00 7.9486465348041890e-03
    -1.1780301787479028e+00 7.9175200092836788e-03
    -1.1475328680122050e+00 7.9726099492410957e-03
    -1.1989578808281802e+00 7.8780323441159875e-03
    -1.0988845115895121e+00 8.0442759853862084e-03
    -1.2535663410560176e+00 8.1338394094819782e-03
    -1.3118423047600420e+00 7.9726099492410957e-03
    -1.1989578808281802e+00 7.8615362532925438e-03
    -1.0708823421952984e+00 7.9603016671046887e-03
    -1.1884322168388988e+00 7.8503089771579538e-03
    -1.0436885140144614e+00 7.8572123719938027e-03
    -9.4185814971977000e-01 7.8719427626694621e-03
    -9.1788871059588151e-01 7.9272631994524809e-03
    -8.6386842558136012e-01 7.9992216783593695e-03
    -8.1940745141142768e-01 7.9855801724393327e-03
    -8.2671230631343084e-01 7.9992216783593695e-03
    -8.1940745141142768e-01 8.3460405066669678e-03
    -7.0031839892481162e-01 8.9328020033763271e-03
    -5.9380228701931104e-01 9.9503536849654371e-03
    -4.8795003647426666e-01 1.0869056127933079e-02
    -4.2640143271122083e-01 1.2478354962115544e-02
    -3.5355339059327373e-01 1.4716771567578694e-02
    -2.8867513459481287e-01 1.7120161767270561e-02
    -2.4253562503633294e-01 1.9388832902595382e-02
    -2.1128856368212917e-01 1.4026644576537633e-02
    -3.0570892025787150e-01 1.2478354962115544e-02
    -3.5355339059327373e-01 1.1128105148725866e-02
    -4.1231056256176607e-01 9.3077035915910579e-03
    -5.4772255750516607e-01 8.3189033080770299e-03
    -7.0710678118654757e-01 8.2430408509080490e-03
    -7.2760687510899902e-01 7.9726099492410923e-03
    -8.3405765622829886e-01 7.8615362532925438e-03
    -9.3380940239430021e-01 7.8534707735532453e-03
    -9.4996790703172918e-01 7.8442834097020141e-03
    -1.0172426498607163e+00 7.8431372549019607e-03 -1.
    7.8457168100629446e-03 -1.0259783520851544e+00
    7.8664452921850779e-03 -1.0801234497346435e+00
    7.8780323441159875e-03 -1.0988845115895121e+00
    8.1144181388291565e-03 -1.2998673672393628e+00
    8.0957653695243655e-03 -1.2880570286640691e+00
    7.9726099492410957e-03 -1.1989578808281802e+00
    7.8780323441159875e-03 -1.0988845115895121e+00
    7.9726099492410957e-03 -1.1989578808281802e+00
    8.0285587756486077e-03 -1.2423680054112654e+00
    8.1968720720976725e-03 -1.3488058082740209e+00
    8.4032345003903879e-03 -1.4560219778561039e+00
    8.1144181388291565e-03 -1.2998673672393628e+00
    8.0778665199386680e-03 -1.2764064725415909e+00
    8.0957653695243655e-03 -1.2880570286640691e+00
    7.8615362532925438e-03 -1.0708823421952984e+00
    7.9376362934116072e-03 -1.1677484162422844e+00
    7.8664452921850779e-03 -1.0801234497346435e+00
    7.8442834097020141e-03 -1.0172426498607163e+00
    7.8442834097020159e-03 -9.8304961961329751e-01
    7.8719427626694621e-03 -9.1788871059588151e-01
    8.0135443785990575e-03 -8.1214190144648135e-01
    8.0442759853862084e-03 -7.9772403521746571e-01
    8.2927062590086482e-03 -7.1391695550311629e-01
    9.0308919627763735e-03 -5.8064004094004507e-01
    1.0125693224957290e-02 -4.7447959919511407e-01
    1.1567694516307401e-02 -3.9078044936500006e-01
    1.4026644576537633e-02 -3.0570892025787150e-01
    1.5537725292744270e-02 -2.7091418459143851e-01
    1.7779050631407653e-02 -2.3249527748763854e-01
    1.3436817113905581e-02 -3.2213907696158250e-01
    1.1413661887702816e-02 -3.9801487608399561e-01
    9.7117744176616252e-03 -5.0800050800076191e-01
    8.4333441946054417e-03 -6.8007352543677213e-01
    8.1750497526153348e-03 -7.4833147735478833e-01
    8.1540445500426391e-03 -7.5529451120587265e-01
    7.9855801724393327e-03 -8.2671230631343084e-01
    7.8998967792193817e-03 -8.8671277310340624e-01
    7.8572123719938027e-03 -1.0617310051386499e+00
    7.9376362934116072e-03 -1.1677484162422844e+00
    7.8998967792193817e-03 -1.1277609055975359e+00
    7.8998967792193817e-03 -1.1277609055975359e+00
    7.9376362934116072e-03 -1.1677484162422844e+00
    7.9726099492410957e-03 -1.1989578808281802e+00
    8.2430408509080472e-03 -1.3743685418725533e+00
    8.2430408509080472e-03 -1.3743685418725533e+00
    8.0285587756486077e-03 -1.2423680054112654e+00
    7.9992216783593712e-03 -1.2203940765702117e+00
    8.1968720720976725e-03 -1.3488058082740209e+00
    8.1968720720976725e-03 -1.3488058082740209e+00
    8.1968720720976725e-03 -1.3488058082740209e+00
    8.6002120500022761e-03 -1.5463842820677172e+00
    8.2674261282651307e-03 -1.3874436925511611e+00
    8.1338394094819782e-03 -1.3118423047600420e+00
    8.0442759853862084e-03 -1.2535663410560176e+00
    8.0957653695243655e-03 -1.2880570286640691e+00
    8.3460405066669678e-03 -1.4279219302752653e+00
    7.9855801724393327e-03 -1.2096106376585989e+00
    8.0285587756486077e-03 -1.2423680054112654e+00
    7.9083999646297025e-03 -1.1375929179890418e+00
    7.8434237465008685e-03 -1.0085838484282528e+00
    7.8477248913284055e-03 -9.6637689206678634e-01
    7.9603016671046870e-03 -8.4144470827279672e-01
    7.9726099492410923e-03 -8.3405765622829886e-01
    8.3741423167348235e-03 -6.9355076110393532e-01
    9.4327497145561545e-03 -5.3452248382484868e-01
    1.1128105148725866e-02 -4.1231056256176607e-01
    1.2478354962115544e-02 -3.5355339059327373e-01
    1.4716771567578694e-02 -2.8867513459481287e-01
    1.9388832902595382e-02 -2.1128856368212917e-01
    1.2925888601730254e-02 -3.3806170189140666e-01
    1.0869056127933079e-02 -4.2640143271122083e-01
    8.6752108696449958e-03 -6.3340161413625962e-01
    8.1750497526153348e-03 -7.4833147735478833e-01
    8.1144181388291565e-03 -7.6930925816207196e-01
    8.0285587756486060e-03 -8.0491448237912955e-01
    7.8847181281694947e-03 -9.0219370889631711e-01
    7.8457168100629429e-03 -9.7467943448089633e-01
    7.8920046264698458e-03 -1.1180339887498947e+00
    7.9603016671046887e-03 -1.1884322168388988e+00
    7.9175200092836788e-03 -1.1475328680122050e+00
    7.8920046264698458e-03 -1.1180339887498947e+00
    7.9175200092836788e-03 -1.1475328680122050e+00
    8.0442759853862084e-03 -1.2535663410560176e+00
    8.3741423167348235e-03 -1.4418555296634445e+00
    8.3189033080770299e-03 -1.4142135623730951e+00
    8.1144181388291565e-03 -1.2998673672393628e+00
    8.1750497526153348e-03 -1.3363062095621219e+00
    8.1750497526153348e-03 -1.3363062095621219e+00
    8.1750497526153348e-03 -1.3363062095621219e+00
    8.2195294682649196e-03 -1.3614912914100354e+00
    8.1750497526153348e-03 -1.3363062095621219e+00
    8.2674261282651307e-03 -1.3874436925511611e+00
    8.0778665199386680e-03 -1.2764064725415909e+00
    8.1338394094819782e-03 -1.3118423047600420e+00
    8.3189033080770299e-03 -1.4142135623730951e+00
    8.4967320261437902e-03 -1.5000000000000000e+00
    8.4644999917032494e-03 -1.4850856716212688e+00
    8.2674261282651307e-03 -1.3874436925511611e+00
    8.1144181388291565e-03 -1.2998673672393628e+00
    7.8998967792193817e-03 -1.1277609055975359e+00
    7.8847181281694947e-03 -1.1084094137869038e+00
    7.8457168100629446e-03 -1.0259783520851544e+00
    7.8664452921850779e-03 -9.2582009977255153e-01
    7.9855801724393327e-03 -8.2671230631343084e-01
    8.9328020033763271e-03 -5.9380228701931104e-01
    1.0125693224957290e-02 -4.7447959919511407e-01
    1.2925888601730254e-02 -3.3806170189140666e-01
    1.5108500015584605e-02 -2.7989464772461226e-01
    1.8527930069189780e-02 -2.2209762326528776e-01
    1.2694994866247956e-02 -3.4585723193303730e-01
    1.0315851794782820e-02 -4.6090696801048886e-01
    8.7553930298264783e-03 -6.2017367294604220e-01
    8.0957653695243638e-03 -7.7636314056464417e-01
    7.8664452921850779e-03 -9.2582009977255153e-01
    7.8442834097020159e-03 -9.8304961961329751e-01
    7.8442834097020159e-03 -9.8304961961329751e-01
    7.8664452921850779e-03 -1.0801234497346435e+00
    7.9272631994524809e-03 -1.1575836902790224e+00
    7.9083999646297025e-03 -1.1375929179890418e+00
    7.9992216783593712e-03 -1.2203940765702117e+00
    8.0135443785990593e-03 -1.2313119150962786e+00
    8.1540445500426374e-03 -1.3239868490550000e+00
    8.4967320261437902e-03 -1.5000000000000000e+00
    8.6002120500022761e-03 -1.5463842820677172e+00
    8.3460405066669678e-03 -1.4279219302752653e+00
    8.2674261282651307e-03 -1.3874436925511611e+00
    8.3741423167348235e-03 -1.4418555296634445e+00
    8.2674261282651307e-03 -1.3874436925511611e+00
    8.0957653695243655e-03 -1.2880570286640691e+00
    8.1144181388291565e-03 -1.2998673672393628e+00
    8.0135443785990593e-03 -1.2313119150962786e+00
    8.3189033080770299e-03 -1.4142135623730951e+00
    8.2195294682649196e-03 -1.3614912914100354e+00
    8.4644999917032494e-03 -1.4850856716212688e+00
    8.7975395779551300e-03 -1.6298006013006618e+00
    8.8411212578929851e-03 -1.6475089420958273e+00
    8.6752108696449958e-03 -1.5787771576232141e+00
    8.0607077612135161e-03 -1.2649110640673518e+00
    8.0442759853862084e-03 -1.2535663410560176e+00
    7.9486465348041890e-03 -1.1780301787479028e+00
    7.9486465348041890e-03 -1.1780301787479028e+00
    7.8998967792193817e-03 -1.1277609055975359e+00
    7.8615362532925438e-03 -1.0708823421952984e+00
    7.9272631994524809e-03 -8.6386842558136012e-01
    8.1968720720976725e-03 -7.4139657011088556e-01
    9.5671319390893128e-03 -5.2128603514268690e-01
    1.2694994866247956e-02 -3.4585723193303730e-01
    1.5537725292744270e-02 -2.7091418459143851e-01
    1.6534852256530258e-02 -2.5226248955475650e-01
    1.1267321285751581e-02 -4.0519020777606646e-01
    9.0824987400385110e-03 -5.7406049728704944e-01
    8.4333441946054417e-03 -6.8007352543677213e-01
    7.9486465348041890e-03 -8.4887468762716534e-01
    7.8434237465008685e-03 -1.0085838484282528e+00
    7.8534707735532453e-03 -1.0526671402243486e+00
    7.8780323441159875e-03 -1.0988845115895121e+00
    7.9726099492410957e-03 -1.1989578808281802e+00
    7.9992216783593712e-03 -1.2203940765702117e+00
    8.0607077612135161e-03 -1.2649110640673518e+00
    8.0285587756486077e-03 -1.2423680054112654e+00
    8.1968720720976725e-03 -1.3488058082740209e+00
    8.4032345003903879e-03 -1.4560219778561039e+00
    8.3741423167348235e-03 -1.4418555296634445e+00
    8.4032345003903879e-03 -1.4560219778561039e+00
    8.3741423167348235e-03 -1.4418555296634445e+00
    8.2927062590086500e-03 -1.4007231405440892e+00
    8.4967320261437902e-03 -1.5000000000000000e+00
    8.3741423167348235e-03 -1.4418555296634445e+00
    8.3460405066669678e-03 -1.4279219302752653e+00
    8.1540445500426374e-03 -1.3239868490550000e+00
    8.1540445500426374e-03 -1.3239868490550000e+00
    8.4967320261437902e-03 -1.5000000000000000e+00
    8.5300720681742367e-03 -1.5151813910840264e+00
    8.9810151219895818e-03 -1.7029386365926400e+00
    9.2484258035805521e-03 -1.8040358795061295e+00
    8.7553930298264783e-03 -1.6124515496597096e+00
    8.8411212578929851e-03 -1.6475089420958273e+00
    8.2195294682649196e-03 -1.3614912914100354e+00
    8.0957653695243655e-03 -1.2880570286640691e+00
    8.0442759853862084e-03 -1.2535663410560176e+00
    7.8847181281694947e-03 -1.1084094137869038e+00
    7.8503089771579538e-03 -1.0436885140144614e+00
    7.8503089771579538e-03 -1.0436885140144614e+00
    7.8534707735532453e-03 -9.4996790703172918e-01
    8.3189033080770299e-03 -7.0710678118654757e-01
    9.1911882730544570e-03 -5.6089815615050276e-01
    9.7882700969176405e-03 -5.0133511586135859e-01
    1.3720698711085496e-02 -3.1399291281137959e-01
    1.2925888601730254e-02 -3.3806170189140666e-01
    1.0125693224957290e-02 -4.7447959919511407e-01
    9.0824987400385110e-03 -5.7406049728704944e-01
    8.2195294682649214e-03 -7.3448872299751933e-01
    7.8572123719938027e-03 -9.4185814971977000e-01
    7.8431372549019607e-03 -1. 7.8998967792193817e-03
    -1.1277609055975359e+00 7.9726099492410957e-03
    -1.1989578808281802e+00 8.0442759853862084e-03
    -1.2535663410560176e+00 8.0778665199386680e-03
    -1.2764064725415909e+00 8.1750497526153348e-03
    -1.3363062095621219e+00 8.1338394094819782e-03
    -1.3118423047600420e+00 8.6370846612989285e-03
    -1.5624264688580496e+00 8.7146323175017245e-03
    -1.5954480704349310e+00 8.6002120500022761e-03
    -1.5463842820677172e+00 8.2430408509080472e-03
    -1.3743685418725533e+00 8.3460405066669678e-03
    -1.4279219302752653e+00 8.3189033080770299e-03
    -1.4142135623730951e+00 8.4032345003903879e-03
    -1.4560219778561039e+00 8.3460405066669678e-03
    -1.4279219302752653e+00 8.1750497526153348e-03
    -1.3363062095621219e+00 8.1338394094819782e-03
    -1.3118423047600420e+00 8.2195294682649196e-03
    -1.3614912914100354e+00 8.4644999917032494e-03
    -1.4850856716212688e+00 8.4333441946054417e-03
    -1.4704292441876154e+00 8.9810151219895818e-03
    -1.7029386365926400e+00 8.8411212578929851e-03
    -1.6475089420958273e+00 8.6370846612989285e-03
    -1.5624264688580496e+00 8.7975395779551300e-03
    -1.6298006013006618e+00 8.6002120500022761e-03
    -1.5463842820677172e+00 8.5300720681742367e-03
    -1.5151813910840264e+00 8.2430408509080472e-03
    -1.3743685418725533e+00 8.0135443785990593e-03
    -1.2313119150962786e+00 7.8664452921850779e-03
    -1.0801234497346435e+00 7.8434237465008702e-03
    -9.9148920692946896e-01 7.8434237465008685e-03
    -1.0085838484282528e+00 7.9992216783593695e-03
    -8.1940745141142768e-01 8.6752108696449958e-03
    -6.3340161413625962e-01 9.4327497145561545e-03
    -5.3452248382484868e-01 1.1901446467471004e-02
    -3.7611622490148749e-01 1.3436817113905581e-02
    -3.2213907696158250e-01 1.0218812190769167e-02
    -4.6770717334674261e-01 8.5300720681742350e-03
    -6.5998698630040398e-01 8.1144181388291565e-03
    -7.6930925816207196e-01 7.8457168100629446e-03
    -1.0259783520851544e+00 7.8442834097020141e-03
    -1.0172426498607163e+00 7.8920046264698458e-03
    -1.1180339887498947e+00 8.0957653695243655e-03
    -1.2880570286640691e+00 8.1968720720976725e-03
    -1.3488058082740209e+00 8.1144181388291565e-03
    -1.2998673672393628e+00 8.2195294682649196e-03
    -1.3614912914100354e+00 8.1968720720976725e-03
    -1.3488058082740209e+00 8.2430408509080472e-03
    -1.3743685418725533e+00 8.3460405066669678e-03
    -1.4279219302752653e+00 8.3460405066669678e-03
    -1.4279219302752653e+00 8.3189033080770299e-03
    -1.4142135623730951e+00 8.2195294682649196e-03
    -1.3614912914100354e+00 8.1540445500426374e-03
    -1.3239868490550000e+00 8.4333441946054417e-03
    -1.4704292441876154e+00 8.4644999917032494e-03
    -1.4850856716212688e+00 8.1750497526153348e-03
    -1.3363062095621219e+00 8.2927062590086500e-03
    -1.4007231405440892e+00 8.3460405066669678e-03
    -1.4279219302752653e+00 8.3460405066669678e-03
    -1.4279219302752653e+00 8.6002120500022761e-03
    -1.5463842820677172e+00 8.7553930298264783e-03
    -1.6124515496597096e+00 8.8861902845169746e-03
    -1.6655910507645919e+00 8.9328020033763254e-03
    -1.6840622238416521e+00 8.4644999917032494e-03
    -1.4850856716212688e+00 8.7975395779551300e-03
    -1.6298006013006618e+00 8.6752108696449958e-03
    -1.5787771576232141e+00 8.4333441946054417e-03
    -1.4704292441876154e+00 8.0957653695243655e-03
    -1.2880570286640691e+00 8.0135443785990593e-03
    -1.2313119150962786e+00 7.8847181281694947e-03
    -1.1084094137869038e+00 7.8477248913284055e-03
    -1.0347929552219570e+00 7.8847181281694947e-03
    -9.0219370889631711e-01 8.1750497526153348e-03
    -7.4833147735478833e-01 9.2484258035805539e-03
    -5.5431270040691139e-01 1.0869056127933079e-02
    -4.2640143271122083e-01 1.3720698711085496e-02
    -3.1399291281137959e-01 9.6381076509776467e-03
    -5.1465023546566535e-01 8.4967320261437902e-03
    -6.6666666666666663e-01 7.9855801724393327e-03
    -8.2671230631343084e-01 7.8431372549019607e-03 -1.
    7.8534707735532453e-03 -1.0526671402243486e+00
    7.8998967792193817e-03 -1.1277609055975359e+00
    8.1540445500426374e-03 -1.3239868490550000e+00
    8.2430408509080472e-03 -1.3743685418725533e+00
    8.3741423167348235e-03 -1.4418555296634445e+00
    8.6370846612989285e-03 -1.5624264688580496e+00
    8.4644999917032494e-03 -1.4850856716212688e+00
    8.2927062590086500e-03 -1.4007231405440892e+00
    8.4333441946054417e-03 -1.4704292441876154e+00
    8.2195294682649196e-03 -1.3614912914100354e+00
    8.1338394094819782e-03 -1.3118423047600420e+00
    8.1540445500426374e-03 -1.3239868490550000e+00
    8.0135443785990593e-03 -1.2313119150962786e+00
    8.1968720720976725e-03 -1.3488058082740209e+00
    8.2430408509080472e-03 -1.3743685418725533e+00
    8.1968720720976725e-03 -1.3488058082740209e+00
    8.3741423167348235e-03 -1.4418555296634445e+00
    8.3189033080770299e-03 -1.4142135623730951e+00
    8.4644999917032494e-03 -1.4850856716212688e+00
    8.4967320261437902e-03 -1.5000000000000000e+00
    8.5645536249752199e-03 -1.5306394555404432e+00
    8.6752108696449958e-03 -1.5787771576232141e+00
    9.0308919627763717e-03 -1.7222374095679298e+00
    9.1359058637217484e-03 -1.7621756887140219e+00
    9.0308919627763717e-03 -1.7222374095679298e+00
    8.7146323175017245e-03 -1.5954480704349310e+00
    8.4032345003903879e-03 -1.4560219778561039e+00
    8.2430408509080472e-03 -1.3743685418725533e+00
    8.0778665199386680e-03 -1.2764064725415909e+00
    7.9486465348041890e-03 -1.1780301787479028e+00
    7.8847181281694947e-03 -1.1084094137869038e+00
    7.8457168100629446e-03 -1.0259783520851544e+00
    8.1540445500426391e-03 -7.5529451120587265e-01
    9.0824987400385110e-03 -5.7406049728704944e-01
    1.0218812190769167e-02 -4.6770717334674261e-01
    1.2694994866247956e-02 -3.4585723193303730e-01
    9.4987190853870352e-03 -5.2790957993785637e-01
    8.4333441946054417e-03 -6.8007352543677213e-01
    7.9175200092836788e-03 -8.7143473435513319e-01
    7.8572123719938027e-03 -1.0617310051386499e+00
    7.8780323441159875e-03 -1.0988845115895121e+00
    7.8998967792193817e-03 -1.1277609055975359e+00
    8.0442759853862084e-03 -1.2535663410560176e+00
    8.2674261282651307e-03 -1.3874436925511611e+00
    8.4644999917032494e-03 -1.4850856716212688e+00
    8.9328020033763254e-03 -1.6840622238416521e+00
    9.1359058637217484e-03 -1.7621756887140219e+00
    8.6002120500022761e-03 -1.5463842820677172e+00
    8.4644999917032494e-03 -1.4850856716212688e+00
    8.6752108696449958e-03 -1.5787771576232141e+00
    8.4032345003903879e-03 -1.4560219778561039e+00
    8.1540445500426374e-03 -1.3239868490550000e+00
    8.0778665199386680e-03 -1.2764064725415909e+00
    8.1540445500426374e-03 -1.3239868490550000e+00
    8.2674261282651307e-03 -1.3874436925511611e+00
    8.2927062590086500e-03 -1.4007231405440892e+00
    8.2927062590086500e-03 -1.4007231405440892e+00
    8.2927062590086500e-03 -1.4007231405440892e+00
    8.5300720681742367e-03 -1.5151813910840264e+00
    8.6002120500022761e-03 -1.5463842820677172e+00
    8.6002120500022761e-03 -1.5463842820677172e+00
    8.4967320261437902e-03 -1.5000000000000000e+00
    8.7975395779551300e-03 -1.6298006013006618e+00
    9.2484258035805521e-03 -1.8040358795061295e+00
    8.8861902845169746e-03 -1.6655910507645919e+00
    9.1359058637217484e-03 -1.7621756887140219e+00
    9.0308919627763717e-03 -1.7222374095679298e+00
    8.7146323175017245e-03 -1.5954480704349310e+00
    8.3741423167348235e-03 -1.4418555296634445e+00
    8.2195294682649196e-03 -1.3614912914100354e+00
    7.9603016671046887e-03 -1.1884322168388988e+00
    7.8780323441159875e-03 -1.0988845115895121e+00
    8.0285587756486060e-03 -8.0491448237912955e-01
    8.9810151219895835e-03 -5.8722021951470360e-01
    9.8677431477378064e-03 -4.9465225266224133e-01
    1.2694994866247956e-02 -3.4585723193303730e-01
    9.8677431477378064e-03 -4.9465225266224133e-01
    8.4644999917032494e-03 -6.7336182626305985e-01
    8.0442759853862084e-03 -7.9772403521746571e-01
    7.8534707735532453e-03 -9.4996790703172918e-01
    7.8780323441159875e-03 -1.0988845115895121e+00
    7.9376362934116072e-03 -1.1677484162422844e+00
    7.9272631994524809e-03 -1.1575836902790224e+00
    8.2430408509080472e-03 -1.3743685418725533e+00
    8.2927062590086500e-03 -1.4007231405440892e+00
    8.6752108696449958e-03 -1.5787771576232141e+00
    9.2484258035805521e-03 -1.8040358795061295e+00
    8.6370846612989285e-03 -1.5624264688580496e+00
    8.7553930298264783e-03 -1.6124515496597096e+00
    8.7553930298264783e-03 -1.6124515496597096e+00
    8.2430408509080472e-03 -1.3743685418725533e+00
    8.5300720681742367e-03 -1.5151813910840264e+00
    8.3460405066669678e-03 -1.4279219302752653e+00
    8.1968720720976725e-03 -1.3488058082740209e+00
    8.1968720720976725e-03 -1.3488058082740209e+00
    8.2927062590086500e-03 -1.4007231405440892e+00
    8.3189033080770299e-03 -1.4142135623730951e+00
    8.4032345003903879e-03 -1.4560219778561039e+00
    8.4644999917032494e-03 -1.4850856716212688e+00
    8.5645536249752199e-03 -1.5306394555404432e+00
    8.2195294682649196e-03 -1.3614912914100354e+00
    8.2927062590086500e-03 -1.4007231405440892e+00
    8.3741423167348235e-03 -1.4418555296634445e+00
    8.5300720681742367e-03 -1.5151813910840264e+00
    8.6752108696449958e-03 -1.5787771576232141e+00
    8.8411212578929851e-03 -1.6475089420958273e+00
    8.4967320261437902e-03 -1.5000000000000000e+00
    8.6002120500022761e-03 -1.5463842820677172e+00
    8.4644999917032494e-03 -1.4850856716212688e+00
    8.2195294682649196e-03 -1.3614912914100354e+00
    8.0285587756486077e-03 -1.2423680054112654e+00
    7.8847181281694947e-03 -1.1084094137869038e+00
    7.9726099492410923e-03 -8.3405765622829886e-01
    8.9810151219895835e-03 -5.8722021951470360e-01
    9.4987190853870352e-03 -5.2790957993785637e-01
    1.2925888601730254e-02 -3.3806170189140666e-01
    9.8677431477378064e-03 -4.9465225266224133e-01
    8.5300720681742350e-03 -6.5998698630040398e-01
    7.9855801724393327e-03 -8.2671230631343084e-01
    7.8477248913284055e-03 -9.6637689206678634e-01
    7.8719427626694604e-03 -1.0894566938848309e+00
    7.9376362934116072e-03 -1.1677484162422844e+00
    8.1338394094819782e-03 -1.3118423047600420e+00
    8.1540445500426374e-03 -1.3239868490550000e+00
    8.2927062590086500e-03 -1.4007231405440892e+00
    8.7553930298264783e-03 -1.6124515496597096e+00
    9.0308919627763717e-03 -1.7222374095679298e+00
    9.0824987400385110e-03 -1.7419766814227708e+00
    8.6752108696449958e-03 -1.5787771576232141e+00
    8.8411212578929851e-03 -1.6475089420958273e+00
    8.5645536249752199e-03 -1.5306394555404432e+00
    8.4967320261437902e-03 -1.5000000000000000e+00
    8.3741423167348235e-03 -1.4418555296634445e+00
    8.6752108696449958e-03 -1.5787771576232141e+00
    8.6752108696449958e-03 -1.5787771576232141e+00
    8.4644999917032494e-03 -1.4850856716212688e+00
    8.3741423167348235e-03 -1.4418555296634445e+00
    8.3460405066669678e-03 -1.4279219302752653e+00
    8.3460405066669678e-03 -1.4279219302752653e+00
    8.4333441946054417e-03 -1.4704292441876154e+00
    8.2674261282651307e-03 -1.3874436925511611e+00
    8.4967320261437902e-03 -1.5000000000000000e+00
    8.4333441946054417e-03 -1.4704292441876154e+00
    8.4967320261437902e-03 -1.5000000000000000e+00
    8.7975395779551300e-03 -1.6298006013006618e+00
    8.5645536249752199e-03 -1.5306394555404432e+00
    8.5300720681742367e-03 -1.5151813910840264e+00
    8.4644999917032494e-03 -1.4850856716212688e+00
    8.1540445500426374e-03 -1.3239868490550000e+00
    7.9992216783593712e-03 -1.2203940765702117e+00
    8.0607077612135161e-03 -1.2649110640673518e+00
    7.8780323441159875e-03 -1.0988845115895121e+00
    7.9855801724393327e-03 -8.2671230631343084e-01
    9.0308919627763735e-03 -5.8064004094004507e-01
    9.9503536849654371e-03 -4.8795003647426666e-01
    1.2478354962115544e-02 -3.5355339059327373e-01
    9.4327497145561545e-03 -5.3452248382484868e-01
    8.4032345003903879e-03 -6.8680281974344515e-01
    7.9083999646297042e-03 -8.7904907299153257e-01
    7.8503089771579538e-03 -9.5814027516081701e-01
    7.8503089771579538e-03 -1.0436885140144614e+00
    7.8920046264698458e-03 -1.1180339887498947e+00
    8.0442759853862084e-03 -1.2535663410560176e+00
    8.2674261282651307e-03 -1.3874436925511611e+00
    8.1750497526153348e-03 -1.3363062095621219e+00
    8.7553930298264783e-03 -1.6124515496597096e+00
    8.8411212578929851e-03 -1.6475089420958273e+00
    8.5300720681742367e-03 -1.5151813910840264e+00
    8.6370846612989285e-03 -1.5624264688580496e+00
    8.7975395779551300e-03 -1.6298006013006618e+00
    8.5645536249752199e-03 -1.5306394555404432e+00
    8.6370846612989285e-03 -1.5624264688580496e+00
    8.5645536249752199e-03 -1.5306394555404432e+00
    8.5300720681742367e-03 -1.5151813910840264e+00
    8.9810151219895818e-03 -1.7029386365926400e+00
    8.9328020033763254e-03 -1.6840622238416521e+00
    8.3741423167348235e-03 -1.4418555296634445e+00
    8.2430408509080472e-03 -1.3743685418725533e+00
    8.6002120500022761e-03 -1.5463842820677172e+00
    8.5300720681742367e-03 -1.5151813910840264e+00
    8.7146323175017245e-03 -1.5954480704349310e+00
    8.6752108696449958e-03 -1.5787771576232141e+00
    8.7553930298264783e-03 -1.6124515496597096e+00
    8.5645536249752199e-03 -1.5306394555404432e+00
    8.5300720681742367e-03 -1.5151813910840264e+00
    8.7146323175017245e-03 -1.5954480704349310e+00
    8.4032345003903879e-03 -1.4560219778561039e+00
    8.3189033080770299e-03 -1.4142135623730951e+00
    8.2430408509080472e-03 -1.3743685418725533e+00
    8.0607077612135161e-03 -1.2649110640673518e+00
    7.9486465348041890e-03 -1.1780301787479028e+00
    7.8719427626694604e-03 -1.0894566938848309e+00
    7.9272631994524809e-03 -8.6386842558136012e-01
    9.0308919627763735e-03 -5.8064004094004507e-01
    9.9503536849654371e-03 -4.8795003647426666e-01
    1.2082673807552475e-02 -3.6867645720480630e-01
    9.6381076509776467e-03 -5.1465023546566535e-01
    8.3189033080770299e-03 -7.0710678118654757e-01
    8.0285587756486060e-03 -8.0491448237912955e-01
    7.8572123719938027e-03 -9.4185814971977000e-01
    7.8847181281694947e-03 -1.1084094137869038e+00
    7.9083999646297025e-03 -1.1375929179890418e+00
    7.9855801724393327e-03 -1.2096106376585989e+00
    8.0778665199386680e-03 -1.2764064725415909e+00
    8.3460405066669678e-03 -1.4279219302752653e+00
    8.2927062590086500e-03 -1.4007231405440892e+00
    8.3189033080770299e-03 -1.4142135623730951e+00
    8.5300720681742367e-03 -1.5151813910840264e+00
    8.8411212578929851e-03 -1.6475089420958273e+00
    8.8861902845169746e-03 -1.6655910507645919e+00
    8.3189033080770299e-03 -1.4142135623730951e+00
    8.2927062590086500e-03 -1.4007231405440892e+00
    8.4644999917032494e-03 -1.4850856716212688e+00
    8.5300720681742367e-03 -1.5151813910840264e+00
    8.5645536249752199e-03 -1.5306394555404432e+00
    8.8861902845169746e-03 -1.6655910507645919e+00
    8.6752108696449958e-03 -1.5787771576232141e+00
    8.2195294682649196e-03 -1.3614912914100354e+00
    8.4333441946054417e-03 -1.4704292441876154e+00
    8.2430408509080472e-03 -1.3743685418725533e+00
    8.3189033080770299e-03 -1.4142135623730951e+00
    8.2927062590086500e-03 -1.4007231405440892e+00
    8.4032345003903879e-03 -1.4560219778561039e+00
    8.4032345003903879e-03 -1.4560219778561039e+00
    8.2195294682649196e-03 -1.3614912914100354e+00
    8.2927062590086500e-03 -1.4007231405440892e+00
    8.2195294682649196e-03 -1.3614912914100354e+00
    8.0957653695243655e-03 -1.2880570286640691e+00
    7.9992216783593712e-03 -1.2203940765702117e+00
    7.8780323441159875e-03 -1.0988845115895121e+00
    7.8719427626694604e-03 -1.0894566938848309e+00
    7.8442834097020159e-03 -9.8304961961329751e-01
    8.0285587756486060e-03 -8.0491448237912955e-01
    8.5645536249752182e-03 -6.5332171882823786e-01
    9.9503536849654371e-03 -4.8795003647426666e-01
    1.2694994866247956e-02 -3.4585723193303730e-01
    9.7117744176616252e-03 -5.0800050800076191e-01
    8.4644999917032494e-03 -6.7336182626305985e-01
    8.0285587756486060e-03 -8.0491448237912955e-01
    7.8847181281694947e-03 -9.0219370889631711e-01
    7.8457168100629446e-03 -1.0259783520851544e+00
    7.8847181281694947e-03 -1.1084094137869038e+00
    7.9855801724393327e-03 -1.2096106376585989e+00
    8.0957653695243655e-03 -1.2880570286640691e+00
    8.1144181388291565e-03 -1.2998673672393628e+00
    8.1750497526153348e-03 -1.3363062095621219e+00
    8.3460405066669678e-03 -1.4279219302752653e+00
    8.6370846612989285e-03 -1.5624264688580496e+00
    8.3460405066669678e-03 -1.4279219302752653e+00
    8.8861902845169746e-03 -1.6655910507645919e+00
    8.4967320261437902e-03 -1.5000000000000000e+00
    8.4967320261437902e-03 -1.5000000000000000e+00
    8.4333441946054417e-03 -1.4704292441876154e+00
    8.4333441946054417e-03 -1.4704292441876154e+00
    8.4644999917032494e-03 -1.4850856716212688e+00
    8.4032345003903879e-03 -1.4560219778561039e+00
    8.3741423167348235e-03 -1.4418555296634445e+00
    8.4644999917032494e-03 -1.4850856716212688e+00
    8.4333441946054417e-03 -1.4704292441876154e+00
    8.3460405066669678e-03 -1.4279219302752653e+00
    8.3189033080770299e-03 -1.4142135623730951e+00
    8.4333441946054417e-03 -1.4704292441876154e+00
    8.2195294682649196e-03 -1.3614912914100354e+00
    8.4032345003903879e-03 -1.4560219778561039e+00
    8.1968720720976725e-03 -1.3488058082740209e+00
    7.9992216783593712e-03 -1.2203940765702117e+00
    8.0285587756486077e-03 -1.2423680054112654e+00
    8.0285587756486077e-03 -1.2423680054112654e+00
    7.9992216783593712e-03 -1.2203940765702117e+00
    7.8780323441159875e-03 -1.0988845115895121e+00
    7.8719427626694604e-03 -1.0894566938848309e+00
    7.8457168100629429e-03 -9.7467943448089633e-01
    7.9726099492410923e-03 -8.3405765622829886e-01
    8.4644999917032494e-03 -6.7336182626305985e-01
    9.6381076509776467e-03 -5.1465023546566535e-01
    1.4716771567578694e-02 -2.8867513459481287e-01
    1.0417051622513818e-02 -4.5407660918649978e-01
    8.8861902845169746e-03 -6.0038747178723662e-01
    8.0778665199386680e-03 -7.8344949004276954e-01
    7.9486465348041890e-03 -8.4887468762716534e-01
    7.8442834097020159e-03 -9.8304961961329751e-01
    7.8503089771579538e-03 -1.0436885140144614e+00
    7.9603016671046887e-03 -1.1884322168388988e+00
    8.1338394094819782e-03 -1.3118423047600420e+00
    8.1540445500426374e-03 -1.3239868490550000e+00
    8.0442759853862084e-03 -1.2535663410560176e+00
    8.2674261282651307e-03 -1.3874436925511611e+00
    8.4333441946054417e-03 -1.4704292441876154e+00
    8.5300720681742367e-03 -1.5151813910840264e+00
    8.4644999917032494e-03 -1.4850856716212688e+00
    8.5645536249752199e-03 -1.5306394555404432e+00
    8.4333441946054417e-03 -1.4704292441876154e+00
    8.4644999917032494e-03 -1.4850856716212688e+00
    8.5300720681742367e-03 -1.5151813910840264e+00
    8.4967320261437902e-03 -1.5000000000000000e+00
    8.6002120500022761e-03 -1.5463842820677172e+00
    8.4333441946054417e-03 -1.4704292441876154e+00
    8.3460405066669678e-03 -1.4279219302752653e+00
    8.4644999917032494e-03 -1.4850856716212688e+00
    8.4333441946054417e-03 -1.4704292441876154e+00
    8.3460405066669678e-03 -1.4279219302752653e+00
    8.5300720681742367e-03 -1.5151813910840264e+00
    8.3189033080770299e-03 -1.4142135623730951e+00
    8.2674261282651307e-03 -1.3874436925511611e+00
    8.2195294682649196e-03 -1.3614912914100354e+00
    8.2430408509080472e-03 -1.3743685418725533e+00
    7.9855801724393327e-03 -1.2096106376585989e+00
    8.0135443785990593e-03 -1.2313119150962786e+00
    7.9855801724393327e-03 -1.2096106376585989e+00
    7.8780323441159875e-03 -1.0988845115895121e+00
    7.8442834097020159e-03 -9.8304961961329751e-01
    7.8615362532925438e-03 -9.3380940239430021e-01
    8.0607077612135179e-03 -7.9056941504209499e-01
    8.6370846612989303e-03 -6.4003011977317714e-01
    1.0218812190769167e-02 -4.6770717334674261e-01
    1.6534852256530258e-02 -2.5226248955475650e-01
    1.0218812190769167e-02 -4.6770717334674261e-01
    8.8411212578929886e-03 -6.0697697866688405e-01
    8.4333441946054417e-03 -6.8007352543677213e-01
    7.9726099492410923e-03 -8.3405765622829886e-01
    7.8442834097020159e-03 -9.8304961961329751e-01
    7.8847181281694947e-03 -1.1084094137869038e+00
    7.9992216783593712e-03 -1.2203940765702117e+00
    7.9726099492410957e-03 -1.1989578808281802e+00
    8.0778665199386680e-03 -1.2764064725415909e+00
    8.0135443785990593e-03 -1.2313119150962786e+00
    8.1540445500426374e-03 -1.3239868490550000e+00
    8.4333441946054417e-03 -1.4704292441876154e+00
    8.6002120500022761e-03 -1.5463842820677172e+00
    8.7975395779551300e-03 -1.6298006013006618e+00
    9.0308919627763717e-03 -1.7222374095679298e+00
    8.6370846612989285e-03 -1.5624264688580496e+00
    8.7553930298264783e-03 -1.6124515496597096e+00
    8.6002120500022761e-03 -1.5463842820677172e+00
    8.4967320261437902e-03 -1.5000000000000000e+00
    8.6370846612989285e-03 -1.5624264688580496e+00
    8.4967320261437902e-03 -1.5000000000000000e+00
    8.5645536249752199e-03 -1.5306394555404432e+00
    8.3460405066669678e-03 -1.4279219302752653e+00
    8.2674261282651307e-03 -1.3874436925511611e+00
    8.0778665199386680e-03 -1.2764064725415909e+00
    8.4644999917032494e-03 -1.4850856716212688e+00
    8.4967320261437902e-03 -1.5000000000000000e+00
    8.1144181388291565e-03 -1.2998673672393628e+00
    8.0778665199386680e-03 -1.2764064725415909e+00
    8.0285587756486077e-03 -1.2423680054112654e+00
    7.9726099492410957e-03 -1.1989578808281802e+00
    8.0135443785990593e-03 -1.2313119150962786e+00
    7.9272631994524809e-03 -1.1575836902790224e+00
    7.8503089771579538e-03 -1.0436885140144614e+00
    7.8664452921850779e-03 -1.0801234497346435e+00
    7.8572123719938027e-03 -9.4185814971977000e-01
    7.9726099492410923e-03 -8.3405765622829886e-01
    8.5645536249752182e-03 -6.5332171882823786e-01
    1.0218812190769167e-02 -4.6770717334674261e-01
    1.6010614102759477e-02 -2.6171196129510688e-01
    1.1730052770606842e-02 -3.8348249442368521e-01
    9.3077035915910579e-03 -5.4772255750516607e-01
    8.5645536249752182e-03 -6.5332171882823786e-01
    8.0778665199386680e-03 -7.8344949004276954e-01
    7.9272631994524809e-03 -8.6386842558136012e-01
    7.8719427626694604e-03 -1.0894566938848309e+00
    7.9726099492410957e-03 -1.1989578808281802e+00
    8.1144181388291565e-03 -1.2998673672393628e+00
    8.0442759853862084e-03 -1.2535663410560176e+00
    8.2430408509080472e-03 -1.3743685418725533e+00
    8.4333441946054417e-03 -1.4704292441876154e+00
    8.6752108696449958e-03 -1.5787771576232141e+00
    8.7553930298264783e-03 -1.6124515496597096e+00
    8.6752108696449958e-03 -1.5787771576232141e+00
    8.7553930298264783e-03 -1.6124515496597096e+00
    8.8411212578929851e-03 -1.6475089420958273e+00
    8.7553930298264783e-03 -1.6124515496597096e+00
    8.8411212578929851e-03 -1.6475089420958273e+00
    8.6002120500022761e-03 -1.5463842820677172e+00
    8.3741423167348235e-03 -1.4418555296634445e+00
    8.2927062590086500e-03 -1.4007231405440892e+00
    8.4333441946054417e-03 -1.4704292441876154e+00
    8.1750497526153348e-03 -1.3363062095621219e+00
    8.1968720720976725e-03 -1.3488058082740209e+00
    8.2927062590086500e-03 -1.4007231405440892e+00
    8.1968720720976725e-03 -1.3488058082740209e+00
    8.1338394094819782e-03 -1.3118423047600420e+00
    8.1144181388291565e-03 -1.2998673672393628e+00
    8.2430408509080472e-03 -1.3743685418725533e+00
    8.0442759853862084e-03 -1.2535663410560176e+00
    7.9992216783593712e-03 -1.2203940765702117e+00
    8.0285587756486077e-03 -1.2423680054112654e+00
    7.9855801724393327e-03 -1.2096106376585989e+00
    7.8998967792193817e-03 -1.1277609055975359e+00
    7.8431372549019607e-03 -1. 7.8998967792193817e-03
    -8.8671277310340624e-01 8.0135443785990575e-03
    -8.1214190144648135e-01 8.8411212578929886e-03
    -6.0697697866688405e-01 1.0036274665372045e-02
    -4.8122650318578780e-01 1.7779050631407653e-02
    -2.3249527748763854e-01 1.2274636000901959e-02
    -3.6115755925730764e-01 9.7117744176616252e-03
    -5.0800050800076191e-01 8.4333441946054417e-03
    -6.8007352543677213e-01 8.0285587756486060e-03
    -8.0491448237912955e-01 7.9083999646297042e-03
    -8.7904907299153257e-01 7.8615362532925438e-03
    -9.3380940239430021e-01 7.8847181281694947e-03
    -1.1084094137869038e+00 7.9486465348041890e-03
    -1.1780301787479028e+00 8.0607077612135161e-03
    -1.2649110640673518e+00 8.1338394094819782e-03
    -1.3118423047600420e+00 8.1750497526153348e-03
    -1.3363062095621219e+00 8.4032345003903879e-03
    -1.4560219778561039e+00 8.3741423167348235e-03
    -1.4418555296634445e+00 8.8411212578929851e-03
    -1.6475089420958273e+00 8.8411212578929851e-03
    -1.6475089420958273e+00 8.3460405066669678e-03
    -1.4279219302752653e+00 8.6370846612989285e-03
    -1.5624264688580496e+00 8.6370846612989285e-03
    -1.5624264688580496e+00 8.7146323175017245e-03
    -1.5954480704349310e+00 8.6370846612989285e-03
    -1.5624264688580496e+00 8.4333441946054417e-03
    -1.4704292441876154e+00 8.3460405066669678e-03
    -1.4279219302752653e+00 8.3189033080770299e-03
    -1.4142135623730951e+00 8.2674261282651307e-03
    -1.3874436925511611e+00 8.2430408509080472e-03
    -1.3743685418725533e+00 8.1540445500426374e-03
    -1.3239868490550000e+00 8.3460405066669678e-03
    -1.4279219302752653e+00 8.3460405066669678e-03
    -1.4279219302752653e+00 8.2195294682649196e-03
    -1.3614912914100354e+00 8.1540445500426374e-03
    -1.3239868490550000e+00 8.1540445500426374e-03
    -1.3239868490550000e+00 7.9603016671046887e-03
    -1.1884322168388988e+00 7.8664452921850779e-03
    -1.0801234497346435e+00 7.8572123719938027e-03
    -1.0617310051386499e+00 7.8572123719938027e-03
    -9.4185814971977000e-01 7.9175200092836788e-03
    -8.7143473435513319e-01 8.3189033080770299e-03
    -7.0710678118654757e-01 8.9810151219895835e-03
    -5.8722021951470360e-01 1.0417051622513818e-02
    -4.5407660918649978e-01 1.5108500015584605e-02
    -2.7989464772461226e-01 1.2694994866247956e-02
    -3.4585723193303730e-01 1.0036274665372045e-02
    -4.8122650318578780e-01 8.9810151219895835e-03
    -5.8722021951470360e-01 8.1540445500426391e-03
    -7.5529451120587265e-01 8.0285587756486060e-03
    -8.0491448237912955e-01 7.8920046264698458e-03
    -8.9442719099991586e-01 7.8457168100629429e-03
    -9.7467943448089633e-01 7.8998967792193817e-03
    -1.1277609055975359e+00 7.9603016671046887e-03
    -1.1884322168388988e+00 8.1144181388291565e-03
    -1.2998673672393628e+00 7.9726099492410957e-03
    -1.1989578808281802e+00 8.0285587756486077e-03
    -1.2423680054112654e+00 8.1540445500426374e-03
    -1.3239868490550000e+00 8.4032345003903879e-03
    -1.4560219778561039e+00 8.2927062590086500e-03
    -1.4007231405440892e+00 8.2927062590086500e-03
    -1.4007231405440892e+00 8.3741423167348235e-03
    -1.4418555296634445e+00 8.4967320261437902e-03
    -1.5000000000000000e+00 8.2674261282651307e-03
    -1.3874436925511611e+00 8.2430408509080472e-03
    -1.3743685418725533e+00 8.2430408509080472e-03
    -1.3743685418725533e+00 8.2430408509080472e-03
    -1.3743685418725533e+00 8.2927062590086500e-03
    -1.4007231405440892e+00 8.3189033080770299e-03
    -1.4142135623730951e+00 8.2674261282651307e-03
    -1.3874436925511611e+00 8.3741423167348235e-03
    -1.4418555296634445e+00 8.1968720720976725e-03
    -1.3488058082740209e+00 8.0442759853862084e-03
    -1.2535663410560176e+00 8.1338394094819782e-03
    -1.3118423047600420e+00 8.1338394094819782e-03
    -1.3118423047600420e+00 8.0607077612135161e-03
    -1.2649110640673518e+00 7.9726099492410957e-03
    -1.1989578808281802e+00 7.8719427626694604e-03
    -1.0894566938848309e+00 7.8457168100629429e-03
    -9.7467943448089633e-01 7.8998967792193817e-03
    -8.8671277310340624e-01 8.0607077612135179e-03
    -7.9056941504209499e-01 8.6752108696449958e-03
    -6.3340161413625962e-01 9.3077035915910579e-03
    -5.4772255750516607e-01 1.2478354962115544e-02
    -3.5355339059327373e-01 1.4026644576537633e-02
    -3.0570892025787150e-01 1.2925888601730254e-02
    -3.3806170189140666e-01 1.0218812190769167e-02
    -4.6770717334674261e-01 9.2484258035805539e-03
    -5.5431270040691139e-01 8.5300720681742350e-03
    -6.5998698630040398e-01 8.1338394094819782e-03
    -7.6228674465786228e-01 7.9175200092836788e-03
    -8.7143473435513319e-01 7.8572123719938027e-03
    -9.4185814971977000e-01 7.8442834097020141e-03
    -1.0172426498607163e+00 7.8920046264698458e-03
    -1.1180339887498947e+00 7.9175200092836788e-03
    -1.1475328680122050e+00 7.9855801724393327e-03
    -1.2096106376585989e+00 8.1968720720976725e-03
    -1.3488058082740209e+00 8.2927062590086500e-03
    -1.4007231405440892e+00 8.4032345003903879e-03
    -1.4560219778561039e+00 8.4967320261437902e-03
    -1.5000000000000000e+00 8.3741423167348235e-03
    -1.4418555296634445e+00 8.3189033080770299e-03
    -1.4142135623730951e+00 8.3460405066669678e-03
    -1.4279219302752653e+00 8.2674261282651307e-03
    -1.3874436925511611e+00 8.1540445500426374e-03
    -1.3239868490550000e+00 8.0607077612135161e-03
    -1.2649110640673518e+00 8.2674261282651307e-03
    -1.3874436925511611e+00 8.2674261282651307e-03
    -1.3874436925511611e+00 8.4967320261437902e-03
    -1.5000000000000000e+00 8.3189033080770299e-03
    -1.4142135623730951e+00 8.1750497526153348e-03
    -1.3363062095621219e+00 8.2195294682649196e-03
    -1.3614912914100354e+00 8.1338394094819782e-03
    -1.3118423047600420e+00 8.0285587756486077e-03
    -1.2423680054112654e+00 8.1144181388291565e-03
    -1.2998673672393628e+00 8.0442759853862084e-03
    -1.2535663410560176e+00 7.8998967792193817e-03
    -1.1277609055975359e+00 7.8664452921850779e-03
    -1.0801234497346435e+00 7.8719427626694621e-03
    -9.1788871059588151e-01 8.0442759853862084e-03
    -7.9772403521746571e-01 8.3460405066669678e-03
    -7.0031839892481162e-01 8.6370846612989303e-03
    -6.4003011977317714e-01 9.3077035915910579e-03
    -5.4772255750516607e-01 1.2694994866247956e-02
    -3.4585723193303730e-01 1.9388832902595382e-02
    -2.1128856368212917e-01 1.3720698711085496e-02
    -3.1399291281137959e-01 1.0633000712772671e-02
    -4.4031528592635544e-01 9.2484258035805539e-03
    -5.5431270040691139e-01 8.8861902845169746e-03
    -6.0038747178723662e-01 8.2674261282651290e-03
    -7.2074997015644715e-01 7.9175200092836788e-03
    -8.7143473435513319e-01 7.8615362532925438e-03
    -9.3380940239430021e-01 7.8434237465008702e-03
    -9.9148920692946896e-01 7.8457168100629446e-03
    -1.0259783520851544e+00 7.9855801724393327e-03
    -1.2096106376585989e+00 7.9486465348041890e-03
    -1.1780301787479028e+00 8.0285587756486077e-03
    -1.2423680054112654e+00 8.3189033080770299e-03
    -1.4142135623730951e+00 8.0957653695243655e-03
    -1.2880570286640691e+00 8.3460405066669678e-03
    -1.4279219302752653e+00 8.3460405066669678e-03
    -1.4279219302752653e+00 8.1968720720976725e-03
    -1.3488058082740209e+00 8.1540445500426374e-03
    -1.3239868490550000e+00 8.1968720720976725e-03
    -1.3488058082740209e+00 8.0442759853862084e-03
    -1.2535663410560176e+00 8.1750497526153348e-03
    -1.3363062095621219e+00 8.1338394094819782e-03
    -1.3118423047600420e+00 8.1968720720976725e-03
    -1.3488058082740209e+00 8.1338394094819782e-03
    -1.3118423047600420e+00 8.2195294682649196e-03
    -1.3614912914100354e+00 8.1750497526153348e-03
    -1.3363062095621219e+00 8.1338394094819782e-03
    -1.3118423047600420e+00 8.0607077612135161e-03
    -1.2649110640673518e+00 7.9992216783593712e-03
    -1.2203940765702117e+00 7.9992216783593712e-03
    -1.2203940765702117e+00 7.8534707735532453e-03
    -1.0526671402243486e+00 7.8457168100629446e-03
    -1.0259783520851544e+00 7.8615362532925438e-03
    -9.3380940239430021e-01 8.0135443785990575e-03
    -8.1214190144648135e-01 8.1540445500426391e-03
    -7.5529451120587265e-01 8.5645536249752182e-03
    -6.5332171882823786e-01 8.6752108696449958e-03
    -6.3340161413625962e-01 1.0036274665372045e-02
    -4.8122650318578780e-01 1.2274636000901959e-02
    -3.6115755925730764e-01 1.6534852256530258e-02
    -2.5226248955475650e-01 1.3436817113905581e-02
    -3.2213907696158250e-01 1.1901446467471004e-02
    -3.7611622490148749e-01 9.6381076509776467e-03
    -5.1465023546566535e-01 8.9328020033763271e-03
    -5.9380228701931104e-01 8.4333441946054417e-03
    -6.8007352543677213e-01 8.2430408509080490e-03
    -7.2760687510899902e-01 7.9855801724393327e-03
    -8.2671230631343084e-01 7.9726099492410923e-03
    -8.3405765622829886e-01 7.8434237465008685e-03
    -1.0085838484282528e+00 7.8615362532925438e-03
    -1.0708823421952984e+00 7.8457168100629429e-03
    -9.7467943448089633e-01 7.8572123719938027e-03
    -1.0617310051386499e+00 7.9726099492410957e-03
    -1.1989578808281802e+00 8.2430408509080472e-03
    -1.3743685418725533e+00 8.3460405066669678e-03
    -1.4279219302752653e+00 8.3189033080770299e-03
    -1.4142135623730951e+00 8.2927062590086500e-03
    -1.4007231405440892e+00 8.1144181388291565e-03
    -1.2998673672393628e+00 8.0442759853862084e-03
    -1.2535663410560176e+00 8.0778665199386680e-03
    -1.2764064725415909e+00 8.1968720720976725e-03
    -1.3488058082740209e+00 8.0285587756486077e-03
    -1.2423680054112654e+00 7.9726099492410957e-03
    -1.1989578808281802e+00 7.9486465348041890e-03
    -1.1780301787479028e+00 8.1338394094819782e-03
    -1.3118423047600420e+00 8.1144181388291565e-03
    -1.2998673672393628e+00 7.9083999646297025e-03
    -1.1375929179890418e+00 8.0285587756486077e-03
    -1.2423680054112654e+00 7.8998967792193817e-03
    -1.1277609055975359e+00 8.0778665199386680e-03
    -1.2764064725415909e+00 7.8615362532925438e-03
    -1.0708823421952984e+00 7.8431372549019607e-03 -1.
    7.8719427626694621e-03 -9.1788871059588151e-01
    8.0957653695243638e-03 -7.7636314056464417e-01
    8.3741423167348235e-03 -6.9355076110393532e-01
    8.6752108696449958e-03 -6.3340161413625962e-01
    9.1911882730544570e-03 -5.6089815615050276e-01
    1.0995503385357668e-02 -4.1937977655691105e-01
    1.3436817113905581e-02 -3.2213907696158250e-01
    1.9388832902595382e-02 -2.1128856368212917e-01
    1.4026644576537633e-02 -3.0570892025787150e-01
    1.2694994866247956e-02 -3.4585723193303730e-01
    1.0218812190769167e-02 -4.6770717334674261e-01
    9.1359058637217484e-03 -5.6748030653502401e-01
    8.9328020033763271e-03 -5.9380228701931104e-01
    8.6370846612989303e-03 -6.4003011977317714e-01
    8.4032345003903879e-03 -6.8680281974344515e-01
    8.0442759853862084e-03 -7.9772403521746571e-01
    7.9726099492410923e-03 -8.3405765622829886e-01
    7.9603016671046870e-03 -8.4144470827279672e-01
    7.9603016671046870e-03 -8.4144470827279672e-01
    7.8431372549019607e-03 -1. 7.8434237465008685e-03
    -1.0085838484282528e+00 7.9486465348041890e-03
    -1.1780301787479028e+00 8.1968720720976725e-03
    -1.3488058082740209e+00 8.2195294682649196e-03
    -1.3614912914100354e+00 8.2927062590086500e-03
    -1.4007231405440892e+00 8.0957653695243655e-03
    -1.2880570286640691e+00 8.1540445500426374e-03
    -1.3239868490550000e+00 8.0957653695243655e-03
    -1.2880570286640691e+00 8.1750497526153348e-03
    -1.3363062095621219e+00 8.2430408509080472e-03
    -1.3743685418725533e+00 8.0285587756486077e-03
    -1.2423680054112654e+00 7.9376362934116072e-03
    -1.1677484162422844e+00 8.0285587756486077e-03
    -1.2423680054112654e+00 7.9376362934116072e-03
    -1.1677484162422844e+00 7.9603016671046887e-03
    -1.1884322168388988e+00 7.9603016671046887e-03
    -1.1884322168388988e+00 7.9376362934116072e-03
    -1.1677484162422844e+00 7.8780323441159875e-03
    -1.0988845115895121e+00 7.8434237465008685e-03
    -1.0085838484282528e+00 7.8477248913284055e-03
    -9.6637689206678634e-01 7.9855801724393327e-03
    -8.2671230631343084e-01 8.1144181388291565e-03
    -7.6930925816207196e-01 8.6002120500022726e-03
    -6.4666979068286323e-01 9.4987190853870352e-03
    -5.2790957993785637e-01 9.8677431477378064e-03
    -4.9465225266224133e-01 1.2478354962115544e-02
    -3.5355339059327373e-01 1.4026644576537633e-02
    -3.0570892025787150e-01 2.0392156862745096e-02
    -1.9999999999999998e-01 1.5537725292744270e-02
    -2.7091418459143851e-01 1.2694994866247956e-02
    -3.4585723193303730e-01 9.7882700969176405e-03
    -5.0133511586135859e-01 9.4987190853870352e-03
    -5.2790957993785637e-01 9.2484258035805539e-03
    -5.5431270040691139e-01 8.7553930298264783e-03
    -6.2017367294604220e-01 8.7975395779551317e-03
    -6.1357199107789628e-01 8.2430408509080490e-03
    -7.2760687510899902e-01 8.0607077612135179e-03
    -7.9056941504209499e-01 8.0778665199386680e-03
    -7.8344949004276954e-01 7.9603016671046870e-03
    -8.4144470827279672e-01 7.9272631994524809e-03
    -8.6386842558136012e-01 7.8477248913284055e-03
    -9.6637689206678634e-01 7.8615362532925438e-03
    -1.0708823421952984e+00 7.8847181281694947e-03
    -1.1084094137869038e+00 7.8998967792193817e-03
    -1.1277609055975359e+00 7.8719427626694604e-03
    -1.0894566938848309e+00 7.9083999646297025e-03
    -1.1375929179890418e+00 8.0285587756486077e-03
    -1.2423680054112654e+00 8.0778665199386680e-03
    -1.2764064725415909e+00 8.0957653695243655e-03
    -1.2880570286640691e+00 8.0778665199386680e-03
    -1.2764064725415909e+00 8.0607077612135161e-03
    -1.2649110640673518e+00 7.9272631994524809e-03
    -1.1575836902790224e+00 7.8572123719938027e-03
    -1.0617310051386499e+00 7.8434237465008685e-03
    -1.0085838484282528e+00 7.8998967792193817e-03
    -1.1277609055975359e+00 7.8534707735532453e-03
    -1.0526671402243486e+00 7.8442834097020141e-03
    -1.0172426498607163e+00 7.8503089771579538e-03
    -9.5814027516081701e-01 7.9083999646297042e-03
    -8.7904907299153257e-01 8.1338394094819782e-03
    -7.6228674465786228e-01 8.1540445500426391e-03
    -7.5529451120587265e-01 8.4644999917032494e-03
    -6.7336182626305985e-01 9.1911882730544570e-03
    -5.6089815615050276e-01 9.4327497145561545e-03
    -5.3452248382484868e-01 1.0995503385357668e-02
    -4.1937977655691105e-01 1.2925888601730254e-02
    -3.3806170189140666e-01 1.5108500015584605e-02
    -2.7989464772461226e-01 2.0392156862745096e-02
    -1.9999999999999998e-01 1.8527930069189780e-02
    -2.2209762326528776e-01 1.2478354962115544e-02
    -3.5355339059327373e-01 1.0218812190769167e-02
    -4.6770717334674261e-01 9.7117744176616252e-03
    -5.0800050800076191e-01 9.7117744176616252e-03
    -5.0800050800076191e-01 9.2484258035805539e-03
    -5.5431270040691139e-01 9.0824987400385110e-03
    -5.7406049728704944e-01 8.5645536249752182e-03
    -6.5332171882823786e-01 8.4644999917032494e-03
    -6.7336182626305985e-01 8.2430408509080490e-03
    -7.2760687510899902e-01 8.1144181388291565e-03
    -7.6930925816207196e-01 7.9855801724393327e-03
    -8.2671230631343084e-01 7.8572123719938027e-03
    -9.4185814971977000e-01 7.8920046264698458e-03
    -8.9442719099991586e-01 7.8998967792193817e-03
    -8.8671277310340624e-01 7.8534707735532453e-03
    -1.0526671402243486e+00 7.8477248913284055e-03
    -1.0347929552219570e+00 7.8615362532925438e-03
    -1.0708823421952984e+00 7.8847181281694947e-03
    -1.1084094137869038e+00 7.8998967792193817e-03
    -1.1277609055975359e+00 7.9992216783593712e-03
    -1.2203940765702117e+00 8.0285587756486077e-03
    -1.2423680054112654e+00 7.9083999646297025e-03
    -1.1375929179890418e+00 7.8847181281694947e-03
    -1.1084094137869038e+00 7.8719427626694604e-03
    -1.0894566938848309e+00 7.8477248913284055e-03
    -1.0347929552219570e+00 7.8615362532925438e-03
    -1.0708823421952984e+00 7.8434237465008702e-03
    -9.9148920692946896e-01 7.8920046264698458e-03
    -8.9442719099991586e-01 8.1144181388291565e-03
    -7.6930925816207196e-01 8.2674261282651290e-03
    -7.2074997015644715e-01 8.3189033080770299e-03
    -7.0710678118654757e-01 8.4967320261437902e-03
    -6.6666666666666663e-01 8.8861902845169746e-03
    -6.0038747178723662e-01 9.4327497145561545e-03
    -5.3452248382484868e-01 9.7117744176616252e-03
    -5.0800050800076191e-01 1.1567694516307401e-02
    -3.9078044936500006e-01 1.3720698711085496e-02
    -3.1399291281137959e-01 1.4716771567578694e-02
    -2.8867513459481287e-01 2.4810334996469566e-02
    -1.6222142113076254e-01 2.0392156862745096e-02
    -1.9999999999999998e-01 1.3436817113905581e-02
    -3.2213907696158250e-01 1.2082673807552475e-02
    -3.6867645720480630e-01 1.0869056127933079e-02
    -4.2640143271122083e-01 1.0125693224957290e-02
    -4.7447959919511407e-01 9.8677431477378064e-03
    -4.9465225266224133e-01 9.8677431477378064e-03
    -4.9465225266224133e-01 9.2484258035805539e-03
    -5.5431270040691139e-01 9.1911882730544570e-03
    -5.6089815615050276e-01 9.1911882730544570e-03
    -5.6089815615050276e-01 8.3741423167348235e-03
    -6.9355076110393532e-01 8.2927062590086482e-03
    -7.1391695550311629e-01 8.1750497526153348e-03
    -7.4833147735478833e-01 8.1338394094819782e-03
    -7.6228674465786228e-01 7.9175200092836788e-03
    -8.7143473435513319e-01 7.8572123719938027e-03
    -9.4185814971977000e-01 7.8615362532925438e-03
    -1.0708823421952984e+00 7.8442834097020141e-03
    -1.0172426498607163e+00 7.8719427626694604e-03
    -1.0894566938848309e+00 7.8664452921850779e-03
    -1.0801234497346435e+00 7.8780323441159875e-03
    -1.0988845115895121e+00 7.8664452921850779e-03
    -1.0801234497346435e+00 7.8615362532925438e-03
    -1.0708823421952984e+00 7.8457168100629429e-03
    -9.7467943448089633e-01 7.8615362532925438e-03
    -9.3380940239430021e-01 7.8920046264698458e-03
    -8.9442719099991586e-01 7.9175200092836788e-03
    -8.7143473435513319e-01 7.9376362934116072e-03
    -8.5634883857767530e-01 7.9603016671046870e-03
    -8.4144470827279672e-01 8.3189033080770299e-03
    -7.0710678118654757e-01 8.3460405066669678e-03
    -7.0031839892481162e-01 8.5300720681742350e-03
    -6.5998698630040398e-01 8.7975395779551317e-03
    -6.1357199107789628e-01 9.4987190853870352e-03
    -5.2790957993785637e-01 1.0036274665372045e-02
    -4.8122650318578780e-01 1.0633000712772671e-02
    -4.4031528592635544e-01 1.3436817113905581e-02
    -3.2213907696158250e-01 1.4026644576537633e-02
    -3.0570892025787150e-01 1.6534852256530258e-02
    -2.5226248955475650e-01 3.0253927602865525e-02
    -1.3187609467915740e-01 1.7120161767270561e-02
    -2.4253562503633294e-01 1.6010614102759477e-02
    -2.6171196129510688e-01 1.4716771567578694e-02
    -2.8867513459481287e-01 1.2082673807552475e-02
    -3.6867645720480630e-01 1.0748347571617741e-02
    -4.3337888606074093e-01 1.0522672835293128e-02
    -4.4721359549995793e-01 1.0995503385357668e-02
    -4.1937977655691105e-01 1.0417051622513818e-02
    -4.5407660918649978e-01 9.8677431477378064e-03
    -4.9465225266224133e-01 1.0315851794782820e-02
    -4.6090696801048886e-01 9.3077035915910579e-03
    -5.4772255750516607e-01 8.6002120500022726e-03
    -6.4666979068286323e-01 8.3741423167348235e-03
    -6.9355076110393532e-01 8.2430408509080490e-03
    -7.2760687510899902e-01 8.0135443785990575e-03
    -8.1214190144648135e-01 7.9855801724393327e-03
    -8.2671230631343084e-01 7.9272631994524809e-03
    -8.6386842558136012e-01 7.8477248913284055e-03
    -9.6637689206678634e-01 7.8503089771579538e-03
    -9.5814027516081701e-01 7.8457168100629446e-03
    -1.0259783520851544e+00 7.8434237465008702e-03
    -9.9148920692946896e-01 7.8615362532925438e-03
    -9.3380940239430021e-01 7.8719427626694621e-03
    -9.1788871059588151e-01 7.8572123719938027e-03
    -9.4185814971977000e-01 7.9376362934116072e-03
    -8.5634883857767530e-01 7.9486465348041890e-03
    -8.4887468762716534e-01 8.1540445500426391e-03
    -7.5529451120587265e-01 8.3189033080770299e-03
    -7.0710678118654757e-01 8.3460405066669678e-03
    -7.0031839892481162e-01 8.4032345003903879e-03
    -6.8680281974344515e-01 8.9810151219895835e-03
    -5.8722021951470360e-01 9.4327497145561545e-03
    -5.3452248382484868e-01 9.8677431477378064e-03
    -4.9465225266224133e-01 1.0218812190769167e-02
    -4.6770717334674261e-01 1.0036274665372045e-02
    -4.8122650318578780e-01 1.1413661887702816e-02
    -3.9801487608399561e-01 1.2694994866247956e-02
    -3.4585723193303730e-01 1.5108500015584605e-02
    -2.7989464772461226e-01 1.7779050631407653e-02
    -2.3249527748763854e-01 3.4858529270006905e-02
    -1.1396057645963796e-01 2.7118953950654265e-02
    -1.4776353114138543e-01 2.0392156862745096e-02
    -1.9999999999999998e-01 1.7120161767270561e-02
    -2.4253562503633294e-01 1.4026644576537633e-02
    -3.0570892025787150e-01 1.2694994866247956e-02
    -3.4585723193303730e-01 1.1730052770606842e-02
    -3.8348249442368521e-01 1.1901446467471004e-02
    -3.7611622490148749e-01 1.2274636000901959e-02
    -3.6115755925730764e-01 1.0995503385357668e-02
    -4.1937977655691105e-01 1.0633000712772671e-02
    -4.4031528592635544e-01 1.1128105148725866e-02
    -4.1231056256176607e-01 1.0869056127933079e-02
    -4.2640143271122083e-01 9.2484258035805539e-03
    -5.5431270040691139e-01 8.8411212578929886e-03
    -6.0697697866688405e-01 8.3741423167348235e-03
    -6.9355076110393532e-01 8.1750497526153348e-03
    -7.4833147735478833e-01 8.0778665199386680e-03
    -7.8344949004276954e-01 8.0285587756486060e-03
    -8.0491448237912955e-01 7.8920046264698458e-03
    -8.9442719099991586e-01 7.8920046264698458e-03
    -8.9442719099991586e-01 7.8664452921850779e-03
    -9.2582009977255153e-01 7.9272631994524809e-03
    -8.6386842558136012e-01 7.8719427626694621e-03
    -9.1788871059588151e-01 7.9726099492410923e-03
    -8.3405765622829886e-01 7.9855801724393327e-03
    -8.2671230631343084e-01 8.2927062590086482e-03
    -7.1391695550311629e-01 8.4333441946054417e-03
    -6.8007352543677213e-01 8.5300720681742350e-03
    -6.5998698630040398e-01 8.6370846612989303e-03
    -6.4003011977317714e-01 9.2484258035805539e-03
    -5.5431270040691139e-01 9.4987190853870352e-03
    -5.2790957993785637e-01 1.0633000712772671e-02
    -4.4031528592635544e-01 1.0748347571617741e-02
    -4.3337888606074093e-01 1.0417051622513818e-02
    -4.5407660918649978e-01 1.0995503385357668e-02
    -4.1937977655691105e-01 1.2694994866247956e-02
    -3.4585723193303730e-01 1.3720698711085496e-02
    -3.1399291281137959e-01 1.7120161767270561e-02
    -2.4253562503633294e-01 2.7118953950654265e-02
    -1.4776353114138543e-01 3.4858529270006905e-02
    -1.1396057645963796e-01 3.0253927602865525e-02
    -1.3187609467915740e-01 2.4810334996469566e-02
    -1.6222142113076254e-01 1.7120161767270561e-02
    -2.4253562503633294e-01 1.5537725292744270e-02
    -2.7091418459143851e-01 1.5108500015584605e-02
    -2.7989464772461226e-01 1.3436817113905581e-02
    -3.2213907696158250e-01 1.2478354962115544e-02
    -3.5355339059327373e-01 1.3436817113905581e-02
    -3.2213907696158250e-01 1.3720698711085496e-02
    -3.1399291281137959e-01 1.2694994866247956e-02
    -3.4585723193303730e-01 1.2694994866247956e-02
    -3.4585723193303730e-01 1.1901446467471004e-02
    -3.7611622490148749e-01 1.0869056127933079e-02
    -4.2640143271122083e-01 1.0522672835293128e-02
    -4.4721359549995793e-01 9.2484258035805539e-03
    -5.5431270040691139e-01 8.7553930298264783e-03
    -6.2017367294604220e-01 8.3741423167348235e-03
    -6.9355076110393532e-01 8.3189033080770299e-03
    -7.0710678118654757e-01 8.1540445500426391e-03
    -7.5529451120587265e-01 8.0957653695243638e-03
    -7.7636314056464417e-01 8.0778665199386680e-03
    -7.8344949004276954e-01 8.1540445500426391e-03
    -7.5529451120587265e-01 8.2195294682649214e-03
    -7.3448872299751933e-01 8.2430408509080490e-03
    -7.2760687510899902e-01 8.3460405066669678e-03
    -7.0031839892481162e-01 8.6002120500022726e-03
    -6.4666979068286323e-01 9.2484258035805539e-03
    -5.5431270040691139e-01 9.7882700969176405e-03
    -5.0133511586135859e-01 1.0125693224957290e-02
    -4.7447959919511407e-01 1.0036274665372045e-02
    -4.8122650318578780e-01 1.0036274665372045e-02
    -4.8122650318578780e-01 1.0869056127933079e-02
    -4.2640143271122083e-01 1.1128105148725866e-02
    -4.1231056256176607e-01 1.2694994866247956e-02
    -3.4585723193303730e-01 1.5108500015584605e-02
    -2.7989464772461226e-01 1.4357527161228990e-02
    -2.9727444058185665e-01 1.5537725292744270e-02
    -2.7091418459143851e-01 2.3020445731811948e-02
    -1.7560468218497577e-01 3.4858529270006905e-02
    -1.1396057645963796e-01 6.0117057649732519e-02
    -6.5512178208041838e-02 3.4858529270006905e-02
    -1.1396057645963796e-01 3.0253927602865525e-02
    -1.3187609467915740e-01 2.4810334996469566e-02
    -1.6222142113076254e-01 1.7779050631407653e-02
    -2.3249527748763854e-01 1.7779050631407653e-02
    -2.3249527748763854e-01 1.6010614102759477e-02
    -2.6171196129510688e-01 1.5108500015584605e-02
    -2.7989464772461226e-01 1.4357527161228990e-02
    -2.9727444058185665e-01 1.4716771567578694e-02
    -2.8867513459481287e-01 1.4026644576537633e-02
    -3.0570892025787150e-01 1.3436817113905581e-02
    -3.2213907696158250e-01 1.2694994866247956e-02
    -3.4585723193303730e-01 1.2082673807552475e-02
    -3.6867645720480630e-01 1.1730052770606842e-02
    -3.8348249442368521e-01 1.0633000712772671e-02
    -4.4031528592635544e-01 1.0036274665372045e-02
    -4.8122650318578780e-01 9.1911882730544570e-03
    -5.6089815615050276e-01 8.7553930298264783e-03
    -6.2017367294604220e-01 9.0308919627763735e-03
    -5.8064004094004507e-01 9.0308919627763735e-03
    -5.8064004094004507e-01 8.6002120500022726e-03
    -6.4666979068286323e-01 9.0824987400385110e-03
    -5.7406049728704944e-01 8.4644999917032494e-03
    -6.7336182626305985e-01 9.3077035915910579e-03
    -5.4772255750516607e-01 8.9328020033763271e-03
    -5.9380228701931104e-01 9.7882700969176405e-03
    -5.0133511586135859e-01 1.0036274665372045e-02
    -4.8122650318578780e-01 1.0995503385357668e-02
    -4.1937977655691105e-01 1.1901446467471004e-02
    -3.7611622490148749e-01 1.1267321285751581e-02
    -4.0519020777606646e-01 1.1567694516307401e-02
    -3.9078044936500006e-01 1.3172570491208737e-02
    -3.3015865782452669e-01 1.7120161767270561e-02
    -2.4253562503633294e-01 1.7779050631407653e-02
    -2.3249527748763854e-01 1.8527930069189780e-02
    -2.2209762326528776e-01 2.1581243451153115e-02
    -1.8814417367671946e-01 2.0392156862745096e-02
    -1.9999999999999998e-01 2.4810334996469566e-02
    -1.6222142113076254e-01 3.4858529270006905e-02
    -1.1396057645963796e-01 6.0117057649732519e-02
    -6.5512178208041838e-02 3.0253927602865525e-02
    -1.3187609467915740e-01 3.0253927602865525e-02
    -1.3187609467915740e-01 3.0253927602865525e-02
    -1.3187609467915740e-01 3.0253927602865525e-02
    -1.3187609467915740e-01 2.3020445731811948e-02
    -1.7560468218497577e-01 1.9388832902595382e-02
    -2.1128856368212917e-01 1.7779050631407653e-02
    -2.3249527748763854e-01 1.6534852256530258e-02
    -2.5226248955475650e-01 1.6010614102759477e-02
    -2.6171196129510688e-01 1.6010614102759477e-02
    -2.6171196129510688e-01 1.4716771567578694e-02
    -2.8867513459481287e-01 1.5108500015584605e-02
    -2.7989464772461226e-01 1.6010614102759477e-02
    -2.6171196129510688e-01 1.6010614102759477e-02
    -2.6171196129510688e-01 1.4716771567578694e-02
    -2.8867513459481287e-01 1.2274636000901959e-02
    -3.6115755925730764e-01 1.0995503385357668e-02
    -4.1937977655691105e-01 1.1267321285751581e-02
    -4.0519020777606646e-01 1.1128105148725866e-02
    -4.1231056256176607e-01 9.8677431477378064e-03
    -4.9465225266224133e-01 1.0218812190769167e-02
    -4.6770717334674261e-01 1.2274636000901959e-02
    -3.6115755925730764e-01 1.1267321285751581e-02
    -4.0519020777606646e-01 1.0125693224957290e-02
    -4.7447959919511407e-01 1.0869056127933079e-02
    -4.2640143271122083e-01 1.0522672835293128e-02
    -4.4721359549995793e-01 1.0869056127933079e-02
    -4.2640143271122083e-01 1.1413661887702816e-02
    -3.9801487608399561e-01 1.2274636000901959e-02
    -3.6115755925730764e-01 1.2694994866247956e-02
    -3.4585723193303730e-01 1.5537725292744270e-02
    -2.7091418459143851e-01 2.0392156862745096e-02
    -1.9999999999999998e-01 2.0392156862745096e-02
    -1.9999999999999998e-01 2.1581243451153115e-02
    -1.8814417367671946e-01 2.3020445731811948e-02
    -1.7560468218497577e-01 2.7118953950654265e-02
    -1.4776353114138543e-01 3.0253927602865525e-02
    -1.3187609467915740e-01 2.7118953950654265e-02
    -1.4776353114138543e-01 3.0253927602865525e-02
    -1.3187609467915740e-01</input_scale>
  <output_scale>
    1.0526315789473684e+00 0.</output_scale>
  <inv_output_scale>
    9.4999999999999996e-01 0.</inv_output_scale>
  <weights>
    <_>
      -1.1719048386403424e-03 -2.2903224389177911e-04
      -9.9637750405231888e-04 -5.5088375721748159e-04
      2.2039270841974236e-04 1.2144499427915077e-03
      9.9728247011042037e-04 2.0453599492093418e-04
      -7.2831549546728146e-04 -4.2920232853557353e-04
      -1.1054717958401724e-03 -1.2409612586460942e-04
      -2.1397120762249158e-05 -7.8018402384446585e-04
      6.7194088742161514e-04 -1.1208781013474275e-03
      1.1037170489498088e-03 1.0083693640301039e-03
      -2.5698247005999147e-04 -3.4383640164285737e-05
      3.0002183913935715e-04 -7.7645728251324352e-04
      -6.5397802009701264e-04 9.5527311481024093e-04
      -1.0954164450422850e-03 -3.1663012947851025e-04
      6.1523554708813478e-04 -6.3403300196013517e-04
      1.0630743572223426e-03 -2.4215284090006096e-04
      1.2150750992007805e-03 -3.7732545206526025e-04
      2.2581237915161135e-04 8.1166924113520002e-04
      1.1322676431532379e-03 5.1786688077618958e-04
      8.1904968067006900e-04 5.2277548999592920e-04
      1.2256443938238879e-03 -1.5902424652943092e-04
      -5.4180226882521630e-02 -1.3943441847506321e-02
      -1.2258271900779548e-02 -6.1137324578346688e-03
      8.4347496013631416e-03 -4.4783645457652475e-03
      3.9001096374334646e-03 9.2203695641266542e-03
      -9.3402871666102658e-04 -1.6503095703724154e-02
      -5.2545580845066607e-03 -7.8264561783713254e-03
      -3.7790445610581800e-03 7.8449857305408540e-03
      -2.2499115398351031e-03 -2.2439611707141152e-03
      -1.1371316230478028e-03 -7.8444542971012419e-03
      1.4724040041308869e-02 -1.4835237038854050e-02
      9.7991313866494165e-03 1.7966298639187864e-03
      1.8814981914599290e-03 -1.0743709811044678e-02
      -3.4661405428115834e-03 -1.9002884984748755e-03
      -1.4425485938595689e-02 1.4152460197262301e-02
      -4.9142767415902453e-03 -4.4409095812162252e-03
      1.2729122268271876e-02 1.4475078999466007e-02
      -1.7556959112830166e-02 -5.9503830388559376e-03
      -7.1884475948575119e-03 8.3153915557305483e-04
      -9.2920995078099710e-03 -6.5253036268666312e-03
      1.2739737379082610e-02 9.0762413815561934e-03
      1.5482896935067150e-01 5.6224838591601253e-02
      4.7652110464024990e-02 1.5608199008983749e-02
      -4.4027974589419878e-02 7.7635755827550152e-03
      -1.3605753379599841e-02 -3.6700329002393735e-02
      3.2338568608234223e-03 7.1409186967945543e-02
      1.1522369127653772e-02 3.5304574081887051e-02
      1.3219692813892403e-02 -2.6089230263338630e-02
      4.9932612573508556e-03 8.2959783934651362e-03
      3.0374721594251123e-03 3.1712663889432127e-02
      -7.0697476071291579e-02 7.1877125603511061e-02
      -3.4161200296239917e-02 1.3285073739898532e-03
      -4.4941932162134903e-03 4.8064546907287772e-02
      9.7617242391566592e-03 3.5547227541367467e-03
      6.0356641895714699e-02 -6.1759480918231031e-02
      1.6411336795739508e-02 9.6084384447349194e-03
      -4.9529783083683054e-02 -5.9810783764995351e-02
      7.2949978780270791e-02 1.9940160266591202e-02
      3.1385457467749164e-02 7.3429804845925330e-04
      4.7035745651609576e-02 2.6425226795545952e-02
      -5.3556399280252964e-02 -4.5982220509768176e-02
      -6.2205143682580392e-02 -1.2899541984433611e-02
      -1.1180118641454771e-02 -8.6578767269483402e-03
      9.2499903750345776e-03 -1.0137665426570814e-02
      9.7694286415225852e-03 1.2201734706249256e-02
      7.0622995233627474e-03 -1.6210879062853518e-02
      -8.0737935551723067e-03 -1.2351511765522072e-02
      -8.3510709383847800e-03 7.4419769258607747e-03
      5.0765018838898395e-03 -9.0078585323722545e-03
      6.8201498677876579e-03 -9.5780746951602356e-03
      1.4801926907321471e-02 -1.6728517920800753e-02
      1.0718811805047138e-02 -8.6699306620868725e-03
      -5.3417898957053740e-03 -1.2088614875970823e-02
      -6.9794109509732907e-03 9.2805111180942739e-03
      -1.4839853840205671e-02 1.4055877019562908e-02
      -7.6265567703253344e-03 -8.0427006855826235e-03
      1.3269514476814940e-02 1.5152889860490387e-02
      -1.5287906281881940e-02 -7.0193100712585841e-03
      -4.8469057089613977e-03 -8.5363123650206187e-03
      -9.2088735007959440e-03 -4.2136337627843735e-03
      1.4404021224131123e-02 8.8742111796449065e-03
      -2.8814768922057443e-01 -4.6401986671415242e-02
      -4.8831042547727979e-02 -2.0798016855664181e-02
      4.2829635189834667e-02 -7.3947470999160998e-03
      2.6232386401455060e-02 -2.0099051829501044e-02
      -5.6597440763178040e-03 -4.9122042623066638e-02
      -2.3414507451532084e-02 1.9166009100680698e-02
      -1.3343716064947751e-02 2.5238491613058078e-02
      -9.4704199385340897e-03 -1.7875593043263187e-02
      -4.4038232150403651e-03 -3.4366501065469252e-03
      4.2094923756406458e-02 -4.6239069442551912e-02
      1.9331401033432040e-02 -3.9712444350752767e-03
      7.2746070502264079e-03 -4.9682984475329969e-02
      -1.7146009665216351e-02 4.4047676459573722e-03
      -4.8024640683340086e-02 4.2127122365725959e-02
      -2.8795546301357090e-02 -1.7531263930810628e-02
      5.1173386131636744e-02 4.3530390473771968e-02
      -4.9129921490460880e-02 -3.3155430701639788e-02
      -3.6288829373789112e-02 -3.7217304364006191e-03
      -4.2218241970506241e-02 -3.0088400697930531e-02
      5.7067027886371344e-02 4.1645493713696802e-02
      -4.0732813889183400e-01 -4.8543672383970234e-02
      -4.8923182373981841e-02 -4.1998261759928081e-02
      4.4393166299810195e-02 -4.4631889800388742e-02
      4.5384189960466309e-02 6.0325370431403144e-03
      2.5659602610284951e-02 -4.7368252148967296e-02
      -4.1939839784677073e-02 -6.0616653725121790e-03
      -4.3047163614549307e-02 3.0623569346008843e-02
      1.4703306210870314e-02 -5.1975240868707966e-02
      1.9504074827510522e-02 -1.8284029020732163e-02
      3.7966394015626403e-02 -4.4481891592222877e-02
      2.1964307842546656e-02 -3.5284462717272258e-02
      -1.9518114720404642e-02 -5.0714369406825700e-02
      -4.4403063491205375e-02 4.1528346770652737e-02
      -4.5888434428203388e-02 3.9895987610912259e-02
      -4.7030798932691339e-02 -4.7651305015729138e-02
      5.1162485762497240e-02 4.3602337921290396e-02
      -4.5626930088772583e-02 -3.7052867766421513e-02
      -3.4467079141744780e-02 -3.9434673714296598e-02
      -4.1858805552825153e-02 -3.0683077916589599e-02
      5.9188007712547487e-02 4.0771648618300814e-02
      -4.1482663850071910e-01 -5.2976459252286799e-02
      -5.1803948649100255e-02 -5.0146873268495033e-02
      3.0438605623646718e-02 -4.7365093014457758e-02
      4.9980375373614411e-02 3.8414164763489363e-02
      3.7366723333705290e-02 -5.3788686992436677e-02
      -4.7520772160252071e-02 -3.8883933111069351e-02
      -5.2680570970742815e-02 3.9044860625946080e-02
      3.1185317995903256e-02 -5.2262043415320342e-02
      3.3173695146482815e-02 -3.9555592862019005e-02
      4.6892046334458523e-02 -5.0240438755089496e-02
      3.7373802404037197e-02 -4.1675364582038910e-02
      -3.4537689903310291e-02 -5.5662015627314099e-02
      -4.9826721882230557e-02 4.0780139398371343e-02
      -5.2023137945843054e-02 4.8220684365551728e-02
      -5.1905161900441935e-02 -5.1006146323194348e-02
      5.4724930103205019e-02 4.9178457185820083e-02
      -5.3107955615858390e-02 -3.9470057613221879e-02
      -1.8679517629672206e-02 -4.1479963241557255e-02
      -3.4181502601934768e-02 -2.1672766572898221e-02
      6.2462402821233151e-02 3.2822191299232341e-02
      -2.5801374934688526e-01 1.2075057287019738e-03
      -1.0354748534761780e-02 -2.4535671472438410e-02
      -7.5665755277976067e-03 -2.0433063770914178e-02
      2.5888800735036598e-02 -1.0324217204414860e-02
      1.8521770252291809e-02 1.2170888512091709e-02
      -2.1452681509560815e-02 1.1778880002869743e-02
      -2.7066182144408021e-02 1.4269265851027068e-02
      1.6221486979227626e-02 -2.8668084807421418e-02
      1.5785386539645299e-02 -1.9182542902448896e-03
      -2.0025790996182603e-02 1.6218881921497456e-02
      2.7761724649393114e-03 -2.1613546265343987e-02
      -1.6827330307766921e-02 -1.1195221781435095e-02
      -2.5020437118530879e-02 1.0804337439479934e-02
      5.0011514899174891e-03 -1.4322196498101033e-02
      -2.4942864520404222e-02 -2.7479503242256537e-02
      5.9406775406802542e-03 -8.5742803922166603e-03
      1.5811251021017877e-02 -2.0448080444513839e-02
      1.9203026096043187e-03 -1.6493682350572875e-02
      1.0880369986040486e-02 -6.1798019904284428e-03
      1.5073646998760399e-02 -8.1057001627160823e-03
      -9.7719020491619485e-02 4.9622557847757570e-03
      2.7698676580220002e-02 2.1842253702270310e-03
      -3.5916840109284989e-02 -2.5641921956677124e-03
      -8.2797369702575251e-04 -4.2099825732512614e-02
      2.5380633996633243e-03 6.2964477321363371e-02
      -7.1418986052143943e-04 4.1989506077030586e-02
      6.1988615033632243e-04 -1.0053184858065107e-02
      2.6462476561871853e-03 -2.7482572476051599e-03
      2.4700420828096662e-03 2.1176503782831205e-02
      -4.5129190403819769e-02 5.5286577428701973e-02
      -2.1590388922492980e-02 -5.2684161027131944e-03
      -2.4025803761288950e-03 2.5102841012055174e-02
      -1.7027996287781596e-03 -4.6811859300057096e-03
      1.4256254165459290e-02 -2.5318669017248104e-02
      -1.6764986087252811e-03 -6.7263284277234154e-04
      -2.9861753388472086e-02 -8.1985756540991061e-03
      6.3629759851401096e-02 1.3936017338756610e-04
      2.1454560253619106e-02 -7.0307624924320785e-04
      4.1457396866697215e-02 1.1571150625171141e-02
      -2.9180221499964853e-02 -3.7502325744373961e-02
      -1.1932987755141319e-01 3.5182754943180933e-02
      2.4447612917819540e-02 -8.2717392611833026e-03
      -3.4103374900589900e-02 -1.4155378586119961e-02
      8.9983271685490761e-03 -2.2703876205741828e-02
      1.2525332271142650e-02 4.1787380074613162e-02
      -7.9556565863784789e-03 2.2721532523787530e-02
      -1.0858208532844055e-02 -3.9483473588832006e-03
      1.1888624820467380e-02 -1.4116750015250607e-02
      1.1447669054355188e-02 1.4412501550641270e-02
      -4.8089598099272185e-02 4.5030762291507466e-02
      -1.6565018435394638e-02 -1.4137939741409790e-02
      -1.3913507892715104e-02 2.2015964945761884e-02
      -9.5346196928180020e-03 1.1565149450848584e-02
      4.0331834867010467e-02 -4.2652940708729568e-02
      -9.5654066900549995e-03 -1.1973512185493196e-02
      -2.7624306219682832e-02 -4.0932472236857184e-02
      4.0096535415032497e-02 -1.6231799843303253e-03
      2.0555276989119384e-02 -1.5560059432642912e-02
      3.8904179800106325e-02 1.2369916172917873e-02
      -2.5731143573668108e-02 -3.6056692597814591e-02
      -8.6460808795166974e-02 2.6115544402277424e-02
      3.8318385099796515e-02 -6.3336558029381514e-03
      -4.7575435698319672e-02 -1.6474750407181438e-02
      5.0674027288265255e-03 -1.3036543631493865e-02
      1.3847407596223594e-02 3.4548327164135410e-02
      -4.2852671495144986e-03 1.0523919671476156e-02
      -7.1398065269772295e-03 -8.4661962499410839e-03
      7.9614854655680641e-03 -1.1584218354302667e-02
      8.0533728675218734e-03 1.2599373187429054e-02
      -2.8624300903571202e-02 2.9530375147646695e-02
      -2.2165372415474970e-02 -1.4147839792123485e-02
      -1.0559043527918144e-02 3.6828916068981331e-02
      -7.4450503369393678e-03 1.4034946419666903e-02
      3.0466441541561681e-02 -2.5783899983240759e-02
      -6.5582318489327144e-03 -8.0865108231627791e-03
      -3.8456369846104718e-02 -2.8838588798067756e-02
      3.0111975337763951e-02 3.2709921650050590e-03
      3.2328233250851025e-02 -1.7219752608257793e-02
      5.1878856222933423e-02 2.2222362419894771e-02
      -3.8860410424758456e-02 -4.8965435621465832e-02
      -5.2304862255661395e-02 2.9231092169274914e-02
      4.1119831689102604e-02 5.3901873079683564e-04
      -5.0109466964285823e-02 -7.7493944084765735e-03
      -5.9478720498378997e-04 -3.0662300484215508e-02
      6.2265747854463715e-03 3.8712424135067133e-02
      5.1361399456661808e-04 3.0395781198538994e-02
      1.2431164843772797e-03 -1.5237135903258871e-02
      3.2655355533254215e-03 -1.6568836080570791e-03
      2.8033374679931251e-03 2.2416313693334786e-02
      -3.0585191683850842e-02 3.6302171179643662e-02
      -2.6814709325586054e-02 -6.8876873124722538e-03
      -6.4602054399770835e-03 3.9294305601124242e-02
      -4.3125146282237825e-04 5.3809699039934862e-03
      3.2920498174346981e-02 -2.8479187162038667e-02
      5.6585696691233015e-04 -1.9172164216804690e-03
      -4.0118843001755285e-02 -3.0178669952847490e-02
      3.6479967739078661e-02 6.1857584656091567e-03
      3.3050898281894239e-02 -7.9166054512601024e-03
      5.3179750780433278e-02 2.0517567071453486e-02
      -4.0035195025209296e-02 -4.9944095920622246e-02
      -1.2577463359850521e-01 -2.6913924173663104e-04
      1.9037443271789956e-02 -8.3714936187712675e-03
      -3.0860174111713295e-02 -2.4019919252663790e-02
      9.6696732539984075e-03 -1.0481782191576808e-02
      2.0063142773641802e-02 8.3606222938816983e-03
      -1.0219110965800358e-02 1.1688170300898817e-02
      -1.1359684939295973e-02 -3.0752457674764451e-03
      1.6748041634509738e-02 -1.4099613174929197e-02
      1.5784449915963051e-02 7.8510794656421728e-03
      -5.9980079259474971e-03 5.0147375035606541e-03
      -1.2236643984562678e-02 -2.1795142072222121e-02
      -1.8948664096040260e-02 1.8358572157679456e-02
      -1.2062997448802959e-02 2.1336262160406787e-02
      4.3549733242930974e-03 1.2914735921946523e-03
      -1.0008227641325397e-02 -1.2058821839473179e-02
      -1.9274734781563510e-02 -2.9504800471520168e-03
      4.2085784964987823e-03 -1.9304633477053050e-03
      2.2302890359426231e-02 -2.1435606871703362e-02
      3.2454750883635024e-02 1.2677357073269252e-02
      -1.5891412357219879e-02 -3.3424656943733873e-02
      -2.1953044968623833e-01 -7.2825209384948684e-03
      1.0694756067232329e-02 -3.6427027006888969e-02
      -3.3645580122528398e-02 -6.1038645617318220e-02
      3.4244705573752567e-02 4.5190352663244893e-02
      5.1553748012104522e-02 2.0992156109391849e-03
      -3.2698052716939659e-02 -4.7538666664981938e-02
      -4.0371330687116583e-02 1.2762750301209470e-02
      4.2912816731279259e-02 -4.6745776100112948e-02
      4.2174354982186087e-02 -2.4188587267293778e-02
      1.4241363241610035e-03 1.7145008680856101e-04
      8.1476162846412237e-03 -5.3584658559672711e-02
      -5.0912212446049161e-02 9.0519447224656317e-03
      -3.8174179660894467e-02 5.2513282055193615e-02
      -1.8454601016837050e-03 7.4360363368875543e-03
      -3.4177213783261870e-02 -4.1583648581471178e-02
      -9.2600399344317224e-03 5.0555350091688453e-03
      -2.8672687910140295e-03 -1.2642003864503620e-02
      3.1210986495667146e-02 -5.4927228942308157e-02
      2.9089390861353599e-02 1.4467937977782267e-02
      -7.5298672448838580e-03 -2.9589411485903501e-02
      -2.0097214912941680e-01 2.1559231532940391e-02
      1.0606149631096629e-02 -3.2659885317963509e-02
      -2.9218312552305503e-02 -5.2764241128705640e-02
      3.1766870820597162e-02 4.3255319762529755e-02
      4.2655805414413751e-02 8.1382874214302701e-03
      -2.8142584769687350e-02 -4.5415710753212629e-02
      -3.7277776348744143e-02 1.3662994981745806e-02
      2.9366131693836884e-02 -4.1675560690092116e-02
      3.1754085230147930e-02 -1.8688590521527385e-02
      -1.6102029465036596e-02 1.0622488233719972e-02
      6.2088124059354235e-03 -4.4462957857476240e-02
      -3.8259734304853514e-02 1.0660138498612925e-02
      -3.4190869853092949e-02 5.0950589780660013e-02
      2.3029767994507351e-02 -1.7618188369603292e-02
      -3.2268899257193173e-02 -3.7818134153142162e-02
      -1.2549818483720134e-02 -2.3721035257224892e-02
      5.1420665035653013e-03 -1.2485171361665798e-02
      2.2236058317726192e-02 -4.9687067500651591e-02
      2.7806315026514348e-02 1.1711083962120760e-02
      -1.0445866354885935e-02 -2.7918436142620229e-02
      -5.6240938163454851e-02 3.1011434043924396e-02
      2.0994469245697540e-02 -1.1661576154484233e-02
      -4.0712588905627178e-02 -2.1630316281403782e-02
      1.2491072338774369e-02 -6.0870656810426069e-03
      1.9633858468767387e-02 2.0938764428665140e-02
      -1.2539805225846017e-02 3.7164896255205454e-03
      -1.4297414595746351e-02 -7.7638547378433027e-03
      1.9310056030637547e-02 -1.8132601792883108e-02
      1.8001204103809582e-02 8.6568864478440786e-03
      -2.6028653725974116e-02 2.2152900170969849e-02
      -1.8042611368164489e-02 -1.9445072872884616e-02
      -2.0135354538338170e-02 2.0144658296688128e-02
      -1.6915189964358375e-02 1.9402937640504485e-02
      3.4681059238182051e-02 -2.8476857635177419e-02
      -1.0935165159000589e-02 -1.8014302960326960e-02
      -2.3332616410221222e-02 -3.5802685407150071e-02
      1.9752320145136840e-02 2.7021044435443101e-03
      2.8624524532696323e-02 -2.2320928353807321e-02
      3.9424638167933568e-02 1.8236523207441943e-02
      -2.1120424381990355e-02 -3.7946745137628829e-02
      -2.4188226855088150e-02 3.7258838956480016e-02
      2.7381137597054534e-02 -7.8664498771810649e-03
      -4.2178106149508440e-02 -1.7971357974910902e-02
      1.1157187091392410e-02 -1.0644289609686358e-02
      1.5738201111548205e-02 2.7647417654499417e-02
      -1.2747747331408281e-02 8.9168073840910425e-03
      -1.0300092997250673e-02 -6.1566167789258216e-03
      1.3269634406052465e-02 -1.0783981547679936e-02
      1.3841624238069644e-02 1.2185416918861653e-02
      -3.1313766374997561e-02 3.1117845775330281e-02
      -1.7445595140688754e-02 -1.6502641949360200e-02
      -1.5620036264460398e-02 2.5070577387450874e-02
