<?xml version="1.0"?>
<opencv_storage>
<shapeML type_id="opencv-ml-ann-mlp">
  <layer_sizes type_id="opencv-matrix">
    <rows>1</rows>
    <cols>3</cols>
    <dt>i</dt>
    <data>
      1600 40 1</data></layer_sizes>
  <activation_function>SIGMOID_SYM</activation_function>
  <f_param1>5.9999999999999998e-01</f_param1>
  <f_param2>1.</f_param2>
  <min_val>-9.4999999999999996e-01</min_val>
  <max_val>9.4999999999999996e-01</max_val>
  <min_val1>-9.7999999999999998e-01</min_val1>
  <max_val1>9.7999999999999998e-01</max_val1>
  <training_params>
    <train_method>BACKPROP</train_method>
    <dw_scale>1.0000000000000001e-01</dw_scale>
    <moment_scale>1.0000000000000001e-01</moment_scale>
    <term_criteria><epsilon>9.9999999747524271e-07</epsilon>
      <iterations>4000</iterations></term_criteria></training_params>
  <input_scale>
    1. 0. 5.3913417935647273e-02 -7.3127242412713053e-02
    5.3913417935647273e-02 -7.3127242412713053e-02
    5.3913417935647273e-02 -7.3127242412713053e-02
    3.1294727716025754e-02 -1.2734290799340267e-01
    3.1294727716025754e-02 -1.2734290799340267e-01
    2.7175576232471233e-02 -1.4744195615489711e-01
    3.1294727716025754e-02 -1.2734290799340267e-01
    2.4372895239719573e-02 -1.6529490122682158e-01
    2.7175576232471233e-02 -1.4744195615489711e-01
    2.7175576232471233e-02 -1.4744195615489711e-01
    2.4372895239719573e-02 -1.6529490122682158e-01
    2.4372895239719573e-02 -1.6529490122682158e-01
    1.8368339534295938e-02 -2.2423052782558076e-01
    1.8368339534295938e-02 -2.2423052782558076e-01
    1.6708393433465741e-02 -2.4929278500463511e-01
    1.4937538128720024e-02 -2.8365431446558770e-01
    2.0712349291021528e-02 -1.9665714619400759e-01
    2.2310348263085266e-02 -1.8156825980064073e-01
    1.3327753617616784e-02 -3.2539568672798425e-01
    1.1549252125312626e-02 -3.9163022499397865e-01
    1.3010605721769415e-02 -3.3529991873389797e-01
    1.4937538128720024e-02 -2.8365431446558770e-01
    1.6042450646897643e-02 -2.6111648393354675e-01
    3.1294727716025754e-02 -1.2734290799340267e-01
    3.1294727716025754e-02 -1.2734290799340267e-01
    2.7175576232471233e-02 -1.4744195615489711e-01
    1.8368339534295938e-02 -2.2423052782558076e-01
    1.8368339534295938e-02 -2.2423052782558076e-01
    2.4372895239719573e-02 -1.6529490122682158e-01
    2.4372895239719573e-02 -1.6529490122682158e-01
    3.8224886001827441e-02 -1.0369516947304253e-01
    2.7175576232471233e-02 -1.4744195615489711e-01
    3.8224886001827441e-02 -1.0369516947304253e-01
    3.1294727716025754e-02 -1.2734290799340267e-01
    3.1294727716025754e-02 -1.2734290799340267e-01
    5.3913417935647273e-02 -7.3127242412713053e-02
    5.3913417935647273e-02 -7.3127242412713053e-02
    5.3913417935647273e-02 -7.3127242412713053e-02
    3.8224886001827441e-02 -1.0369516947304253e-01
    5.3913417935647273e-02 -7.3127242412713053e-02
    3.8224886001827441e-02 -1.0369516947304253e-01
    5.3913417935647273e-02 -7.3127242412713053e-02
    3.8224886001827441e-02 -1.0369516947304253e-01
    2.7175576232471233e-02 -1.4744195615489711e-01
    2.7175576232471233e-02 -1.4744195615489711e-01
    2.0712349291021528e-02 -1.9665714619400759e-01
    1.9428372552668473e-02 -2.1081851067789195e-01
    1.9428372552668473e-02 -2.1081851067789195e-01
    2.0712349291021528e-02 -1.9665714619400759e-01
    1.6042450646897643e-02 -2.6111648393354675e-01
    1.3673986693599418e-02 -3.1530176764230572e-01
    1.4053789814965526e-02 -3.0499714066520928e-01
    1.1967729891351989e-02 -3.7335497772755005e-01
    1.1014851889944412e-02 -4.1833001326703778e-01
    1.0188678299086573e-02 -4.6987149389936478e-01
    1.0434709922509019e-02 -4.5291081365783831e-01
    1.0074834744958700e-02 -4.7828670265295953e-01
    9.8634383209882468e-03 -4.9500819446023464e-01
    1.0708496473483906e-02 -4.3574467033059511e-01
    9.6714642566788425e-03 -5.1161017038654832e-01
    1.0434709922509019e-02 -4.5291081365783831e-01
    1.0074834744958700e-02 -4.7828670265295953e-01
    1.0708496473483906e-02 -4.3574467033059511e-01
    1.1967729891351989e-02 -3.7335497772755005e-01
    1.1967729891351989e-02 -3.7335497772755005e-01
    1.4053789814965526e-02 -3.0499714066520928e-01
    1.3327753617616784e-02 -3.2539568672798425e-01
    1.3327753617616784e-02 -3.2539568672798425e-01
    1.4937538128720024e-02 -2.8365431446558770e-01
    1.8368339534295938e-02 -2.2423052782558076e-01
    1.9428372552668473e-02 -2.1081851067789195e-01
    1.9428372552668473e-02 -2.1081851067789195e-01
    2.0712349291021528e-02 -1.9665714619400759e-01
    2.2310348263085266e-02 -1.8156825980064073e-01
    2.2310348263085266e-02 -1.8156825980064073e-01
    3.1294727716025754e-02 -1.2734290799340267e-01
    3.1294727716025754e-02 -1.2734290799340267e-01
    3.1294727716025754e-02 -1.2734290799340267e-01
    3.1294727716025754e-02 -1.2734290799340267e-01 1. 0.
    3.8224886001827441e-02 -1.0369516947304253e-01
    3.8224886001827441e-02 -1.0369516947304253e-01
    3.1294727716025754e-02 -1.2734290799340267e-01
    2.4372895239719573e-02 -1.6529490122682158e-01
    2.0712349291021528e-02 -1.9665714619400759e-01
    1.8368339534295938e-02 -2.2423052782558076e-01
    1.8368339534295938e-02 -2.2423052782558076e-01
    1.3673986693599418e-02 -3.1530176764230572e-01
    1.3010605721769415e-02 -3.3529991873389797e-01
    1.1751413927049764e-02 -3.8254602783800296e-01
    1.1549252125312626e-02 -3.9163022499397865e-01
    1.0708496473483906e-02 -4.3574467033059511e-01
    9.5820143179496890e-03 -5.1987524491003634e-01
    9.6714642566788425e-03 -5.1161017038654832e-01
    8.9333063742204222e-03 -5.9373225077597969e-01
    8.9333063742204222e-03 -5.9373225077597969e-01
    8.8200753880262241e-03 -6.1013340649617576e-01
    8.6669918811383313e-03 -6.3481105427273843e-01
    8.9333063742204222e-03 -5.9373225077597969e-01
    8.8200753880262241e-03 -6.1013340649617576e-01
    8.8755060314214158e-03 -6.0192926542884595e-01
    9.0564748108176597e-03 -5.7735026918962584e-01
    9.2621131994476413e-03 -5.5277079839256671e-01
    9.0564748108176597e-03 -5.7735026918962584e-01
    9.1220947901041738e-03 -5.6916048876554237e-01
    1.0308485154042066e-02 -4.6141437537906377e-01
    1.1182086532854711e-02 -4.0951417967396109e-01
    1.1182086532854711e-02 -4.0951417967396109e-01
    1.3010605721769415e-02 -3.3529991873389797e-01
    1.5457062690487893e-02 -2.7255405754769879e-01
    1.7474617072610926e-02 -2.3702273156998863e-01
    1.7474617072610926e-02 -2.3702273156998863e-01
    1.6708393433465741e-02 -2.4929278500463511e-01
    1.7474617072610926e-02 -2.3702273156998863e-01
    1.7474617072610926e-02 -2.3702273156998863e-01
    2.4372895239719573e-02 -1.6529490122682158e-01
    2.2310348263085266e-02 -1.8156825980064073e-01
    2.4372895239719573e-02 -1.6529490122682158e-01
    3.1294727716025754e-02 -1.2734290799340267e-01 1. 0.
    5.3913417935647273e-02 -7.3127242412713053e-02
    3.1294727716025754e-02 -1.2734290799340267e-01
    2.4372895239719573e-02 -1.6529490122682158e-01
    1.8368339534295938e-02 -2.2423052782558076e-01
    1.9428372552668473e-02 -2.1081851067789195e-01
    1.7474617072610926e-02 -2.3702273156998863e-01
    1.1967729891351989e-02 -3.7335497772755005e-01
    1.2199788015337363e-02 -3.6404686577682238e-01
    1.1014851889944412e-02 -4.1833001326703778e-01
    1.1549252125312626e-02 -3.9163022499397865e-01
    9.7651797305187537e-03 -5.0332229568471665e-01
    9.5820143179496890e-03 -5.1987524491003634e-01
    8.8755060314214158e-03 -6.0192926542884595e-01
    8.7669098922593027e-03 -6.1834694240084231e-01
    8.4507802342443598e-03 -6.7628717353301271e-01
    8.2759305835866867e-03 -7.1842120810709964e-01
    8.1615489451734267e-03 -7.5277265270908089e-01
    8.2161013092249720e-03 -7.3551587784178873e-01
    8.3762742998084345e-03 -6.9304758900808616e-01
    8.1881837928646645e-03 -7.4412297926113191e-01
    8.0890135628239896e-03 -7.7899782210068269e-01
    8.1361630393688364e-03 -7.6146696105156741e-01
    8.1361630393688364e-03 -7.6146696105156741e-01
    8.3413539778301026e-03 -7.0147237441220178e-01
    8.7669098922593027e-03 -6.1834694240084231e-01
    9.0564748108176597e-03 -5.7735026918962584e-01
    8.8200753880262241e-03 -6.1013340649617576e-01
    1.0567858648840014e-02 -4.4435597137808680e-01
    1.1014851889944412e-02 -4.1833001326703778e-01
    1.1182086532854711e-02 -4.0951417967396109e-01
    1.1967729891351989e-02 -3.7335497772755005e-01
    1.5457062690487893e-02 -2.7255405754769879e-01
    1.6042450646897643e-02 -2.6111648393354675e-01
    1.6042450646897643e-02 -2.6111648393354675e-01
    1.6708393433465741e-02 -2.4929278500463511e-01
    1.9428372552668473e-02 -2.1081851067789195e-01
    2.2310348263085266e-02 -1.8156825980064073e-01
    2.7175576232471233e-02 -1.4744195615489711e-01
    3.1294727716025754e-02 -1.2734290799340267e-01
    5.3913417935647273e-02 -7.3127242412713053e-02
    2.7175576232471233e-02 -1.4744195615489711e-01
    2.7175576232471233e-02 -1.4744195615489711e-01
    1.7474617072610926e-02 -2.3702273156998863e-01
    1.4937538128720024e-02 -2.8365431446558770e-01
    1.4053789814965526e-02 -3.0499714066520928e-01
    1.2199788015337363e-02 -3.6404686577682238e-01
    1.0708496473483906e-02 -4.3574467033059511e-01
    1.0308485154042066e-02 -4.6141437537906377e-01
    9.8634383209882468e-03 -4.9500819446023464e-01
    9.1905900194295415e-03 -5.6096819400507447e-01
    8.9333063742204222e-03 -5.9373225077597969e-01
    8.7669098922593027e-03 -6.1834694240084231e-01
    8.4507802342443598e-03 -6.7628717353301271e-01
    8.3079215628214971e-03 -7.0992957397195400e-01
    8.3413539778301026e-03 -7.0147237441220178e-01
    7.9192357272585955e-03 -8.7006284014109736e-01
    7.9746350436388710e-03 -8.3288276107366610e-01
    8.0890135628239896e-03 -7.7899782210068269e-01
    8.1361630393688364e-03 -7.6146696105156741e-01
    8.0269282927604262e-03 -8.0568157917228322e-01
    8.1881837928646645e-03 -7.4412297926113191e-01
    8.0890135628239896e-03 -7.7899782210068269e-01
    8.1361630393688364e-03 -7.6146696105156741e-01
    8.2453374583322421e-03 -7.2694929985030277e-01
    8.1361630393688364e-03 -7.6146696105156741e-01
    8.2453374583322421e-03 -7.2694929985030277e-01
    8.4904751631879605e-03 -6.6794748757207412e-01
    8.9935889075649141e-03 -5.8554004376911994e-01
    9.4149191683229223e-03 -5.3634991645073671e-01
    1.0074834744958700e-02 -4.7828670265295953e-01
    1.1359873299601642e-02 -4.0061680838488772e-01
    1.2449439123611246e-02 -3.5461035376030969e-01
    1.4937538128720024e-02 -2.8365431446558770e-01
    1.5457062690487893e-02 -2.7255405754769879e-01
    1.4472680934627558e-02 -2.9445747114335319e-01
    1.6708393433465741e-02 -2.4929278500463511e-01
    1.9428372552668473e-02 -2.1081851067789195e-01
    2.4372895239719573e-02 -1.6529490122682158e-01
    2.2310348263085266e-02 -1.8156825980064073e-01
    3.8224886001827441e-02 -1.0369516947304253e-01
    2.7175576232471233e-02 -1.4744195615489711e-01
    2.2310348263085266e-02 -1.8156825980064073e-01
    1.6708393433465741e-02 -2.4929278500463511e-01
    1.4053789814965526e-02 -3.0499714066520928e-01
    1.1549252125312626e-02 -3.9163022499397865e-01
    1.0708496473483906e-02 -4.3574467033059511e-01
    9.8634383209882468e-03 -4.9500819446023464e-01
    9.1905900194295415e-03 -5.6096819400507447e-01
    8.8755060314214158e-03 -6.0192926542884595e-01
    8.9935889075649141e-03 -5.8554004376911994e-01
    8.6200642645027099e-03 -6.4306596441303465e-01
    8.3079215628214971e-03 -7.0992957397195400e-01
    8.5750505664172819e-03 -6.5133894727892971e-01
    8.1881837928646645e-03 -7.4412297926113191e-01
    8.0269282927604262e-03 -8.0568157917228322e-01
    7.8431372549019607e-03 -1. 7.8591636617362272e-03
    -9.3808315196468584e-01 7.8502479882345561e-03
    -9.5831484749990992e-01 7.9592844325936992e-03
    -8.4207535832068448e-01 7.9078388417987353e-03
    -8.7953675628729555e-01 7.8973970487228023e-03
    -8.8908727944796873e-01 8.0084379576149702e-03
    -8.1468816989035264e-01 7.9910134446340465e-03
    -8.2375447104791388e-01 7.9078388417987353e-03
    -8.7953675628729555e-01 7.9192357272585955e-03
    -8.7006284014109736e-01 7.9449446181157814e-03
    -8.5133462410607663e-01 8.1361630393688364e-03
    -7.6146696105156741e-01 8.5750505664172819e-03
    -6.5133894727892971e-01 8.7669098922593027e-03
    -6.1834694240084231e-01 9.6714642566788425e-03
    -5.1161017038654832e-01 9.7651797305187537e-03
    -5.0332229568471665e-01 1.0708496473483906e-02
    -4.3574467033059511e-01 1.1549252125312626e-02
    -3.9163022499397865e-01 1.3327753617616784e-02
    -3.2539568672798425e-01 1.3327753617616784e-02
    -3.2539568672798425e-01 1.5457062690487893e-02
    -2.7255405754769879e-01 1.6708393433465741e-02
    -2.4929278500463511e-01 1.9428372552668473e-02
    -2.1081851067789195e-01 2.2310348263085266e-02
    -1.8156825980064073e-01 3.8224886001827441e-02
    -1.0369516947304253e-01 1.9428372552668473e-02
    -2.1081851067789195e-01 1.7474617072610926e-02
    -2.3702273156998863e-01 1.2718855407486528e-02
    -3.4503277967117713e-01 1.1359873299601642e-02
    -4.0061680838488772e-01 1.0857256741778143e-02
    -4.2707134896515619e-01 9.9665448276416210e-03
    -4.8666426339228769e-01 9.8634383209882468e-03
    -4.9500819446023464e-01 8.7159122614901188e-03
    -6.2657209688318594e-01 8.5318771445783773e-03
    -6.5963209732152506e-01 8.7669098922593027e-03
    -6.1834694240084231e-01 8.3413539778301026e-03
    -7.0147237441220178e-01 8.0671926070679210e-03
    -7.8783859715833526e-01 8.0671926070679210e-03
    -7.8783859715833526e-01 7.8716967932047667e-03
    -9.1822505678181132e-01 7.8449131266002323e-03
    -9.7894501037256088e-01 7.8435811097595579e-03
    -1.0106954914038579e+00 7.8435811097595579e-03
    -1.0106954914038579e+00 7.8502479882345561e-03
    -1.0434983894999019e+00 7.8591636617362272e-03
    -1.0660035817780520e+00 7.8435811097595579e-03
    -1.0106954914038579e+00 7.8716967932047667e-03
    -9.1822505678181132e-01 7.8878992737305507e-03
    -8.9871703427291705e-01 7.8591636617362272e-03
    -9.3808315196468584e-01 7.9315998811219438e-03
    -8.6066296582387058e-01 7.8502479882345561e-03
    -9.5831484749990992e-01 7.8502479882345561e-03
    -9.5831484749990992e-01 7.9078388417987353e-03
    -8.7953675628729555e-01 8.0890135628239896e-03
    -7.7899782210068269e-01 8.1119944558337622e-03
    -7.7020798423740766e-01 8.7159122614901188e-03
    -6.2657209688318594e-01 8.9935889075649141e-03
    -5.8554004376911994e-01 9.3368297515793262e-03
    -5.4456562886206017e-01 9.9665448276416210e-03
    -4.8666426339228769e-01 1.0857256741778143e-02
    -4.2707134896515619e-01 1.2199788015337363e-02
    -3.6404686577682238e-01 1.4053789814965526e-02
    -3.0499714066520928e-01 1.5457062690487893e-02
    -2.7255405754769879e-01 1.8368339534295938e-02
    -2.2423052782558076e-01 2.2310348263085266e-02
    -1.8156825980064073e-01 2.4372895239719573e-02
    -1.6529490122682158e-01 1.6708393433465741e-02
    -2.4929278500463511e-01 1.4937538128720024e-02
    -2.8365431446558770e-01 1.1359873299601642e-02
    -4.0061680838488772e-01 1.0308485154042066e-02
    -4.6141437537906377e-01 1.1014851889944412e-02
    -4.1833001326703778e-01 9.1220947901041738e-03
    -5.6916048876554237e-01 8.5318771445783773e-03
    -6.5963209732152506e-01 8.2759305835866867e-03
    -7.1842120810709964e-01 8.3762742998084345e-03
    -6.9304758900808616e-01 8.1881837928646645e-03
    -7.4412297926113191e-01 7.8973970487228023e-03
    -8.8908727944796873e-01 7.8716967932047667e-03
    -9.1822505678181132e-01 7.8449131266002323e-03
    -9.7894501037256088e-01 7.8435811097595579e-03
    -9.8941769158482940e-01 7.8435811097595579e-03
    -1.0106954914038579e+00 7.8542562846347381e-03
    -1.0546845739659785e+00 7.8449131266002323e-03
    -1.0215078369104984e+00 7.8793355109587366e-03
    -1.1008018467836767e+00 7.9078388417987353e-03
    -1.1369621483713821e+00 7.8716967932047650e-03
    -1.0890576254854039e+00 7.8502479882345561e-03
    -1.0434983894999019e+00 7.8973970487228040e-03
    -1.1247489679763460e+00 7.9078388417987353e-03
    -1.1369621483713821e+00 7.8878992737305524e-03
    -1.1126972805283737e+00 7.8502479882345561e-03
    -9.5831484749990992e-01 7.8449131266002323e-03
    -9.7894501037256088e-01 7.8502479882345561e-03
    -9.5831484749990992e-01 8.0671926070679210e-03
    -7.8783859715833526e-01 8.0671926070679210e-03
    -7.8783859715833526e-01 8.0671926070679210e-03
    -7.8783859715833526e-01 8.2759305835866867e-03
    -7.1842120810709964e-01 8.7669098922593027e-03
    -6.1834694240084231e-01 8.9333063742204222e-03
    -5.9373225077597969e-01 1.0188678299086573e-02
    -4.6987149389936478e-01 1.0567858648840014e-02
    -4.4435597137808680e-01 1.2718855407486528e-02
    -3.4503277967117713e-01 1.3327753617616784e-02
    -3.2539568672798425e-01 1.4937538128720024e-02
    -2.8365431446558770e-01 1.7474617072610926e-02
    -2.3702273156998863e-01 1.8368339534295938e-02
    -2.2423052782558076e-01 1.4472680934627558e-02
    -2.9445747114335319e-01 1.3327753617616784e-02
    -3.2539568672798425e-01 1.1967729891351989e-02
    -3.7335497772755005e-01 1.0857256741778143e-02
    -4.2707134896515619e-01 9.9665448276416210e-03
    -4.8666426339228769e-01 8.8755060314214158e-03
    -6.0192926542884595e-01 8.3762742998084345e-03
    -6.9304758900808616e-01 8.0269282927604262e-03
    -8.0568157917228322e-01 8.0890135628239896e-03
    -7.7899782210068269e-01 7.9592844325936992e-03
    -8.4207535832068448e-01 7.8449131266002323e-03
    -9.7894501037256088e-01 7.8542562846347381e-03
    -9.4815077861587960e-01 7.8591636617362272e-03
    -9.3808315196468584e-01 7.8649751654797945e-03
    -9.2810890450090022e-01 7.8449131266002323e-03
    -9.7894501037256088e-01 7.8793355109587366e-03
    -1.1008018467836767e+00 7.9078388417987353e-03
    -1.1369621483713821e+00 7.8878992737305524e-03
    -1.1126972805283737e+00 7.9078388417987353e-03
    -1.1369621483713821e+00 7.8471346635084118e-03
    -1.0324408292653222e+00 8.0084379576149702e-03
    -1.2274635093014648e+00 8.0671926070679210e-03
    -1.2692955176439846e+00 7.9746350436388693e-03
    -1.2006491750542456e+00 7.8649751654797963e-03
    -1.0774597626964477e+00 7.9592844325936992e-03
    -1.1875421719907089e+00 7.8716967932047650e-03
    -1.0890576254854039e+00 7.8471346635084118e-03
    -9.6857850992932293e-01 7.8649751654797945e-03
    -9.2810890450090022e-01 7.8793355109587366e-03
    -9.0842870851080115e-01 7.9449446181157814e-03
    -8.5133462410607663e-01 7.9315998811219438e-03
    -8.6066296582387058e-01 7.9746350436388710e-03
    -8.3288276107366610e-01 8.4904751631879605e-03
    -6.6794748757207412e-01 8.8755060314214158e-03
    -6.0192926542884595e-01 9.9665448276416210e-03
    -4.8666426339228769e-01 1.0708496473483906e-02
    -4.3574467033059511e-01 1.2199788015337363e-02
    -3.6404686577682238e-01 1.3673986693599418e-02
    -3.1530176764230572e-01 1.6042450646897643e-02
    -2.6111648393354675e-01 1.9428372552668473e-02
    -2.1081851067789195e-01 1.4053789814965526e-02
    -3.0499714066520928e-01 1.3010605721769415e-02
    -3.3529991873389797e-01 1.1182086532854711e-02
    -4.0951417967396109e-01 9.6714642566788425e-03
    -5.1161017038654832e-01 8.6669918811383313e-03
    -6.3481105427273843e-01 8.5750505664172819e-03
    -6.5133894727892971e-01 8.1361630393688364e-03
    -7.6146696105156741e-01 7.9449446181157814e-03
    -8.5133462410607663e-01 7.8973970487228023e-03
    -8.8908727944796873e-01 7.8449131266002323e-03
    -9.7894501037256088e-01 7.8471346635084118e-03
    -9.6857850992932293e-01 7.8449131266002323e-03
    -9.7894501037256088e-01 7.8449131266002323e-03
    -9.7894501037256088e-01 7.8471346635084118e-03
    -1.0324408292653222e+00 7.9592844325936992e-03
    -1.1875421719907089e+00 7.9746350436388693e-03
    -1.2006491750542456e+00 7.9315998811219438e-03
    -1.1618950038622253e+00 7.8542562846347381e-03
    -1.0546845739659785e+00 7.9078388417987353e-03
    -1.1369621483713821e+00 7.9910134446340483e-03
    -1.2139539573337681e+00 8.1119944558337605e-03
    -1.2983506020002014e+00 8.3079215628214954e-03
    -1.4085904245475274e+00 8.0671926070679210e-03
    -1.2692955176439846e+00 8.0890135628239896e-03
    -1.2837006364194348e+00 8.0890135628239896e-03
    -1.2837006364194348e+00 7.9078388417987353e-03
    -1.1369621483713821e+00 8.0084379576149702e-03
    -1.2274635093014648e+00 7.8649751654797963e-03
    -1.0774597626964477e+00 7.8449131266002323e-03
    -1.0215078369104984e+00 7.8471346635084118e-03
    -9.6857850992932293e-01 7.8793355109587366e-03
    -9.0842870851080115e-01 7.9315998811219438e-03
    -8.6066296582387058e-01 8.0465056134127709e-03
    -7.9673245741318477e-01 8.3413539778301026e-03
    -7.0147237441220178e-01 9.0564748108176597e-03
    -5.7735026918962584e-01 9.9665448276416210e-03
    -4.8666426339228769e-01 1.1182086532854711e-02
    -4.0951417967396109e-01 1.3327753617616784e-02
    -3.2539568672798425e-01 1.4937538128720024e-02
    -2.8365431446558770e-01 1.7474617072610926e-02
    -2.3702273156998863e-01 1.3673986693599418e-02
    -3.1530176764230572e-01 1.1751413927049764e-02
    -3.8254602783800296e-01 9.6714642566788425e-03
    -5.1161017038654832e-01 8.7159122614901188e-03
    -6.2657209688318594e-01 8.4904751631879605e-03
    -6.6794748757207412e-01 8.4904751631879605e-03
    -6.6794748757207412e-01 8.1361630393688364e-03
    -7.6146696105156741e-01 8.0671926070679210e-03
    -7.8783859715833526e-01 7.8471346635084118e-03
    -9.6857850992932293e-01 7.8973970487228040e-03
    -1.1247489679763460e+00 7.8502479882345561e-03
    -1.0434983894999019e+00 7.8542562846347381e-03
    -1.0546845739659785e+00 7.8793355109587366e-03
    -1.1008018467836767e+00 7.9192357272585955e-03
    -1.1493422703098446e+00 8.0890135628239896e-03
    -1.2837006364194348e+00 8.2453374583322421e-03
    -1.3756117520244191e+00 7.9449446181157797e-03
    -1.1746262535134473e+00 7.9078388417987353e-03
    -1.1369621483713821e+00 8.1361630393688364e-03
    -1.3132546139874859e+00 8.2161013092249702e-03
    -1.3595899560105786e+00 8.1361630393688364e-03
    -1.3132546139874859e+00 8.5318771445783755e-03
    -1.5159965745459607e+00 8.2759305835866884e-03
    -1.3919410907075058e+00 8.1881837928646627e-03
    -1.3438638879193574e+00 8.1361630393688364e-03
    -1.3132546139874859e+00 8.1615489451734267e-03
    -1.3284223283101428e+00 8.3413539778301026e-03
    -1.4255728899344746e+00 8.0671926070679210e-03
    -1.2692955176439846e+00 8.1615489451734267e-03
    -1.3284223283101428e+00 7.9192357272585955e-03
    -1.1493422703098446e+00 7.8435811097595579e-03
    -1.0106954914038579e+00 7.8649751654797945e-03
    -9.2810890450090022e-01 7.9315998811219438e-03
    -8.6066296582387058e-01 7.9910134446340465e-03
    -8.2375447104791388e-01 8.4127320923996097e-03
    -6.8465319688145754e-01 9.4149191683229223e-03
    -5.3634991645073671e-01 1.0857256741778143e-02
    -4.2707134896515619e-01 1.2199788015337363e-02
    -3.6404686577682238e-01 1.4472680934627558e-02
    -2.9445747114335319e-01 1.9428372552668473e-02
    -2.1081851067789195e-01 1.2718855407486528e-02
    -3.4503277967117713e-01 1.0567858648840014e-02
    -4.4435597137808680e-01 8.6200642645027099e-03
    -6.4306596441303465e-01 8.3413539778301026e-03
    -7.0147237441220178e-01 8.4127320923996097e-03
    -6.8465319688145754e-01 8.2759305835866867e-03
    -7.1842120810709964e-01 7.9746350436388710e-03
    -8.3288276107366610e-01 7.8716967932047667e-03
    -9.1822505678181132e-01 7.8502479882345561e-03
    -1.0434983894999019e+00 7.8973970487228040e-03
    -1.1247489679763460e+00 7.8793355109587366e-03
    -1.1008018467836767e+00 7.8449131266002323e-03
    -1.0215078369104984e+00 7.8591636617362272e-03
    -1.0660035817780520e+00 7.9449446181157797e-03
    -1.1746262535134473e+00 8.2161013092249702e-03
    -1.3595899560105786e+00 8.2161013092249702e-03
    -1.3595899560105786e+00 8.0269282927604262e-03
    -1.2411851354816255e+00 8.1361630393688364e-03
    -1.3132546139874859e+00 8.2453374583322421e-03
    -1.3756117520244191e+00 8.1615489451734267e-03
    -1.3284223283101428e+00 8.1881837928646627e-03
    -1.3438638879193574e+00 8.1361630393688364e-03
    -1.3132546139874859e+00 8.2161013092249702e-03
    -1.3595899560105786e+00 8.0890135628239896e-03
    -1.2837006364194348e+00 8.0890135628239896e-03
    -1.2837006364194348e+00 8.2759305835866884e-03
    -1.3919410907075058e+00 8.6200642645027116e-03
    -1.5550504230351567e+00 8.7159122614901188e-03
    -1.5959855297967944e+00 8.5750505664172801e-03
    -1.5352989471574769e+00 8.1881837928646627e-03
    -1.3438638879193574e+00 7.9192357272585955e-03
    -1.1493422703098446e+00 7.8878992737305524e-03
    -1.1126972805283737e+00 7.8435811097595579e-03
    -1.0106954914038579e+00 7.8793355109587366e-03
    -9.0842870851080115e-01 8.0084379576149702e-03
    -8.1468816989035264e-01 8.8200753880262241e-03
    -6.1013340649617576e-01 9.8634383209882468e-03
    -4.9500819446023464e-01 1.2449439123611246e-02
    -3.5461035376030969e-01 1.4937538128720024e-02
    -2.8365431446558770e-01 1.8368339534295938e-02
    -2.2423052782558076e-01 1.2449439123611246e-02
    -3.5461035376030969e-01 9.9665448276416210e-03
    -4.8666426339228769e-01 8.6669918811383313e-03
    -6.3481105427273843e-01 8.1361630393688364e-03
    -7.6146696105156741e-01 7.9449446181157814e-03
    -8.5133462410607663e-01 7.8793355109587366e-03
    -9.0842870851080115e-01 7.8793355109587366e-03
    -9.0842870851080115e-01 7.8435811097595579e-03
    -9.8941769158482940e-01 7.8878992737305524e-03
    -1.1126972805283737e+00 7.8502479882345561e-03
    -1.0434983894999019e+00 7.9078388417987353e-03
    -1.1369621483713821e+00 7.8973970487228040e-03
    -1.1247489679763460e+00 7.9910134446340483e-03
    -1.2139539573337681e+00 8.3413539778301026e-03
    -1.4255728899344746e+00 8.4904751631879605e-03
    -1.4971236790408557e+00 8.3079215628214954e-03
    -1.4085904245475274e+00 8.2453374583322421e-03
    -1.3756117520244191e+00 8.3413539778301026e-03
    -1.4255728899344746e+00 8.2759305835866884e-03
    -1.3919410907075058e+00 8.3079215628214954e-03
    -1.4085904245475274e+00 8.2161013092249702e-03
    -1.3595899560105786e+00 8.1615489451734267e-03
    -1.3284223283101428e+00 8.3413539778301026e-03
    -1.4255728899344746e+00 8.2161013092249702e-03
    -1.3595899560105786e+00 8.3079215628214954e-03
    -1.4085904245475274e+00 9.1905900194295415e-03
    -1.7826322609494587e+00 9.1905900194295415e-03
    -1.7826322609494587e+00 9.0564748108176597e-03
    -1.7320508075688774e+00 8.3079215628214954e-03
    -1.4085904245475274e+00 8.2161013092249702e-03
    -1.3595899560105786e+00 8.0084379576149702e-03
    -1.2274635093014648e+00 7.9192357272585955e-03
    -1.1493422703098446e+00 7.9192357272585955e-03
    -1.1493422703098446e+00 7.8471346635084118e-03
    -1.0324408292653222e+00 7.9192357272585955e-03
    -8.7006284014109736e-01 8.2453374583322421e-03
    -7.2694929985030277e-01 9.4149191683229223e-03
    -5.3634991645073671e-01 1.2449439123611246e-02
    -3.5461035376030969e-01 1.6042450646897643e-02
    -2.6111648393354675e-01 1.6708393433465741e-02
    -2.4929278500463511e-01 1.1014851889944412e-02
    -4.1833001326703778e-01 8.9935889075649141e-03
    -5.8554004376911994e-01 8.4904751631879605e-03
    -6.6794748757207412e-01 7.9910134446340465e-03
    -8.2375447104791388e-01 7.8542562846347381e-03
    -9.4815077861587960e-01 7.8435811097595579e-03
    -1.0106954914038579e+00 7.8649751654797963e-03
    -1.0774597626964477e+00 7.9315998811219438e-03
    -1.1618950038622253e+00 7.8973970487228040e-03
    -1.1247489679763460e+00 7.9315998811219438e-03
    -1.1618950038622253e+00 7.9592844325936992e-03
    -1.1875421719907089e+00 8.0890135628239896e-03
    -1.2837006364194348e+00 8.1881837928646627e-03
    -1.3438638879193574e+00 8.2161013092249702e-03
    -1.3595899560105786e+00 8.3413539778301026e-03
    -1.4255728899344746e+00 8.2161013092249702e-03
    -1.3595899560105786e+00 8.2161013092249702e-03
    -1.3595899560105786e+00 8.4507802342443598e-03
    -1.4786617861992990e+00 8.3413539778301026e-03
    -1.4255728899344746e+00 8.3762742998084345e-03
    -1.4429023574430646e+00 8.1615489451734267e-03
    -1.3284223283101428e+00 8.2161013092249702e-03
    -1.3595899560105786e+00 8.6669918811383313e-03
    -1.5752718754175361e+00 8.7159122614901188e-03
    -1.5959855297967944e+00 8.9333063742204222e-03
    -1.6842608746502281e+00 9.4965765443964859e-03
    -1.8935062328016077e+00 9.2621131994476413e-03
    -1.8090680674665820e+00 8.9935889075649141e-03
    -1.7078251276599330e+00 8.4904751631879605e-03
    -1.4971236790408557e+00 8.2161013092249702e-03
    -1.3595899560105786e+00 8.1119944558337605e-03
    -1.2983506020002014e+00 7.9078388417987353e-03
    -1.1369621483713821e+00 7.8435811097595579e-03
    -1.0106954914038579e+00 7.8502479882345561e-03
    -1.0434983894999019e+00 7.8716967932047667e-03
    -9.1822505678181132e-01 8.3762742998084345e-03
    -6.9304758900808616e-01 9.0564748108176597e-03
    -5.7735026918962584e-01 9.7651797305187537e-03
    -5.0332229568471665e-01 1.3673986693599418e-02
    -3.1530176764230572e-01 1.2718855407486528e-02
    -3.4503277967117713e-01 9.9665448276416210e-03
    -4.8666426339228769e-01 8.9333063742204222e-03
    -5.9373225077597969e-01 8.2453374583322421e-03
    -7.2694929985030277e-01 7.8793355109587366e-03
    -9.0842870851080115e-01 7.8471346635084118e-03
    -9.6857850992932293e-01 7.8649751654797963e-03
    -1.0774597626964477e+00 7.9592844325936992e-03
    -1.1875421719907089e+00 7.9910134446340483e-03
    -1.2139539573337681e+00 8.0269282927604262e-03
    -1.2411851354816255e+00 8.1119944558337605e-03
    -1.2983506020002014e+00 8.1119944558337605e-03
    -1.2983506020002014e+00 8.4127320923996097e-03
    -1.4605934866804429e+00 8.4904751631879605e-03
    -1.4971236790408557e+00 8.4127320923996097e-03
    -1.4605934866804429e+00 8.1615489451734267e-03
    -1.3284223283101428e+00 8.2453374583322421e-03
    -1.3756117520244191e+00 8.3079215628214954e-03
    -1.4085904245475274e+00 8.3079215628214954e-03
    -1.4085904245475274e+00 8.2453374583322421e-03
    -1.3756117520244191e+00 8.0671926070679210e-03
    -1.2692955176439846e+00 8.0671926070679210e-03
    -1.2692955176439846e+00 8.2759305835866884e-03
    -1.3919410907075058e+00 8.4904751631879605e-03
    -1.4971236790408557e+00 8.4507802342443598e-03
    -1.4786617861992990e+00 9.1220947901041738e-03
    -1.7569736827110221e+00 8.9333063742204222e-03
    -1.6842608746502281e+00 8.8200753880262241e-03
    -1.6389858174505114e+00 8.9935889075649141e-03
    -1.7078251276599330e+00 8.8200753880262241e-03
    -1.6389858174505114e+00 8.8755060314214141e-03
    -1.6613247725836147e+00 8.4507802342443598e-03
    -1.4786617861992990e+00 8.1119944558337605e-03
    -1.2983506020002014e+00 7.8878992737305524e-03
    -1.1126972805283737e+00 7.8435811097595579e-03
    -9.8941769158482940e-01 7.8431372549019607e-03 -1.
    8.0269282927604262e-03 -8.0568157917228322e-01
    8.6669918811383313e-03 -6.3481105427273843e-01
    9.4149191683229223e-03 -5.3634991645073671e-01
    1.2199788015337363e-02 -3.6404686577682238e-01
    1.3673986693599418e-02 -3.1530176764230572e-01
    1.0074834744958700e-02 -4.7828670265295953e-01
    8.4127320923996097e-03 -6.8465319688145754e-01
    8.1361630393688364e-03 -7.6146696105156741e-01
    7.8435811097595579e-03 -9.8941769158482940e-01
    7.8502479882345561e-03 -1.0434983894999019e+00
    7.9192357272585955e-03 -1.1493422703098446e+00
    8.1361630393688364e-03 -1.3132546139874859e+00
    8.2161013092249702e-03 -1.3595899560105786e+00
    8.0269282927604262e-03 -1.2411851354816255e+00
    8.1361630393688364e-03 -1.3132546139874859e+00
    8.2161013092249702e-03 -1.3595899560105786e+00
    8.2453374583322421e-03 -1.3756117520244191e+00
    8.1881837928646627e-03 -1.3438638879193574e+00
    8.2759305835866884e-03 -1.3919410907075058e+00
    8.2453374583322421e-03 -1.3756117520244191e+00
    8.2759305835866884e-03 -1.3919410907075058e+00
    8.1361630393688364e-03 -1.3132546139874859e+00
    8.3413539778301026e-03 -1.4255728899344746e+00
    8.4127320923996097e-03 -1.4605934866804429e+00
    8.2453374583322421e-03 -1.3756117520244191e+00
    8.2453374583322421e-03 -1.3756117520244191e+00
    8.3079215628214954e-03 -1.4085904245475274e+00
    8.4904751631879605e-03 -1.4971236790408557e+00
    8.6669918811383313e-03 -1.5752718754175361e+00
    8.7669098922593027e-03 -1.6172150801252798e+00
    9.0564748108176597e-03 -1.7320508075688774e+00
    9.1220947901041738e-03 -1.7569736827110221e+00
    8.5750505664172801e-03 -1.5352989471574769e+00
    8.8755060314214141e-03 -1.6613247725836147e+00
    8.7159122614901188e-03 -1.5959855297967944e+00
    8.5318771445783755e-03 -1.5159965745459607e+00
    8.3762742998084345e-03 -1.4429023574430646e+00
    8.0671926070679210e-03 -1.2692955176439846e+00
    7.8793355109587366e-03 -1.1008018467836767e+00
    7.8502479882345561e-03 -1.0434983894999019e+00
    7.8973970487228023e-03 -8.8908727944796873e-01
    8.1361630393688364e-03 -7.6146696105156741e-01
    9.2621131994476413e-03 -5.5277079839256671e-01
    1.1549252125312626e-02 -3.9163022499397865e-01
    1.4472680934627558e-02 -2.9445747114335319e-01
    9.7651797305187537e-03 -5.0332229568471665e-01
    8.5318771445783773e-03 -6.5963209732152506e-01
    8.0084379576149702e-03 -8.1468816989035264e-01
    7.8435811097595579e-03 -9.8941769158482940e-01
    7.8793355109587366e-03 -1.1008018467836767e+00
    7.9592844325936992e-03 -1.1875421719907089e+00
    8.3079215628214954e-03 -1.4085904245475274e+00
    8.4507802342443598e-03 -1.4786617861992990e+00
    8.2759305835866884e-03 -1.3919410907075058e+00
    8.4904751631879605e-03 -1.4971236790408557e+00
    8.3413539778301026e-03 -1.4255728899344746e+00
    8.2759305835866884e-03 -1.3919410907075058e+00
    8.4507802342443598e-03 -1.4786617861992990e+00
    8.2453374583322421e-03 -1.3756117520244191e+00
    8.1881837928646627e-03 -1.3438638879193574e+00
    8.3079215628214954e-03 -1.4085904245475274e+00
    8.1119944558337605e-03 -1.2983506020002014e+00
    8.2453374583322421e-03 -1.3756117520244191e+00
    8.1615489451734267e-03 -1.3284223283101428e+00
    8.1881837928646627e-03 -1.3438638879193574e+00
    8.3762742998084345e-03 -1.4429023574430646e+00
    8.2759305835866884e-03 -1.3919410907075058e+00
    8.4507802342443598e-03 -1.4786617861992990e+00
    8.4507802342443598e-03 -1.4786617861992990e+00
    8.4507802342443598e-03 -1.4786617861992990e+00
    8.5750505664172801e-03 -1.5352989471574769e+00
    8.9935889075649141e-03 -1.7078251276599330e+00
    9.2621131994476413e-03 -1.8090680674665820e+00
    9.1220947901041738e-03 -1.7569736827110221e+00
    8.7669098922593027e-03 -1.6172150801252798e+00
    8.5750505664172801e-03 -1.5352989471574769e+00
    8.4507802342443598e-03 -1.4786617861992990e+00
    8.1615489451734267e-03 -1.3284223283101428e+00
    7.9746350436388693e-03 -1.2006491750542456e+00
    7.8878992737305524e-03 -1.1126972805283737e+00
    7.8431372549019607e-03 -1. 8.1361630393688364e-03
    -7.6146696105156741e-01 9.0564748108176597e-03
    -5.7735026918962584e-01 1.0434709922509019e-02
    -4.5291081365783831e-01 1.3327753617616784e-02
    -3.2539568672798425e-01 9.5820143179496890e-03
    -5.1987524491003634e-01 8.3079215628214971e-03
    -7.0992957397195400e-01 7.9315998811219438e-03
    -8.6066296582387058e-01 7.8542562846347381e-03
    -1.0546845739659785e+00 7.9078388417987353e-03
    -1.1369621483713821e+00 7.9449446181157797e-03
    -1.1746262535134473e+00 8.1615489451734267e-03
    -1.3284223283101428e+00 8.4507802342443598e-03
    -1.4786617861992990e+00 8.4904751631879605e-03
    -1.4971236790408557e+00 8.8755060314214141e-03
    -1.6613247725836147e+00 8.9333063742204222e-03
    -1.6842608746502281e+00 8.5318771445783755e-03
    -1.5159965745459607e+00 8.6200642645027116e-03
    -1.5550504230351567e+00 8.5318771445783755e-03
    -1.5159965745459607e+00 8.3413539778301026e-03
    -1.4255728899344746e+00 8.2759305835866884e-03
    -1.3919410907075058e+00 8.1361630393688364e-03
    -1.3132546139874859e+00 8.1615489451734267e-03
    -1.3284223283101428e+00 8.3413539778301026e-03
    -1.4255728899344746e+00 8.1615489451734267e-03
    -1.3284223283101428e+00 8.1615489451734267e-03
    -1.3284223283101428e+00 8.2759305835866884e-03
    -1.3919410907075058e+00 8.3762742998084345e-03
    -1.4429023574430646e+00 8.4904751631879605e-03
    -1.4971236790408557e+00 8.4507802342443598e-03
    -1.4786617861992990e+00 8.5318771445783755e-03
    -1.5159965745459607e+00 8.8200753880262241e-03
    -1.6389858174505114e+00 9.1905900194295415e-03
    -1.7826322609494587e+00 8.9935889075649141e-03
    -1.7078251276599330e+00 9.4965765443964859e-03
    -1.8935062328016077e+00 9.1220947901041738e-03
    -1.7569736827110221e+00 8.7669098922593027e-03
    -1.6172150801252798e+00 8.4904751631879605e-03
    -1.4971236790408557e+00 8.2453374583322421e-03
    -1.3756117520244191e+00 7.9315998811219438e-03
    -1.1618950038622253e+00 7.8649751654797963e-03
    -1.0774597626964477e+00 8.0084379576149702e-03
    -8.1468816989035264e-01 8.9333063742204222e-03
    -5.9373225077597969e-01 9.9665448276416210e-03
    -4.8666426339228769e-01 1.4053789814965526e-02
    -3.0499714066520928e-01 1.0074834744958700e-02
    -4.7828670265295953e-01 8.3413539778301026e-03
    -7.0147237441220178e-01 8.0269282927604262e-03
    -8.0568157917228322e-01 7.8435811097595579e-03
    -9.8941769158482940e-01 7.8973970487228040e-03
    -1.1247489679763460e+00 8.0269282927604262e-03
    -1.2411851354816255e+00 8.0465056134127709e-03
    -1.2551264740070720e+00 8.4904751631879605e-03
    -1.4971236790408557e+00 8.3413539778301026e-03
    -1.4255728899344746e+00 8.5750505664172801e-03
    -1.5352989471574769e+00 8.9935889075649141e-03
    -1.7078251276599330e+00 8.5750505664172801e-03
    -1.5352989471574769e+00 8.6200642645027116e-03
    -1.5550504230351567e+00 8.5750505664172801e-03
    -1.5352989471574769e+00 8.2759305835866884e-03
    -1.3919410907075058e+00 8.3079215628214954e-03
    -1.4085904245475274e+00 8.2453374583322421e-03
    -1.3756117520244191e+00 8.1119944558337605e-03
    -1.2983506020002014e+00 8.1361630393688364e-03
    -1.3132546139874859e+00 8.2161013092249702e-03
    -1.3595899560105786e+00 8.2161013092249702e-03
    -1.3595899560105786e+00 8.2161013092249702e-03
    -1.3595899560105786e+00 8.3413539778301026e-03
    -1.4255728899344746e+00 8.4507802342443598e-03
    -1.4786617861992990e+00 8.1615489451734267e-03
    -1.3284223283101428e+00 8.3413539778301026e-03
    -1.4255728899344746e+00 8.4904751631879605e-03
    -1.4971236790408557e+00 8.6669918811383313e-03
    -1.5752718754175361e+00 8.6669918811383313e-03
    -1.5752718754175361e+00 9.1905900194295415e-03
    -1.7826322609494587e+00 8.8200753880262241e-03
    -1.6389858174505114e+00 8.9935889075649141e-03
    -1.7078251276599330e+00 8.6200642645027116e-03
    -1.5550504230351567e+00 8.2161013092249702e-03
    -1.3595899560105786e+00 8.0465056134127709e-03
    -1.2551264740070720e+00 7.8649751654797963e-03
    -1.0774597626964477e+00 7.9192357272585955e-03
    -8.7006284014109736e-01 8.8755060314214158e-03
    -6.0192926542884595e-01 9.4965765443964859e-03
    -5.2812078601949608e-01 1.3673986693599418e-02
    -3.1530176764230572e-01 9.9665448276416210e-03
    -4.8666426339228769e-01 8.4127320923996097e-03
    -6.8465319688145754e-01 7.9449446181157814e-03
    -8.5133462410607663e-01 7.8435811097595579e-03
    -1.0106954914038579e+00 7.8878992737305524e-03
    -1.1126972805283737e+00 8.0671926070679210e-03
    -1.2692955176439846e+00 8.3079215628214954e-03
    -1.4085904245475274e+00 8.4127320923996097e-03
    -1.4605934866804429e+00 8.4507802342443598e-03
    -1.4786617861992990e+00 8.8200753880262241e-03
    -1.6389858174505114e+00 8.9333063742204222e-03
    -1.6842608746502281e+00 8.7159122614901188e-03
    -1.5959855297967944e+00 8.3762742998084345e-03
    -1.4429023574430646e+00 8.4904751631879605e-03
    -1.4971236790408557e+00 8.3413539778301026e-03
    -1.4255728899344746e+00 8.2759305835866884e-03
    -1.3919410907075058e+00 8.1361630393688364e-03
    -1.3132546139874859e+00 8.3762742998084345e-03
    -1.4429023574430646e+00 8.3079215628214954e-03
    -1.4085904245475274e+00 8.2759305835866884e-03
    -1.3919410907075058e+00 8.2759305835866884e-03
    -1.3919410907075058e+00 8.1881837928646627e-03
    -1.3438638879193574e+00 8.4507802342443598e-03
    -1.4786617861992990e+00 8.3762742998084345e-03
    -1.4429023574430646e+00 8.2161013092249702e-03
    -1.3595899560105786e+00 8.4507802342443598e-03
    -1.4786617861992990e+00 8.6200642645027116e-03
    -1.5550504230351567e+00 8.5318771445783755e-03
    -1.5159965745459607e+00 9.1220947901041738e-03
    -1.7569736827110221e+00 8.9935889075649141e-03
    -1.7078251276599330e+00 8.7159122614901188e-03
    -1.5959855297967944e+00 8.5750505664172801e-03
    -1.5352989471574769e+00 8.1881837928646627e-03
    -1.3438638879193574e+00 8.0269282927604262e-03
    -1.2411851354816255e+00 8.0671926070679210e-03
    -1.2692955176439846e+00 7.8973970487228040e-03
    -1.1247489679763460e+00 7.9315998811219438e-03
    -8.6066296582387058e-01 9.0564748108176597e-03
    -5.7735026918962584e-01 9.9665448276416210e-03
    -4.8666426339228769e-01 1.3327753617616784e-02
    -3.2539568672798425e-01 9.4149191683229223e-03
    -5.3634991645073671e-01 8.2759305835866867e-03
    -7.1842120810709964e-01 7.8591636617362272e-03
    -9.3808315196468584e-01 7.8449131266002323e-03
    -9.7894501037256088e-01 7.8542562846347381e-03
    -1.0546845739659785e+00 8.0084379576149702e-03
    -1.2274635093014648e+00 8.2161013092249702e-03
    -1.3595899560105786e+00 8.7669098922593027e-03
    -1.6172150801252798e+00 8.5750505664172801e-03
    -1.5352989471574769e+00 9.0564748108176597e-03
    -1.7320508075688774e+00 8.9935889075649141e-03
    -1.7078251276599330e+00 8.3413539778301026e-03
    -1.4255728899344746e+00 8.4904751631879605e-03
    -1.4971236790408557e+00 8.6669918811383313e-03
    -1.5752718754175361e+00 8.3079215628214954e-03
    -1.4085904245475274e+00 8.2759305835866884e-03
    -1.3919410907075058e+00 8.3413539778301026e-03
    -1.4255728899344746e+00 8.4127320923996097e-03
    -1.4605934866804429e+00 8.5750505664172801e-03
    -1.5352989471574769e+00 8.7159122614901188e-03
    -1.5959855297967944e+00 8.3762742998084345e-03
    -1.4429023574430646e+00 8.1119944558337605e-03
    -1.2983506020002014e+00 8.3413539778301026e-03
    -1.4255728899344746e+00 8.3413539778301026e-03
    -1.4255728899344746e+00 8.5750505664172801e-03
    -1.5352989471574769e+00 8.6200642645027116e-03
    -1.5550504230351567e+00 8.7669098922593027e-03
    -1.6172150801252798e+00 8.5750505664172801e-03
    -1.5352989471574769e+00 8.5750505664172801e-03
    -1.5352989471574769e+00 8.8200753880262241e-03
    -1.6389858174505114e+00 8.4507802342443598e-03
    -1.4786617861992990e+00 8.4507802342443598e-03
    -1.4786617861992990e+00 8.3079215628214954e-03
    -1.4085904245475274e+00 8.1119944558337605e-03
    -1.2983506020002014e+00 7.9592844325936992e-03
    -1.1875421719907089e+00 7.8878992737305524e-03
    -1.1126972805283737e+00 7.8716967932047667e-03
    -9.1822505678181132e-01 9.0564748108176597e-03
    -5.7735026918962584e-01 9.9665448276416210e-03
    -4.8666426339228769e-01 1.2718855407486528e-02
    -3.4503277967117713e-01 9.4965765443964859e-03
    -5.2812078601949608e-01 8.2453374583322421e-03
    -7.2694929985030277e-01 7.9592844325936992e-03
    -8.4207535832068448e-01 7.8435811097595579e-03
    -1.0106954914038579e+00 7.9449446181157797e-03
    -1.1746262535134473e+00 7.9746350436388693e-03
    -1.2006491750542456e+00 8.0671926070679210e-03
    -1.2692955176439846e+00 8.2759305835866884e-03
    -1.3919410907075058e+00 8.5318771445783755e-03
    -1.5159965745459607e+00 8.3762742998084345e-03
    -1.4429023574430646e+00 8.3762742998084345e-03
    -1.4429023574430646e+00 8.3762742998084345e-03
    -1.4429023574430646e+00 8.5318771445783755e-03
    -1.5159965745459607e+00 8.5318771445783755e-03
    -1.5159965745459607e+00 8.2161013092249702e-03
    -1.3595899560105786e+00 8.2161013092249702e-03
    -1.3595899560105786e+00 8.2453374583322421e-03
    -1.3756117520244191e+00 8.2759305835866884e-03
    -1.3919410907075058e+00 8.3413539778301026e-03
    -1.4255728899344746e+00 8.5750505664172801e-03
    -1.5352989471574769e+00 8.4127320923996097e-03
    -1.4605934866804429e+00 8.0465056134127709e-03
    -1.2551264740070720e+00 8.2453374583322421e-03
    -1.3756117520244191e+00 8.1361630393688364e-03
    -1.3132546139874859e+00 8.4127320923996097e-03
    -1.4605934866804429e+00 8.3413539778301026e-03
    -1.4255728899344746e+00 8.4127320923996097e-03
    -1.4605934866804429e+00 8.4127320923996097e-03
    -1.4605934866804429e+00 8.3762742998084345e-03
    -1.4429023574430646e+00 8.5318771445783755e-03
    -1.5159965745459607e+00 8.2453374583322421e-03
    -1.3756117520244191e+00 8.1119944558337605e-03
    -1.2983506020002014e+00 8.1119944558337605e-03
    -1.2983506020002014e+00 7.8649751654797963e-03
    -1.0774597626964477e+00 7.8716967932047650e-03
    -1.0890576254854039e+00 7.8502479882345561e-03
    -1.0434983894999019e+00 7.9449446181157814e-03
    -8.5133462410607663e-01 8.4507802342443598e-03
    -6.7628717353301271e-01 9.8634383209882468e-03
    -4.9500819446023464e-01 1.3327753617616784e-02
    -3.2539568672798425e-01 9.6714642566788425e-03
    -5.1161017038654832e-01 8.3413539778301026e-03
    -7.0147237441220178e-01 7.9592844325936992e-03
    -8.4207535832068448e-01 7.8542562846347381e-03
    -9.4815077861587960e-01 7.8649751654797963e-03
    -1.0774597626964477e+00 7.9910134446340483e-03
    -1.2139539573337681e+00 8.0890135628239896e-03
    -1.2837006364194348e+00 8.2759305835866884e-03
    -1.3919410907075058e+00 8.2759305835866884e-03
    -1.3919410907075058e+00 8.4507802342443598e-03
    -1.4786617861992990e+00 8.3762742998084345e-03
    -1.4429023574430646e+00 8.5318771445783755e-03
    -1.5159965745459607e+00 8.0890135628239896e-03
    -1.2837006364194348e+00 8.6200642645027116e-03
    -1.5550504230351567e+00 8.3413539778301026e-03
    -1.4255728899344746e+00 8.3413539778301026e-03
    -1.4255728899344746e+00 8.1615489451734267e-03
    -1.3284223283101428e+00 8.1881837928646627e-03
    -1.3438638879193574e+00 8.2453374583322421e-03
    -1.3756117520244191e+00 8.2453374583322421e-03
    -1.3756117520244191e+00 8.1615489451734267e-03
    -1.3284223283101428e+00 8.2759305835866884e-03
    -1.3919410907075058e+00 8.2161013092249702e-03
    -1.3595899560105786e+00 8.1615489451734267e-03
    -1.3284223283101428e+00 8.4127320923996097e-03
    -1.4605934866804429e+00 8.4904751631879605e-03
    -1.4971236790408557e+00 8.2453374583322421e-03
    -1.3756117520244191e+00 8.3762742998084345e-03
    -1.4429023574430646e+00 8.2161013092249702e-03
    -1.3595899560105786e+00 8.0084379576149702e-03
    -1.2274635093014648e+00 8.0269282927604262e-03
    -1.2411851354816255e+00 8.0269282927604262e-03
    -1.2411851354816255e+00 8.0269282927604262e-03
    -1.2411851354816255e+00 7.8793355109587366e-03
    -1.1008018467836767e+00 7.8649751654797963e-03
    -1.0774597626964477e+00 7.8502479882345561e-03
    -1.0434983894999019e+00 7.9315998811219438e-03
    -8.6066296582387058e-01 8.3762742998084345e-03
    -6.9304758900808616e-01 9.4965765443964859e-03
    -5.2812078601949608e-01 1.6708393433465741e-02
    -2.4929278500463511e-01 1.0434709922509019e-02
    -4.5291081365783831e-01 8.7669098922593027e-03
    -6.1834694240084231e-01 7.9746350436388710e-03
    -8.3288276107366610e-01 7.8878992737305507e-03
    -8.9871703427291705e-01 7.8542562846347381e-03
    -1.0546845739659785e+00 7.8793355109587366e-03
    -1.1008018467836767e+00 8.0890135628239896e-03
    -1.2837006364194348e+00 8.3079215628214954e-03
    -1.4085904245475274e+00 8.3413539778301026e-03
    -1.4255728899344746e+00 8.2161013092249702e-03
    -1.3595899560105786e+00 8.3413539778301026e-03
    -1.4255728899344746e+00 8.3079215628214954e-03
    -1.4085904245475274e+00 8.4127320923996097e-03
    -1.4605934866804429e+00 8.2759305835866884e-03
    -1.3919410907075058e+00 8.3079215628214954e-03
    -1.4085904245475274e+00 8.2453374583322421e-03
    -1.3756117520244191e+00 8.2161013092249702e-03
    -1.3595899560105786e+00 8.2759305835866884e-03
    -1.3919410907075058e+00 8.2453374583322421e-03
    -1.3756117520244191e+00 8.3413539778301026e-03
    -1.4255728899344746e+00 8.2161013092249702e-03
    -1.3595899560105786e+00 8.1361630393688364e-03
    -1.3132546139874859e+00 8.2453374583322421e-03
    -1.3756117520244191e+00 8.3762742998084345e-03
    -1.4429023574430646e+00 8.3079215628214954e-03
    -1.4085904245475274e+00 8.3413539778301026e-03
    -1.4255728899344746e+00 8.4127320923996097e-03
    -1.4605934866804429e+00 8.2161013092249702e-03
    -1.3595899560105786e+00 8.1361630393688364e-03
    -1.3132546139874859e+00 8.1615489451734267e-03
    -1.3284223283101428e+00 7.9592844325936992e-03
    -1.1875421719907089e+00 8.0084379576149702e-03
    -1.2274635093014648e+00 7.9910134446340483e-03
    -1.2139539573337681e+00 7.8716967932047650e-03
    -1.0890576254854039e+00 7.8471346635084118e-03
    -1.0324408292653222e+00 7.8449131266002323e-03
    -9.7894501037256088e-01 8.0269282927604262e-03
    -8.0568157917228322e-01 8.4127320923996097e-03
    -6.8465319688145754e-01 1.0188678299086573e-02
    -4.6987149389936478e-01 1.8368339534295938e-02
    -2.2423052782558076e-01 1.0188678299086573e-02
    -4.6987149389936478e-01 8.7159122614901188e-03
    -6.2657209688318594e-01 8.2759305835866867e-03
    -7.1842120810709964e-01 7.9315998811219438e-03
    -8.6066296582387058e-01 7.8449131266002323e-03
    -1.0215078369104984e+00 7.8878992737305524e-03
    -1.1126972805283737e+00 8.0269282927604262e-03
    -1.2411851354816255e+00 8.0084379576149702e-03
    -1.2274635093014648e+00 8.1881837928646627e-03
    -1.3438638879193574e+00 8.0671926070679210e-03
    -1.2692955176439846e+00 8.2759305835866884e-03
    -1.3919410907075058e+00 8.2453374583322421e-03
    -1.3756117520244191e+00 8.3079215628214954e-03
    -1.4085904245475274e+00 8.4904751631879605e-03
    -1.4971236790408557e+00 8.7669098922593027e-03
    -1.6172150801252798e+00 8.3762742998084345e-03
    -1.4429023574430646e+00 8.4904751631879605e-03
    -1.4971236790408557e+00 8.2759305835866884e-03
    -1.3919410907075058e+00 8.2161013092249702e-03
    -1.3595899560105786e+00 8.4127320923996097e-03
    -1.4605934866804429e+00 8.3079215628214954e-03
    -1.4085904245475274e+00 8.3413539778301026e-03
    -1.4255728899344746e+00 8.2161013092249702e-03
    -1.3595899560105786e+00 8.3079215628214954e-03
    -1.4085904245475274e+00 8.1361630393688364e-03
    -1.3132546139874859e+00 8.4127320923996097e-03
    -1.4605934866804429e+00 8.4507802342443598e-03
    -1.4786617861992990e+00 8.0465056134127709e-03
    -1.2551264740070720e+00 8.0890135628239896e-03
    -1.2837006364194348e+00 7.9315998811219438e-03
    -1.1618950038622253e+00 7.9746350436388693e-03
    -1.2006491750542456e+00 8.0465056134127709e-03
    -1.2551264740070720e+00 7.9592844325936992e-03
    -1.1875421719907089e+00 7.8542562846347381e-03
    -1.0546845739659785e+00 7.8649751654797963e-03
    -1.0774597626964477e+00 7.8471346635084118e-03
    -9.6857850992932293e-01 7.9910134446340465e-03
    -8.2375447104791388e-01 8.4507802342443598e-03
    -6.7628717353301271e-01 1.0074834744958700e-02
    -4.7828670265295953e-01 1.7474617072610926e-02
    -2.3702273156998863e-01 1.1751413927049764e-02
    -3.8254602783800296e-01 9.0564748108176597e-03
    -5.7735026918962584e-01 8.5318771445783773e-03
    -6.5963209732152506e-01 8.0465056134127709e-03
    -7.9673245741318477e-01 7.9078388417987353e-03
    -8.7953675628729555e-01 7.8878992737305524e-03
    -1.1126972805283737e+00 8.0269282927604262e-03
    -1.2411851354816255e+00 8.1615489451734267e-03
    -1.3284223283101428e+00 8.0671926070679210e-03
    -1.2692955176439846e+00 8.3079215628214954e-03
    -1.4085904245475274e+00 8.5750505664172801e-03
    -1.5352989471574769e+00 8.7159122614901188e-03
    -1.5959855297967944e+00 8.4127320923996097e-03
    -1.4605934866804429e+00 8.4507802342443598e-03
    -1.4786617861992990e+00 8.4904751631879605e-03
    -1.4971236790408557e+00 8.5750505664172801e-03
    -1.5352989471574769e+00 8.4507802342443598e-03
    -1.4786617861992990e+00 8.6669918811383313e-03
    -1.5752718754175361e+00 8.3762742998084345e-03
    -1.4429023574430646e+00 8.2161013092249702e-03
    -1.3595899560105786e+00 8.2453374583322421e-03
    -1.3756117520244191e+00 8.4507802342443598e-03
    -1.4786617861992990e+00 8.1361630393688364e-03
    -1.3132546139874859e+00 8.1119944558337605e-03
    -1.2983506020002014e+00 8.1361630393688364e-03
    -1.3132546139874859e+00 8.0671926070679210e-03
    -1.2692955176439846e+00 8.1119944558337605e-03
    -1.2983506020002014e+00 8.1119944558337605e-03
    -1.2983506020002014e+00 8.1361630393688364e-03
    -1.3132546139874859e+00 7.9746350436388693e-03
    -1.2006491750542456e+00 7.9592844325936992e-03
    -1.1875421719907089e+00 8.0671926070679210e-03
    -1.2692955176439846e+00 8.0084379576149702e-03
    -1.2274635093014648e+00 7.9078388417987353e-03
    -1.1369621483713821e+00 7.8431372549019607e-03 -1.
    7.8716967932047667e-03 -9.1822505678181132e-01
    8.0465056134127709e-03 -7.9673245741318477e-01
    8.8755060314214158e-03 -6.0192926542884595e-01
    9.9665448276416210e-03 -4.8666426339228769e-01
    1.8368339534295938e-02 -2.2423052782558076e-01
    1.2199788015337363e-02 -3.6404686577682238e-01
    9.4965765443964859e-03 -5.2812078601949608e-01
    8.4507802342443598e-03 -6.7628717353301271e-01
    8.0084379576149702e-03 -8.1468816989035264e-01
    7.8878992737305507e-03 -8.9871703427291705e-01
    7.8502479882345561e-03 -9.5831484749990992e-01
    7.9449446181157797e-03 -1.1746262535134473e+00
    7.9910134446340483e-03 -1.2139539573337681e+00
    8.0671926070679210e-03 -1.2692955176439846e+00
    8.0671926070679210e-03 -1.2692955176439846e+00
    8.2759305835866884e-03 -1.3919410907075058e+00
    8.3762742998084345e-03 -1.4429023574430646e+00
    8.3079215628214954e-03 -1.4085904245475274e+00
    8.6669918811383313e-03 -1.5752718754175361e+00
    8.6200642645027116e-03 -1.5550504230351567e+00
    8.3079215628214954e-03 -1.4085904245475274e+00
    8.3762742998084345e-03 -1.4429023574430646e+00
    8.4904751631879605e-03 -1.4971236790408557e+00
    8.4904751631879605e-03 -1.4971236790408557e+00
    8.3762742998084345e-03 -1.4429023574430646e+00
    8.3079215628214954e-03 -1.4085904245475274e+00
    8.2453374583322421e-03 -1.3756117520244191e+00
    8.2759305835866884e-03 -1.3919410907075058e+00
    8.0890135628239896e-03 -1.2837006364194348e+00
    8.2161013092249702e-03 -1.3595899560105786e+00
    8.0671926070679210e-03 -1.2692955176439846e+00
    8.3413539778301026e-03 -1.4255728899344746e+00
    8.2759305835866884e-03 -1.3919410907075058e+00
    8.0671926070679210e-03 -1.2692955176439846e+00
    7.9910134446340483e-03 -1.2139539573337681e+00
    8.0269282927604262e-03 -1.2411851354816255e+00
    7.9592844325936992e-03 -1.1875421719907089e+00
    7.8649751654797963e-03 -1.0774597626964477e+00
    7.8716967932047650e-03 -1.0890576254854039e+00
    7.8542562846347381e-03 -9.4815077861587960e-01
    7.8649751654797945e-03 -9.2810890450090022e-01
    8.2759305835866867e-03 -7.1842120810709964e-01
    8.9333063742204222e-03 -5.9373225077597969e-01
    1.0308485154042066e-02 -4.6141437537906377e-01
    1.4472680934627558e-02 -2.9445747114335319e-01
    1.1967729891351989e-02 -3.7335497772755005e-01
    9.6714642566788425e-03 -5.1161017038654832e-01
    9.1220947901041738e-03 -5.6916048876554237e-01
    8.1615489451734267e-03 -7.5277265270908089e-01
    8.0269282927604262e-03 -8.0568157917228322e-01
    7.8793355109587366e-03 -9.0842870851080115e-01
    7.8471346635084118e-03 -1.0324408292653222e+00
    7.9592844325936992e-03 -1.1875421719907089e+00
    7.9449446181157797e-03 -1.1746262535134473e+00
    8.0890135628239896e-03 -1.2837006364194348e+00
    8.0465056134127709e-03 -1.2551264740070720e+00
    8.0084379576149702e-03 -1.2274635093014648e+00
    8.1119944558337605e-03 -1.2983506020002014e+00
    8.3762742998084345e-03 -1.4429023574430646e+00
    8.2161013092249702e-03 -1.3595899560105786e+00
    8.3762742998084345e-03 -1.4429023574430646e+00
    8.2453374583322421e-03 -1.3756117520244191e+00
    8.2759305835866884e-03 -1.3919410907075058e+00
    8.0465056134127709e-03 -1.2551264740070720e+00
    8.1615489451734267e-03 -1.3284223283101428e+00
    8.2453374583322421e-03 -1.3756117520244191e+00
    8.1119944558337605e-03 -1.2983506020002014e+00
    8.1615489451734267e-03 -1.3284223283101428e+00
    8.1881837928646627e-03 -1.3438638879193574e+00
    8.2161013092249702e-03 -1.3595899560105786e+00
    8.1881837928646627e-03 -1.3438638879193574e+00
    8.0890135628239896e-03 -1.2837006364194348e+00
    7.9449446181157797e-03 -1.1746262535134473e+00
    8.0269282927604262e-03 -1.2411851354816255e+00
    8.0671926070679210e-03 -1.2692955176439846e+00
    8.0465056134127709e-03 -1.2551264740070720e+00
    8.0084379576149702e-03 -1.2274635093014648e+00
    7.8973970487228040e-03 -1.1247489679763460e+00
    7.8449131266002323e-03 -1.0215078369104984e+00
    7.8591636617362272e-03 -9.3808315196468584e-01
    7.9746350436388710e-03 -8.3288276107366610e-01
    8.5750505664172819e-03 -6.5133894727892971e-01
    9.2621131994476413e-03 -5.5277079839256671e-01
    1.2199788015337363e-02 -3.6404686577682238e-01
    1.3327753617616784e-02 -3.2539568672798425e-01
    1.2199788015337363e-02 -3.6404686577682238e-01
    1.0074834744958700e-02 -4.7828670265295953e-01
    9.3368297515793262e-03 -5.4456562886206017e-01
    8.6200642645027099e-03 -6.4306596441303465e-01
    8.0890135628239896e-03 -7.7899782210068269e-01
    7.8793355109587366e-03 -9.0842870851080115e-01
    7.8435811097595579e-03 -9.8941769158482940e-01
    7.8793355109587366e-03 -1.1008018467836767e+00
    7.9192357272585955e-03 -1.1493422703098446e+00
    7.8878992737305524e-03 -1.1126972805283737e+00
    7.9592844325936992e-03 -1.1875421719907089e+00
    8.2759305835866884e-03 -1.3919410907075058e+00
    8.3762742998084345e-03 -1.4429023574430646e+00
    8.4127320923996097e-03 -1.4605934866804429e+00
    8.4904751631879605e-03 -1.4971236790408557e+00
    8.3079215628214954e-03 -1.4085904245475274e+00
    8.2453374583322421e-03 -1.3756117520244191e+00
    8.3079215628214954e-03 -1.4085904245475274e+00
    8.1119944558337605e-03 -1.2983506020002014e+00
    8.1119944558337605e-03 -1.2983506020002014e+00
    8.1119944558337605e-03 -1.2983506020002014e+00
    8.2161013092249702e-03 -1.3595899560105786e+00
    8.0890135628239896e-03 -1.2837006364194348e+00
    8.3079215628214954e-03 -1.4085904245475274e+00
    8.2453374583322421e-03 -1.3756117520244191e+00
    8.1361630393688364e-03 -1.3132546139874859e+00
    8.1119944558337605e-03 -1.2983506020002014e+00
    8.1119944558337605e-03 -1.2983506020002014e+00
    7.9746350436388693e-03 -1.2006491750542456e+00
    8.0890135628239896e-03 -1.2837006364194348e+00
    8.0269282927604262e-03 -1.2411851354816255e+00
    7.8878992737305524e-03 -1.1126972805283737e+00
    7.8649751654797963e-03 -1.0774597626964477e+00
    7.8542562846347381e-03 -9.4815077861587960e-01
    7.9449446181157814e-03 -8.5133462410607663e-01
    8.1119944558337622e-03 -7.7020798423740766e-01
    8.4904751631879605e-03 -6.6794748757207412e-01
    9.1905900194295415e-03 -5.6096819400507447e-01
    1.2199788015337363e-02 -3.6404686577682238e-01
    1.8368339534295938e-02 -2.2423052782558076e-01
    1.3010605721769415e-02 -3.3529991873389797e-01
    1.0188678299086573e-02 -4.6987149389936478e-01
    9.4149191683229223e-03 -5.3634991645073671e-01
    8.9935889075649141e-03 -5.8554004376911994e-01
    8.3079215628214971e-03 -7.0992957397195400e-01
    7.8973970487228023e-03 -8.8908727944796873e-01
    7.8431372549019607e-03 -1. 7.8502479882345561e-03
    -1.0434983894999019e+00 7.8649751654797963e-03
    -1.0774597626964477e+00 8.0084379576149702e-03
    -1.2274635093014648e+00 7.9592844325936992e-03
    -1.1875421719907089e+00 8.0269282927604262e-03
    -1.2411851354816255e+00 8.4127320923996097e-03
    -1.4605934866804429e+00 8.1119944558337605e-03
    -1.2983506020002014e+00 8.3079215628214954e-03
    -1.4085904245475274e+00 8.2453374583322421e-03
    -1.3756117520244191e+00 8.1361630393688364e-03
    -1.3132546139874859e+00 8.0465056134127709e-03
    -1.2551264740070720e+00 8.0269282927604262e-03
    -1.2411851354816255e+00 7.9078388417987353e-03
    -1.1369621483713821e+00 8.0671926070679210e-03
    -1.2692955176439846e+00 8.0465056134127709e-03
    -1.2551264740070720e+00 8.1119944558337605e-03
    -1.2983506020002014e+00 8.0269282927604262e-03
    -1.2411851354816255e+00 8.0084379576149702e-03
    -1.2274635093014648e+00 7.9746350436388693e-03
    -1.2006491750542456e+00 8.0671926070679210e-03
    -1.2692955176439846e+00 7.9449446181157797e-03
    -1.1746262535134473e+00 7.9192357272585955e-03
    -1.1493422703098446e+00 7.9315998811219438e-03
    -1.1618950038622253e+00 7.8591636617362272e-03
    -1.0660035817780520e+00 7.8591636617362272e-03
    -1.0660035817780520e+00 7.8591636617362272e-03
    -9.3808315196468584e-01 7.9746350436388710e-03
    -8.3288276107366610e-01 8.0269282927604262e-03
    -8.0568157917228322e-01 8.2759305835866867e-03
    -7.1842120810709964e-01 8.5318771445783773e-03
    -6.5963209732152506e-01 9.7651797305187537e-03
    -5.0332229568471665e-01 1.1967729891351989e-02
    -3.7335497772755005e-01 1.6042450646897643e-02
    -2.6111648393354675e-01 1.3010605721769415e-02
    -3.3529991873389797e-01 1.1549252125312626e-02
    -3.9163022499397865e-01 9.8634383209882468e-03
    -4.9500819446023464e-01 9.0564748108176597e-03
    -5.7735026918962584e-01 8.5318771445783773e-03
    -6.5963209732152506e-01 8.2453374583322421e-03
    -7.2694929985030277e-01 7.9449446181157814e-03
    -8.5133462410607663e-01 7.9746350436388710e-03
    -8.3288276107366610e-01 7.8502479882345561e-03
    -1.0434983894999019e+00 7.8793355109587366e-03
    -1.1008018467836767e+00 7.8431372549019607e-03 -1.
    7.8716967932047650e-03 -1.0890576254854039e+00
    8.0269282927604262e-03 -1.2411851354816255e+00
    8.3413539778301026e-03 -1.4255728899344746e+00
    8.3413539778301026e-03 -1.4255728899344746e+00
    8.3413539778301026e-03 -1.4255728899344746e+00
    8.1881837928646627e-03 -1.3438638879193574e+00
    8.0084379576149702e-03 -1.2274635093014648e+00
    7.9078388417987353e-03 -1.1369621483713821e+00
    7.9192357272585955e-03 -1.1493422703098446e+00
    8.0269282927604262e-03 -1.2411851354816255e+00
    7.9592844325936992e-03 -1.1875421719907089e+00
    7.9078388417987353e-03 -1.1369621483713821e+00
    7.8878992737305524e-03 -1.1126972805283737e+00
    7.9192357272585955e-03 -1.1493422703098446e+00
    7.9746350436388693e-03 -1.2006491750542456e+00
    7.8542562846347381e-03 -1.0546845739659785e+00
    7.9078388417987353e-03 -1.1369621483713821e+00
    7.8716967932047650e-03 -1.0890576254854039e+00
    8.0890135628239896e-03 -1.2837006364194348e+00
    7.8649751654797963e-03 -1.0774597626964477e+00
    7.8502479882345561e-03 -1.0434983894999019e+00
    7.8542562846347381e-03 -9.4815077861587960e-01
    8.0269282927604262e-03 -8.0568157917228322e-01
    8.2453374583322421e-03 -7.2694929985030277e-01
    8.4904751631879605e-03 -6.6794748757207412e-01
    9.2621131994476413e-03 -5.5277079839256671e-01
    1.0857256741778143e-02 -4.2707134896515619e-01
    1.3673986693599418e-02 -3.1530176764230572e-01
    1.8368339534295938e-02 -2.2423052782558076e-01
    1.3673986693599418e-02 -3.1530176764230572e-01
    1.2199788015337363e-02 -3.6404686577682238e-01
    1.0434709922509019e-02 -4.5291081365783831e-01
    9.2621131994476413e-03 -5.5277079839256671e-01
    9.0564748108176597e-03 -5.7735026918962584e-01
    8.7669098922593027e-03 -6.1834694240084231e-01
    8.4507802342443598e-03 -6.7628717353301271e-01
    8.0671926070679210e-03 -7.8783859715833526e-01
    7.9192357272585955e-03 -8.7006284014109736e-01
    7.9078388417987353e-03 -8.7953675628729555e-01
    7.9449446181157814e-03 -8.5133462410607663e-01
    7.8431372549019607e-03 -1. 7.8431372549019607e-03 -1.
    7.9315998811219438e-03 -1.1618950038622253e+00
    8.1615489451734267e-03 -1.3284223283101428e+00
    8.2161013092249702e-03 -1.3595899560105786e+00
    8.1361630393688364e-03 -1.3132546139874859e+00
    7.9910134446340483e-03 -1.2139539573337681e+00
    8.0084379576149702e-03 -1.2274635093014648e+00
    7.9592844325936992e-03 -1.1875421719907089e+00
    8.0084379576149702e-03 -1.2274635093014648e+00
    8.0465056134127709e-03 -1.2551264740070720e+00
    7.9315998811219438e-03 -1.1618950038622253e+00
    7.8502479882345561e-03 -1.0434983894999019e+00
    7.8878992737305524e-03 -1.1126972805283737e+00
    7.8878992737305524e-03 -1.1126972805283737e+00
    7.9449446181157797e-03 -1.1746262535134473e+00
    7.9192357272585955e-03 -1.1493422703098446e+00
    7.9315998811219438e-03 -1.1618950038622253e+00
    7.8878992737305524e-03 -1.1126972805283737e+00
    7.8431372549019607e-03 -1. 7.8542562846347381e-03
    -9.4815077861587960e-01 7.9592844325936992e-03
    -8.4207535832068448e-01 8.0671926070679210e-03
    -7.8783859715833526e-01 8.5318771445783773e-03
    -6.5963209732152506e-01 9.4149191683229223e-03
    -5.3634991645073671e-01 9.9665448276416210e-03
    -4.8666426339228769e-01 1.2718855407486528e-02
    -3.4503277967117713e-01 1.4053789814965526e-02
    -3.0499714066520928e-01 1.9428372552668473e-02
    -2.1081851067789195e-01 1.5457062690487893e-02
    -2.7255405754769879e-01 1.2449439123611246e-02
    -3.5461035376030969e-01 9.6714642566788425e-03
    -5.1161017038654832e-01 9.4149191683229223e-03
    -5.3634991645073671e-01 9.3368297515793262e-03
    -5.4456562886206017e-01 8.8755060314214158e-03
    -6.0192926542884595e-01 8.9333063742204222e-03
    -5.9373225077597969e-01 8.3079215628214971e-03
    -7.0992957397195400e-01 8.0890135628239896e-03
    -7.7899782210068269e-01 8.1119944558337622e-03
    -7.7020798423740766e-01 7.9592844325936992e-03
    -8.4207535832068448e-01 7.9315998811219438e-03
    -8.6066296582387058e-01 7.8449131266002323e-03
    -9.7894501037256088e-01 7.8502479882345561e-03
    -1.0434983894999019e+00 7.8591636617362272e-03
    -1.0660035817780520e+00 7.8793355109587366e-03
    -1.1008018467836767e+00 7.8502479882345561e-03
    -1.0434983894999019e+00 7.8591636617362272e-03
    -1.0660035817780520e+00 7.8973970487228040e-03
    -1.1247489679763460e+00 7.9315998811219438e-03
    -1.1618950038622253e+00 7.9592844325936992e-03
    -1.1875421719907089e+00 7.9746350436388693e-03
    -1.2006491750542456e+00 7.9449446181157797e-03
    -1.1746262535134473e+00 7.8542562846347381e-03
    -1.0546845739659785e+00 7.8435811097595579e-03
    -9.8941769158482940e-01 7.8471346635084118e-03
    -9.6857850992932293e-01 7.8878992737305524e-03
    -1.1126972805283737e+00 7.8449131266002323e-03
    -1.0215078369104984e+00 7.8435811097595579e-03
    -1.0106954914038579e+00 7.8591636617362272e-03
    -9.3808315196468584e-01 7.9192357272585955e-03
    -8.7006284014109736e-01 8.1881837928646645e-03
    -7.4412297926113191e-01 8.1881837928646645e-03
    -7.4412297926113191e-01 8.3762742998084345e-03
    -6.9304758900808616e-01 9.1905900194295415e-03
    -5.6096819400507447e-01 9.4965765443964859e-03
    -5.2812078601949608e-01 1.1014851889944412e-02
    -4.1833001326703778e-01 1.3327753617616784e-02
    -3.2539568672798425e-01 1.5457062690487893e-02
    -2.7255405754769879e-01 2.0712349291021528e-02
    -1.9665714619400759e-01 1.8368339534295938e-02
    -2.2423052782558076e-01 1.2199788015337363e-02
    -3.6404686577682238e-01 1.0188678299086573e-02
    -4.6987149389936478e-01 9.6714642566788425e-03
    -5.1161017038654832e-01 9.6714642566788425e-03
    -5.1161017038654832e-01 9.3368297515793262e-03
    -5.4456562886206017e-01 9.1905900194295415e-03
    -5.6096819400507447e-01 8.6200642645027099e-03
    -6.4306596441303465e-01 8.6669918811383313e-03
    -6.3481105427273843e-01 8.3413539778301026e-03
    -7.0147237441220178e-01 8.1615489451734267e-03
    -7.5277265270908089e-01 7.9315998811219438e-03
    -8.6066296582387058e-01 7.8649751654797945e-03
    -9.2810890450090022e-01 7.9315998811219438e-03
    -8.6066296582387058e-01 7.9449446181157814e-03
    -8.5133462410607663e-01 7.8542562846347381e-03
    -1.0546845739659785e+00 7.8435811097595579e-03
    -1.0106954914038579e+00 7.8435811097595579e-03
    -1.0106954914038579e+00 7.8449131266002323e-03
    -1.0215078369104984e+00 7.8471346635084118e-03
    -1.0324408292653222e+00 7.8878992737305524e-03
    -1.1126972805283737e+00 7.9449446181157797e-03
    -1.1746262535134473e+00 7.8502479882345561e-03
    -1.0434983894999019e+00 7.8471346635084118e-03
    -1.0324408292653222e+00 7.8502479882345561e-03
    -1.0434983894999019e+00 7.8431372549019607e-03 -1.
    7.8471346635084118e-03 -1.0324408292653222e+00
    7.8649751654797945e-03 -9.2810890450090022e-01
    7.9592844325936992e-03 -8.4207535832068448e-01
    8.2161013092249720e-03 -7.3551587784178873e-01
    8.2453374583322421e-03 -7.2694929985030277e-01
    8.3079215628214971e-03 -7.0992957397195400e-01
    8.4507802342443598e-03 -6.7628717353301271e-01
    8.9333063742204222e-03 -5.9373225077597969e-01
    9.4149191683229223e-03 -5.3634991645073671e-01
    9.7651797305187537e-03 -5.0332229568471665e-01
    1.1549252125312626e-02 -3.9163022499397865e-01
    1.4053789814965526e-02 -3.0499714066520928e-01
    1.5457062690487893e-02 -2.7255405754769879e-01
    2.4372895239719573e-02 -1.6529490122682158e-01
    1.9428372552668473e-02 -2.1081851067789195e-01
    1.3010605721769415e-02 -3.3529991873389797e-01
    1.1751413927049764e-02 -3.8254602783800296e-01
    1.0857256741778143e-02 -4.2707134896515619e-01
    1.0188678299086573e-02 -4.6987149389936478e-01
    9.8634383209882468e-03 -4.9500819446023464e-01
    9.5820143179496890e-03 -5.1987524491003634e-01
    9.2621131994476413e-03 -5.5277079839256671e-01
    9.4149191683229223e-03 -5.3634991645073671e-01
    9.1220947901041738e-03 -5.6916048876554237e-01
    8.2759305835866867e-03 -7.1842120810709964e-01
    8.2759305835866867e-03 -7.1842120810709964e-01
    8.1615489451734267e-03 -7.5277265270908089e-01
    8.2453374583322421e-03 -7.2694929985030277e-01
    7.9746350436388710e-03 -8.3288276107366610e-01
    7.8716967932047667e-03 -9.1822505678181132e-01
    7.8471346635084118e-03 -1.0324408292653222e+00
    7.8449131266002323e-03 -9.7894501037256088e-01
    7.8471346635084118e-03 -1.0324408292653222e+00
    7.8449131266002323e-03 -1.0215078369104984e+00
    7.8435811097595579e-03 -1.0106954914038579e+00
    7.8449131266002323e-03 -1.0215078369104984e+00
    7.8431372549019607e-03 -1. 7.8973970487228023e-03
    -8.8908727944796873e-01 7.8878992737305507e-03
    -8.9871703427291705e-01 7.9192357272585955e-03
    -8.7006284014109736e-01 7.9592844325936992e-03
    -8.4207535832068448e-01 7.9592844325936992e-03
    -8.4207535832068448e-01 8.0465056134127709e-03
    -7.9673245741318477e-01 8.4507802342443598e-03
    -6.7628717353301271e-01 8.4127320923996097e-03
    -6.8465319688145754e-01 8.5318771445783773e-03
    -6.5963209732152506e-01 8.8755060314214158e-03
    -6.0192926542884595e-01 9.5820143179496890e-03
    -5.1987524491003634e-01 9.7651797305187537e-03
    -5.0332229568471665e-01 1.0567858648840014e-02
    -4.4435597137808680e-01 1.4053789814965526e-02
    -3.0499714066520928e-01 1.4937538128720024e-02
    -2.8365431446558770e-01 1.6708393433465741e-02
    -2.4929278500463511e-01 3.1294727716025754e-02
    -1.2734290799340267e-01 1.6708393433465741e-02
    -2.4929278500463511e-01 1.5457062690487893e-02
    -2.7255405754769879e-01 1.4053789814965526e-02
    -3.0499714066520928e-01 1.2199788015337363e-02
    -3.6404686577682238e-01 1.0857256741778143e-02
    -4.2707134896515619e-01 1.0567858648840014e-02
    -4.4435597137808680e-01 1.1182086532854711e-02
    -4.0951417967396109e-01 1.0188678299086573e-02
    -4.6987149389936478e-01 9.9665448276416210e-03
    -4.8666426339228769e-01 1.0434709922509019e-02
    -4.5291081365783831e-01 9.3368297515793262e-03
    -5.4456562886206017e-01 8.4904751631879605e-03
    -6.6794748757207412e-01 8.4127320923996097e-03
    -6.8465319688145754e-01 8.2453374583322421e-03
    -7.2694929985030277e-01 8.0465056134127709e-03
    -7.9673245741318477e-01 7.9315998811219438e-03
    -8.6066296582387058e-01 7.9746350436388710e-03
    -8.3288276107366610e-01 7.8542562846347381e-03
    -9.4815077861587960e-01 7.8591636617362272e-03
    -9.3808315196468584e-01 7.8502479882345561e-03
    -9.5831484749990992e-01 7.8591636617362272e-03
    -9.3808315196468584e-01 7.9078388417987353e-03
    -8.7953675628729555e-01 7.9192357272585955e-03
    -8.7006284014109736e-01 7.8716967932047667e-03
    -9.1822505678181132e-01 7.9910134446340465e-03
    -8.2375447104791388e-01 7.9910134446340465e-03
    -8.2375447104791388e-01 8.3079215628214971e-03
    -7.0992957397195400e-01 8.4507802342443598e-03
    -6.7628717353301271e-01 8.4507802342443598e-03
    -6.7628717353301271e-01 8.3762742998084345e-03
    -6.9304758900808616e-01 8.7669098922593027e-03
    -6.1834694240084231e-01 9.1905900194295415e-03
    -5.6096819400507447e-01 9.5820143179496890e-03
    -5.1987524491003634e-01 9.9665448276416210e-03
    -4.8666426339228769e-01 1.0074834744958700e-02
    -4.7828670265295953e-01 1.1359873299601642e-02
    -4.0061680838488772e-01 1.3010605721769415e-02
    -3.3529991873389797e-01 1.5457062690487893e-02
    -2.7255405754769879e-01 1.7474617072610926e-02
    -2.3702273156998863e-01 3.1294727716025754e-02
    -1.2734290799340267e-01 2.4372895239719573e-02
    -1.6529490122682158e-01 1.8368339534295938e-02
    -2.2423052782558076e-01 1.6042450646897643e-02
    -2.6111648393354675e-01 1.4472680934627558e-02
    -2.9445747114335319e-01 1.3010605721769415e-02
    -3.3529991873389797e-01 1.1967729891351989e-02
    -3.7335497772755005e-01 1.2199788015337363e-02
    -3.6404686577682238e-01 1.1751413927049764e-02
    -3.8254602783800296e-01 1.0857256741778143e-02
    -4.2707134896515619e-01 1.0857256741778143e-02
    -4.2707134896515619e-01 1.1182086532854711e-02
    -4.0951417967396109e-01 1.0857256741778143e-02
    -4.2707134896515619e-01 9.4149191683229223e-03
    -5.3634991645073671e-01 8.9333063742204222e-03
    -5.9373225077597969e-01 8.3079215628214971e-03
    -7.0992957397195400e-01 8.1881837928646645e-03
    -7.4412297926113191e-01 8.1615489451734267e-03
    -7.5277265270908089e-01 8.0269282927604262e-03
    -8.0568157917228322e-01 7.8973970487228023e-03
    -8.8908727944796873e-01 7.9315998811219438e-03
    -8.6066296582387058e-01 7.9592844325936992e-03
    -8.4207535832068448e-01 8.0465056134127709e-03
    -7.9673245741318477e-01 7.9192357272585955e-03
    -8.7006284014109736e-01 8.0084379576149702e-03
    -8.1468816989035264e-01 7.9910134446340465e-03
    -8.2375447104791388e-01 8.3762742998084345e-03
    -6.9304758900808616e-01 8.5318771445783773e-03
    -6.5963209732152506e-01 8.6200642645027099e-03
    -6.4306596441303465e-01 8.5750505664172819e-03
    -6.5133894727892971e-01 8.9935889075649141e-03
    -5.8554004376911994e-01 9.3368297515793262e-03
    -5.4456562886206017e-01 1.0434709922509019e-02
    -4.5291081365783831e-01 1.0308485154042066e-02
    -4.6141437537906377e-01 1.0434709922509019e-02
    -4.5291081365783831e-01 1.1182086532854711e-02
    -4.0951417967396109e-01 1.2718855407486528e-02
    -3.4503277967117713e-01 1.3673986693599418e-02
    -3.1530176764230572e-01 1.7474617072610926e-02
    -2.3702273156998863e-01 2.4372895239719573e-02
    -1.6529490122682158e-01 3.1294727716025754e-02
    -1.2734290799340267e-01 2.7175576232471233e-02
    -1.4744195615489711e-01 2.2310348263085266e-02
    -1.8156825980064073e-01 1.8368339534295938e-02
    -2.2423052782558076e-01 1.6042450646897643e-02
    -2.6111648393354675e-01 1.5457062690487893e-02
    -2.7255405754769879e-01 1.3673986693599418e-02
    -3.1530176764230572e-01 1.2718855407486528e-02
    -3.4503277967117713e-01 1.2718855407486528e-02
    -3.4503277967117713e-01 1.2718855407486528e-02
    -3.4503277967117713e-01 1.1967729891351989e-02
    -3.7335497772755005e-01 1.2449439123611246e-02
    -3.5461035376030969e-01 1.2199788015337363e-02
    -3.6404686577682238e-01 1.1751413927049764e-02
    -3.8254602783800296e-01 1.1014851889944412e-02
    -4.1833001326703778e-01 9.3368297515793262e-03
    -5.4456562886206017e-01 8.9333063742204222e-03
    -5.9373225077597969e-01 8.4507802342443598e-03
    -6.7628717353301271e-01 8.3762742998084345e-03
    -6.9304758900808616e-01 8.1615489451734267e-03
    -7.5277265270908089e-01 8.0671926070679210e-03
    -7.8783859715833526e-01 8.0890135628239896e-03
    -7.7899782210068269e-01 8.1881837928646645e-03
    -7.4412297926113191e-01 8.2453374583322421e-03
    -7.2694929985030277e-01 8.1881837928646645e-03
    -7.4412297926113191e-01 8.3413539778301026e-03
    -7.0147237441220178e-01 8.8200753880262241e-03
    -6.1013340649617576e-01 9.1905900194295415e-03
    -5.6096819400507447e-01 9.5820143179496890e-03
    -5.1987524491003634e-01 9.6714642566788425e-03
    -5.1161017038654832e-01 9.7651797305187537e-03
    -5.0332229568471665e-01 9.7651797305187537e-03
    -5.0332229568471665e-01 1.1182086532854711e-02
    -4.0951417967396109e-01 1.1182086532854711e-02
    -4.0951417967396109e-01 1.2199788015337363e-02
    -3.6404686577682238e-01 1.4472680934627558e-02
    -2.9445747114335319e-01 1.4937538128720024e-02
    -2.8365431446558770e-01 1.6042450646897643e-02
    -2.6111648393354675e-01 2.4372895239719573e-02
    -1.6529490122682158e-01 3.1294727716025754e-02
    -1.2734290799340267e-01 5.3913417935647273e-02
    -7.3127242412713053e-02 3.1294727716025754e-02
    -1.2734290799340267e-01 2.7175576232471233e-02
    -1.4744195615489711e-01 2.2310348263085266e-02
    -1.8156825980064073e-01 1.9428372552668473e-02
    -2.1081851067789195e-01 1.9428372552668473e-02
    -2.1081851067789195e-01 1.6708393433465741e-02
    -2.4929278500463511e-01 1.5457062690487893e-02
    -2.7255405754769879e-01 1.4472680934627558e-02
    -2.9445747114335319e-01 1.4937538128720024e-02
    -2.8365431446558770e-01 1.4053789814965526e-02
    -3.0499714066520928e-01 1.3327753617616784e-02
    -3.2539568672798425e-01 1.3673986693599418e-02
    -3.1530176764230572e-01 1.3673986693599418e-02
    -3.1530176764230572e-01 1.3010605721769415e-02
    -3.3529991873389797e-01 1.1359873299601642e-02
    -4.0061680838488772e-01 1.0188678299086573e-02
    -4.6987149389936478e-01 9.1905900194295415e-03
    -5.6096819400507447e-01 8.7159122614901188e-03
    -6.2657209688318594e-01 9.1905900194295415e-03
    -5.6096819400507447e-01 9.2621131994476413e-03
    -5.5277079839256671e-01 8.7159122614901188e-03
    -6.2657209688318594e-01 9.2621131994476413e-03
    -5.5277079839256671e-01 8.5750505664172819e-03
    -6.5133894727892971e-01 9.3368297515793262e-03
    -5.4456562886206017e-01 8.9333063742204222e-03
    -5.9373225077597969e-01 9.8634383209882468e-03
    -4.9500819446023464e-01 9.8634383209882468e-03
    -4.9500819446023464e-01 1.0188678299086573e-02
    -4.6987149389936478e-01 1.1182086532854711e-02
    -4.0951417967396109e-01 1.0708496473483906e-02
    -4.3574467033059511e-01 1.1549252125312626e-02
    -3.9163022499397865e-01 1.3673986693599418e-02
    -3.1530176764230572e-01 1.6708393433465741e-02
    -2.4929278500463511e-01 1.7474617072610926e-02
    -2.3702273156998863e-01 1.8368339534295938e-02
    -2.2423052782558076e-01 2.2310348263085266e-02
    -1.8156825980064073e-01 2.2310348263085266e-02
    -1.8156825980064073e-01 2.7175576232471233e-02
    -1.4744195615489711e-01 3.1294727716025754e-02
    -1.2734290799340267e-01 5.3913417935647273e-02
    -7.3127242412713053e-02 2.7175576232471233e-02
    -1.4744195615489711e-01 2.7175576232471233e-02
    -1.4744195615489711e-01 2.7175576232471233e-02
    -1.4744195615489711e-01 2.7175576232471233e-02
    -1.4744195615489711e-01 3.1294727716025754e-02
    -1.2734290799340267e-01 2.2310348263085266e-02
    -1.8156825980064073e-01 1.9428372552668473e-02
    -2.1081851067789195e-01 1.7474617072610926e-02
    -2.3702273156998863e-01 1.6708393433465741e-02
    -2.4929278500463511e-01 1.6708393433465741e-02
    -2.4929278500463511e-01 1.4937538128720024e-02
    -2.8365431446558770e-01 1.6042450646897643e-02
    -2.6111648393354675e-01 1.8368339534295938e-02
    -2.2423052782558076e-01 1.8368339534295938e-02
    -2.2423052782558076e-01 1.5457062690487893e-02
    -2.7255405754769879e-01 1.2718855407486528e-02
    -3.4503277967117713e-01 1.1359873299601642e-02
    -4.0061680838488772e-01 1.1549252125312626e-02
    -3.9163022499397865e-01 1.1751413927049764e-02
    -3.8254602783800296e-01 9.9665448276416210e-03
    -4.8666426339228769e-01 1.0308485154042066e-02
    -4.6141437537906377e-01 1.2718855407486528e-02
    -3.4503277967117713e-01 1.1549252125312626e-02
    -3.9163022499397865e-01 1.0434709922509019e-02
    -4.5291081365783831e-01 1.1359873299601642e-02
    -4.0061680838488772e-01 1.0708496473483906e-02
    -4.3574467033059511e-01 1.0567858648840014e-02
    -4.4435597137808680e-01 1.0857256741778143e-02
    -4.2707134896515619e-01 1.1967729891351989e-02
    -3.7335497772755005e-01 1.2718855407486528e-02
    -3.4503277967117713e-01 1.4937538128720024e-02
    -2.8365431446558770e-01 2.0712349291021528e-02
    -1.9665714619400759e-01 1.9428372552668473e-02
    -2.1081851067789195e-01 2.0712349291021528e-02
    -1.9665714619400759e-01 2.4372895239719573e-02
    -1.6529490122682158e-01 3.1294727716025754e-02
    -1.2734290799340267e-01 3.8224886001827441e-02
    -1.0369516947304253e-01 3.1294727716025754e-02
    -1.2734290799340267e-01 2.7175576232471233e-02
    -1.4744195615489711e-01</input_scale>
  <output_scale>
    1.0526315789473684e+00 0.</output_scale>
  <inv_output_scale>
    9.4999999999999996e-01 0.</inv_output_scale>
  <weights>
    <_>
      -1.1719048386403424e-03 -2.2903224389177911e-04
      -9.9637750405231888e-04 -5.5088375721748159e-04
      2.2039270841974236e-04 1.2144499427915077e-03
      9.9728247011042037e-04 2.0453599492093418e-04
      -7.2831549546728146e-04 -4.2920232853557353e-04
      -1.1054717958401724e-03 -1.2409612586460942e-04
      -2.1397120762249158e-05 -7.8018402384446585e-04
      6.7194088742161514e-04 -1.1208781013474275e-03
      1.1037170489498088e-03 1.0083693640301039e-03
      -2.5698247005999147e-04 -3.4383640164285737e-05
      3.0002183913935715e-04 -7.7645728251324352e-04
      -6.5397802009701264e-04 9.5527311481024093e-04
      -1.0954164450422850e-03 -3.1663012947851025e-04
      6.1523554708813478e-04 -6.3403300196013517e-04
      1.0630743572223426e-03 -2.4215284090006096e-04
      1.2150750992007805e-03 -3.7732545206526025e-04
      2.2581237915161135e-04 8.1166924113520002e-04
      1.1322676431532379e-03 5.1786688077618958e-04
      8.1904968067006900e-04 5.2277548999592920e-04
      1.2256443938238879e-03 -1.5902424652943092e-04
      8.8117021807580298e-01 -3.2817429628685633e-03
      -2.1645124209989115e-03 3.4665650902241441e-02
      7.1740812369442124e-04 4.5279024080808847e-02
      -4.1975134619022789e-02 8.9270618013147403e-04
      -3.9688825276758211e-02 -5.0454178693056326e-03
      4.1003928407576121e-02 4.7264750045908685e-04
      4.2521856020496719e-02 -1.7167155895457024e-02
      -3.8653934521636291e-02 4.6104153699548095e-02
      -4.4411500301776270e-02 -7.1445832128400446e-03
      2.7862284010515617e-03 -3.6324884930840949e-03
      2.4051216201414759e-04 4.7389026359525965e-02
      4.1975555978972540e-02 -5.8570372806985649e-04
      4.6592745519937723e-02 -4.5979030983938109e-02
      -3.5445136708113119e-03 3.9694123772381993e-03
      3.6822426059975266e-02 4.4875672967452152e-02
      2.2050615077155908e-03 3.8685492867631356e-03
      -5.5360302939866336e-03 2.8457712892984044e-02
      1.6181314943415938e-02 4.5058275431554891e-02
      -7.2037092851975600e-04 1.9837465337492942e-02
      1.2699525072596227e-03 8.5760289905367087e-04
      1.4473333863399956e-01 7.3708909401957345e-02
      6.2881243970474801e-02 2.1588345450485498e-02
      -5.5634167891478015e-02 1.1144836316596239e-02
      -2.0139344265054693e-02 -4.9039389852437505e-02
      -3.8900790765619732e-03 8.2750747496612057e-02
      1.7490057249031913e-02 4.6769850452577331e-02
      1.9676383703657471e-02 -3.1670110672953201e-02
      -1.1092486338530770e-03 1.5722964553828014e-02
      -3.2713774320878965e-03 4.2321111820446830e-02
      -8.5342046819989095e-02 8.1317572272319477e-02
      -4.5008591815848036e-02 7.8522589270650194e-03
      2.5473828345551749e-03 6.4764153642042979e-02
      1.6277862199203984e-02 -4.7233298325329567e-03
      7.8672543965592548e-02 -7.7663012304995185e-02
      2.2643578427914479e-02 1.6235630291581676e-02
      -6.7199846151963963e-02 -7.8731670892938546e-02
      8.3314295462932966e-02 2.2635665441102921e-02
      3.5298637477227585e-02 8.0084775042539268e-03
      6.1385772325670433e-02 2.7821356867575503e-02
      -7.3305613913001499e-02 -5.8616292779174108e-02
      3.7432110187785239e-01 5.2812512810517152e-02
      2.7114535398732934e-02 4.1377295327453094e-02
      -3.2473459649358903e-02 3.5244629899014612e-02
      -4.0723557356103550e-02 -4.1459047448895850e-02
      -2.2153914072800505e-02 2.8624984138282381e-02
      4.0871512671505322e-02 4.2514011699111023e-02
      4.2370824042031324e-02 -4.1277344176249592e-02
      -1.9696824158471047e-02 4.2165761549316672e-02
      -2.4477709546345348e-02 3.5719636252130600e-02
      -3.0501834741834891e-02 2.7670090904049267e-02
      -4.0117966339360704e-02 3.0712515699844369e-02
      2.4159774092359747e-02 2.4281187499154408e-02
      4.3113567723892701e-02 -2.8881384030890751e-02
      6.6855622655293892e-02 -4.7906482635784030e-02
      4.2326610022074211e-02 4.2019594949647701e-02
      -2.3608378598997497e-02 -6.0726151296644597e-02
      2.9770105966116324e-02 3.8779198751785447e-02
      3.9724833617190862e-02 3.0709700411698571e-02
      2.6881487795521197e-02 4.2374422496912353e-02
      -2.3407437484504245e-02 -2.8849860613393175e-02
      -6.6286531501875481e-02 -2.7813694511537566e-02
      -3.1660201564300806e-02 -1.1486315137285511e-02
      2.2025306911412069e-02 -8.8715898310293001e-03
      1.1220394625784015e-02 1.4862099494680278e-02
      8.7834903684032555e-03 -5.7095644154624377e-02
      -9.9360855325124550e-03 -1.3477472389856649e-02
      -9.2783157884284550e-03 7.9160577654159413e-03
      8.1748079341696332e-03 -1.0983901787862379e-02
      1.1247263505637938e-02 -7.0031333631378279e-03
      5.6147183773071520e-02 -5.8105327606113956e-02
      1.0656219104993632e-02 -1.0603493035794154e-02
      -1.0519687958184662e-02 -3.2542403986120863e-02
      -9.1576101395628162e-03 1.0812729735415201e-02
      -2.5521788474533375e-02 4.1051190722703607e-02
      -1.1859480088507832e-02 -9.9279531872587760e-03
      3.8347383976134276e-02 2.6351604787170812e-02
      -6.0678092591149729e-02 -1.1130643841463521e-02
      -9.1093894048489363e-03 -9.0576365863839284e-03
      -3.1757751643739118e-02 -8.1022059072177709e-03
      3.9830386122219855e-02 2.8593291702224143e-02
      -6.5860767335908968e-02 -2.9184687163990700e-02
      -3.0809434494146092e-02 -1.0856386483475375e-02
      2.3169393130162089e-02 -1.0220990853821818e-02
      1.0709566562218860e-02 1.4404588916554016e-02
      8.9363555187254515e-03 -5.6881469902632813e-02
      -1.1176709863201271e-02 -1.3885751373705135e-02
      -9.0844407775664496e-03 7.5098603665148134e-03
      9.7743852057315568e-03 -1.0525603567429579e-02
      1.0547520018499113e-02 -8.4007272454780339e-03
      5.4223566258125015e-02 -5.8257121694459867e-02
      1.0665803383481531e-02 -9.2129085486460510e-03
      -9.0921167966220833e-03 -3.2429559760043705e-02
      -1.1148009753397033e-02 1.0117415299513557e-02
      -2.3920215945302956e-02 4.0294801598396976e-02
      -1.1365543390642937e-02 -9.6531182732280344e-03
      3.7700400329120261e-02 2.6252937768555435e-02
      -5.9201055218470494e-02 -1.0231623081421335e-02
      -7.8996478688974948e-03 -9.1514628553177949e-03
      -3.0978858710561542e-02 -8.1154126352273176e-03
      4.0886036678407844e-02 2.7167639147240411e-02
      2.6606207751206215e-02 2.1027193223212271e-02
      1.0856044249849707e-02 8.2806914819545212e-03
      -1.4477150248347660e-02 1.8197543661438572e-03
      -7.2569231435631104e-03 -1.8095105493717588e-02
      -1.1958720815305414e-03 8.4953679039440691e-03
      5.8133502844232351e-03 1.7755203153302191e-02
      6.2254737709553842e-03 -1.3117817009860993e-02
      -1.0814246081763132e-03 5.8710509255494947e-03
      -2.6770095901358457e-03 1.5346564877704846e-02
      -9.7814584060689422e-03 8.6383584299118358e-03
      -1.6862244757023921e-02 3.4623242141574653e-03
      3.0521832691611725e-03 8.2655667808270022e-03
      3.8402316892613315e-03 -8.2335237686285967e-04
      2.8316578438770917e-02 -1.5471511712595558e-02
      6.4959756368243035e-03 5.8581902499934939e-03
      -7.7042250928483326e-03 -2.5438287191177328e-02
      8.3249959334287041e-03 7.3366812305705291e-03
      1.5381912862720525e-02 3.4983101131673376e-03
      9.0503579475573210e-03 1.1749927711077421e-02
      -9.3127955253744076e-03 -1.0610201746421516e-02
      -5.1051320492484190e-02 -3.1175770671378895e-02
      -3.5706333464596597e-02 -4.6395205410687292e-03
      2.4339350336119007e-02 -1.6438852113172080e-04
      3.7266392608556269e-03 1.6332702137643020e-02
      3.0763144603574389e-03 -5.8100317564094353e-02
      -1.1804737614873860e-03 -1.3644376995203414e-02
      -3.2867208718497169e-03 8.0785406562872576e-03
      2.5817641421778336e-03 -2.4150565432106566e-03
      5.4178463488365565e-04 -1.0392503506217746e-02
      5.6138040792867994e-02 -5.8545733518072393e-02
      1.3979815144074701e-02 -1.9726257936547478e-03
      -1.2156251088477380e-03 -3.5429817626854467e-02
      -1.2467252774574834e-03 5.0862421249893994e-04
      -2.8319636162628368e-02 4.1435000345028380e-02
      -3.1208543134905774e-03 -1.2879209175359519e-03
      3.8689376359064935e-02 2.7336531099039347e-02
      -6.0826675427815849e-02 -5.9335639356820078e-03
      -8.8058501824756184e-03 -5.0178907539712332e-04
      -3.3318828864391838e-02 -6.0310574397921370e-03
      4.3898919357926378e-02 3.0919477705463036e-02
      -6.4615748445020965e-02 -1.1264805225693113e-02
      -1.3117461649173899e-02 -2.6579787483078407e-03
      8.2892483661543056e-03 -4.3687266918964731e-03
      2.4905427259027078e-03 4.3881634016061264e-03
      6.2879296453613454e-03 -4.7260305082468035e-02
      -4.2853170572158105e-03 -3.9881695736340411e-03
      -3.5426426456214399e-03 2.8914732840527006e-04
      6.0374621855059192e-03 -4.5121307709112156e-03
      6.5684839428836279e-03 -9.5052498832430836e-04
      4.4390622488073579e-02 -4.8169210238919472e-02
      3.3123630758323686e-03 -6.9748061001965031e-03
      -5.4375884855967756e-03 -1.3854371547673395e-02
      -4.2183797372002518e-03 5.8255448022863790e-03
      -3.6939847362831260e-03 3.2463161047418046e-02
      -4.8805431044574611e-03 -2.3808203300105255e-03
      1.3348838304447420e-02 6.0069620327786863e-03
      -5.0921173365249081e-02 -3.7274652700660638e-03
      -2.9751895610838422e-03 -5.8989310277653660e-03
      -1.1992378619967386e-02 -2.2947980814102937e-03
      1.4589140376955414e-02 1.2053552777640066e-02
      -1.9591130412378385e-01 -6.8400020158744759e-02
      -6.3462236399280572e-02 -2.0797046223201564e-02
      5.2031419574136414e-02 -1.1625586681596344e-02
      1.7845979935200703e-02 4.0696003621715514e-02
      7.2752036953654415e-03 -9.9466023717700025e-02
      -1.6545649874365347e-02 -3.8652117855999819e-02
      -1.7879912256316674e-02 2.6524076007337409e-02
      8.4947594235734707e-03 -1.6275193168430260e-02
      9.5862680622043565e-03 -3.0529745530057339e-02
      9.7666925446987463e-02 -9.9879466829057267e-02
      3.7037719173789979e-02 -1.0234689824331475e-02
      -9.7258323043826755e-03 -6.5316144485340843e-02
      -1.3955736740714627e-02 1.0601700576820155e-02
      -6.8148026985847460e-02 8.3004824454382939e-02
      -1.9945341595404859e-02 -1.4833374641470958e-02
      7.1132452462381091e-02 6.6404105402337460e-02
      -1.0512102281626282e-01 -2.1577138255419813e-02
      -2.8613563516869674e-02 -1.1439509858393522e-02
      -6.2413355440823055e-02 -2.2548808457475922e-02
      7.4708598162476075e-02 5.7988705595555294e-02
      2.5385251232838760e-02 -1.0520018545879225e-03
      -4.1526509657317965e-03 4.3692051493159599e-03
      2.1530341406713299e-03 2.9853492770879216e-03
      -5.7008845885683059e-03 -3.0622393015802582e-03
      1.9675143544855929e-03 -3.6120918250532694e-02
      5.4383514097921552e-03 2.3660504785161275e-03
      5.7659022759468789e-03 -4.2688270563448830e-03
      1.6847496516086470e-03 3.5588326075662092e-03
      4.8971644593694250e-04 4.9240271438066073e-03
      3.3463901359907150e-02 -3.8043158356998487e-02
      -5.2094134424580862e-03 1.5641045205777740e-03
      -6.0701845652007730e-05 -3.3104804518171824e-03
      4.2802545121868874e-03 6.3464732569715556e-04
      7.6376754209339232e-03 2.1561130010356849e-02
      3.7193535087026142e-03 5.1329033491798728e-03
      4.5485626514759720e-03 -6.4837931079941387e-03
      -4.0454271397910829e-02 3.0207426027268080e-03
      2.9920101976483402e-03 -2.8770942294111191e-04
      -3.6496705951599624e-03 6.1188134642689938e-03
      5.1949813045634539e-03 3.2639936197756464e-03
      -2.8997431994958606e-02 -1.6313702052502858e-03
      -4.7922637664164439e-03 -5.7846669476519278e-04
      1.5012587363328871e-03 -3.4924191885607604e-03
      -9.5363428142615072e-05 2.8052315558140716e-04
      5.3316730459007306e-03 -3.5667814358863299e-02
      -1.9946306678664873e-04 3.5565877588237914e-04
      7.2229714074803280e-04 -3.6216444542051876e-03
      4.8770240432814641e-03 -4.7380871809027649e-05
      4.6252058415492221e-03 5.3924914898285242e-03
      3.2871811696713805e-02 -3.4056251525493735e-02
      -1.9661520980431006e-03 -4.0947710841425971e-03
      -6.3452463102657937e-03 -4.4878013747779539e-03
      -5.1922524664442906e-04 5.5731607221369455e-03
      5.5757837642841472e-03 2.0915536407754624e-02
      -1.3843794213792626e-04 -1.3786099354545212e-03
      6.5169256300270876e-03 -3.2395198877141927e-03
      -3.7504608667074397e-02 -1.2255300445142960e-03
      3.1672019396889184e-03 -4.5300848869920893e-03
      -4.9618818028734244e-03 6.8248734556601391e-04
      7.6599629570331404e-03 4.9120780578390099e-03
      -2.7481824177254199e-02 -3.7309061795842910e-03
      -6.1248406153160285e-03 6.8726409027621460e-04
      3.5194212469869665e-03 -3.8160248474477785e-03
      5.1001468119617568e-04 -1.4142284409849934e-04
      6.3523813766010922e-03 -3.5539253167140024e-02
      -1.7037931378528111e-03 2.1874957619216779e-03
      -9.6318028116220908e-04 -2.2501178452586958e-03
      5.7941450346780214e-03 -3.4042588491575633e-04
      4.6663778009449529e-03 5.1991500975155595e-03
      3.1677160498439237e-02 -3.5465700787736074e-02
      -1.9760739310237560e-03 -5.3994872407146293e-03
      -4.9061544396889053e-03 -4.7671890892219517e-03
      -1.9889820244166482e-03 4.6752401523522330e-03
      5.3307105734843475e-03 2.1942534107837395e-02
      -1.0588445768747673e-03 -9.5078778254480427e-04
      5.3309953703203506e-03 -3.8752906669125647e-03
      -3.7042455034851297e-02 -6.7542186048582284e-04
      2.0798073577899777e-03 -4.7933381815618500e-03
      -6.5030798654451506e-03 1.5093477749170763e-03
      7.8500761686058091e-03 3.3331992677704540e-03
      -5.8386819395853058e-02 -6.9434053165947024e-03
      -5.9681446420592928e-03 1.0279633609231282e-02
      3.7161807751459699e-03 6.5293084675106866e-03
      -1.1911928812102606e-02 3.7066814660820786e-03
      -2.2058239679850667e-03 -2.1587016358056287e-02
      1.0577487196520532e-02 -2.9476779520399852e-03
      1.2963508208019137e-02 2.9649903302148453e-03
      -6.0017560678862650e-04 1.0330635557394018e-02
      -2.8838949351205185e-03 -2.1164054943490890e-03
      1.0339143187226842e-02 -2.0946860563697982e-02
      1.8833883055713216e-04 5.0750221285761126e-03
      1.4139629092214093e-03 -5.6225327281329207e-03
      1.0939476347244702e-02 -3.1636881266156390e-03
      1.4675385602349036e-04 1.5555301042190531e-02
      1.0443969518533401e-02 1.1273118581982117e-02
      6.4183627358075932e-03 1.5878005086991816e-03
      -2.5233300818460615e-02 7.0377278285039657e-03
      -4.0948713134332593e-03 3.7672939056595505e-03
      -7.3254475963072819e-03 -3.5231959921063257e-03
      7.1102263526843486e-03 5.8185382550464291e-03
      -3.2448921501351202e-01 -1.8006107050276974e-02
      -1.5978418797552761e-02 -1.7211417419648899e-02
      1.3605838657649756e-02 -1.8945024154643681e-02
      1.8603960185080304e-02 1.4565772139359634e-02
      1.7653183919553835e-02 -3.3019905538636367e-02
      -1.7985069804818014e-02 -1.3724396765733874e-02
      -1.7424431699316442e-02 1.5781878290195690e-02
      1.5342977300750191e-02 -1.9647630397635819e-02
      1.8009617713228149e-02 -7.9045716819773643e-03
      3.1965710590902585e-02 -3.3662185979131613e-02
      1.3850289185839965e-02 -1.9482880917173605e-02
      -1.7129636221839516e-02 -1.4216437015440397e-02
      -1.9562696439001392e-02 1.9774533327334573e-02
      -2.5336111938474275e-02 3.2565226617521335e-02
      -1.8822757338123303e-02 -1.8927756180509032e-02
      1.5704792460740399e-02 2.0089097700908557e-02
      -3.4524657490196044e-02 -1.6703053370769907e-02
      -1.3634519049991642e-02 -2.0298382885389991e-02
      -1.5116084610671666e-02 -1.5003168664827404e-02
      1.5269933738949240e-02 1.3638073013393977e-02
      1.6202736142615429e-01 1.9307269956375495e-02
      1.5144567126583235e-02 1.2046855813383368e-02
      -1.4344596276833739e-02 6.0077544046480422e-03
      -1.1550163754718852e-02 -1.4001192257680812e-02
      -1.8958887345612919e-03 6.3250676410276291e-02
      1.0437399715724532e-02 1.3229857379458558e-02
      1.1806679124614564e-02 -2.5220348463756807e-02
      1.0698853819462175e-03 8.3969662687341014e-03
      -2.1589154907424532e-03 2.2836611010932581e-02
      -6.7622738681285502e-02 6.2826801719695596e-02
      -1.4421208499565016e-02 4.8120844977303486e-03
      5.7769438625499784e-04 1.5737554094304985e-02
      8.6202959149955394e-03 -3.4085096976863281e-03
      2.3815802196446936e-02 -6.6890620331485018e-02
      1.3087914318551884e-02 8.9585735812869223e-03
      -1.7293644544514628e-02 -2.0871334906693607e-02
      6.4652457700823229e-02 1.5244766776283022e-02
      2.6834081714974482e-02 2.8407241976355531e-03
      1.5568685773615030e-02 2.1074794416606198e-02
      -1.8859813174918433e-02 -1.4700721768420688e-02
      7.1971074888421971e-02 1.4144301924324552e-02
      1.1138721174070288e-02 6.9052956050887297e-03
      -9.4619456234259665e-03 -2.7587160892821776e-03
      -4.6889823455334564e-03 -1.0653308646423238e-02
      4.3216861400025442e-03 5.6312230301673684e-02
      2.1412213699632063e-03 1.1195891650902044e-02
      4.3080543358222098e-03 -1.7097888980293435e-02
      4.6119453753966574e-03 2.5005512407122953e-03
      4.5756323219123679e-03 2.1756460525570370e-02
      -5.7214121831846654e-02 5.8784205041599973e-02
      -1.0255132545471222e-02 -3.8028955632744038e-03
      -5.2088936015004762e-03 1.0146691554998704e-02
      2.0542693958425697e-03 2.7647898994653652e-03
      1.7640613117384116e-02 -5.6421884997613907e-02
      4.3849502695277901e-03 3.0467388986943587e-03
