<?xml version="1.0"?>
<opencv_storage>
<shapeML type_id="opencv-ml-ann-mlp">
  <layer_sizes type_id="opencv-matrix">
    <rows>1</rows>
    <cols>3</cols>
    <dt>i</dt>
    <data>
      1600 40 1</data></layer_sizes>
  <activation_function>SIGMOID_SYM</activation_function>
  <f_param1>5.9999999999999998e-01</f_param1>
  <f_param2>1.</f_param2>
  <min_val>-9.4999999999999996e-01</min_val>
  <max_val>9.4999999999999996e-01</max_val>
  <min_val1>-9.7999999999999998e-01</min_val1>
  <max_val1>9.7999999999999998e-01</max_val1>
  <training_params>
    <train_method>BACKPROP</train_method>
    <dw_scale>1.0000000000000001e-01</dw_scale>
    <moment_scale>1.0000000000000001e-01</moment_scale>
    <term_criteria><epsilon>9.9999999747524271e-07</epsilon>
      <iterations>4000</iterations></term_criteria></training_params>
  <input_scale>
    1. 0. 5.8034526611711566e-02 -6.7884423330213065e-02
    5.8034526611711566e-02 -6.7884423330213065e-02
    5.8034526611711566e-02 -6.7884423330213065e-02
    3.3661731833113412e-02 -1.1812488464372367e-01
    3.3661731833113412e-02 -1.1812488464372367e-01
    2.6196393733691221e-02 -1.5321285325897388e-01
    2.9219947468897365e-02 -1.3671718540493263e-01
    2.3970260704326601e-02 -1.6823164622761330e-01
    2.6196393733691221e-02 -1.5321285325897388e-01
    2.3970260704326601e-02 -1.6823164622761330e-01
    2.3970260704326601e-02 -1.6823164622761330e-01
    2.3970260704326601e-02 -1.6823164622761330e-01
    1.7915741926104713e-02 -2.3052135826937484e-01
    1.5996950892862363e-02 -2.6196841599779191e-01
    1.5037673014823885e-02 -2.8143901789211673e-01
    1.3018979318073691e-02 -3.3502969713024494e-01
    1.7194600108097084e-02 -2.4135539601273889e-01
    1.7915741926104713e-02 -2.3052135826937484e-01
    1.2307437934369836e-02 -3.5990787537434726e-01
    1.0941414702894451e-02 -4.2234864552686613e-01
    1.1904680588950299e-02 -3.7598039382992116e-01
    1.3903142513152842e-02 -3.0899415356066751e-01
    1.4624930932682634e-02 -2.9082144767513401e-01
    2.0857472147331396e-02 -1.9518001458970663e-01
    2.6196393733691221e-02 -1.5321285325897388e-01
    2.3970260704326601e-02 -1.6823164622761330e-01
    1.9711601715399249e-02 -2.0751433915982234e-01
    1.8744965510679643e-02 -2.1926450482675730e-01
    2.0857472147331396e-02 -1.9518001458970663e-01
    2.0857472147331396e-02 -1.9518001458970663e-01
    2.6196393733691221e-02 -1.5321285325897388e-01
    2.2244675027150895e-02 -1.8214103175901078e-01
    2.6196393733691221e-02 -1.5321285325897388e-01
    2.3970260704326601e-02 -1.6823164622761330e-01
    2.3970260704326601e-02 -1.6823164622761330e-01
    5.8034526611711566e-02 -6.7884423330213065e-02
    5.8034526611711566e-02 -6.7884423330213065e-02
    5.8034526611711566e-02 -6.7884423330213065e-02
    4.1131489765796871e-02 -9.6225044864937631e-02
    5.8034526611711566e-02 -6.7884423330213065e-02
    4.1131489765796871e-02 -9.6225044864937631e-02
    5.8034526611711566e-02 -6.7884423330213065e-02
    4.1131489765796871e-02 -9.6225044864937631e-02
    2.9219947468897365e-02 -1.3671718540493263e-01
    2.9219947468897365e-02 -1.3671718540493263e-01
    2.0857472147331396e-02 -1.9518001458970663e-01
    1.9711601715399249e-02 -2.0751433915982234e-01
    1.9711601715399249e-02 -2.0751433915982234e-01
    1.9711601715399249e-02 -2.0751433915982234e-01
    1.6560281180517746e-02 -2.5182262437346942e-01
    1.4248366013071894e-02 -2.9999999999999993e-01
    1.2765419447850838e-02 -3.4343662872314296e-01
    1.1228316942206558e-02 -4.0715525425753590e-01
    1.0561591570726801e-02 -4.4474958999666070e-01
    9.7704676423905675e-03 -5.0286535297074386e-01
    9.9434096993562086e-03 -4.8850421045919723e-01
    9.6111017245192904e-03 -5.1714781297528101e-01
    9.4639237768500382e-03 -5.3136893132405727e-01
    1.0035470800313336e-02 -4.8128828998750423e-01
    9.4639237768500382e-03 -5.3136893132405727e-01
    1.0035470800313336e-02 -4.8128828998750423e-01
    9.7704676423905675e-03 -5.0286535297074386e-01
    1.0231928441234250e-02 -4.6677306581685601e-01
    1.1228316942206558e-02 -4.0715525425753590e-01
    1.1904680588950299e-02 -3.7598039382992116e-01
    1.3585283951342425e-02 -3.1782086308186408e-01
    1.3585283951342425e-02 -3.1782086308186408e-01
    1.3903142513152842e-02 -3.0899415356066751e-01
    1.4624930932682634e-02 -2.9082144767513401e-01
    1.7194600108097084e-02 -2.4135539601273889e-01
    1.7915741926104713e-02 -2.3052135826937484e-01
    1.7915741926104713e-02 -2.3052135826937484e-01
    1.8744965510679643e-02 -2.1926450482675730e-01
    1.9711601715399249e-02 -2.0751433915982234e-01
    1.9711601715399249e-02 -2.0751433915982234e-01
    3.3661731833113412e-02 -1.1812488464372367e-01
    3.3661731833113412e-02 -1.1812488464372367e-01
    3.3661731833113412e-02 -1.1812488464372367e-01
    3.3661731833113412e-02 -1.1812488464372367e-01 1. 0.
    4.1131489765796871e-02 -9.6225044864937631e-02
    4.1131489765796871e-02 -9.6225044864937631e-02
    3.3661731833113412e-02 -1.1812488464372367e-01
    2.6196393733691221e-02 -1.5321285325897388e-01
    2.2244675027150895e-02 -1.8214103175901078e-01
    1.8744965510679643e-02 -2.1926450482675730e-01
    1.8744965510679643e-02 -2.1926450482675730e-01
    1.3903142513152842e-02 -3.0899415356066751e-01
    1.1904680588950299e-02 -3.7598039382992116e-01
    1.1228316942206558e-02 -4.0715525425753590e-01
    1.1081150463295721e-02 -4.1478067789217010e-01
    1.0808562623379396e-02 -4.2986347681054748e-01
    9.6891795686362085e-03 -5.1001530068853440e-01
    9.6111017245192904e-03 -5.1714781297528101e-01
    8.8265654355234608e-03 -6.0915448154793794e-01
    8.8265654355234608e-03 -6.0915448154793794e-01
    8.7357776091634472e-03 -6.2332578307585973e-01
    8.4647907595652942e-03 -6.7330032922413852e-01
    8.6512764363871723e-03 -6.3753557775486203e-01
    8.5353739174083357e-03 -6.5894652766046924e-01
    8.6112453998790639e-03 -6.4465837122030423e-01
    8.7357776091634472e-03 -6.2332578307585973e-01
    8.8744679451545645e-03 -6.0207972893961470e-01
    8.7357776091634472e-03 -6.2332578307585973e-01
    8.7803563992094064e-03 -6.1623602251332077e-01
    1.0035470800313336e-02 -4.8128828998750423e-01
    1.0808562623379396e-02 -4.2986347681054748e-01
    1.1081150463295721e-02 -4.1478067789217010e-01
    1.2528810119980366e-02 -3.5172622905632955e-01
    1.5037673014823885e-02 -2.8143901789211673e-01
    1.6560281180517746e-02 -2.5182262437346942e-01
    1.6560281180517746e-02 -2.5182262437346942e-01
    1.5996950892862363e-02 -2.6196841599779191e-01
    1.5996950892862363e-02 -2.6196841599779191e-01
    1.6560281180517746e-02 -2.5182262437346942e-01
    2.2244675027150895e-02 -1.8214103175901078e-01
    2.3970260704326601e-02 -1.6823164622761330e-01
    2.6196393733691221e-02 -1.5321285325897388e-01
    3.3661731833113412e-02 -1.1812488464372367e-01 1. 0.
    5.8034526611711566e-02 -6.7884423330213065e-02
    2.9219947468897365e-02 -1.3671718540493263e-01
    2.3970260704326601e-02 -1.6823164622761330e-01
    1.8744965510679643e-02 -2.1926450482675730e-01
    1.9711601715399249e-02 -2.0751433915982234e-01
    1.7915741926104713e-02 -2.3052135826937484e-01
    1.1720887487190572e-02 -3.8388594797495729e-01
    1.1383524882500494e-02 -3.9946773096848065e-01
    1.0561591570726801e-02 -4.4474958999666070e-01
    1.1547458553407677e-02 -3.9171310092866868e-01
    9.9434096993562086e-03 -4.8850421045919723e-01
    9.5360677743421898e-03 -5.2426501043803275e-01
    8.7803563992094064e-03 -6.1623602251332077e-01
    8.6927696069850173e-03 -6.3042517195611514e-01
    8.2816945248864720e-03 -7.1686043892021889e-01
    8.2550111223206532e-03 -7.2420682437790140e-01
    8.1363903579735330e-03 -7.6138698762688106e-01
    8.1363903579735330e-03 -7.6138698762688106e-01
    8.2816945248864720e-03 -7.1686043892021889e-01
    8.1809736525739075e-03 -7.4642002729217893e-01
    8.0954302038788381e-03 -7.7649286955553443e-01
    8.1154670754794711e-03 -7.6892189194508476e-01
    8.0579444841693947e-03 -7.9174849014178184e-01
    8.3991712368835948e-03 -6.8773030540537694e-01
    8.6112453998790639e-03 -6.4465837122030423e-01
    8.6512764363871723e-03 -6.3753557775486203e-01
    8.4647907595652942e-03 -6.7330032922413852e-01
    1.0035470800313336e-02 -4.8128828998750423e-01
    1.0336851145358336e-02 -4.5946829173634074e-01
    1.1228316942206558e-02 -4.0715525425753590e-01
    1.2099823208015779e-02 -3.6799003609699366e-01
    1.5996950892862363e-02 -2.6196841599779191e-01
    1.5996950892862363e-02 -2.6196841599779191e-01
    1.5996950892862363e-02 -2.6196841599779191e-01
    1.5492541375668573e-02 -2.7183014110978115e-01
    1.8744965510679643e-02 -2.1926450482675730e-01
    2.3970260704326601e-02 -1.6823164622761330e-01
    2.9219947468897365e-02 -1.3671718540493263e-01
    2.9219947468897365e-02 -1.3671718540493263e-01
    4.1131489765796871e-02 -9.6225044864937631e-02
    2.3970260704326601e-02 -1.6823164622761330e-01
    2.3970260704326601e-02 -1.6823164622761330e-01
    1.7194600108097084e-02 -2.4135539601273889e-01
    1.4624930932682634e-02 -2.9082144767513401e-01
    1.3585283951342425e-02 -3.1782086308186408e-01
    1.1720887487190572e-02 -3.8388594797495729e-01
    1.0446628812173127e-02 -4.5212817817822681e-01
    9.9434096993562086e-03 -4.8850421045919723e-01
    9.7704676423905675e-03 -5.0286535297074386e-01
    9.2634548593924920e-03 -5.5262032314862086e-01
    8.8744679451545645e-03 -6.0207972893961470e-01
    8.7357776091634472e-03 -6.2332578307585973e-01
    8.3991712368835948e-03 -6.8773030540537694e-01
    8.1582191506332467e-03 -7.5388681096104015e-01
    8.2293464238784881e-03 -7.3158134722369317e-01
    7.9086426920190866e-03 -8.7883884960624947e-01
    7.9928801498762234e-03 -8.2275335120744242e-01
    8.0954302038788381e-03 -7.7649286955553443e-01
    8.0954302038788381e-03 -7.7649286955553443e-01
    8.0238004980227734e-03 -8.0716488496164873e-01
    8.1154670754794711e-03 -7.6892189194508476e-01
    7.9928801498762234e-03 -8.2275335120744242e-01
    8.0404624826708754e-03 -7.9943589133895054e-01
    8.2293464238784881e-03 -7.3158134722369317e-01
    8.0762616912287317e-03 -7.8410127841677113e-01
    8.2046752193374040e-03 -7.3898531161325653e-01
    8.2550111223206532e-03 -7.2420682437790140e-01
    8.5726268363378252e-03 -6.5179490739586909e-01
    8.9756269189555041e-03 -5.8794473579213125e-01
    9.6891795686362085e-03 -5.1001530068853440e-01
    1.1081150463295721e-02 -4.1478067789217010e-01
    1.1904680588950299e-02 -3.7598039382992116e-01
    1.4248366013071894e-02 -2.9999999999999993e-01
    1.5037673014823885e-02 -2.8143901789211673e-01
    1.3585283951342425e-02 -3.1782086308186408e-01
    1.5996950892862363e-02 -2.6196841599779191e-01
    1.9711601715399249e-02 -2.0751433915982234e-01
    2.3970260704326601e-02 -1.6823164622761330e-01
    2.0857472147331396e-02 -1.9518001458970663e-01
    3.3661731833113412e-02 -1.1812488464372367e-01
    2.2244675027150895e-02 -1.8214103175901078e-01
    1.9711601715399249e-02 -2.0751433915982234e-01
    1.5996950892862363e-02 -2.6196841599779191e-01
    1.3585283951342425e-02 -3.1782086308186408e-01
    1.1720887487190572e-02 -3.8388594797495729e-01
    1.0561591570726801e-02 -4.4474958999666070e-01
    9.8551459654528020e-03 -4.9569575922564213e-01
    9.0290314595091441e-03 -5.8088149642025577e-01
    8.7803563992094064e-03 -6.1623602251332077e-01
    8.7803563992094064e-03 -6.1623602251332077e-01
    8.5353739174083357e-03 -6.5894652766046924e-01
    8.3382255192014573e-03 -7.0224688317678319e-01
    8.4994424609015490e-03 -6.6611456167203187e-01
    8.0579444841693947e-03 -7.9174849014178184e-01
    7.9650787433816032e-03 -8.3852549156242107e-01
    7.8444578707144701e-03 -1.0185200918833628e+00
    7.8593609134773035e-03 -9.3771549247497543e-01
    7.8434673463250518e-03 -9.9086738861372436e-01
    7.8911038858869506e-03 -8.9535070925419136e-01
    7.8593609134773035e-03 -9.3771549247497543e-01
    7.8550468678517289e-03 -9.4638901827580579e-01
    7.9086426920190866e-03 -8.7883884960624947e-01
    7.8995214249067101e-03 -8.8706552514548753e-01
    7.8550468678517289e-03 -9.4638901827580579e-01
    7.8833834684707456e-03 -9.0369611411506390e-01
    7.8700104588954704e-03 -9.2057461789832340e-01
    8.0579444841693947e-03 -7.9174849014178184e-01
    8.2816945248864720e-03 -7.1686043892021889e-01
    8.3991712368835948e-03 -6.8773030540537694e-01
    9.0844263691377599e-03 -5.7381904175700438e-01
    9.3277451120483013e-03 -5.4554472558998091e-01
    1.0336851145358336e-02 -4.5946829173634074e-01
    1.1081150463295721e-02 -4.1478067789217010e-01
    1.3291486445451703e-02 -3.2649499961189848e-01
    1.2765419447850838e-02 -3.4343662872314296e-01
    1.5037673014823885e-02 -2.8143901789211673e-01
    1.7194600108097084e-02 -2.4135539601273889e-01
    1.9711601715399249e-02 -2.0751433915982234e-01
    2.0857472147331396e-02 -1.9518001458970663e-01
    3.3661731833113412e-02 -1.1812488464372367e-01
    1.7915741926104713e-02 -2.3052135826937484e-01
    1.6560281180517746e-02 -2.5182262437346942e-01
    1.2765419447850838e-02 -3.4343662872314296e-01
    1.1383524882500494e-02 -3.9946773096848065e-01
    1.0561591570726801e-02 -4.4474958999666070e-01
    9.7704676423905675e-03 -5.0286535297074386e-01
    9.5360677743421898e-03 -5.2426501043803275e-01
    8.5353739174083357e-03 -6.5894652766046924e-01
    8.4647907595652942e-03 -6.7330032922413852e-01
    8.6927696069850173e-03 -6.3042517195611514e-01
    8.2816945248864720e-03 -7.1686043892021889e-01
    8.0579444841693947e-03 -7.9174849014178184e-01
    7.9650787433816032e-03 -8.3852549156242107e-01
    7.8514020649412073e-03 -9.5513386588183857e-01
    7.8444578707144701e-03 -1.0185200918833628e+00
    7.8484237242897152e-03 -1.0373960074101292e+00
    7.8461095789572940e-03 -1.0279123375000934e+00
    7.8763541461023840e-03 -1.0963668190985176e+00
    7.8911038858869506e-03 -1.1168807816469810e+00
    7.8643475017040644e-03 -1.0762972830887190e+00
    7.8444578707144684e-03 -9.8181666514882693e-01
    7.8484237242897135e-03 -9.6395204228374809e-01
    7.8434673463250518e-03 -9.9086738861372436e-01
    7.8700104588954704e-03 -9.2057461789832340e-01
    7.8444578707144701e-03 -1.0185200918833628e+00
    7.8484237242897135e-03 -9.6395204228374809e-01
    7.8995214249067101e-03 -8.8706552514548753e-01
    8.0238004980227734e-03 -8.0716488496164873e-01
    8.0238004980227734e-03 -8.0716488496164873e-01
    8.4313794237794309e-03 -6.8050514202476642e-01
    8.6112453998790639e-03 -6.4465837122030423e-01
    9.0290314595091441e-03 -5.8088149642025577e-01
    9.7704676423905675e-03 -5.0286535297074386e-01
    1.0808562623379396e-02 -4.2986347681054748e-01
    1.2307437934369836e-02 -3.5990787537434726e-01
    1.3903142513152842e-02 -3.0899415356066751e-01
    1.5996950892862363e-02 -2.6196841599779191e-01
    1.7915741926104713e-02 -2.3052135826937484e-01
    2.0857472147331396e-02 -1.9518001458970663e-01
    2.3970260704326601e-02 -1.6823164622761330e-01
    1.5996950892862363e-02 -2.6196841599779191e-01
    1.4624930932682634e-02 -2.9082144767513401e-01
    1.1383524882500494e-02 -3.9946773096848065e-01
    1.0035470800313336e-02 -4.8128828998750423e-01
    1.0808562623379396e-02 -4.2986347681054748e-01
    8.8744679451545645e-03 -6.0207972893961470e-01
    8.3681310219832997e-03 -6.9497711996792499e-01
    8.3382255192014573e-03 -7.0224688317678319e-01
    8.3991712368835948e-03 -6.8773030540537694e-01
    8.2293464238784881e-03 -7.3158134722369317e-01
    7.9086426920190866e-03 -8.7883884960624947e-01
    7.8514020649412073e-03 -9.5513386588183857e-01
    7.8461095789572940e-03 -1.0279123375000934e+00
    7.8484237242897152e-03 -1.0373960074101292e+00
    7.8444578707144701e-03 -1.0185200918833628e+00
    7.8700104588954704e-03 -1.0862780491200215e+00
    7.8514020649412056e-03 -1.0469736606781690e+00
    7.9184748883037656e-03 -1.1485420915970874e+00
    7.9184748883037656e-03 -1.1485420915970874e+00
    7.9184748883037656e-03 -1.1485420915970874e+00
    7.8833834684707456e-03 -1.1065666703449761e+00
    7.9523183310609286e-03 -1.1813570144560008e+00
    7.9184748883037656e-03 -1.1485420915970874e+00
    7.9184748883037656e-03 -1.1485420915970874e+00
    7.8444578707144684e-03 -9.8181666514882693e-01
    7.8484237242897135e-03 -9.6395204228374809e-01
    7.8700104588954704e-03 -9.2057461789832340e-01
    8.0579444841693947e-03 -7.9174849014178184e-01
    8.0079442138397908e-03 -8.1493689166988881e-01
    8.0079442138397908e-03 -8.1493689166988881e-01
    8.0954302038788381e-03 -7.7649286955553443e-01
    8.3991712368835948e-03 -6.8773030540537694e-01
    8.7357776091634472e-03 -6.2332578307585973e-01
    9.9434096993562086e-03 -4.8850421045919723e-01
    1.0682102628126368e-02 -4.3732920163315520e-01
    1.2765419447850838e-02 -3.4343662872314296e-01
    1.3903142513152842e-02 -3.0899415356066751e-01
    1.5492541375668573e-02 -2.7183014110978115e-01
    1.7915741926104713e-02 -2.3052135826937484e-01
    1.7915741926104713e-02 -2.3052135826937484e-01
    1.4624930932682634e-02 -2.9082144767513401e-01
    1.3291486445451703e-02 -3.2649499961189848e-01
    1.1547458553407677e-02 -3.9171310092866868e-01
    1.0561591570726801e-02 -4.4474958999666070e-01
    1.0131559898481865e-02 -4.7404546313997720e-01
    8.7803563992094064e-03 -6.1623602251332077e-01
    8.2550111223206532e-03 -7.2420682437790140e-01
    8.0404624826708754e-03 -7.9943589133895054e-01
    8.0762616912287317e-03 -7.8410127841677113e-01
    7.9650787433816032e-03 -8.3852549156242107e-01
    7.8484237242897135e-03 -9.6395204228374809e-01
    7.8461095789572940e-03 -9.7284560513401686e-01
    7.8444578707144701e-03 -1.0185200918833628e+00
    7.8434673463250518e-03 -9.9086738861372436e-01
    7.8550468678517289e-03 -1.0566479330263849e+00
    7.9523183310609286e-03 -1.1813570144560008e+00
    7.9928801498762216e-03 -1.2154310870109943e+00
    7.9523183310609286e-03 -1.1813570144560008e+00
    7.9523183310609286e-03 -1.1813570144560008e+00
    7.8593609134773035e-03 -1.0664215404617368e+00
    8.0238004980227734e-03 -1.2389042420341585e+00
    8.1154670754794711e-03 -1.3005222123021802e+00
    7.9650787433816032e-03 -1.1925695879998877e+00
    7.8643475017040644e-03 -1.0762972830887190e+00
    7.9650787433816032e-03 -1.1925695879998877e+00
    7.8643475017040644e-03 -1.0762972830887190e+00
    7.8643475017040644e-03 -9.2911132984581735e-01
    7.8833834684707456e-03 -9.0369611411506390e-01
    7.8911038858869506e-03 -8.9535070925419136e-01
    7.9650787433816032e-03 -8.3852549156242107e-01
    7.9403039438841125e-03 -8.5449325928220765e-01
    7.9523183310609286e-03 -8.4648415996453608e-01
    8.2550111223206532e-03 -7.2420682437790140e-01
    8.8265654355234608e-03 -6.0915448154793794e-01
    9.8551459654528020e-03 -4.9569575922564213e-01
    1.0808562623379396e-02 -4.2986347681054748e-01
    1.2528810119980366e-02 -3.5172622905632955e-01
    1.4248366013071894e-02 -2.9999999999999993e-01
    1.6560281180517746e-02 -2.5182262437346942e-01
    1.8744965510679643e-02 -2.1926450482675730e-01
    1.3903142513152842e-02 -3.0899415356066751e-01
    1.2307437934369836e-02 -3.5990787537434726e-01
    1.0941414702894451e-02 -4.2234864552686613e-01
    9.5360677743421898e-03 -5.2426501043803275e-01
    8.4313794237794309e-03 -6.8050514202476642e-01
    8.3991712368835948e-03 -6.8773030540537694e-01
    8.0404624826708754e-03 -7.9943589133895054e-01
    7.8911038858869506e-03 -8.9535070925419136e-01
    7.8700104588954704e-03 -9.2057461789832340e-01
    7.8444578707144684e-03 -9.8181666514882693e-01
    7.8484237242897135e-03 -9.6395204228374809e-01
    7.8461095789572940e-03 -9.7284560513401686e-01
    7.8444578707144701e-03 -1.0185200918833628e+00
    7.8593609134773035e-03 -1.0664215404617368e+00
    8.0762616912287300e-03 -1.2753454528465551e+00
    8.0579444841693930e-03 -1.2630273533214134e+00
    7.9650787433816032e-03 -1.1925695879998877e+00
    7.8643475017040644e-03 -1.0762972830887190e+00
    7.9403039438841107e-03 -1.1702842464082406e+00
    8.0079442138397926e-03 -1.2270888828592581e+00
    8.1809736525739075e-03 -1.3397282541141675e+00
    8.3991712368835948e-03 -1.4540583599999397e+00
    8.1154670754794711e-03 -1.3005222123021802e+00
    8.0954302038788381e-03 -1.2878418324335692e+00
    8.1154670754794711e-03 -1.3005222123021802e+00
    7.8911038858869506e-03 -1.1168807816469810e+00
    7.9523183310609286e-03 -1.1813570144560008e+00
    7.8643475017040644e-03 -1.0762972830887190e+00
    7.8434673463250518e-03 -1.0092167846991638e+00
    7.8461095789572940e-03 -9.7284560513401686e-01
    7.8700104588954704e-03 -9.2057461789832340e-01
    7.9403039438841125e-03 -8.5449325928220765e-01
    7.9928801498762234e-03 -8.2275335120744242e-01
    8.2046752193374040e-03 -7.3898531161325653e-01
    8.9241312161856302e-03 -5.9501030838191804e-01
    1.0035470800313336e-02 -4.8128828998750423e-01
    1.1547458553407677e-02 -3.9171310092866868e-01
    1.3903142513152842e-02 -3.0899415356066751e-01
    1.5492541375668573e-02 -2.7183014110978115e-01
    1.7194600108097084e-02 -2.4135539601273889e-01
    1.3291486445451703e-02 -3.2649499961189848e-01
    1.1228316942206558e-02 -4.0715525425753590e-01
    9.6111017245192904e-03 -5.1714781297528101e-01
    8.3991712368835948e-03 -6.8773030540537694e-01
    8.2293464238784881e-03 -7.3158134722369317e-01
    8.2816945248864720e-03 -7.1686043892021889e-01
    8.0579444841693947e-03 -7.9174849014178184e-01
    7.9403039438841125e-03 -8.5449325928220765e-01
    7.8444578707144701e-03 -1.0185200918833628e+00
    7.9290258255464048e-03 -1.1593472394004203e+00
    7.8763541461023840e-03 -1.0963668190985176e+00
    7.8763541461023840e-03 -1.0963668190985176e+00
    7.9184748883037656e-03 -1.1485420915970874e+00
    7.9650787433816032e-03 -1.1925695879998877e+00
    8.2293464238784898e-03 -1.3669019908653217e+00
    8.2550111223206549e-03 -1.3808210118138655e+00
    8.0404624826708754e-03 -1.2508820417421227e+00
    7.9650787433816032e-03 -1.1925695879998877e+00
    8.1582191506332467e-03 -1.3264590724504377e+00
    8.2046752193374040e-03 -1.3532068693177814e+00
    8.1809736525739075e-03 -1.3397282541141675e+00
    8.6112453998790622e-03 -1.5512092057488567e+00
    8.2550111223206549e-03 -1.3808210118138655e+00
    8.1582191506332467e-03 -1.3264590724504377e+00
    8.0954302038788381e-03 -1.2878418324335692e+00
    8.1809736525739075e-03 -1.3397282541141675e+00
    8.3991712368835948e-03 -1.4540583599999397e+00
    8.0404624826708754e-03 -1.2508820417421227e+00
    8.0954302038788381e-03 -1.2878418324335692e+00
    7.9184748883037656e-03 -1.1485420915970874e+00
    7.8444578707144701e-03 -1.0185200918833628e+00
    7.8444578707144684e-03 -9.8181666514882693e-01
    7.9184748883037673e-03 -8.7066900492037291e-01
    7.9290258255464065e-03 -8.6255434611391291e-01
    8.2816945248864720e-03 -7.1686043892021889e-01
    9.3945270415858647e-03 -5.3846153846153844e-01
    1.1081150463295721e-02 -4.1478067789217010e-01
    1.2528810119980366e-02 -3.5172622905632955e-01
    1.4624930932682634e-02 -2.9082144767513401e-01
    1.8744965510679643e-02 -2.1926450482675730e-01
    1.2765419447850838e-02 -3.4343662872314296e-01
    1.0682102628126368e-02 -4.3732920163315520e-01
    8.5726268363378252e-03 -6.5179490739586909e-01
    8.1363903579735330e-03 -7.6138698762688106e-01
    8.1809736525739075e-03 -7.4642002729217893e-01
    8.1363903579735330e-03 -7.6138698762688106e-01
    7.9290258255464065e-03 -8.6255434611391291e-01
    7.8593609134773035e-03 -9.3771549247497543e-01
    7.8643475017040644e-03 -1.0762972830887190e+00
    7.9184748883037656e-03 -1.1485420915970874e+00
    7.8833834684707456e-03 -1.1065666703449761e+00
    7.8593609134773035e-03 -1.0664215404617368e+00
    7.8911038858869506e-03 -1.1168807816469810e+00
    8.0404624826708754e-03 -1.2508820417421227e+00
    8.3681310219832997e-03 -1.4388962906378164e+00
    8.3382255192014573e-03 -1.4240006242195882e+00
    8.1154670754794711e-03 -1.3005222123021802e+00
    8.2046752193374040e-03 -1.3532068693177814e+00
    8.1809736525739075e-03 -1.3397282541141675e+00
    8.1582191506332467e-03 -1.3264590724504377e+00
    8.2046752193374040e-03 -1.3532068693177814e+00
    8.1809736525739075e-03 -1.3397282541141675e+00
    8.2550111223206549e-03 -1.3808210118138655e+00
    8.0762616912287300e-03 -1.2753454528465551e+00
    8.0954302038788381e-03 -1.2878418324335692e+00
    8.3991712368835948e-03 -1.4540583599999397e+00
    8.6927696069850173e-03 -1.5862310778250641e+00
    8.6927696069850173e-03 -1.5862310778250641e+00
    8.5353739174083357e-03 -1.5175738212786565e+00
    8.1809736525739075e-03 -1.3397282541141675e+00
    7.9403039438841107e-03 -1.1702842464082406e+00
    7.8911038858869506e-03 -1.1168807816469810e+00
    7.8461095789572940e-03 -1.0279123375000934e+00
    7.8484237242897135e-03 -9.6395204228374809e-01
    7.9290258255464065e-03 -8.6255434611391291e-01
    8.8265654355234608e-03 -6.0915448154793794e-01
    1.0035470800313336e-02 -4.8128828998750423e-01
    1.3018979318073691e-02 -3.3502969713024494e-01
    1.5492541375668573e-02 -2.7183014110978115e-01
    1.7915741926104713e-02 -2.3052135826937484e-01
    1.2765419447850838e-02 -3.4343662872314296e-01
    1.0231928441234250e-02 -4.6677306581685601e-01
    8.7357776091634472e-03 -6.2332578307585973e-01
    8.0404624826708754e-03 -7.9943589133895054e-01
    7.8763541461023840e-03 -9.1210348815759035e-01
    7.8484237242897135e-03 -9.6395204228374809e-01
    7.8550468678517289e-03 -9.4638901827580579e-01
    7.8514020649412056e-03 -1.0469736606781690e+00
    7.8833834684707456e-03 -1.1065666703449761e+00
    7.8700104588954704e-03 -1.0862780491200215e+00
    7.9403039438841107e-03 -1.1702842464082406e+00
    7.9403039438841107e-03 -1.1702842464082406e+00
    8.0762616912287300e-03 -1.2753454528465551e+00
    8.3991712368835948e-03 -1.4540583599999397e+00
    8.5353739174083357e-03 -1.5175738212786565e+00
    8.3681310219832997e-03 -1.4388962906378164e+00
    8.3382255192014573e-03 -1.4240006242195882e+00
    8.4647907595652942e-03 -1.4852213144650115e+00
    8.3681310219832997e-03 -1.4388962906378164e+00
    8.1582191506332467e-03 -1.3264590724504377e+00
    8.1582191506332467e-03 -1.3264590724504377e+00
    8.0579444841693930e-03 -1.2630273533214134e+00
    8.4313794237794327e-03 -1.4694966110389887e+00
    8.2293464238784898e-03 -1.3669019908653217e+00
    8.4647907595652942e-03 -1.4852213144650115e+00
    8.8744679451545645e-03 -1.6609095970747993e+00
    8.9756269189555041e-03 -1.7008401285415224e+00
    8.8265654355234625e-03 -1.6416197045105450e+00
    8.1809736525739075e-03 -1.3397282541141675e+00
    8.1809736525739075e-03 -1.3397282541141675e+00
    8.0404624826708754e-03 -1.2508820417421227e+00
    7.9785956284609810e-03 -1.2039261614597430e+00
    7.9290258255464048e-03 -1.1593472394004203e+00
    7.8700104588954704e-03 -1.0862780491200215e+00
    7.8833834684707456e-03 -9.0369611411506390e-01
    8.1154670754794711e-03 -7.6892189194508476e-01
    9.4639237768500382e-03 -5.3136893132405727e-01
    1.2765419447850838e-02 -3.4343662872314296e-01
    1.5996950892862363e-02 -2.6196841599779191e-01
    1.6560281180517746e-02 -2.5182262437346942e-01
    1.1383524882500494e-02 -3.9946773096848065e-01
    9.0844263691377599e-03 -5.7381904175700438e-01
    8.3991712368835948e-03 -6.8773030540537694e-01
    7.9184748883037673e-03 -8.7066900492037291e-01
    7.8431372549019607e-03 -1. 7.8550468678517289e-03
    -1.0566479330263849e+00 7.8763541461023840e-03
    -1.0963668190985176e+00 7.9650787433816032e-03
    -1.1925695879998877e+00 7.9403039438841107e-03
    -1.1702842464082406e+00 7.9785956284609810e-03
    -1.2039261614597430e+00 7.9650787433816032e-03
    -1.1925695879998877e+00 8.0954302038788381e-03
    -1.2878418324335692e+00 8.2816945248864703e-03
    -1.3949716649258310e+00 8.2816945248864703e-03
    -1.3949716649258310e+00 8.3094232724494222e-03
    -1.4093620435725567e+00 8.2816945248864703e-03
    -1.3949716649258310e+00 8.2293464238784898e-03
    -1.3669019908653217e+00 8.5726268363378270e-03
    -1.5342249358702769e+00 8.4647907595652942e-03
    -1.4852213144650115e+00 8.3681310219832997e-03
    -1.4388962906378164e+00 8.2046752193374040e-03
    -1.3532068693177814e+00 8.2550111223206549e-03
    -1.3808210118138655e+00 8.6512764363871706e-03
    -1.5685399135238665e+00 8.6112453998790622e-03
    -1.5512092057488567e+00 9.0290314595091459e-03
    -1.7215215257545764e+00 9.3277451120483013e-03
    -1.8330302779823360e+00 8.8744679451545645e-03
    -1.6609095970747993e+00 8.9241312161856320e-03
    -1.6806431517454181e+00 8.3681310219832997e-03
    -1.4388962906378164e+00 8.1809736525739075e-03
    -1.3397282541141675e+00 8.1809736525739075e-03
    -1.3397282541141675e+00 7.9403039438841107e-03
    -1.1702842464082406e+00 7.8550468678517289e-03
    -1.0566479330263849e+00 7.8550468678517289e-03
    -1.0566479330263849e+00 7.8484237242897135e-03
    -9.6395204228374809e-01 8.2046752193374040e-03
    -7.3898531161325653e-01 9.0290314595091441e-03
    -5.8088149642025577e-01 9.6891795686362085e-03
    -5.1001530068853440e-01 1.3903142513152842e-02
    -3.0899415356066751e-01 1.3018979318073691e-02
    -3.3502969713024494e-01 1.0035470800313336e-02
    -4.8128828998750423e-01 8.9756269189555041e-03
    -5.8794473579213125e-01 8.1582191506332467e-03
    -7.5388681096104015e-01 7.8484237242897135e-03
    -9.6395204228374809e-01 7.8434673463250518e-03
    -9.9086738861372436e-01 7.8995214249067101e-03
    -1.1273124382057238e+00 7.9928801498762216e-03
    -1.2154310870109943e+00 8.0238004980227734e-03
    -1.2389042420341585e+00 8.0238004980227734e-03
    -1.2389042420341585e+00 8.1154670754794711e-03
    -1.3005222123021802e+00 8.0762616912287300e-03
    -1.2753454528465551e+00 8.4647907595652942e-03
    -1.4852213144650115e+00 8.5353739174083357e-03
    -1.5175738212786565e+00 8.4313794237794327e-03
    -1.4694966110389887e+00 8.1582191506332467e-03
    -1.3264590724504377e+00 8.2293464238784898e-03
    -1.3669019908653217e+00 8.2550111223206549e-03
    -1.3808210118138655e+00 8.3681310219832997e-03
    -1.4388962906378164e+00 8.3094232724494222e-03
    -1.4093620435725567e+00 8.1582191506332467e-03
    -1.3264590724504377e+00 8.1582191506332467e-03
    -1.3264590724504377e+00 8.2816945248864703e-03
    -1.3949716649258310e+00 8.4313794237794327e-03
    -1.4694966110389887e+00 8.4647907595652942e-03
    -1.4852213144650115e+00 9.0290314595091459e-03
    -1.7215215257545764e+00 8.8744679451545645e-03
    -1.6609095970747993e+00 8.7357776091634472e-03
    -1.6042975072608192e+00 8.8744679451545645e-03
    -1.6609095970747993e+00 8.6927696069850173e-03
    -1.5862310778250641e+00 8.5726268363378270e-03
    -1.5342249358702769e+00 8.4313794237794327e-03
    -1.4694966110389887e+00 8.1363903579735330e-03
    -1.3133925536563698e+00 7.8763541461023840e-03
    -1.0963668190985176e+00 7.8434673463250518e-03
    -1.0092167846991638e+00 7.8461095789572940e-03
    -1.0279123375000934e+00 7.9403039438841125e-03
    -8.5449325928220765e-01 8.5353739174083357e-03
    -6.5894652766046924e-01 9.3277451120483013e-03
    -5.4554472558998091e-01 1.1904680588950299e-02
    -3.7598039382992116e-01 1.3291486445451703e-02
    -3.2649499961189848e-01 1.0131559898481865e-02
    -4.7404546313997720e-01 8.3991712368835948e-03
    -6.8773030540537694e-01 8.0579444841693947e-03
    -7.9174849014178184e-01 7.8550468678517289e-03
    -1.0566479330263849e+00 7.8514020649412056e-03
    -1.0469736606781690e+00 7.9403039438841107e-03
    -1.1702842464082406e+00 8.1363903579735330e-03
    -1.3133925536563698e+00 8.2046752193374040e-03
    -1.3532068693177814e+00 8.0579444841693930e-03
    -1.2630273533214134e+00 8.1582191506332467e-03
    -1.3264590724504377e+00 8.1363903579735330e-03
    -1.3133925536563698e+00 8.1809736525739075e-03
    -1.3397282541141675e+00 8.3094232724494222e-03
    -1.4093620435725567e+00 8.3382255192014573e-03
    -1.4240006242195882e+00 8.3094232724494222e-03
    -1.4093620435725567e+00 8.2293464238784898e-03
    -1.3669019908653217e+00 8.1154670754794711e-03
    -1.3005222123021802e+00 8.3991712368835948e-03
    -1.4540583599999397e+00 8.4313794237794327e-03
    -1.4694966110389887e+00 8.1154670754794711e-03
    -1.3005222123021802e+00 8.2293464238784898e-03
    -1.3669019908653217e+00 8.3382255192014573e-03
    -1.4240006242195882e+00 8.3681310219832997e-03
    -1.4388962906378164e+00 8.6512764363871706e-03
    -1.5685399135238665e+00 8.8265654355234625e-03
    -1.6416197045105450e+00 9.0844263691377582e-03
    -1.7427096823731238e+00 9.0844263691377582e-03
    -1.7427096823731238e+00 8.4994424609015472e-03
    -1.5012432658578627e+00 8.8265654355234625e-03
    -1.6416197045105450e+00 8.6927696069850173e-03
    -1.5862310778250641e+00 8.4647907595652942e-03
    -1.4852213144650115e+00 8.2046752193374040e-03
    -1.3532068693177814e+00 8.0238004980227734e-03
    -1.2389042420341585e+00 7.8995214249067101e-03
    -1.1273124382057238e+00 7.8593609134773035e-03
    -1.0664215404617368e+00 7.8643475017040644e-03
    -9.2911132984581735e-01 8.1154670754794711e-03
    -7.6892189194508476e-01 9.2015416727741807e-03
    -5.5969010358250293e-01 1.0941414702894451e-02
    -4.2234864552686613e-01 1.3585283951342425e-02
    -3.1782086308186408e-01 9.5360677743421898e-03
    -5.2426501043803275e-01 8.4647907595652942e-03
    -6.7330032922413852e-01 7.9650787433816032e-03
    -8.3852549156242107e-01 7.8461095789572940e-03
    -1.0279123375000934e+00 7.8643475017040644e-03
    -1.0762972830887190e+00 7.9290258255464048e-03
    -1.1593472394004203e+00 8.2816945248864703e-03
    -1.3949716649258310e+00 8.3681310219832997e-03
    -1.4388962906378164e+00 8.3382255192014573e-03
    -1.4240006242195882e+00 8.5353739174083357e-03
    -1.5175738212786565e+00 8.3681310219832997e-03
    -1.4388962906378164e+00 8.2816945248864703e-03
    -1.3949716649258310e+00 8.4647907595652942e-03
    -1.4852213144650115e+00 8.2046752193374040e-03
    -1.3532068693177814e+00 8.1363903579735330e-03
    -1.3133925536563698e+00 8.1809736525739075e-03
    -1.3397282541141675e+00 8.0579444841693930e-03
    -1.2630273533214134e+00 8.2550111223206549e-03
    -1.3808210118138655e+00 8.2046752193374040e-03
    -1.3532068693177814e+00 8.1809736525739075e-03
    -1.3397282541141675e+00 8.3382255192014573e-03
    -1.4240006242195882e+00 8.3094232724494222e-03
    -1.4093620435725567e+00 8.4647907595652942e-03
    -1.4852213144650115e+00 8.5353739174083357e-03
    -1.5175738212786565e+00 8.6112453998790622e-03
    -1.5512092057488567e+00 8.7357776091634472e-03
    -1.6042975072608192e+00 9.1418987344156436e-03
    -1.7644283910575147e+00 9.3277451120483013e-03
    -1.8330302779823360e+00 9.0844263691377582e-03
    -1.7427096823731238e+00 8.7803563992094064e-03
    -1.6227548592850778e+00 8.4313794237794327e-03
    -1.4694966110389887e+00 8.3681310219832997e-03
    -1.4388962906378164e+00 8.0954302038788381e-03
    -1.2878418324335692e+00 7.9523183310609286e-03
    -1.1813570144560008e+00 7.8833834684707456e-03
    -1.1065666703449761e+00 7.8461095789572940e-03
    -1.0279123375000934e+00 8.0954302038788381e-03
    -7.7649286955553443e-01 9.0290314595091441e-03
    -5.8088149642025577e-01 1.0231928441234250e-02
    -4.6677306581685601e-01 1.2765419447850838e-02
    -3.4343662872314296e-01 9.3945270415858647e-03
    -5.3846153846153844e-01 8.3382255192014573e-03
    -7.0224688317678319e-01 7.8995214249067101e-03
    -8.8706552514548753e-01 7.8643475017040644e-03
    -1.0762972830887190e+00 7.8911038858869506e-03
    -1.1168807816469810e+00 7.9290258255464048e-03
    -1.1593472394004203e+00 8.1154670754794711e-03
    -1.3005222123021802e+00 8.3094232724494222e-03
    -1.4093620435725567e+00 8.3991712368835948e-03
    -1.4540583599999397e+00 8.8265654355234625e-03
    -1.6416197045105450e+00 9.0290314595091459e-03
    -1.7215215257545764e+00 8.5726268363378270e-03
    -1.5342249358702769e+00 8.4994424609015472e-03
    -1.5012432658578627e+00 8.5726268363378270e-03
    -1.5342249358702769e+00 8.3382255192014573e-03
    -1.4240006242195882e+00 8.2046752193374040e-03
    -1.3532068693177814e+00 8.1154670754794711e-03
    -1.3005222123021802e+00 8.1809736525739075e-03
    -1.3397282541141675e+00 8.2293464238784898e-03
    -1.3669019908653217e+00 8.2293464238784898e-03
    -1.3669019908653217e+00 8.2293464238784898e-03
    -1.3669019908653217e+00 8.2816945248864703e-03
    -1.3949716649258310e+00 8.4994424609015472e-03
    -1.5012432658578627e+00 8.6112453998790622e-03
    -1.5512092057488567e+00 8.6112453998790622e-03
    -1.5512092057488567e+00 8.6512764363871706e-03
    -1.5685399135238665e+00 8.9241312161856320e-03
    -1.6806431517454181e+00 9.3277451120483013e-03
    -1.8330302779823360e+00 8.8744679451545645e-03
    -1.6609095970747993e+00 9.3277451120483013e-03
    -1.8330302779823360e+00 9.0844263691377582e-03
    -1.7427096823731238e+00 8.7803563992094064e-03
    -1.6227548592850778e+00 8.4313794237794327e-03
    -1.4694966110389887e+00 8.2550111223206549e-03
    -1.3808210118138655e+00 7.9650787433816032e-03
    -1.1925695879998877e+00 7.8833834684707456e-03
    -1.1065666703449761e+00 7.9785956284609810e-03
    -8.3061572379780713e-01 8.9241312161856302e-03
    -5.9501030838191804e-01 9.8551459654528020e-03
    -4.9569575922564213e-01 1.3018979318073691e-02
    -3.3502969713024494e-01 9.8551459654528020e-03
    -4.9569575922564213e-01 8.3991712368835948e-03
    -6.8773030540537694e-01 8.0404624826708754e-03
    -7.9943589133895054e-01 7.8514020649412073e-03
    -9.5513386588183857e-01 7.8911038858869506e-03
    -1.1168807816469810e+00 7.9928801498762216e-03
    -1.2154310870109943e+00 7.9785956284609810e-03
    -1.2039261614597430e+00 8.3382255192014573e-03
    -1.4240006242195882e+00 8.3382255192014573e-03
    -1.4240006242195882e+00 8.6512764363871706e-03
    -1.5685399135238665e+00 9.2634548593924938e-03
    -1.8095606659964649e+00 8.6927696069850173e-03
    -1.5862310778250641e+00 8.7357776091634472e-03
    -1.6042975072608192e+00 8.6927696069850173e-03
    -1.5862310778250641e+00 8.2816945248864703e-03
    -1.3949716649258310e+00 8.4647907595652942e-03
    -1.4852213144650115e+00 8.3991712368835948e-03
    -1.4540583599999397e+00 8.2046752193374040e-03
    -1.3532068693177814e+00 8.1154670754794711e-03
    -1.3005222123021802e+00 8.2293464238784898e-03
    -1.3669019908653217e+00 8.2550111223206549e-03
    -1.3808210118138655e+00 8.3382255192014573e-03
    -1.4240006242195882e+00 8.4313794237794327e-03
    -1.4694966110389887e+00 8.5726268363378270e-03
    -1.5342249358702769e+00 8.3094232724494222e-03
    -1.4093620435725567e+00 8.4313794237794327e-03
    -1.4694966110389887e+00 8.5353739174083357e-03
    -1.5175738212786565e+00 8.6512764363871706e-03
    -1.5685399135238665e+00 8.6512764363871706e-03
    -1.5685399135238665e+00 8.9241312161856320e-03
    -1.6806431517454181e+00 8.5726268363378270e-03
    -1.5342249358702769e+00 8.6927696069850173e-03
    -1.5862310778250641e+00 8.4994424609015472e-03
    -1.5012432658578627e+00 8.2550111223206549e-03
    -1.3808210118138655e+00 8.0404624826708754e-03
    -1.2508820417421227e+00 7.8911038858869506e-03
    -1.1168807816469810e+00 7.9290258255464065e-03
    -8.6255434611391291e-01 8.9241312161856302e-03
    -5.9501030838191804e-01 9.4639237768500382e-03
    -5.3136893132405727e-01 1.3291486445451703e-02
    -3.2649499961189848e-01 9.9434096993562086e-03
    -4.8850421045919723e-01 8.4994424609015490e-03
    -6.6611456167203187e-01 7.9523183310609286e-03
    -8.4648415996453608e-01 7.8461095789572940e-03
    -9.7284560513401686e-01 7.8833834684707456e-03
    -1.1065666703449761e+00 7.9785956284609810e-03
    -1.2039261614597430e+00 8.1363903579735330e-03
    -1.3133925536563698e+00 8.2293464238784898e-03
    -1.3669019908653217e+00 8.3681310219832997e-03
    -1.4388962906378164e+00 8.8265654355234625e-03
    -1.6416197045105450e+00 9.0290314595091459e-03
    -1.7215215257545764e+00 9.0290314595091459e-03
    -1.7215215257545764e+00 8.6927696069850173e-03
    -1.5862310778250641e+00 8.8265654355234625e-03
    -1.6416197045105450e+00 8.6112453998790622e-03
    -1.5512092057488567e+00 8.3991712368835948e-03
    -1.4540583599999397e+00 8.3094232724494222e-03
    -1.4093620435725567e+00 8.5726268363378270e-03
    -1.5342249358702769e+00 8.5353739174083357e-03
    -1.5175738212786565e+00 8.3382255192014573e-03
    -1.4240006242195882e+00 8.3094232724494222e-03
    -1.4093620435725567e+00 8.2816945248864703e-03
    -1.3949716649258310e+00 8.4313794237794327e-03
    -1.4694966110389887e+00 8.4313794237794327e-03
    -1.4694966110389887e+00 8.2550111223206549e-03
    -1.3808210118138655e+00 8.6112453998790622e-03
    -1.5512092057488567e+00 8.6112453998790622e-03
    -1.5512092057488567e+00 8.5726268363378270e-03
    -1.5342249358702769e+00 8.8265654355234625e-03
    -1.6416197045105450e+00 8.7357776091634472e-03
    -1.6042975072608192e+00 8.5353739174083357e-03
    -1.5175738212786565e+00 8.4994424609015472e-03
    -1.5012432658578627e+00 8.1809736525739075e-03
    -1.3397282541141675e+00 8.0238004980227734e-03
    -1.2389042420341585e+00 8.0762616912287300e-03
    -1.2753454528465551e+00 7.8833834684707456e-03
    -1.1065666703449761e+00 7.9403039438841125e-03
    -8.5449325928220765e-01 8.9756269189555041e-03
    -5.8794473579213125e-01 9.9434096993562086e-03
    -4.8850421045919723e-01 1.3018979318073691e-02
    -3.3502969713024494e-01 9.4639237768500382e-03
    -5.3136893132405727e-01 8.3681310219832997e-03
    -6.9497711996792499e-01 7.8833834684707456e-03
    -9.0369611411506390e-01 7.8484237242897135e-03
    -9.6395204228374809e-01 7.8550468678517289e-03
    -1.0566479330263849e+00 7.9290258255464048e-03
    -1.1593472394004203e+00 8.0579444841693930e-03
    -1.2630273533214134e+00 8.3382255192014573e-03
    -1.4240006242195882e+00 8.2550111223206549e-03
    -1.3808210118138655e+00 8.8744679451545645e-03
    -1.6609095970747993e+00 9.0290314595091459e-03
    -1.7215215257545764e+00 8.5726268363378270e-03
    -1.5342249358702769e+00 8.6512764363871706e-03
    -1.5685399135238665e+00 8.8265654355234625e-03
    -1.6416197045105450e+00 8.4994424609015472e-03
    -1.5012432658578627e+00 8.5353739174083357e-03
    -1.5175738212786565e+00 8.4994424609015472e-03
    -1.5012432658578627e+00 8.4313794237794327e-03
    -1.4694966110389887e+00 8.8265654355234625e-03
    -1.6416197045105450e+00 8.7803563992094064e-03
    -1.6227548592850778e+00 8.2816945248864703e-03
    -1.3949716649258310e+00 8.1809736525739075e-03
    -1.3397282541141675e+00 8.4647907595652942e-03
    -1.4852213144650115e+00 8.3991712368835948e-03
    -1.4540583599999397e+00 8.6112453998790622e-03
    -1.5512092057488567e+00 8.5726268363378270e-03
    -1.5342249358702769e+00 8.7803563992094064e-03
    -1.6227548592850778e+00 8.6112453998790622e-03
    -1.5512092057488567e+00 8.6512764363871706e-03
    -1.5685399135238665e+00 8.7357776091634472e-03
    -1.6042975072608192e+00 8.4313794237794327e-03
    -1.4694966110389887e+00 8.3681310219832997e-03
    -1.4388962906378164e+00 8.2816945248864703e-03
    -1.3949716649258310e+00 8.0762616912287300e-03
    -1.2753454528465551e+00 7.9650787433816032e-03
    -1.1925695879998877e+00 7.9086426920190866e-03
    -1.1378650368586178e+00 7.8995214249067101e-03
    -8.8706552514548753e-01 8.9756269189555041e-03
    -5.8794473579213125e-01 9.9434096993562086e-03
    -4.8850421045919723e-01 1.2307437934369836e-02
    -3.5990787537434726e-01 9.6111017245192904e-03
    -5.1714781297528101e-01 8.2816945248864720e-03
    -7.1686043892021889e-01 7.9785956284609810e-03
    -8.3061572379780713e-01 7.8444578707144684e-03
    -9.8181666514882693e-01 7.9290258255464048e-03
    -1.1593472394004203e+00 7.9403039438841107e-03
    -1.1702842464082406e+00 7.9785956284609810e-03
    -1.2039261614597430e+00 8.0954302038788381e-03
    -1.2878418324335692e+00 8.4313794237794327e-03
    -1.4694966110389887e+00 8.4313794237794327e-03
    -1.4694966110389887e+00 8.3991712368835948e-03
    -1.4540583599999397e+00 8.5353739174083357e-03
    -1.5175738212786565e+00 8.8265654355234625e-03
    -1.6416197045105450e+00 8.8265654355234625e-03
    -1.6416197045105450e+00 8.3991712368835948e-03
    -1.4540583599999397e+00 8.3382255192014573e-03
    -1.4240006242195882e+00 8.3681310219832997e-03
    -1.4388962906378164e+00 8.3991712368835948e-03
    -1.4540583599999397e+00 8.4313794237794327e-03
    -1.4694966110389887e+00 8.7357776091634472e-03
    -1.6042975072608192e+00 8.5353739174083357e-03
    -1.5175738212786565e+00 8.1582191506332467e-03
    -1.3264590724504377e+00 8.3382255192014573e-03
    -1.4240006242195882e+00 8.2293464238784898e-03
    -1.3669019908653217e+00 8.3681310219832997e-03
    -1.4388962906378164e+00 8.3382255192014573e-03
    -1.4240006242195882e+00 8.3991712368835948e-03
    -1.4540583599999397e+00 8.4313794237794327e-03
    -1.4694966110389887e+00 8.2550111223206549e-03
    -1.3808210118138655e+00 8.3094232724494222e-03
    -1.4093620435725567e+00 8.2550111223206549e-03
    -1.3808210118138655e+00 8.1154670754794711e-03
    -1.3005222123021802e+00 8.0238004980227734e-03
    -1.2389042420341585e+00 7.8833834684707456e-03
    -1.1065666703449761e+00 7.8833834684707456e-03
    -1.1065666703449761e+00 7.8484237242897152e-03
    -1.0373960074101292e+00 7.9928801498762234e-03
    -8.2275335120744242e-01 8.5353739174083357e-03
    -6.5894652766046924e-01 9.9434096993562086e-03
    -4.8850421045919723e-01 1.2765419447850838e-02
    -3.4343662872314296e-01 9.6891795686362085e-03
    -5.1001530068853440e-01 8.4313794237794309e-03
    -6.8050514202476642e-01 7.9785956284609810e-03
    -8.3061572379780713e-01 7.8593609134773035e-03
    -9.3771549247497543e-01 7.8550468678517289e-03
    -1.0566479330263849e+00 7.9086426920190866e-03
    -1.1378650368586178e+00 7.9785956284609810e-03
    -1.2039261614597430e+00 8.0954302038788381e-03
    -1.2878418324335692e+00 8.2293464238784898e-03
    -1.3669019908653217e+00 8.3382255192014573e-03
    -1.4240006242195882e+00 8.4313794237794327e-03
    -1.4694966110389887e+00 8.6927696069850173e-03
    -1.5862310778250641e+00 8.2816945248864703e-03
    -1.3949716649258310e+00 8.8265654355234625e-03
    -1.6416197045105450e+00 8.4313794237794327e-03
    -1.4694966110389887e+00 8.4313794237794327e-03
    -1.4694966110389887e+00 8.2816945248864703e-03
    -1.3949716649258310e+00 8.2816945248864703e-03
    -1.3949716649258310e+00 8.3382255192014573e-03
    -1.4240006242195882e+00 8.2816945248864703e-03
    -1.3949716649258310e+00 8.2550111223206549e-03
    -1.3808210118138655e+00 8.3382255192014573e-03
    -1.4240006242195882e+00 8.3094232724494222e-03
    -1.4093620435725567e+00 8.2293464238784898e-03
    -1.3669019908653217e+00 8.3681310219832997e-03
    -1.4388962906378164e+00 8.5353739174083357e-03
    -1.5175738212786565e+00 8.2293464238784898e-03
    -1.3669019908653217e+00 8.4647907595652942e-03
    -1.4852213144650115e+00 8.2293464238784898e-03
    -1.3669019908653217e+00 8.0079442138397926e-03
    -1.2270888828592581e+00 8.0579444841693930e-03
    -1.2630273533214134e+00 8.0579444841693930e-03
    -1.2630273533214134e+00 8.0238004980227734e-03
    -1.2389042420341585e+00 7.8911038858869506e-03
    -1.1168807816469810e+00 7.8763541461023840e-03
    -1.0963668190985176e+00 7.8461095789572940e-03
    -1.0279123375000934e+00 7.9290258255464065e-03
    -8.6255434611391291e-01 8.4313794237794309e-03
    -6.8050514202476642e-01 9.6111017245192904e-03
    -5.1714781297528101e-01 1.4624930932682634e-02
    -2.9082144767513401e-01 1.0336851145358336e-02
    -4.5946829173634074e-01 8.7803563992094064e-03
    -6.1623602251332077e-01 7.9928801498762234e-03
    -8.2275335120744242e-01 7.8995214249067101e-03
    -8.8706552514548753e-01 7.8461095789572940e-03
    -1.0279123375000934e+00 7.8514020649412056e-03
    -1.0469736606781690e+00 7.9650787433816032e-03
    -1.1925695879998877e+00 8.1363903579735330e-03
    -1.3133925536563698e+00 8.2816945248864703e-03
    -1.3949716649258310e+00 8.1809736525739075e-03
    -1.3397282541141675e+00 8.3382255192014573e-03
    -1.4240006242195882e+00 8.4313794237794327e-03
    -1.4694966110389887e+00 8.4647907595652942e-03
    -1.4852213144650115e+00 8.3681310219832997e-03
    -1.4388962906378164e+00 8.5353739174083357e-03
    -1.5175738212786565e+00 8.3681310219832997e-03
    -1.4388962906378164e+00 8.3681310219832997e-03
    -1.4388962906378164e+00 8.4647907595652942e-03
    -1.4852213144650115e+00 8.3991712368835948e-03
    -1.4540583599999397e+00 8.4994424609015472e-03
    -1.5012432658578627e+00 8.3382255192014573e-03
    -1.4240006242195882e+00 8.2550111223206549e-03
    -1.3808210118138655e+00 8.3681310219832997e-03
    -1.4388962906378164e+00 8.3382255192014573e-03
    -1.4240006242195882e+00 8.2550111223206549e-03
    -1.3808210118138655e+00 8.4647907595652942e-03
    -1.4852213144650115e+00 8.3991712368835948e-03
    -1.4540583599999397e+00 8.2816945248864703e-03
    -1.3949716649258310e+00 8.2550111223206549e-03
    -1.3808210118138655e+00 8.2046752193374040e-03
    -1.3532068693177814e+00 7.9785956284609810e-03
    -1.2039261614597430e+00 8.0404624826708754e-03
    -1.2508820417421227e+00 8.0079442138397926e-03
    -1.2270888828592581e+00 7.8911038858869506e-03
    -1.1168807816469810e+00 7.8444578707144701e-03
    -1.0185200918833628e+00 7.8461095789572940e-03
    -9.7284560513401686e-01 8.0079442138397908e-03
    -8.1493689166988881e-01 8.5353739174083357e-03
    -6.5894652766046924e-01 1.0131559898481865e-02
    -4.7404546313997720e-01 1.6560281180517746e-02
    -2.5182262437346942e-01 1.0131559898481865e-02
    -4.7404546313997720e-01 8.7357776091634472e-03
    -6.2332578307585973e-01 8.3094232724494222e-03
    -7.0954089090204586e-01 7.9650787433816032e-03
    -8.3852549156242107e-01 7.8444578707144684e-03
    -9.8181666514882693e-01 7.8833834684707456e-03
    -1.1065666703449761e+00 8.0079442138397926e-03
    -1.2270888828592581e+00 7.9650787433816032e-03
    -1.1925695879998877e+00 8.1582191506332467e-03
    -1.3264590724504377e+00 8.1154670754794711e-03
    -1.3005222123021802e+00 8.2816945248864703e-03
    -1.3949716649258310e+00 8.3681310219832997e-03
    -1.4388962906378164e+00 8.4994424609015472e-03
    -1.5012432658578627e+00 8.6927696069850173e-03
    -1.5862310778250641e+00 8.9756269189555041e-03
    -1.7008401285415224e+00 8.5353739174083357e-03
    -1.5175738212786565e+00 8.6112453998790622e-03
    -1.5512092057488567e+00 8.4647907595652942e-03
    -1.4852213144650115e+00 8.3991712368835948e-03
    -1.4540583599999397e+00 8.5353739174083357e-03
    -1.5175738212786565e+00 8.3991712368835948e-03
    -1.4540583599999397e+00 8.4994424609015472e-03
    -1.5012432658578627e+00 8.2816945248864703e-03
    -1.3949716649258310e+00 8.1809736525739075e-03
    -1.3397282541141675e+00 8.0954302038788381e-03
    -1.2878418324335692e+00 8.4994424609015472e-03
    -1.5012432658578627e+00 8.5726268363378270e-03
    -1.5342249358702769e+00 8.0954302038788381e-03
    -1.2878418324335692e+00 8.1154670754794711e-03
    -1.3005222123021802e+00 7.9785956284609810e-03
    -1.2039261614597430e+00 7.9523183310609286e-03
    -1.1813570144560008e+00 8.0404624826708754e-03
    -1.2508820417421227e+00 7.9785956284609810e-03
    -1.2039261614597430e+00 7.8643475017040644e-03
    -1.0762972830887190e+00 7.8911038858869506e-03
    -1.1168807816469810e+00 7.8461095789572940e-03
    -9.7284560513401686e-01 7.9290258255464065e-03
    -8.6255434611391291e-01 8.4994424609015490e-03
    -6.6611456167203187e-01 1.0131559898481865e-02
    -4.7404546313997720e-01 1.5996950892862363e-02
    -2.6196841599779191e-01 1.1547458553407677e-02
    -3.9171310092866868e-01 9.1418987344156454e-03
    -5.6675578621847456e-01 8.5726268363378252e-03
    -6.5179490739586909e-01 8.0762616912287317e-03
    -7.8410127841677113e-01 7.9403039438841125e-03
    -8.5449325928220765e-01 7.8763541461023840e-03
    -1.0963668190985176e+00 7.9785956284609810e-03
    -1.2039261614597430e+00 8.1154670754794711e-03
    -1.3005222123021802e+00 8.0579444841693930e-03
    -1.2630273533214134e+00 8.3991712368835948e-03
    -1.4540583599999397e+00 8.6512764363871706e-03
    -1.5685399135238665e+00 8.6927696069850173e-03
    -1.5862310778250641e+00 8.6512764363871706e-03
    -1.5685399135238665e+00 8.5726268363378270e-03
    -1.5342249358702769e+00 8.6112453998790622e-03
    -1.5512092057488567e+00 8.7357776091634472e-03
    -1.6042975072608192e+00 8.6512764363871706e-03
    -1.5685399135238665e+00 8.7357776091634472e-03
    -1.6042975072608192e+00 8.4647907595652942e-03
    -1.4852213144650115e+00 8.2550111223206549e-03
    -1.3808210118138655e+00 8.2046752193374040e-03
    -1.3532068693177814e+00 8.3681310219832997e-03
    -1.4388962906378164e+00 8.1154670754794711e-03
    -1.3005222123021802e+00 8.1363903579735330e-03
    -1.3133925536563698e+00 8.2046752193374040e-03
    -1.3532068693177814e+00 8.1154670754794711e-03
    -1.3005222123021802e+00 8.0954302038788381e-03
    -1.2878418324335692e+00 8.0762616912287300e-03
    -1.2753454528465551e+00 8.1363903579735330e-03
    -1.3133925536563698e+00 7.9928801498762216e-03
    -1.2154310870109943e+00 7.9650787433816032e-03
    -1.1925695879998877e+00 8.0404624826708754e-03
    -1.2508820417421227e+00 7.9928801498762216e-03
    -1.2154310870109943e+00 7.9403039438841107e-03
    -1.1702842464082406e+00 7.8461095789572940e-03
    -1.0279123375000934e+00 7.8700104588954704e-03
    -9.2057461789832340e-01 7.9650787433816032e-03
    -8.3852549156242107e-01 8.8265654355234608e-03
    -6.0915448154793794e-01 1.0035470800313336e-02
    -4.8128828998750423e-01 1.7915741926104713e-02
    -2.3052135826937484e-01 1.2099823208015779e-02
    -3.6799003609699366e-01 9.5360677743421898e-03
    -5.2426501043803275e-01 8.4647907595652942e-03
    -6.7330032922413852e-01 8.0238004980227734e-03
    -8.0716488496164873e-01 7.9086426920190866e-03
    -8.7883884960624947e-01 7.8593609134773035e-03
    -9.3771549247497543e-01 7.8911038858869506e-03
    -1.1168807816469810e+00 7.9650787433816032e-03
    -1.1925695879998877e+00 8.0762616912287300e-03
    -1.2753454528465551e+00 8.1363903579735330e-03
    -1.3133925536563698e+00 8.2293464238784898e-03
    -1.3669019908653217e+00 8.3991712368835948e-03
    -1.4540583599999397e+00 8.2816945248864703e-03
    -1.3949716649258310e+00 8.7357776091634472e-03
    -1.6042975072608192e+00 8.7357776091634472e-03
    -1.6042975072608192e+00 8.2293464238784898e-03
    -1.3669019908653217e+00 8.4994424609015472e-03
    -1.5012432658578627e+00 8.4994424609015472e-03
    -1.5012432658578627e+00 8.5726268363378270e-03
    -1.5342249358702769e+00 8.4994424609015472e-03
    -1.5012432658578627e+00 8.3991712368835948e-03
    -1.4540583599999397e+00 8.2816945248864703e-03
    -1.3949716649258310e+00 8.2550111223206549e-03
    -1.3808210118138655e+00 8.1809736525739075e-03
    -1.3397282541141675e+00 8.1582191506332467e-03
    -1.3264590724504377e+00 8.0954302038788381e-03
    -1.2878418324335692e+00 8.2550111223206549e-03
    -1.3808210118138655e+00 8.2816945248864703e-03
    -1.3949716649258310e+00 8.1809736525739075e-03
    -1.3397282541141675e+00 8.0954302038788381e-03
    -1.2878418324335692e+00 8.1363903579735330e-03
    -1.3133925536563698e+00 7.9650787433816032e-03
    -1.1925695879998877e+00 7.8643475017040644e-03
    -1.0762972830887190e+00 7.8763541461023840e-03
    -1.0963668190985176e+00 7.8484237242897135e-03
    -9.6395204228374809e-01 7.8833834684707456e-03
    -9.0369611411506390e-01 8.2293464238784881e-03
    -7.3158134722369317e-01 8.9241312161856302e-03
    -5.9501030838191804e-01 1.0336851145358336e-02
    -4.5946829173634074e-01 1.4624930932682634e-02
    -2.9082144767513401e-01 1.2307437934369836e-02
    -3.5990787537434726e-01 9.7704676423905675e-03
    -5.0286535297074386e-01 9.0290314595091441e-03
    -5.8088149642025577e-01 8.1363903579735330e-03
    -7.6138698762688106e-01 8.0238004980227734e-03
    -8.0716488496164873e-01 7.8833834684707456e-03
    -9.0369611411506390e-01 7.8431372549019607e-03 -1.
    7.9184748883037656e-03 -1.1485420915970874e+00
    7.9785956284609810e-03 -1.2039261614597430e+00
    8.1363903579735330e-03 -1.3133925536563698e+00
    8.0238004980227734e-03 -1.2389042420341585e+00
    8.0238004980227734e-03 -1.2389042420341585e+00
    8.0954302038788381e-03 -1.2878418324335692e+00
    8.3382255192014573e-03 -1.4240006242195882e+00
    8.2293464238784898e-03 -1.3669019908653217e+00
    8.2293464238784898e-03 -1.3669019908653217e+00
    8.2816945248864703e-03 -1.3949716649258310e+00
    8.3681310219832997e-03 -1.4388962906378164e+00
    8.1582191506332467e-03 -1.3264590724504377e+00
    8.2550111223206549e-03 -1.3808210118138655e+00
    8.2293464238784898e-03 -1.3669019908653217e+00
    8.2293464238784898e-03 -1.3669019908653217e+00
    8.2293464238784898e-03 -1.3669019908653217e+00
    8.2816945248864703e-03 -1.3949716649258310e+00
    8.2046752193374040e-03 -1.3532068693177814e+00
    8.3094232724494222e-03 -1.4093620435725567e+00
    8.1363903579735330e-03 -1.3133925536563698e+00
    7.9928801498762216e-03 -1.2154310870109943e+00
    8.1154670754794711e-03 -1.3005222123021802e+00
    8.1154670754794711e-03 -1.3005222123021802e+00
    8.0579444841693930e-03 -1.2630273533214134e+00
    7.9928801498762216e-03 -1.2154310870109943e+00
    7.8833834684707456e-03 -1.1065666703449761e+00
    7.8444578707144701e-03 -1.0185200918833628e+00
    7.8700104588954704e-03 -9.2057461789832340e-01
    7.9928801498762234e-03 -8.2275335120744242e-01
    8.5726268363378252e-03 -6.5179490739586909e-01
    9.2634548593924920e-03 -5.5262032314862086e-01
    1.2528810119980366e-02 -3.5172622905632955e-01
    1.3585283951342425e-02 -3.1782086308186408e-01
    1.2528810119980366e-02 -3.5172622905632955e-01
    1.0035470800313336e-02 -4.8128828998750423e-01
    9.3277451120483013e-03 -5.4554472558998091e-01
    8.5353739174083357e-03 -6.5894652766046924e-01
    8.0954302038788381e-03 -7.7649286955553443e-01
    7.8995214249067101e-03 -8.8706552514548753e-01
    7.8484237242897135e-03 -9.6395204228374809e-01
    7.8643475017040644e-03 -1.0762972830887190e+00
    7.8995214249067101e-03 -1.1273124382057238e+00
    7.9184748883037656e-03 -1.1485420915970874e+00
    8.0238004980227734e-03 -1.2389042420341585e+00
    8.2293464238784898e-03 -1.3669019908653217e+00
    8.3382255192014573e-03 -1.4240006242195882e+00
    8.3681310219832997e-03 -1.4388962906378164e+00
    8.4313794237794327e-03 -1.4694966110389887e+00
    8.2816945248864703e-03 -1.3949716649258310e+00
    8.2293464238784898e-03 -1.3669019908653217e+00
    8.2550111223206549e-03 -1.3808210118138655e+00
    8.1582191506332467e-03 -1.3264590724504377e+00
    8.1809736525739075e-03 -1.3397282541141675e+00
    8.0762616912287300e-03 -1.2753454528465551e+00
    8.2550111223206549e-03 -1.3808210118138655e+00
    8.2046752193374040e-03 -1.3532068693177814e+00
    8.4647907595652942e-03 -1.4852213144650115e+00
    8.3681310219832997e-03 -1.4388962906378164e+00
    8.1154670754794711e-03 -1.3005222123021802e+00
    8.1363903579735330e-03 -1.3133925536563698e+00
    8.0954302038788381e-03 -1.2878418324335692e+00
    8.0079442138397926e-03 -1.2270888828592581e+00
    8.0762616912287300e-03 -1.2753454528465551e+00
    8.0238004980227734e-03 -1.2389042420341585e+00
    7.8911038858869506e-03 -1.1168807816469810e+00
    7.8643475017040644e-03 -1.0762972830887190e+00
    7.8514020649412073e-03 -9.5513386588183857e-01
    7.9928801498762234e-03 -8.2275335120744242e-01
    8.2550111223206532e-03 -7.2420682437790140e-01
    8.5353739174083357e-03 -6.5894652766046924e-01
    9.2015416727741807e-03 -5.5969010358250293e-01
    1.2765419447850838e-02 -3.4343662872314296e-01
    1.8744965510679643e-02 -2.1926450482675730e-01
    1.3291486445451703e-02 -3.2649499961189848e-01
    1.0336851145358336e-02 -4.5946829173634074e-01
    9.3277451120483013e-03 -5.4554472558998091e-01
    8.9241312161856302e-03 -5.9501030838191804e-01
    8.2550111223206532e-03 -7.2420682437790140e-01
    7.8995214249067101e-03 -8.8706552514548753e-01
    7.8484237242897135e-03 -9.6395204228374809e-01
    7.8444578707144701e-03 -1.0185200918833628e+00
    7.8514020649412056e-03 -1.0469736606781690e+00
    8.0238004980227734e-03 -1.2389042420341585e+00
    8.0079442138397926e-03 -1.2270888828592581e+00
    8.0579444841693930e-03 -1.2630273533214134e+00
    8.3681310219832997e-03 -1.4388962906378164e+00
    8.1154670754794711e-03 -1.3005222123021802e+00
    8.2816945248864703e-03 -1.3949716649258310e+00
    8.2816945248864703e-03 -1.3949716649258310e+00
    8.1363903579735330e-03 -1.3133925536563698e+00
    8.0762616912287300e-03 -1.2753454528465551e+00
    8.0954302038788381e-03 -1.2878418324335692e+00
    7.9650787433816032e-03 -1.1925695879998877e+00
    8.1582191506332467e-03 -1.3264590724504377e+00
    8.0954302038788381e-03 -1.2878418324335692e+00
    8.1582191506332467e-03 -1.3264590724504377e+00
    8.1363903579735330e-03 -1.3133925536563698e+00
    8.1809736525739075e-03 -1.3397282541141675e+00
    8.1154670754794711e-03 -1.3005222123021802e+00
    8.0579444841693930e-03 -1.2630273533214134e+00
    8.0238004980227734e-03 -1.2389042420341585e+00
    7.9650787433816032e-03 -1.1925695879998877e+00
    7.9650787433816032e-03 -1.1925695879998877e+00
    7.8593609134773035e-03 -1.0664215404617368e+00
    7.8550468678517289e-03 -1.0566479330263849e+00
    7.8550468678517289e-03 -9.4638901827580579e-01
    7.9523183310609286e-03 -8.4648415996453608e-01
    8.0762616912287317e-03 -7.8410127841677113e-01
    8.4313794237794309e-03 -6.8050514202476642e-01
    8.5726268363378252e-03 -6.5179490739586909e-01
    1.0035470800313336e-02 -4.8128828998750423e-01
    1.2307437934369836e-02 -3.5990787537434726e-01
    1.5996950892862363e-02 -2.6196841599779191e-01
    1.3018979318073691e-02 -3.3502969713024494e-01
    1.1720887487190572e-02 -3.8388594797495729e-01
    9.7704676423905675e-03 -5.0286535297074386e-01
    8.9756269189555041e-03 -5.8794473579213125e-01
    8.4313794237794309e-03 -6.8050514202476642e-01
    8.2293464238784881e-03 -7.3158134722369317e-01
    7.9650787433816032e-03 -8.3852549156242107e-01
    7.9523183310609286e-03 -8.4648415996453608e-01
    7.8484237242897152e-03 -1.0373960074101292e+00
    7.8700104588954704e-03 -1.0862780491200215e+00
    7.8444578707144701e-03 -1.0185200918833628e+00
    7.8833834684707456e-03 -1.1065666703449761e+00
    8.0404624826708754e-03 -1.2508820417421227e+00
    8.3382255192014573e-03 -1.4240006242195882e+00
    8.3382255192014573e-03 -1.4240006242195882e+00
    8.3094232724494222e-03 -1.4093620435725567e+00
    8.2816945248864703e-03 -1.3949716649258310e+00
    8.0238004980227734e-03 -1.2389042420341585e+00
    7.9785956284609810e-03 -1.2039261614597430e+00
    7.9928801498762216e-03 -1.2154310870109943e+00
    8.1582191506332467e-03 -1.3264590724504377e+00
    8.0238004980227734e-03 -1.2389042420341585e+00
    7.9523183310609286e-03 -1.1813570144560008e+00
    7.9184748883037656e-03 -1.1485420915970874e+00
    8.0404624826708754e-03 -1.2508820417421227e+00
    8.0404624826708754e-03 -1.2508820417421227e+00
    7.8700104588954704e-03 -1.0862780491200215e+00
    7.9650787433816032e-03 -1.1925695879998877e+00
    7.9086426920190866e-03 -1.1378650368586178e+00
    8.1154670754794711e-03 -1.3005222123021802e+00
    7.8643475017040644e-03 -1.0762972830887190e+00
    7.8444578707144701e-03 -1.0185200918833628e+00
    7.8550468678517289e-03 -9.4638901827580579e-01
    8.0238004980227734e-03 -8.0716488496164873e-01
    8.3094232724494222e-03 -7.0954089090204586e-01
    8.5726268363378252e-03 -6.5179490739586909e-01
    9.0844263691377599e-03 -5.7381904175700438e-01
    1.1081150463295721e-02 -4.1478067789217010e-01
    1.3903142513152842e-02 -3.0899415356066751e-01
    1.8744965510679643e-02 -2.1926450482675730e-01
    1.3585283951342425e-02 -3.1782086308186408e-01
    1.2307437934369836e-02 -3.5990787537434726e-01
    1.0446628812173127e-02 -4.5212817817822681e-01
    9.2015416727741807e-03 -5.5969010358250293e-01
    8.9756269189555041e-03 -5.8794473579213125e-01
    8.6512764363871723e-03 -6.3753557775486203e-01
    8.3991712368835948e-03 -6.8773030540537694e-01
    8.0238004980227734e-03 -8.0716488496164873e-01
    7.9086426920190866e-03 -8.7883884960624947e-01
    7.9086426920190866e-03 -8.7883884960624947e-01
    7.9086426920190866e-03 -8.7883884960624947e-01
    7.8550468678517289e-03 -1.0566479330263849e+00
    7.8550468678517289e-03 -1.0566479330263849e+00
    7.9523183310609286e-03 -1.1813570144560008e+00
    8.2046752193374040e-03 -1.3532068693177814e+00
    8.1809736525739075e-03 -1.3397282541141675e+00
    8.2293464238784898e-03 -1.3669019908653217e+00
    8.0404624826708754e-03 -1.2508820417421227e+00
    8.0762616912287300e-03 -1.2753454528465551e+00
    8.0238004980227734e-03 -1.2389042420341585e+00
    8.0954302038788381e-03 -1.2878418324335692e+00
    8.1363903579735330e-03 -1.3133925536563698e+00
    7.9650787433816032e-03 -1.1925695879998877e+00
    7.8833834684707456e-03 -1.1065666703449761e+00
    7.9650787433816032e-03 -1.1925695879998877e+00
    7.8995214249067101e-03 -1.1273124382057238e+00
    7.9403039438841107e-03 -1.1702842464082406e+00
    7.9290258255464048e-03 -1.1593472394004203e+00
    7.9403039438841107e-03 -1.1702842464082406e+00
    7.8833834684707456e-03 -1.1065666703449761e+00
    7.8434673463250518e-03 -1.0092167846991638e+00
    7.8461095789572940e-03 -9.7284560513401686e-01
    7.9650787433816032e-03 -8.3852549156242107e-01
    8.0579444841693947e-03 -7.9174849014178184e-01
    8.5353739174083357e-03 -6.5894652766046924e-01
    9.3945270415858647e-03 -5.3846153846153844e-01
    9.8551459654528020e-03 -4.9569575922564213e-01
    1.2765419447850838e-02 -3.4343662872314296e-01
    1.4248366013071894e-02 -2.9999999999999993e-01
    1.9711601715399249e-02 -2.0751433915982234e-01
    1.5037673014823885e-02 -2.8143901789211673e-01
    1.2307437934369836e-02 -3.5990787537434726e-01
    9.8551459654528020e-03 -4.9569575922564213e-01
    9.5360677743421898e-03 -5.2426501043803275e-01
    9.3277451120483013e-03 -5.4554472558998091e-01
    8.7803563992094064e-03 -6.1623602251332077e-01
    8.8265654355234608e-03 -6.0915448154793794e-01
    8.2293464238784881e-03 -7.3158134722369317e-01
    8.0579444841693947e-03 -7.9174849014178184e-01
    8.0762616912287317e-03 -7.8410127841677113e-01
    7.9523183310609286e-03 -8.4648415996453608e-01
    7.8833834684707456e-03 -9.0369611411506390e-01
    7.8444578707144701e-03 -1.0185200918833628e+00
    7.8593609134773035e-03 -1.0664215404617368e+00
    7.8700104588954704e-03 -1.0862780491200215e+00
    7.8833834684707456e-03 -1.1065666703449761e+00
    7.8550468678517289e-03 -1.0566479330263849e+00
    7.8763541461023840e-03 -1.0963668190985176e+00
    7.9650787433816032e-03 -1.1925695879998877e+00
    8.0079442138397926e-03 -1.2270888828592581e+00
    8.0238004980227734e-03 -1.2389042420341585e+00
    8.0079442138397926e-03 -1.2270888828592581e+00
    7.9785956284609810e-03 -1.2039261614597430e+00
    7.8833834684707456e-03 -1.1065666703449761e+00
    7.8444578707144701e-03 -1.0185200918833628e+00
    7.8461095789572940e-03 -9.7284560513401686e-01
    7.8833834684707456e-03 -1.1065666703449761e+00
    7.8444578707144701e-03 -1.0185200918833628e+00
    7.8461095789572940e-03 -1.0279123375000934e+00
    7.8484237242897135e-03 -9.6395204228374809e-01
    7.9086426920190866e-03 -8.7883884960624947e-01
    8.1363903579735330e-03 -7.6138698762688106e-01
    8.1582191506332467e-03 -7.5388681096104015e-01
    8.3991712368835948e-03 -6.8773030540537694e-01
    9.0844263691377599e-03 -5.7381904175700438e-01
    9.3277451120483013e-03 -5.4554472558998091e-01
    1.1081150463295721e-02 -4.1478067789217010e-01
    1.3291486445451703e-02 -3.2649499961189848e-01
    1.5492541375668573e-02 -2.7183014110978115e-01
    1.9711601715399249e-02 -2.0751433915982234e-01
    1.7915741926104713e-02 -2.3052135826937484e-01
    1.2099823208015779e-02 -3.6799003609699366e-01
    1.0336851145358336e-02 -4.5946829173634074e-01
    9.7704676423905675e-03 -5.0286535297074386e-01
    9.7704676423905675e-03 -5.0286535297074386e-01
    9.2634548593924920e-03 -5.5262032314862086e-01
    9.0844263691377599e-03 -5.7381904175700438e-01
    8.6112453998790639e-03 -6.4465837122030423e-01
    8.4994424609015490e-03 -6.6611456167203187e-01
    8.2550111223206532e-03 -7.2420682437790140e-01
    8.1154670754794711e-03 -7.6892189194508476e-01
    7.9290258255464065e-03 -8.6255434611391291e-01
    7.8514020649412073e-03 -9.5513386588183857e-01
    7.9086426920190866e-03 -8.7883884960624947e-01
    7.9290258255464065e-03 -8.6255434611391291e-01
    7.8484237242897152e-03 -1.0373960074101292e+00
    7.8444578707144701e-03 -1.0185200918833628e+00
    7.8484237242897152e-03 -1.0373960074101292e+00
    7.8643475017040644e-03 -1.0762972830887190e+00
    7.8700104588954704e-03 -1.0862780491200215e+00
    7.9523183310609286e-03 -1.1813570144560008e+00
    7.9523183310609286e-03 -1.1813570144560008e+00
    7.8643475017040644e-03 -1.0762972830887190e+00
    7.8550468678517289e-03 -1.0566479330263849e+00
    7.8514020649412056e-03 -1.0469736606781690e+00
    7.8431372549019607e-03 -1. 7.8484237242897152e-03
    -1.0373960074101292e+00 7.8484237242897135e-03
    -9.6395204228374809e-01 7.9290258255464065e-03
    -8.6255434611391291e-01 8.0954302038788381e-03
    -7.7649286955553443e-01 8.2293464238784881e-03
    -7.3158134722369317e-01 8.2550111223206532e-03
    -7.2420682437790140e-01 8.4647907595652942e-03
    -6.7330032922413852e-01 8.8744679451545645e-03
    -6.0207972893961470e-01 9.3945270415858647e-03
    -5.3846153846153844e-01 9.6111017245192904e-03
    -5.1714781297528101e-01 1.1720887487190572e-02
    -3.8388594797495729e-01 1.4248366013071894e-02
    -2.9999999999999993e-01 1.5037673014823885e-02
    -2.8143901789211673e-01 2.3970260704326601e-02
    -1.6823164622761330e-01 1.9711601715399249e-02
    -2.0751433915982234e-01 1.3018979318073691e-02
    -3.3502969713024494e-01 1.1720887487190572e-02
    -3.8388594797495729e-01 1.1081150463295721e-02
    -4.1478067789217010e-01 1.0231928441234250e-02
    -4.6677306581685601e-01 9.9434096993562086e-03
    -4.8850421045919723e-01 9.6111017245192904e-03
    -5.1714781297528101e-01 9.2634548593924920e-03
    -5.5262032314862086e-01 9.3277451120483013e-03
    -5.4554472558998091e-01 9.0844263691377599e-03
    -5.7381904175700438e-01 8.2816945248864720e-03
    -7.1686043892021889e-01 8.3094232724494222e-03
    -7.0954089090204586e-01 8.1809736525739075e-03
    -7.4642002729217893e-01 8.1809736525739075e-03
    -7.4642002729217893e-01 7.9403039438841125e-03
    -8.5449325928220765e-01 7.8643475017040644e-03
    -9.2911132984581735e-01 7.8484237242897152e-03
    -1.0373960074101292e+00 7.8434673463250518e-03
    -9.9086738861372436e-01 7.8593609134773035e-03
    -1.0664215404617368e+00 7.8514020649412056e-03
    -1.0469736606781690e+00 7.8593609134773035e-03
    -1.0664215404617368e+00 7.8461095789572940e-03
    -1.0279123375000934e+00 7.8444578707144701e-03
    -1.0185200918833628e+00 7.8700104588954704e-03
    -9.2057461789832340e-01 7.8833834684707456e-03
    -9.0369611411506390e-01 7.9290258255464065e-03
    -8.6255434611391291e-01 7.9650787433816032e-03
    -8.3852549156242107e-01 7.9785956284609810e-03
    -8.3061572379780713e-01 8.0079442138397908e-03
    -8.1493689166988881e-01 8.3094232724494222e-03
    -7.0954089090204586e-01 8.3094232724494222e-03
    -7.0954089090204586e-01 8.4647907595652942e-03
    -6.7330032922413852e-01 8.7357776091634472e-03
    -6.2332578307585973e-01 9.4639237768500382e-03
    -5.3136893132405727e-01 9.9434096993562086e-03
    -4.8850421045919723e-01 1.0682102628126368e-02
    -4.3732920163315520e-01 1.3903142513152842e-02
    -3.0899415356066751e-01 1.4248366013071894e-02
    -2.9999999999999993e-01 1.6560281180517746e-02
    -2.5182262437346942e-01 2.9219947468897365e-02
    -1.3671718540493263e-01 1.6560281180517746e-02
    -2.5182262437346942e-01 1.5492541375668573e-02
    -2.7183014110978115e-01 1.4248366013071894e-02
    -2.9999999999999993e-01 1.2528810119980366e-02
    -3.5172622905632955e-01 1.0941414702894451e-02
    -4.2234864552686613e-01 1.0682102628126368e-02
    -4.3732920163315520e-01 1.1228316942206558e-02
    -4.0715525425753590e-01 1.0131559898481865e-02
    -4.7404546313997720e-01 9.6891795686362085e-03
    -5.1001530068853440e-01 1.0231928441234250e-02
    -4.6677306581685601e-01 9.2634548593924920e-03
    -5.5262032314862086e-01 8.4994424609015490e-03
    -6.6611456167203187e-01 8.3991712368835948e-03
    -6.8773030540537694e-01 8.2550111223206532e-03
    -7.2420682437790140e-01 8.0079442138397908e-03
    -8.1493689166988881e-01 7.9785956284609810e-03
    -8.3061572379780713e-01 7.9523183310609286e-03
    -8.4648415996453608e-01 7.8514020649412073e-03
    -9.5513386588183857e-01 7.8550468678517289e-03
    -9.4638901827580579e-01 7.8434673463250518e-03
    -1.0092167846991638e+00 7.8484237242897135e-03
    -9.6395204228374809e-01 7.8763541461023840e-03
    -9.1210348815759035e-01 7.8833834684707456e-03
    -9.0369611411506390e-01 7.8643475017040644e-03
    -9.2911132984581735e-01 7.9403039438841125e-03
    -8.5449325928220765e-01 7.9403039438841125e-03
    -8.5449325928220765e-01 8.1809736525739075e-03
    -7.4642002729217893e-01 8.3681310219832997e-03
    -6.9497711996792499e-01 8.3991712368835948e-03
    -6.8773030540537694e-01 8.3382255192014573e-03
    -7.0224688317678319e-01 8.8265654355234608e-03
    -6.0915448154793794e-01 9.2015416727741807e-03
    -5.5969010358250293e-01 9.6891795686362085e-03
    -5.1001530068853440e-01 1.0131559898481865e-02
    -4.7404546313997720e-01 9.9434096993562086e-03
    -4.8850421045919723e-01 1.1383524882500494e-02
    -3.9946773096848065e-01 1.2528810119980366e-02
    -3.5172622905632955e-01 1.5037673014823885e-02
    -2.8143901789211673e-01 1.7194600108097084e-02
    -2.4135539601273889e-01 3.3661731833113412e-02
    -1.1812488464372367e-01 2.6196393733691221e-02
    -1.5321285325897388e-01 1.9711601715399249e-02
    -2.0751433915982234e-01 1.6560281180517746e-02
    -2.5182262437346942e-01 1.5037673014823885e-02
    -2.8143901789211673e-01 1.3291486445451703e-02
    -3.2649499961189848e-01 1.2099823208015779e-02
    -3.6799003609699366e-01 1.2307437934369836e-02
    -3.5990787537434726e-01 1.1904680588950299e-02
    -3.7598039382992116e-01 1.0682102628126368e-02
    -4.3732920163315520e-01 1.0561591570726801e-02
    -4.4474958999666070e-01 1.0941414702894451e-02
    -4.2234864552686613e-01 1.0682102628126368e-02
    -4.3732920163315520e-01 9.3277451120483013e-03
    -5.4554472558998091e-01 8.9241312161856302e-03
    -5.9501030838191804e-01 8.3991712368835948e-03
    -6.8773030540537694e-01 8.1809736525739075e-03
    -7.4642002729217893e-01 8.1154670754794711e-03
    -7.6892189194508476e-01 8.0404624826708754e-03
    -7.9943589133895054e-01 7.9086426920190866e-03
    -8.7883884960624947e-01 7.9184748883037673e-03
    -8.7066900492037291e-01 7.8833834684707456e-03
    -9.0369611411506390e-01 7.9650787433816032e-03
    -8.3852549156242107e-01 7.8833834684707456e-03
    -9.0369611411506390e-01 7.9928801498762234e-03
    -8.2275335120744242e-01 7.9785956284609810e-03
    -8.3061572379780713e-01 8.2816945248864720e-03
    -7.1686043892021889e-01 8.4313794237794309e-03
    -6.8050514202476642e-01 8.5353739174083357e-03
    -6.5894652766046924e-01 8.5353739174083357e-03
    -6.5894652766046924e-01 9.0290314595091441e-03
    -5.8088149642025577e-01 9.2634548593924920e-03
    -5.5262032314862086e-01 1.0446628812173127e-02
    -4.5212817817822681e-01 1.0561591570726801e-02
    -4.4474958999666070e-01 1.0231928441234250e-02
    -4.6677306581685601e-01 1.0808562623379396e-02
    -4.2986347681054748e-01 1.2528810119980366e-02
    -3.5172622905632955e-01 1.3585283951342425e-02
    -3.1782086308186408e-01 1.7194600108097084e-02
    -2.4135539601273889e-01 2.6196393733691221e-02
    -1.5321285325897388e-01 3.3661731833113412e-02
    -1.1812488464372367e-01 2.9219947468897365e-02
    -1.3671718540493263e-01 2.3970260704326601e-02
    -1.6823164622761330e-01 1.9711601715399249e-02
    -2.0751433915982234e-01 1.7194600108097084e-02
    -2.4135539601273889e-01 1.6560281180517746e-02
    -2.5182262437346942e-01 1.4248366013071894e-02
    -2.9999999999999993e-01 1.3018979318073691e-02
    -3.3502969713024494e-01 1.3018979318073691e-02
    -3.3502969713024494e-01 1.3291486445451703e-02
    -3.2649499961189848e-01 1.2307437934369836e-02
    -3.5990787537434726e-01 1.2307437934369836e-02
    -3.5990787537434726e-01 1.1720887487190572e-02
    -3.8388594797495729e-01 1.1228316942206558e-02
    -4.0715525425753590e-01 1.0808562623379396e-02
    -4.2986347681054748e-01 9.3945270415858647e-03
    -5.3846153846153844e-01 8.8265654355234608e-03
    -6.0915448154793794e-01 8.3094232724494222e-03
    -7.0954089090204586e-01 8.2550111223206532e-03
    -7.2420682437790140e-01 8.0954302038788381e-03
    -7.7649286955553443e-01 8.0762616912287317e-03
    -7.8410127841677113e-01 8.0762616912287317e-03
    -7.8410127841677113e-01 8.1363903579735330e-03
    -7.6138698762688106e-01 8.2046752193374040e-03
    -7.3898531161325653e-01 8.1809736525739075e-03
    -7.4642002729217893e-01 8.2550111223206532e-03
    -7.2420682437790140e-01 8.4994424609015490e-03
    -6.6611456167203187e-01 9.0844263691377599e-03
    -5.7381904175700438e-01 9.5360677743421898e-03
    -5.2426501043803275e-01 9.9434096993562086e-03
    -4.8850421045919723e-01 9.8551459654528020e-03
    -4.9569575922564213e-01 9.8551459654528020e-03
    -4.9569575922564213e-01 1.0682102628126368e-02
    -4.3732920163315520e-01 1.0941414702894451e-02
    -4.2234864552686613e-01 1.2307437934369836e-02
    -3.5990787537434726e-01 1.4624930932682634e-02
    -2.9082144767513401e-01 1.4248366013071894e-02
    -2.9999999999999993e-01 1.5492541375668573e-02
    -2.7183014110978115e-01 2.2244675027150895e-02
    -1.8214103175901078e-01 3.3661731833113412e-02
    -1.1812488464372367e-01 5.8034526611711566e-02
    -6.7884423330213065e-02 3.3661731833113412e-02
    -1.1812488464372367e-01 2.9219947468897365e-02
    -1.3671718540493263e-01 2.3970260704326601e-02
    -1.6823164622761330e-01 2.0857472147331396e-02
    -1.9518001458970663e-01 2.0857472147331396e-02
    -1.9518001458970663e-01 1.7915741926104713e-02
    -2.3052135826937484e-01 1.6560281180517746e-02
    -2.5182262437346942e-01 1.5492541375668573e-02
    -2.7183014110978115e-01 1.5996950892862363e-02
    -2.6196841599779191e-01 1.5037673014823885e-02
    -2.8143901789211673e-01 1.4248366013071894e-02
    -2.9999999999999993e-01 1.3291486445451703e-02
    -3.2649499961189848e-01 1.2528810119980366e-02
    -3.5172622905632955e-01 1.2099823208015779e-02
    -3.6799003609699366e-01 1.0941414702894451e-02
    -4.2234864552686613e-01 9.8551459654528020e-03
    -4.9569575922564213e-01 9.0290314595091441e-03
    -5.8088149642025577e-01 8.6112453998790639e-03
    -6.4465837122030423e-01 9.0290314595091441e-03
    -5.8088149642025577e-01 9.0290314595091441e-03
    -5.8088149642025577e-01 8.6112453998790639e-03
    -6.4465837122030423e-01 9.0290314595091441e-03
    -5.8088149642025577e-01 8.4313794237794309e-03
    -6.8050514202476642e-01 9.2015416727741807e-03
    -5.5969010358250293e-01 8.8265654355234608e-03
    -6.0915448154793794e-01 9.6891795686362085e-03
    -5.1001530068853440e-01 9.8551459654528020e-03
    -4.9569575922564213e-01 1.0808562623379396e-02
    -4.2986347681054748e-01 1.1720887487190572e-02
    -3.8388594797495729e-01 1.1081150463295721e-02
    -4.1478067789217010e-01 1.1383524882500494e-02
    -3.9946773096848065e-01 1.3018979318073691e-02
    -3.3502969713024494e-01 1.6560281180517746e-02
    -2.5182262437346942e-01 1.7194600108097084e-02
    -2.4135539601273889e-01 1.7915741926104713e-02
    -2.3052135826937484e-01 2.0857472147331396e-02
    -1.9518001458970663e-01 1.9711601715399249e-02
    -2.0751433915982234e-01 2.3970260704326601e-02
    -1.6823164622761330e-01 3.3661731833113412e-02
    -1.1812488464372367e-01 5.8034526611711566e-02
    -6.7884423330213065e-02 2.9219947468897365e-02
    -1.3671718540493263e-01 2.9219947468897365e-02
    -1.3671718540493263e-01 2.9219947468897365e-02
    -1.3671718540493263e-01 2.9219947468897365e-02
    -1.3671718540493263e-01 3.3661731833113412e-02
    -1.1812488464372367e-01 2.3970260704326601e-02
    -1.6823164622761330e-01 2.0857472147331396e-02
    -1.9518001458970663e-01 1.8744965510679643e-02
    -2.1926450482675730e-01 1.7915741926104713e-02
    -2.3052135826937484e-01 1.7915741926104713e-02
    -2.3052135826937484e-01 1.5996950892862363e-02
    -2.6196841599779191e-01 1.6560281180517746e-02
    -2.5182262437346942e-01 1.7915741926104713e-02
    -2.3052135826937484e-01 1.7915741926104713e-02
    -2.3052135826937484e-01 1.4248366013071894e-02
    -2.9999999999999993e-01 1.1904680588950299e-02
    -3.7598039382992116e-01 1.0682102628126368e-02
    -4.3732920163315520e-01 1.0941414702894451e-02
    -4.2234864552686613e-01 1.1383524882500494e-02
    -3.9946773096848065e-01 9.9434096993562086e-03
    -4.8850421045919723e-01 1.0231928441234250e-02
    -4.6677306581685601e-01 1.2528810119980366e-02
    -3.5172622905632955e-01 1.1547458553407677e-02
    -3.9171310092866868e-01 1.0035470800313336e-02
    -4.8128828998750423e-01 1.0682102628126368e-02
    -4.3732920163315520e-01 1.0336851145358336e-02
    -4.5946829173634074e-01 1.0682102628126368e-02
    -4.3732920163315520e-01 1.1081150463295721e-02
    -4.1478067789217010e-01 1.1904680588950299e-02
    -3.7598039382992116e-01 1.2528810119980366e-02
    -3.5172622905632955e-01 1.5037673014823885e-02
    -2.8143901789211673e-01 1.9711601715399249e-02
    -2.0751433915982234e-01 1.9711601715399249e-02
    -2.0751433915982234e-01 2.0857472147331396e-02
    -1.9518001458970663e-01 2.2244675027150895e-02
    -1.8214103175901078e-01 2.6196393733691221e-02
    -1.5321285325897388e-01 2.9219947468897365e-02
    -1.3671718540493263e-01 2.6196393733691221e-02
    -1.5321285325897388e-01 2.9219947468897365e-02
    -1.3671718540493263e-01</input_scale>
  <output_scale>
    1.0526315789473684e+00 0.</output_scale>
  <inv_output_scale>
    9.4999999999999996e-01 0.</inv_output_scale>
  <weights>
    <_>
      -1.1719048386403424e-03 -2.2903224389177911e-04
      -9.9637750405231888e-04 -5.5088375721748159e-04
      2.2039270841974236e-04 1.2144499427915077e-03
      9.9728247011042037e-04 2.0453599492093418e-04
      -7.2831549546728146e-04 -4.2920232853557353e-04
      -1.1054717958401724e-03 -1.2409612586460942e-04
      -2.1397120762249158e-05 -7.8018402384446585e-04
      6.7194088742161514e-04 -1.1208781013474275e-03
      1.1037170489498088e-03 1.0083693640301039e-03
      -2.5698247005999147e-04 -3.4383640164285737e-05
      3.0002183913935715e-04 -7.7645728251324352e-04
      -6.5397802009701264e-04 9.5527311481024093e-04
      -1.0954164450422850e-03 -3.1663012947851025e-04
      6.1523554708813478e-04 -6.3403300196013517e-04
      1.0630743572223426e-03 -2.4215284090006096e-04
      1.2150750992007805e-03 -3.7732545206526025e-04
      2.2581237915161135e-04 8.1166924113520002e-04
      1.1322676431532379e-03 5.1786688077618958e-04
      8.1904968067006900e-04 5.2277548999592920e-04
      1.2256443938238879e-03 -1.5902424652943092e-04
      -3.8042147847413187e-02 -1.0726818176168459e-02
      -1.0027245172694229e-02 -3.3125976506344149e-03
      8.2280764759523790e-03 -1.1921662764015808e-03
      1.7344051231034802e-03 8.2357048243814537e-03
      -1.0199797704229432e-03 -1.3157037503692655e-02
      -1.1428481139445202e-03 -6.7732229446347218e-03
      -2.0348452721964797e-03 4.1946292571538668e-03
      1.3015555681147098e-03 1.3290629698013278e-04
      1.1856631546002781e-03 -5.7452060156945733e-03
      1.1451037065374732e-02 -1.1419202493778908e-02
      7.4853549813250668e-03 4.4470623574103677e-03
      5.3642875336871801e-03 -8.5852022958580691e-03
      -8.7510310215938784e-04 2.0053153377808856e-04
      -1.1161834517175518e-02 1.0866144270781593e-02
      -2.3770378183733190e-03 -1.6077955746581305e-03
      1.0333484814774427e-02 1.1199231615758233e-02
      -1.3696621908397785e-02 -2.5896392362434952e-03
      -4.6570868469368674e-03 5.3152168703076309e-03
      -8.4452694110615061e-03 -3.7829248284580890e-03
      9.4807601236532330e-03 8.4620190184803608e-03
      3.9113349529394165e-01 9.7509935340241050e-02
      7.9904806496413988e-02 3.4427826781528857e-02
      -7.0689679826515125e-02 1.8301295154073433e-02
      -3.2415246052600384e-02 -6.2529881396585107e-02
      -2.7637390437254463e-02 1.1940165675925503e-01
      2.8632285358866253e-02 6.0506987173226195e-02
      3.2435878376713662e-02 -4.4636310105884196e-02
      7.9021520432422058e-03 2.6683106061621650e-02
      6.1609645752898541e-05 5.4270249002541890e-02
      -1.2058884151975291e-01 1.1877638931483173e-01
      -5.7998611368247993e-02 2.9427047300165928e-02
      1.7098655263408962e-02 8.1254797044516283e-02
      2.6756738508559252e-02 -1.1766269318852739e-02
      1.0502892218221777e-01 -1.0810041856784607e-01
      3.5005021955133907e-02 2.7258348938757490e-02
      -8.5889896461392612e-02 -1.0313837380003350e-01
      1.2166887360452487e-01 3.5340724283326790e-02
      4.8208411773320310e-02 3.0972954010266011e-02
      7.7814754888399965e-02 4.1252241751212518e-02
      -9.2863500993807135e-02 -7.4388027922357255e-02
      -1.3699411081628338e-01 -9.6207977983912060e-03
      -8.9479524813382855e-03 -1.8329372282989624e-03
      9.2473841684425108e-03 -4.6979420214907368e-04
      2.6109456830806965e-03 7.3278184364956268e-03
      6.5510908141541979e-03 -1.2858339914263165e-02
      -1.3173120539474985e-03 -7.3230936688305657e-03
      -1.1123306365242573e-03 3.3081704816210603e-03
      -1.2229768981414512e-03 -7.6148409998398657e-04
      6.2317032648999838e-04 -5.4957055524198712e-03
      1.1521179222325121e-02 -1.3305531918782112e-02
      7.7459403651282200e-03 -5.8090660160669228e-03
      -5.4542839293102146e-03 -9.9235097784754131e-03
      3.8550151915693246e-04 -2.5932506772582120e-06
      -1.1551924923452654e-02 1.0746686814920291e-02
      -4.9675872519470607e-04 -6.9303561116878750e-04
      1.0871754003112487e-02 1.1841522683265528e-02
      -1.1420050865008531e-02 -2.7300659835346923e-03
      -4.2104820132452935e-03 -5.6635182401674799e-03
      -8.3841037655164527e-03 -2.2060731697006136e-03
      1.1129000806666019e-02 8.2935662770268360e-03
      -2.4679544762443859e-01 1.0839532429899946e-03
      -1.3931877581249282e-03 9.8628321728281634e-03
      1.3533980257696488e-03 3.5864095046922438e-03
      -9.7007702873514283e-03 4.3003710491408753e-03
      2.7291328243648841e-02 1.4113834112359453e-04
      1.0608951841957674e-02 -4.3113609366262290e-03
      1.2352226130094426e-02 -1.7643023239683560e-03
      -4.0706852683406172e-03 6.1914265384455883e-03
      -1.8065045805826748e-03 -2.7357314297673688e-03
      -3.6830783757932085e-04 6.3978486779476304e-04
      2.8033854616027858e-03 -8.1405807684700807e-03
      -3.7446720106479654e-02 -1.5318687064769811e-03
      7.2092234866549497e-03 1.3485914878744660e-02
      -3.3333122997050783e-04 4.6954642183458857e-04
      9.6329487592456478e-03 8.9582149270223590e-03
      2.6939893427695323e-03 2.5137449478820873e-04
      7.2603202141009073e-05 9.6657403023072373e-03
      -1.8597964960572928e-03 -7.4207299599224350e-03
      -1.5269720916256961e-03 7.7499456980875412e-03
      2.1800353022910900e-04 2.4296917554173648e-03
      -2.4636968345847191e-01 -2.8703940946306594e-04
      -5.4242068797066985e-04 1.0492760826638296e-02
      2.4974842445197021e-03 2.2370084818996300e-03
      -1.0211598350916586e-02 3.8428604710146817e-03
      2.7444193393971035e-02 3.5531259311515230e-04
      9.3683275112687852e-03 -4.7196399204747150e-03
      1.2546101140956431e-02 -2.1704997228695244e-03
      -2.4711079967787131e-03 6.6497247588783639e-03
      -2.5062480677214968e-03 -4.1333253121077123e-03
      -2.2919253525257774e-03 4.8799077944883880e-04
      2.8129697400906852e-03 -6.7499962813219894e-03
      -3.6019148944917125e-02 -1.4190244803998216e-03
      5.2188238728207870e-03 1.2790600442843027e-02
      1.2682412992599057e-03 -2.8684270247205447e-04
      1.0126885457110560e-02 9.2330498410530763e-03
      2.0470056957555185e-03 1.5270747617282185e-04
      1.5496405748202618e-03 1.0564761062349447e-02
      -6.5005496010588104e-04 -7.5145562288563223e-03
      -7.4807915844791561e-04 7.7367389700779927e-03
      1.2736540864170969e-03 1.0040392004336551e-03
      -5.4978850695522452e-01 1.4382043694476475e-02
      1.0078688028125143e-02 1.9388964098585579e-02
      -7.7861220518656042e-03 2.6292611183752382e-02
      -1.9788931502028838e-02 -5.1346140298823015e-03
      3.4350595459127248e-02 2.0163098377948923e-02
      2.4035094853998237e-02 4.2702794568268837e-03
      2.0331833885231704e-02 -7.9084959100054752e-03
      -3.3924000058761304e-02 2.3661789823661652e-02
      -3.2933396089396175e-02 2.6330559079467660e-03
      -2.0164503571180784e-02 2.1387963950851272e-02
      -3.7318596595287837e-03 -4.2101169764388630e-02
      -3.3091221873813984e-02 7.8679179420597777e-03
      2.3865174046262955e-02 -3.2224215519462327e-03
      1.6319115992514205e-02 -1.6102992154001898e-02
      1.8270762615494630e-02 2.4852795188758554e-02
      -9.6320523401924943e-03 -1.5430668548078100e-02
      2.1834498402774384e-02 1.6572201796418905e-02
      6.8611498874541913e-03 -4.2756099254480880e-02
      8.6691499117776075e-03 1.4629781189301047e-02
      -1.3405807875621005e-02 -7.6733147720965981e-03
      -4.6037461179992450e-01 -1.6476901365553277e-02
      -9.8212740096901268e-03 -8.6507954102917565e-03
      6.9844679809867643e-03 -2.6682427441908916e-03
      8.5918106087422771e-03 8.5381796915034395e-03
      1.4927027546331963e-03 -1.9661371041434731e-02
      -5.3527171408738203e-03 -8.3556853948785551e-03
      -8.0530746008612569e-03 1.3559239843323204e-02
      -6.0387028909171248e-03 -8.9947564033426557e-03
      -3.8397948198856647e-03 -1.1126397401124994e-02
      1.8224149369874900e-02 -1.7946961092278262e-02
      1.0702234565560301e-02 -1.6372220316230417e-02
      9.1939777819565662e-03 -8.1137227974507238e-03
      -6.7604433380924131e-03 1.1522903114750765e-02
      -1.8483393900150136e-02 1.7593171471634066e-02
      -7.4351931134230822e-03 -7.3384753934029072e-03
      1.0362875161257138e-02 1.6918117109731130e-02
      -1.7546761556547812e-02 -9.3597614843900154e-03
      -1.2003913537137553e-02 -1.4823448229407180e-02
      -9.1386381363882229e-03 -1.1340535701965989e-02
      1.4831153963323242e-02 8.5034067296330656e-03
      -2.3621955557350513e-01 3.1709451637615911e-02
      3.1280299667246853e-02 1.1109266002210098e-02
      -2.8862207447452177e-02 1.7683191569700146e-03
      -9.8972774170622054e-03 -2.4399269445105107e-02
      -5.7246551175557580e-03 2.4069701863517329e-02
      7.5331284748160346e-03 2.2380810674875688e-02
      9.1056149140154048e-03 -1.1791358746716506e-02
      -1.2972710480318795e-03 5.0348500565565611e-03
      1.9231676420952187e-03 1.5613386168055719e-02
      -2.5392699432769464e-02 2.3246382498366976e-02
      -1.9256821622552090e-02 -4.9128101524648581e-04
      1.4133421382597431e-02 2.9924566459603466e-02
      5.8506203327623610e-03 5.6558469147801197e-03
      3.2770757019278236e-02 -2.8912863170432852e-02
      8.1579166520356385e-03 7.3834775914168801e-03
      -3.2381553697805016e-02 -3.1812851953223156e-02
      2.3290250621107161e-02 9.8979379527822375e-03
      1.1672162776441959e-02 1.0388586575880709e-03
      3.0515876049078714e-02 9.8619092767418710e-03
      -3.2592825132498171e-02 -2.8817224842536699e-02
      -3.8604560804035026e-01 -9.2687974153496302e-03
      -8.8081989275693253e-04 -7.9564796873329256e-03
      1.2917028336092908e-03 -4.5954908080072928e-03
      7.0416027731429924e-03 2.4055701869353185e-03
      -6.0791111407509394e-03 -9.2542360185746252e-03
      -7.0615971216565062e-03 -3.2929247686938998e-03
      -7.5435245840665219e-03 1.0654333248914925e-02
      -2.7311805000945562e-03 -9.3517731295809630e-03
      1.8200294232647715e-05 -6.2760961191674512e-03
      9.1143082719433131e-03 -7.9329708747585617e-03
      5.7235139712023828e-03 -9.2687791428398836e-03
      1.3874151201415266e-02 -1.1952916327892782e-03
      -6.7076475346552989e-03 1.0997228881328284e-02
      -8.5940615690980222e-03 1.0025993334917091e-02
      -8.0033255790777653e-03 -7.9116328116245263e-03
      3.6354950488760424e-03 9.1144144321889560e-03
      -7.7236099031115059e-03 -7.6986409294097693e-03
      -9.0703393803947280e-03 -1.1267075825547354e-02
      -2.5752218948453783e-03 -8.3865292168125646e-03
      5.3533409308016621e-03 9.6834414941593828e-04
      -7.2798085766093390e-01 -2.1830575051940613e-02
      -1.6461764695623448e-02 6.8020997281438870e-03
      1.7332141095527682e-02 1.4968892884544182e-02
      -8.8041302170981106e-03 1.5766978024541526e-02
      4.2899071970452674e-02 -3.6736339593719324e-02
      1.2404325111415522e-02 -1.7429693788384160e-02
      1.0366707796187334e-02 8.6186552171472683e-03
      -2.4043939367764087e-02 9.4548000625875803e-03
      -1.9459131815147645e-02 -1.6126500413573157e-02
      3.7008532292095199e-02 -4.0845821215232371e-02
      1.5541419932291120e-02 -3.8046890582703066e-02
      -4.4314963946108940e-02 -1.6909157851871911e-02
      1.2302161938410390e-02 3.1704437469778080e-03
      -2.3917314103548668e-02 2.7731370362767262e-02
      6.8211127500247774e-03 1.1732467163475075e-02
      1.7766408238195631e-02 2.2191487236286389e-02
      -4.1829651206757801e-02 4.2164442756073778e-03
      -1.2577163818509540e-02 -4.0403541895040196e-02
      -1.6518760300247490e-02 4.2074182473508726e-05
      1.8243306510897839e-02 1.6613182321076836e-02
      -3.8392603554221488e-01 3.7064634501620619e-02
      3.2225057672206722e-02 2.3189990465896017e-02
      -2.8028656510102144e-02 1.7447508757637745e-02
      -2.2991345843972187e-02 -2.1242723697793373e-02
      2.0642404754041700e-02 3.1576133187385433e-02
      2.3203990688804355e-02 2.0418358227841903e-02
      2.4325820796223318e-02 -1.8767822813642678e-02
      -1.7946358216045424e-02 2.2061040965306991e-02
      -1.6234370544884594e-02 1.8265628431402413e-02
      -3.1611882934029854e-02 3.1809179100724706e-02
      -1.8965962659513440e-02 -1.7811389507180742e-02
      -2.1099062550060312e-02 3.1471352554310633e-02
      2.2177627292327123e-02 -3.5357559407964132e-03
      3.8660691183975082e-02 -3.6587753868450042e-02
      2.3312513944427970e-02 2.0715826107235113e-02
      -3.3138960377350812e-02 -3.7288735665632303e-02
      3.1519144214650324e-02 2.1807586835811028e-02
      1.7744972314618100e-02 -1.9414257311252216e-02
      3.0974683255567258e-02 1.9904388811862458e-02
      -3.4401858368277527e-02 -2.8451675213117821e-02
      -3.8241042772451045e-01 3.4965098527286728e-02
      3.0892480823307519e-02 2.4455721250937441e-02
      -2.6010493999448114e-02 1.7123903098750726e-02
      -2.2385967734633389e-02 -2.1664669697473275e-02
      2.1663113084742051e-02 3.1704694379108722e-02
      2.1699660617738217e-02 2.2250195213881233e-02
      2.2640343374313022e-02 -1.7396296204696109e-02
      -1.7029237224648889e-02 2.1767995952200268e-02
      -1.6193198585488858e-02 1.8072287039089439e-02
      -3.2806534132304575e-02 3.0399729838482922e-02
      -1.8975884492494106e-02 -1.9116105663752807e-02
      -1.9659970679483392e-02 3.1191964839866585e-02
      2.0707870514554947e-02 -4.4336765105810775e-03
      3.8415617993175277e-02 -3.5560756168367270e-02
      2.2392107309691142e-02 2.1143648260144820e-02
      -3.4324890637057556e-02 -3.7924506444830676e-02
      3.1981297846873369e-02 2.2357695019839509e-02
      1.6657577732719156e-02 -1.9677510605821950e-02
      2.9433485192995597e-02 2.0731249241213497e-02
      -3.4211745156704797e-02 -3.0030554003186462e-02
      -1.0713474368812583e+00 4.0210471249289961e-04
      -1.0508573138821714e-04 2.2367218102907937e-02
      2.1356643260741037e-03 4.9529700652311832e-02
      -2.5881695828519773e-02 6.4574702486732867e-03
      9.9933835141346614e-02 -6.6946526519178085e-03
      3.5412918875023729e-02 -5.9702687791412575e-03
      2.9587312331876212e-02 -5.7934059435073588e-03
      -6.6789957055984894e-02 3.3128276753779586e-02
      -6.3045444963551578e-02 -4.7284741701146583e-03
      5.7224883179945148e-03 -6.5033777638706962e-03
      3.8941992917663070e-03 -7.2104649413507818e-02
      -1.1050005778859859e-01 -1.1262255708197600e-03
      4.1031076938635856e-02 -9.6289438209347170e-03
      2.2548830457242361e-03 1.6964398459191805e-03
      2.4254616263495451e-02 3.7903791094861278e-02
      -5.5720319477143296e-04 -1.9216175521046381e-03
      -8.1445851680711258e-03 2.1011310505809781e-02
      3.0646644506813353e-04 -7.6816942488501072e-02
      -1.5867301702432964e-03 1.2542997191796202e-02
      -1.8378694972166290e-03 1.9271423130048102e-03
      -8.5935982704645086e-01 3.0762242885357415e-02
      2.3176432593610234e-02 2.5976261608049514e-02
      -2.0306786439213902e-02 3.8251659895531524e-02
      -2.6063220476660091e-02 -1.4576449628920645e-02
      5.9410903231897995e-02 4.0017070653108493e-02
      3.1283278252196865e-02 1.5029303643723693e-02
      2.9023157731394269e-02 -1.3996017766010683e-02
      -5.3569036236065862e-02 2.8779301877900527e-02
      -5.0278921434899385e-02 1.2129972081328978e-02
      -3.8042528012137089e-02 3.9470212286685770e-02
      -1.2607497543304464e-02 -4.7412658776237709e-02
      -6.8779664278927219e-02 2.4321349782098604e-02
      3.2381795050779809e-02 -1.3257272116104892e-02
      3.3267413917456558e-02 -3.4691963475819425e-02
      2.4797023311463173e-02 3.1162279375718974e-02
      -2.6013475726907431e-02 -3.0762663198293665e-02
      4.0644524827546838e-02 2.4275768652596598e-02
      1.3918467381465198e-02 -5.0601961649722693e-02
      2.2860724872184473e-02 2.0946158616985872e-02
      -2.8141338287504192e-02 -2.2770815490453827e-02
      -5.6736382101072458e-01 9.6067395226854171e-03
      5.1786613439071590e-03 3.7959948312644128e-03
      -4.5484394863045475e-03 7.0164071087909612e-03
      -5.4882589549435680e-03 -2.8338480277686163e-03
      1.1556586540386788e-02 1.7287800568915292e-02
      4.5579249573898138e-03 1.4593265948801694e-03
      7.1041922577938510e-03 -3.1335473898445494e-03
      -2.1390770356430163e-02 3.6642093576988249e-03
      -1.8418571254016674e-02 1.5794388968804558e-03
      -1.7732955298986972e-02 1.8638487298477578e-02
      -2.3109092217079466e-03 -1.7685145121289682e-02
      -1.2134408281266773e-02 5.6496016837621300e-03
      1.5041128481426877e-03 -3.6766275615577673e-03
      1.2022463927826833e-02 -1.2960049839095791e-02
      5.5665235964970049e-03 1.7962188996979204e-03
      -7.0740814652557674e-03 -1.1322305530768826e-02
      2.1035306802921309e-02 4.8170299945014374e-03
      2.6209940639271177e-03 -1.9657461179585219e-02
      5.5381721222943587e-03 3.8217194579434808e-03
      -8.3596509411688058e-03 -4.9562510716719367e-03
      -8.6171521796218309e-01 1.9544128650926633e-02
      1.2938999689343984e-02 1.5378561295030237e-02
      -1.0267147972962706e-02 2.1690562475028929e-02
      -1.5702286378545989e-02 -8.9990836021322830e-03
      4.9019786205777911e-02 2.6706323481491132e-02
      1.6238844426651380e-02 9.1375206761310189e-03
      1.7177517384472745e-02 -9.3186302590413158e-03
      -4.1164548512530090e-02 1.7065442335134285e-02
      -3.5031732130104930e-02 9.4871504367551110e-03
      -2.4704688007461520e-02 2.8872412543648935e-02
      -7.9308972471389266e-03 -4.4998500136393664e-02
      -5.4117226807125440e-02 1.1996321429007299e-02
