<?xml version="1.0"?>
<opencv_storage>
<shapeML type_id="opencv-ml-ann-mlp">
  <layer_sizes type_id="opencv-matrix">
    <rows>1</rows>
    <cols>3</cols>
    <dt>i</dt>
    <data>
      1600 40 1</data></layer_sizes>
  <activation_function>SIGMOID_SYM</activation_function>
  <f_param1>5.9999999999999998e-01</f_param1>
  <f_param2>1.</f_param2>
  <min_val>-9.4999999999999996e-01</min_val>
  <max_val>9.4999999999999996e-01</max_val>
  <min_val1>-9.7999999999999998e-01</min_val1>
  <max_val1>9.7999999999999998e-01</max_val1>
  <training_params>
    <train_method>BACKPROP</train_method>
    <dw_scale>1.0000000000000001e-01</dw_scale>
    <moment_scale>1.0000000000000001e-01</moment_scale>
    <term_criteria><epsilon>9.9999999747524271e-07</epsilon>
      <iterations>4000</iterations></term_criteria></training_params>
  <input_scale>
    1. 0. 5.7234046609474912e-02 -6.8842839082151427e-02
    5.7234046609474912e-02 -6.8842839082151427e-02
    5.7234046609474912e-02 -6.8842839082151427e-02
    3.3201821476891137e-02 -1.1980845957463077e-01
    3.3201821476891137e-02 -1.1980845957463077e-01
    2.5841963313326343e-02 -1.5541746804005230e-01
    2.8822657254840338e-02 -1.3867504905630729e-01
    2.3647565938348578e-02 -1.7066403719657230e-01
    2.5841963313326343e-02 -1.5541746804005230e-01
    2.3647565938348578e-02 -1.7066403719657230e-01
    2.3647565938348578e-02 -1.7066403719657230e-01
    2.3647565938348578e-02 -1.7066403719657230e-01
    1.7680775476967069e-02 -2.3393667553251241e-01
    1.5790615823165519e-02 -2.6590801173915518e-01
    1.4845938375350141e-02 -2.8571428571428570e-01
    1.2859010164375113e-02 -3.4027852368936035e-01
    1.6970321093791953e-02 -2.4494897427831783e-01
    1.7680775476967069e-02 -2.3393667553251241e-01
    1.2159196385486407e-02 -3.6563621206356528e-01
    1.0817133636141474e-02 -4.2936877145344582e-01
    1.1763266446449396e-02 -3.8202872398020798e-01
    1.3729041743700172e-02 -3.1376041154824214e-01
    1.4439558485282104e-02 -2.9526172657404681e-01
    2.0579537167750486e-02 -1.9802950859533486e-01
    2.5841963313326343e-02 -1.5541746804005230e-01
    2.3647565938348578e-02 -1.7066403719657230e-01
    1.9450304594097051e-02 -2.1055872190307895e-01
    1.8497796433701329e-02 -2.2249707974499242e-01
    2.0579537167750486e-02 -1.9802950859533486e-01
    2.0579537167750486e-02 -1.9802950859533486e-01
    2.5841963313326343e-02 -1.5541746804005230e-01
    2.1946725411347526e-02 -1.8478728707195910e-01
    2.5841963313326343e-02 -1.5541746804005230e-01
    2.3647565938348578e-02 -1.7066403719657230e-01
    2.3647565938348578e-02 -1.7066403719657230e-01
    5.7234046609474912e-02 -6.8842839082151427e-02
    5.7234046609474912e-02 -6.8842839082151427e-02
    5.7234046609474912e-02 -6.8842839082151427e-02
    4.0566826561782163e-02 -9.7590007294853301e-02
    5.7234046609474912e-02 -6.8842839082151427e-02
    4.0566826561782163e-02 -9.7590007294853301e-02
    5.7234046609474912e-02 -6.8842839082151427e-02
    4.0566826561782163e-02 -9.7590007294853301e-02
    2.8822657254840338e-02 -1.3867504905630729e-01
    2.8822657254840338e-02 -1.3867504905630729e-01
    2.0579537167750486e-02 -1.9802950859533486e-01
    1.9450304594097051e-02 -2.1055872190307895e-01
    1.9450304594097051e-02 -2.1055872190307895e-01
    1.9450304594097051e-02 -2.1055872190307895e-01
    1.6345472005082778e-02 -2.5559075328702552e-01
    1.4068848824073676e-02 -3.0460384954008574e-01
    1.2609586941304247e-02 -3.4884541231485572e-01
    1.1098787749752429e-02 -4.1384866585751390e-01
    1.0444510629164360e-02 -4.5226701686664544e-01
    9.6697378727684229e-03 -5.1176631571915898e-01
    9.8389006359023510e-03 -4.9705012174770841e-01
    9.5139906578542034e-03 -5.2641089819164999e-01
    9.3702922818380222e-03 -5.4100178080045946e-01
    9.9290042579610414e-03 -4.8965914866501270e-01
    9.3702922818380222e-03 -5.4100178080045946e-01
    9.9290042579610414e-03 -4.8965914866501270e-01
    9.6697378727684229e-03 -5.1176631571915898e-01
    1.0121393866128066e-02 -4.7479840565397929e-01
    1.1098787749752429e-02 -4.1384866585751390e-01
    1.1763266446449396e-02 -3.8202872398020798e-01
    1.3416216820195627e-02 -3.2274861218395140e-01
    1.3416216820195627e-02 -3.2274861218395140e-01
    1.3729041743700172e-02 -3.1376041154824214e-01
    1.4439558485282104e-02 -2.9526172657404681e-01
    1.6970321093791953e-02 -2.4494897427831783e-01
    1.7680775476967069e-02 -2.3393667553251241e-01
    1.7680775476967069e-02 -2.3393667553251241e-01
    1.8497796433701329e-02 -2.2249707974499242e-01
    1.9450304594097051e-02 -2.1055872190307895e-01
    1.9450304594097051e-02 -2.1055872190307895e-01
    3.3201821476891137e-02 -1.1980845957463077e-01
    3.3201821476891137e-02 -1.1980845957463077e-01
    3.3201821476891137e-02 -1.1980845957463077e-01
    3.3201821476891137e-02 -1.1980845957463077e-01 1. 0.
    4.0566826561782163e-02 -9.7590007294853301e-02
    4.0566826561782163e-02 -9.7590007294853301e-02
    3.3201821476891137e-02 -1.1980845957463077e-01
    2.5841963313326343e-02 -1.5541746804005230e-01
    2.1946725411347526e-02 -1.8478728707195910e-01
    1.8497796433701329e-02 -2.2249707974499242e-01
    1.8497796433701329e-02 -2.2249707974499242e-01
    1.3729041743700172e-02 -3.1376041154824214e-01
    1.1763266446449396e-02 -3.8202872398020798e-01
    1.1098787749752429e-02 -4.1384866585751390e-01
    1.0954295162674777e-02 -4.2163702135578385e-01
    1.0686764049662833e-02 -4.3704832221970169e-01
    9.5902778120044666e-03 -5.1909640515448707e-01
    9.5139906578542034e-03 -5.2641089819164999e-01
    8.7503204787936321e-03 -6.2098382831816135e-01
    8.7503204787936321e-03 -6.2098382831816135e-01
    8.6624808860899603e-03 -6.3558910463740248e-01
    8.4347900688911386e-03 -6.7975654871228819e-01
    8.6209317365823594e-03 -6.4291005073286367e-01
    8.5051178317288381e-03 -6.6496381160804485e-01
    8.5423003207685654e-03 -6.5759594922142917e-01
    8.6624808860899603e-03 -6.3558910463740248e-01
    8.7967312359198812e-03 -6.1369648575120306e-01
    8.6624808860899603e-03 -6.3558910463740248e-01
    8.7055910350822985e-03 -6.2828086243754322e-01
    9.9290042579610414e-03 -4.8965914866501270e-01
    1.0686764049662833e-02 -4.3704832221970169e-01
    1.0954295162674777e-02 -4.2163702135578385e-01
    1.2376878710312518e-02 -3.5729480050524820e-01
    1.4845938375350141e-02 -2.8571428571428570e-01
    1.6345472005082778e-02 -2.5559075328702552e-01
    1.6345472005082778e-02 -2.5559075328702552e-01
    1.5790615823165519e-02 -2.6590801173915518e-01
    1.5790615823165519e-02 -2.6590801173915518e-01
    1.6345472005082778e-02 -2.5559075328702552e-01
    2.1946725411347526e-02 -1.8478728707195910e-01
    2.3647565938348578e-02 -1.7066403719657230e-01
    2.5841963313326343e-02 -1.5541746804005230e-01
    3.3201821476891137e-02 -1.1980845957463077e-01 1. 0.
    5.7234046609474912e-02 -6.8842839082151427e-02
    3.3201821476891137e-02 -1.1980845957463077e-01
    2.5841963313326343e-02 -1.5541746804005230e-01
    1.8497796433701329e-02 -2.2249707974499242e-01
    1.9450304594097051e-02 -2.1055872190307895e-01
    1.7680775476967069e-02 -2.3393667553251241e-01
    1.1582645202546548e-02 -3.9009474880274692e-01
    1.1251213327027703e-02 -4.0599897147057512e-01
    1.0444510629164360e-02 -4.5226701686664544e-01
    1.1412246316190922e-02 -3.9808283730298050e-01
    9.8389006359023510e-03 -4.9705012174770841e-01
    9.4407126575305773e-03 -5.3371198679483001e-01
    8.7055910350822985e-03 -6.2828086243754322e-01
    8.6209317365823594e-03 -6.4291005073286367e-01
    8.2532851522298077e-03 -7.2469293919225419e-01
    8.2017167229334834e-03 -7.3989543550048520e-01
    8.1106622087290664e-03 -7.7070419903229737e-01
    8.1106622087290664e-03 -7.7070419903229737e-01
    8.2532851522298077e-03 -7.2469293919225419e-01
    8.1542389479305841e-03 -7.5522868746517458e-01
    8.0708174297228780e-03 -7.8633365099493424e-01
    8.0902831452079830e-03 -7.7849894416152299e-01
    8.0345540958030853e-03 -8.0212895017769958e-01
    8.3695694295304844e-03 -6.9463478354994745e-01
    8.5808887523658884e-03 -6.5024517833376405e-01
    8.6624808860899603e-03 -6.3558910463740248e-01
    8.4692954774605086e-03 -6.7235020229085074e-01
    1.0023086107855624e-02 -4.8224282217041214e-01
    1.0331795324882700e-02 -4.5981362684088811e-01
    1.1098787749752429e-02 -4.1384866585751390e-01
    1.1955081314816349e-02 -3.7387825055298302e-01
    1.5790615823165519e-02 -2.6590801173915518e-01
    1.5790615823165519e-02 -2.6590801173915518e-01
    1.5790615823165519e-02 -2.6590801173915518e-01
    1.5293853926993794e-02 -2.7593863806958141e-01
    1.8497796433701329e-02 -2.2249707974499242e-01
    2.3647565938348578e-02 -1.7066403719657230e-01
    2.8822657254840338e-02 -1.3867504905630729e-01
    2.8822657254840338e-02 -1.3867504905630729e-01
    5.7234046609474912e-02 -6.8842839082151427e-02
    2.8822657254840338e-02 -1.3867504905630729e-01
    2.8822657254840338e-02 -1.3867504905630729e-01
    1.8497796433701329e-02 -2.2249707974499242e-01
    1.5293853926993794e-02 -2.7593863806958141e-01
    1.4068848824073676e-02 -3.0460384954008574e-01
    1.1955081314816349e-02 -3.7387825055298302e-01
    1.0562701944052759e-02 -4.4467978703146638e-01
    1.0023086107855624e-02 -4.8224282217041214e-01
    9.8389006359023510e-03 -4.9705012174770841e-01
    9.2374727668845316e-03 -5.5555555555555558e-01
    8.8448893365373742e-03 -6.0641729484231488e-01
    8.7055910350822985e-03 -6.2828086243754322e-01
    8.3695694295304844e-03 -6.9463478354994745e-01
    8.1542389479305841e-03 -7.5522868746517458e-01
    8.2532851522298077e-03 -7.2469293919225419e-01
    7.9124530086715078e-03 -8.7559503577091302e-01
    7.9865861799541058e-03 -8.2615959870940348e-01
    8.0902831452079830e-03 -7.7849894416152299e-01
    8.0902831452079830e-03 -7.7849894416152299e-01
    8.0177230862655598e-03 -8.1009258730098255e-01
    8.1106622087290664e-03 -7.7070419903229737e-01
    7.9865861799541058e-03 -8.2615959870940348e-01
    8.0345540958030853e-03 -8.0212895017769958e-01
    8.2532851522298077e-03 -7.2469293919225419e-01
    8.0902831452079830e-03 -7.7849894416152299e-01
    8.2269768914445089e-03 -7.3227855632810324e-01
    8.2806687966957993e-03 -7.1713716560063623e-01
    8.6209317365823594e-03 -6.4291005073286367e-01
    9.0005750406448211e-03 -5.8461282221546784e-01
    9.7525480876356537e-03 -5.0441834802323082e-01
    1.1251213327027703e-02 -4.0599897147057512e-01
    1.1955081314816349e-02 -3.7387825055298302e-01
    1.4439558485282104e-02 -2.9526172657404681e-01
    1.5293853926993794e-02 -2.7593863806958141e-01
    1.3729041743700172e-02 -3.1376041154824214e-01
    1.6345472005082778e-02 -2.5559075328702552e-01
    2.0579537167750486e-02 -1.9802950859533486e-01
    2.5841963313326343e-02 -1.5541746804005230e-01
    2.1946725411347526e-02 -1.8478728707195910e-01
    4.0566826561782163e-02 -9.7590007294853301e-02
    2.5841963313326343e-02 -1.5541746804005230e-01
    2.1946725411347526e-02 -1.8478728707195910e-01
    1.6970321093791953e-02 -2.4494897427831783e-01
    1.4439558485282104e-02 -2.9526172657404681e-01
    1.1955081314816349e-02 -3.7387825055298302e-01
    1.0686764049662833e-02 -4.3704832221970169e-01
    9.9290042579610414e-03 -4.8965914866501270e-01
    9.0564748108176597e-03 -5.7735026918962584e-01
    8.7967312359198812e-03 -6.1369648575120306e-01
    8.7967312359198812e-03 -6.1369648575120306e-01
    8.5423003207685654e-03 -6.5759594922142917e-01
    8.3091567100747454e-03 -7.0960982186746824e-01
    8.4692954774605086e-03 -6.7235020229085074e-01
    8.0708174297228780e-03 -7.8633365099493424e-01
    7.9722525423452113e-03 -8.3426614458456838e-01
    7.8445337006096180e-03 -1.0190493307301363e+00
    7.8557321841133503e-03 -9.4491118252306805e-01
    7.8431372549019607e-03 -1. 7.8857126381430137e-03
    -9.0109145593874773e-01 7.8557321841133503e-03
    -9.4491118252306805e-01 7.8557321841133503e-03
    -9.4491118252306805e-01 7.9124530086715078e-03
    -8.7559503577091302e-01 7.9027951659078558e-03
    -8.8403201584672075e-01 7.8557321841133503e-03
    -9.4491118252306805e-01 7.8857126381430137e-03
    -9.0109145593874773e-01 7.8715615049128711e-03
    -9.1841072558499937e-01 8.0708174297228780e-03
    -7.8633365099493424e-01 8.3091567100747454e-03
    -7.0960982186746824e-01 8.4347900688911386e-03
    -6.7975654871228819e-01 9.1145245143671658e-03
    -5.7008771254956891e-01 9.3702922818380222e-03
    -5.4100178080045946e-01 1.0562701944052759e-02
    -4.4467978703146638e-01 1.1251213327027703e-02
    -4.0599897147057512e-01 1.3416216820195627e-02
    -3.2274861218395140e-01 1.2859010164375113e-02
    -3.4027852368936035e-01 1.5293853926993794e-02
    -2.7593863806958141e-01 1.7680775476967069e-02
    -2.3393667553251241e-01 2.0579537167750486e-02
    -1.9802950859533486e-01 2.1946725411347526e-02
    -1.8478728707195910e-01 4.0566826561782163e-02
    -9.7590007294853301e-02 1.9450304594097051e-02
    -2.1055872190307895e-01 1.7680775476967069e-02
    -2.3393667553251241e-01 1.3127116801801441e-02
    -3.3158353997003165e-01 1.1763266446449396e-02
    -3.8202872398020798e-01 1.0686764049662833e-02
    -4.3704832221970169e-01 9.8389006359023510e-03
    -4.9705012174770841e-01 9.5902778120044666e-03
    -5.1909640515448707e-01 8.5423003207685654e-03
    -6.5759594922142917e-01 8.4347900688911386e-03
    -6.7975654871228819e-01 8.7503204787936321e-03
    -6.2098382831816135e-01 8.2806687966957993e-03
    -7.1713716560063623e-01 8.0522468125453252e-03
    -7.9420981533171109e-01 7.9587250581522814e-03
    -8.4242353917423207e-01 7.8518772977917341e-03
    -9.5389198021050048e-01 7.8445337006096180e-03
    -1.0190493307301363e+00 7.8487275173757115e-03
    -1.0384755040678713e+00 7.8487275173757115e-03
    -1.0384755040678713e+00 7.8857126381430120e-03
    -1.1097652667877205e+00 7.9027951659078541e-03
    -1.1311807514597823e+00 7.8655702996579639e-03
    -1.0785477764672502e+00 7.8445337006096180e-03
    -9.8130676292531638e-01 7.8487275173757115e-03
    -9.6295001286293513e-01 7.8434862964123324e-03
    -9.9061012069075571e-01 7.8715615049128711e-03
    -9.1841072558499937e-01 7.8445337006096180e-03
    -1.0190493307301363e+00 7.8487275173757115e-03
    -9.6295001286293513e-01 7.9027951659078558e-03
    -8.8403201584672075e-01 8.0177230862655598e-03
    -8.1009258730098255e-01 8.0345540958030853e-03
    -8.0212895017769958e-01 8.4347900688911386e-03
    -6.7975654871228819e-01 8.6624808860899603e-03
    -6.3558910463740248e-01 9.1748221507776239e-03
    -5.6282340599463676e-01 9.9290042579610414e-03
    -4.8965914866501270e-01 1.0817133636141474e-02
    -4.2936877145344582e-01 1.2376878710312518e-02
    -3.5729480050524820e-01 1.4068848824073676e-02
    -3.0460384954008574e-01 1.6345472005082778e-02
    -2.5559075328702552e-01 1.8497796433701329e-02
    -2.2249707974499242e-01 2.1946725411347526e-02
    -1.8478728707195910e-01 2.5841963313326343e-02
    -1.5541746804005230e-01 1.6970321093791953e-02
    -2.4494897427831783e-01 1.5293853926993794e-02
    -2.7593863806958141e-01 1.1582645202546548e-02
    -3.9009474880274692e-01 1.0224198157252526e-02
    -4.6732301954611777e-01 1.0954295162674777e-02
    -4.2163702135578385e-01 8.8948651384621116e-03
    -5.9914468951527800e-01 8.3695694295304844e-03
    -6.9463478354994745e-01 8.3091567100747454e-03
    -7.0960982186746824e-01 8.4015608672716648e-03
    -6.8718427093627676e-01 8.2269768914445089e-03
    -7.3227855632810324e-01 7.9027951659078558e-03
    -8.8403201584672075e-01 7.8557321841133503e-03
    -9.4491118252306805e-01 7.8445337006096180e-03
    -1.0190493307301363e+00 7.8487275173757115e-03
    -1.0384755040678713e+00 7.8445337006096180e-03
    -1.0190493307301363e+00 7.8655702996579639e-03
    -1.0785477764672502e+00 7.8487275173757115e-03
    -1.0384755040678713e+00 7.9124530086715095e-03
    -1.1420804814403216e+00 7.9124530086715095e-03
    -1.1420804814403216e+00 7.9228657891282240e-03
    -1.1531133203941100e+00 7.8857126381430120e-03
    -1.1097652667877205e+00 7.9587250581522797e-03
    -1.1870513506545994e+00 7.9228657891282240e-03
    -1.1531133203941100e+00 7.9228657891282240e-03
    -1.1531133203941100e+00 7.8434862964123324e-03
    -9.9061012069075571e-01 7.8462803071150441e-03
    -9.7208751069045585e-01 7.8602952871273668e-03
    -9.3600544586570933e-01 8.0345540958030853e-03
    -8.0212895017769958e-01 8.0345540958030853e-03
    -8.0212895017769958e-01 8.0345540958030853e-03
    -8.0212895017769958e-01 8.1319739728386610e-03
    -7.6294793547057060e-01 8.4347900688911386e-03
    -6.7975654871228819e-01 8.8448893365373742e-03
    -6.0641729484231488e-01 1.0023086107855624e-02
    -4.8224282217041214e-01 1.0686764049662833e-02
    -4.3704832221970169e-01 1.2859010164375113e-02
    -3.4027852368936035e-01 1.4068848824073676e-02
    -3.0460384954008574e-01 1.5790615823165519e-02
    -2.6590801173915518e-01 1.8497796433701329e-02
    -2.2249707974499242e-01 1.9450304594097051e-02
    -2.1055872190307895e-01 1.4845938375350141e-02
    -2.8571428571428570e-01 1.3416216820195627e-02
    -3.2274861218395140e-01 1.1582645202546548e-02
    -3.9009474880274692e-01 1.0817133636141474e-02
    -4.2936877145344582e-01 1.0224198157252526e-02
    -4.6732301954611777e-01 8.7503204787936321e-03
    -6.2098382831816135e-01 8.2269768914445089e-03
    -7.3227855632810324e-01 8.0177230862655598e-03
    -8.1009258730098255e-01 8.0708174297228780e-03
    -7.8633365099493424e-01 7.9587250581522814e-03
    -8.4242353917423207e-01 7.8462803071150441e-03
    -9.7208751069045585e-01 7.8487275173757115e-03
    -9.6295001286293513e-01 7.8434862964123324e-03
    -1.0094788848943892e+00 7.8462803071150441e-03
    -9.7208751069045585e-01 7.8557321841133485e-03
    -1.0583005244258359e+00 7.9340422793817041e-03
    -1.1642832797715321e+00 7.9722525423452113e-03
    -1.1986582537134605e+00 7.9459919630306096e-03
    -1.1755945184927126e+00 7.9459919630306096e-03
    -1.1755945184927126e+00 7.8557321841133485e-03
    -1.0583005244258359e+00 8.0177230862655598e-03
    -1.2344267996967351e+00 8.1319739728386610e-03
    -1.3107054276032879e+00 7.9722525423452113e-03
    -1.1986582537134605e+00 7.8655702996579639e-03
    -1.0785477764672502e+00 7.9865861799541058e-03
    -1.2104198771788934e+00 7.8715615049128711e-03
    -1.0888374581677827e+00 7.8557321841133503e-03
    -9.4491118252306805e-01 7.8782737862121335e-03
    -9.0971765229468415e-01 7.9027951659078558e-03
    -8.8403201584672075e-01 7.9722525423452113e-03
    -8.3426614458456838e-01 7.9459919630306096e-03
    -8.5063343208009290e-01 7.9587250581522814e-03
    -8.4242353917423207e-01 8.2532851522298077e-03
    -7.2469293919225419e-01 8.8948651384621116e-03
    -5.9914468951527800e-01 9.8389006359023510e-03
    -4.9705012174770841e-01 1.0817133636141474e-02
    -4.2936877145344582e-01 1.2609586941304247e-02
    -3.4884541231485572e-01 1.4439558485282104e-02
    -2.9526172657404681e-01 1.6970321093791953e-02
    -2.4494897427831783e-01 2.0579537167750486e-02
    -1.9802950859533486e-01 1.4068848824073676e-02
    -3.0460384954008574e-01 1.2376878710312518e-02
    -3.5729480050524820e-01 1.0954295162674777e-02
    -4.2163702135578385e-01 9.5902778120044666e-03
    -5.1909640515448707e-01 8.4692954774605086e-03
    -6.7235020229085074e-01 8.3695694295304844e-03
    -6.9463478354994745e-01 8.0177230862655598e-03
    -8.1009258730098255e-01 7.8938841791914918e-03
    -8.9253020648688708e-01 7.8655702996579622e-03
    -9.2717264994553050e-01 7.8434862964123324e-03
    -9.9061012069075571e-01 7.8518772977917341e-03
    -9.5389198021050048e-01 7.8487275173757115e-03
    -9.6295001286293513e-01 7.8434862964123324e-03
    -1.0094788848943892e+00 7.8518772977917341e-03
    -1.0483367307263918e+00 8.0522468125453269e-03
    -1.2591131218673473e+00 8.0345540958030853e-03
    -1.2466823442520871e+00 7.9459919630306096e-03
    -1.1755945184927126e+00 7.8602952871273668e-03
    -1.0683698523517693e+00 7.9340422793817041e-03
    -1.1642832797715321e+00 8.0017385516142122e-03
    -1.2223410518586144e+00 8.1774788616324669e-03
    -1.3377121081198771e+00 8.4015608672716648e-03
    -1.4552137502179978e+00 8.1319739728386610e-03
    -1.3107054276032879e+00 8.1106622087290664e-03
    -1.2975146641936144e+00 8.1542389479305824e-03
    -1.3241022442571240e+00 7.9124530086715095e-03
    -1.1420804814403216e+00 7.9722525423452113e-03
    -1.1986582537134605e+00 7.8602952871273668e-03
    -1.0683698523517693e+00 7.8434862964123324e-03
    -1.0094788848943892e+00 7.8445337006096180e-03
    -9.8130676292531638e-01 7.8715615049128711e-03
    -9.1841072558499937e-01 7.9459919630306096e-03
    -8.5063343208009290e-01 8.0017385516142105e-03
    -8.1810227880300945e-01 8.2269768914445089e-03
    -7.3227855632810324e-01 8.9467336753928702e-03
    -5.9187707451596694e-01 1.0023086107855624e-02
    -4.8224282217041214e-01 1.1582645202546548e-02
    -3.9009474880274692e-01 1.4068848824073676e-02
    -3.0460384954008574e-01 1.5790615823165519e-02
    -2.6590801173915518e-01 1.8497796433701329e-02
    -2.2249707974499242e-01 1.3416216820195627e-02
    -3.2274861218395140e-01 1.1251213327027703e-02
    -4.0599897147057512e-01 9.5902778120044666e-03
    -5.1909640515448707e-01 8.4015608672716648e-03
    -6.8718427093627676e-01 8.2532851522298077e-03
    -7.2469293919225419e-01 8.2532851522298077e-03
    -7.2469293919225419e-01 8.0345540958030853e-03
    -8.0212895017769958e-01 7.9459919630306096e-03
    -8.5063343208009290e-01 7.8445337006096180e-03
    -1.0190493307301363e+00 7.9228657891282240e-03
    -1.1531133203941100e+00 7.8715615049128711e-03
    -1.0888374581677827e+00 7.8715615049128711e-03
    -1.0888374581677827e+00 7.9027951659078541e-03
    -1.1311807514597823e+00 7.9459919630306096e-03
    -1.1755945184927126e+00 8.2017167229334834e-03
    -1.3515423288475532e+00 8.2269768914445089e-03
    -1.3656005509902465e+00 8.0177230862655598e-03
    -1.2344267996967351e+00 7.9459919630306096e-03
    -1.1755945184927126e+00 8.1542389479305824e-03
    -1.3241022442571240e+00 8.2269768914445089e-03
    -1.3656005509902465e+00 8.1774788616324669e-03
    -1.3377121081198771e+00 8.6209317365823594e-03
    -1.5554275420956380e+00 8.2532851522298060e-03
    -1.3798947746263466e+00 8.1774788616324669e-03
    -1.3377121081198771e+00 8.1319739728386610e-03
    -1.3107054276032879e+00 8.2269768914445089e-03
    -1.3656005509902465e+00 8.4347900688911369e-03
    -1.4711149188549517e+00 8.0345540958030853e-03
    -1.2466823442520871e+00 8.1106622087290664e-03
    -1.2975146641936144e+00 7.9340422793817041e-03
    -1.1642832797715321e+00 7.8462803071150441e-03
    -1.0287139676238806e+00 7.8462803071150441e-03
    -9.7208751069045585e-01 7.9228657891282240e-03
    -8.6721745583358700e-01 7.9340422793817041e-03
    -8.5889750147080246e-01 8.3091567100747454e-03
    -7.0960982186746824e-01 9.3702922818380222e-03
    -5.4100178080045946e-01 1.1098787749752429e-02
    -4.1384866585751390e-01 1.2609586941304247e-02
    -3.4884541231485572e-01 1.4845938375350141e-02
    -2.8571428571428570e-01 2.0579537167750486e-02
    -1.9802950859533486e-01 1.2859010164375113e-02
    -3.4027852368936035e-01 1.0817133636141474e-02
    -4.2936877145344582e-01 8.5808887523658884e-03
    -6.5024517833376405e-01 8.1542389479305841e-03
    -7.5522868746517458e-01 8.2017167229334834e-03
    -7.3989543550048520e-01 8.1319739728386610e-03
    -7.6294793547057060e-01 7.9228657891282240e-03
    -8.6721745583358700e-01 7.8602952871273668e-03
    -9.3600544586570933e-01 7.8655702996579639e-03
    -1.0785477764672502e+00 7.9124530086715095e-03
    -1.1420804814403216e+00 7.8782737862121335e-03
    -1.0992421631894100e+00 7.8557321841133485e-03
    -1.0583005244258359e+00 7.8782737862121335e-03
    -1.0992421631894100e+00 8.0177230862655598e-03
    -1.2344267996967351e+00 8.3387794660994274e-03
    -1.4242792663559445e+00 8.3091567100747471e-03
    -1.4092251392015922e+00 8.1106622087290664e-03
    -1.2975146641936144e+00 8.2017167229334834e-03
    -1.3515423288475532e+00 8.1774788616324669e-03
    -1.3377121081198771e+00 8.1774788616324669e-03
    -1.3377121081198771e+00 8.2269768914445089e-03
    -1.3656005509902465e+00 8.2017167229334834e-03
    -1.3515423288475532e+00 8.2806687966957976e-03
    -1.3944333775567923e+00 8.0708174297228763e-03
    -1.2717247935843994e+00 8.1106622087290664e-03
    -1.2975146641936144e+00 8.4015608672716648e-03
    -1.4552137502179978e+00 8.7055910350823003e-03
    -1.5916448515084431e+00 8.7055910350823003e-03
    -1.5916448515084431e+00 8.5808887523658884e-03
    -1.5378814535195373e+00 8.2017167229334834e-03
    -1.3515423288475532e+00 7.9459919630306096e-03
    -1.1755945184927126e+00 7.8938841791914918e-03
    -1.1204102592069434e+00 7.8445337006096180e-03
    -1.0190493307301363e+00 7.8518772977917341e-03
    -9.5389198021050048e-01 7.9459919630306096e-03
    -8.5063343208009290e-01 8.8948651384621116e-03
    -5.9914468951527800e-01 1.0023086107855624e-02
    -4.8224282217041214e-01 1.3127116801801441e-02
    -3.3158353997003165e-01 1.5790615823165519e-02
    -2.6590801173915518e-01 1.9450304594097051e-02
    -2.1055872190307895e-01 1.2859010164375113e-02
    -3.4027852368936035e-01 1.0331795324882700e-02
    -4.5981362684088811e-01 8.7503204787936321e-03
    -6.2098382831816135e-01 8.0708174297228780e-03
    -7.8633365099493424e-01 7.8857126381430137e-03
    -9.0109145593874773e-01 7.8557321841133503e-03
    -9.4491118252306805e-01 7.8655702996579622e-03
    -9.2717264994553050e-01 7.8462803071150441e-03
    -1.0287139676238806e+00 7.8857126381430120e-03
    -1.1097652667877205e+00 7.8655702996579639e-03
    -1.0785477764672502e+00 7.9340422793817041e-03
    -1.1642832797715321e+00 7.9228657891282240e-03
    -1.1531133203941100e+00 8.0522468125453269e-03
    -1.2591131218673473e+00 8.3695694295304844e-03
    -1.4396054209803260e+00 8.5423003207685672e-03
    -1.5206906325745553e+00 8.3695694295304844e-03
    -1.4396054209803260e+00 8.3387794660994274e-03
    -1.4242792663559445e+00 8.5051178317288381e-03
    -1.5038412354828088e+00 8.4015608672716648e-03
    -1.4552137502179978e+00 8.1542389479305824e-03
    -1.3241022442571240e+00 8.2017167229334834e-03
    -1.3515423288475532e+00 8.0902831452079847e-03
    -1.2845232578665131e+00 8.4347900688911369e-03
    -1.4711149188549517e+00 8.2269768914445089e-03
    -1.3656005509902465e+00 8.4347900688911369e-03
    -1.4711149188549517e+00 8.9467336753928702e-03
    -1.6895400127092148e+00 9.0005750406448176e-03
    -1.7105338131489607e+00 8.8448893365373760e-03
    -1.6490294859747161e+00 8.2017167229334834e-03
    -1.3515423288475532e+00 8.2017167229334834e-03
    -1.3515423288475532e+00 8.0345540958030853e-03
    -1.2466823442520871e+00 7.9722525423452113e-03
    -1.1986582537134605e+00 7.9228657891282240e-03
    -1.1531133203941100e+00 7.8655702996579639e-03
    -1.0785477764672502e+00 7.8938841791914918e-03
    -8.9253020648688708e-01 8.1542389479305841e-03
    -7.5522868746517458e-01 9.5902778120044666e-03
    -5.1909640515448707e-01 1.2859010164375113e-02
    -3.4027852368936035e-01 1.6345472005082778e-02
    -2.5559075328702552e-01 1.7680775476967069e-02
    -2.3393667553251241e-01 1.1412246316190922e-02
    -3.9808283730298050e-01 9.1145245143671658e-03
    -5.7008771254956891e-01 8.4347900688911386e-03
    -6.7975654871228819e-01 7.9459919630306096e-03
    -8.5063343208009290e-01 7.8445337006096180e-03
    -9.8130676292531638e-01 7.8487275173757115e-03
    -1.0384755040678713e+00 7.8655702996579639e-03
    -1.0785477764672502e+00 7.9587250581522797e-03
    -1.1870513506545994e+00 7.9340422793817041e-03
    -1.1642832797715321e+00 7.9722525423452113e-03
    -1.1986582537134605e+00 7.9459919630306096e-03
    -1.1755945184927126e+00 8.0902831452079847e-03
    -1.2845232578665131e+00 8.2806687966957976e-03
    -1.3944333775567923e+00 8.2806687966957976e-03
    -1.3944333775567923e+00 8.3091567100747471e-03
    -1.4092251392015922e+00 8.2806687966957976e-03
    -1.3944333775567923e+00 8.2269768914445089e-03
    -1.3656005509902465e+00 8.5808887523658884e-03
    -1.5378814535195373e+00 8.4692954774605103e-03
    -1.4873201444615793e+00 8.4015608672716648e-03
    -1.4552137502179978e+00 8.2269768914445089e-03
    -1.3656005509902465e+00 8.2532851522298060e-03
    -1.3798947746263466e+00 8.6624808860899568e-03
    -1.5733435213155367e+00 8.6624808860899568e-03
    -1.5733435213155367e+00 9.0005750406448176e-03
    -1.7105338131489607e+00 9.3702922818380222e-03
    -1.8484227510682363e+00 8.8448893365373760e-03
    -1.6490294859747161e+00 8.8948651384621116e-03
    -1.6690459207925603e+00 8.3387794660994274e-03
    -1.4242792663559445e+00 8.1774788616324669e-03
    -1.3377121081198771e+00 8.1542389479305824e-03
    -1.3241022442571240e+00 7.9587250581522797e-03
    -1.1870513506545994e+00 7.8518772977917341e-03
    -1.0483367307263918e+00 7.8487275173757115e-03
    -1.0384755040678713e+00 7.8557321841133503e-03
    -9.4491118252306805e-01 8.2532851522298077e-03
    -7.2469293919225419e-01 9.1748221507776239e-03
    -5.6282340599463676e-01 9.8389006359023510e-03
    -4.9705012174770841e-01 1.4068848824073676e-02
    -3.0460384954008574e-01 1.3416216820195627e-02
    -3.2274861218395140e-01 1.0121393866128066e-02
    -4.7479840565397929e-01 9.0005750406448211e-03
    -5.8461282221546784e-01 8.2017167229334834e-03
    -7.3989543550048520e-01 7.8557321841133503e-03
    -9.4491118252306805e-01 7.8445337006096180e-03
    -9.8130676292531638e-01 7.8938841791914918e-03
    -1.1204102592069434e+00 7.9722525423452113e-03
    -1.1986582537134605e+00 8.0177230862655598e-03
    -1.2344267996967351e+00 8.0345540958030853e-03
    -1.2466823442520871e+00 8.1319739728386610e-03
    -1.3107054276032879e+00 8.0708174297228763e-03
    -1.2717247935843994e+00 8.4692954774605103e-03
    -1.4873201444615793e+00 8.5423003207685672e-03
    -1.5206906325745553e+00 8.5051178317288381e-03
    -1.5038412354828088e+00 8.2017167229334834e-03
    -1.3515423288475532e+00 8.2269768914445089e-03
    -1.3656005509902465e+00 8.2806687966957976e-03
    -1.3944333775567923e+00 8.4015608672716648e-03
    -1.4552137502179978e+00 8.3387794660994274e-03
    -1.4242792663559445e+00 8.1774788616324669e-03
    -1.3377121081198771e+00 8.1542389479305824e-03
    -1.3241022442571240e+00 8.2532851522298060e-03
    -1.3798947746263466e+00 8.4347900688911369e-03
    -1.4711149188549517e+00 8.4692954774605103e-03
    -1.4873201444615793e+00 9.0005750406448176e-03
    -1.7105338131489607e+00 8.8448893365373760e-03
    -1.6490294859747161e+00 8.7055910350823003e-03
    -1.5916448515084431e+00 8.8448893365373760e-03
    -1.6490294859747161e+00 8.7055910350823003e-03
    -1.5916448515084431e+00 8.5808887523658884e-03
    -1.5378814535195373e+00 8.5051178317288381e-03
    -1.5038412354828088e+00 8.1774788616324669e-03
    -1.3377121081198771e+00 7.8857126381430120e-03
    -1.1097652667877205e+00 7.8431372549019607e-03 -1.
    7.8434862964123324e-03 -1.0094788848943892e+00
    7.9722525423452113e-03 -8.3426614458456838e-01
    8.6624808860899603e-03 -6.3558910463740248e-01
    9.5139906578542034e-03 -5.2641089819164999e-01
    1.2376878710312518e-02 -3.5729480050524820e-01
    1.3729041743700172e-02 -3.1376041154824214e-01
    1.0224198157252526e-02 -4.6732301954611777e-01
    8.4347900688911386e-03 -6.7975654871228819e-01
    8.0708174297228780e-03 -7.8633365099493424e-01
    7.8487275173757115e-03 -1.0384755040678713e+00
    7.8518772977917341e-03 -1.0483367307263918e+00
    7.9459919630306096e-03 -1.1755945184927126e+00
    8.1319739728386610e-03 -1.3107054276032879e+00
    8.2269768914445089e-03 -1.3656005509902465e+00
    8.0708174297228763e-03 -1.2717247935843994e+00
    8.1774788616324669e-03 -1.3377121081198771e+00
    8.1319739728386610e-03 -1.3107054276032879e+00
    8.1774788616324669e-03 -1.3377121081198771e+00
    8.3091567100747471e-03 -1.4092251392015922e+00
    8.3695694295304844e-03 -1.4396054209803260e+00
    8.3387794660994274e-03 -1.4242792663559445e+00
    8.2806687966957976e-03 -1.3944333775567923e+00
    8.1319739728386610e-03 -1.3107054276032879e+00
    8.4347900688911369e-03 -1.4711149188549517e+00
    8.4692954774605103e-03 -1.4873201444615793e+00
    8.1542389479305824e-03 -1.3241022442571240e+00
    8.2017167229334834e-03 -1.3515423288475532e+00
    8.3387794660994274e-03 -1.4242792663559445e+00
    8.3695694295304844e-03 -1.4396054209803260e+00
    8.6624808860899568e-03 -1.5733435213155367e+00
    8.8448893365373760e-03 -1.6490294859747161e+00
    9.0005750406448176e-03 -1.7105338131489607e+00
    9.0005750406448176e-03 -1.7105338131489607e+00
    8.4347900688911369e-03 -1.4711149188549517e+00
    8.7967312359198829e-03 -1.6294699794083669e+00
    8.7055910350823003e-03 -1.5916448515084431e+00
    8.5051178317288381e-03 -1.5038412354828088e+00
    8.2806687966957976e-03 -1.3944333775567923e+00
    8.0708174297228763e-03 -1.2717247935843994e+00
    7.9027951659078541e-03 -1.1311807514597823e+00
    7.8557321841133485e-03 -1.0583005244258359e+00
    7.8782737862121335e-03 -9.0971765229468415e-01
    8.1774788616324687e-03 -7.4754500159640214e-01
    9.3702922818380222e-03 -5.4100178080045946e-01
    1.1412246316190922e-02 -3.9808283730298050e-01
    1.3729041743700172e-02 -3.1376041154824214e-01
    9.6697378727684229e-03 -5.1176631571915898e-01
    8.5051178317288381e-03 -6.6496381160804485e-01
    7.9722525423452113e-03 -8.3426614458456838e-01
    7.8462803071150441e-03 -1.0287139676238806e+00
    7.8715615049128711e-03 -1.0888374581677827e+00
    7.9459919630306096e-03 -1.1755945184927126e+00
    8.3091567100747471e-03 -1.4092251392015922e+00
    8.4015608672716648e-03 -1.4552137502179978e+00
    8.3695694295304844e-03 -1.4396054209803260e+00
    8.5808887523658884e-03 -1.5378814535195373e+00
    8.4015608672716648e-03 -1.4552137502179978e+00
    8.2806687966957976e-03 -1.3944333775567923e+00
    8.4692954774605103e-03 -1.4873201444615793e+00
    8.2269768914445089e-03 -1.3656005509902465e+00
    8.1542389479305824e-03 -1.3241022442571240e+00
    8.2269768914445089e-03 -1.3656005509902465e+00
    8.0708174297228763e-03 -1.2717247935843994e+00
    8.2806687966957976e-03 -1.3944333775567923e+00
    8.2532851522298060e-03 -1.3798947746263466e+00
    8.2017167229334834e-03 -1.3515423288475532e+00
    8.3387794660994274e-03 -1.4242792663559445e+00
    8.3091567100747471e-03 -1.4092251392015922e+00
    8.4692954774605103e-03 -1.4873201444615793e+00
    8.5423003207685672e-03 -1.5206906325745553e+00
    8.5808887523658884e-03 -1.5378814535195373e+00
    8.7055910350823003e-03 -1.5916448515084431e+00
    9.0564748108176597e-03 -1.7320508075688774e+00
    9.2374727668845316e-03 -1.8000000000000000e+00
    9.0005750406448176e-03 -1.7105338131489607e+00
    8.7967312359198829e-03 -1.6294699794083669e+00
    8.4692954774605103e-03 -1.4873201444615793e+00
    8.4347900688911369e-03 -1.4711149188549517e+00
    8.1542389479305824e-03 -1.3241022442571240e+00
    7.9722525423452113e-03 -1.1986582537134605e+00
    7.8782737862121335e-03 -1.0992421631894100e+00
    7.8434862964123324e-03 -1.0094788848943892e+00
    8.1542389479305841e-03 -7.5522868746517458e-01
    9.1748221507776239e-03 -5.6282340599463676e-01
    1.0444510629164360e-02 -4.5226701686664544e-01
    1.2859010164375113e-02 -3.4027852368936035e-01
    9.5139906578542034e-03 -5.2641089819164999e-01
    8.3695694295304844e-03 -6.9463478354994745e-01
    7.9027951659078558e-03 -8.8403201584672075e-01
    7.8655702996579639e-03 -1.0785477764672502e+00
    7.8938841791914918e-03 -1.1204102592069434e+00
    7.9340422793817041e-03 -1.1642832797715321e+00
    8.1542389479305824e-03 -1.3241022442571240e+00
    8.4015608672716648e-03 -1.4552137502179978e+00
    8.5051178317288381e-03 -1.5038412354828088e+00
    8.8448893365373760e-03 -1.6490294859747161e+00
    9.0564748108176597e-03 -1.7320508075688774e+00
    8.5808887523658884e-03 -1.5378814535195373e+00
    8.5423003207685672e-03 -1.5206906325745553e+00
    8.5808887523658884e-03 -1.5378814535195373e+00
    8.3387794660994274e-03 -1.4242792663559445e+00
    8.1774788616324669e-03 -1.3377121081198771e+00
    8.0902831452079847e-03 -1.2845232578665131e+00
    8.2017167229334834e-03 -1.3515423288475532e+00
    8.2806687966957976e-03 -1.3944333775567923e+00
    8.2269768914445089e-03 -1.3656005509902465e+00
    8.2017167229334834e-03 -1.3515423288475532e+00
    8.2532851522298060e-03 -1.3798947746263466e+00
    8.4692954774605103e-03 -1.4873201444615793e+00
    8.6209317365823594e-03 -1.5554275420956380e+00
    8.6209317365823594e-03 -1.5554275420956380e+00
    8.6624808860899568e-03 -1.5733435213155367e+00
    8.9467336753928702e-03 -1.6895400127092148e+00
    9.2374727668845316e-03 -1.8000000000000000e+00
    8.8448893365373760e-03 -1.6490294859747161e+00
    9.3702922818380222e-03 -1.8484227510682363e+00
    9.1145245143671675e-03 -1.7541160386140588e+00
    8.8448893365373760e-03 -1.6490294859747161e+00
    8.4692954774605103e-03 -1.4873201444615793e+00
    8.2806687966957976e-03 -1.3944333775567923e+00
    7.9587250581522797e-03 -1.1870513506545994e+00
    7.8655702996579639e-03 -1.0785477764672502e+00
    8.0345540958030853e-03 -8.0212895017769958e-01
    9.0564748108176597e-03 -5.7735026918962584e-01
    1.0023086107855624e-02 -4.8224282217041214e-01
    1.3127116801801441e-02 -3.3158353997003165e-01
    1.0023086107855624e-02 -4.8224282217041214e-01
    8.4347900688911386e-03 -6.7975654871228819e-01
    8.0522468125453252e-03 -7.9420981533171109e-01
    7.8487275173757115e-03 -9.6295001286293513e-01
    7.8857126381430120e-03 -1.1097652667877205e+00
    8.0017385516142122e-03 -1.2223410518586144e+00
    8.0017385516142122e-03 -1.2223410518586144e+00
    8.4015608672716648e-03 -1.4552137502179978e+00
    8.4347900688911369e-03 -1.4711149188549517e+00
    8.7055910350823003e-03 -1.5916448515084431e+00
    9.1748221507776239e-03 -1.7767562424536574e+00
    8.6624808860899568e-03 -1.5733435213155367e+00
    8.7055910350823003e-03 -1.5916448515084431e+00
    8.6624808860899568e-03 -1.5733435213155367e+00
    8.2532851522298060e-03 -1.3798947746263466e+00
    8.4347900688911369e-03 -1.4711149188549517e+00
    8.3695694295304844e-03 -1.4396054209803260e+00
    8.2017167229334834e-03 -1.3515423288475532e+00
    8.1319739728386610e-03 -1.3107054276032879e+00
    8.2017167229334834e-03 -1.3515423288475532e+00
    8.2269768914445089e-03 -1.3656005509902465e+00
    8.3091567100747471e-03 -1.4092251392015922e+00
    8.4347900688911369e-03 -1.4711149188549517e+00
    8.6209317365823594e-03 -1.5554275420956380e+00
    8.3091567100747471e-03 -1.4092251392015922e+00
    8.4347900688911369e-03 -1.4711149188549517e+00
    8.5423003207685672e-03 -1.5206906325745553e+00
    8.6624808860899568e-03 -1.5733435213155367e+00
    8.6209317365823594e-03 -1.5554275420956380e+00
    8.8948651384621116e-03 -1.6690459207925603e+00
    8.5423003207685672e-03 -1.5206906325745553e+00
    8.7055910350823003e-03 -1.5916448515084431e+00
    8.5423003207685672e-03 -1.5206906325745553e+00
    8.2806687966957976e-03 -1.3944333775567923e+00
    8.0345540958030853e-03 -1.2466823442520871e+00
    7.8715615049128711e-03 -1.0888374581677827e+00
    7.9722525423452113e-03 -8.3426614458456838e-01
    9.0564748108176597e-03 -5.7735026918962584e-01
    9.5902778120044666e-03 -5.1909640515448707e-01
    1.3416216820195627e-02 -3.2274861218395140e-01
    1.0023086107855624e-02 -4.8224282217041214e-01
    8.5423003207685654e-03 -6.5759594922142917e-01
    7.9587250581522814e-03 -8.4242353917423207e-01
    7.8445337006096180e-03 -9.8130676292531638e-01
    7.8857126381430120e-03 -1.1097652667877205e+00
    7.9865861799541058e-03 -1.2104198771788934e+00
    8.1774788616324669e-03 -1.3377121081198771e+00
    8.2806687966957976e-03 -1.3944333775567923e+00
    8.4347900688911369e-03 -1.4711149188549517e+00
    8.8448893365373760e-03 -1.6490294859747161e+00
    9.0564748108176597e-03 -1.7320508075688774e+00
    8.9467336753928702e-03 -1.6895400127092148e+00
    8.6209317365823594e-03 -1.5554275420956380e+00
    8.7503204787936356e-03 -1.6103478937742157e+00
    8.5423003207685672e-03 -1.5206906325745553e+00
    8.3695694295304844e-03 -1.4396054209803260e+00
    8.2532851522298060e-03 -1.3798947746263466e+00
    8.5051178317288381e-03 -1.5038412354828088e+00
    8.4692954774605103e-03 -1.4873201444615793e+00
    8.2806687966957976e-03 -1.3944333775567923e+00
    8.2806687966957976e-03 -1.3944333775567923e+00
    8.2532851522298060e-03 -1.3798947746263466e+00
    8.4692954774605103e-03 -1.4873201444615793e+00
    8.4692954774605103e-03 -1.4873201444615793e+00
    8.2532851522298060e-03 -1.3798947746263466e+00
    8.6624808860899568e-03 -1.5733435213155367e+00
    8.7055910350823003e-03 -1.5916448515084431e+00
    8.6209317365823594e-03 -1.5554275420956380e+00
    8.7967312359198829e-03 -1.6294699794083669e+00
    8.7503204787936356e-03 -1.6103478937742157e+00
    8.5051178317288381e-03 -1.5038412354828088e+00
    8.5051178317288381e-03 -1.5038412354828088e+00
    8.1774788616324669e-03 -1.3377121081198771e+00
    8.0345540958030853e-03 -1.2466823442520871e+00
    8.0522468125453269e-03 -1.2591131218673473e+00
    7.8715615049128711e-03 -1.0888374581677827e+00
    7.9587250581522814e-03 -8.4242353917423207e-01
    9.1145245143671658e-03 -5.7008771254956891e-01
    1.0023086107855624e-02 -4.8224282217041214e-01
    1.3416216820195627e-02 -3.2274861218395140e-01
    9.5139906578542034e-03 -5.2641089819164999e-01
    8.3695694295304844e-03 -6.9463478354994745e-01
    7.8857126381430137e-03 -9.0109145593874773e-01
    7.8487275173757115e-03 -9.6295001286293513e-01
    7.8602952871273668e-03 -1.0683698523517693e+00
    7.9459919630306096e-03 -1.1755945184927126e+00
    8.0902831452079847e-03 -1.2845232578665131e+00
    8.4015608672716648e-03 -1.4552137502179978e+00
    8.2806687966957976e-03 -1.3944333775567923e+00
    8.8948651384621116e-03 -1.6690459207925603e+00
    9.0564748108176597e-03 -1.7320508075688774e+00
    8.5051178317288381e-03 -1.5038412354828088e+00
    8.5808887523658884e-03 -1.5378814535195373e+00
    8.7503204787936356e-03 -1.6103478937742157e+00
    8.4692954774605103e-03 -1.4873201444615793e+00
    8.5051178317288381e-03 -1.5038412354828088e+00
    8.4692954774605103e-03 -1.4873201444615793e+00
    8.4015608672716648e-03 -1.4552137502179978e+00
    8.7967312359198829e-03 -1.6294699794083669e+00
    8.7503204787936356e-03 -1.6103478937742157e+00
    8.2806687966957976e-03 -1.3944333775567923e+00
    8.2017167229334834e-03 -1.3515423288475532e+00
    8.5051178317288381e-03 -1.5038412354828088e+00
    8.5051178317288381e-03 -1.5038412354828088e+00
    8.7055910350823003e-03 -1.5916448515084431e+00
    8.6624808860899568e-03 -1.5733435213155367e+00
    8.9467336753928702e-03 -1.6895400127092148e+00
    8.6624808860899568e-03 -1.5733435213155367e+00
    8.6209317365823594e-03 -1.5554275420956380e+00
    8.7055910350823003e-03 -1.5916448515084431e+00
    8.4015608672716648e-03 -1.4552137502179978e+00
    8.3091567100747471e-03 -1.4092251392015922e+00
    8.2532851522298060e-03 -1.3798947746263466e+00
    8.0522468125453269e-03 -1.2591131218673473e+00
    7.9459919630306096e-03 -1.1755945184927126e+00
    7.8938841791914918e-03 -1.1204102592069434e+00
    7.8938841791914918e-03 -8.9253020648688708e-01
    9.0005750406448211e-03 -5.8461282221546784e-01
    9.9290042579610414e-03 -4.8965914866501270e-01
    1.2609586941304247e-02 -3.4884541231485572e-01
    9.6697378727684229e-03 -5.1176631571915898e-01
    8.3091567100747454e-03 -7.0960982186746824e-01
    7.9865861799541058e-03 -8.2615959870940348e-01
    7.8462803071150441e-03 -9.7208751069045585e-01
    7.9340422793817041e-03 -1.1642832797715321e+00
    7.9722525423452113e-03 -1.1986582537134605e+00
    8.0017385516142122e-03 -1.2223410518586144e+00
    8.1106622087290664e-03 -1.2975146641936144e+00
    8.4692954774605103e-03 -1.4873201444615793e+00
    8.4347900688911369e-03 -1.4711149188549517e+00
    8.4347900688911369e-03 -1.4711149188549517e+00
    8.5051178317288381e-03 -1.5038412354828088e+00
    8.7503204787936356e-03 -1.6103478937742157e+00
    8.7503204787936356e-03 -1.6103478937742157e+00
    8.3387794660994274e-03 -1.4242792663559445e+00
    8.3695694295304844e-03 -1.4396054209803260e+00
    8.4015608672716648e-03 -1.4552137502179978e+00
    8.4347900688911369e-03 -1.4711149188549517e+00
    8.4347900688911369e-03 -1.4711149188549517e+00
    8.7503204787936356e-03 -1.6103478937742157e+00
    8.5051178317288381e-03 -1.5038412354828088e+00
    8.1542389479305824e-03 -1.3241022442571240e+00
    8.3695694295304844e-03 -1.4396054209803260e+00
    8.2806687966957976e-03 -1.3944333775567923e+00
    8.4347900688911369e-03 -1.4711149188549517e+00
    8.4347900688911369e-03 -1.4711149188549517e+00
    8.4347900688911369e-03 -1.4711149188549517e+00
    8.4692954774605103e-03 -1.4873201444615793e+00
    8.2269768914445089e-03 -1.3656005509902465e+00
    8.2806687966957976e-03 -1.3944333775567923e+00
    8.2532851522298060e-03 -1.3798947746263466e+00
    8.1106622087290664e-03 -1.2975146641936144e+00
    8.0177230862655598e-03 -1.2344267996967351e+00
    7.8857126381430120e-03 -1.1097652667877205e+00
    7.8857126381430120e-03 -1.1097652667877205e+00
    7.8518772977917341e-03 -1.0483367307263918e+00
    7.9865861799541058e-03 -8.2615959870940348e-01
    8.5423003207685654e-03 -6.5759594922142917e-01
    9.9290042579610414e-03 -4.8965914866501270e-01
    1.3127116801801441e-02 -3.3158353997003165e-01
    9.8389006359023510e-03 -4.9705012174770841e-01
    8.4692954774605086e-03 -6.7235020229085074e-01
    8.0017385516142105e-03 -8.1810227880300945e-01
    7.8655702996579622e-03 -9.2717264994553050e-01
    7.8557321841133485e-03 -1.0583005244258359e+00
    7.9340422793817041e-03 -1.1642832797715321e+00
    8.0017385516142122e-03 -1.2223410518586144e+00
    8.1106622087290664e-03 -1.2975146641936144e+00
    8.2269768914445089e-03 -1.3656005509902465e+00
    8.3695694295304844e-03 -1.4396054209803260e+00
    8.4347900688911369e-03 -1.4711149188549517e+00
    8.6624808860899568e-03 -1.5733435213155367e+00
    8.2532851522298060e-03 -1.3798947746263466e+00
    8.7503204787936356e-03 -1.6103478937742157e+00
    8.4015608672716648e-03 -1.4552137502179978e+00
    8.4347900688911369e-03 -1.4711149188549517e+00
    8.2806687966957976e-03 -1.3944333775567923e+00
    8.3091567100747471e-03 -1.4092251392015922e+00
    8.3091567100747471e-03 -1.4092251392015922e+00
    8.2532851522298060e-03 -1.3798947746263466e+00
    8.2269768914445089e-03 -1.3656005509902465e+00
    8.3387794660994274e-03 -1.4242792663559445e+00
    8.3387794660994274e-03 -1.4242792663559445e+00
    8.2806687966957976e-03 -1.3944333775567923e+00
    8.4347900688911369e-03 -1.4711149188549517e+00
    8.6624808860899568e-03 -1.5733435213155367e+00
    8.2532851522298060e-03 -1.3798947746263466e+00
    8.4692954774605103e-03 -1.4873201444615793e+00
    8.2269768914445089e-03 -1.3656005509902465e+00
    8.0017385516142122e-03 -1.2223410518586144e+00
    8.0522468125453269e-03 -1.2591131218673473e+00
    8.0522468125453269e-03 -1.2591131218673473e+00
    8.0345540958030853e-03 -1.2466823442520871e+00
    7.8938841791914918e-03 -1.1204102592069434e+00
    7.8782737862121335e-03 -1.0992421631894100e+00
    7.8462803071150441e-03 -1.0287139676238806e+00
    7.9228657891282240e-03 -8.6721745583358700e-01
    8.4347900688911386e-03 -6.7975654871228819e-01
    9.5902778120044666e-03 -5.1909640515448707e-01
    1.5790615823165519e-02 -2.6590801173915518e-01
    1.0562701944052759e-02 -4.4467978703146638e-01
    8.8448893365373742e-03 -6.0641729484231488e-01
    8.0177230862655598e-03 -8.1009258730098255e-01
    7.9124530086715078e-03 -8.7559503577091302e-01
    7.8462803071150441e-03 -1.0287139676238806e+00
    7.8518772977917341e-03 -1.0483367307263918e+00
    7.9865861799541058e-03 -1.2104198771788934e+00
    8.1542389479305824e-03 -1.3241022442571240e+00
    8.2806687966957976e-03 -1.3944333775567923e+00
    8.1774788616324669e-03 -1.3377121081198771e+00
    8.3387794660994274e-03 -1.4242792663559445e+00
    8.4015608672716648e-03 -1.4552137502179978e+00
    8.4347900688911369e-03 -1.4711149188549517e+00
    8.3387794660994274e-03 -1.4242792663559445e+00
    8.5051178317288381e-03 -1.5038412354828088e+00
    8.3695694295304844e-03 -1.4396054209803260e+00
    8.3695694295304844e-03 -1.4396054209803260e+00
    8.4692954774605103e-03 -1.4873201444615793e+00
    8.4015608672716648e-03 -1.4552137502179978e+00
    8.5051178317288381e-03 -1.5038412354828088e+00
    8.3387794660994274e-03 -1.4242792663559445e+00
    8.2532851522298060e-03 -1.3798947746263466e+00
    8.4015608672716648e-03 -1.4552137502179978e+00
    8.3695694295304844e-03 -1.4396054209803260e+00
    8.3091567100747471e-03 -1.4092251392015922e+00
    8.5423003207685672e-03 -1.5206906325745553e+00
    8.4347900688911369e-03 -1.4711149188549517e+00
    8.3091567100747471e-03 -1.4092251392015922e+00
    8.2532851522298060e-03 -1.3798947746263466e+00
    8.1774788616324669e-03 -1.3377121081198771e+00
    7.9587250581522797e-03 -1.1870513506545994e+00
    8.0345540958030853e-03 -1.2466823442520871e+00
    8.0017385516142122e-03 -1.2223410518586144e+00
    7.8857126381430120e-03 -1.1097652667877205e+00
    7.8434862964123324e-03 -1.0094788848943892e+00
    7.8487275173757115e-03 -9.6295001286293513e-01
    7.9865861799541058e-03 -8.2615959870940348e-01
    8.5051178317288381e-03 -6.6496381160804485e-01
    1.0121393866128066e-02 -4.7479840565397929e-01
    1.7680775476967069e-02 -2.3393667553251241e-01
    1.0331795324882700e-02 -4.5981362684088811e-01
    8.7967312359198812e-03 -6.1369648575120306e-01
    8.3387794660994292e-03 -7.0210949749940943e-01
    7.9722525423452113e-03 -8.3426614458456838e-01
    7.8462803071150441e-03 -9.7208751069045585e-01
    7.8782737862121335e-03 -1.0992421631894100e+00
    8.0177230862655598e-03 -1.2344267996967351e+00
    7.9865861799541058e-03 -1.2104198771788934e+00
    8.1774788616324669e-03 -1.3377121081198771e+00
    8.1106622087290664e-03 -1.2975146641936144e+00
    8.2806687966957976e-03 -1.3944333775567923e+00
    8.3387794660994274e-03 -1.4242792663559445e+00
    8.4347900688911369e-03 -1.4711149188549517e+00
    8.6209317365823594e-03 -1.5554275420956380e+00
    8.9467336753928702e-03 -1.6895400127092148e+00
    8.5051178317288381e-03 -1.5038412354828088e+00
    8.6209317365823594e-03 -1.5554275420956380e+00
    8.4692954774605103e-03 -1.4873201444615793e+00
    8.3695694295304844e-03 -1.4396054209803260e+00
    8.5423003207685672e-03 -1.5206906325745553e+00
    8.4015608672716648e-03 -1.4552137502179978e+00
    8.5051178317288381e-03 -1.5038412354828088e+00
    8.2806687966957976e-03 -1.3944333775567923e+00
    8.2017167229334834e-03 -1.3515423288475532e+00
    8.1319739728386610e-03 -1.3107054276032879e+00
    8.5423003207685672e-03 -1.5206906325745553e+00
    8.5808887523658884e-03 -1.5378814535195373e+00
    8.1106622087290664e-03 -1.2975146641936144e+00
    8.1106622087290664e-03 -1.2975146641936144e+00
    7.9587250581522797e-03 -1.1870513506545994e+00
    7.9340422793817041e-03 -1.1642832797715321e+00
    8.0345540958030853e-03 -1.2466823442520871e+00
    7.9722525423452113e-03 -1.1986582537134605e+00
    7.8602952871273668e-03 -1.0683698523517693e+00
    7.8938841791914918e-03 -1.1204102592069434e+00
    7.8462803071150441e-03 -9.7208751069045585e-01
    7.9340422793817041e-03 -8.5889750147080246e-01
    8.5051178317288381e-03 -6.6496381160804485e-01
    1.0121393866128066e-02 -4.7479840565397929e-01
    1.6970321093791953e-02 -2.4494897427831783e-01
    1.1763266446449396e-02 -3.8202872398020798e-01
    9.1748221507776239e-03 -5.6282340599463676e-01
    8.5808887523658884e-03 -6.5024517833376405e-01
    8.0902831452079830e-03 -7.7849894416152299e-01
    7.9587250581522814e-03 -8.4242353917423207e-01
    7.8715615049128711e-03 -1.0888374581677827e+00
    8.0017385516142122e-03 -1.2223410518586144e+00
    8.1542389479305824e-03 -1.3241022442571240e+00
    8.0708174297228763e-03 -1.2717247935843994e+00
    8.4015608672716648e-03 -1.4552137502179978e+00
    8.6624808860899568e-03 -1.5733435213155367e+00
    8.6624808860899568e-03 -1.5733435213155367e+00
    8.5808887523658884e-03 -1.5378814535195373e+00
    8.5808887523658884e-03 -1.5378814535195373e+00
    8.6209317365823594e-03 -1.5554275420956380e+00
    8.7503204787936356e-03 -1.6103478937742157e+00
    8.6624808860899568e-03 -1.5733435213155367e+00
    8.7503204787936356e-03 -1.6103478937742157e+00
    8.5051178317288381e-03 -1.5038412354828088e+00
    8.2806687966957976e-03 -1.3944333775567923e+00
    8.2269768914445089e-03 -1.3656005509902465e+00
    8.4015608672716648e-03 -1.4552137502179978e+00
    8.1319739728386610e-03 -1.3107054276032879e+00
    8.1106622087290664e-03 -1.2975146641936144e+00
    8.2017167229334834e-03 -1.3515423288475532e+00
    8.1319739728386610e-03 -1.3107054276032879e+00
    8.1106622087290664e-03 -1.2975146641936144e+00
    8.0708174297228763e-03 -1.2717247935843994e+00
    8.1319739728386610e-03 -1.3107054276032879e+00
    7.9722525423452113e-03 -1.1986582537134605e+00
    7.9459919630306096e-03 -1.1755945184927126e+00
    8.0522468125453269e-03 -1.2591131218673473e+00
    8.0017385516142122e-03 -1.2223410518586144e+00
    7.9587250581522797e-03 -1.1870513506545994e+00
    7.8462803071150441e-03 -1.0287139676238806e+00
    7.8655702996579622e-03 -9.2717264994553050e-01
    7.9722525423452113e-03 -8.3426614458456838e-01
    8.8448893365373742e-03 -6.0641729484231488e-01
    1.0023086107855624e-02 -4.8224282217041214e-01
    1.9450304594097051e-02 -2.1055872190307895e-01
    1.2376878710312518e-02 -3.5729480050524820e-01
    9.5902778120044666e-03 -5.1909640515448707e-01
    8.5051178317288381e-03 -6.6496381160804485e-01
    8.0522468125453252e-03 -7.9420981533171109e-01
    7.9228657891282240e-03 -8.6721745583358700e-01
    7.8715615049128711e-03 -9.1841072558499937e-01
    7.9027951659078541e-03 -1.1311807514597823e+00
    7.9722525423452113e-03 -1.1986582537134605e+00
    8.0902831452079847e-03 -1.2845232578665131e+00
    8.1319739728386610e-03 -1.3107054276032879e+00
    8.2269768914445089e-03 -1.3656005509902465e+00
    8.3387794660994274e-03 -1.4242792663559445e+00
    8.2806687966957976e-03 -1.3944333775567923e+00
    8.7967312359198829e-03 -1.6294699794083669e+00
    8.7967312359198829e-03 -1.6294699794083669e+00
    8.2532851522298060e-03 -1.3798947746263466e+00
    8.5051178317288381e-03 -1.5038412354828088e+00
    8.5051178317288381e-03 -1.5038412354828088e+00
    8.5808887523658884e-03 -1.5378814535195373e+00
    8.4692954774605103e-03 -1.4873201444615793e+00
    8.4015608672716648e-03 -1.4552137502179978e+00
    8.2806687966957976e-03 -1.3944333775567923e+00
    8.2532851522298060e-03 -1.3798947746263466e+00
    8.1542389479305824e-03 -1.3241022442571240e+00
    8.1542389479305824e-03 -1.3241022442571240e+00
    8.0902831452079847e-03 -1.2845232578665131e+00
    8.2532851522298060e-03 -1.3798947746263466e+00
    8.2532851522298060e-03 -1.3798947746263466e+00
    8.1542389479305824e-03 -1.3241022442571240e+00
    8.0708174297228763e-03 -1.2717247935843994e+00
    8.1106622087290664e-03 -1.2975146641936144e+00
    7.9865861799541058e-03 -1.2104198771788934e+00
    7.8655702996579639e-03 -1.0785477764672502e+00
    7.8857126381430120e-03 -1.1097652667877205e+00
    7.8462803071150441e-03 -9.7208751069045585e-01
    7.8782737862121335e-03 -9.0971765229468415e-01
    8.2269768914445089e-03 -7.3227855632810324e-01
    8.8948651384621116e-03 -5.9914468951527800e-01
    1.0331795324882700e-02 -4.5981362684088811e-01
    1.5293853926993794e-02 -2.7593863806958141e-01
    1.2609586941304247e-02 -3.4884541231485572e-01
    9.8389006359023510e-03 -4.9705012174770841e-01
    9.1748221507776239e-03 -5.6282340599463676e-01
    8.1774788616324687e-03 -7.4754500159640214e-01
    8.0522468125453252e-03 -7.9420981533171109e-01
    7.9027951659078558e-03 -8.8403201584672075e-01
    7.8445337006096180e-03 -9.8130676292531638e-01
    7.9124530086715095e-03 -1.1420804814403216e+00
    7.9722525423452113e-03 -1.1986582537134605e+00
    8.1319739728386610e-03 -1.3107054276032879e+00
    8.0177230862655598e-03 -1.2344267996967351e+00
    8.0177230862655598e-03 -1.2344267996967351e+00
    8.1106622087290664e-03 -1.2975146641936144e+00
    8.3695694295304844e-03 -1.4396054209803260e+00
    8.2532851522298060e-03 -1.3798947746263466e+00
    8.2806687966957976e-03 -1.3944333775567923e+00
    8.3387794660994274e-03 -1.4242792663559445e+00
    8.3695694295304844e-03 -1.4396054209803260e+00
    8.1319739728386610e-03 -1.3107054276032879e+00
    8.2532851522298060e-03 -1.3798947746263466e+00
    8.2269768914445089e-03 -1.3656005509902465e+00
    8.2269768914445089e-03 -1.3656005509902465e+00
    8.2532851522298060e-03 -1.3798947746263466e+00
    8.2532851522298060e-03 -1.3798947746263466e+00
    8.1542389479305824e-03 -1.3241022442571240e+00
    8.2532851522298060e-03 -1.3798947746263466e+00
    8.1106622087290664e-03 -1.2975146641936144e+00
    7.9722525423452113e-03 -1.1986582537134605e+00
    8.0902831452079847e-03 -1.2845232578665131e+00
    8.0902831452079847e-03 -1.2845232578665131e+00
    8.0708174297228763e-03 -1.2717247935843994e+00
    8.0177230862655598e-03 -1.2344267996967351e+00
    7.8938841791914918e-03 -1.1204102592069434e+00
    7.8487275173757115e-03 -1.0384755040678713e+00
    7.8602952871273668e-03 -9.3600544586570933e-01
    7.9865861799541058e-03 -8.2615959870940348e-01
    8.5423003207685654e-03 -6.5759594922142917e-01
    9.3025890978961877e-03 -5.4828231499157010e-01
    1.2609586941304247e-02 -3.4884541231485572e-01
    1.4068848824073676e-02 -3.0460384954008574e-01
    1.2859010164375113e-02 -3.4027852368936035e-01
    1.0224198157252526e-02 -4.6732301954611777e-01
    9.5139906578542034e-03 -5.2641089819164999e-01
    8.6209317365823594e-03 -6.4291005073286367e-01
    8.1319739728386610e-03 -7.6294793547057060e-01
    7.9124530086715078e-03 -8.7559503577091302e-01
    7.8518772977917341e-03 -9.5389198021050048e-01
    7.8557321841133485e-03 -1.0583005244258359e+00
    7.8938841791914918e-03 -1.1204102592069434e+00
    7.9124530086715095e-03 -1.1420804814403216e+00
    8.0017385516142122e-03 -1.2223410518586144e+00
    8.2269768914445089e-03 -1.3656005509902465e+00
    8.3695694295304844e-03 -1.4396054209803260e+00
    8.4015608672716648e-03 -1.4552137502179978e+00
    8.4692954774605103e-03 -1.4873201444615793e+00
    8.3695694295304844e-03 -1.4396054209803260e+00
    8.2806687966957976e-03 -1.3944333775567923e+00
    8.2806687966957976e-03 -1.3944333775567923e+00
    8.1774788616324669e-03 -1.3377121081198771e+00
    8.1542389479305824e-03 -1.3241022442571240e+00
    8.0522468125453269e-03 -1.2591131218673473e+00
    8.2269768914445089e-03 -1.3656005509902465e+00
    8.1774788616324669e-03 -1.3377121081198771e+00
    8.4347900688911369e-03 -1.4711149188549517e+00
    8.3091567100747471e-03 -1.4092251392015922e+00
    8.0902831452079847e-03 -1.2845232578665131e+00
    8.1106622087290664e-03 -1.2975146641936144e+00
    8.0708174297228763e-03 -1.2717247935843994e+00
    7.9865861799541058e-03 -1.2104198771788934e+00
    8.0902831452079847e-03 -1.2845232578665131e+00
    8.0522468125453269e-03 -1.2591131218673473e+00
    7.9124530086715095e-03 -1.1420804814403216e+00
    7.8715615049128711e-03 -1.0888374581677827e+00
    7.8487275173757115e-03 -9.6295001286293513e-01
    7.9587250581522814e-03 -8.4242353917423207e-01
    8.2269768914445089e-03 -7.3227855632810324e-01
    8.5051178317288381e-03 -6.6496381160804485e-01
    9.2374727668845316e-03 -5.5555555555555558e-01
    1.2859010164375113e-02 -3.4027852368936035e-01
    1.9450304594097051e-02 -2.1055872190307895e-01
    1.3729041743700172e-02 -3.1376041154824214e-01
    1.0686764049662833e-02 -4.3704832221970169e-01
    9.5139906578542034e-03 -5.2641089819164999e-01
    9.0564748108176597e-03 -5.7735026918962584e-01
    8.3387794660994292e-03 -7.0210949749940943e-01
    7.9228657891282240e-03 -8.6721745583358700e-01
    7.8487275173757115e-03 -9.6295001286293513e-01
    7.8434862964123324e-03 -1.0094788848943892e+00
    7.8487275173757115e-03 -1.0384755040678713e+00
    8.0177230862655598e-03 -1.2344267996967351e+00
    7.9865861799541058e-03 -1.2104198771788934e+00
    8.0345540958030853e-03 -1.2466823442520871e+00
    8.3387794660994274e-03 -1.4242792663559445e+00
    8.1106622087290664e-03 -1.2975146641936144e+00
    8.2806687966957976e-03 -1.3944333775567923e+00
    8.3091567100747471e-03 -1.4092251392015922e+00
    8.1542389479305824e-03 -1.3241022442571240e+00
    8.0902831452079847e-03 -1.2845232578665131e+00
    8.0902831452079847e-03 -1.2845232578665131e+00
    7.9587250581522797e-03 -1.1870513506545994e+00
    8.1319739728386610e-03 -1.3107054276032879e+00
    8.0708174297228763e-03 -1.2717247935843994e+00
    8.1319739728386610e-03 -1.3107054276032879e+00
    8.1319739728386610e-03 -1.3107054276032879e+00
    8.1542389479305824e-03 -1.3241022442571240e+00
    8.1106622087290664e-03 -1.2975146641936144e+00
    8.0345540958030853e-03 -1.2466823442520871e+00
    8.0177230862655598e-03 -1.2344267996967351e+00
    7.9722525423452113e-03 -1.1986582537134605e+00
    7.9865861799541058e-03 -1.2104198771788934e+00
    7.8715615049128711e-03 -1.0888374581677827e+00
    7.8715615049128711e-03 -1.0888374581677827e+00
    7.8487275173757115e-03 -9.6295001286293513e-01
    7.9340422793817041e-03 -8.5889750147080246e-01
    8.0345540958030853e-03 -8.0212895017769958e-01
    8.4015608672716648e-03 -6.8718427093627676e-01
    8.5423003207685654e-03 -6.5759594922142917e-01
    1.0121393866128066e-02 -4.7479840565397929e-01
    1.2609586941304247e-02 -3.4884541231485572e-01
    1.6970321093791953e-02 -2.4494897427831783e-01
    1.3729041743700172e-02 -3.1376041154824214e-01
    1.2159196385486407e-02 -3.6563621206356528e-01
    1.0023086107855624e-02 -4.8224282217041214e-01
    9.1748221507776239e-03 -5.6282340599463676e-01
    8.5423003207685654e-03 -6.5759594922142917e-01
    8.3091567100747454e-03 -7.0960982186746824e-01
    7.9865861799541058e-03 -8.2615959870940348e-01
    7.9722525423452113e-03 -8.3426614458456838e-01
    7.8462803071150441e-03 -1.0287139676238806e+00
    7.8602952871273668e-03 -1.0683698523517693e+00
    7.8434862964123324e-03 -1.0094788848943892e+00
    7.8782737862121335e-03 -1.0992421631894100e+00
    8.0345540958030853e-03 -1.2466823442520871e+00
    8.3387794660994274e-03 -1.4242792663559445e+00
    8.3387794660994274e-03 -1.4242792663559445e+00
    8.3387794660994274e-03 -1.4242792663559445e+00
    8.3091567100747471e-03 -1.4092251392015922e+00
    8.0345540958030853e-03 -1.2466823442520871e+00
    7.9865861799541058e-03 -1.2104198771788934e+00
    8.0017385516142122e-03 -1.2223410518586144e+00
    8.1319739728386610e-03 -1.3107054276032879e+00
    8.0017385516142122e-03 -1.2223410518586144e+00
    7.9459919630306096e-03 -1.1755945184927126e+00
    7.9228657891282240e-03 -1.1531133203941100e+00
    8.0345540958030853e-03 -1.2466823442520871e+00
    8.0345540958030853e-03 -1.2466823442520871e+00
    7.8655702996579639e-03 -1.0785477764672502e+00
    7.9587250581522797e-03 -1.1870513506545994e+00
    7.9124530086715095e-03 -1.1420804814403216e+00
    8.1542389479305824e-03 -1.3241022442571240e+00
    7.8782737862121335e-03 -1.0992421631894100e+00
    7.8518772977917341e-03 -1.0483367307263918e+00
    7.8487275173757115e-03 -9.6295001286293513e-01
    8.0017385516142105e-03 -8.1810227880300945e-01
    8.2806687966957993e-03 -7.1713716560063623e-01
    8.5808887523658884e-03 -6.5024517833376405e-01
    9.1145245143671658e-03 -5.7008771254956891e-01
    1.1251213327027703e-02 -4.0599897147057512e-01
    1.4439558485282104e-02 -2.9526172657404681e-01
    1.9450304594097051e-02 -2.1055872190307895e-01
    1.4439558485282104e-02 -2.9526172657404681e-01
    1.2859010164375113e-02 -3.4027852368936035e-01
    1.0817133636141474e-02 -4.2936877145344582e-01
    9.3702922818380222e-03 -5.4100178080045946e-01
    9.1748221507776239e-03 -5.6282340599463676e-01
    8.7967312359198812e-03 -6.1369648575120306e-01
    8.5051178317288381e-03 -6.6496381160804485e-01
    8.0708174297228780e-03 -7.8633365099493424e-01
    7.9228657891282240e-03 -8.6721745583358700e-01
    7.9340422793817041e-03 -8.5889750147080246e-01
    7.9340422793817041e-03 -8.5889750147080246e-01
    7.8487275173757115e-03 -1.0384755040678713e+00
    7.8518772977917341e-03 -1.0483367307263918e+00
    7.9459919630306096e-03 -1.1755945184927126e+00
    8.1774788616324669e-03 -1.3377121081198771e+00
    8.2017167229334834e-03 -1.3515423288475532e+00
    8.2532851522298060e-03 -1.3798947746263466e+00
    8.0708174297228763e-03 -1.2717247935843994e+00
    8.0902831452079847e-03 -1.2845232578665131e+00
    8.0177230862655598e-03 -1.2344267996967351e+00
    8.0902831452079847e-03 -1.2845232578665131e+00
    8.1319739728386610e-03 -1.3107054276032879e+00
    7.9587250581522797e-03 -1.1870513506545994e+00
    7.8857126381430120e-03 -1.1097652667877205e+00
    7.9722525423452113e-03 -1.1986582537134605e+00
    7.9027951659078541e-03 -1.1311807514597823e+00
    7.9459919630306096e-03 -1.1755945184927126e+00
    7.9340422793817041e-03 -1.1642832797715321e+00
    7.9459919630306096e-03 -1.1755945184927126e+00
    7.8938841791914918e-03 -1.1204102592069434e+00
    7.8462803071150441e-03 -1.0287139676238806e+00
    7.8431372549019607e-03 -1. 7.9459919630306096e-03
    -8.5063343208009290e-01 8.0522468125453252e-03
    -7.9420981533171109e-01 8.5423003207685654e-03
    -6.5759594922142917e-01 9.4407126575305773e-03
    -5.3371198679483001e-01 9.9290042579610414e-03
    -4.8965914866501270e-01 1.3127116801801441e-02
    -3.3158353997003165e-01 1.4845938375350141e-02
    -2.8571428571428570e-01 2.0579537167750486e-02
    -1.9802950859533486e-01 1.6345472005082778e-02
    -2.5559075328702552e-01 1.3127116801801441e-02
    -3.3158353997003165e-01 1.0023086107855624e-02
    -4.8224282217041214e-01 9.7525480876356537e-03
    -5.0441834802323082e-01 9.5139906578542034e-03
    -5.2641089819164999e-01 8.9467336753928702e-03
    -5.9187707451596694e-01 9.0005750406448211e-03
    -5.8461282221546784e-01 8.2806687966957993e-03
    -7.1713716560063623e-01 8.0902831452079830e-03
    -7.7849894416152299e-01 8.1319739728386610e-03
    -7.6294793547057060e-01 7.9865861799541058e-03
    -8.2615959870940348e-01 7.9124530086715078e-03
    -8.7559503577091302e-01 7.8431372549019607e-03 -1.
    7.8557321841133485e-03 -1.0583005244258359e+00
    7.8715615049128711e-03 -1.0888374581677827e+00
    7.9027951659078541e-03 -1.1311807514597823e+00
    7.8655702996579639e-03 -1.0785477764672502e+00
    7.8938841791914918e-03 -1.1204102592069434e+00
    7.9722525423452113e-03 -1.1986582537134605e+00
    8.0177230862655598e-03 -1.2344267996967351e+00
    8.0177230862655598e-03 -1.2344267996967351e+00
    8.0017385516142122e-03 -1.2223410518586144e+00
    7.9865861799541058e-03 -1.2104198771788934e+00
    7.8938841791914918e-03 -1.1204102592069434e+00
    7.8445337006096180e-03 -1.0190493307301363e+00
    7.8462803071150441e-03 -9.7208751069045585e-01
    7.8938841791914918e-03 -1.1204102592069434e+00
    7.8462803071150441e-03 -1.0287139676238806e+00
    7.8487275173757115e-03 -1.0384755040678713e+00
    7.8462803071150441e-03 -9.7208751069045585e-01
    7.9027951659078558e-03 -8.8403201584672075e-01
    8.1319739728386610e-03 -7.6294793547057060e-01
    8.1542389479305841e-03 -7.5522868746517458e-01
    8.4015608672716648e-03 -6.8718427093627676e-01
    9.1145245143671658e-03 -5.7008771254956891e-01
    9.3702922818380222e-03 -5.4100178080045946e-01
    1.1251213327027703e-02 -4.0599897147057512e-01
    1.3729041743700172e-02 -3.1376041154824214e-01
    1.6345472005082778e-02 -2.5559075328702552e-01
    2.1946725411347526e-02 -1.8478728707195910e-01
    1.9450304594097051e-02 -2.1055872190307895e-01
    1.2859010164375113e-02 -3.4027852368936035e-01
    1.0562701944052759e-02 -4.4467978703146638e-01
    1.0023086107855624e-02 -4.8224282217041214e-01
    1.0023086107855624e-02 -4.8224282217041214e-01
    9.5139906578542034e-03 -5.2641089819164999e-01
    9.2374727668845316e-03 -5.5555555555555558e-01
    8.6624808860899603e-03 -6.3558910463740248e-01
    8.6209317365823594e-03 -6.4291005073286367e-01
    8.3695694295304844e-03 -6.9463478354994745e-01
    8.2017167229334834e-03 -7.3989543550048520e-01
    7.9587250581522814e-03 -8.4242353917423207e-01
    7.8602952871273668e-03 -9.3600544586570933e-01
    7.9228657891282240e-03 -8.6721745583358700e-01
    7.9228657891282240e-03 -8.6721745583358700e-01
    7.8602952871273668e-03 -1.0683698523517693e+00
    7.8518772977917341e-03 -1.0483367307263918e+00
    7.8557321841133485e-03 -1.0583005244258359e+00
    7.8655702996579639e-03 -1.0785477764672502e+00
    7.8715615049128711e-03 -1.0888374581677827e+00
    7.9459919630306096e-03 -1.1755945184927126e+00
    7.9459919630306096e-03 -1.1755945184927126e+00
    7.8715615049128711e-03 -1.0888374581677827e+00
    7.8602952871273668e-03 -1.0683698523517693e+00
    7.8557321841133485e-03 -1.0583005244258359e+00
    7.8434862964123324e-03 -1.0094788848943892e+00
    7.8518772977917341e-03 -1.0483367307263918e+00
    7.8462803071150441e-03 -9.7208751069045585e-01
    7.9228657891282240e-03 -8.6721745583358700e-01
    8.0902831452079830e-03 -7.7849894416152299e-01
    8.2269768914445089e-03 -7.3227855632810324e-01
    8.2532851522298077e-03 -7.2469293919225419e-01
    8.4692954774605086e-03 -6.7235020229085074e-01
    8.8948651384621116e-03 -5.9914468951527800e-01
    9.4407126575305773e-03 -5.3371198679483001e-01
    9.5902778120044666e-03 -5.1909640515448707e-01
    1.1763266446449396e-02 -3.8202872398020798e-01
    1.4439558485282104e-02 -2.9526172657404681e-01
    1.5790615823165519e-02 -2.6590801173915518e-01
    2.5841963313326343e-02 -1.5541746804005230e-01
    2.0579537167750486e-02 -1.9802950859533486e-01
    1.3416216820195627e-02 -3.2274861218395140e-01
    1.2159196385486407e-02 -3.6563621206356528e-01
    1.1251213327027703e-02 -4.0599897147057512e-01
    1.0562701944052759e-02 -4.4467978703146638e-01
    1.0224198157252526e-02 -4.6732301954611777e-01
    9.7525480876356537e-03 -5.0441834802323082e-01
    9.4407126575305773e-03 -5.3371198679483001e-01
    9.5139906578542034e-03 -5.2641089819164999e-01
    9.2374727668845316e-03 -5.5555555555555558e-01
    8.3091567100747454e-03 -7.0960982186746824e-01
    8.3387794660994292e-03 -7.0210949749940943e-01
    8.1774788616324687e-03 -7.4754500159640214e-01
    8.1542389479305841e-03 -7.5522868746517458e-01
    7.9340422793817041e-03 -8.5889750147080246e-01
    7.8557321841133503e-03 -9.4491118252306805e-01
    7.8557321841133485e-03 -1.0583005244258359e+00
    7.8434862964123324e-03 -1.0094788848943892e+00
    7.8602952871273668e-03 -1.0683698523517693e+00
    7.8518772977917341e-03 -1.0483367307263918e+00
    7.8602952871273668e-03 -1.0683698523517693e+00
    7.8462803071150441e-03 -1.0287139676238806e+00
    7.8462803071150441e-03 -1.0287139676238806e+00
    7.8655702996579622e-03 -9.2717264994553050e-01
    7.8782737862121335e-03 -9.0971765229468415e-01
    7.9228657891282240e-03 -8.6721745583358700e-01
    7.9587250581522814e-03 -8.4242353917423207e-01
    7.9722525423452113e-03 -8.3426614458456838e-01
    8.0017385516142105e-03 -8.1810227880300945e-01
    8.3091567100747454e-03 -7.0960982186746824e-01
    8.3091567100747454e-03 -7.0960982186746824e-01
    8.4692954774605086e-03 -6.7235020229085074e-01
    8.7055910350822985e-03 -6.2828086243754322e-01
    9.4407126575305773e-03 -5.3371198679483001e-01
    9.9290042579610414e-03 -4.8965914866501270e-01
    1.0686764049662833e-02 -4.3704832221970169e-01
    1.4068848824073676e-02 -3.0460384954008574e-01
    1.4845938375350141e-02 -2.8571428571428570e-01
    1.7680775476967069e-02 -2.3393667553251241e-01
    3.3201821476891137e-02 -1.1980845957463077e-01
    1.6970321093791953e-02 -2.4494897427831783e-01
    1.5790615823165519e-02 -2.6590801173915518e-01
    1.4439558485282104e-02 -2.9526172657404681e-01
    1.2609586941304247e-02 -3.4884541231485572e-01
    1.1251213327027703e-02 -4.0599897147057512e-01
    1.0954295162674777e-02 -4.2163702135578385e-01
    1.1582645202546548e-02 -3.9009474880274692e-01
    1.0331795324882700e-02 -4.5981362684088811e-01
    9.8389006359023510e-03 -4.9705012174770841e-01
    1.0331795324882700e-02 -4.5981362684088811e-01
    9.3025890978961877e-03 -5.4828231499157010e-01
    8.5051178317288381e-03 -6.6496381160804485e-01
    8.3695694295304844e-03 -6.9463478354994745e-01
    8.2269768914445089e-03 -7.3227855632810324e-01
    8.0017385516142105e-03 -8.1810227880300945e-01
    7.9587250581522814e-03 -8.4242353917423207e-01
    7.9340422793817041e-03 -8.5889750147080246e-01
    7.8462803071150441e-03 -9.7208751069045585e-01
    7.8518772977917341e-03 -9.5389198021050048e-01
    7.8434862964123324e-03 -1.0094788848943892e+00
    7.8462803071150441e-03 -9.7208751069045585e-01
    7.8782737862121335e-03 -9.0971765229468415e-01
    7.8782737862121335e-03 -9.0971765229468415e-01
    7.8602952871273668e-03 -9.3600544586570933e-01
    7.9340422793817041e-03 -8.5889750147080246e-01
    7.9340422793817041e-03 -8.5889750147080246e-01
    8.1774788616324687e-03 -7.4754500159640214e-01
    8.3695694295304844e-03 -6.9463478354994745e-01
    8.4015608672716648e-03 -6.8718427093627676e-01
    8.3387794660994292e-03 -7.0210949749940943e-01
    8.8448893365373742e-03 -6.0641729484231488e-01
    9.1748221507776239e-03 -5.6282340599463676e-01
    9.6697378727684229e-03 -5.1176631571915898e-01
    1.0121393866128066e-02 -4.7479840565397929e-01
    9.9290042579610414e-03 -4.8965914866501270e-01
    1.1412246316190922e-02 -3.9808283730298050e-01
    1.2859010164375113e-02 -3.4027852368936035e-01
    1.5790615823165519e-02 -2.6590801173915518e-01
    1.8497796433701329e-02 -2.2249707974499242e-01
    3.3201821476891137e-02 -1.1980845957463077e-01
    2.5841963313326343e-02 -1.5541746804005230e-01
    1.9450304594097051e-02 -2.1055872190307895e-01
    1.6345472005082778e-02 -2.5559075328702552e-01
    1.4845938375350141e-02 -2.8571428571428570e-01
    1.3416216820195627e-02 -3.2274861218395140e-01
    1.2376878710312518e-02 -3.5729480050524820e-01
    1.2609586941304247e-02 -3.4884541231485572e-01
    1.2159196385486407e-02 -3.6563621206356528e-01
    1.0817133636141474e-02 -4.2936877145344582e-01
    1.0562701944052759e-02 -4.4467978703146638e-01
    1.0954295162674777e-02 -4.2163702135578385e-01
    1.0562701944052759e-02 -4.4467978703146638e-01
    9.2374727668845316e-03 -5.5555555555555558e-01
    8.8448893365373742e-03 -6.0641729484231488e-01
    8.3387794660994292e-03 -7.0210949749940943e-01
    8.1542389479305841e-03 -7.5522868746517458e-01
    8.0902831452079830e-03 -7.7849894416152299e-01
    8.0177230862655598e-03 -8.1009258730098255e-01
    7.8938841791914918e-03 -8.9253020648688708e-01
    7.8938841791914918e-03 -8.9253020648688708e-01
    7.8715615049128711e-03 -9.1841072558499937e-01
    7.9459919630306096e-03 -8.5063343208009290e-01
    7.8715615049128711e-03 -9.1841072558499937e-01
    7.9722525423452113e-03 -8.3426614458456838e-01
    7.9587250581522814e-03 -8.4242353917423207e-01
    8.2532851522298077e-03 -7.2469293919225419e-01
    8.4015608672716648e-03 -6.8718427093627676e-01
    8.5051178317288381e-03 -6.6496381160804485e-01
    8.5051178317288381e-03 -6.6496381160804485e-01
    9.0005750406448211e-03 -5.8461282221546784e-01
    9.2374727668845316e-03 -5.5555555555555558e-01
    1.0444510629164360e-02 -4.5226701686664544e-01
    1.0562701944052759e-02 -4.4467978703146638e-01
    1.0224198157252526e-02 -4.6732301954611777e-01
    1.0817133636141474e-02 -4.2936877145344582e-01
    1.2609586941304247e-02 -3.4884541231485572e-01
    1.3729041743700172e-02 -3.1376041154824214e-01
    1.7680775476967069e-02 -2.3393667553251241e-01
    2.5841963313326343e-02 -1.5541746804005230e-01
    3.3201821476891137e-02 -1.1980845957463077e-01
    2.8822657254840338e-02 -1.3867504905630729e-01
    2.3647565938348578e-02 -1.7066403719657230e-01
    1.9450304594097051e-02 -2.1055872190307895e-01
    1.6970321093791953e-02 -2.4494897427831783e-01
    1.6345472005082778e-02 -2.5559075328702552e-01
    1.4439558485282104e-02 -2.9526172657404681e-01
    1.3416216820195627e-02 -3.2274861218395140e-01
    1.3416216820195627e-02 -3.2274861218395140e-01
    1.3416216820195627e-02 -3.2274861218395140e-01
    1.2376878710312518e-02 -3.5729480050524820e-01
    1.2376878710312518e-02 -3.5729480050524820e-01
    1.1582645202546548e-02 -3.9009474880274692e-01
    1.1098787749752429e-02 -4.1384866585751390e-01
    1.0686764049662833e-02 -4.3704832221970169e-01
    9.3025890978961877e-03 -5.4828231499157010e-01
    8.7503204787936321e-03 -6.2098382831816135e-01
    8.2806687966957993e-03 -7.1713716560063623e-01
    8.2269768914445089e-03 -7.3227855632810324e-01
    8.0522468125453252e-03 -7.9420981533171109e-01
    8.0345540958030853e-03 -8.0212895017769958e-01
    8.0345540958030853e-03 -8.0212895017769958e-01
    8.0902831452079830e-03 -7.7849894416152299e-01
    8.1542389479305841e-03 -7.5522868746517458e-01
    8.1542389479305841e-03 -7.5522868746517458e-01
    8.2269768914445089e-03 -7.3227855632810324e-01
    8.4692954774605086e-03 -6.7235020229085074e-01
    9.0564748108176597e-03 -5.7735026918962584e-01
    9.5139906578542034e-03 -5.2641089819164999e-01
    9.9290042579610414e-03 -4.8965914866501270e-01
    9.8389006359023510e-03 -4.9705012174770841e-01
    9.8389006359023510e-03 -4.9705012174770841e-01
    1.0686764049662833e-02 -4.3704832221970169e-01
    1.0954295162674777e-02 -4.2163702135578385e-01
    1.2376878710312518e-02 -3.5729480050524820e-01
    1.4845938375350141e-02 -2.8571428571428570e-01
    1.4439558485282104e-02 -2.9526172657404681e-01
    1.5790615823165519e-02 -2.6590801173915518e-01
    2.1946725411347526e-02 -1.8478728707195910e-01
    3.3201821476891137e-02 -1.1980845957463077e-01
    5.7234046609474912e-02 -6.8842839082151427e-02
    3.3201821476891137e-02 -1.1980845957463077e-01
    2.8822657254840338e-02 -1.3867504905630729e-01
    2.3647565938348578e-02 -1.7066403719657230e-01
    2.0579537167750486e-02 -1.9802950859533486e-01
    2.0579537167750486e-02 -1.9802950859533486e-01
    1.7680775476967069e-02 -2.3393667553251241e-01
    1.6345472005082778e-02 -2.5559075328702552e-01
    1.5293853926993794e-02 -2.7593863806958141e-01
    1.5790615823165519e-02 -2.6590801173915518e-01
    1.4845938375350141e-02 -2.8571428571428570e-01
    1.4068848824073676e-02 -3.0460384954008574e-01
    1.3127116801801441e-02 -3.3158353997003165e-01
    1.2376878710312518e-02 -3.5729480050524820e-01
    1.1955081314816349e-02 -3.7387825055298302e-01
    1.0817133636141474e-02 -4.2936877145344582e-01
    9.7525480876356537e-03 -5.0441834802323082e-01
    8.9467336753928702e-03 -5.9187707451596694e-01
    8.5423003207685654e-03 -6.5759594922142917e-01
    8.9467336753928702e-03 -5.9187707451596694e-01
    8.9467336753928702e-03 -5.9187707451596694e-01
    8.5423003207685654e-03 -6.5759594922142917e-01
    8.9467336753928702e-03 -5.9187707451596694e-01
    8.3695694295304844e-03 -6.9463478354994745e-01
    9.1145245143671658e-03 -5.7008771254956891e-01
    8.7503204787936321e-03 -6.2098382831816135e-01
    9.5902778120044666e-03 -5.1909640515448707e-01
    9.7525480876356537e-03 -5.0441834802323082e-01
    1.0686764049662833e-02 -4.3704832221970169e-01
    1.1582645202546548e-02 -3.9009474880274692e-01
    1.0954295162674777e-02 -4.2163702135578385e-01
    1.1251213327027703e-02 -4.0599897147057512e-01
    1.2859010164375113e-02 -3.4027852368936035e-01
    1.6345472005082778e-02 -2.5559075328702552e-01
    1.6970321093791953e-02 -2.4494897427831783e-01
    1.7680775476967069e-02 -2.3393667553251241e-01
    2.0579537167750486e-02 -1.9802950859533486e-01
    1.9450304594097051e-02 -2.1055872190307895e-01
    2.3647565938348578e-02 -1.7066403719657230e-01
    3.3201821476891137e-02 -1.1980845957463077e-01
    5.7234046609474912e-02 -6.8842839082151427e-02
    2.8822657254840338e-02 -1.3867504905630729e-01
    2.8822657254840338e-02 -1.3867504905630729e-01
    2.8822657254840338e-02 -1.3867504905630729e-01
    2.8822657254840338e-02 -1.3867504905630729e-01
    3.3201821476891137e-02 -1.1980845957463077e-01
    2.3647565938348578e-02 -1.7066403719657230e-01
    2.0579537167750486e-02 -1.9802950859533486e-01
    1.8497796433701329e-02 -2.2249707974499242e-01
    1.7680775476967069e-02 -2.3393667553251241e-01
    1.7680775476967069e-02 -2.3393667553251241e-01
    1.5790615823165519e-02 -2.6590801173915518e-01
    1.6345472005082778e-02 -2.5559075328702552e-01
    1.7680775476967069e-02 -2.3393667553251241e-01
    1.7680775476967069e-02 -2.3393667553251241e-01
    1.4068848824073676e-02 -3.0460384954008574e-01
    1.1763266446449396e-02 -3.8202872398020798e-01
    1.0562701944052759e-02 -4.4467978703146638e-01
    1.0817133636141474e-02 -4.2936877145344582e-01
    1.1251213327027703e-02 -4.0599897147057512e-01
    9.8389006359023510e-03 -4.9705012174770841e-01
    1.0121393866128066e-02 -4.7479840565397929e-01
    1.2376878710312518e-02 -3.5729480050524820e-01
    1.1412246316190922e-02 -3.9808283730298050e-01
    9.9290042579610414e-03 -4.8965914866501270e-01
    1.0562701944052759e-02 -4.4467978703146638e-01
    1.0224198157252526e-02 -4.6732301954611777e-01
    1.0562701944052759e-02 -4.4467978703146638e-01
    1.0954295162674777e-02 -4.2163702135578385e-01
    1.1763266446449396e-02 -3.8202872398020798e-01
    1.2376878710312518e-02 -3.5729480050524820e-01
    1.4845938375350141e-02 -2.8571428571428570e-01
    1.9450304594097051e-02 -2.1055872190307895e-01
    1.9450304594097051e-02 -2.1055872190307895e-01
    2.0579537167750486e-02 -1.9802950859533486e-01
    2.1946725411347526e-02 -1.8478728707195910e-01
    2.5841963313326343e-02 -1.5541746804005230e-01
    2.8822657254840338e-02 -1.3867504905630729e-01
    2.5841963313326343e-02 -1.5541746804005230e-01
    2.8822657254840338e-02 -1.3867504905630729e-01</input_scale>
  <output_scale>
    1.0526315789473684e+00 0.</output_scale>
  <inv_output_scale>
    9.4999999999999996e-01 0.</inv_output_scale>
  <weights>
    <_>
      -1.1719048386403424e-03 -2.2903224389177911e-04
      -9.9637750405231888e-04 -5.5088375721748159e-04
      2.2039270841974236e-04 1.2144499427915077e-03
      9.9728247011042037e-04 2.0453599492093418e-04
      -7.2831549546728146e-04 -4.2920232853557353e-04
      -1.1054717958401724e-03 -1.2409612586460942e-04
      -2.1397120762249158e-05 -7.8018402384446585e-04
      6.7194088742161514e-04 -1.1208781013474275e-03
      1.1037170489498088e-03 1.0083693640301039e-03
      -2.5698247005999147e-04 -3.4383640164285737e-05
      3.0002183913935715e-04 -7.7645728251324352e-04
      -6.5397802009701264e-04 9.5527311481024093e-04
      -1.0954164450422850e-03 -3.1663012947851025e-04
      6.1523554708813478e-04 -6.3403300196013517e-04
      1.0630743572223426e-03 -2.4215284090006096e-04
      1.2150750992007805e-03 -3.7732545206526025e-04
      2.2581237915161135e-04 8.1166924113520002e-04
      1.1322676431532379e-03 5.1786688077618958e-04
      8.1904968067006900e-04 5.2277548999592920e-04
      1.2256443938238879e-03 -1.5902424652943092e-04
      -7.7027352059936618e-02 -9.1468556367940677e-03
      -8.9767238532936448e-03 -8.2046417096835848e-03
      7.1827768077662967e-03 -9.8238516413586916e-03
      7.4240596573195549e-03 8.1119683192696444e-03
      7.7836376337249730e-03 -1.0167612576397636e-02
      -9.2710350785726800e-03 -7.8590858801608678e-03
      -8.2049509427285141e-03 6.3240984225360073e-03
      4.3688130907152383e-03 -8.3062199329579939e-03
      6.6405370636629709e-03 -7.0823283789700885e-03
      8.5004480487209759e-03 -8.7009844475173705e-03
      9.0345112700497433e-03 -7.2118671477048747e-03
      -6.6348232119050150e-03 -7.4674923741119021e-03
      -8.3874789988438239e-03 7.1837364997398940e-03
      -8.9186195531046619e-03 8.4807730076611135e-03
      -7.5457438348770934e-03 -9.2711030071224460e-03
      9.1530642112227240e-03 9.3178434432666987e-03
      -1.1100453417642672e-02 -7.4993275986266371e-03
      -6.1650058494249803e-03 -8.3059589841516252e-03
      -7.4639410690063041e-03 -6.7242457673089657e-03
      8.2897993310171707e-03 7.5154418139267935e-03
      9.5257545040719774e-02 3.8681411898229580e-02
      3.0278808946428357e-02 1.9433976793949318e-02
      -2.6687924640659690e-02 1.2933941667661732e-02
      -1.9567460907855435e-02 -2.4432485069432863e-02
      -5.7458371029422044e-03 4.9137846408000833e-02
      1.7920267546613307e-02 2.6086520961709735e-02
      2.0604689321776358e-02 -2.4186247453968676e-02
      -4.7158843789661415e-03 1.5952302703115467e-02
      -5.2569095418772884e-03 2.4424562583124192e-02
      -5.0431150959652532e-02 5.0778895277425982e-02
      -2.3816312534718994e-02 9.9937726146031337e-03
      5.2424271046554363e-03 3.1183662455950910e-02
      1.7071068080360036e-02 -6.1720799816187659e-03
      4.2302523131254106e-02 -4.5280430388979158e-02
      2.1378639037476686e-02 1.7601705389496333e-02
      -3.1548221328319304e-02 -4.1175972820298092e-02
      5.1001872356195896e-02 2.0058486929011802e-02
      2.4365667242605894e-02 8.0360731065840536e-03
      2.9168363821644252e-02 2.1490099998933112e-02
      -3.6193011422727531e-02 -2.8167662587809564e-02
      -1.1410791938992890e-01 -8.5072423982514404e-03
      -8.8207386773942551e-03 -1.6383264184489522e-02
      9.0049354609844662e-03 -1.4748249973055530e-02
      1.7575536058179846e-02 7.7607381124035982e-03
      1.0167474399345863e-02 -1.0768127122578073e-02
      -1.5966431052850165e-02 -9.9007225032456091e-03
      -1.5216019480191079e-02 1.0595946597602756e-02
      8.6874545207105327e-03 -1.5707066237686942e-02
      1.0923945189228960e-02 -1.0236105006504608e-02
      9.5273400112769729e-03 -1.1630544602645343e-02
      1.1719300497898981e-02 -1.3112316792996513e-02
      -9.5282741819812319e-03 -9.7487770856837172e-03
      -1.4761706335422953e-02 1.2085469128594459e-02
      -1.0762597421651868e-02 9.9799409192678074e-03
      -1.5033446575229134e-02 -1.5347151148931450e-02
      1.0460976369096578e-02 1.0852057418343941e-02
      -1.0107638991630795e-02 -1.7139328446079800e-02
      -1.0001346753960180e-02 -1.1480356250338336e-02
      -8.2620889242782623e-03 -1.1441864136159110e-02
      1.0527150176144898e-02 8.3949282596046983e-03
      -3.5687885392897817e-01 9.7272613303274746e-03
      2.7781342284680065e-03 -3.9258265102894811e-02
      2.4659013594678435e-03 -2.3127481301176568e-02
      3.4669732516926413e-02 5.3690066629393882e-03
      1.9236822401685044e-02 1.1729331407564058e-02
      -3.0201425061528106e-02 1.0584323551240591e-02
      -2.3759564618091786e-02 2.1331025645210656e-02
      1.0110221958722016e-02 -3.5257767346195228e-02
      1.9001062566286378e-02 1.0729245522389826e-02
      -1.2369161670742614e-02 1.2234749304713034e-02
      -1.2966883217651300e-02 -2.1587836258378318e-02
      -1.7434691828812958e-02 2.1349874482292576e-03
      -3.1054585671146342e-02 2.2210368518198430e-02
      9.3885622710231341e-03 -9.4625539243843627e-03
      -3.7160631646887071e-02 -2.6628508376402561e-02
      -2.9615999027400482e-03 -8.9166760092695974e-03
      1.2940805736382205e-02 -3.9643616103627669e-02
      -7.4396208066705802e-03 -2.2501480185203728e-02
      2.1810855331115854e-03 -2.9791606756312976e-02
      -6.1459958536897730e-03 4.1375827919744865e-04
      -3.5645308976301154e-01 8.3562686778744268e-03
      3.6289012986222696e-03 -3.8628336449084678e-02
      3.6099875782179104e-03 -2.4476882323969135e-02
      3.4158904453361269e-02 4.9114960848131439e-03
      1.9389687552007252e-02 1.1943505659555612e-02
      -3.1442049392217009e-02 1.0176044567392097e-02
      -2.3565689607229774e-02 2.0924828246309441e-02
      1.1709799230284040e-02 -3.4799469125762435e-02
      1.8301319079147560e-02 9.3316516400494421e-03
      -1.4292779185689108e-02 1.2082955216367116e-02
      -1.2957298939163404e-02 -2.0197251771230253e-02
      -1.6007120667250414e-02 2.2478316743064085e-03
      -3.3044985284980413e-02 2.1515054082296779e-02
      1.0990134800253536e-02 -1.0218943048690993e-02
      -3.6666694949022138e-02 -2.6353673462371812e-02
      -3.6085835497540898e-03 -9.0153430278849846e-03
      1.4417843109061464e-02 -3.8744595343585500e-02
      -6.2298792707190537e-03 -2.2595306454137581e-02
      2.9599784662893589e-03 -2.9804813484322519e-02
      -5.0903452975018084e-03 -1.0118942757863037e-03
      -5.4410282983093194e-01 -2.1518106784700890e-02
      -2.3648841389231207e-02 -5.2858706661773919e-02
      2.7455514831488254e-02 -4.8496789238874641e-02
      5.1137110160768613e-02 3.1282635293439102e-02
      3.9966829081934926e-02 -2.1093148536072307e-02
      -4.9483024950068691e-02 -2.8715050686833610e-02
      -4.8644292311028597e-02 5.0455054848349550e-02
      2.8088283180905914e-02 -5.1379542192040314e-02
      3.5791876601937209e-02 -3.2823131001833206e-02
      2.0951978541442144e-02 -2.0763448897555107e-02
      3.0872975329335216e-02 -4.1752063417256305e-02
      -3.5654802694785083e-02 -2.6638125582615763e-02
      -5.1214828819787776e-02 4.5670067262355167e-02
      -2.0758814034347678e-02 2.2282756864330532e-02
      -5.3385034191772276e-02 -4.8444493552943189e-02
      2.5927481929421278e-02 2.1316881602678923e-02
      -2.1722490737416257e-02 -5.4435557574208510e-02
      -4.2616806820936159e-02 -4.5146841242241303e-02
      -2.5221996926782536e-02 -5.1730399469757757e-02
      2.3463093676320157e-02 2.5966963514494571e-02
      -4.3120038324550181e-01 -3.5711240255700679e-03
      -9.3320420650274578e-03 -3.3195779978024670e-02
      1.4638820371304619e-02 -2.8221372668404892e-02
      3.0818191088616578e-02 1.9340209313943802e-02
      2.4985693650682067e-02 2.1369608791256801e-03
      -2.6180153777753512e-02 -3.9783327445963371e-03
      -2.6883696116226326e-02 2.5898618765704137e-02
      1.5154660486043244e-02 -3.2070308723724239e-02
      2.0802749988553589e-02 -2.0980937647462352e-03
      -3.4827699458690252e-03 3.1379336645310668e-03
      1.8842307757456682e-03 -2.6070621806497302e-02
      -2.0481926597905861e-02 -9.0135682418518645e-03
      -2.9408235268423281e-02 2.6176551881073720e-02
      -1.8989798222189048e-03 -4.3862642554981691e-04
      -3.0765367707208325e-02 -2.7719623105208722e-02
      6.9083050243313260e-03 1.4039344964179481e-03
      5.3823867090925575e-03 -3.2924471993621147e-02
      -1.7228162445062555e-02 -2.8352804840205307e-02
      -7.9992439471071979e-03 -2.9927736690139206e-02
      7.3906117591490258e-03 1.1065079380337298e-02
      -5.5504717802646063e-02 2.3597469877237705e-02
      2.7923139827666435e-02 9.8582248188609830e-03
      -1.3711303009181363e-02 6.2394568092156658e-03
      -1.2117652588557902e-02 -6.0059643673153707e-03
      -3.2736947376119530e-03 -3.0360357520861992e-03
      1.1680574998565283e-02 1.5907503967104764e-02
      1.5020343894592295e-02 -1.7941982416870061e-02
      -7.4197903275118760e-03 8.1945941264129352e-03
      -3.7948749002361531e-03 2.1714214753745627e-02
      1.4635040851076885e-03 -2.8225907667974869e-03
      -2.0783296535944934e-02 4.4807697938288584e-03
      6.3474454200115127e-03 2.4241748241801645e-02
      9.3112938414072408e-03 -3.5606238656583516e-03
      1.6423969601960808e-03 1.3930155896762400e-03
      8.8426555733963838e-03 1.2634849753590739e-02
      -3.0866270350632413e-02 -8.0083800288686217e-03
      -2.4433715421459737e-03 9.6479063728795063e-03
      2.4590507644497380e-02 1.6357233459792602e-03
      2.7226466119238533e-02 1.0957488539934491e-02
      -3.5984453984260055e-02 -2.1613221243293766e-02
      -3.3361157729341595e-01 7.0560528766332497e-03
      3.1749344609175532e-03 -2.2504094185882669e-02
      5.3899593075151277e-03 -2.0413660036247540e-02
      1.9604983910193986e-02 9.9921568309504910e-03
      1.6640370122519982e-02 1.1912388382258986e-02
      -1.7490291718891611e-02 3.5943392752649230e-03
      -1.6572513199143032e-02 1.4818551150417787e-02
      1.1885379566885228e-02 -2.2188089205571006e-02
      1.7058573438939306e-02 6.9878482958325334e-03
      -1.1694605664799984e-02 1.2619182378012654e-02
      -6.7399593199604924e-03 -1.8050382508877343e-02
      -1.6760174085593812e-02 1.2928940670292846e-03
      -1.8867984794099107e-02 2.0515351304077351e-02
      9.9940667664876852e-03 -9.8308325917020774e-03
      -2.1496991390259991e-02 -1.8043845356381375e-02
      -3.6145663864017765e-03 -9.5814414598938621e-03
      1.3557486292605459e-02 -2.1707767880526429e-02
      -7.2565133282239272e-03 -2.2736597318226810e-02
      2.5217596087383103e-03 -1.8131116989249841e-02
      -6.3981839923511084e-03 -1.7641188938413671e-05
      -1.6815656861769987e-01 -7.1675487301223178e-03
      2.3441363967272944e-03 -6.6374239173057599e-03
      1.0473723441233589e-02 -4.5232485555867915e-03
      3.5962781176972344e-03 1.5917310930159995e-02
      5.2484096229150441e-03 -3.5698052921815868e-02
      -1.2386038260195102e-03 -1.0884667908677606e-02
      2.0477770356094646e-04 6.0910980991749760e-03
      -1.3548905904634152e-03 -6.0221687835523285e-03
      3.3092419434820669e-03 -4.1464606814774407e-03
      3.3487722170752764e-02 -3.5849273341942718e-02
      4.6029826861162968e-03 -2.9174201287107296e-03
      -1.1418630971541531e-03 7.0358751120178271e-04
      -4.0190781095735479e-03 7.1064223600154916e-03
      -3.0335408135518233e-02 3.3140481016713928e-02
      -6.1034005365532247e-03 -2.1631100528260064e-03
      -4.1763239121710470e-03 2.3277908281996568e-02
      -3.3824234238874124e-02 -6.8770593812731437e-03
      1.1239233476278698e-03 -8.9067036715506764e-03
      1.6909731203318225e-03 -7.6307061645446367e-03
      -6.8179965260101285e-03 2.2239178221126420e-03
      -7.0652267106490266e-02 2.4143649235935025e-02
      2.9097236709306466e-02 1.5525522904768589e-03
      -1.4471328450773566e-02 -3.5815542472787650e-03
      -2.9559618141529851e-03 -3.2204611845455724e-03
      5.0032505905800084e-03 -8.3754528424905897e-03
      4.0613664001978777e-03 7.5595530368001047e-03
      7.4595888932098391e-03 -9.2906536194743115e-03
      -5.9047593588044695e-04 1.0215301737419567e-03
      3.1927234711826560e-03 1.2466742331817127e-02
      8.2680368920667342e-03 -6.8219934935425499e-03
      -1.0403480947820565e-02 -2.8541911041889225e-03
      -3.8664895168300313e-03 2.6200088447371518e-02
      1.5738481019087998e-03 6.5033361543975514e-03
      -1.9717088064003511e-04 2.4929967009044000e-03
      2.5499420477514238e-03 1.9995610027067007e-03
      -3.0502208458695671e-02 -7.1001194568817566e-03
      -8.9534136485458233e-03 1.6951102516602761e-03
      1.7311634694345983e-02 -7.1604791562235653e-03
      2.7373377078878536e-02 2.4830928596692951e-03
      -3.4886606521864538e-02 -2.1978887898824784e-02
      -6.9136659288785873e-02 2.2044113261601155e-02
      2.7764659860406903e-02 2.8182830755182292e-03
      -1.2453165940119562e-02 -3.9051599061657926e-03
      -2.3505837048141726e-03 -3.6424071842254616e-03
      6.0239589212803717e-03 -8.2468916507673299e-03
      2.5570363291317530e-03 9.3913900228396897e-03
      5.7741114712996696e-03 -7.9191270105276861e-03
      3.2664505551608498e-04 7.2848516063521505e-04
      3.2338954305783825e-03 1.2273400939504171e-02
      7.0733856937922248e-03 -8.2314427557850078e-03
      -1.0413402780801224e-02 -4.1589072607609370e-03
      -2.4273976462531365e-03 2.5920700732927508e-02
      1.0409132413661488e-04 5.6054155846128545e-03
      -4.4224407143983327e-04 3.5199944009871947e-03
      1.6295354130145844e-03 2.4273831556163908e-03
      -3.1688138718403140e-02 -7.7358902360802314e-03
      -8.4912600163227249e-03 2.2452184356887817e-03
      1.6224240112447046e-02 -7.4237324507933121e-03
      2.5832179016306790e-02 3.3099532890203415e-03
      -3.4696493310291836e-02 -2.3557766688893398e-02
      -3.5488101402545436e-01 -2.3459153965864631e-02
      -1.3316257087451754e-02 -3.6047361291259086e-02
      2.0623703338755794e-02 -3.0413663710579120e-02
      3.3326346417385848e-02 2.8626782095191004e-02
      2.4066870568069196e-02 -5.2752750661955332e-02
      -3.1814427228858105e-02 -3.6753428530602109e-02
      -3.0164410547002193e-02 3.6448696868699872e-02
      1.6393666572775332e-02 -3.4379042746222777e-02
      2.1892223203666440e-02 -3.8982405117613590e-02
      5.1497860315174220e-02 -5.1675777016491217e-02
      3.8001443732710076e-02 -2.5825831678360028e-02
      -2.2380386392615442e-02 -1.5703889919798892e-02
      -3.1908778569898398e-02 2.8042705580532252e-02
      -4.1300624307735699e-02 4.5937140177169558e-02
      -3.4789950070360724e-02 -3.1203472106191545e-02
      1.3628733681753512e-02 3.5075959420728269e-02
      -5.5987672256240767e-02 -3.5217245522799152e-02
      -3.2960167941234721e-02 -3.0456157064049815e-02
      -1.5319092755050294e-02 -3.9409639670758757e-02
      1.1580490673408828e-02 1.6566716830651123e-02
      -4.5301202829183795e-01 1.5168414055447466e-02
      4.3401768309677558e-03 -3.9959328686970205e-02
      1.0568897584581943e-04 -3.3518264461032621e-02
      3.7981810061064401e-02 1.3442722758472761e-02
      2.9672876134992938e-02 2.2626254920799629e-02
      -3.5441628783663172e-02 -1.7623278667942426e-02
      -3.5538612062967816e-02 4.7095258509683768e-02
      2.1449462119466026e-02 -3.7915588462688582e-02
      2.7024790453311912e-02 -2.7344648274600928e-02
      -2.0555517115686536e-02 2.1787736103796779e-02
      2.4566605203656913e-02 -3.1026571395246189e-02
      -2.6924022739090184e-02 4.7541040735860837e-03
      -3.6341614434438951e-02 3.2913981523225125e-02
      1.7877720077681663e-02 -1.8746170697293559e-02
      -4.0007272155566119e-02 -3.5562447005247959e-02
      -7.3309619120150212e-03 -1.6528960385434152e-02
      2.1298318948544184e-02 -4.0727790197887061e-02
      -3.7551433304587767e-02 -3.4796624024622969e-02
      4.6609788590013645e-03 -4.5543871773234247e-02
      -1.0438276130716536e-02 -3.4209917433427146e-03
      -3.7698480956515318e-01 -2.0846680962401554e-02
      -2.0884459590757794e-02 -3.3557009847450248e-02
      1.8325420347709960e-02 -2.7196889978329378e-02
      3.0567126021778655e-02 1.8913245044459816e-02
      2.3432204093762034e-02 -1.9386949227169211e-02
      -2.9298234154396034e-02 -1.9032419818034815e-02
      -2.8322312788398252e-02 3.0558219257864394e-02
      1.9799110523560079e-02 -3.1616007587884236e-02
      2.3250738285481319e-02 -1.7835637527475169e-02
      1.9318660223093261e-02 -2.0461682849099369e-02
      1.7227152900312275e-02 -2.4758238590186773e-02
      -2.3949221732781065e-02 -1.9688077689508126e-02
      -3.0588708244058457e-02 2.5840645723587984e-02
      -1.8850705950568696e-02 1.9406118614402786e-02
      -3.0904240255371807e-02 -2.9645754695775108e-02
      2.0261333225071003e-02 1.8632271579008968e-02
      -2.0500756669120865e-02 -3.2237958169008006e-02
      -2.6649593046864914e-02 -2.7537600107052734e-02
      -2.0049888804373056e-02 -3.1818498741593031e-02
      2.0612341564276371e-02 1.9382414690175973e-02
      -4.5614869188783214e-01 -1.7022714933952635e-02
      -1.7460476204399347e-02 -3.6080168464172488e-02
      1.6864377507446696e-02 -3.2270006583978911e-02
      3.5003007011234689e-02 1.8762271964924047e-02
      2.4894169618243058e-02 -1.4455908966953000e-02
      -3.4982379129850041e-02 -2.2719393378577757e-02
      -3.3865943986790416e-02 3.8724802907128354e-02
      1.8807502475106638e-02 -3.4712977030455026e-02
      2.4533134776721331e-02 -2.3991399902748425e-02
      1.5708779043089580e-02 -1.3518067702585068e-02
      2.5077316173728749e-02 -2.8593785941810106e-02
